2.374001742650571831e-02
3.771927001110068206e-02
-5.157196632175080689e-03
-1.004836446131059449e-03
3.333609747927592654e-02
2.217781085900412744e-02
5.132539226912151420e-02
2.969023295512353972e-02
1.505712486904199014e-03
1.230412375943657627e-02
2.313813602568279282e-02
-2.193833235731527248e-02
-6.824051183242991342e-03
1.423304344948934062e-02
3.647346525211821178e-02
4.487827890933045877e-04
1.678217349121108315e-02
2.348274629075758346e-02
-1.566999663432478568e-03
2.595338465608221928e-02
-2.780089401941145122e-02
4.649338143076311297e-02
-2.100146368756500813e-03
1.623339636521905008e-02
1.402283818111548647e-02
4.895797061583553877e-02
-3.945684494123852595e-03
-3.476692352560642116e-03
1.393253980201953138e-02
3.285385596796214919e-02
6.539342926097325634e-03
2.632070812165008405e-02
2.035255835950717032e-02
-1.199186050852606850e-02
2.030904364907288456e-02
-2.723872696181450087e-02
-1.529911917583900993e-02
-2.758750771877973434e-02
2.248148344686608235e-02
-6.386306175579135880e-03
-2.586228375318574274e-02
-1.209596494276229256e-02
3.168875611755167521e-02
5.373480600594973851e-03
1.740737209600826119e-02
1.499699866372943349e-02
-2.585183170723228188e-02
4.750990439110790858e-02
4.481675777304845731e-02
-1.230245673961588918e-02
3.860281827146064271e-02
2.050014846029891979e-02
3.862280822544121583e-02
1.501620015980504111e-02
1.946249511394837484e-02
-2.192109874052123458e-02
1.192682654212011591e-02
1.806934205670794602e-02
-1.956870659463515877e-02
4.447772782517312243e-03
-2.634043374759515929e-02
-8.730268372840158282e-04
2.362086847044104349e-02
-2.786103118177112904e-03
2.037382864874440203e-02
2.995028565599653497e-02
-2.329507025554763272e-02
6.316249734915270475e-03
1.681699572523599057e-02
-2.202035717575839130e-02
-2.158730673678065093e-02
-2.544405080116138654e-02
1.632868100797108327e-02
3.830718625275959799e-02
2.182787628935791563e-02
-1.189210234870427714e-02
3.611570402025236770e-02
2.289815678100109303e-02
-1.257899872293945925e-02
8.877470174076763573e-03
3.265097597043065819e-02
-1.459791005990897575e-02
1.715947242600156936e-02
4.575687940031033379e-02
2.692885989801346164e-02
4.536227037602140466e-02
3.940111223572528854e-02
1.434761813862093019e-02
4.488215172761639282e-02
-1.603039843713606818e-02
3.383751850891129898e-02
1.138985268298152442e-02
1.681138549494146095e-02
6.708970423164615192e-03
4.069782511888883625e-02
7.051882280696282826e-03
3.036055953174356462e-02
-1.773471638382948315e-02
-2.038085487434759466e-02
1.641640173516217827e-02
1.731819965461810912e-02
-2.973687561369510110e-02
4.331501330335970484e-02
1.687132674518318498e-02
4.346086841694506500e-05
-1.975495072161059969e-03
-1.301592094169786579e-02
1.921265201885007448e-02
-1.080205408395776279e-02
-7.222238697359616849e-03
4.710272504507972968e-02
1.007417637586439756e-02
-2.475352688053935463e-02
-2.293113983779737630e-02
-1.288609073240628428e-02
2.563843618953420139e-02
-1.360254263398220746e-03
-1.283334664874760146e-02
-1.047473312366281259e-02
2.275711512368674277e-02
-2.979859862540799181e-02
4.003581244985805754e-02
-1.754064320545990763e-02
4.723770007882902022e-02
2.782661410573647465e-02
-2.003719956021421389e-02
-4.135892693519592836e-03
2.215696749676871607e-02
-3.769653838259145670e-04
3.082597904911124620e-03
2.724245994186283784e-02
-1.227530391039640019e-02
-2.721573698898601193e-02
1.712083522661139723e-02
-5.390626416788118699e-03
4.326447814200187932e-03
1.646502063837044366e-02
-6.848270048969651302e-03
-2.381066742360709448e-02
2.307704973769299228e-02
-2.190462020061565915e-02
5.713337943992029266e-03
2.587139945357317533e-02
-1.836055693512584491e-02
3.501154249924468692e-02
1.055054779156556870e-02
5.027493815781414188e-02
-8.601120326193459689e-03
3.158433942648920106e-02
-2.560517691219138872e-02
5.151648542064070357e-02
1.345186307619160651e-02
7.361930589229718006e-03
2.532040759791237550e-02
6.364827289077569158e-04
7.456468088334628624e-05
1.133121851367589403e-02
7.269499307102590333e-03
-4.213412571795790984e-03
8.229518806842479883e-03
4.812011785267313047e-02
-2.986285751996776289e-02
1.056526573456265453e-03
3.812219573140719631e-02
9.026463456059662452e-03
-8.885211672676996200e-03
-8.619735956164456536e-03
3.729587774045257931e-02
3.157897402647211194e-02
-1.508353082300768061e-02
4.262412472247519707e-02
2.270879124886503175e-02
-1.312306357519249511e-02
-2.894450347770697457e-02
3.881499118984439549e-03
-1.863117622580548818e-02
-2.697281145742262687e-02
-1.311926009432777540e-02
-8.633183270065916681e-03
1.110614749143243839e-02
-2.665303497156751994e-02
2.230233190175376357e-02
-8.956664138130440711e-03
-1.440740850429733655e-02
-1.344149943506174269e-02
-1.006649335262447403e-02
-3.418917762114614955e-03
2.910096026509555178e-02
2.276703009557194679e-02
3.738376563947164166e-02
9.296798509974451771e-03
1.803953252992805678e-02
-1.028136047646641647e-02
-8.225528427222085145e-03
4.663573442876017827e-03
1.136763754783390139e-03
4.715054199322227246e-02
3.467593734273360928e-02
2.741268936980129078e-02
5.060402773913742422e-03
-2.415689569569141881e-02
-5.994227449769306409e-03
2.495763292227595048e-02
-1.626243105134232009e-02
3.466371773412737362e-02
-1.737853739981670004e-02
4.111802493258860658e-02
-9.353484365071676465e-03
-1.773328628904091361e-02
2.836350093068368966e-02
1.882107785887982693e-02
1.613546594605336920e-02
3.577557033866105973e-03
3.284264168614697832e-02
1.681339694906655580e-02
3.178950232074641280e-02
3.341789965289480857e-02
-2.193238391698220519e-02
-1.651372621910341537e-02
2.788757691353279874e-02
4.724741938852058953e-02
-2.933584533412531004e-02
4.085964713937421250e-02
4.597767271133103295e-02
2.876112004083616891e-02
3.446879456039667056e-02
3.354054586217845857e-02
-5.798071965367464914e-03
3.541209844485092295e-02
-4.399620165620378442e-03
4.693521025744999686e-02
-4.191673042713700559e-03
3.076076086422774303e-02
-7.715165501099192913e-03
3.182320675351729689e-02
2.632303988532237043e-02
8.730340896662469596e-03
1.548764532075155680e-02
3.410938242602426507e-02
4.126136918873662268e-02
1.299775951137219915e-02
-1.228060609388233540e-02
3.863746534940400851e-02
-1.225510100570828542e-02
-1.462874794758960151e-02
2.731102744605545460e-02
1.648604721371819265e-02
3.041716799266460866e-02
3.918454366412803258e-02
-1.817900493002671744e-02
-1.026869665596778780e-03
1.625556054591990179e-02
2.047303886839575704e-02
2.008142761112277630e-02
-1.565730758106306797e-02
-2.376991619687779389e-02
2.772114948004569465e-02
-1.217105817372564867e-02
-2.176374832445620439e-02
2.383544210670119831e-02
9.669529377559970759e-03
-1.915425915750539054e-02
-2.242177751995130461e-02
1.142762369709885741e-02
4.539588560442171794e-02
-3.843078902797315843e-03
-5.823333910852747375e-03
-1.404736945466179138e-02
-3.365657374258283416e-04
3.154649294300136686e-02
-2.029276864519955620e-02
1.258837053002925810e-02
4.073625567426582272e-02
-2.260553136977998603e-03
-9.387000844503130131e-03
3.836504900753725383e-02
-3.430451940986444306e-03
1.087408043126025965e-03
-1.164790197389104810e-03
3.093863125577920453e-02
1.636140175847244221e-02
3.528033910095122044e-02
-2.009827956313348443e-02
4.238595759856023798e-02
2.551413370751560994e-02
-1.288517728572986104e-02
-1.773414070409260954e-03
5.069370721155246756e-02
-1.174519191715849877e-02
3.234595194938463814e-02
2.650521129032392537e-02
4.300774973269899659e-02
4.464139064010295282e-02
2.607582485538585682e-02
-1.934790959156730897e-02
-1.480975020485431407e-02
4.219864271888283669e-02
1.359318842866990076e-02
-3.231347744721493540e-03
2.439058956292404837e-02
3.616313273959205488e-02
-1.024442058590131592e-02
4.259392779572258869e-02
3.784725433800599503e-02
-1.971137169089335478e-02
3.559036730052239639e-02
1.143206389960826908e-02
-2.400985838906165987e-02
3.507595377037949630e-02
2.457530970622159860e-02
-1.093681056799294254e-02
-1.484479221067621507e-02
4.757783507183482863e-02
4.128647787979217165e-02
6.735025518875741371e-04
2.487977546223146125e-02
4.190833091817035283e-02
-5.981926587791808539e-03
4.821198334720658285e-02
-3.616810973877735216e-03
3.704591770188900290e-02
1.467276147632639270e-02
-2.224596218014180185e-02
2.089065553044834947e-02
-2.847964490557478023e-03
-3.969075387983295525e-03
-1.023745292066596466e-02
8.407269309044624293e-04
1.060791106588291829e-02
3.282441953594870954e-02
1.934519765477075992e-02
3.120341057304043542e-02
-3.091889212605485743e-02
2.371731534366737157e-02
4.303761422388354546e-02
3.848602828525246600e-02
3.774697018784504282e-02
-2.641579998381394373e-02
-1.361949072629221533e-02
2.146801236546998920e-02
-8.576990002203835686e-03
4.543416038480399544e-02
3.475937294064778554e-02
-8.990076267174750696e-03
-9.640867980149060018e-03
3.886247360336044648e-02
3.094947088206161795e-02
3.158993269528460185e-02
-2.289378444171002655e-02
2.488045248611705802e-03
1.791267907142660154e-02
5.166695686892115030e-03
3.625813556497141377e-02
-1.794689982140829435e-02
4.165688281874926902e-02
-7.162972038365132341e-03
-1.384599778407101002e-02
5.405487467394193279e-03
1.301411638863574256e-02
-6.533281330054010322e-03
3.291031192593056598e-02
-1.356187349462628297e-02
3.779079605770221950e-02
-1.746269473382396076e-02
-1.764141691635813872e-02
3.933211923790307096e-02
3.079211218509908532e-02
2.515876111627470685e-02
-2.101005195519858870e-02
4.207391448754668750e-02
-2.725112333417843702e-02
4.599324591592299921e-02
2.706692840667123540e-02
3.502954138099438619e-02
-3.444805904637878932e-03
-2.926197427852837013e-02
-1.741479328119838535e-02
3.114989055265543743e-03
-1.271822702102450020e-02
-1.230581732810245334e-03
-2.726286804236869449e-02
4.243487179642679158e-02
7.382692422002221089e-03
4.119326580105134999e-02
2.739795476904864635e-02
-2.882429223447202996e-02
2.667573245673677054e-03
2.728977861617006007e-02
2.390769728975705374e-02
-2.451196722889208840e-02
-2.754470517842512803e-02
3.686464155048072445e-03
-1.766008094542623544e-02
-2.711720243247031301e-02
-2.469793998260060020e-02
-8.852162037410663334e-03
-1.834051341591169670e-02
4.973811883803373746e-02
8.729540300048806156e-03
-2.507622608048706153e-03
8.071218565685548546e-03
3.092478979725270943e-02
-7.663597663284255068e-03
6.581809135327552213e-03
-1.837832801754263855e-03
2.683691109604555841e-02
4.292980901681205455e-03
3.587230576580404534e-02
-1.997606682620835239e-02
1.001098481406084879e-02
2.856410466442364099e-02
7.377907382811869398e-04
4.903620187135547537e-03
5.863807491982647724e-03
3.270163306964780914e-02
3.262540231047381806e-02
-1.385205575463319648e-02
-2.941184509957236667e-02
4.687225239383690373e-02
-1.746934045439141325e-02
3.990101457008192465e-02
-2.707671207405493163e-02
-6.071643148718091493e-03
3.553517230033048126e-03
4.308485623264275005e-02
2.007239371186819027e-02
4.389770050793043860e-02
1.811760419569875824e-02
-8.556838459563145122e-03
3.589385004563783871e-02
-1.816103088469248755e-03
4.670411539679925061e-02
-2.971047669797061835e-02
-8.438427461471388960e-04
6.605469581092702699e-03
-2.911475697613273225e-02
-3.041811051540718736e-02
3.641855670855758537e-02
-1.660899853859983816e-02
-3.242052928444295878e-03
2.424374456792386182e-02
2.569578648550694365e-03
-1.493747997591750656e-02
3.513918575835286995e-02
-2.013217112706465473e-02
4.892188564036979020e-03
4.638563988718652498e-02
4.060287162576576431e-02
-9.955608179511698380e-03
-5.622033059204534743e-03
-1.757855999813470738e-02
-5.201823359270640532e-03
2.699812174123652694e-02
2.734825725106162717e-02
-1.056844638277687140e-02
2.313802104416766078e-02
-7.782276700594330243e-03
6.752457078626498445e-03
-2.219606685201863661e-02
1.364846592231246537e-03
-2.873022158830351031e-03
2.400081279125475947e-02
3.402294882108804208e-02
1.907457004045125248e-02
3.887293306339328902e-02
1.744157762080066065e-02
2.538098500186951670e-02
-2.259219775741357419e-02
1.732912640784010222e-02
-1.232917352076629350e-02
-2.674889995433489889e-02
3.069012697632012357e-02
1.226019756131305899e-02
3.871175781510743930e-02
4.784759811089773010e-03
3.527305596673763199e-02
-1.401213792710209391e-02
-1.064372401224216932e-02
7.740693806253710375e-03
-2.377343969654667488e-02
1.462946158436114440e-02
3.112904465600505044e-02
1.717334392121395992e-02
-1.837761661013538952e-02
4.133345191522398709e-02
1.285613699028700756e-02
-1.335872080711890397e-02
4.612187264662308273e-02
-2.162190660504952067e-02
-9.068084963279678806e-03
-1.118165016467886907e-02
-1.954965772182697126e-02
-4.973743226376430709e-03
-2.439520635451961419e-02
-2.203808072378497795e-02
9.060665290283684975e-05
2.082642784622616879e-03
3.118492206956263030e-02
-1.189117488185451391e-02
8.314738497995166275e-03
1.397153135376740310e-02
2.344187858963183921e-02
1.131624783361608738e-02
8.758543374473674870e-03
7.592103391617111355e-03
-2.501037729664310968e-04
2.447803876462091577e-02
-6.369007345636059150e-03
-2.116665638165833759e-03
2.065415721090570200e-02
2.630093141687026015e-02
1.447007389431212258e-02
3.327566219754641424e-02
1.375866716987497696e-03
3.135532646349260127e-02
-2.719321082820773047e-02
4.638434804265947203e-02
-2.109750707151306776e-03
2.316749357478588636e-02
3.810240171040049639e-02
2.137333201295504859e-02
-2.934130324887805619e-02
4.563439856861456478e-02
2.069382266555760963e-02
2.117619281313676965e-02
3.240081288164529255e-02
-2.339445546167097378e-02
1.369239579109987962e-02
7.757330133272593263e-03
-3.083392666953415143e-04
-2.628070560502900055e-02
-1.120756347135305059e-02
2.806706263980398089e-02
1.961062878032627382e-02
4.669123959028990273e-02
1.219038767668996839e-02
2.534600174529294189e-02
-2.023313926002088918e-03
4.308485927749565458e-02
2.245451209631287373e-02
4.012513465739924595e-02
2.920924142448078076e-02
-1.978017563526576414e-02
4.074770880591636196e-02
3.918835024742726991e-02
-1.818489882287819409e-02
1.297565463284998041e-02
1.405963027961772659e-02
-2.403004445853135565e-02
-6.841072093990620967e-04
-9.882554395679206405e-03
1.250691733886238714e-02
2.947007216442644115e-02
-1.518309996008083279e-02
3.026509777255157602e-02
4.521500881934286536e-02
-1.493201171467018265e-02
3.970722041346096132e-02
-2.082088439286180689e-02
3.607389802095473802e-02
8.908830669936032391e-04
1.133169152004973208e-02
2.587287995984490635e-02
1.048935515834984594e-02
1.414125707901071026e-02
1.358893858795860070e-03
8.232789996218903283e-03
2.614557098824882297e-02
2.160046653909907660e-02
-1.268129412318750454e-02
-1.676785032694314698e-02
-2.169404140406181250e-02
-1.554848365191684179e-02
4.269649861460585172e-02
3.134062999434183289e-02
2.520552089804486279e-02
-1.937089706309626583e-04
1.119572709385902726e-02
-2.192713606744597921e-02
-1.643808759339276254e-02
1.603782384523942672e-02
1.565320229770132687e-02
1.241595729672595114e-02
-2.121442171424389733e-02
1.912451064350036145e-02
-1.906535882472443211e-02
-2.538249534270545921e-02
1.905262601201263700e-02
-2.744837009494213026e-02
-4.096973605398762652e-03
4.856149548285264989e-02
8.063395387259598632e-03
-1.956890451729745295e-02
1.057612645118064139e-02
-2.662319940942416835e-02
4.634808312921377682e-02
-1.333665803987868145e-02
1.134033565553364299e-02
2.228201391747078319e-02
-1.385638152899387049e-02
3.434934941184719648e-02
2.459596763230431637e-03
3.753549116245952916e-02
-1.594522329703719835e-02
1.669629502228038923e-02
-1.986296987810937803e-02
3.215723172123874374e-02
4.877289120280883274e-03
-1.148465146099686592e-03
-2.899394374412656711e-03
-8.794928240929908436e-03
8.807628142582247729e-03
3.749185563985370229e-02
-3.992550688594644070e-03
9.157359005768354876e-03
3.607088620365087039e-02
4.085183510122292888e-02
4.826798399050996613e-02
-8.675445986225927691e-03
5.071270514124957135e-02
6.443661511257551752e-03
4.846359765270166764e-02
5.434251778960893370e-03
3.343984496990795585e-02
3.055719197086997213e-02
3.250229080766872669e-02
4.957160702016454729e-02
2.085824538349735895e-03
1.241375063760294904e-02
-2.622711263000835485e-02
4.647484040224671153e-03
3.399535519075101708e-02
3.743526887411940951e-02
4.518757270677822846e-02
5.461376831310606715e-03
9.735379460564472578e-03
-9.580799799837421207e-03
2.215715449578722213e-02
2.525080729113469979e-02
4.948980077731380753e-03
3.826397316132196941e-02
2.171273833445911544e-02
4.093584981100792386e-02
6.973911205822312491e-03
5.333660308147534015e-03
1.186068855215111420e-02
-7.744400720439303942e-03
4.776014510777728400e-02
-1.437762787713568746e-02
-4.897241187157537826e-03
2.000490120206543238e-02
2.094805391422953356e-02
4.819379180045307159e-02
4.317369540260337923e-02
3.955876803254002733e-02
-2.203252991617672685e-03
-1.782341321352804223e-02
3.237646381055328537e-02
1.692347948014940456e-02
6.868988355103851189e-03
3.533270733961932364e-02
-1.839829165748473397e-03
1.594179084014098018e-03
1.848693959924908869e-02
4.138787033583402053e-02
1.510237695209649608e-02
-2.406879765712739705e-02
6.119176103959712842e-03
-2.336327721617137074e-02
-1.664785113985320711e-02
-1.610732630255331740e-02
4.669359703562893371e-02
4.345013845038421529e-02
1.982837512312250056e-02
2.934876220609258096e-02
-3.669174608140290603e-03
3.154738581289406180e-02
2.174773454564909655e-02
3.607824048738325629e-02
9.276626441516921603e-03
1.661236297351154079e-02
3.220415498873199084e-02
-9.100850025998618795e-03
1.297766275850091751e-02
-1.726616845538630693e-03
-1.354608848748483155e-03
1.385195260011845217e-02
3.415557989231532421e-02
2.034972490792678890e-02
4.299746230157727028e-02
3.193008778839752371e-02
1.695210595978451432e-03
7.950696397109702912e-03
-3.172372235760230474e-02
8.918311349755408610e-03
1.011672067952742310e-02
3.729627707434886308e-02
1.010607268091339231e-02
4.551718775131432387e-02
-1.395267131070276542e-03
3.575755709623761741e-02
4.400694513775219030e-02
3.779814831069347458e-02
2.969126527215231598e-02
3.876061281172912820e-02
4.897748216274547262e-02
3.240239395581514387e-02
3.047615656747009252e-02
3.189707558018485545e-02
-2.234744610580216215e-02
3.856320273153040004e-03
4.254518361676456334e-02
4.676947568143487860e-02
-2.791099879029329198e-02
-9.870877775366486417e-03
-9.217570138837252042e-03
-2.794732981028962698e-02
-1.672480688669500046e-02
4.436112860737576047e-02
3.910745224826343847e-02
2.898320045816257795e-02
4.910199526457011132e-02
4.276909015063718594e-02
-1.266916889079568176e-02
-2.673083705776951868e-02
-7.876788892487917790e-03
-2.494353863352579900e-02
3.629518690137433640e-02
-1.657078936857695264e-02
4.457187387352819219e-02
2.859692722096177434e-02
4.954602366046075707e-02
-1.488444751949987571e-02
-2.616823988636336751e-03
-1.097566318316671105e-02
-5.483563332576825780e-04
-5.117679715985680444e-03
-1.015735855745315830e-02
5.187789120418821037e-02
-2.482587122187924003e-02
4.296815648758239847e-02
3.353005584803077366e-02
5.233296441093240187e-03
4.335442913259407449e-02
1.665119949265130364e-02
-3.711302209295662055e-03
3.795893421902285080e-03
2.197201539735127440e-02
-2.136644651496649727e-02
2.835531381007256116e-02
3.854776719227361037e-02
3.116943539178810077e-02
4.553054071944423464e-02
-2.433143931564145032e-02
1.564855945086917471e-02
4.154599187487145739e-02
4.880623864945903695e-02
8.771867461140461786e-03
3.160522648983971755e-02
-1.230411544052428460e-02
1.041946127399115407e-02
5.179567603227227222e-03
-2.692057430122606065e-02
3.720036544742608836e-02
2.047561235743892288e-02
-1.475826705502965297e-02
4.374815979929191218e-02
3.557285217455771753e-02
4.169956857617126977e-02
2.580968132831195846e-02
-1.189802399972807699e-03
-1.088867398990273419e-02
3.379578658923708401e-02
-6.527805976358207196e-03
-9.164734150654650982e-03
-1.324800311443758219e-02
2.005759693877957883e-03
-1.393735313450689128e-02
3.022291666763228177e-02
-2.131469489633567443e-02
2.484000736294156818e-03
-2.067110678740493104e-03
2.052207745926300578e-02
-2.735704916464284063e-03
1.424923714564012289e-02
-3.222157934864076922e-02
-7.365428162607915233e-03
1.648802691980172722e-02
6.617046888942435846e-03
3.378450474212303656e-02
4.589512241279684185e-02
2.485695482083313812e-02
-2.972507013292834815e-02
3.103469409133593343e-02
3.585371822257231444e-02
-1.524961566542066063e-02
3.003609119195725652e-02
4.342551987350831005e-02
3.101491848646857619e-02
4.623554756791061621e-02
-2.035402342502345974e-02
4.740626146484067799e-02
3.362976948522982540e-02
4.463242310163106907e-02
-1.521355648143610240e-03
4.245603527878891170e-02
-7.737987413655505672e-03
6.615610859992494819e-03
1.881851101257747683e-02
3.895200090967922135e-02
1.244838967196612058e-02
-1.817628919252755465e-02
3.096595719504005584e-02
-9.655009928729151730e-03
3.420013920077284719e-02
2.136214322744407410e-02
1.181374143058240567e-02
1.717709625303842289e-02
5.185423657586916112e-03
1.940535904035423781e-02
4.205005739541839427e-02
1.030202156643231573e-02
3.431010324703145931e-02
3.028009115722491568e-02
-4.317556749939553337e-03
2.031268675865862197e-02
2.704338913328780195e-02
3.847275683093913379e-02
3.842529490706336759e-02
1.428531348291100893e-02
-2.213339305170435728e-03
-7.358653571722842401e-03
-2.276369238950873980e-02
-8.157785170748143785e-03
9.167181753149306750e-03
2.440405836016739521e-02
2.005108552217836626e-02
4.327538134709256468e-02
3.969782669400094555e-02
2.493792644638541649e-03
2.174706246579182628e-03
-4.475354723159429005e-03
2.803797650947664061e-03
-1.963124180090415963e-02
-2.782819455863007677e-03
-2.766774516290286187e-02
4.343780167134979331e-02
-2.352952454065736221e-02
1.594303035381858941e-02
7.473641455681256235e-03
-1.003162935546167422e-02
4.740779649183629596e-02
-1.515606068006715781e-02
2.195050936051414631e-02
2.467450320173977460e-02
-1.050404011246683367e-02
1.870248337031234914e-02
1.958562946629266444e-02
4.369281549302013457e-02
1.354654934268469460e-02
-4.631812330443816315e-03
4.188067486724409566e-02
-2.788970358400439525e-02
1.183575212281077690e-02
-2.717552174311405055e-02
4.042326853361046662e-02
1.885482202965154536e-02
1.923059195891681748e-03
4.524133490021917114e-02
-1.582342833240689764e-02
-8.070472641937541727e-03
-2.679376392604221335e-02
3.121851090279283494e-02
1.695540576215586598e-02
1.657755154639470666e-02
1.671634857566179060e-03
3.453330274470449435e-02
4.354636935470779235e-03
7.376927274012731045e-03
-9.332658316205761848e-03
1.502123773276959132e-02
4.679835290557130684e-02
-9.489193712204170572e-03
-1.442420423381493219e-02
6.862099030890436886e-03
4.959605916461254371e-02
-1.580726048193195621e-02
4.740941010187221111e-02
-1.101956419161453926e-02
-1.636754748909813317e-02
5.073119732853720310e-02
4.570027974068865961e-02
4.147467392542468489e-02
-2.727020457147811064e-02
3.571079020254508407e-02
-3.618878834858016771e-03
-6.833690921549664607e-03
3.439146661209080413e-02
-2.007393521525441260e-02
-2.463971978666135675e-03
-1.574427678971435790e-02
-2.393378434279655465e-02
2.622166135036711407e-02
3.088555322734717890e-02
-1.005116614596715183e-02
1.495069428106263892e-02
2.302078764606610081e-02
-2.304054518423579237e-02
-1.489090075285100755e-02
1.864127534528545183e-02
3.455344664040378710e-02
2.499959417918730040e-02
-2.496215004555315045e-02
4.461744539866849962e-02
-2.217663405498308815e-02
-2.289996861292700747e-02
1.813340164832250370e-02
-1.754061634713504833e-02
1.151327934947571352e-02
1.817174762186567899e-02
-1.655187074466453814e-02
-2.967344771090704714e-02
1.145535629036289506e-02
1.020011521233594315e-02
-2.373626477186092584e-02
-2.221672104643567652e-02
1.603165514244021123e-02
7.596859317267768558e-03
-1.566111206680242604e-02
2.827943357185068451e-02
-1.201302318999454902e-02
3.925564935761723800e-02
-4.429307307456754883e-03
-2.239273107435870921e-03
2.883116624713140050e-02
1.774564575422657095e-02
3.142981316720292601e-02
-7.619697686582306562e-03
4.930797599686467803e-02
-1.771073236971436315e-02
2.949091772677656445e-02
3.487139643947898687e-02
2.475869091940251926e-02
3.509100973743985163e-02
4.443351249546920179e-02
-1.900211089883196286e-02
-1.694167587453626611e-02
-1.798755513854394597e-02
-2.910726681235239685e-02
2.859547358730933631e-02
4.053509642303972441e-03
4.719630397146259981e-02
-1.708593894667652033e-02
1.769707180870406724e-02
-1.145069288899630208e-02
4.312460800696432672e-02
1.227822029383814940e-02
-2.057313489908500076e-02
4.469377086207618893e-02
2.203441938785569154e-02
1.133297787426885105e-04
-2.516949987127745786e-02
4.693658427826279123e-02
-1.579824084571843090e-02
-1.892420879960232671e-02
3.876690685629752969e-02
-8.682911470362738096e-03
9.014381159574603661e-03
-2.156824394152334796e-03
3.121649076771314604e-02
4.862793974124895308e-02
6.209203575143688696e-03
-1.347984270484901999e-02
4.641190401717691649e-02
2.739085984895632542e-02
-1.137456523223453510e-03
2.956958527260560021e-02
1.867783636891011401e-02
4.854561052309242300e-03
6.058790826384323480e-03
-1.799969742569359002e-02
1.382820224204499293e-02
3.845868757823513173e-02
1.546145035377708386e-02
2.306653755347409449e-02
2.427997941101350463e-02
3.956347267313596594e-02
3.462880374829220564e-02
2.099261979998844063e-02
-2.977512725081618919e-02
-1.471217006533644470e-02
-2.360953863235018893e-03
-3.222943036758280262e-03
-8.300324122728982776e-03
2.310092567334371544e-02
4.687693275623849853e-02
1.437650523446039937e-03
2.879277147211278462e-02
1.591422040467120602e-02
9.964925537055852392e-03
1.466501121901162517e-02
2.690150949281122292e-02
-1.557705284078527916e-02
-2.615258533394717450e-02
3.141004607866805520e-02
6.623337006077492650e-03
-1.906772219152452069e-02
2.321480735392545368e-03
-1.419832202142913731e-03
-8.321951246028348043e-03
-1.349945702226616404e-02
8.667090044047004449e-03
-1.359458759838405757e-03
2.559935589087706034e-02
1.872709320292341006e-03
-8.920881083804949388e-03
1.489559953681123677e-02
-5.932273371200504422e-03
2.348173051728752458e-02
2.734650433589983637e-02
2.910601348603728336e-02
-1.429648716068499144e-02
2.997051471918012883e-02
3.161330104610103955e-03
-2.345897097594027911e-02
-1.782374259994314730e-02
3.603539696101489692e-02
-1.702844610187229796e-02
-1.925574930251941833e-02
-2.435117495293143489e-02
-3.043749743484992429e-02
1.979105869202411536e-03
-1.940593111568651372e-02
3.284636143604671016e-02
1.839566276705990183e-02
1.970617599328402039e-02
2.828078001226231805e-02
-1.133228889685734819e-02
4.825111784757506184e-02
-1.929813958905102905e-02
6.989469488338115495e-03
-1.355713986705885110e-02
1.021204545694170615e-02
4.828367968505743041e-02
5.172203301557764220e-03
1.669540474310270833e-02
-2.702125199973721276e-02
8.639598828300842914e-03
5.995942422083394910e-03
2.786683511645407854e-02
-2.076226110704535929e-02
-1.224456285706087416e-02
-1.716121910702909231e-02
9.838388243033385945e-04
3.794969535959497042e-02
6.244617673343438348e-03
8.497771544507006641e-03
2.574965329240790080e-02
-2.442802025774958724e-02
2.131350598746481820e-03
-1.851283737293018400e-02
-2.067919004510136716e-03
-7.728469532066288561e-03
4.046121481418770566e-02
-2.050951960801880580e-02
-2.169666974927762088e-02
1.626415423851318605e-03
3.276401793788634442e-02
4.726293791964315816e-02
-1.349114860223352315e-02
1.746777292331904916e-02
-6.343862480643046656e-03
2.712409001608171583e-02
-3.007960829143296530e-02
4.571097193339591219e-02
-5.324600581642659897e-03
-1.202609977588131249e-02
-1.199921590841964217e-02
-2.665533951718915967e-02
1.435348540451765638e-02
3.187553191621555516e-03
-1.377226476318160753e-03
-6.661625294821954188e-03
4.693311845987650777e-02
1.893311779270164669e-02
6.187481773735629270e-03
-1.653165705990892673e-02
-1.656999225866892522e-02
9.644933887361472127e-03
-3.189213687138474362e-02
-5.097022308270582336e-03
-2.389007381083474955e-03
4.199102984060442204e-03
3.188279305541828063e-02
1.376364658492633744e-02
-1.462133732908010679e-02
-1.250591885345980758e-02
-1.714125186512094334e-02
2.084317117796519875e-02
1.607330720774401839e-02
1.561827418810862386e-02
4.736246749375706833e-02
2.174197198927657615e-02
8.147716240000414667e-03
-7.839128856512413840e-03
4.555252910119048093e-02
2.655576960817108978e-02
-8.532421079828133789e-03
3.323433671776834797e-02
4.610778165467829814e-02
3.835304699748742774e-02
3.345450965484660089e-02
4.909302957366376216e-03
2.819303092904151820e-02
-2.325077180133306581e-02
-2.859707609266856111e-03
-2.927701491982296483e-03
3.630939559741919870e-02
4.279871296786472157e-02
-2.164177597424128685e-02
4.776598170296680185e-02
1.533596135672542563e-02
-1.800842565903222267e-02
2.770036280191357295e-02
2.347204024769032615e-02
4.198723793987281516e-02
1.087256115672367851e-02
2.665018930607465988e-03
-3.146522600605686400e-03
-2.026326566419489605e-02
-1.028704672539143897e-02
-1.504246192726439030e-02
4.642750329525732744e-02
5.976860776263734354e-03
3.614043885989529081e-02
-2.304929305603997322e-02
4.773945612791818255e-02
-2.446507935282696278e-02
-1.353329165947278132e-02
3.172596650999658097e-02
-1.592301438161611293e-02
-2.749248909955141762e-02
1.396461983267397594e-02
-1.800154312581625504e-03
-7.331234251343639319e-03
3.683791219882555368e-02
2.884173353690976799e-02
-1.982803449357850231e-02
-2.112736423528829149e-02
-3.019156987809248904e-02
6.719043572655377175e-03
4.008923747431440004e-02
2.143770616715313937e-02
6.491618835853291310e-03
1.269057519234725179e-02
3.829470842390596264e-02
3.704874977199990732e-02
3.475127049899477683e-02
2.847021519407743825e-02
2.537315267597917492e-02
1.615313149565921619e-02
-7.507287578800394406e-03
2.772656157856095288e-02
-1.754903404289901575e-02
1.338077075570374974e-02
-1.611052704005450087e-02
-2.427027675485342317e-02
4.601328394429610169e-02
1.700480054825043164e-02
7.907581492018127961e-03
1.092271216355006173e-02
-2.200736741866617108e-02
-2.682903656634755274e-02
3.130749217794397132e-02
8.682480978075675371e-03
4.517495627810340364e-02
-1.088631457542312345e-02
4.912550083578085675e-02
2.453420766038395817e-02
1.778821124561664330e-02
-1.257449769422327654e-02
-7.433845859302902828e-03
-5.608116705715754727e-03
3.847923270238801097e-02
4.116772878007515790e-02
4.387154558159915563e-02
4.223101694605629897e-03
1.562823891723968614e-03
4.169084368523789247e-02
1.413696568792364647e-02
4.177508647944384867e-02
4.215448851023469168e-02
4.035773937315536436e-02
-2.434808227138570910e-02
3.177423485612530102e-02
-3.071105854394543672e-02
1.000692394859495696e-02
3.474246653898717396e-02
-5.836757294675204953e-03
3.532684651645734419e-02
3.247124856321347008e-02
1.528273812366331454e-03
-3.601542735529428274e-03
1.893758046736401801e-02
1.117159603133855220e-02
-1.386834109014293062e-02
3.050457619131172193e-02
-1.229055472741834992e-03
2.438192604004590230e-02
3.918698224435537836e-02
2.598985353680455593e-02
4.558194098726111448e-02
2.319202135962656480e-02
9.195850156701926813e-04
5.769949424775574001e-03
-1.120519156478929496e-02
-3.936780992333872159e-03
4.168240018832607141e-02
3.581895200483607017e-02
2.821235894842001948e-02
2.338377408151178644e-02
-1.758864682838937044e-02
-1.029542574154517984e-02
1.654227250529072268e-02
-2.929457926099697518e-02
1.432289028263659600e-02
-1.927528944444493325e-02
3.270484100571506569e-02
-9.352758756443618759e-04
4.631474844772050931e-02
1.269421246497020803e-02
4.616287696783117483e-02
3.558202011228166206e-02
1.235952536250742133e-02
2.003187872098866062e-02
-9.660314870115357944e-03
1.553382840353375455e-02
-5.534022287483533059e-03
-1.878772323561367363e-02
3.287775737436131329e-02
-1.853752105504301653e-02
-1.156068813331190270e-03
-2.043268024634762453e-02
-2.282962495762007327e-02
2.946985317379266153e-03
3.421344674370137284e-02
3.875842831138404804e-02
-2.214296238870086878e-02
7.893384618865954827e-03
2.575383721946894813e-02
-2.212105654672734401e-02
-1.949818049072228610e-02
3.350728391903294578e-02
1.886459841543015534e-02
-1.008888833063626561e-02
-1.758721982556625540e-02
1.592453383154869215e-02
3.136366552711978423e-02
1.441259857973144903e-02
3.399266394397249674e-02
-2.003235008838296846e-02
6.284769981880261071e-03
-1.502752095243976849e-02
1.873091811424791239e-02
2.598775651615447407e-02
-2.053154158875546489e-02
-3.895820171987776810e-03
2.000700750200756772e-02
2.530495209940793536e-02
-1.624438485449728603e-02
2.354506736195539907e-02
2.463611956553892618e-03
2.889939049989452904e-02
1.671957008217827764e-02
1.515062051915964068e-02
2.718172718208215766e-02
-2.612252862420059302e-02
2.083341668063634286e-02
-1.340778250042647113e-02
-2.347857619517864508e-02
5.020953847953697757e-02
4.961865600293197814e-02
4.734695510129711266e-02
5.162610916245809894e-02
-3.620275930661148028e-03
-1.892005788349656117e-02
3.118678074244819048e-02
1.129364835526146249e-02
-4.254250784494059343e-03
2.737770500485568401e-02
3.698194337387627345e-02
7.790492726822218286e-04
1.637650159885891202e-02
5.270980804454974966e-02
3.260277046079847196e-02
-1.481120209996730774e-02
3.967628784554415311e-02
-1.221439350937100765e-02
5.076362763350058399e-02
3.382042471915402970e-02
-1.653463564468562672e-02
3.738239361852645909e-03
2.223672210283077558e-02
1.182816926526843691e-02
5.159612686006539994e-02
4.730980350338682278e-02
-2.662693374562662835e-02
4.909035899703358651e-03
1.021365165639209413e-02
4.764326218860310408e-02
9.530975425025281153e-03
-2.534280830479351126e-02
1.952868166257680158e-02
2.097287843458401843e-02
-1.033640830066451244e-02
2.848847472310425677e-02
-7.844219892273952138e-03
3.200287977364525693e-02
1.448641818301153218e-02
4.456753179940790843e-02
1.612267304118986458e-02
1.831295892455192531e-02
-2.920716150844887213e-03
-1.375454237666600896e-02
-2.254539980721362996e-02
4.464455538355108916e-02
4.908349357490095211e-02
1.603175550349251327e-02
2.919537433685060347e-03
-2.444938291765344149e-02
3.766773592693713202e-02
7.279801138818070561e-03
1.821664877373885272e-02
2.150579945577282132e-02
3.183059901609334996e-02
2.429481100685905795e-02
-1.854045231570010735e-02
2.710328044907150957e-02
-2.088352722177269638e-02
4.180966109558044430e-02
3.939286766620903740e-02
-1.180838146394612778e-02
4.434796111550555475e-02
4.115783249130999279e-03
-1.755230410839783706e-02
-7.897213724006764413e-03
-5.021326218606330521e-04
5.559723110376774483e-04
-1.368642118957538387e-02
1.065679123917444467e-02
-8.331622643634427339e-04
-2.680692750684424142e-02
2.170797729893719774e-02
2.950794691141668882e-02
2.707702950746058296e-02
6.008327569973419095e-03
-8.987782598845493742e-03
1.687201519909301700e-02
-1.414542234648515084e-02
8.123055307619911000e-03
-1.724222239451683736e-02
-4.020437158564271925e-03
4.868766679526019547e-02
4.764280857557958576e-02
1.098746721687264907e-02
3.175336324713561031e-02
5.096660024233620745e-02
-2.044903853655813397e-03
4.585060105336059844e-02
-1.089552933900458931e-02
-2.132106211511424279e-02
3.722265670325447529e-02
3.485364659521861253e-02
4.474406425987658559e-02
5.083230843214685962e-02
1.438520541769155829e-02
-2.450268363806398439e-02
4.722796637365288264e-02
-1.689203657160683741e-02
1.511159827236564432e-02
1.593612731233005897e-02
-3.023325190722180034e-02
-1.527174466338768188e-02
4.163496742164556758e-02
-4.560239845450555704e-04
-2.464062080330136836e-02
1.862847898491759580e-02
1.102523631474150445e-02
4.797673824522327712e-02
-2.378444724099216742e-02
1.168123235721730060e-02
3.475544594986902658e-02
-2.247827421888604418e-02
-1.257723896946236555e-02
3.304275522933189380e-02
4.986475733709170438e-03
-9.902338820323744809e-03
3.088079572717379595e-02
-1.196731634715717668e-02
1.618254411971865175e-02
-2.414488853251346018e-02
1.562701959211045336e-02
-1.640554179832300064e-02
1.110518740741464096e-02
1.933360825252966944e-02
-2.627793678017022877e-02
1.595744561815281432e-03
-2.332027320329474289e-03
-2.241958043676545512e-02
-4.634999553414535442e-03
-7.313973367468102477e-03
-1.837189681002113217e-02
4.719596961808390778e-02
-9.154175357610537175e-03
1.504008707259370681e-03
-1.955951502983165752e-02
-2.811487194438001130e-02
3.606060398040969450e-02
-5.612373896111400723e-03
4.497254874430781091e-02
-1.499912527614398125e-02
-2.336840644991986654e-02
2.498882109751871666e-02
3.211595884846576293e-02
-1.757828647150507136e-03
3.533299022800424211e-02
-1.577229944826802344e-02
-2.139939371347764421e-02
-1.555738030722519927e-02
2.174983225313954771e-02
2.930451823269933018e-02
3.838385643124888474e-02
-2.796252199574268335e-02
-1.982505276427628735e-02
2.664710738317340247e-02
1.398150215269367176e-02
1.847082067251450133e-02
-2.174168145081355197e-02
1.481340555830412860e-02
-7.731510035165384959e-03
4.150474585665324401e-02
2.184979882737387788e-02
2.276436231897887089e-02
2.114924420423391210e-02
4.794676345234231973e-02
2.877753124919229383e-02
3.676875222523713627e-02
-9.984731593802722432e-03
-3.660088545070468505e-03
-3.153486133947737413e-02
3.500892750796953667e-02
4.537421792944449500e-02
2.002791302509476443e-02
4.475986805825460380e-02
3.393997340511197697e-02
3.784296940029920758e-02
-4.269395408400161393e-03
1.726616234832810404e-02
3.504420689969887925e-02
1.152654148296764110e-02
-8.295708177830016933e-03
-2.567288157934436571e-02
-1.834469139816082006e-02
-3.393829701653338846e-03
2.607508940814830950e-02
1.868621832596210897e-02
1.650466669811018888e-02
2.452320880599418579e-02
2.883844614050198873e-02
-9.901490541569215459e-03
1.032863680743413212e-02
1.321456961246579402e-02
2.799856613308203401e-02
-1.453919993520676884e-02
1.159911692758325980e-02
-1.411184482036198160e-02
1.935882098025502526e-02
1.579078414670771757e-02
3.750307388557289068e-02
4.347974655134997923e-02
2.867999699737951505e-02
-1.474387335398999119e-03
-4.312885741331809117e-03
4.465392599174144994e-02
1.747477369379584269e-02
2.739648323356014964e-02
-1.266720141201641350e-02
2.610638535693622989e-02
1.409758990909152146e-02
5.625022663088018876e-03
3.695603969084956808e-02
-2.849285470538581375e-02
-9.164156331589675547e-03
-4.472404581976513124e-03
1.023980656677007071e-02
4.378921903017587297e-02
-2.351261607526217157e-02
6.630610746927773427e-03
4.924623612360899336e-03
1.044212943216330652e-02
4.555878095756842050e-02
4.360415774146943896e-02
4.183526098652336211e-02
-9.039393214425830991e-03
-1.487113638730994461e-02
-6.583783704415872157e-03
3.652462208608028144e-02
4.064566306637053955e-02
2.658044283654003095e-02
-1.483737087409352923e-02
4.088720667955693389e-02
-6.683831122595261520e-03
-2.779190142471058347e-02
4.454660811080272259e-02
4.918080905341486175e-02
1.224158581031015852e-02
-1.242084805478522840e-02
-4.386845305344028167e-03
-3.764298636153226574e-04
1.465555014978228363e-02
-1.141856344667413307e-02
-2.370262136077647998e-03
-5.209754502845347426e-03
-1.356646627135880967e-03
3.690737320393753379e-02
2.842827139538333520e-02
2.328332105224151238e-02
-2.735351967049880553e-02
6.766529303414241941e-03
-1.842722468137526076e-02
3.013041503219176555e-03
4.579734894937828593e-02
4.702764464743975498e-02
2.242268804877090016e-02
-1.224954993392658037e-02
2.750417105395655884e-02
3.654587294837181172e-02
-2.444210509749889654e-02
2.934625020202809298e-02
-1.988365101946583738e-02
4.486601532801554049e-02
3.826364422671651999e-02
5.222294268859182034e-03
3.623885356803745184e-02
-2.817999725306111203e-02
5.009223556311317473e-04
2.175131649798818512e-02
4.094594496830019498e-02
4.389377313861203556e-02
3.893823156541896535e-02
-9.316252348037467462e-03
1.433673785757002758e-02
-9.462526950144243415e-03
1.325306952339595085e-02
4.906425375700556452e-02
-2.810221917756457535e-02
-1.088857501927372254e-02
-6.255432264050059601e-04
-1.916560666165094753e-03
8.897578673157014242e-03
4.878601529476638693e-02
-2.781126635769225891e-02
3.028939185363813819e-02
1.807220694425804713e-02
2.736222001065711715e-03
1.843743236569660160e-02
2.343337099088869946e-02
-1.440449970901169774e-02
4.146576245427813917e-02
-1.783539916308515133e-02
5.183011933796621146e-03
-3.484954364037919777e-03
3.551285146874967602e-02
-2.783358226859873608e-02
2.250896904850668845e-02
-1.341848489270784997e-03
-2.759422032910357689e-03
-1.983439806704459865e-02
4.745902264486144551e-02
-2.608864617334711797e-02
4.185485233795953330e-02
2.199112870877331649e-03
3.616444500758782266e-02
7.266893620611215160e-03
3.988280249603027433e-02
-1.921572961748734334e-02
-2.777093287113720221e-02
-6.257568596729854576e-03
-2.732494973595746626e-02
-5.176570412023370413e-03
3.207031561692807228e-03
-2.879052690523484226e-02
-1.869448434083020513e-02
4.845513404257612011e-02
3.736880206029223606e-02
-2.504373306771225105e-02
-3.012515293521024137e-02
-9.503584452868854213e-03
1.928948124764080785e-02
-2.144941417546314399e-04
1.180335592102107686e-02
1.990627579631643052e-02
1.823558554871307705e-02
-7.093941743122722087e-04
3.412594712484993270e-02
-7.896605806154697801e-03
2.033866818773882867e-02
-2.344475985914202393e-02
-2.028458198026144438e-02
-2.600044783165884194e-02
9.316171060758899475e-03
-3.330930001487151376e-02
2.643636822258106645e-04
-1.540840801033238963e-02
4.994122770268520119e-03
-8.865947030095435583e-03
-3.141966258599472595e-02
-3.442817012481873273e-02
-1.440576289348262633e-03
1.041877098866925838e-02
3.596408024880053123e-02
1.232279358218984003e-02
-3.774719839745335759e-02
1.215632809063064458e-02
-1.477837828792587585e-02
3.177285396797631389e-02
3.526864546004566947e-02
-1.055614169010244546e-02
-1.894621667835639026e-02
-8.508925859391103935e-03
-1.192968703752178908e-02
3.444181587985532117e-02
-1.696839641148337186e-02
1.457030952301317447e-02
2.147623827180533337e-02
-3.253038916510237258e-04
-1.763338358090297750e-02
3.019473976031693263e-02
-5.372263057093059832e-03
-6.761910691402795576e-03
7.099502949555481709e-03
-2.016927489481527488e-02
-1.186466939766096058e-03
-1.600992013044281320e-02
3.040953337511182950e-02
-1.685096051167876002e-02
1.720338756568488836e-02
2.242951307962274144e-03
2.012467191004851941e-02
-3.461942143371581071e-02
-1.682819392147296561e-02
7.516513707338716519e-04
-2.018948970267332374e-02
-1.182350930626784903e-02
-3.432833821627374882e-02
2.669982506604047165e-02
-3.780440062948243335e-02
9.845132570599313820e-03
-3.420247496718742397e-02
3.723507337715192822e-02
-3.322127604824709479e-02
2.013113802197236124e-02
7.998163778297881846e-03
-4.036146922215487140e-03
3.817042183332432920e-02
2.827086030903129196e-02
3.486056917188859461e-02
-2.904438350780454148e-02
-8.566039153263481885e-04
1.199947378202282332e-02
1.094064179088007766e-02
3.252047935831313364e-04
-6.961984012622612211e-03
-2.309244688212563901e-02
1.606202755130403670e-02
-4.598791486476437769e-03
4.103831024532065413e-02
3.848021812071218684e-02
3.494614176397944916e-02
2.213278161768966398e-02
-3.251724944330523087e-02
-3.726461574041772806e-02
1.758880438865993365e-02
8.115295850704513578e-03
-1.422031599042597114e-02
2.709437698704316583e-02
8.214998240133775109e-03
-1.063782367824349893e-02
2.592641472382710421e-02
-2.869791044272172395e-02
-2.224059115229588476e-03
-1.950975974543825778e-02
3.511307851602204350e-02
-1.949572531620107074e-02
1.163071457463710212e-02
2.977015054011137793e-02
7.307163427264827885e-03
1.680355005385072639e-02
-3.134069244425521233e-02
-1.186810132074139421e-02
7.995519205118782613e-03
-1.784466437043145948e-02
1.073851624531241842e-03
8.276133384436095558e-03
1.962272674280565732e-02
2.153267156296706508e-02
-3.015697767988101408e-02
-2.081373804347943710e-02
-2.605843126640279908e-02
-1.556970285008956508e-03
1.715747548401043432e-02
-4.017286626873469921e-03
-8.930391202124991420e-03
-9.918563224942418891e-03
2.425473111744264054e-02
-1.416238270931908638e-03
-3.104269861233687616e-02
-2.039795408985050750e-03
-2.116209605880893865e-02
-7.842828022647176274e-05
4.325477227965357496e-02
3.607599497130375976e-02
-2.903444907225613547e-02
1.133659412815775369e-02
-2.612636667261459406e-02
2.276414467266756753e-02
-1.995047633331531456e-02
-7.556572288188991883e-03
3.746323809455537335e-02
3.056789640433409810e-02
-7.770376593572740284e-04
3.530901358160394576e-02
3.280970878097470150e-02
3.650254469288964371e-03
3.123306153546847805e-02
-2.894391700548821361e-02
4.673514930591616059e-03
5.427696887298105732e-03
1.303963252118966326e-02
3.020704921865832726e-03
3.404691786856390429e-02
-2.961330086938607914e-02
3.826165555396197210e-02
2.890268613567938127e-02
2.965549505380034312e-02
3.221900336471092419e-02
1.779176658607618464e-02
-1.284049930475352798e-02
1.690530525520062693e-02
2.652988909788206104e-02
3.111122528140872548e-02
-1.561449476127104558e-04
7.159429848545872596e-03
2.425216069745741304e-02
2.252455987585182118e-02
-1.965638803372385390e-02
2.847097818539031950e-03
-3.476167812969426646e-03
3.259053423450647413e-02
-2.129939274223563439e-02
-2.159866271784311245e-02
1.944929291235001842e-02
1.343335611305536068e-02
2.274025260678805976e-02
-6.419314921179943706e-03
-2.115708999958850964e-02
-3.850736389979630969e-02
-3.290386211275675432e-02
7.314319132864585335e-03
-3.259863361364789131e-02
2.672252341764898981e-02
-8.931195296392935648e-03
-3.067695083536353673e-02
1.127196240399549847e-02
2.694452717778535178e-02
3.320743102975298039e-02
1.209676385170352537e-02
-2.773182343402553346e-02
2.302358421137596506e-02
2.115404995105356345e-02
-2.258588795343130159e-02
-3.494993862254986566e-02
-2.941733396061701859e-03
-2.556074261725561556e-04
-2.157061276899103000e-02
2.734512864635156928e-02
-2.304539503630329694e-02
1.259727825715024202e-02
1.318177746989502609e-02
-9.152216041988714065e-03
-3.638612762359970387e-02
-2.290765402044986354e-02
-1.439035338119270570e-02
-2.814161384316333885e-03
3.055214609708275034e-02
7.573046448326911130e-03
2.720535194241336871e-02
-7.904901180851638121e-03
-3.577126318961703494e-02
3.952488083428429191e-04
6.976257709106318834e-04
-7.282488613913286682e-03
-2.010910496411214693e-02
-9.964313585870521184e-03
-9.499948527820090832e-04
9.444970628409293800e-04
3.234428786654294785e-02
-5.814022041945994708e-03
1.198390403651406963e-02
2.753064077414599936e-02
1.694468898322543798e-02
2.969269707789043422e-02
-3.707792315691963575e-03
1.989487614684057673e-02
2.910789592053944497e-02
-2.091948924608458271e-02
-2.953228496967660530e-02
1.637041140904321040e-02
2.831504300357414600e-02
-3.617142964916214565e-02
3.580946811011571917e-02
3.837426811192530540e-02
-1.714447465386075009e-02
2.809050191917690075e-03
-1.784622968263222670e-03
-1.533920627989490302e-03
-2.515154454591948460e-02
1.239844334506715398e-02
2.774604844503211765e-02
3.294010262167187952e-02
-4.237749919553886017e-03
1.813648954037098276e-02
6.561657920332650620e-03
-3.317416232302371204e-02
-4.035628381526894237e-02
-2.638257220471030076e-02
-2.240097289917758819e-02
-1.505530892773868264e-02
9.308270189333642947e-03
3.589456960368138383e-02
2.638048403601843395e-02
-1.682756047794145560e-02
-3.611671077694163928e-02
-2.998145403726701005e-02
-1.083565403083988285e-02
3.242889850509223047e-03
3.434890044790446864e-03
1.602074834580963138e-03
3.596924155282357760e-02
-3.322786609502563493e-02
1.185457281674880126e-02
3.297722704824535001e-03
1.361774784909707166e-03
3.168589357162231168e-02
1.132803223247843757e-02
-3.528459457826349510e-02
1.713459723348833424e-02
2.135915744392465759e-02
-1.905487838395604830e-02
1.628025113197924256e-02
3.573112241220123553e-02
3.341151905355388418e-02
-1.680897075805271035e-02
-1.579124108986222977e-02
1.325427219032654542e-02
-1.351316041002229018e-02
-8.545990014559341416e-03
-3.850594034970424712e-02
-3.561304076803745167e-02
3.273208882810926812e-02
-4.464451856226561363e-03
-9.376095529592015296e-03
1.219239658760878572e-02
-5.563094577916100590e-03
4.050479025926078530e-02
1.219326240238138501e-02
2.259419271321894129e-02
-3.105164334248922825e-02
1.387762041329781981e-02
-2.178049874357359389e-02
-2.700838367077882177e-02
2.232362206461236190e-02
-3.266607808957611159e-02
1.022373670742818090e-02
1.014042190762645419e-03
-3.299447621666148911e-02
-2.878171097741445694e-02
-2.558645733899289620e-02
-1.178000702003787620e-02
-3.992335777687465448e-02
-7.799849402465849901e-03
4.286897576600574161e-03
1.622157835276266669e-02
-3.046839451403947699e-02
3.459004518115640914e-02
-8.378466862945001259e-03
4.120260871591872875e-02
-3.671734166225815860e-02
-3.439417572593849587e-02
-2.981642444203685266e-02
4.053594216094103669e-02
2.235992056978349657e-02
1.431413790486502080e-02
2.834962029030699618e-02
-2.624143157743345084e-02
-2.850602704390597236e-02
1.847562453867551344e-02
-3.043455039200056167e-02
4.347567770310073465e-02
-2.701857414386651945e-02
2.302852165329335316e-02
-1.132850209815347738e-02
-2.516958425616902875e-02
9.902189230421932012e-04
9.723176862935285769e-03
2.077198519646610703e-02
3.969835366366922247e-02
4.032029823902588683e-02
3.375457255303368487e-02
-3.278231807502411665e-02
4.323084579834211849e-02
3.189832549412384421e-02
4.121362819706306940e-02
4.241948370606737212e-02
-2.634570138550448165e-02
2.504767657684731086e-02
-2.011194318407833956e-03
1.991354529354871783e-02
3.512906735007277625e-02
1.370664288908416024e-04
9.758090497827583273e-04
1.992803234283825869e-03
3.240125007337842089e-02
-2.826591238546583354e-02
2.395337593816799365e-02
1.815822687031798388e-02
-1.857660470894866370e-02
3.717540727542927026e-02
3.436880447852681819e-02
-3.825475871675523137e-02
-2.548657812668391094e-03
1.965678731405245960e-02
-3.399735235442534476e-02
-2.991321991863312227e-02
1.306737686869956575e-02
-2.589921984789723269e-02
-3.129479241405674211e-02
-8.200276456074377315e-03
4.227279150712554001e-02
-3.379894166492826424e-02
-1.042295893043553370e-02
1.828979911119934165e-03
1.168357039873200824e-02
-8.427790504142856909e-04
2.799560123183255853e-02
1.761470285777298056e-02
-8.599917009615988886e-03
4.034463399603568229e-02
3.869393936032874959e-02
-1.062292608688458762e-02
1.657983092960832461e-02
-2.015746303614852214e-02
2.014326233119031334e-02
-1.651650509490651397e-02
-3.018046086366597824e-02
-5.905082793393386445e-03
1.740539286874338842e-02
-2.216306176376382081e-02
8.030628980002044517e-03
-2.123038576603801866e-02
2.761763030184885559e-02
3.667415247489110713e-02
-1.033232353048555915e-02
-2.417133018749843820e-03
1.980487915673044552e-02
-2.996828356060287149e-03
1.148698372357324915e-02
3.025202207778987518e-02
8.149213571813846910e-03
-2.664330409476570877e-02
4.172800812269904236e-02
-7.543972775221059572e-03
1.671380883930917438e-02
-1.966342812975585552e-02
8.587999787854041361e-03
2.459584795380210381e-02
-2.018564434395478044e-02
2.442592123709232815e-02
-3.795521235707113167e-02
-2.378751006002188112e-02
-1.185835355059258051e-02
-2.722005774236217063e-02
1.100753659223686898e-02
1.551190891359468735e-02
3.726591925419701912e-02
-7.490662445272763467e-03
-4.582466420994215500e-03
-2.764598266422184369e-02
6.105325325825482034e-03
-1.179387998279813818e-02
1.584504587559050276e-03
-1.859488574118798795e-02
-1.600941227741813945e-04
1.364033316379021157e-02
2.581522921826473471e-02
-3.672921712942445183e-02
-1.880450294942026188e-04
7.562089930374040099e-04
3.089529191450200718e-02
-7.834946161159907219e-03
5.018437829476743092e-03
-2.382605393131764782e-02
-1.859651834469007101e-02
1.046819031685832478e-02
1.265862092464279179e-02
-5.555523273866391949e-03
-1.143317166317359829e-02
-8.021465332011595492e-03
3.942076505040063850e-02
2.960506254149187361e-02
-9.490107111007155954e-03
2.142407972848103803e-02
-1.764512467855609140e-02
-2.466330310799319178e-02
3.980047592118880762e-02
1.292911625114717689e-03
1.708907742400555055e-02
1.087625288893087974e-02
1.507313878674237592e-02
2.849695353693543209e-02
1.506393582145762813e-02
3.619968242650712514e-02
2.926073208063512468e-02
1.050241570598335790e-02
3.413728616304254060e-02
2.398148239115128338e-02
-6.316558458118244623e-03
-1.860301703265284171e-02
-1.621120888089829654e-02
1.415114590071219793e-02
-3.033252912302382420e-02
8.047254077651199919e-03
-1.142746355620477723e-02
2.344017797730342870e-02
-1.496917159027827317e-03
3.337918511036622182e-02
-3.478290374643372429e-02
5.777836972956059206e-03
3.615663304957008467e-02
1.259385894243438171e-02
-1.660878059349828531e-02
3.704011768809305216e-02
2.585283296416736321e-02
1.683321644226035835e-02
2.969866967893526263e-02
-1.080380984277978448e-02
1.217742719651628350e-02
-1.564237485560255204e-03
3.142659859307350007e-03
-1.437155731445561441e-02
-3.601112389120506713e-02
1.134328999304997504e-02
1.696846955029706130e-02
3.428269357355755859e-02
3.010649032008243936e-02
1.245205638751609861e-02
-1.641609255720408861e-04
-1.948487862095047915e-02
-3.606576642643160441e-02
2.491924299145582139e-02
6.470000602800143191e-03
-1.867622887159703371e-02
1.637167818608724693e-02
-4.791517265352409662e-03
-2.039157634596465863e-03
-1.798125515099609911e-02
1.186681373236168902e-02
-2.940692290024102262e-02
-2.707047565384099880e-02
-1.016896509940314920e-02
-3.071489997243960490e-02
-2.597828034553085336e-02
3.404287825273960566e-02
-3.727087868741673672e-03
-3.560821492243998465e-02
-6.127155691591395711e-03
1.381500841803967421e-02
-2.644969927750187924e-02
-1.392486906930131413e-02
-3.489077990871367052e-02
2.160907291499350111e-02
-1.423602678665400814e-02
9.088519262445821784e-03
1.819866407045519965e-03
-2.798372791252794894e-02
4.392778370553743032e-03
-1.218374186197748732e-02
1.437380530056044624e-02
-1.380882017519553633e-02
1.513965612431358854e-02
2.557296402054243245e-02
2.404091131366678513e-02
-1.866671429272774574e-02
1.645823851396236576e-02
-2.374966692902770460e-02
2.298701315949686422e-02
3.712022856045542329e-02
1.630854073386564865e-02
1.665497436364463818e-02
1.185354935132482482e-02
3.360624167731128022e-03
1.967702596333402790e-02
9.849707105818531969e-03
1.925453553842997739e-02
-1.104432707412323668e-02
-3.417933842579475717e-02
-1.914374154048465587e-02
3.486266953539867569e-02
1.007760622644318649e-02
-2.207077103665112516e-03
2.734253877857079074e-02
4.238473599221000143e-02
1.516393454882147829e-02
-3.230374707441178300e-02
-2.585666167180786582e-02
-1.580722203982067031e-02
5.023611283351119353e-03
2.914413199465808527e-02
-9.196793344164944789e-03
2.372472735178866518e-02
2.081295061642130309e-02
3.526245234938701206e-02
-8.715944730570255108e-03
-1.624885752042075707e-02
2.480477824460209854e-02
4.194862547456906787e-02
2.011164655579558355e-02
4.138050577263278212e-02
1.750948749143210748e-02
-1.260384341076541126e-02
-3.349410824032618764e-03
-1.589618047543794183e-02
-2.541840356849823027e-02
1.755693338029979539e-02
-1.344783653338769286e-02
2.290242821266469386e-02
-1.738243903200211576e-02
1.894308755382782816e-02
4.144200247601157600e-02
3.023624885677857893e-02
-2.427338081261203040e-02
-2.634894400670875075e-02
9.285551046802349717e-03
3.185715045024065106e-02
1.316463112720302545e-02
3.665685125207943790e-02
-1.432078704196890900e-02
-1.639780826660970983e-02
-1.289797143007741231e-02
3.149894099071166159e-02
-2.188159797074170493e-02
-9.994592807738279100e-03
-2.070348860771882571e-02
3.339418040832876911e-02
-1.941830107528310853e-02
1.906517815336146449e-02
4.093554372165930655e-02
-2.940418872767709690e-02
4.127891763464681951e-02
1.911634871424183063e-02
3.894959728951100097e-02
-7.437998554032414916e-03
-7.550730527073650639e-03
3.032092926558140750e-02
-3.393185105017014480e-02
2.692526899340939514e-02
2.303350789367107979e-02
-6.562222257645259228e-04
-2.383696613143428816e-02
2.739451417737636188e-02
-3.380813487284717658e-03
3.146081689680503557e-02
-1.985475791398183532e-02
-1.788873382512429569e-03
-9.375048401176816135e-03
-1.055507787814958381e-02
-1.522364534950624085e-02
-1.010736630086369291e-03
-3.307709872479674962e-02
-2.893600745050100079e-02
7.704528460027297056e-03
2.713267087517658854e-02
5.373143841145254507e-03
-3.443505060353250352e-02
2.358131949876282954e-02
3.902701623519545197e-03
9.767887970783839871e-03
8.597072489918557853e-03
3.339924885807613736e-02
-1.230329896372903478e-02
2.306109782555201479e-02
-2.329339091630219793e-02
-1.414437807262068983e-03
-1.343060955320220934e-02
3.656050051766018827e-02
9.221355198307626053e-03
3.273756692032984972e-02
2.290436545277990676e-02
7.135382345619298815e-03
-3.750695869176871172e-03
-2.815424885988775106e-02
5.626887438015602642e-03
-2.686373681687163201e-02
2.859148541066216381e-02
-2.747480030743475188e-02
3.900706146976049005e-02
3.419053390168838580e-02
7.794730712338852549e-04
1.490187235746135959e-03
-3.528108830568142673e-02
9.627919801939563774e-03
2.078326540360750374e-02
3.076151901896383156e-02
-3.626520850953114661e-02
-3.165487776888836063e-04
1.174136252106160877e-02
-2.049205546612819021e-02
-2.838480702433453934e-02
-3.202902259796788775e-02
2.548492418764448930e-02
3.023703355330439879e-02
-3.420284627836179397e-02
-6.362269573658778724e-03
3.931854255101402060e-03
2.059025917236250586e-02
-2.156956793641921777e-02
1.640291416442603289e-02
3.198734560501160368e-02
7.846007532673073513e-04
2.593593205500010004e-02
-3.742897735887555123e-03
3.608572469723274334e-02
-1.233933096272701868e-02
2.705207169383946550e-02
3.485501223008562882e-02
3.052543769084493236e-02
-6.618326993712186218e-03
3.554227541143307328e-02
-2.399054089261995135e-02
2.006903784935346741e-02
-3.320983862240550234e-03
1.277032548180070774e-02
-6.545643273634862459e-03
-1.822358024623655162e-03
-7.472089301885047677e-03
-2.191023453662430814e-02
-2.652433386160969742e-02
1.096415863607859377e-03
3.018573739765449074e-03
3.724899146318216836e-02
2.009157808580280466e-02
3.062798735190304725e-02
-3.178365561250673377e-02
1.310980562500868932e-02
-3.931206106660902616e-02
-1.789136789632167143e-02
-3.405137282634652929e-02
-1.025718835728704412e-02
6.967163224258981352e-03
1.133089170344895799e-02
2.924838594263351466e-02
2.947837129614561472e-02
-1.420680435403981132e-02
3.453526708238825738e-02
1.579706283002517853e-03
3.736193401563335514e-02
-3.832832955792976441e-03
3.221907013909763168e-02
2.932343554960839885e-02
4.397398307640265624e-02
-4.246601492290982306e-03
-2.940754634803955520e-02
-3.645391535684613937e-02
1.647514782244468429e-02
3.896747417903905636e-02
-3.170314229406431816e-02
2.929823014601418835e-02
-8.931943085136296798e-03
-2.039624408707438330e-02
-1.992785487980511944e-02
-2.519633805106622632e-02
3.880023506628101776e-02
-1.461743567400457938e-02
-1.707162860100304783e-02
-1.488038698446979627e-02
-2.568067508125661605e-03
-1.142617950273709486e-02
2.730970345379321942e-02
-2.826080101040726912e-03
-2.603369181223577286e-03
-2.674602826044314430e-02
3.531507019352944643e-02
2.611514028503221507e-02
1.725936622055077030e-02
1.477925197910073297e-02
3.066773143329713444e-02
-1.216728604341012904e-02
-7.089005217714484247e-03
2.292993960958756780e-02
9.230614140853903027e-03
7.743896084381374396e-04
-9.153588904925144196e-03
3.575993183789992480e-02
-3.224349211068908150e-02
1.281231839361652268e-02
1.490563663870087159e-02
3.106470858764839513e-02
-2.189404626445328947e-02
-1.769891539784258089e-02
4.046322708276714475e-02
1.725313302006160898e-02
3.876600361736572825e-02
1.694157111215155442e-02
-2.147331676020754199e-02
-2.725739391872623874e-02
1.106570450835103400e-02
-3.809012882844239195e-03
-8.198717148920696418e-03
-1.668636861088795137e-02
3.817199532720867705e-02
7.162847928552282771e-03
-7.621047623219017776e-03
-2.941663306491596949e-02
2.367620380567325017e-02
1.869501056332661818e-03
3.077610040005147179e-02
-3.469630202316556500e-02
3.982296975162712832e-02
-2.483947098156409627e-02
-1.291123422045963205e-03
-7.431049815896777558e-03
1.049564549673191217e-02
4.232593938432664682e-03
1.842535135469643842e-02
-1.736388830028828822e-02
-1.233902140944502859e-02
3.391839049744335005e-02
1.536506562322904803e-03
-4.628607207551834087e-03
-4.539457996465311521e-03
3.434786890854041319e-02
-2.162224767662335873e-02
3.064091559483887728e-02
3.285360888171906524e-02
-1.379715891610616176e-02
-1.228136443712017807e-02
1.430997977293539496e-02
-5.116394934522689938e-06
3.534467336086598299e-02
2.036542801134441638e-02
-1.632688084114327157e-02
1.090761568792261889e-02
-9.684041962440374796e-04
-2.292537768423762862e-03
-2.806739573316723718e-02
-2.857107205435806610e-02
-1.743874801256310725e-02
3.153650253261865155e-02
-2.935342697210282722e-02
2.836593170688618895e-02
2.919027482262250700e-02
3.705509708135694413e-02
-2.981986512353360097e-03
3.941006917296706324e-02
-1.534637366301687227e-02
-1.254062744884931746e-02
2.595779423905195116e-02
-1.252837212703814852e-02
-1.644026791088143424e-02
-1.020359996453324911e-02
1.394719888102178770e-02
1.858783496335406071e-02
-2.431043432970624984e-03
9.092811350881867954e-03
4.002795786070407341e-02
-2.643284457935106413e-02
2.142446627371709031e-02
-2.866630769192155329e-02
2.208278129182811994e-02
1.700068601205313289e-03
3.668434460588854140e-02
-2.586204284668477960e-02
-1.116713085292476287e-02
-3.422414269914830429e-04
3.106833501057404065e-02
-4.433202145404050581e-04
3.418545936146420022e-02
-2.741020903568902947e-02
2.034915902093619583e-02
4.088678830544470455e-02
-2.473465493039978674e-02
-1.269195320130644955e-02
-2.238827093322866627e-02
2.952584593125452683e-03
8.278960000784418675e-04
3.749839523935116683e-04
-1.281669963606817814e-02
1.929921319964730819e-02
-2.815365660935131853e-02
1.657240236650937143e-02
-2.256370373311731431e-02
2.616041838023462976e-02
1.910490370433075985e-02
3.374922333797433088e-02
2.600002866719395428e-02
-2.538583166973221866e-02
-3.081124283100208569e-02
3.080321646041287581e-02
7.387772963372968987e-03
6.604839463309066828e-03
3.246893808464848541e-02
-2.456380627418631134e-03
-3.812304589783212933e-02
-2.094434335885556747e-02
-1.961503216472877675e-02
2.437088129569950704e-02
1.853455595951859075e-02
-1.462917742463499919e-02
5.083846823736195078e-03
1.527334093659560819e-02
8.304756421857392712e-03
1.433957968534388394e-02
3.960921965215392915e-03
1.679658990456771306e-02
3.782761818128004688e-02
3.038852220556249872e-02
1.903818270627427589e-02
5.344990122838312423e-03
-8.962244074904021640e-03
1.521648893971071746e-02
4.047509246319579146e-02
4.577535929117485837e-03
1.464979809657977056e-02
-3.156556415688981099e-03
1.254715008427938205e-02
-3.275188308315501312e-02
4.854159454998530424e-03
-3.356890543186388798e-02
4.176044315738754176e-02
1.547432159198695867e-02
-2.853844988577441608e-02
-3.710973940088430068e-02
1.974078910235500112e-02
3.995213229792640708e-02
-6.835815934395673976e-04
-3.333158737120430620e-02
-9.262710661348488948e-04
-6.105786005488766759e-03
-1.767757684842614918e-02
-1.346177218736737194e-02
9.611524576542792436e-03
3.436523734029407751e-02
-2.697645832919886959e-03
-3.225730989364308798e-02
1.810731818447297928e-02
3.908403892270062574e-02
2.064907142379925759e-02
-1.788513946137069988e-02
1.600731705008102274e-02
-8.529379151690689650e-03
2.465773497074131432e-02
-2.989957420127053664e-02
3.858948711831653583e-03
-3.065012721129882142e-04
1.913611699635611729e-02
-3.280596434794982863e-02
-1.309255038117934297e-02
1.463341886426984192e-02
1.882668720920110256e-02
3.387461145076839895e-03
-2.032531249167728385e-02
2.315448203091960422e-02
-1.024245124286285100e-02
-2.584316125426893221e-02
4.226070535592490324e-02
3.605309882378099351e-02
2.908594101521909045e-02
-8.996414974108647364e-03
3.422098947260672486e-02
2.492812979730690826e-02
2.792188081085174300e-02
-1.150460897313401037e-02
-3.002994410890831925e-02
-2.727954646268806668e-02
3.762574620137357218e-02
-1.622875642964601017e-02
1.151204958983607918e-02
-3.359580400910380793e-02
2.972797592256393867e-02
-1.528731847304492034e-02
2.924479834369127229e-02
2.301689257810618505e-02
2.411396046994578046e-02
6.854014735217838286e-03
-1.372138982259469772e-02
5.843977077190570975e-03
-1.544259465461748568e-02
-1.856028849683395709e-02
-3.155274142859688935e-02
-2.050318883011552698e-02
2.836285517688410390e-03
-3.549921217795084377e-02
-4.445966226396967994e-03
2.932818395225494229e-02
-3.906523037599658049e-03
-1.635058754994926644e-02
-3.315786638218731069e-02
-5.474323251303827263e-04
6.331184474894864002e-03
-2.927987280934350039e-02
-1.087867200575248425e-03
-3.452830077111085361e-02
2.172538718356574125e-02
3.832315222012548650e-02
3.854081146936479130e-02
-1.659258906505253761e-02
3.811975670517551984e-02
-1.547500303995630669e-02
-3.535231535131771324e-02
-1.147310252091905680e-02
-7.859832368966829935e-03
2.846318563681801694e-02
-1.189560661750103422e-02
5.526205699958212231e-03
-2.116111866533958857e-02
-3.410603962683574075e-02
2.507340634181308772e-02
-3.052524250947001930e-03
-3.203701710464655628e-02
-3.287375044704451965e-02
2.808999971660502276e-02
3.432417795086890530e-03
2.884031079669147589e-03
4.465524007747457419e-03
-2.303025445508225313e-02
2.387295589566657342e-02
5.524125267839345710e-03
1.026729073467576520e-03
2.508261309409960671e-02
3.150388937327462668e-02
-2.456645159881140975e-02
8.947268378121096474e-03
3.790182648404746835e-02
2.527544056243018113e-03
3.410268683308265852e-02
4.407837565967739207e-03
3.372269602203301075e-02
3.360810592055186660e-03
2.473982074065387768e-02
3.013946947276802818e-02
4.267257232993661685e-03
2.673392073845464942e-02
2.864903622004707703e-02
-1.168052900821421602e-02
-1.110069657190236939e-02
1.764672953775187417e-02
1.658174720100880073e-02
1.694797658435826665e-02
-1.425922060542812383e-02
-3.651032179791304649e-02
3.044888455282668705e-03
-1.771062468064646053e-02
-2.411524271263787086e-02
3.607709878822143446e-02
-1.486696792948478431e-02
1.840265241212619756e-03
-2.692091357279039268e-02
-4.232121276041654959e-03
-3.496087948321745936e-03
1.086471457425962871e-02
1.693701206596864156e-02
4.926937784951002791e-03
1.061967523697276332e-03
-4.279790525294256340e-03
1.104581137770693430e-02
4.029797035085586066e-02
3.713239675342340507e-02
-2.861730896984832767e-02
-3.677732657258695609e-02
1.959071806916033026e-02
-1.766941299489345127e-02
3.868284592239859543e-02
3.630688135510589526e-02
2.109167298686825953e-02
1.355615777103706329e-02
2.754039552550725800e-02
-2.523404736223371775e-02
1.001143841388490129e-02
2.534883440372470709e-02
2.524376211728970171e-02
-5.354218669446941456e-03
-1.388127765534310706e-02
5.724500753468542320e-03
-2.964533639807655566e-02
-6.822054446065883154e-03
-2.305766603332713022e-02
2.885216419044387554e-02
3.085068146935404307e-02
-1.723184122943175259e-02
2.049577533038706399e-04
8.907484361623366903e-03
1.541604318487305170e-02
-3.579946440151673959e-02
2.024565569836125900e-02
-2.149135929807454576e-02
1.255914429378418920e-02
-2.684092130066510068e-02
1.351564979817819132e-02
-2.363915898428920956e-02
2.880696751882618964e-02
-3.163505151369975198e-03
5.810886316522527288e-03
3.416246833518761516e-02
1.293092804428766160e-02
2.830789502973321894e-02
6.234060600081443339e-03
2.523580453775862986e-02
-8.495870189037729031e-03
3.785759214023323715e-02
-2.856854614701756501e-02
-3.536371730365426430e-02
-3.859499002982197391e-02
-5.464553804755712188e-03
2.837232158612410654e-02
4.139485229581675585e-02
8.483031307253925679e-03
9.766885006738826400e-04
-3.525151486800546380e-02
-2.140470513412247831e-03
-1.979628121957911768e-02
-5.622038552402371450e-03
-1.247471963596872256e-02
-1.031081748619339968e-02
6.838123480254386377e-03
-2.506261431539892268e-02
1.104908450994961100e-02
9.867259469410043574e-03
2.941182454039059646e-02
-1.778983485869553571e-02
2.129052096507454139e-03
2.297951627468245231e-02
4.228431113452587979e-03
-4.118435293754228559e-03
-1.768292295008853932e-02
2.988090778960908467e-02
-2.008881795649560334e-02
1.570414805817582291e-02
3.722042815004943800e-03
3.246332925733376451e-02
3.275501213045331483e-02
3.050810961371641650e-02
-2.297435009257903487e-03
3.407461206731465797e-02
1.277703078814819426e-02
3.865124803281872606e-02
-1.611729972951221959e-02
-2.964510053910985113e-02
-3.812749371495977035e-02
1.262765891362294113e-02
-9.087380681415515096e-04
3.214646785909919258e-02
8.228744982473914366e-03
-1.980952865373438246e-02
3.047513081423163656e-02
-1.849984282088353374e-02
4.117841845501059306e-02
-3.095486359798086187e-02
2.528610540116807762e-02
4.151890394951383151e-02
3.642351814711055485e-02
-6.600947346724855662e-04
-3.900885092875450849e-02
-2.598825326564655445e-03
2.393587937486018127e-02
3.419579716397540964e-03
3.887447806947601225e-02
1.673890977985711959e-02
3.669489531553912168e-03
3.476761774527083876e-02
1.202191394174304115e-03
-1.036920840466529561e-02
2.696261724960727010e-02
-1.252003551083231622e-02
-9.626764436913818820e-03
-1.932227481751823406e-02
-5.314133327513381397e-03
9.992304009474962945e-03
-2.390370366181508721e-02
1.196810729750923119e-02
-1.127826747370719654e-02
5.303200479135212510e-03
-3.319273753105944635e-02
3.585223708157526945e-02
2.968929112751379773e-02
-3.019028053368950568e-02
-1.413283812337519374e-02
-3.862430571627540905e-03
-2.661421946742874647e-02
3.485503264945739171e-02
1.327072632876091091e-02
-1.814311119208918653e-03
4.550893699623544293e-03
-4.499845005036150029e-03
1.561452897039427440e-02
-2.151875625939015171e-02
2.577792867637421909e-02
-3.186588637057288786e-02
-2.174880924761357637e-02
3.607188147934227429e-02
4.883193731940763289e-03
4.200714349353591032e-02
-2.856779763184114085e-02
3.971802072738324016e-03
-9.672426333873666154e-03
-7.212744561058309287e-03
-3.095236149674059078e-02
1.776379454024165985e-02
-1.330126905515330651e-02
2.271198360665400637e-02
6.019154503213208600e-03
2.076061592672366618e-02
3.904532755193564075e-02
-2.126537718688104733e-02
-2.840975603908085095e-02
-3.688892128570468113e-03
-1.720724835219118037e-02
-1.655466329839692941e-02
-2.781574654542605385e-02
3.769701704189573621e-02
9.825930540820485698e-03
3.339720599946338284e-03
-1.166125904830212293e-02
1.223140888355580928e-02
-2.837349749408045463e-02
-3.823877923550296487e-02
-2.956375277349760494e-02
-1.770213986406339937e-02
-1.273703416868411913e-03
-3.872993350357636921e-02
-2.749709645284376114e-02
1.992163346380583511e-02
-2.629832091029483780e-03
-3.594044176380677830e-02
4.074316560352793382e-02
-2.609237694594208207e-02
1.049253354911846951e-02
3.334642439759222254e-02
3.158405946918370344e-02
3.214370445180229300e-03
1.695454244743290623e-06
-3.129378434804791498e-02
3.704538103725371449e-03
3.446295777005702748e-02
3.903116650958898814e-02
-2.823962006202468053e-02
9.354637363501078261e-04
2.972483873543516064e-02
-1.348862590069092871e-02
-8.104425874114390416e-03
2.588186611292181763e-02
3.058889987191339057e-03
-2.561203633032719390e-02
3.027503984800455905e-02
-1.941541904046518649e-02
1.187030857220087825e-02
2.202347573119358207e-02
8.996465672536135870e-04
1.763969048106877853e-03
-1.761053079107796279e-02
8.773151654280383210e-03
8.350724035713227855e-03
-2.052424307828934480e-02
-1.190988657473718640e-02
1.439298754659648280e-02
-1.658895985744918838e-02
9.907339821125160303e-03
3.730380085473756352e-02
2.239459594851404833e-02
-1.311822794300054797e-04
-1.064759057142209558e-02
-1.864493787480588430e-02
3.024335632056054587e-02
-1.865779305842855951e-02
-2.371581998434819927e-02
2.127977538478456609e-02
-1.803490116182610015e-02
-4.713195093382175141e-03
-2.041186895041939564e-02
-1.378470724804195871e-02
-3.864705006051335351e-02
-1.009243152389791010e-02
-2.931838652423227054e-02
3.027672296605173497e-03
2.144844365517925913e-02
3.394903880168319982e-02
-3.052780592066089635e-02
-3.766495344335789308e-02
-1.438448592865717267e-02
2.200226257114093042e-03
4.365222877701397004e-04
2.344227562782635194e-02
1.301950657383426409e-03
3.976406243861062978e-02
-3.060550371643213502e-02
-2.289936310638738051e-02
-1.747576408188148203e-02
-2.913074233218963804e-02
7.785722800589900058e-03
3.181619591595896690e-02
2.570867853018411059e-02
2.664185299534550452e-02
-3.663324196448157488e-02
-2.705502868463989519e-02
-8.045166458848906216e-03
3.370184099738426226e-02
-7.464755080302535456e-03
-2.731699185465780513e-02
-1.506852405529722147e-02
-2.669506110752032854e-02
-2.131681141250529529e-02
1.597567339293941985e-02
6.322507386755295104e-03
-4.290485675302753953e-04
-1.959094543696634008e-02
4.159275436728376851e-02
1.100609443684678890e-02
1.023454290365012880e-03
2.530688523974355258e-02
-1.095676663526584313e-02
-3.402417437843762577e-02
2.904809514077311486e-02
-3.017234785228644495e-02
-2.016812155255472833e-02
9.957794789000964236e-03
8.338588172448372499e-03
-1.946848808740497469e-03
-3.215275701165683231e-02
-1.469371426982715029e-02
-1.703136464487745635e-04
1.500806615918683778e-02
-2.717865427725804292e-02
6.464204348909691374e-03
2.215746385896701781e-02
3.966720634803107270e-02
3.877469263299333779e-02
-6.528227532246817094e-03
-2.828399611897661550e-02
1.939837585533131861e-02
2.038872843053756573e-02
-2.825824522282124190e-02
-3.419055744100122501e-02
2.977122337906546595e-02
3.414880386448197747e-02
-1.499483107522559498e-02
2.730148776437068409e-02
-3.515471901648001968e-03
-3.005179583601623808e-02
-2.230408924524415748e-02
2.585680078529281264e-02
1.306565885535226033e-02
3.784240725570259256e-02
1.776840921813846192e-03
-5.223438589088569978e-03
3.379191449971478620e-04
7.351093051221636691e-03
-1.608295553060378608e-02
-4.916561264930125429e-03
-2.968185121757957456e-02
3.821744020707649320e-02
-1.870272335748652918e-03
3.817926797353224377e-02
3.572698346673216369e-02
3.695968099720790129e-02
-1.115720628388844685e-02
3.904856720522099922e-02
-3.211245739965202378e-02
2.145417722546946737e-02
-3.305765924543190015e-02
-8.212130696851076619e-03
1.731084287642743400e-02
-1.131204424398945564e-02
1.562553988447995534e-02
3.862584062781827116e-02
-2.309425907667759376e-02
6.258106186403549973e-03
2.057391842197467402e-02
-7.841367455655849986e-03
-1.133732396571684141e-02
-3.099411635095397112e-03
1.587467771559722407e-02
7.370943790966945613e-04
1.056779096397692484e-02
2.018769670698184610e-02
5.211972375058509035e-03
3.115083043849632000e-02
-1.455860319943034185e-02
2.266810288715052912e-02
8.132793147112710175e-03
-1.157335968165567122e-02
2.179144338084171642e-02
-4.221525318225494844e-03
-1.891678621438084434e-02
3.454525481031341799e-02
-2.789726987273092457e-02
-1.631101430432620181e-02
3.050583714665495560e-04
-1.122214774350989083e-02
1.123778735916825325e-02
2.822710804077139049e-03
-3.258428792407469521e-02
2.068154358169913866e-03
-1.888163581220396806e-02
1.086889917420459824e-02
2.008670248691953042e-03
1.910892293653025653e-02
5.609457186731297076e-03
-1.760197608847876649e-03
-2.205361003120916152e-02
-1.182447109251591640e-02
1.662393982602719533e-02
-9.554000830280243856e-03
5.592358219056700261e-03
5.164273984084768142e-03
2.193026233517223617e-02
4.054731671305337494e-03
-9.206230257142067330e-03
-7.306387236523251630e-03
1.097303585037005987e-02
3.419454949302043467e-02
-3.818706518748115480e-03
-1.024669454052342527e-02
3.628170907162217573e-02
-3.942451697722251791e-02
-1.268519939334074309e-02
1.837853427671782940e-03
3.314125265767700612e-02
3.847916183641667681e-02
-3.761964056267153023e-02
-2.207224385357290861e-02
6.476580599088588644e-03
-3.454025417649447816e-02
2.538567315093356869e-02
2.123055272631740181e-02
-2.905868170185904684e-03
2.929554316231943595e-02
4.136824701972439261e-03
3.830065983339196733e-02
5.882200558650192701e-03
-2.601110442640431133e-02
1.577722446362749692e-02
-1.419985116048030557e-02
2.017200223579936405e-02
4.308013636758840394e-03
2.897306548915888277e-02
-1.554002421648479314e-02
-1.152105005027030497e-02
-9.735852677339435325e-04
-3.105763155072967935e-02
-2.874913627465553942e-02
-2.369418299847679543e-02
2.395020152843595207e-02
-6.279538487460059604e-03
-3.312661143799136565e-02
2.389120540016562849e-02
-2.415076583311161207e-02
-9.045595396015355949e-03
-4.193986171403958109e-03
3.667843339932810864e-02
3.232577098450954700e-02
-5.573785263714908789e-03
2.587572905377253166e-02
-3.512069629120830039e-02
2.132748964692010585e-02
-2.797422423410986236e-02
3.745075772550225668e-02
-2.945772360463712325e-02
2.706911744856292656e-02
8.264435636393898180e-03
-3.152762981661944020e-02
3.658484737627033800e-02
-3.704378784731265223e-02
1.729425721240180139e-02
2.868655806579993583e-02
-2.321818292176755505e-02
1.855071808782396414e-02
-1.426207167799790378e-02
1.988632236547122761e-03
-9.020522943992072447e-04
-3.176325880761354716e-03
-1.753448180203275031e-02
-1.808161392168267795e-02
7.976216196778271577e-04
2.287249878634419961e-02
-6.057111144014958384e-03
4.229051477808520865e-02
-2.878359656155107110e-02
-4.601261892190617112e-03
2.439594929720225250e-02
3.665850186431113267e-02
1.582136442089956962e-02
3.717093996442090431e-02
3.887985977479668093e-02
-1.139320813952139633e-02
2.561716120747263223e-02
-1.962406681442977006e-03
3.325293683658345212e-02
2.881842019673273858e-02
3.112489940165825975e-02
-3.222354238333692555e-02
1.135092920208549336e-02
-5.885746659911649491e-03
-4.020066116086752628e-02
-2.084433067711103510e-02
-3.320899157000912344e-02
-6.701235294170651210e-03
-9.835613188965147344e-03
3.784583868845322469e-02
3.623948669977211656e-02
3.389261493705075790e-02
1.770420947050134475e-02
-1.234764647856773784e-02
2.481853709537147970e-02
-1.605857112466995210e-02
-1.232776294324762142e-02
-2.130512320922826885e-02
5.481291899445152153e-03
-8.590615539005285947e-03
-2.788472411114325741e-02
-2.741687011423921128e-02
3.028304151731769228e-02
1.392478184698897441e-02
-7.677122480559493006e-03
4.080869880251490611e-02
-2.080865955296282155e-02
1.045896177119815494e-02
3.523009485997630197e-02
1.801248114224631575e-02
-2.494948885454131848e-02
2.450194756258531475e-02
-1.706498325206129429e-02
-6.166053138947820596e-03
-1.806264545303878227e-02
1.390540380070385586e-02
-5.086109978223589054e-03
2.180988675939810745e-02
-2.933001959205673841e-03
-3.527957742253005902e-02
-2.754519096298463365e-02
-1.334087817411514811e-02
3.105658803624875008e-02
3.211273044042765867e-02
-1.098832166135790996e-02
-2.854946528200823230e-02
3.172321961117368500e-02
8.344155794642392054e-04
-4.576259389791471725e-04
2.575637856242600846e-02
-2.023187185028600676e-02
-1.938026329159157901e-02
2.158121530614566432e-03
1.793923649981657431e-02
9.071015610492751818e-03
1.293976238461876788e-02
4.079181956117899216e-02
1.790144332623961124e-02
-1.821168176689906895e-02
6.255598107430361716e-03
3.073661509560032118e-02
4.012087864645904473e-02
-2.271641721405405837e-02
-1.887703367053379308e-02
-2.674342221609881179e-02
7.853262540049133628e-03
-3.550509490402558449e-02
-3.756562725166851663e-03
-1.683593776871908539e-03
3.390683607497753382e-02
-1.736473784921303137e-02
3.303720297306916853e-02
-1.690892931530893484e-02
3.229442194188742593e-02
-3.761311080816621272e-02
2.435149584633115524e-02
-1.501188834130211432e-02
1.698259185098822954e-02
-2.121215016395873801e-02
1.057366210832998837e-02
3.944385183753310042e-02
-3.198802155948102244e-02
-2.231263566349045435e-02
2.908329289689345898e-02
7.975616709004214322e-03
-3.330098027995463672e-02
-1.828669665965777097e-02
-9.070088837845736822e-04
-3.002814569862061189e-02
-3.840335030189131332e-02
-3.395749096031729086e-02
-3.680516410124839988e-02
-3.324460574632413790e-02
4.192761854805292926e-02
1.969935878775067387e-02
-3.003198748387546704e-03
3.380713481245584129e-02
-1.911072072479581135e-02
-2.967326151580891233e-02
-1.537594856663476381e-02
-3.927086584064989894e-02
4.233578277013933661e-02
4.479594540165548512e-03
-3.068134997917446039e-02
-3.226934020483453180e-02
7.827033205533304519e-03
-1.331211595724473597e-02
-1.701045121345266461e-02
-3.269632513316053646e-02
2.467735278879420666e-02
9.595629178716943639e-03
2.762049566392186378e-02
-9.697141470840853553e-04
2.854688578478850949e-02
2.606842213064662628e-02
-1.892896264036202439e-02
3.300028993351454554e-02
1.171405654448309970e-02
-3.931842459713434483e-03
4.690976585911177561e-03
-1.668188023450221935e-02
-1.485228428888120747e-02
1.708667177704157464e-02
-2.298654287998392817e-02
-2.194349812508834818e-02
-2.212723854851758598e-02
-1.239251157086618954e-02
-3.407326525239820492e-02
4.363013036913644671e-02
-1.042844778358463162e-02
4.449900296553198353e-03
-2.754398582527657624e-02
1.660353926603811564e-02
-3.338431667648399104e-02
2.140333488255538597e-02
1.559621629106289556e-02
2.057429369017815118e-02
-1.994034465006526424e-02
3.185773215492322674e-02
3.838116011486426143e-02
1.082713604142523239e-02
2.399769445013193864e-02
2.622246499224661909e-02
1.748515272725614106e-02
2.848516232135790693e-02
-2.028607039123256697e-02
2.893693155326263269e-02
2.776595735436080195e-02
7.707705015987071501e-03
-3.506146297635817644e-02
-1.069817471082806781e-02
1.339616916539834723e-02
-6.781376269099273664e-03
-3.102790118376529127e-02
3.439664812291244600e-02
-3.509117853855121122e-02
4.036342546349652727e-02
3.602022126887838988e-02
1.388753653570336082e-02
-6.816772782047990191e-03
1.281537869419985091e-02
2.095298823601363797e-02
-2.104935243614714652e-02
-1.233306751712397870e-02
-3.762808517971955036e-02
-1.067906990281754362e-03
1.572903617841960033e-02
-2.583367825010724622e-02
2.534086567689109587e-02
4.105844884744240531e-02
-1.907846777509008759e-02
-1.119383218468688723e-03
-3.509286989095172782e-02
-1.661717849688334331e-02
1.224887228123769031e-02
-2.276544078372146063e-02
1.408819957734899590e-04
-4.914883876072403956e-03
2.833498480568241024e-02
1.743539217236191041e-02
-2.880661605025579275e-02
-1.194407072606633660e-02
-2.522530047619781640e-03
4.570569187213385121e+00
4.655691511932034565e+00
4.860343205113415443e+00
4.346814132155194521e+00
4.425891878485987085e+00
4.623324662887168479e+00
4.818837375662995193e+00
4.822047831930208694e+00
4.452287799960187975e+00
4.498388731858617540e+00
4.242963803323612559e+00
4.324613296331188295e+00
4.411941919810104196e+00
4.572553009098727195e+00
4.781276547331754223e+00
4.627577874797522917e+00
4.989783650256250702e+00
4.657806425874977840e+00
4.385809345497157175e+00
4.730886823803939656e+00
4.138475973060440793e+00
4.699338812830111678e+00
4.663956314605155917e+00
4.447981965565650952e+00
4.749487931065091928e+00
-1.909077126525057788e-02
-1.232971331121616998e-01
-8.722006856030362076e-04
-1.773230097010612683e-01
-2.048080634581588705e-02
-5.481897006579636855e-01
4.566603825890659663e-02
1.195597624490957189e-01
-3.517447736468500841e-01
-7.088939255655372917e-02
-1.053757664829589880e-01
2.904081721973928998e-01
-3.587630771822301612e-01
-2.301907182500711677e-02
5.500072947005973240e-02
1.737008105313541106e-01
-1.782973607743313371e-01
-5.265821110490032098e-01
-1.794652598177750302e-01
2.829224732573251133e-01
-2.762328026539025982e-01
-2.613824500302335263e-01
2.522765058243566644e-02
3.133637884274341479e-02
-9.864689549987587514e-02
-1.966786387197925201e-01
-4.086116264083160254e-02
-1.403927738227033761e-01
-2.747348764120615683e-01
-9.047966838791379751e-02
-1.117724693503791555e-01
-1.222345769193864673e-01
-2.750216628926260842e-02
-3.674059508674107910e-01
-1.422256901183865246e-02
-1.380676866607120912e-01
-7.318002732456246884e-02
-1.586820158729665975e-01
-2.833130922620391567e-01
-1.491987093321759383e-01
-2.167532057263026335e-01
-2.249374627315486874e-02
-2.848259557036983969e-01
-2.020974812250189712e-01
-1.677074390541543059e-01
7.143326068020326713e-02
-1.807653002807352305e-01
7.582180465629108357e-02
-1.107431975160851068e-02
2.108431362497418526e-01
-1.686440802351844848e-01
-3.807200955153911548e-01
-2.642529221368914993e-01
-2.645358451979972214e-01
-5.381870382804630759e-02
-1.026651279780592119e-01
-3.505464843558945276e-01
-1.830026145449532293e-01
-3.927597782143738003e-02
-6.747649758768808903e-02
2.107825046867607410e-01
-8.798967170481103439e-02
-3.290673910877465747e-01
1.198961447021136273e-01
