-2.277059054397296244e-07
-2.273744206102460905e-06
-5.180079241958292571e-06
-8.026891456385226026e-06
-5.641312305000297043e-06
-6.276511334241650659e-06
5.568771537216180099e-06
4.899707046049904015e-06
1.488040086359047019e-06
4.725840390095911985e-06
2.904551804284365244e-06
-1.508773156922224709e-05
-1.165339956533825933e-05
1.112063501325778574e-07
8.543925580252486641e-06
8.180592347835867733e-06
6.622662255994311766e-06
-2.422575754503452066e-06
7.233119136778286273e-08
-4.543625273822871850e-06
-7.155434302523748687e-06
1.822388133120408015e-06
4.262931122191306954e-06
-6.447771628378842594e-07
-3.537891523107091537e-06
-1.956241635874835481e-06
2.427944485560178025e-06
2.955505330675973347e-06
-5.464281877329149953e-06
-8.780559934121320506e-06
-1.183298696748693625e-05
-1.093251146150081999e-05
-4.227456992619133252e-06
-3.477997458125367102e-06
1.013864172154810978e-05
4.267807853833109882e-06
1.380158256694360465e-06
-1.372606641607694014e-05
-4.678092565278939990e-06
-1.039426581207102606e-05
1.322046066884517788e-06
2.366276446087874595e-06
-3.869487125330727147e-07
-7.013995438062648954e-06
-7.341131476444216417e-06
1.659091502022368245e-06
-5.130190923367881472e-06
2.360398507754923273e-06
9.282860421047395717e-06
-1.638395942164458385e-06
-8.164532992498347349e-06
-4.824026282898173559e-06
-1.163983631702363757e-05
5.467897302817979234e-06
2.560191848841313501e-06
6.233757785132243868e-06
7.751727540439691620e-06
8.755254639804461222e-06
5.278516201144924959e-07
3.449889914767677226e-06
3.042266099591121875e-06
3.385485391419775208e-06
-3.226845901750771597e-06
2.368997169627836807e-06
5.617897212308216315e-06
-3.705219827138703063e-06
1.018992157538145754e-05
1.252161783334431074e-07
7.728889682220125516e-06
-2.107052427966805974e-06
5.218675413809221574e-06
-2.619073539267160848e-06
-3.491811651299553398e-07
-2.905529674767412095e-06
6.850436331370100308e-06
7.282035663383923819e-06
4.455772689643765477e-06
-5.747299866664225612e-06
-8.836312459644388769e-06
4.442719066162471257e-06
-2.250391420974382113e-06
-2.635043649199507194e-06
4.692021626798755906e-06
7.395688738137098841e-06
4.564371316638764914e-06
-3.356707756650256346e-06
-3.043037643439409131e-06
2.959139170372840789e-06
-5.277284028488591835e-06
-8.967199256269657321e-06
-5.634028670682331413e-06
6.985886965621326133e-06
4.398692878743604845e-06
2.597449210001894285e-06
-6.906278903565544070e-06
-5.637477704387725344e-06
-4.566164566974424167e-06
-5.240074620885856564e-06
5.043284634915232243e-06
3.415048062262822023e-06
-1.721811927396456245e-06
-3.069118837066889781e-06
-6.532388126776009912e-06
-6.630350991975917339e-06
5.297138301540874148e-06
1.031553475512624659e-05
7.254222085290582597e-06
7.894771359560253179e-07
-3.867893431067418158e-06
3.356488018750668038e-06
6.108310669003112932e-07
5.388734639539844318e-06
1.181425956335319799e-05
1.483085381798421526e-05
1.634381032438922930e-05
9.472471114584904602e-06
7.993139508708868666e-06
2.179644529156548119e-06
3.848359028117492257e-06
8.226901315092993803e-06
1.165563858495342626e-05
1.401127570140178399e-05
1.173504430930841485e-05
1.486216858076488826e-05
1.480462690049894926e-06
1.142342742141812598e-05
4.068977932296423752e-06
1.064697763399405622e-05
-4.569034144111261148e-06
-3.238979103060751676e-06
1.551593942986562082e-06
1.114157644834120296e-06
-2.356854271914616931e-06
4.726210164397043074e-06
1.112596774675920618e-05
1.002874918678577608e-06
-2.358617997814916548e-06
-1.009934036706131716e-05
-4.788046859226929852e-06
-1.248651485546270869e-05
-1.054341737495893220e-05
1.664961371696297397e-06
-6.398747376245759143e-06
-6.952518254842480431e-06
-1.093339154715578052e-05
-6.486234449418367114e-06
-1.241735230778415579e-05
-1.206618664014623898e-05
-1.535616190031461334e-05
-9.989429277306100582e-06
-2.379625857924403624e-06
1.659780153898614795e-07
-9.814246139794335390e-06
-4.252757998451548675e-06
-8.221391497031395844e-07
-8.699826389928146542e-06
-1.825877420965499060e-05
-7.884370980690118009e-06
6.534212513037863240e-07
-5.860253274014284516e-07
-1.387436161389029015e-05
-1.193894782265881227e-05
-1.876852040326795756e-06
-1.773784681887775232e-05
-1.413474308813785375e-05
-1.390730135141405189e-05
1.071953478864497156e-06
-3.278504858057220122e-06
-1.964109806610258527e-05
-8.636455390112246673e-06
-1.682543296219874253e-05
-1.317331106607378234e-05
-1.597999671093622851e-05
-1.738509870476020970e-05
-5.525355498436554640e-06
4.115511396914138358e-07
-7.396441841169834001e-06
-1.087572776890311822e-05
-2.286756345032929126e-05
-1.083496117955959435e-05
-1.154338622596015737e-05
-9.213339732816038397e-06
-2.953541429835248189e-06
7.841082369570333624e-06
-1.487696754360478971e-05
-1.005507982488137607e-05
-6.811712520079300955e-06
-1.070574037410448572e-05
-7.523247552034320867e-06
5.437862729574854861e-06
1.245429985453552898e-05
1.211385400669637161e-05
3.902813091922151516e-06
-7.131300529779945746e-06
-2.357106691329305739e-06
2.773863059608774190e-06
4.692690947241142090e-06
7.403520239965375067e-07
-1.808758117260978425e-06
-3.275334162084787837e-06
3.438548605073942811e-07
4.110151278589467723e-06
-4.478298816722159868e-07
1.076426278734507382e-06
-5.239820510833737358e-06
-6.497586784416143658e-06
3.540456515871231134e-06
2.928248568132355012e-06
-7.598437882863368770e-07
-6.181373963750876402e-06
-1.175293358902950759e-05
-3.803779161786391329e-06
-4.769573534364648492e-06
1.118382491364141446e-06
-1.587668338030097815e-06
2.883566934021883441e-06
-2.861852252208419746e-06
-6.027648467560819089e-06
-2.295367908686023976e-06
-1.048038297611246028e-05
-5.270732380796886406e-06
2.579265106748840092e-06
-2.652937654036569004e-07
-5.232370626681072130e-06
-4.296718021822975436e-06
-7.892002070615500818e-07
-3.474077130384545502e-06
-3.546061467078059914e-06
-3.170264378338162777e-06
9.937218487580793715e-06
1.210555576097401866e-05
1.187661550798265516e-05
-6.135167808176311861e-06
-4.400586843329354868e-07
-1.116100295224498572e-06
-1.709342677792954554e-06
-5.822839796598526518e-06
9.123856879762336398e-06
8.584541628051936199e-07
4.060876556298315294e-06
-5.173503368715659870e-06
-1.296582708259504764e-05
1.074684746561478232e-06
6.420685223563907598e-06
3.843576853356325297e-06
-1.123298495185717956e-06
9.318784914498273644e-06
4.955872325070422892e-06
8.438668312922027997e-06
-5.617833217947949646e-07
-2.230103470403073471e-06
3.326384876243995269e-06
1.302543125602736735e-05
1.150961496737280257e-05
5.537768332726663266e-06
2.662918707307775079e-06
-2.312530901327214394e-06
-5.799166839499480912e-06
3.089756780338655598e-06
-4.463070072144987004e-06
-8.516405361554298115e-07
-2.967845586006312691e-06
1.698865783136870380e-06
2.611982529377322032e-06
1.066638659927548333e-06
-6.529256421661158022e-06
-1.112062772432422311e-05
-1.611858634665083593e-05
-4.533505555840713040e-06
-8.478177482478172801e-06
-3.827155785931818811e-06
4.724450060748547515e-06
-7.864894350863879495e-06
-5.642356879494148363e-06
1.769218450374261242e-06
-1.053663046959337065e-05
-1.106870914834143151e-05
-3.715876453804769705e-06
-6.512993546616745264e-06
-5.031526404841984296e-06
-1.426231040855499999e-05
-8.102181169246987918e-06
3.156627428781600027e-06
-1.237847682941759387e-05
-8.147188983763657862e-06
6.136055705672723883e-07
-1.122256356632497700e-05
-2.609551512063599307e-06
-1.304952800815716539e-06
2.736845115807341050e-06
4.302887360181292808e-06
3.265977687469195055e-07
5.713029159054203946e-06
-7.721151853137841505e-06
-7.464717843596354718e-06
-1.281819596230513759e-06
7.640551254911890841e-07
5.704167884091108053e-06
-2.436137777490075037e-06
7.936169041773525907e-06
3.465306846516045657e-06
2.926473006478432556e-06
-1.911477310123557011e-06
3.468525481361184500e-06
5.730469185200471466e-06
1.670984454862738111e-06
1.559844685942329313e-06
1.065530065041920497e-05
5.310776235797984995e-06
5.724461881078985077e-07
-2.698762737327867114e-06
-1.823177640559406777e-06
9.927041160569163164e-07
3.736800810972499415e-06
-2.271951321977606821e-06
-2.496470509963399399e-06
4.426178546426153253e-06
1.410548755897468066e-06
3.862673895271059171e-06
-1.598120438325010585e-06
3.851868810305681973e-06
7.762957828019723117e-06
6.628282804958330124e-06
1.058322697821681077e-05
1.189551440307525096e-05
-1.887020540794384204e-06
8.816591870996635851e-06
7.819754491313339780e-06
1.101044611542220967e-05
4.817367621867576881e-06
1.300451527818117983e-05
1.130408867697349148e-05
2.923545381301371170e-06
-4.069369659489207799e-06
4.677318411098129684e-06
4.147062657831315433e-06
5.224491386249198368e-06
-7.886242071564967399e-07
8.197808983891855146e-07
6.063238322921834979e-06
1.154589397927820388e-05
9.322007100290925947e-07
1.233750986773967696e-06
2.089936264497503464e-06
-1.312358907204361561e-06
4.692044793650493664e-06
-3.456068813125542233e-06
-1.584043568216177275e-05
-7.241138831239263881e-06
-2.285175635585051136e-06
-3.215762396188541223e-06
-5.350876422652436556e-06
-5.687472885940463192e-06
-1.019814486180641499e-05
-2.032828178560896516e-05
-1.721555801574266645e-05
-1.140755362298383592e-05
-1.862990838348332944e-05
-7.406444252805986523e-06
3.412769797392985367e-06
8.954796587365659692e-06
-4.733249929885852483e-06
-1.215951632007011667e-05
-6.310965090183101849e-06
-4.839661168775841703e-06
-5.662578381607013493e-06
-6.030671085328930588e-06
8.436526937952756443e-06
1.539688191548311928e-05
1.067292578694952485e-05
9.840429148328853036e-06
8.133919325394197136e-06
-1.253427960627110510e-07
8.593426362710372950e-06
7.169834114852178912e-06
1.437465861851556885e-05
1.288708196207926813e-05
6.700313742468149304e-06
7.280368829965671879e-06
7.199513052992176886e-06
5.283289480535594863e-06
-1.887047087480837014e-06
7.261924441210969566e-06
1.982965030764759174e-05
4.547466579951468801e-06
8.819011811651671084e-06
1.290622112491972718e-05
8.966159920250282248e-06
-3.535286820889127837e-06
5.554957395777302548e-06
7.044519638231907816e-06
3.130820004804732003e-06
9.183145447876680384e-06
1.568912653814860322e-05
2.154882474990848194e-06
7.676457490209045043e-06
3.997617287682770585e-06
1.422815637423829232e-05
3.451434192331737962e-06
6.662309690401142879e-06
1.375494236695973911e-05
4.940220157058534955e-07
1.185424458535207877e-05
3.439357684649848625e-06
1.333424866294282123e-06
1.460343476743578006e-07
1.204488375767289983e-05
-6.415960923688884994e-07
9.274181968058059760e-06
1.004335418938338744e-05
-3.163859024965509897e-06
3.326500503329917705e-06
-2.295318012879895685e-06
1.252277133891716281e-06
2.069067890518019523e-06
-5.450792702660291374e-06
3.866965041942889252e-06
2.994787422567937295e-06
-1.285032498841412376e-06
-5.951618759959635685e-06
4.653441322791595450e-06
2.338990286118898532e-06
8.636902312578783724e-06
-8.457893998088899905e-07
1.193895642342848555e-05
5.701597984845876814e-07
2.812249582752129277e-06
-4.338179393352005215e-06
-1.116799057303643518e-05
7.320611961818138461e-06
1.742251642892773521e-06
-1.020622445628810004e-05
2.951344534286902757e-06
-3.732643444750386591e-06
5.290094300747195336e-06
-1.168182541719058314e-06
-2.587736876215015244e-06
-4.413636377674718184e-07
-2.312217822659351756e-06
3.376479301256429030e-06
2.430589743345184378e-06
9.738311936759755198e-06
8.243451402011807254e-06
7.639815001852503715e-07
3.160020519038010418e-06
9.296027015106515107e-06
8.288382380669295953e-07
3.334802633319202195e-06
1.190704533312128294e-05
1.591487026882413766e-05
1.799605457972896930e-05
1.403162246999141959e-05
4.188431614605189063e-06
3.316223974994265532e-06
1.237028086432592896e-05
7.756533371298013520e-06
1.247181301217658005e-05
1.688137089748991586e-05
2.007541880076233951e-06
1.225189053914222705e-05
1.169534874666993199e-05
6.717483947244525661e-06
1.116295557175377672e-05
1.551490400417018757e-05
1.603660399767883752e-05
6.865590612717203337e-06
4.933365269536610798e-06
8.990691901028123514e-06
-2.677398952364445656e-06
-3.013325208758149947e-06
-7.772124678552495489e-07
3.044454204744243518e-06
8.989725658400059792e-06
3.392276857826876865e-07
-8.156493427126517651e-06
-5.179863186330856389e-06
-6.420123729029879669e-06
5.775227278667746829e-07
-1.012873929035905569e-06
-1.374556282909659977e-06
3.445731462417957278e-06
-3.617427865635258668e-06
-3.234971240935783591e-06
-4.510911049934273991e-06
2.512284404359958756e-07
-4.971220402459836443e-06
-6.804824625766228881e-06
1.303029302704330605e-06
-2.574116950555338859e-06
-2.600497829372190074e-06
-8.619608009166309162e-06
-1.133057108548851145e-06
-5.809679812759374010e-06
-1.753856659508410375e-05
-1.282909852064629402e-05
-8.960872768415287064e-07
1.046801894022972388e-05
-2.518833960999669001e-06
-7.639946362632450434e-06
-1.373399806644951329e-05
-1.970869543330632748e-06
-9.752165991843992493e-07
-4.490947391085618225e-07
5.237200033034845274e-06
-3.359193269514791896e-06
-4.321079038509842256e-06
-2.600807453735827241e-06
1.079252889108709562e-07
-1.715530728438796528e-06
5.883084487210722951e-06
-2.968242486078419978e-07
9.486924730431670321e-06
2.011469460945237162e-05
2.791687135032702412e-05
1.815112837556158779e-05
2.309520715310445227e-05
2.248007685971484260e-06
4.959159922509823182e-06
9.702934420297319382e-06
1.119513879954079369e-05
1.404675581082666554e-05
1.691506039340105131e-05
2.062980752428819620e-05
2.103977430070508216e-05
1.236543557394146568e-05
8.985228855982216149e-06
4.427660978575248540e-06
8.979727484757110169e-06
6.938618802348941322e-06
5.834316240145099100e-06
4.707449984256949216e-06
1.466386919725609986e-05
5.204393698557451334e-06
-4.913076766482871692e-06
4.985357955061147945e-06
1.481085084087304651e-05
3.871966388960192303e-06
5.246788650965263090e-07
7.008392302998488286e-06
-5.238042967160285932e-07
-1.970857889707145535e-06
-8.882417730719143270e-06
-9.458919475740016052e-06
5.013943630008822327e-06
-7.063884126852861857e-06
-6.805000852893954531e-06
-9.454728288346508046e-07
-9.470665554701278906e-06
-1.010324760839572279e-05
-1.584095325019870383e-05
-8.733549221645511146e-06
-6.030708545656576422e-07
-5.748628041105314015e-06
-6.292100173629238714e-06
-7.634920849701356919e-07
3.820654545998809683e-06
-9.636123444374013192e-06
1.607882436007335852e-06
5.116509823566335342e-06
9.711549982771431385e-06
9.217109824503065020e-06
1.599526326930309850e-05
1.531572036340348841e-05
1.220074538020587962e-05
-3.757338636518523477e-06
1.333988514899285462e-06
1.443429954625375907e-05
9.022204499750598357e-06
1.499531857356950319e-05
2.101267757600679869e-05
2.248780847114692548e-05
5.381048925985436587e-06
6.548100483594907015e-06
1.355301659613285812e-05
1.198569851144253625e-05
1.000325408762948228e-05
1.865948722693948391e-05
1.853737334469777011e-05
9.496894406026351945e-06
1.346663977973619735e-05
2.604511106686489179e-05
1.948460635030894355e-05
1.167730768832330986e-05
8.903756190606815137e-06
1.195418720095281972e-05
5.170268664081900580e-06
1.409096112639550771e-05
1.437650746384343389e-05
4.938649401215052751e-06
4.809043198495278199e-06
9.865166771733482106e-06
7.904417951765899553e-06
1.093145882863035727e-05
9.393110285432651561e-06
1.385647891376522341e-06
7.357401712082697019e-06
3.360026962125615187e-06
6.007186181251444705e-07
9.079972033619013345e-07
1.569303882705086841e-05
1.752815108663587692e-05
5.330857604622413377e-06
8.624819704756834420e-06
-1.550635007322234693e-06
-3.183279775284997455e-06
9.655291483314605225e-06
4.564819542195262120e-06
1.178215595559444352e-05
6.652231935306033780e-06
-4.405224321626618252e-06
-2.096546131052316048e-06
8.699572989120376784e-07
1.382455504790320970e-06
9.824445331917033147e-06
4.003424280601681866e-06
1.195321190135164831e-05
1.201936673212832939e-05
3.052259768707653829e-06
-6.302195120297762222e-06
-3.413030382520029597e-06
3.172643789784140161e-06
8.785810993311654951e-06
4.330134612974176865e-06
4.696896621107381122e-06
1.397196437409234772e-05
2.090406165679271032e-06
-2.568173828296964421e-06
9.344599481431669578e-06
4.005913772784177630e-06
1.456439640998361939e-05
1.565455286846420850e-05
9.008149472305808630e-06
1.744865171111962664e-05
1.232513496594183928e-05
9.181275012340515788e-06
7.997232161667262428e-06
2.297640542396622724e-05
9.057349316035493477e-06
1.987103692168080060e-05
2.522598052428072328e-05
-1.006818504398709034e-06
6.560083306808518668e-06
8.792420271264763266e-06
8.774866529310892081e-06
1.227666622517136017e-05
1.200118347930161262e-05
8.958767239517948736e-06
1.510303849327235227e-05
-4.231265232163103525e-06
5.432281731296588131e-06
-6.570650897988786990e-06
-6.723321638545153370e-06
-6.527880566852602845e-06
8.128650736361430450e-06
8.260563037370259078e-06
1.940883197014642248e-05
2.783186602746509815e-06
-1.923434320134519062e-06
1.039108419116283304e-06
7.202192138991230473e-06
-4.858713798153451065e-06
7.204511393359700529e-06
2.685415148494620704e-06
2.163150264309970580e-05
3.684030650620605599e-06
4.086195944513152517e-06
8.494238919182185103e-06
1.517063892850499833e-05
1.236507791227414721e-07
-2.475725705042058824e-06
2.529934754490203996e-06
1.422511098997055780e-07
1.127833047613645626e-05
5.924383341059991960e-06
1.491911155789926811e-06
1.052319408149628372e-05
6.638904489366650660e-06
4.339838864403410337e-06
-1.065742033472553887e-06
8.681026163910034957e-06
4.186405310983279306e-06
9.220042603965599229e-06
6.965463484247345211e-06
3.238345580983072094e-06
5.668246277190549642e-06
5.737145066348164728e-06
-1.585080714762692605e-06
1.384430867749290688e-05
1.194822371113670725e-05
1.670898076434077038e-06
7.478752296099220633e-07
5.411595722046649848e-06
9.125741262405804698e-06
1.516294214864814804e-05
9.537392910093404289e-06
2.101623458093833646e-05
8.087174042556888494e-06
1.381168783057599124e-05
6.265039580417104594e-06
2.694922246754142062e-06
4.770267634577772184e-06
9.597281118436658091e-06
1.559522246455434871e-05
1.275353882445646623e-05
2.931408184109630249e-06
-2.641160893972086064e-06
-1.053188026219336205e-05
-8.535189227157000125e-06
-4.402591120190478199e-07
3.759740482174481029e-06
1.666674618736518551e-06
1.335257221336664558e-06
1.911400453538441777e-06
-8.276446225851394681e-07
-2.753362277366233363e-06
-6.932996746902917850e-06
-1.047056849940938578e-06
-1.973915075904430876e-06
6.534275233607540843e-06
5.678509695368602530e-06
-9.221452375092530161e-06
-2.879634070381388924e-06
-3.218528259455529124e-06
-6.411140544501224992e-06
-8.889673412835466179e-06
-8.690930418800055755e-06
3.507308741772577603e-06
7.582958269643496219e-06
-4.802597427854134963e-06
7.399940204763112966e-06
4.821894521382273039e-06
8.447967090604397919e-07
-7.308113072926759445e-06
-2.160924172243906469e-06
1.723110426688542057e-06
-1.889715613835206334e-06
1.268157215459091332e-06
3.479274039080624235e-06
5.696379618158760837e-06
-4.677602354158925165e-06
1.717063402759859761e-06
3.559214585435396556e-06
1.368577922544473701e-06
3.459850154177506690e-06
2.749729663396242689e-06
4.938762636852716149e-06
-7.224430405348525146e-07
-5.249823802451957996e-08
-2.726601336421399790e-06
4.179788104526180499e-06
-1.677334231463527975e-06
3.881596246988047380e-07
-3.256799519118320704e-06
-3.590808794231171303e-06
-1.980307281037913154e-07
-8.859013580554491417e-06
6.834779451148748596e-07
-6.767504050890352837e-06
7.549981614211117176e-06
9.593180655765101705e-07
6.406048921165383245e-06
1.134415128049262762e-05
7.976640512072884215e-06
3.827024345561078501e-06
-3.021462484346037168e-06
-8.588220266738462623e-07
-6.816485138352759536e-06
3.595853355750004525e-06
1.278399136685494353e-05
7.133627662639786381e-06
1.832419971121797731e-05
9.636751719789972241e-06
7.343275148184930708e-06
6.897571271594630160e-06
6.412706238264394981e-06
1.057482548985448894e-05
1.450001714264426492e-06
1.386968049359003788e-05
1.386692946929790680e-05
1.103177769659906444e-05
1.337429302828170422e-05
1.116766529203619342e-05
4.181957794132138773e-06
1.960254515118704344e-05
-8.462837436763802172e-07
1.192345922971027659e-05
7.499035945976966063e-06
1.231410874107165287e-05
1.256094608757804608e-05
6.043010082979247523e-06
1.541641884723988034e-05
8.171215087012721583e-06
2.190363564605183645e-07
2.143187861231910830e-06
1.298995528930396715e-06
9.667155175109484180e-06
1.465909822461971840e-06
1.355999630810720592e-05
1.177356407383885043e-05
1.297341672610880653e-05
-5.514044238826227087e-07
-1.041281983653568992e-06
6.710061293057918014e-06
9.907998565903249283e-06
-2.144538153097237882e-06
6.773223750717482410e-06
9.641932250484231640e-06
1.791993698154354395e-05
7.097239326086255198e-06
-1.699258407180200730e-06
-5.737548583716880687e-07
7.604881671301373398e-06
9.700805671073874266e-06
3.216456870098696351e-06
8.511258985989799417e-06
7.099919432742717203e-06
7.941224762712426836e-06
7.717986676045873609e-06
5.930625139748254768e-06
8.100414520290007700e-06
-1.442780478715826372e-06
4.382971298716193537e-06
6.122537544248161240e-06
1.772831232505552457e-06
3.614850735267534105e-06
7.424276057002088865e-06
8.148083997031664886e-06
1.918269048425112235e-05
1.628079187750662831e-05
5.388670431079084673e-06
4.241421154029391231e-06
3.232282655544517491e-06
1.145827227201688756e-05
8.891354687376115413e-06
-3.407035795017045784e-06
4.687348470748639757e-06
3.031886415343109428e-06
4.393873415798178837e-06
1.870269375029836320e-05
1.586086502557360533e-05
5.890264930633081538e-06
-1.610473272126437989e-06
-1.140242502531998948e-05
-6.656849592941529482e-07
5.114843447190365027e-06
3.498260356198080144e-06
9.604450548561158357e-06
9.695818236891431095e-06
-8.155623563993062621e-06
-6.088319161306988622e-06
-6.583729172010533391e-06
-8.400438307917292013e-06
-2.951615679066058040e-07
-1.117031007011960774e-05
-2.661739967527187480e-06
2.754060805967135060e-06
-1.204386252645736795e-06
-1.084280064368633436e-05
-8.428468995946077503e-06
-7.606850857135786896e-06
-6.980163484776678168e-06
-1.058633226582811554e-05
3.814541948086926527e-06
-2.616850629353077891e-06
-8.918431992729089573e-06
-2.672729890109619248e-06
-1.650518602689673249e-05
-1.449670558481823846e-05
-5.884018615889320420e-06
-5.080828725554840074e-06
-1.476292739002347740e-06
-1.085338256504947635e-05
1.723725520896965055e-06
-7.301359283302250036e-06
-6.547876293791249792e-06
-1.133145780606671432e-05
-2.741980667538229752e-06
-1.277333890895737028e-05
-3.576679815182318058e-06
-8.506776228107970628e-06
-6.515489101982887589e-06
-8.954157410108096703e-06
-8.372753254020824046e-06
3.393781783270308650e-06
-2.132152808914460594e-06
1.226439033564716286e-06
-5.558848095868831884e-07
5.441670408685560668e-06
7.356035654720416254e-07
4.653009306539721609e-06
5.043454823427332562e-06
5.895902723044871979e-06
-7.347454028152418555e-06
-8.167476433359728647e-06
4.151649256614110047e-06
-2.415006225799792849e-06
1.695445530420575586e-05
1.409829290441869587e-05
7.857399432930581729e-06
9.046518745572723272e-06
4.971597363801860507e-06
1.152175285854586386e-05
-4.072462407564208728e-07
7.814548724022196951e-06
7.652228520411117913e-06
1.295260967499982374e-05
1.114022921206093064e-05
8.635311276790206322e-06
9.575181752588621947e-06
2.115559744757559372e-06
2.427217456075331757e-06
5.423197016200180347e-06
-4.825430060276204511e-07
-4.652945342374648074e-06
4.957752444791573530e-06
6.878816373447613815e-06
-5.617262135656250592e-06
-7.681463214592493434e-06
-5.032508970029291907e-06
-6.054754989883890867e-06
-4.303358735199683868e-06
-1.478505454329470063e-05
-1.647843271822561819e-06
-1.023151377946859928e-05
-1.128740360605207842e-05
-6.315612440208854140e-06
-1.074842820300309781e-05
-1.951319284498507188e-06
-7.354277629872919223e-06
-4.335571886363628197e-06
-5.593702261618349256e-06
-7.038880472488872643e-06
-1.278990912727332981e-05
-1.523262944647899454e-05
-6.231856069445192246e-06
1.586515367463421384e-06
3.517690850180583886e-06
9.798927765868894156e-07
-9.109907304490148360e-06
-7.183161819220907664e-06
-2.886832485303903600e-06
-4.452476130163132359e-07
1.097943515999575629e-06
1.135652545989035249e-05
1.146984016701468965e-05
1.472067871698525075e-06
-4.626046641686477369e-06
-1.224652904048756982e-05
3.731894863460115397e-07
6.176317214244932737e-06
3.828001132162171978e-06
1.207997764128912205e-05
7.977220706178154725e-06
9.817090533170279732e-06
1.505491219786967132e-06
2.723859814034851595e-06
4.081865569420626162e-06
-7.830026628989985877e-06
1.685203117611131472e-06
-4.127952935652733080e-06
1.597032874202223597e-05
3.897766051194368614e-06
6.020393531065075347e-06
3.015896126979842554e-06
-1.180220447000119915e-05
-9.936717098046790164e-06
3.705353397213462848e-06
-6.248514534287720121e-06
7.032866174491855457e-06
4.360482119698133076e-06
1.380928945974278527e-06
-6.343130315024467659e-06
4.537767551434778324e-06
-6.304083747584604287e-06
-8.393887938325066134e-06
-1.850670683757951740e-06
-7.713929577028591587e-06
2.654043802817105356e-06
-1.094740640301858055e-05
-9.931769971040671930e-06
3.452473926999783532e-06
8.316351764726904669e-07
-4.414348946397929005e-06
-2.710817283463568070e-06
-2.774052980161311865e-06
-1.114862091361842238e-05
-3.156727106137162224e-06
-8.039655476436578709e-06
-8.506386153495223371e-06
-7.200107151375675311e-06
-9.633040718521593184e-06
-1.202518982482960949e-05
1.033586033666170946e-05
2.348009796276581424e-06
-9.901515759605094159e-06
-1.092826529252330196e-05
-1.048580673144577100e-05
-4.843519988163185516e-06
-9.462148710658979233e-06
4.462442710783287754e-06
3.309655228248291250e-06
1.799341736474216122e-06
-1.439831992080360060e-05
-1.612927283194598091e-05
-3.910863767348426653e-06
-4.700099850995479063e-06
-1.981437949071722208e-06
-2.228402308232253076e-06
-1.360173797396180013e-06
-1.334076882604582747e-06
-1.133290464844883627e-05
-8.380875920018968864e-06
-9.612975158395861697e-06
1.900138415624386037e-06
5.396278528081092755e-06
-9.837230421155741984e-07
-1.589347323590760593e-06
-7.525367897492723189e-06
-9.683788741813692102e-06
3.385273833670428972e-06
5.664135109649873212e-06
-1.061658490218253623e-06
-2.481832720654399659e-06
-6.462255166139513254e-06
1.057905561279744297e-05
-3.402088520641885667e-06
-5.977033814154927155e-06
-1.392079128882553560e-06
-4.429656859107709149e-06
-1.107068249314431627e-06
9.142687200461969109e-06
5.865538127525909973e-06
1.065954204385196301e-05
6.912236594043758616e-06
-1.088604452476055065e-05
-5.752537185481625560e-06
-6.450725336618751138e-08
5.886637349231528364e-06
5.909221693763675506e-06
8.858126560102718566e-06
3.518577578189366339e-06
3.944402074634411996e-06
4.624678229543275568e-06
9.858876745717109515e-07
6.134970613942171414e-07
5.114276844036212948e-06
3.202254500181726197e-06
4.881297997105760959e-06
7.860968693900317709e-06
6.257822615137972368e-06
1.403488089436787448e-05
-2.857413079671261395e-06
8.984516807231958911e-06
7.496008024341998220e-06
4.288379715184395362e-06
1.296790917510690392e-05
1.060703858302077278e-05
2.022816901459106994e-05
8.773069027078980210e-06
9.498703944420261447e-06
6.227300130482945912e-06
1.733422848251657804e-06
1.381407263499064659e-05
9.541768762530585500e-06
1.732062930735533491e-05
1.571432031962749064e-05
1.273752162502011153e-05
2.949571355042733718e-06
3.908630209795377428e-06
-5.850312434410652289e-06
-9.595260164291740355e-07
4.017790267653548013e-06
1.363358214925424090e-05
2.102784709678671851e-05
7.121773526750914234e-06
9.235431036047473709e-06
-3.188621202349702522e-06
-3.297181121485626837e-06
7.146401930918644396e-06
9.580268432487690482e-06
1.041193874850502958e-05
1.561380829598286784e-05
1.083475202793329198e-05
1.027302416137070018e-06
3.015352576518637306e-07
1.310906031304456994e-05
1.360136411206777467e-05
1.335784218111594340e-05
-7.215456710899870521e-08
6.254451500219289882e-06
1.271396970787093883e-05
8.631495756655283881e-07
4.337291222425172094e-06
7.855293727572075675e-06
1.438550332939406541e-05
2.160304233453917049e-05
1.491302152937672197e-05
2.644865197276341680e-06
-2.131228002162882489e-06
1.766107233293313320e-06
9.527044234997126930e-06
-3.301788923451131480e-06
1.031006299038301176e-06
1.531847601859835000e-05
1.333561972278367661e-05
6.220369009231623177e-07
2.207217138493249237e-06
-1.225291219071123535e-05
-5.206720331382328447e-07
-8.081155033226768147e-06
-6.777460400466143661e-07
-6.291594823316047896e-06
1.657164128069375016e-05
6.588855900894943080e-06
-4.275788555131764326e-06
-7.625406476743982987e-06
-4.753659206249401595e-06
-5.939826341150127292e-06
1.795636761803786046e-06
-2.167153980015988288e-06
5.761330231426528819e-06
1.055933127848789608e-05
-1.004471630491508231e-05
-5.520250142204924469e-06
-1.475068695643824614e-05
-8.416986984859206773e-06
-4.628767882240388595e-06
1.902077526142050782e-06
8.845970350196625046e-07
5.086420171876633069e-06
2.083828821731028083e-06
-1.489473126347641823e-06
-5.597850461991013288e-06
5.155244925688089348e-06
7.759038867790691088e-06
4.829547525723738421e-06
2.048959277416823824e-06
4.334658611704388445e-06
3.948219567258075789e-06
4.328641128248801161e-06
3.088366729690284265e-06
1.083556643486439973e-05
1.278854783533982329e-05
1.271812353940515554e-05
9.829534950596342975e-06
4.788272314399581557e-06
1.236891577897409776e-05
7.874006145780769635e-06
8.540165398609816331e-06
1.098928365214169121e-05
8.404032628761559393e-06
1.711541385308971161e-05
1.204320900026391999e-05
8.141945004629049139e-06
5.326481846811090964e-06
3.041723079412982349e-06
7.560463019870154906e-07
1.240352828300888719e-05
1.971326181140619239e-05
1.185264829882241595e-05
9.466782629067205419e-06
9.786954321179444204e-06
8.347216010179327617e-06
-6.149644761810129853e-06
4.707737485489459865e-06
5.122803384575535905e-06
1.911271333300773676e-05
7.219429047084901380e-06
-2.433522769021249921e-06
5.163605560665283228e-06
4.821581397447885498e-07
-6.550124545948773219e-07
-5.910625026511479724e-07
-3.567232153432926562e-06
-1.419361928149567680e-06
3.089656022463142544e-06
-5.690763060605514255e-07
-1.642692287504932472e-07
4.237397449438900111e-06
2.808971338059116675e-06
5.964028468626448969e-06
7.257489787790933830e-07
-2.478711609045654816e-06
7.199480203203695045e-06
1.353240987829462671e-05
1.241244843463019769e-05
-3.624135955979958506e-06
1.280644497349302854e-06
7.181139786866582320e-06
1.927429899892360750e-06
6.937662776112032970e-07
1.748465616889266928e-06
9.240118234486694674e-06
1.036986949531486799e-05
8.659751097664369901e-07
1.541745589280288375e-06
7.829733593134530819e-06
2.814908898765187354e-06
7.644421634632816986e-08
1.775122956392330420e-06
1.100548300197773562e-05
1.386033051930602236e-05
1.058839196750778217e-05
3.746422271050213210e-06
5.286071120045579205e-06
5.175571059141926503e-06
4.929338801769713244e-06
1.466042914208314169e-05
1.862932175866218159e-05
1.153632554244112766e-05
9.217565256194881762e-06
1.747150722764857778e-05
2.725658135629841286e-06
1.050257413708912367e-05
1.715470461773169371e-05
4.202689383936788516e-06
1.400797250552285149e-05
6.253338599810200418e-06
3.454438401603605185e-06
4.957208130744721747e-07
-7.372014197271460970e-07
4.432942471528894101e-06
1.356954404049690250e-05
1.225900681006778783e-05
9.660910009299345999e-06
1.945593659262689597e-05
3.620296741915405257e-06
3.559348561260838959e-06
5.478635267222727815e-06
8.181533234261604854e-06
2.902465580814726082e-06
6.955487813097374367e-06
5.727777096198880327e-06
8.523811283578592093e-06
-5.083098312916962611e-06
-1.174475954348794780e-06
-1.006546557099974098e-05
-6.626958092588366295e-06
-1.837110176665021893e-06
-6.848545365360184534e-06
-3.251082009852264594e-06
-1.090276191686713426e-05
-1.104212840379687963e-06
-1.898933265044800344e-05
-1.195962622500709683e-05
-1.753751878157437183e-05
-6.069165721731895665e-06
1.920274735203210403e-06
-9.460144823191722445e-06
-6.224070520842678398e-06
-2.374688372564111305e-06
-9.461716291258724827e-06
-1.118165867761660012e-05
-1.003545246249095768e-05
-6.495211927243249063e-06
1.029964486238708551e-05
3.576586223575902238e-06
-4.127603705943291759e-06
-1.333906844145461368e-05
-9.501242378645070614e-06
-4.587758563467372527e-06
7.368997366672108001e-07
-5.888366136050956871e-07
8.769880411338990076e-06
4.681068818745168052e-06
1.103668029261810346e-06
-1.201594379788537047e-05
-1.123386398642415825e-05
-9.282349195771199667e-06
-6.643150318033543954e-06
9.018936774728332235e-06
-1.703739613341742967e-06
7.349858776654308486e-07
5.310800060718103358e-06
-1.084987973375801332e-05
-1.047207873207059046e-05
-5.945787787601521882e-06
3.526404159493530706e-06
-4.984832638223863320e-07
-9.523647067834640351e-07
9.584758518377972138e-06
1.742731441100383184e-05
8.085957756094391477e-06
4.702728301658114056e-06
1.292574999448459650e-06
3.658085381132798655e-06
1.556063523053242102e-06
1.185224380615573260e-05
1.060575046669097205e-05
1.373267531694545443e-05
1.569581332361806711e-05
1.123843304587715530e-05
-3.391272048077148896e-06
3.628856795416990268e-06
-5.797203687689909696e-06
4.388096588623627455e-06
1.656037837100145889e-05
1.366916900019974701e-05
1.222720452917047240e-06
2.947184373115025683e-06
6.665944510462779721e-06
1.104482777327373856e-06
2.637478621522239015e-06
1.412812231233817953e-05
7.261893812340761232e-06
-6.099967458551716973e-07
4.684143950735959131e-06
-6.079895464736412639e-07
-2.505965360864194618e-06
-1.546353319566964781e-06
9.104299600178934488e-06
9.620444701264859247e-06
8.804962685548254394e-06
-2.735121035645935936e-07
-8.973304044280539828e-06
1.155788056606921015e-06
-7.139804522353116085e-06
-5.761687476307124963e-06
1.218755602871816890e-06
1.287142245936888493e-05
1.291721896797367502e-05
-1.318635597787932729e-06
-6.124194565535704543e-06
-9.914621535719078237e-06
1.737870918463730718e-06
-2.366832447852414579e-06
-2.551285305674372891e-06
-6.326419598374783543e-07
6.446418830268548124e-06
1.474238543831889138e-05
9.107560432213500888e-06
3.063544577434505669e-06
9.700657278934640259e-06
1.565505880100388639e-05
8.955521099697787060e-06
5.511511335173891434e-06
1.230778722774059867e-05
1.279390209428689492e-05
6.744681673033980310e-06
1.649851983989431958e-05
1.809363637796530247e-05
1.947204624979580146e-05
1.981167983794229282e-05
1.346019844008464628e-05
1.239489351416347279e-05
9.077118159663065226e-06
2.898985861719501934e-06
9.843085204935386051e-06
1.019355508523063069e-05
9.890377436997050201e-06
1.372489553863674282e-05
8.825282303623793907e-06
2.902266190174009053e-06
-4.937555347427275473e-06
-3.652459778461165148e-06
-6.843264253432370520e-06
-3.576871983219118232e-06
2.714102159961223875e-06
9.839571469182290323e-06
6.246746671190704647e-06
2.269267714147564161e-06
-5.974558971554976700e-07
-8.416860489769250730e-06
-1.094563611053701781e-06
-4.856054074070927182e-06
-6.733151060731934825e-06
-3.147027482822389432e-06
9.338296514189623442e-07
1.564805667539657724e-05
6.236941921434200394e-06
4.194822378817775286e-06
1.691280202635787357e-06
-1.096159990171156418e-05
-8.810286106725054647e-06
3.881670831291624338e-06
3.883018175740091116e-06
1.017530183322027260e-05
6.989126525654642229e-06
3.852180283837002266e-06
-5.957175480006187893e-06
-8.090296604725737226e-06
4.117364840378545058e-06
-3.016851962135875826e-06
3.583996604325848361e-06
-1.624415985289004178e-06
4.171724120389055414e-06
1.178639245659506615e-05
8.361064375341615510e-06
1.331238440987477867e-05
-9.536307305940986898e-07
3.464414351838978820e-06
4.607760989508067305e-06
-4.047503017526635997e-06
8.829641227741063907e-06
1.277299630126168444e-05
5.906893216255212822e-06
1.020650070951640079e-05
4.270013033933481913e-06
-5.882969666032712534e-06
2.013926625943818129e-06
2.840099132569984513e-06
9.893190453194903537e-06
-3.230265564846434342e-06
1.608950654626690145e-06
1.163114084491397634e-05
8.018358029596736689e-06
-3.328808387424307853e-06
1.075468703015799651e-05
1.467247231337935002e-05
1.539221950652388312e-05
1.223944304586718074e-05
1.056811160529545117e-05
1.416854066335995234e-05
-7.057531129601654629e-08
3.784823953998078111e-06
2.081571842876193913e-05
1.787493495656320482e-05
1.014873128469986722e-05
2.924074045402907593e-06
1.046106348461396229e-05
7.001164579482986160e-06
-4.190585081375382704e-06
4.962336772206487039e-06
1.464403068463085216e-05
9.658302318112229820e-06
5.365499128824331547e-06
-6.982366103149310541e-07
5.069113568133319994e-06
-1.478957282221172575e-06
4.083033162811900915e-07
-5.124935579215188133e-06
-5.013966190451973545e-07
4.881397362976977895e-06
-6.789332910258759780e-06
-1.767714993215470463e-06
2.503690003870608950e-06
-1.554083391153268569e-06
-9.153096044581059652e-06
1.169728879140232488e-06
-5.916604291759984882e-06
5.028914396065992717e-06
2.449313533603881404e-06
5.074962324220838247e-07
4.554496969391350070e-06
2.263075175899212539e-06
1.938848120708368608e-06
2.236441165052701144e-06
-2.275250989945448894e-06
9.059177671764354501e-06
1.119400694693083870e-05
4.805997996092808717e-06
1.315131034309891282e-05
2.700912419971186057e-06
5.350978691435559573e-06
5.977269883385334399e-06
7.294885650018358234e-06
5.260832649218007487e-06
8.829893028665901367e-06
8.032351917463479828e-06
5.080473160857851191e-06
1.789174206055224245e-05
9.376585833149311475e-06
1.027842547846567756e-05
8.522468063007851164e-06
4.072456203473582073e-06
1.662961335839911129e-06
-4.490747729774696197e-06
1.820235169685136944e-05
1.650947425834846816e-05
1.677990523801114759e-06
9.111439668149179470e-06
3.299129711269621797e-06
6.196733752053670483e-06
3.341360802183073256e-06
2.396986320299463857e-06
-5.756402058044996200e-06
-9.090089984939105951e-06
4.078493003548762288e-06
7.343102696882072671e-06
2.281720831826114168e-06
-5.906676036189994171e-06
-6.734974561228043548e-06
3.185055721155504241e-07
-1.774720029841362918e-05
-6.815884688254425592e-06
-4.058576500394115404e-06
-6.869647644787142508e-07
-8.913390859372524299e-06
-2.512727946627271985e-06
-7.825967443337070693e-06
-9.301494506959928025e-06
-9.948475541087539818e-06
-9.262619839823409747e-06
-5.973551480466482259e-06
-1.913741666662672819e-05
-4.288029452434655771e-06
-1.628056152119426118e-05
-1.214291762372991064e-05
-1.162595968192027410e-05
-7.777722506248179162e-06
-1.327511506730056105e-05
-4.522231937086095607e-06
-1.101814718340110924e-05
-1.069643038410929932e-05
-3.067626666317080884e-06
3.701752296273775906e-06
-8.329074694523306600e-06
-1.458023528651345704e-05
-5.062554793935360956e-06
1.083811350556193077e-05
-4.823593615683346471e-06
6.507193710630703679e-06
6.786988574262488565e-06
3.460332564348290313e-06
-1.982209884939163148e-07
-2.321236798594899804e-06
-2.042762472807553142e-06
1.317179246559772735e-05
5.682115634481716901e-06
2.386771566148320704e-06
7.028374911338425724e-06
1.076366070869972475e-05
1.255530578764545331e-06
4.169511317568953650e-07
4.981774274816393178e-06
3.772851025897082031e-06
4.287800155851253375e-08
3.102280401313874288e-06
1.076626723772809279e-05
1.268512562625204090e-05
8.667005024400780203e-06
-7.101450537127867394e-06
-8.245353271587587893e-07
-4.344830138808427038e-06
3.288524710508115585e-06
7.121820938410094049e-06
3.161050414194309377e-06
4.750184043119428778e-06
1.886778219704920469e-06
-4.056938360872243497e-06
-1.810548539385014449e-06
8.079169089128307359e-06
1.310718018611130645e-05
9.113219564828712975e-06
4.426384367347494658e-06
-3.189867558422846468e-06
1.846131908910615595e-06
-1.000174674042436608e-05
-2.087675874317459351e-06
7.630697506600064937e-06
-1.263879759326686034e-06
4.888697306534384255e-06
-9.865886533735705732e-07
2.554191563976313927e-06
-3.075286264914720361e-06
-5.889101297589264747e-06
-6.297076791820187518e-06
-3.804004975798791315e-06
-8.213599466769271919e-06
5.457854848391128881e-06
-4.005468163654883357e-06
-1.117624760518543545e-05
-1.089345510034157296e-05
-4.196709538116993529e-06
-1.326209303292912121e-05
-7.456526786134276812e-06
-3.600060008547589264e-06
3.443493973979343085e-06
-9.661557611862609495e-06
1.801055897142334571e-07
-8.744487687109808293e-06
-7.460206880738709002e-06
-1.352487389358922147e-05
3.648606127115759743e-06
-2.047865900264064093e-06
-3.650056711340817460e-07
-1.700599242350281023e-07
-7.131133312292801431e-07
3.194033013800769323e-06
-5.123197905570835674e-07
-1.099151509838231346e-05
5.263301950251728610e-06
9.081217111753031243e-06
7.976345732728070195e-07
1.386362297399180944e-05
-1.111925566448499804e-07
-6.203567008082340028e-06
-3.863881639610275767e-06
-4.429352749617894349e-06
8.260713068350411525e-06
2.474197130434457100e-06
5.613101196630355342e-06
-3.485127490201133348e-07
2.331035616534029523e-06
-1.054113678390107946e-05
2.717135011863947187e-07
2.556616886458819814e-06
-6.564352370893992462e-06
-1.365480095322896791e-06
-6.229859306491479683e-06
-1.894777550185116483e-05
3.460032789583335656e-06
-8.593265073488777180e-06
2.035347449749892967e-06
-5.983704595254076670e-06
-1.642701898584536700e-05
-1.059394268466224906e-05
-1.837553844517521903e-05
-5.400025757217779068e-06
-2.242101922003267089e-06
-1.757383519279063491e-05
5.840314442941567214e-07
-1.679143005927665171e-06
-3.503452327276393593e-06
8.437813765422208425e-06
5.646226900695545340e-08
-6.077656953770873118e-08
-1.301400815467948980e-05
-5.463638629858846439e-06
-7.398738827600769463e-06
-5.460769170925389485e-06
-8.234250611488649679e-07
-1.659362375959430472e-05
-6.481269588162131743e-08
-4.266527360815772218e-06
-2.189676685419814851e-05
2.359655222294834408e-06
-1.300593395511980677e-05
-8.947167455631620470e-06
-1.521764427322021309e-05
-1.122275137493176456e-05
-1.335612311038950989e-05
-1.866327065364438100e-05
-9.189565578444127683e-06
-7.236333862155574416e-06
-1.353628002649307955e-05
-9.549136953104123517e-07
1.268705736551452198e-05
-1.137875210068516209e-05
-1.038597144178091548e-06
-3.563902373902806588e-06
-4.849459095720699110e-06
-7.038846631685386572e-06
-7.998843454149333443e-06
-3.848145145317932356e-06
-4.367166492223654268e-06
-3.510162089135081308e-07
-2.539284447511171928e-05
3.373038315147014330e-07
-3.800470457798803904e-06
-1.616389172063598535e-05
6.356020855807066285e-06
1.572826859725590999e-06
5.835874017645300595e-06
-1.372293798687838998e-05
-1.880162929816436493e-05
-1.153861599925924466e-05
-1.208915172305996370e-05
-4.172208727590523045e-06
-1.095385406693679333e-05
3.472600089059400103e-06
-1.369717733182594516e-05
-7.052465305691329295e-07
-8.961586588582357111e-06
1.847803910608639241e-06
-6.608614709401466959e-06
-7.663470361504144625e-06
-6.664620235097225330e-06
2.536062675225258647e-06
1.812919445219398642e-07
1.975998377819551547e-07
5.519308231847823795e-06
-1.087625633991911171e-05
6.167766638828815756e-06
-1.374358608204387898e-06
-1.460402829355124935e-05
1.562618387458056246e-05
-3.701988129517490452e-06
6.379243598403683854e-06
-3.474689420988746755e-06
-5.707483529812670364e-06
-1.861088234722921601e-06
-7.941452275517307477e-06
4.853718193528898422e-06
2.352106504731676993e-06
-5.663793061452730655e-06
-1.964861567799929074e-06
5.352215684788164064e-06
-3.985283019225829262e-07
5.913406430536035302e-07
3.543517008232903470e-06
-1.909556153532059486e-07
-1.548819921652030768e-06
-9.867894908605721470e-07
3.717690218509847643e-06
9.269264406729474278e-06
7.150004521334347551e-06
4.954603330311553090e-07
1.129737967055873235e-05
-1.769904375884432074e-06
-1.211893507362705742e-05
3.390439691507995154e-06
6.651366895592755610e-06
1.792281914002242957e-05
6.098502236274875102e-06
-9.760418054291530345e-06
-1.400099822499244033e-05
-1.225159400086688738e-05
-6.661957550511155035e-06
1.251067723305550715e-06
6.118798464336830392e-06
-4.384457569514349577e-06
4.289921314663360018e-06
7.334553503565811700e-06
1.083591711062888163e-05
-3.709527986267270551e-06
-1.162780485489815806e-06
-2.467033229936152245e-06
5.569832429437514775e-06
7.510061529039541183e-06
6.271719239255746814e-06
2.217507409860579494e-05
7.951588023495376726e-06
6.997593615067814257e-06
1.279802449238146597e-06
-1.024151426236596352e-05
3.277201438871757064e-07
1.450081542169074443e-05
3.820751667181222722e-06
-4.463088188303140832e-06
-1.348873753602057519e-05
-7.309600223405544905e-06
-2.311417812070089346e-05
-3.650637294329349501e-06
4.795134069961699895e-07
9.162435639026281675e-06
6.450871552963643627e-06
7.399757347287803412e-07
5.652725489070538074e-06
6.183182558731008900e-06
-8.007036207806521376e-06
-7.268212728136987821e-06
-1.087349846171229413e-05
1.607461656251620046e-05
1.143164496847446087e-05
4.353996432428427490e-06
1.005933169503820952e-05
-1.219302004958185591e-05
1.276420993942979157e-05
-3.816366615538781693e-06
2.205102540474194211e-07
8.852967719326062038e-07
1.581316561497397063e-06
-1.076085604466503010e-06
5.627736313397364582e-06
-4.683621925842906364e-07
-1.561967712580852901e-05
-1.854321600221515314e-05
-1.238405349263924137e-05
-9.799555497126149445e-06
-6.566526897031184568e-06
2.786665307299900036e-06
-1.045919028917307973e-05
3.395137440774572009e-06
3.571688356644247907e-06
-3.607896559066646794e-06
-1.077367005621115905e-05
-2.493407954337782738e-06
4.476048013050501376e-06
3.181981522682285758e-06
-2.921537760002687286e-06
2.108705060178166904e-05
-1.088678845127053748e-05
7.899887925226380234e-06
-9.337871292313792287e-06
5.974920753154087537e-07
-7.051231656194631220e-06
-4.375154453495103363e-06
5.689214594803643568e-06
7.168901516168231839e-06
5.740117947931291009e-06
-1.473426072432333444e-05
-2.316186681365097860e-05
-6.858473166673644377e-06
-1.030983394735246434e-05
-3.910988921605718614e-06
-3.497374677822149774e-06
1.435598117838882918e-06
-6.164233334541962384e-06
1.147972328844549714e-06
-1.562389372208069209e-05
-5.463737434634717300e-06
1.094781696791315557e-05
-6.309848082928153990e-07
7.818375274662614667e-06
3.482294811358598616e-07
8.545069289414094523e-06
9.943112752135559390e-06
-8.057026642588737005e-07
-9.174198351173041871e-06
-1.589526076237162878e-05
1.333917428376994035e-05
-2.006987685073932635e-05
-2.276755581934167727e-06
-1.475439517326156705e-05
-5.540014015151369044e-06
-1.228225909527403938e-05
-1.205345434169451720e-05
-4.957164912519282374e-06
-3.782857351031405235e-06
-1.655444213831561848e-05
1.439794062676897296e-06
-4.637391255816289035e-06
1.209477064192438943e-06
4.362341283590570509e-06
5.320228046664271819e-07
7.309843387494556947e-06
-2.373783678727505077e-06
-3.966936583723644299e-06
-4.581587220366302058e-06
-2.777680976947459842e-06
-7.813378032129743799e-06
-1.749824835349608092e-05
9.980312795010361660e-07
1.578233997414344759e-06
-8.234997242965678423e-06
9.514664032353792648e-06
-2.014513253511161312e-05
-5.650096585327272477e-06
-4.127880163189981064e-06
-1.824478479644111751e-05
-5.778461177212969405e-06
-1.509624275116377398e-05
-1.266849165124625643e-05
-5.210351675044529635e-06
-1.338660508399482134e-05
-1.196815501511107652e-07
5.906733863695527807e-06
-4.956519220936730929e-06
7.417692996307132181e-06
-3.367960232588084320e-06
-6.376350829052706507e-06
-1.301753712463530931e-06
-7.698256410881012212e-06
-2.386733019685857802e-06
1.288596869970119930e-05
-1.975016429348201615e-05
-2.429045919849892718e-05
1.581422815045091881e-06
-2.572760656001431235e-07
-1.336274675438774877e-05
2.277300035118501361e-05
-1.121820655948069817e-05
1.054114981203720553e-05
-7.239324897311583907e-06
-4.105439460870202793e-06
-3.804381326285393957e-06
-4.545300800829467033e-06
1.339729291536173247e-07
-1.041136475275516291e-05
-1.025794646264611065e-05
-6.013661477501132255e-06
1.205180710955496309e-05
-3.740226109425936389e-06
4.814490143186961086e-06
-6.506703438307508404e-06
-4.998443561691278216e-06
-5.156252830625331676e-07
4.882294458932163832e-07
2.239483898107766458e-06
1.846903555969314192e-05
-9.411401179896510203e-06
-8.999565285288403232e-06
1.219297082605991808e-05
1.684622983770705428e-05
-1.324741772050247891e-05
2.014148983309135425e-05
-1.125513935276131793e-06
1.269734235340895870e-05
-1.891913836536023887e-07
-8.961928999435295700e-06
4.895676047381983506e-06
2.460851475944080761e-06
1.541902518418543158e-05
1.613772423880238471e-06
-9.116431419065733376e-06
-6.634998354715105620e-06
1.196805059814633041e-05
1.732250639458222997e-05
4.467240908011024911e-06
6.648419212383835917e-06
4.185752389961925972e-06
1.960156994737287069e-06
5.296240241578776737e-06
2.047830802778961140e-05
2.037577683782311396e-05
5.448341478983320446e-06
7.456738162235058687e-06
7.456955651006595936e-06
5.090044977364017033e-06
-3.967663417836408508e-06
7.172499489505276848e-06
4.166400352256663733e-06
2.680110296193770526e-05
-1.702085792089781574e-06
-2.582802433853220421e-06
2.716856610748313085e-06
-1.281833272194504075e-05
9.353040970609920716e-06
-7.484093822853923438e-06
9.660284421278106956e-07
4.702755936227497307e-06
1.030719114405677093e-05
1.163100596351403617e-05
1.714169686360599858e-05
1.607258649295046561e-05
3.249648087086081240e-06
-3.737644975363016084e-06
2.488719598179411463e-06
2.872609944573364967e-05
1.144665679227521455e-05
5.046599053039953642e-06
6.018585079453671739e-07
8.761328318454189969e-06
4.408667692107318164e-06
1.671090607753929940e-05
-6.589391981705153650e-06
-5.449082257104930827e-07
1.858727443231939527e-05
3.896496931851195977e-06
-6.719675124717493006e-06
-4.323388832020420391e-06
-1.345319212562021735e-05
3.845759871927541208e-06
1.617199974898031597e-06
4.011649678591075528e-07
4.646702503748297909e-06
1.197659855573874802e-05
-2.409059105021568565e-07
3.664221982733922617e-06
5.979643022248459214e-06
2.293921635612750402e-06
-1.402921183189926831e-06
6.811777619872587050e-06
1.988029303442826493e-05
1.512155245079007197e-05
2.239667776043297530e-05
-1.833198821756968293e-06
1.729298708112069404e-05
-1.143805114651874356e-05
1.333781013523556625e-05
-4.984338692923714876e-06
1.981974518160206048e-06
2.089155555704325082e-05
1.064694283338373422e-06
1.919393590378548462e-05
-7.530416375642132859e-06
-2.305216386494810549e-05
-9.172009772148727021e-06
-8.763117316248597956e-06
-5.248541182723219083e-06
9.096502057375466211e-06
1.395376548050749074e-05
-9.026943544756394820e-06
1.465191929031840619e-05
-6.413272563469289890e-06
-1.838676546581213800e-05
-2.066522668141687537e-06
5.837532516065355596e-06
1.207056076573873806e-05
-9.326969267549168967e-06
1.939904744488584807e-05
9.980199743743354619e-07
5.558444085927700709e-06
-6.523388718156274222e-06
7.790908705000265910e-06
2.083872244833584789e-06
-1.598533191649540439e-05
1.678825598561602817e-05
7.272165318256425029e-06
1.499720696103434836e-05
-1.506785363780274968e-05
-1.504764155716953832e-05
4.964841832863308270e-06
-1.828923495296252917e-06
-4.930958765296062702e-06
8.495211284762925388e-06
2.912581680387034240e-06
-3.724201886222508907e-06
9.811634098031716330e-06
-2.601100325618521013e-06
-8.616604673966496908e-06
4.525155074812401768e-06
-5.815783282226840925e-06
3.935686369461212262e-06
-9.505297714470055257e-06
5.777796575588391376e-06
-1.158355249985547797e-07
-2.928030433142696600e-06
-1.251255543039489921e-05
-2.711229937232084535e-06
1.313891134133061565e-05
-3.247572450097840620e-06
-1.328376659072412838e-06
-8.579780529787911308e-07
-5.943549702200642642e-06
9.255765906967666700e-06
-2.258734391835813993e-08
-6.992395049615704331e-06
-2.595237828679897835e-06
-1.043904869595216716e-05
1.311231177839724063e-06
4.521494168228952002e-06
4.492156008281702442e-06
9.049142150206401715e-06
-2.505231810883467376e-06
5.847960979509072486e-06
1.237198077926838846e-05
-1.123259650185979154e-05
-4.612669417945259361e-06
1.133124933141289758e-05
-4.442711696709482328e-06
-4.319698282240146364e-06
-6.335793138137862089e-06
3.202282725253338810e-06
-9.521153022969213689e-06
1.785373753979461152e-05
-1.042915012086929587e-05
-1.816541795493683398e-06
6.654213715150408966e-06
-3.434251410906275295e-06
-2.820574856636458012e-06
-5.828623542782212521e-06
-1.882061555138031360e-06
3.007499836674884768e-06
-1.035118010859552805e-05
2.442488141643257978e-06
4.122939084772061060e-06
1.224925829897321788e-05
7.339237180847545138e-06
-2.671406299938180930e-06
9.768839536465801015e-07
4.522337976813021608e-06
5.385808273013830360e-07
-3.905348307779930693e-06
5.935527091628674929e-06
-1.362496579698830619e-05
-8.748923328998174247e-06
-1.065234171843256828e-08
1.486884996429057066e-05
1.127052365775695997e-05
1.868881618695603482e-05
-7.069521283961557783e-07
4.921788526770223287e-06
9.037844571777938036e-06
1.159647038697980345e-05
4.134995574625968830e-06
8.292292734121236149e-06
1.579645426655468650e-05
4.043187297963432716e-06
-7.034750702762601626e-06
1.009491501852683476e-05
1.588404082334043127e-05
1.501254829682044682e-05
1.464531427690597871e-05
9.398783936218275178e-06
4.867805936223247967e-06
1.314195354606984418e-05
1.108373867527603202e-05
7.756171256425851193e-06
2.612984803814804620e-05
-5.570874802479066764e-06
-4.494208369523829176e-06
-1.754538797398851632e-06
2.017406773611882470e-05
7.150197684264944520e-06
2.170017215265291754e-05
-1.712674972477432641e-06
2.400712424952121014e-05
-1.985973402699944823e-07
1.301620493875869071e-05
1.298846974935937034e-05
6.195583843802843628e-06
2.965550473144840186e-05
8.649163920546197031e-06
6.159134819672325864e-06
3.253997463036433749e-06
1.804745977715833046e-05
3.019224208646756298e-05
1.794027567292572469e-05
9.312219769241658921e-06
8.445743929483707363e-06
1.671760118211466548e-05
3.038044612141387599e-06
2.216453322698039592e-05
1.650643669764639506e-05
6.067945562310865179e-06
7.803629731693267332e-06
1.236422666531549159e-05
2.064051580267188806e-05
5.500140484410425551e-06
1.075006987014936661e-05
4.203643913375494179e-06
2.288046813420149936e-05
4.409004140763339141e-06
1.655973314578829236e-05
6.561745675724353763e-07
6.159712916340328020e-07
2.646175280939455713e-05
-6.208175883117564775e-06
5.731661782108093441e-07
1.272463261998402524e-05
2.461250784286898180e-05
2.140564454720315620e-05
1.887482689908748110e-05
3.168038883484035144e-05
1.517236990296089204e-05
1.403891383983982922e-05
8.991862227701902881e-06
1.845340415628966032e-05
1.950991269015502592e-05
9.583294592604460580e-06
7.316187948831861154e-06
1.266455249347701357e-05
1.532852932908043155e-05
2.400712251282850453e-05
9.820294772946819262e-06
-3.034294810349247274e-06
2.211922042442440956e-05
4.564469780877046870e-07
2.356978992003818077e-05
-1.171768136792500944e-07
-9.181879274378840688e-06
1.140279811330847134e-05
-6.470786717419356633e-06
1.603611730321269618e-06
1.376658113784898717e-05
2.427388116187975252e-05
8.876091015033957276e-06
1.282625763354337361e-05
2.812224683012602634e-05
6.889455537334072152e-06
1.003379158729631208e-06
6.937187746365049666e-06
2.080510334626679435e-05
5.361167983063072639e-06
7.073128082820640352e-06
-4.966365438156507750e-06
6.613549181296100562e-06
4.622482138833588420e-06
1.592702065481673278e-05
2.755370753804091779e-06
-1.627076968726452244e-06
2.079644242135037104e-05
-1.560946296379748556e-06
2.085685262056131669e-05
-1.456013417577561931e-05
-1.651368830519195228e-05
1.545120150665285036e-05
4.448678320145450370e-06
7.715584153480541151e-06
2.103540249973141134e-05
1.435287218532833501e-05
-7.783420600011514636e-06
1.136109746636550601e-05
1.563656233605564423e-05
-9.353187904312406753e-06
-7.882540409157924068e-07
7.770991884890897822e-06
8.748929563814436560e-06
-6.483972038116795348e-06
8.270034504030756857e-06
2.156978229254400804e-07
2.633556683439396823e-06
-2.618066570300641681e-06
5.493157380800347205e-06
2.213070733017787167e-05
-2.399668858875480953e-06
1.031459010827484991e-05
-5.017997041342705958e-06
2.501162541384361953e-05
-1.039910606963150201e-05
-9.615131041641644303e-06
1.927207867170135675e-05
1.370809792966007297e-05
4.897628885639708062e-06
1.691589873098836246e-05
8.199057144960957564e-06
-9.566365342175582587e-06
1.005618266317737957e-05
1.118019662597977831e-06
-6.904352136810071322e-06
-4.005205668186243928e-07
-5.164976986907919207e-06
3.770803578846164341e-06
-1.027344288320077687e-06
7.144172255722009165e-06
-1.948247312563327661e-06
-1.618088917637749047e-06
1.502491939307012275e-06
-1.409619983422664893e-05
6.509330281327593091e-06
-9.941206559916874596e-06
-6.592940215275394015e-06
2.255467628872044703e-06
6.827526262538017579e-06
1.328365117531743152e-05
1.132712376569966961e-06
8.020548982421806027e-06
8.118571601636770016e-06
-4.707703922232983488e-06
-4.755688452127552243e-06
-6.564370948030806861e-06
1.009834908868857651e-05
2.265365479067345234e-06
1.171615438090268878e-05
-7.679091370617762856e-06
1.387942675743268647e-05
5.226421886972443411e-06
-4.972532014313455254e-06
1.003213508445925518e-05
1.453341095718830081e-05
1.320759149092249577e-06
-1.479025824009562389e-06
9.867833439973277762e-07
-1.237617405381792634e-05
1.307301958076577571e-05
8.919219529641447982e-06
-7.664580225631687535e-06
9.654424639924663056e-06
1.235842241606541648e-05
1.212850241430287577e-05
-6.964239328754388402e-07
2.892274155793687429e-06
5.684723883344239585e-06
-6.607096099841674783e-06
1.718411502585377121e-05
-7.063489377377498986e-06
1.946605358744863963e-05
1.227039856208184620e-06
2.181860852290639131e-05
7.549054199905148562e-07
2.406142872234510275e-05
7.842137628237457608e-06
-9.065472519730424263e-06
1.456701342759213208e-05
8.994019801599584902e-06
2.299063637609409559e-07
5.878588215794445810e-07
1.422675201458360961e-05
1.129318433033705754e-05
8.748758529378825965e-06
2.870388955981563310e-05
3.706983828908634723e-07
2.127311029181429411e-05
1.300634443849865501e-05
7.566839858206665531e-06
1.575190535474392834e-05
2.468485100431493565e-05
5.750848652341886157e-06
8.617007072922382529e-06
2.619770219734199394e-05
1.448930833110340934e-05
2.746750104317128075e-05
1.039362329835005704e-05
1.597001407329715875e-05
1.258932543535602906e-05
2.407312231643765686e-05
5.792411805522934592e-06
1.777154943133115036e-05
1.084274508727916273e-05
1.967630209804806040e-05
-1.601382045250213126e-06
-3.077580541722552573e-06
1.756309012931394568e-05
2.471892367838669289e-05
1.650646459777410559e-05
1.999540123103929294e-05
1.779216513928666004e-05
1.297251801152217644e-05
1.444593591214466039e-05
1.395830679643938768e-05
2.279962647746913725e-05
2.668699832717959979e-05
4.956394659928914663e-06
2.165961522207524327e-05
2.434132164993602844e-05
1.076648912294322317e-05
2.419177881636346396e-05
1.834687180763246378e-05
2.647831073151004120e-05
1.767101255643560798e-05
2.358189690924507884e-05
3.681502484353185993e-06
1.823288635713297138e-05
2.335292362158845802e-05
1.088457341985226356e-05
1.656661401289238047e-06
-5.577450567382565293e-06
2.137728660399140302e-05
1.703299975479824382e-05
1.022291738340033577e-05
1.613948693812385831e-05
2.555672763189295441e-05
2.080501167644063529e-05
2.557949120483788956e-05
9.574900868988151794e-06
2.062741235607918445e-05
2.547603839656532382e-05
1.020577951009487465e-05
2.279770021623667647e-05
1.506508550585073725e-05
2.015301009449530631e-05
2.918525123527738988e-05
9.032832585292834623e-06
3.353154310116874111e-05
7.114626509884241362e-06
2.062660217379126107e-05
1.560040716022204153e-05
1.891689494345357266e-05
2.300236706920990161e-05
1.244410319909605635e-05
-6.834406305390427610e-06
1.013978561417784347e-05
2.067133529524568233e-05
1.430908638334469602e-05
9.593171566330557456e-06
1.378085451832119831e-05
3.149508658081389811e-05
8.738862166009568578e-06
2.832054207021915588e-05
7.421337702300309777e-06
9.205175627918872535e-06
1.846409933433921412e-05
4.506464092166315497e-06
1.579681321831390573e-05
2.518032536283279900e-05
2.145002266850587613e-05
1.568588085024025139e-05
1.216654431509230566e-05
2.601891371870975096e-05
9.548171443716130968e-06
1.522409567955972928e-05
2.003323794591687908e-05
1.561039803253033763e-05
2.605386678839697462e-06
1.368606695544642682e-05
-3.738721745036393499e-06
7.990781222190510914e-06
4.120182843054486746e-06
-3.547160699835178246e-07
8.188096103676811887e-06
1.058463233799701976e-05
2.294218582929729127e-05
1.154674644940905271e-05
2.883966693438753102e-05
1.098304551463050280e-06
1.056026787916171085e-05
1.772959370445677826e-05
1.877326361432399163e-05
1.014645787342256117e-05
1.530084668873159682e-05
1.869382571961704939e-05
3.738917180719025900e-06
2.966160390929092829e-06
1.501902601949456914e-05
-1.179340188480287551e-07
1.355361686883314491e-05
1.353452001342961790e-05
1.686449459928197436e-05
3.648454120650598701e-06
1.828298665975254907e-05
-4.546672171002779091e-06
3.294350404959852063e-06
6.390208942482102214e-06
-3.730801668173855675e-06
7.622107914227090335e-06
5.852811628678281471e-06
1.439844763232547332e-05
5.996542692556288423e-06
2.256376918834982154e-05
-1.126185970634389438e-05
-1.489848509647945696e-06
2.133367985016962337e-05
1.268418412271380932e-05
4.835672370027842466e-06
1.069487758805029967e-05
5.371992421607705393e-06
-4.624590323666446682e-06
4.424956596751284852e-06
7.175403365415956890e-06
5.469993248496347123e-08
1.520689036637455462e-05
8.614843665574449679e-06
1.519595864309695126e-05
5.282553205542580947e-06
1.727072104071604160e-05
-1.252397807592292123e-05
5.888198665135983026e-06
5.993734350187723023e-06
-1.924260372459846410e-05
-4.903995806579302991e-06
3.256922350036737591e-06
-3.096551758826938198e-06
1.865775308905630639e-05
3.349628015506119719e-06
6.445163363050040073e-06
-5.905134472066030573e-06
-9.975765289768356327e-06
9.262941601160266572e-06
4.123321089631555103e-08
9.540134174996258153e-06
-2.879517298527395732e-06
7.787457222967147745e-06
1.410456007572985244e-07
2.563126405801926109e-05
1.300458473960446197e-05
1.023523974572460316e-05
1.227626751216472545e-05
-9.230136746186732688e-06
-2.563644340450131750e-07
1.820946385520140216e-05
1.372755243808266462e-05
2.113388769760780623e-06
2.439403047881238290e-06
-3.121208049128708931e-06
8.384297454723090644e-07
6.568518817071954444e-06
1.940637401070230189e-06
2.822766734831787505e-05
9.290714756405904539e-06
4.957930622730610717e-06
4.651589897266898124e-06
5.888506131539113534e-06
1.327714627237752644e-06
-5.283654013446518354e-07
1.885071821723412680e-05
4.933973971537115690e-06
1.025933770047340432e-05
1.371032651713754396e-05
2.680287614630377411e-05
2.061317178556326663e-05
2.176222166929895724e-05
2.672406168213258034e-05
-4.071012511316942609e-06
-1.124822578545525817e-06
2.409233274728583976e-05
8.175502782310084407e-06
4.377721148394778852e-06
1.619022501876476268e-05
1.077058846278326971e-05
2.086001837542142390e-06
3.116963823403595327e-05
1.885312782988849352e-05
2.649363678730973332e-05
1.191356944366913820e-05
1.625253016487969917e-05
1.357690529720885421e-05
1.891386619887595899e-05
1.517451476514984206e-05
1.606356946701298938e-05
2.216169686522404772e-05
1.629894807891691999e-05
5.153124444001445882e-06
1.095821580887195194e-05
2.725026928227002390e-05
2.513847425442636161e-05
2.594724242859502170e-05
1.223359817876202644e-05
1.677844845266816262e-05
7.543700172538653312e-06
2.560266388390138796e-05
2.374226355493081660e-06
-3.414969543666720460e-06
2.605710711124467648e-05
1.984911702776889699e-05
7.816494448664155798e-06
2.820801021026884015e-05
1.837002910616695507e-05
2.389240526801497913e-05
1.020158249510662578e-05
1.120881271975007840e-05
2.956248124089698502e-05
2.591756114410931756e-05
1.424232859914016032e-05
2.052925987806483406e-05
2.274845693505955248e-05
2.598815273417578000e-05
1.038167564669555468e-05
2.120835583514443529e-05
2.908835117672947066e-05
2.236139943990577816e-05
2.154953229175408339e-05
1.389771490635681306e-05
1.548624387064609657e-05
9.081321333623233261e-06
2.143226302083785776e-05
2.078389276860145797e-06
-5.936700523234498259e-07
2.575826577788148028e-05
1.547421345226177733e-05
4.668964896263395304e-06
2.014236430772085623e-05
1.642440303736300247e-05
2.075158315667766275e-05
1.412000685685653391e-05
2.038755655786659275e-05
2.964135569246782590e-05
1.620300781840584218e-05
3.076639563981367240e-06
2.567881523582633569e-05
3.192349172521130905e-05
2.198891314125959420e-05
1.847700668621319415e-05
1.026410441336010116e-05
2.705965299182392899e-05
2.753283789256122865e-05
9.084714599962980474e-06
2.836428849482111250e-05
3.019125580978420617e-05
8.748614601225278048e-06
1.216531497255285746e-05
2.647445196132539795e-07
-2.629250761839188545e-06
1.957672619010576015e-05
1.139073460722249599e-05
1.113494941526294709e-05
8.472005737850769533e-06
2.988274935289155266e-05
1.787082072434491379e-05
1.312093577260440690e-05
1.299898871828923414e-05
2.580096569108782898e-05
2.080897425899902513e-05
1.140156462846539319e-05
2.672811155454218678e-05
2.847988355991607124e-05
1.553975622720201184e-05
2.184773105681041746e-05
6.613789356629731759e-06
2.979232500853920451e-05
1.790547249481855516e-05
1.277574199066109777e-05
2.820574773077050789e-05
1.744310463292416693e-05
6.334733036856709956e-06
2.400703043187678819e-05
-1.638231120600919119e-07
1.359093749968186613e-05
1.796035012336948301e-05
8.750836264473558731e-06
1.449640111239708612e-05
7.469945486135448490e-06
2.411321090474272038e-05
1.446068113869922937e-05
2.154930947485937415e-05
1.291422617514204968e-05
1.580396606314557451e-05
2.114190974989398194e-05
1.317455343771256181e-05
1.559620623522257540e-05
2.081786153615089257e-05
7.735387082198071058e-06
7.345893614198797114e-06
2.687940928731187161e-06
1.608025096680217516e-05
9.963111018991403257e-07
1.196299476547481875e-05
1.723088214749651228e-05
2.202641234087296572e-05
5.903034938786599223e-06
1.842668440695135573e-05
-1.550727180762345909e-06
4.961580380408339805e-06
1.321020748408280234e-05
9.706212571899717014e-07
1.059825235046894028e-05
4.992896381952109485e-06
8.061550135449818634e-06
1.372315754278273774e-05
1.893779457036600354e-05
5.477853020403331615e-06
1.841122432449653637e-05
2.377737883274601565e-05
5.559634835684921367e-06
1.358231316287446375e-05
2.734973365437639811e-06
6.438336949572330775e-06
-2.990804174991524401e-06
6.897850632110588746e-06
5.286005984019286497e-06
5.767232713355295595e-06
1.046880313480649837e-05
1.720207072694694209e-05
1.794425501662895136e-05
-1.341791267072317334e-06
7.003308136024888591e-06
-4.145083916428281055e-06
-3.684987961962023738e-06
8.899249410298841424e-06
-3.247239962387001651e-06
-1.306667802202598854e-06
1.354825583892320709e-06
-6.296734945592267693e-06
9.652963874679990194e-06
1.734250500799767737e-05
1.268697088847846953e-05
-8.289096216341061848e-06
-1.572029328375824648e-05
5.874628400017438022e-07
4.473238041125516770e-06
-4.516379738324581810e-06
9.860980913649938350e-07
-8.474590759809791634e-07
1.246745109335533795e-06
2.052043171195408141e-05
1.448869961669170845e-05
3.206768650666364990e-06
2.302433821663967724e-05
6.595064514195238969e-06
1.045541010339642307e-06
1.752590819009675451e-06
1.666639772783538637e-05
5.082713572422555253e-06
1.258385394208981167e-05
-9.938683290620197919e-06
6.115056432356717384e-06
1.932162747953940758e-05
1.340091048858245778e-06
1.975744174230447948e-05
1.064766520802292382e-05
7.951307568209201818e-06
-4.542373387468759085e-07
-5.960323097033923414e-06
1.185282993421973114e-06
1.424758471507108417e-05
1.016161029867011415e-05
6.128687164724840714e-06
3.134547350462254086e-07
3.220686290219442054e-06
1.226776368422872565e-05
1.619489497955402333e-05
1.179909559823619572e-05
1.452822778549652688e-05
1.361638151752127165e-06
-4.585292720739148710e-06
1.886189075194482100e-05
2.299790004989841157e-05
8.803383394278466287e-06
1.310094309232951132e-05
2.281087766905133421e-06
8.054422048539469203e-06
2.492108074373905431e-05
1.018201646048870506e-05
6.692047915626391777e-06
1.162702841828248653e-05
2.252529714146723591e-05
1.301741546924841547e-05
1.585214979837443243e-05
8.149420926587292997e-06
1.320405977144454258e-05
1.132084110792727177e-05
1.526609375295991664e-05
-6.376845249641141056e-06
9.007288529934757114e-06
1.255901851444725159e-05
2.911174215239069638e-05
2.580880423508828914e-05
8.543279355613033084e-06
7.368826552707684422e-06
-2.928768579514627434e-06
2.593990493798323504e-05
1.263623108912912069e-05
8.557841961791959394e-06
2.801987285010068977e-05
6.373866882253370435e-06
2.461239594065571459e-06
2.676095278009716348e-05
1.145899913071142797e-05
1.271935944453476958e-05
1.095137963831981838e-05
1.735309322470957635e-05
3.715028275899973542e-05
2.586027171470855329e-05
4.663944246686909127e-06
2.352693004709914039e-05
2.093802009144063865e-05
2.268695505174883251e-05
9.154169253746903187e-06
1.493397807186700116e-05
7.546669567959289724e-06
3.055042284093590071e-05
1.737920098235060213e-05
2.477698345329240267e-06
1.135091558087098472e-05
7.837047491132675958e-06
1.957086517684238357e-05
-3.926777023568435779e-06
6.242398373799767312e-08
1.349892381209179129e-05
8.508871337873612488e-06
3.439351816719629206e-08
2.340665368011584063e-05
2.070649852107712225e-06
2.092053660962491209e-05
4.126092888263155995e-06
1.773873058073937046e-05
3.882755191699565966e-05
1.453682848682566197e-05
7.620939909356300163e-06
3.487073947804203569e-05
1.111509384604710817e-05
1.340539188332738152e-05
1.880909683508004006e-05
1.573133367527761666e-05
2.573079931253341077e-05
1.949569532447389031e-05
4.220931990870033178e-06
1.634479911103361581e-05
1.273622971790850831e-05
1.329599109783769742e-05
1.097785720151935955e-05
5.613839926601554042e-06
1.360946485516918888e-05
3.680276034705054380e-06
1.924881308711825001e-05
4.723091939453421205e-06
7.467619213122930321e-07
1.536239628326049211e-05
2.427798276124669489e-05
6.364674451257872393e-06
3.160548298574646266e-05
3.088645476573625368e-05
1.426207393167362898e-05
3.151044224183916582e-06
2.393782826267586367e-05
1.674559646133680994e-05
9.763022249419389816e-06
9.710028830852405644e-06
1.335453614515149008e-05
1.123097585736900536e-05
9.754403641448758182e-06
6.056749802788804506e-06
1.684071518738341762e-05
1.931203875947337412e-05
1.348444364522354623e-05
4.700944051214164641e-06
3.632589251075378132e-06
1.185215375370653141e-05
1.497977944270060201e-05
2.057432834757450869e-05
2.376339168977516391e-05
4.131472031351863454e-06
1.280459642298802510e-06
2.185233048988974113e-05
1.056818328985097476e-05
1.867573121664794074e-05
1.728307489601069565e-05
2.818142213248426176e-05
-1.145639458210256738e-06
2.252678018329044320e-05
9.663297193513619354e-06
-4.162064653231827761e-06
9.139945845046507732e-06
-2.268219276572544918e-06
8.577845144192133885e-06
3.849993366134951255e-06
2.417688772978510847e-05
4.972866150310544821e-06
7.571187478349894202e-06
5.810470396808151882e-06
-9.943310868292421379e-08
1.367489777357129959e-05
-3.481419790156387939e-06
2.074809688140220813e-05
1.151709851647201031e-05
1.485942162700819693e-05
-7.393042638935322651e-07
-5.726882907687949258e-06
2.800694043203818807e-05
1.218179157303694992e-05
4.147950053392211733e-06
1.414346203219402868e-05
1.860377943776350568e-05
3.610721636375358555e-06
1.833623404191876818e-05
-6.238154504833718408e-06
-6.855795185539398492e-06
-7.061683123045937516e-06
-1.526228750418589489e-06
3.795148803127256951e-06
6.237158537385742213e-06
1.402206489764047296e-05
-3.516445357784506680e-06
1.506008184372581524e-05
-1.648156454332697982e-06
1.032588670487334152e-05
-2.004569680355257013e-06
-4.564339743973357252e-06
-1.837496720806294629e-06
-3.478188604238424274e-06
-1.475281125163362285e-05
5.746625028132707098e-06
-8.564688777823148923e-06
-2.864954822201222322e-06
1.429862331762741295e-05
-2.036257864756151319e-07
5.736113119389051407e-06
-1.046395595683991702e-05
7.591372785559951167e-06
6.376840796905157037e-06
-8.792258138936580482e-06
3.982922435992746098e-06
-3.384155274796852068e-06
-6.213881585120994771e-06
-4.220724458387116592e-06
1.007102146622012730e-06
-5.669135818412102470e-06
5.269613925706421163e-06
5.824062912530874507e-06
-1.585152635438838014e-05
-8.222469659463707971e-06
1.623779659608209414e-05
1.609444113163935723e-05
1.151256699493734362e-05
2.285037298761233299e-06
-1.395808894850888169e-05
1.116228940718150058e-05
-8.226153442772735026e-06
-3.224281872186133033e-06
1.063286539150805609e-05
-1.922592452113680464e-06
3.400249390354725415e-06
9.922828340848411906e-06
1.863845643134074141e-05
1.002419722291781099e-05
-1.223626972207075448e-06
6.795929992594806836e-06
-7.917694739224529052e-06
-9.621563612348022179e-06
1.080333174627159194e-06
1.563337851822004085e-05
4.355896701263522834e-06
2.020547351530399048e-05
2.186075057386398392e-06
-1.372689103474983433e-05
1.238709067703823032e-05
1.533425527686419453e-05
1.432215084115764526e-05
8.178042752689279371e-06
-3.394364044432743701e-07
-9.154602996265333759e-06
1.179483482476594589e-05
-4.629124715943145187e-06
4.318170884073013662e-06
1.320096544465154019e-05
1.762551130910992826e-05
1.817168012463276952e-05
2.179824202548065077e-05
3.181427211452786830e-06
-1.652840092360779111e-06
1.397925513153449993e-05
9.534428162820465780e-06
1.909884639760688096e-06
1.520794757493135222e-06
4.313527945564301307e-06
1.120046479683152414e-05
8.021040290527753391e-06
8.963270107084333454e-06
-1.268098963113068234e-05
-2.464040876109165694e-06
1.203829979139654376e-05
1.237698745551471329e-05
1.590317184091361987e-05
7.654972307340231959e-06
6.766170637866066425e-06
-1.370460110536387532e-05
1.483454616256297068e-05
6.378896665845972571e-06
1.124058114099688767e-05
-8.720692098557749304e-06
2.207745105682411930e-05
2.371072444906273879e-05
8.387005795551470406e-06
3.645754198735266923e-06
2.753102178022640359e-06
5.001289934484950917e-06
2.576551670013664427e-05
1.578013379709020266e-06
1.126689116339520428e-05
1.354174262688318317e-05
9.445846787758214601e-06
-6.369783636312056170e-06
-2.169397496307257978e-07
-1.209790014551307563e-05
3.340255861102858488e-06
4.951534707112365436e-06
9.407324192793710741e-06
1.116115440444411563e-05
5.599231275939824299e-06
7.279827488484989816e-06
-1.895774613984454559e-06
7.360658781620499889e-06
3.174536073692801527e-06
2.943197079852792066e-06
-1.651063301650341144e-05
1.262471441024770884e-05
3.376460834885956612e-05
4.772216736090704905e-07
-3.696365266657311845e-06
1.796621299365360879e-05
1.376224402606864732e-05
1.465829475696431053e-05
4.398611223051028085e-06
1.576093215919806132e-05
6.588590578507801576e-06
1.009503333515704014e-05
-2.039929825563034985e-05
-1.758145254691716956e-07
5.332487195967334928e-07
1.745618416017511641e-05
7.260518380204953551e-07
1.866213206204184264e-05
1.945862448272490605e-05
5.211209230048625615e-06
2.880319876386158631e-05
5.478173578633468830e-06
-3.535160169445949595e-06
-2.644891646756044936e-06
6.005844534913774201e-06
-7.124068412461520601e-06
2.667577936559666445e-05
2.637765401035751622e-05
-1.471486986428965677e-06
8.820284672404559399e-06
1.970238606972851589e-05
1.483139844340378014e-06
4.059288245782585454e-07
1.626878523945547028e-05
-2.923178083374638049e-07
6.586127061602332058e-06
7.433266013076456481e-06
2.780909611312091145e-06
-3.323479911788492912e-06
8.466396362336215423e-06
2.230336324370299961e-05
-6.059809016747722227e-06
2.445641567432408757e-05
1.210938608627567723e-05
1.528312834691001362e-05
3.137385151707049072e-05
1.651631047740036997e-05
-2.287338096302324927e-07
-5.667137412720340639e-06
1.361394944868746297e-05
1.508323426150761366e-06
2.335706278180448811e-05
2.056151586197105491e-05
1.486863989806435664e-05
7.553898060151391001e-07
1.384462768798459505e-05
-1.561605734126323796e-06
-1.105285823468682809e-05
6.487911352847050583e-06
1.241213325860791329e-06
-3.813719459021671314e-06
1.768623271277762647e-05
4.966397793267123212e-06
-4.275339469301690570e-09
1.216414862514529307e-05
3.660694113158188150e-06
-1.735799868892930439e-05
2.096790795643305839e-05
-1.130659141726014921e-05
2.688781573141206700e-06
2.141310361310713473e-05
1.034830543233054010e-05
2.212748316966704664e-06
-7.063096141017452751e-06
1.249080647322585116e-05
5.109881191332594309e-06
1.761329423386562038e-05
2.227842457889214086e-05
-1.012439924442465680e-06
3.002610813540019082e-06
6.278725433959322363e-06
-5.886216614390992938e-06
-2.412033831037050784e-05
3.973731781972584138e-07
3.843159360411379198e-07
-1.600697829734972779e-05
8.062993044600544980e-06
1.042423966324931955e-05
-8.139039972509698760e-06
-1.270493836721074948e-06
-2.335345502088311655e-06
-6.646279985963230547e-06
1.242306207674751312e-05
-3.012976944554500804e-06
4.598514344491598060e-06
8.246646607063677539e-06
-9.708451695440500429e-06
5.366216913184987142e-06
-7.457290672769213268e-06
-7.402333972768204077e-06
4.752210802683182059e-06
-1.025811543913266472e-05
-2.745317943961345309e-06
3.436337499372740453e-07
3.269558393923749731e-06
4.130321650429994210e-06
-1.038331227107705068e-06
-8.406971156519996190e-06
1.409809837385643977e-06
-4.515253837310322311e-06
-7.350900726971269479e-06
-9.676913176557747466e-06
-1.953356541247293825e-06
1.009852905175600781e-05
-9.773097025966582521e-08
-1.085678390453788627e-05
-8.965940772346455199e-06
1.136846465634098178e-05
1.203636646959501088e-05
2.180252044773634797e-06
1.521955691308285403e-05
-1.762290973589741502e-05
5.694620128858599853e-06
1.127649571203044327e-06
-8.189310930947099024e-06
-2.915099976679721245e-08
2.079821155713313291e-06
-2.596224609420797955e-06
1.004308247691508865e-05
7.195719202626545585e-06
2.088832197075422381e-06
7.136930115738275919e-06
1.300414350430446936e-06
-3.437491724607335923e-06
-1.025613686407868242e-06
-1.255358990583592377e-05
-6.474146423258995499e-06
-1.355307933835009577e-06
2.506407286091143932e-06
4.862296385959506990e-06
-5.687684439280657348e-06
1.627500086531145327e-06
1.007739181208338003e-05
2.059362370677800811e-05
-4.590810054228984765e-06
3.692318305900373163e-06
-1.293357014440734603e-05
1.558614120675686832e-05
-9.969347639408527494e-06
-1.494178393402187228e-05
-6.265484119711175716e-06
1.620202648318128758e-05
8.515153596788752879e-06
1.717417092052727907e-05
-6.431622674577447190e-07
-2.406929057201576518e-07
8.894573493698534330e-06
7.316680385947351369e-06
1.058957784449079281e-05
-1.230552089862403073e-06
-5.671615928537252047e-06
4.840432549690904104e-06
2.207504460803641269e-06
4.585227121185200548e-06
-1.193710084930857033e-05
-3.568328353239126757e-06
-8.066166411781761623e-06
6.428724977546203517e-06
1.631576040404505756e-05
-7.817189663870759793e-06
1.163410033898313365e-05
-1.138810834384964578e-05
6.476865562805366545e-06
7.284574735671089842e-07
-1.102840828966076113e-05
-1.046567780421897662e-05
1.685344325560598957e-05
1.734792464426278985e-05
6.317187705114886496e-06
9.130851245244312429e-06
-1.857873808098543279e-06
5.557959311277395960e-06
1.388046350394116857e-05
2.759264950927241153e-06
6.360883838448241768e-06
3.349301555053000635e-06
-7.013743176383899257e-06
-6.665567534269693111e-06
-1.305226413393176395e-06
-1.155767673438036437e-05
6.902374262931456928e-06
-1.024504880994019776e-05
1.579820039541046756e-05
1.508073085025647838e-05
-7.869322472475834707e-06
1.940437994516909623e-05
-8.846614190830559159e-06
8.092587221153040586e-06
2.609002750357511377e-06
2.378623032092713779e-06
-1.298435477023610681e-05
1.623365542693812455e-05
2.592860308868913627e-05
-6.318195251196602013e-06
7.419743688441237631e-06
-3.111762542554996603e-06
8.586012077984197350e-06
8.380225747010248407e-06
7.418244963389249884e-06
2.616918044639403263e-06
1.256905479206643362e-05
1.322254967131109520e-06
-1.532169627295719235e-05
-6.144118746097997682e-06
-1.008740554474608692e-05
1.680850726613848986e-05
-7.133654468165929934e-06
2.482405285169034478e-05
9.673011255938537313e-06
-7.818432134581602749e-06
2.043804180790083347e-05
-1.045235521559755118e-06
9.743814630077009395e-06
-4.528498009349045134e-06
5.069321998170045539e-06
-1.923606753939509389e-05
2.771469428753357156e-05
3.177320115167949638e-05
2.314029092993536048e-06
3.493464558329076601e-07
1.481698578020478150e-06
2.746494581197038941e-06
-1.077351315649629961e-06
5.955548836886338348e-06
3.921354160266629879e-06
5.402629877372207892e-06
1.159207629503710473e-05
-6.457066814162515638e-06
-3.219526554006411852e-06
1.389377390678703069e-06
2.216261388142705120e-05
-1.739609927507467971e-05
1.546126400551302104e-05
1.078443269000205684e-06
-3.181099363809180146e-06
1.760479844135947924e-05
1.176776836793834430e-05
8.985437722873717680e-06
-4.391485404952851293e-06
8.782568346679074509e-06
-2.155013277052612923e-06
1.464255041391499359e-05
2.377773767811719197e-05
-3.778057723844777658e-07
1.126389079054127576e-05
5.601006697155548576e-06
-1.398026984885391308e-06
-1.249017998921116151e-05
1.945000057538428888e-06
-1.464598820322089912e-05
-3.391190267692709669e-06
2.055045697408571295e-05
-5.072352201443545056e-06
-7.525144451017275822e-07
1.318963069776515087e-06
9.911721087699585107e-06
-1.126395940961804574e-05
1.720124776658342740e-05
4.059192885495725559e-06
-1.121456001868592620e-05
1.416405600428954944e-05
1.036296310044310931e-05
1.346923310560151860e-05
-1.922673693130518206e-05
3.913257604646992803e-06
1.195414883977582570e-05
1.201399988626570523e-05
8.561496439521477952e-06
1.202433888403307773e-06
9.650703082596160154e-06
5.038378898576849146e-06
1.883045758603268493e-07
-1.572006743864673369e-05
4.325259675038121835e-06
-1.310814598985384116e-05
-1.280737880052861605e-05
1.196866530730122599e-05
8.539816217373875072e-06
-8.905970349510146619e-06
-2.087796191294491751e-06
4.244339000017099245e-06
-3.124337586003425046e-06
8.763454490570426623e-06
4.532508069682188222e-06
-9.529916842333144747e-06
-4.595084889711997356e+00
-4.595077445045195219e+00
-4.595087909181510000e+00
-4.595079347735739006e+00
-4.595080971543887394e+00
-4.595077910425463763e+00
-4.595075444873826243e+00
-4.595075229812255024e+00
-4.595073474686703463e+00
-4.595074936927735720e+00
-4.595071582073122052e+00
-4.595080695526781334e+00
-4.595068573626827302e+00
-4.595080995429976056e+00
-4.595078619241941276e+00
-4.595082263648238019e+00
-4.595073048928565385e+00
-4.595081302203202434e+00
-4.595072267240266406e+00
-4.595081764836998595e+00
-4.595072757574862443e+00
-4.595075704855108079e+00
-4.595074627366764197e+00
-4.595082060404672042e+00
-4.595079554931720267e+00
-6.781738539665757570e-02
-6.850169415911007420e-02
-5.713300245524689097e-02
-7.223662302125886947e-02
-9.179990074774078967e-02
-7.261863043849021981e-02
-6.737862948440642707e-02
-7.976030055663219098e-02
-6.250545293579881645e-02
-7.951385532825103186e-02
-6.997321642979512091e-02
-7.715395726413226685e-02
-8.986866839031647236e-02
-7.763441784375611776e-02
-8.099921580081456685e-02
-7.801555697733481010e-02
-6.317223403963077855e-02
-7.973896085768211739e-02
-7.587973881099177587e-02
-8.620886298201259346e-02
-9.287000249314003586e-02
-7.834642869208066629e-02
-8.691703876545782415e-02
-7.850482277147032006e-02
-7.153446325237342029e-02
-8.692699272534486210e-02
-8.511062832083512997e-02
-8.825637990960719104e-02
-9.252123559298749966e-02
-8.269233557960056769e-02
-8.881190596112420454e-02
-8.370887374745571152e-02
-8.592660745775679287e-02
-9.317689226167182037e-02
-9.135957656696369611e-02
-8.390193153854441643e-02
-8.654677847261020573e-02
-7.920177364887975857e-02
-7.810251035430701427e-02
-7.647566357507487589e-02
-8.992722806583859640e-02
-8.720698904613607971e-02
-8.600214983682917536e-02
-7.478318872429583208e-02
-7.995645379239975370e-02
-8.213072904765900129e-02
-8.704670037283813999e-02
-8.967717373432972094e-02
-9.828387231185951867e-02
-9.816113258185910073e-02
-1.002600407517127562e-01
-8.924702489711087983e-02
-9.423942087706109472e-02
-9.992940510286743572e-02
-1.070824397622573004e-01
-1.052310395064270931e-01
-1.037325679999376582e-01
-9.854463654900084968e-02
-1.040347978778981691e-01
-1.049158690004952654e-01
-1.106594847766362438e-01
-1.084509718422545094e-01
-1.020446180182947582e-01
-9.041005848599811823e-02
