5.039251992041642314e-01
4.677252416984662986e-01
4.679365981853326750e-01
7.555476172927944739e-03
-4.046103589450758542e-02
4.987676750566377160e-01
4.518071699819101172e-01
7.754564816872688837e-02
-6.686807578997641666e-02
-1.109554002267000988e-01
4.824649348651009750e-02
2.002442611095530678e-01
-4.501350987217215271e-01
1.897225878278089306e-01
2.026962298455878830e-01
-3.357226425958804161e-01
-6.197188173112048309e-02
-8.044061982558513568e-01
8.455279827632126034e-04
7.047845246805994543e-03
-1.192832575841207277e-01
-6.637412231129458107e-01
-1.705622945683551439e-01
1.290802683015927765e-01
-4.542885368999376172e-02
-1.145873516879714060e-01
3.904543128249748363e-01
5.419718100150999751e-01
2.558652931896742699e-01
-6.423023082215634227e-01
-6.500551599067255770e-02
1.036039958914809073e-01
5.748301039454891681e-01
3.788638282093732823e-02
-4.999044406865790768e-01
2.418401850992153712e-01
-1.034782042349492170e-01
4.757141774444965249e-02
1.638066506904057584e-01
5.333712876592879848e-01
3.702892661113582617e-01
-1.038097912414336250e-02
-1.255181792433201604e+00
-7.116897038210519000e-01
-1.092145253254061671e-01
3.516789155815457368e-01
3.511571693185835397e-01
3.062252759329755492e-01
1.988964847942419067e-01
-2.951100197147977777e-01
-9.917894149705249740e-01
-8.785315872547565519e-01
-4.571386930962463291e-01
-1.708324735306276376e-01
-1.031030730861431932e-01
-2.326109451255274074e-01
1.296464044025121276e-01
-1.754822119215868059e-01
-8.899805986822284520e-02
-3.046626047269626603e-01
-3.539965242441015514e-01
-3.185004964648088799e-01
-4.257031712572151294e-01
-6.689938328497220255e-01
4.842880119808858908e-01
1.955938141002524222e-01
-1.790046932236439015e-01
5.884323506180724750e-02
-3.355948015235138970e-01
-9.496085434912658885e-01
-5.572276040037075218e-01
6.146392760217617851e-02
6.330900909395796583e-02
-5.686098169992481743e-01
1.588263511219136989e-02
2.732724352684700597e-01
2.574625384731440425e-01
-5.547996483384869393e-01
-8.702402515761318291e-01
-1.789006486231393966e-01
7.549784659655705416e-03
-3.265321647841774588e-01
-6.040317481196379179e-02
8.419557469872035460e-01
6.097369776791495832e-01
-2.570831738866682925e-01
-4.573827517255734110e-01
-2.421116872491987648e-01
-7.406953521734223334e-02
-2.533824571913116386e-01
7.536420851084994765e-02
3.737549867931009295e-01
2.811643434889599114e-01
-2.425484000344580726e-01
1.900293971516583968e-01
3.927053640892071984e-01
-4.059414675556383689e-01
-4.748955521388768530e-01
1.308339995978834991e-01
-8.876603069128868873e-02
-5.329534962432342926e-01
-8.437435672124867780e-01
-3.537938466584509417e-02
5.750414572244036959e-01
-5.726471885911793569e-01
-2.186287327629553301e-01
1.683751674957268130e-01
1.213791582286398441e-01
-5.748270172991907234e-01
-6.897206361806774710e-01
1.964615011402225386e-01
3.044723210660522095e-01
2.656988845432675661e-01
1.016416210856211921e-01
5.482690471199732143e-03
1.681914963883550940e-01
-2.108350304462549563e-01
-1.478929959852193499e-01
-1.017901908861764820e-01
2.465063515465090727e-01
4.117294235233694422e-01
7.409475329649155284e-02
-7.875236748634553696e-02
-1.088494003653975861e-01
-1.241567894679267425e-01
-1.093649616794150070e-01
-7.487716854903259112e-02
2.958054214063437701e-02
2.425015024179019429e-01
1.484877570259327505e-02
-6.042370508164804921e-01
-9.709300996229781877e-02
5.856708435111794842e-01
7.538320987792890282e-02
-4.853828346575422836e-01
-1.315213967051404031e-02
4.828476401770767090e-01
-4.013548372626037919e-01
-6.713590100691290141e-01
-8.868097325281287802e-02
4.167651798183714673e-01
-3.018453482679221422e-01
-2.148042978240090606e-01
1.477978182433018206e-01
-1.192147131232538099e-01
-3.337361031683498402e-01
-5.235407757121096628e-01
-3.780841848949473838e-01
1.718063838098383145e-01
-4.199913153219986262e-01
-5.615118799266984873e-01
1.718085847100807861e-01
-1.898896089799224363e-01
-6.127787483048859063e-02
3.359332691264855369e-02
-3.489126601519014215e-01
5.898083530115071083e-02
-1.808215877900824498e-01
-3.025848203511304346e-01
-4.506505721694542554e-01
3.189937830133477425e-01
2.108478733213412504e-01
-6.507211989250667739e-02
-3.133860366226697836e-01
1.808693014934229654e-02
2.735986704767970901e-01
6.501691081180063780e-02
-1.458427316868861900e-01
3.096233926314884144e-01
6.858830757237859288e-01
-9.882369909107588044e-04
-5.496118345955388618e-01
6.255661170382700864e-02
7.063387921049912865e-01
2.074428865121736854e-01
6.322752801030094572e-02
7.002112937728210973e-01
1.084525230323450051e+00
4.509572836157542119e-01
1.942446192238061198e-01
-4.155121272595069248e-01
-6.580598945276563971e-02
-2.423376849548674813e-02
-1.092770271259758535e-01
4.217901678260971843e-01
7.147666704755332168e-01
8.264256069728377341e-01
-2.723889357745980511e-01
-2.841194566957443990e-01
-5.526085488908691890e-01
-5.403082315761017496e-01
-1.978564238316490587e-01
-2.190419361152369793e-01
-6.705495725524039663e-02
-3.691964096432606146e-01
-3.040281228438640460e-01
-7.345054488340042598e-01
-5.738755560668208355e-01
1.033544866267743605e-02
1.069942283187070436e-01
4.227940771862115366e-01
4.602075187689493863e-01
3.326382298803836624e-01
2.617429408187677692e-02
-6.744253352591721429e-01
-6.961447255147826807e-01
-1.473860585234927356e-01
8.279812064037947450e-02
2.349733978884205043e-01
4.367040770704490038e-01
2.217278363577601663e-01
-8.027044687992353211e-02
-1.543578538054319882e-01
-1.069303460197947170e-01
-2.584003510825067518e-01
-1.862341984279979601e-01
-4.351302186687326379e-01
-6.306537609454925253e-01
-1.330569586726947640e-01
1.731845213149448282e-01
-4.104927456295356936e-02
-1.824704407012117668e-01
-4.545607904086032547e-01
-6.009254724606749587e-01
-3.932148640062529399e-01
-4.327708529791001180e-01
5.102354386859293649e-03
1.943629931582159798e-01
-9.636798746700225848e-02
2.507248518976001872e-01
-1.801709997209836878e-02
-4.982652091465950006e-01
4.125500131656729130e-01
2.430457444665481692e-01
3.401694152670334259e-01
2.857693611155429636e-01
6.272047225333006459e-02
1.223582522232499470e-01
1.430937935004907569e-01
-2.156313076418612529e-01
2.674772969099428188e-01
9.395053891762880638e-02
-2.202118554183602611e-02
-3.767271687132716096e-01
3.949864525251531311e-02
5.103760059731737853e-01
2.483806643490986399e-01
-8.947294303606784238e-01
4.284348360065125955e-02
-1.548751472963768305e-01
-5.155329523739620168e-01
-5.505917800077601010e-01
2.476022977290760763e-01
6.101455850953294568e-01
-2.088211721919261410e-02
-9.872347292102862104e-01
3.561371620561130658e-01
-4.601023366677733373e-01
-3.056557630748616416e-01
4.601072575642123352e-01
3.001540728255231438e-01
3.327012405649628635e-01
-4.413266406521124813e-02
-3.499006498411356691e-01
-2.331034161863040077e-01
-5.345263341671800950e-01
-2.606030335577578239e-01
1.804165216519816317e-01
3.333041399286513773e-01
6.681464157402755566e-02
-7.625221401395563259e-01
-1.083754440685957166e+00
5.040473856243080641e-01
-2.723527243937939879e-01
-2.952637579272195945e-01
5.222768411840039704e-01
-5.541474724639416233e-02
-1.003102158778928707e-02
-5.421876399460237028e-01
-7.166678409106540526e-01
5.376356224678938700e-01
5.243362715199870738e-01
3.343158610202573520e-03
7.074999637423941279e-02
-6.051510206150487875e-02
-3.121884365802173739e-02
-2.017205790358557738e-01
-6.625107790873545621e-01
5.197072675397221841e-01
1.884212771706480216e-01
-2.045078274703476529e-01
-4.468879153234716073e-01
4.876667881486997438e-03
4.392610261845469877e-02
-2.360600499560567833e-01
-5.467390915280765373e-01
1.010466665572349321e-01
1.573564375402450657e-02
8.022295015272985774e-02
2.293048639229990082e-01
1.282126143567121901e-01
-5.853293774138989408e-02
-5.043044242880592165e-01
-6.395830883981442616e-01
-1.326973395857714011e-01
-2.415312908999205921e-01
3.223188944532885680e-02
4.194847789709268970e-01
2.489764291043364552e-01
1.972185053326634685e-01
-5.530845823314503584e-02
-3.820959533749325732e-01
-4.315005766014178290e-01
-5.782462100309280206e-01
-6.323260297298585741e-02
-1.797280479812062362e-02
4.227805091393300324e-02
2.181497024445318636e-02
1.076720745451318489e-01
9.879626961658492801e-02
1.027830953065877795e+00
4.264848867799140852e-01
6.241958365509543694e-02
-2.340594317147942638e-01
3.244865796667835700e-01
5.826582278314430541e-01
4.541444483476524963e-01
-1.871106833045295681e-01
7.249950637345559112e-01
2.214743172280632666e-01
-3.398236303897063104e-01
5.025363583213931715e-03
3.845534407214797334e-01
4.726436733381128019e-01
2.354526599170460588e-01
-2.259943484689537485e-01
1.538764730427682158e-02
-4.664179488958538067e-01
-6.311482118357082394e-01
1.761419323746214460e-01
-1.936140284557897051e-01
1.851102833963106931e-01
-8.660090838887062048e-02
-5.438869481555236307e-01
-5.352192930722052822e-01
-6.078750868710145472e-01
-3.206829700067695965e-01
-1.944188562943311577e-02
-3.729211956006123208e-01
-6.267300891111080574e-01
-9.851938693234572053e-01
-5.998611434685729993e-01
-2.864643980326411210e-01
-2.838217031832191983e-01
1.808974962158235167e-01
-8.333666606634082541e-02
-1.665829415638837296e-01
-1.888488594420090483e-01
-2.802998022244749254e-01
-3.452516242702676763e-01
-4.685782715246175067e-01
-2.734627064861856471e-01
4.337584893088137217e-01
3.495401697198042834e-01
7.568849213868428238e-02
1.942744303265464823e-01
4.757961592241336524e-01
3.759700496249933077e-01
-5.801830114950217165e-01
-1.741927234283760506e-01
-5.400320696220945599e-02
-2.802369680890093862e-01
-8.655316256794011454e-02
2.922795563216809001e-01
8.965742206598583675e-01
5.617677075534324160e-01
-3.384979604061068015e-01
-3.393419459271328487e-01
1.597539332774615406e-01
-5.318968109417341328e-01
-1.461522015057044044e-01
1.538464302720838894e-01
4.346660267801026878e-01
3.397897018383277956e-02
7.205605731362539901e-01
2.522444007868291371e-01
-3.091128106566508604e-01
7.483633762433554437e-02
-6.339338618908604284e-01
-2.479553268173444180e-01
6.355641293049609786e-01
1.167850924162698423e+00
4.167569894456790158e-01
-3.432777614271200761e-01
-4.786284261169163612e-01
-5.835207149387041659e-01
-7.388373868410794687e-01
-5.677491594401332664e-01
2.453795718811677684e-01
7.018662756365614541e-01
3.238744271642251538e-01
-1.515332584733922738e-01
1.991948156339809484e-01
-7.334536051069391605e-02
-6.571408673658618582e-01
-3.881865717547977601e-01
1.757928551240665327e-01
-8.150088035138280951e-02
5.698382628655225268e-01
6.315624426101115185e-01
5.574357103731659990e-02
-3.592795373872139097e-01
-2.790363536340069173e-01
1.664319978930275667e-01
2.347287440933384095e-01
-2.416670972295329733e-01
7.112240976368780498e-02
2.027191470974105125e-01
-4.666304733501316915e-02
-5.380487257056644212e-01
-6.523752046777980818e-01
-6.615886809743734553e-02
8.342908252272643321e-02
-4.418355307868359061e-01
-1.458474059516486065e-01
-1.358696752858445378e-01
7.541742161351826235e-02
-1.270541981432861955e-01
-2.893891376480284619e-02
2.376782329699721544e-03
-1.237565700705396954e-01
-2.646745984173061172e-01
-9.819505166405531615e-02
5.088030298698390658e-02
7.345098009534521688e-02
3.327227433757513619e-01
-1.343389044866197778e-02
-3.528119736233398807e-01
2.453294036897615826e-01
2.596711317484428627e-01
-8.399740842236218252e-02
-4.023925939004817653e-01
-2.689972495873794167e-01
-2.656778708335679751e-01
-3.961377157678099281e-01
-5.718831785067280959e-01
7.094878880530883225e-02
4.114329153958224405e-01
-3.386341073179235939e-01
-2.313092812289057609e-01
-1.974736593992263700e-01
1.704495288455431246e-01
5.565632488858892613e-01
5.724555866754992284e-01
1.366303306024548286e-03
-1.189921242286050701e-01
-6.761507030345267899e-02
-6.333274884434930696e-02
1.038137808997848383e-01
1.201657836675038005e-02
6.458448992779612652e-02
-6.219678294572552474e-02
-1.567350739798542003e-01
-6.876617220552910803e-01
-5.089460141329456011e-01
5.397330718791969462e-01
5.545855557043454231e-01
-1.955378255370609220e-01
-1.120079196574774505e+00
-5.104073238793488398e-01
-2.850992238528503586e-01
-3.092067065884192278e-02
-7.948960804701309391e-01
8.756937104348105905e-02
2.619616903807144292e-01
-2.694110138860987200e-02
-9.155227905056748661e-01
-2.903356658492635689e-01
3.148414322804689025e-01
4.425439022768896252e-02
-5.821544434001009183e-01
-1.450829167909477024e-01
4.670914977407203961e-01
-9.038640439294601259e-02
5.999778007670708568e-02
1.055498224438506522e-01
3.834198448745138044e-01
2.523611939587848130e-01
-4.356251799135967689e-02
7.769873877186486699e-02
4.622730653111081778e-01
2.682617042265667551e-01
2.008781834929491417e-01
-1.045390523881357114e-01
6.264451299977834287e-02
1.700084734557186228e-01
-8.338250439528331615e-02
1.797980246751995359e-01
-1.258643229969340915e-01
2.968524725181177493e-01
-1.677741568318737442e-01
-6.152565835953680562e-01
-5.303900012535680553e-01
1.844504221708472835e-01
-1.149539842325955352e-01
-4.596022843409749425e-01
-3.246132619596100444e-01
-2.437004688618465420e-01
-2.662236914765614970e-01
-8.398025006494866940e-01
-4.872617578599874322e-01
2.026839494633102257e-01
-5.980676973919560879e-01
-2.554932845546824538e-01
2.572811144513689752e-01
4.393038991878540911e-02
1.044911940837303654e-01
-1.951564627997039170e-01
4.214425641945395151e-01
7.034403520880139205e-01
-4.193651842786276229e-01
1.334545014473403068e-01
2.991598099051008264e-01
4.608586095742996380e-01
3.771804356017355864e-01
-1.806860280411753950e-01
3.931595113194320534e-01
8.771732818194820647e-01
-1.866524030660723227e-02
-7.149315560977298478e-02
-5.328765703141420396e-01
3.059422352958829916e-01
1.267544762255638502e-01
-1.556678236110308200e-01
-6.043183792959898604e-01
7.202289076010959419e-03
-3.326355895257859796e-02
-2.806536176394989202e-01
-1.168344035589809371e+00
-8.617282684647787905e-01
-1.401203620895382917e-01
-7.099798736655792419e-01
-7.522213623983725617e-01
1.061280534289824190e-01
4.705299538705520757e-01
-1.821613631237311848e-01
-2.937485397270819254e-01
-1.229111625502400836e-02
1.602189688716917637e-01
-5.429112387549122065e-01
3.050740901585975440e-01
6.041096879536627107e-01
2.524058445976152254e-01
4.533190836912122101e-01
8.137838744294367821e-02
9.228845518154231431e-02
1.619188452032376546e-01
-1.842225608408619986e-01
-3.392033565559470776e-01
-5.767778603612625649e-02
-2.156389539889861651e-01
-2.980541437210296740e-01
-1.101355010778576199e-01
3.468081015937989897e-01
-2.281150808529027949e-02
-9.989966902712728303e-02
-5.806975442486379535e-01
-4.139197018538455231e-01
-6.823678613211311417e-01
-3.834183427039421499e-01
-6.803620258383097363e-02
4.142369943581284408e-01
4.316690864334724598e-01
-3.741511227384863164e-02
-3.675364446477639158e-01
-3.778688058985220644e-01
2.617361790054181792e-01
3.468202476082798968e-01
1.066499788684072414e-01
1.679758950401119000e-01
5.408938649186785241e-01
2.600036889946535923e-01
-5.090019700284488247e-01
-2.848171106176594636e-01
3.439312209239928086e-01
1.444605544222156424e-01
-5.685194059967723090e-01
-3.116729615719175950e-01
2.110587021801355739e-02
-2.681027541598930974e-01
-3.736907708716062371e-01
6.844162271145115550e-02
1.529649534828158852e-01
-1.045297775098083803e-01
-8.275377888968751261e-01
-1.079241008836887117e+00
-3.782489751447485893e-01
-2.841131112092565858e-01
1.881468073374650274e-01
4.809855783738166135e-01
2.615867526076180449e-01
1.176733925634326772e-01
-1.574833468905711964e-01
-2.193929367340813896e-01
-1.056767957998134277e-01
-3.985891030101336718e-01
-4.389516259839403023e-02
5.817449381145153309e-01
-5.264840796336262008e-01
3.608345561119807171e-02
2.590655386269431482e-01
2.331557959089501919e-01
-1.134652213016955208e-01
-2.113655811533510578e-02
-5.608958952748499538e-02
2.825214424090075060e-01
-7.337238937381196369e-01
-4.853375542768614270e-01
-1.503612547816058909e-01
-1.249591620137320835e-01
-1.412250494783322541e-01
-9.596789775103860276e-02
-6.634706013704068095e-01
-5.809294416284356277e-01
-3.475051926075332087e-01
-3.760512496355197798e-01
-3.572246193169210660e-01
-2.267616470890045088e-01
1.377090119364280385e-01
3.724242494483565591e-01
-2.492618615631909118e-01
-3.989979853989238379e-01
3.470670228166612414e-01
2.670818343000786466e-01
-1.051920331517691432e-01
5.424913527154062547e-03
4.043167287643853469e-01
4.407018997855796649e-01
-8.117612303579797850e-02
-3.125546266860932398e-01
-4.069447306714706336e-01
-4.178989872135792649e-01
-1.536323193775073620e-02
-6.976695934225377038e-02
9.550974422877672732e-02
-1.847479412246545161e-01
-1.975795406605720672e-01
-3.985756103210302270e-01
1.800896564525615029e-01
3.797098025949529609e-01
3.856764176165145552e-01
5.453892028201282605e-01
3.767824288917271530e-02
-2.037848360437387041e-01
-4.661260428814340551e-01
8.896941171294923956e-02
4.996214918053921705e-01
8.841697856469189487e-01
1.114041103947178007e-01
6.905471298452048323e-02
-1.687668979946140568e-01
-4.560593083373489787e-01
5.152264779585945254e-02
2.374785891735779197e-01
1.888881455752047245e-01
-2.780569160572071152e-01
-1.298451469594801566e-01
-4.224691882211425997e-01
-2.275789584243491370e-01
-1.227429166978615399e-01
1.941705516217843985e-01
8.357957903891825857e-02
-9.552063923479275909e-02
-1.553888199516245128e-01
-9.628643039665655268e-01
-7.058143119049918868e-01
1.715944377112151031e-01
1.890749219395427283e-01
-8.742437629828261891e-02
4.790020998325275614e-02
3.427050229391200020e-02
-1.369331298595576063e-01
-5.612538167954853607e-01
-6.177141663566847463e-01
-2.817442493564893957e-01
-8.760238155777085034e-02
-4.786197485201853369e-02
-2.894461435870966382e-01
-1.207845647989407856e-01
-4.833019156825416746e-02
-1.322409160880856291e-02
-6.775542357063171206e-01
-6.549757571545917756e-01
-4.683160597567413708e-02
8.040656832073467264e-02
5.292112453848604181e-01
-2.827680815039042561e-01
2.189235370001297865e-01
2.866189419490480783e-01
2.615998450066740755e-02
-1.455802782664476491e-01
1.544731839193037859e-01
7.860567568189013032e-01
6.775596073208555170e-01
-4.338740098211200241e-02
-2.130121103951514439e-01
-3.731408627669935973e-01
-5.529378859368397903e-01
-7.715775292508773031e-01
1.139493749525051225e-01
-5.092040983631226231e-02
-3.381526037306290533e-01
5.054980864083130632e-02
-8.710833652317925835e-02
-3.186906734104713590e-01
-7.816056769854555775e-01
-3.795654868739246068e-01
1.388762707121916906e-01
-1.175368663528752883e-01
-3.918530474347906578e-01
1.251845031657507386e-02
-3.583040572689924486e-01
4.827564121687642762e-02
-3.591394321479228213e-01
-4.257047954489427966e-01
-7.040367965191815514e-02
6.141012011497926082e-01
1.794546594715379362e-01
-4.488623100474550126e-02
-4.276131755622901709e-01
-2.686790672462106011e-01
-4.393312731360687340e-01
-2.456880308590325412e-01
-4.792710952454245499e-01
-1.978091835742121912e-02
3.574089818797602236e-01
9.364685971142891474e-02
-3.118768671711987794e-01
-8.542206467064492048e-02
2.412704654887403988e-01
-2.090943594918967530e-01
-6.304624952767549084e-01
-5.957417657079640966e-02
2.603222764248399601e-01
7.113651389710119455e-01
2.491766515294735196e-01
-2.868922714260470630e-01
4.080876625729638052e-01
-9.168896292628563038e-02
-6.404942279763083945e-01
-2.603696272404195655e-01
4.882600126369701643e-01
6.167132651822703204e-01
1.004146017172078964e-01
1.781548464947212973e-01
7.853083033097776333e-01
3.458513836319569434e-01
-6.019449316067603667e-02
-6.904841750709557469e-02
4.386911654515688874e-01
3.147534954504759286e-01
-3.994216716123549227e-01
7.409082566744747134e-02
5.712906371710768649e-01
5.891005981404735525e-01
2.353353461633820587e-01
5.588145498118838317e-01
5.397525384060406495e-01
-6.838688237110597257e-01
-8.262363646792870719e-01
1.658729544027001679e-01
2.332811987045061430e-01
-5.469609628342453345e-01
-8.228069303245076904e-01
-2.463398829923084676e-01
-6.683915861942647807e-02
-3.086452131996043624e-01
-4.355897673000992398e-01
4.562258190639324057e-02
2.681998050636886788e-01
-5.669041639188617809e-01
-6.155983604342428750e-01
-1.549140820929472140e-01
-1.708249620322433160e-01
-2.138742111538103827e-02
2.095561865828657888e-01
1.591649956000744937e-01
1.822186798979517353e-01
-3.193083119060299291e-01
-9.928516604410035640e-02
4.313828231208369779e-01
1.407968030938966386e-01
5.920024256335011392e-01
3.468678683699997212e-01
2.448428478011492049e-01
9.301667039016109362e-02
3.094671986706199959e-02
5.843431498283905290e-01
7.314272830545524018e-01
9.471278096906986244e-02
6.294813199690533212e-01
3.301805213335577416e-01
2.497706247725496043e-01
9.551217991847091304e-02
1.068527766319498501e-01
3.609665662278346288e-01
2.720454836751292071e-01
3.289499893731004376e-02
2.424914363748561508e-01
-2.399286463844739134e-02
-3.781770505332841537e-01
6.477302411863460063e-02
-6.093507933509247076e-02
-4.009901166253534988e-01
-2.997990148695184320e-01
-4.774764617005826661e-01
1.188647406172420734e-01
8.952694109211165041e-02
-2.506222237020863108e-01
-1.064055207798100117e-01
-2.744457849488135190e-02
-4.389149564434195461e-01
-1.249037712660689969e+00
-1.049323001043744430e+00
5.751639368195896607e-01
3.350869553815933322e-01
2.340000667137420998e-01
4.043845170547651358e-01
2.086355467559535271e-01
6.713900864099760224e-02
-6.524753306431136934e-01
-6.103553173320529490e-01
-2.746517526038026041e-02
-2.375436422390357280e-02
2.773394154796279820e-01
-2.715915266730511979e-01
-1.516973729418139849e-01
5.043870513421727653e-01
5.730918214346710782e-01
2.948280396599771078e-02
-7.569150855246762344e-01
2.671086614506903989e-01
1.399402532763065754e-01
-1.066544887773123729e-01
1.149976236784584216e-01
6.196519505075464007e-01
4.755608015913788122e-01
-9.609972800126868886e-02
-3.984644966890601991e-01
-1.714042858709894923e-01
4.289197480870297063e-01
1.782656514367998990e-01
-1.817094920151124116e-01
3.506920638957053415e-01
-1.762617377421500653e-02
-4.591158432453906757e-01
-5.586385557505666455e-01
1.593441902797685661e-01
4.452858975586849177e-01
-2.397203960436382897e-01
-3.301700681301921181e-01
4.437332860783133742e-02
1.559065484648553546e-01
-2.636593320747435687e-01
-3.442460107051208973e-01
3.040430504031531658e-02
-1.758057887329158853e-01
-4.932138482647823174e-01
-6.767927641182700516e-01
-4.828837500001655902e-01
-5.512540505590894924e-01
-5.497878232158814882e-01
-3.683208886313483754e-01
3.346016116492951838e-03
2.551473842368864320e-01
-4.871760430135531617e-01
-8.388686996197038948e-01
-3.667294298650171369e-02
-5.505387690777223675e-01
-6.758051381780432187e-01
4.620065311628379634e-01
5.389989501333124489e-01
-9.768968357590354645e-02
-3.560376654703666377e-01
3.017487686624067619e-02
1.563500896827908770e-02
-2.432231627521777018e-01
-5.580975733141348982e-01
5.059151322750089497e-01
4.279277284621048061e-01
3.325343844692486561e-01
-2.648365938624439031e-01
1.966173729534926584e-01
2.620591039869332728e-01
1.249092569718958240e-01
-2.026811196337700155e-02
-3.080937963066105248e-02
6.907204451000735490e-02
3.013776580665798455e-01
-2.855794152617606094e-02
-2.187118073266677010e-01
-4.217636106041958155e-01
-4.871432144177291201e-01
-7.738029927801923780e-01
-3.648542622398958102e-01
2.788772279180959934e-01
-1.848130865904661427e-02
-8.041389889450158146e-02
1.920075933144418101e-01
1.566609073277280481e-02
-2.518635051622355320e-02
2.095477934028838474e-01
-2.638764992690409428e-01
-5.423615616785187887e-01
-7.169552094303957568e-02
1.316349619796831558e-02
1.286500354300081639e-01
2.762540889457670845e-01
4.701639291469552617e-01
5.503679685354906370e-01
1.123864797294956142e-01
-1.348108413504981173e-01
-2.418798908804576098e-01
-3.927139105678586484e-01
6.161768016696655102e-03
-1.282503036739043589e-01
1.097808481353386850e-01
1.634201252525531445e-01
3.399226254642267464e-01
1.615961622434032574e-01
-1.840530478456887942e-02
2.839980730713805857e-01
1.275065185034414406e-01
-3.342047715545272135e-01
-9.984019052350490142e-01
-4.406144946922719852e-01
4.752146961645946632e-01
5.568898544015211671e-01
-1.039128267430247665e-01
3.304718003648082214e-01
4.446827502679203126e-01
2.058050677295299447e-01
-6.122717716999287463e-01
-3.001815827342292908e-01
1.945406406915410891e-01
1.728509277969197122e-01
-3.679182939029076449e-01
-1.445651264563976857e-01
-1.176927808901488542e-01
-5.705878433080834727e-02
4.589429962792704321e-02
3.229260601070006453e-01
1.088531732482342501e-01
-3.723921716262833526e-01
-9.969423421437569877e-01
-1.394210801646747822e+00
-7.095409476295494455e-01
-6.513911749243876947e-01
8.705384217211846465e-02
3.505532279736146006e-01
-4.601620927498998315e-01
-5.223538457535610302e-01
-2.502612175068660294e-01
-1.762305820679408719e-01
-2.201498090602787422e-02
3.949241031539491020e-01
2.859449598699566053e-01
3.819271920151219302e-01
-1.650826319659174923e-01
-2.726783333681447874e-01
-2.697036566831270687e-01
-6.520973760485293536e-01
-5.561988834162436696e-02
1.157543966424997850e-01
2.345866111059281278e-01
4.234337601100854331e-02
4.426221297534952970e-01
1.217958564194996235e-01
-6.396040261784565750e-01
-2.186354360438652333e-01
4.033449642590709594e-01
9.390080982416830480e-02
-4.968160161316628187e-01
-6.999432883161041952e-01
1.419599368941059335e-02
-2.974737115347971250e-01
-1.374755939862645215e-01
7.821490126041361068e-02
3.008059718022950690e-01
5.204644248124628003e-01
-9.761573719596537690e-02
-3.418025071991408481e-01
-2.437875141409892310e-01
-4.158118707191627572e-01
-2.808424348187759656e-01
4.297862518985960945e-01
1.010688968822700318e+00
3.075823161040734943e-01
3.548044458026246035e-03
-2.853810490878680786e-02
-5.765548051384609129e-01
-4.797921113058193354e-01
-2.750385594709679228e-03
1.609486937219825331e-01
-2.413482047387381924e-01
-4.233242088608152875e-01
-1.504889746130304573e-01
1.234085148756517702e-01
4.939627131523640635e-01
-1.894693163897283317e-01
-5.037894054202224359e-01
-4.560801590807614381e-02
-6.435080192747808514e-01
-6.664146928484249166e-01
-4.043114152719226584e-01
9.538750251138730651e-02
4.231055462748130602e-01
1.464473217603703414e-01
-9.441062728725219122e-02
-5.342116065487112486e-01
-8.966014201081060064e-02
-4.182268774254947474e-01
4.074296919750709511e-01
4.646319216143890429e-01
-3.092661658014370651e-01
-5.713446213646842242e-01
-1.228782505751624177e+00
-1.000951004578798598e+00
-2.793694775799266949e-01
1.461034984309767804e-01
-7.694911381740841827e-02
-3.035498736950313359e-01
2.009244151498675579e-01
-2.520861640569354023e-01
-3.747676646748279161e-01
-2.958479062005405225e-01
2.149879299950699652e-01
4.827720333437293676e-01
1.714665387379891714e-01
5.547378687070203540e-02
1.165209850131253416e-01
2.588308591094328759e-01
1.064161581473999502e-01
2.858489795952994794e-01
1.146639869506387299e-01
3.891917557336289080e-01
5.657757245587899941e-01
4.016683683892825485e-01
9.536060314613951927e-02
3.227979971105329193e-01
1.549368644700060416e-01
1.109924522746550402e-01
3.459154216004541038e-02
-2.908326125160242692e-01
-2.892864946572986096e-01
3.454763267809183858e-01
-1.211407656008134243e-01
-4.797019918909368741e-01
-2.305897588290829747e-01
-2.189649409027001892e-01
-3.884472582903493731e-01
-1.570044369538270146e-01
3.094429314180979079e-02
7.467925506915193412e-02
-3.822150111699137431e-01
-2.058408841833906933e-01
-2.732999779994160217e-01
-6.104460352645842830e-02
2.747484323001945783e-01
2.260358019563306065e-01
2.151312286500342008e-01
7.279148354948680733e-02
-5.731085028225394451e-01
-2.428886849630388090e-01
1.466313008801429785e-01
-2.895663778588372303e-02
1.500597358503781217e-02
2.089148838577549183e-01
2.799231005886260171e-02
-1.608555528305440629e-01
-5.540151925185604620e-01
-1.962498268879009078e-01
2.992274850740572201e-01
-2.152157675503945169e-02
-3.056097404438825604e-01
-4.223183995652682321e-01
-4.645914700697994504e-01
-6.647322347903218409e-01
1.533345316632147570e-01
4.970054877997476250e-01
4.724779899036097297e-01
4.750291448103046155e-01
2.662813466861149725e-01
-1.539456970759920662e-01
-3.984221400307800393e-02
2.232212428082115119e-01
5.088999807687479837e-01
6.465548944875426640e-01
4.974840357920037870e-01
6.672848448280930267e-01
4.457020812071664229e-01
-1.545593699125377418e-01
1.242062367925441946e-01
4.134364070141926528e-01
1.900584891492182182e-01
4.954675594240516290e-01
5.859618168016845763e-01
1.611539422043001546e-01
3.946863807400641244e-01
4.549358384157464741e-01
3.145718333086561236e-01
3.908118315112369540e-02
1.567312808516890532e-01
3.008356555357465378e-01
3.893545443083154534e-01
9.979314132321727426e-02
3.126019002834425353e-01
1.953143351538756678e-01
-2.010536820529325586e-01
-1.903280770485564766e-01
-2.830293339217994086e-01
-2.659818068729940740e-02
3.592511621484649198e-01
-3.354140585763999011e-02
-2.222782844666205005e-03
1.702501622112218838e-01
-1.870100568641373806e-01
-1.994316805763296785e-01
-4.498690506251740717e-01
-7.076673081907203233e-01
7.519137552445721850e-02
3.277246202307736445e-01
8.029284198577253673e-02
-3.574072791368158586e-01
-1.992956574637709255e-01
-2.904264828085730832e-01
-3.939271572679721167e-01
-6.416220863737407409e-01
-2.061657572702253749e-01
-6.648189774851397116e-02
-5.601345069456096885e-03
-1.854165357838118700e-01
-1.273721413251270584e-01
-2.148661224102446921e-01
-7.673734912145935283e-02
-8.951527235249857606e-01
-1.672871748555017080e-01
-1.451079141341991563e-01
-9.301025031898992046e-02
-4.290381967597224344e-01
-3.860517717091100920e-01
-6.926996236279081565e-02
-7.754175453242690974e-01
-8.167328120618742859e-02
2.478588185204760527e-02
2.845896916616743044e-01
-1.364221567577689476e-01
-3.617800875959611973e-01
-1.087849616594427637e-01
1.405695872467604968e-02
-5.935191100489398686e-01
-3.231228254508487496e-01
4.383634435766264326e-01
-4.176584515263350728e-01
2.356826704202472089e-02
-4.644400689748497124e-02
-3.193415705741092792e-01
7.902478348890980275e-02
-3.100539255305398423e-01
2.328953089195130721e-01
8.966810262104156493e-03
-1.034457097072055548e-01
2.895755025555108927e-02
8.088043167886840856e-02
-4.606339195228387751e-01
-5.313399910085372380e-01
1.754113758360108799e-01
5.959012753973654819e-01
1.957946007420572621e-01
-2.363864821708244746e-01
-4.731198180057246683e-01
-1.142753030685715737e-01
-4.280672282843336895e-01
-4.359681930398193184e-01
8.725545379609615793e-02
3.970316485889240771e-02
-5.544278691005628118e-02
-4.919306199498212351e-01
-2.823946112350007032e-01
-8.892492898946604760e-03
-1.693007132453770713e-01
5.576695872160795237e-02
-1.672388605119267402e-01
-7.511018074781329323e-01
-7.936124382162619284e-01
-2.527382862510084705e-01
6.198796886107558191e-01
3.220214697060873599e-01
4.681910965030943728e-01
6.559364529507633046e-01
5.078704758933757502e-01
-4.622357120610738890e-01
-5.304190356347694424e-01
5.879134218689965712e-03
7.073402940823606544e-01
5.881175593825623826e-01
4.566242318150839363e-01
4.179202555699294552e-01
8.483210293645185862e-01
1.891419903816773385e-01
-5.193550465243280678e-01
3.317760360875666309e-02
5.149234316607036455e-01
-2.305629587296403604e-01
-3.921661704295901774e-01
1.299815577214812334e-01
2.877707509400619090e-02
5.689978989521361497e-01
7.904968064445841991e-01
2.691513448994868329e-01
-4.679796988959295523e-01
-2.903380302034944127e-01
-2.585002421073392953e-01
-2.311683218392136252e-01
-2.613868299538613105e-01
2.954695517556200635e-01
4.487482357066412408e-01
-9.104573495117608550e-02
-7.370061652629374960e-01
-1.898026531206387646e-01
1.500162168770531601e-01
-4.854440588172464488e-01
-1.357966773388496473e-01
-1.567519755457278119e-01
-8.714484856005186297e-02
-3.230552712931462622e-01
-1.762214598627571682e-01
2.689826904988328882e-01
-1.827610037943276644e-01
6.052664511925012931e-03
4.302824171761925054e-02
-1.107201670697798707e-01
-4.125078022482108198e-01
-3.686323018363782400e-02
-9.091542981527542255e-02
5.680852802641293137e-02
-2.477731846204971611e-01
-3.476199291728619412e-01
-1.140144391341414293e-01
-3.244307817288877849e-01
-6.038692650396005890e-01
2.128488983142869193e-03
2.600625844300430978e-01
1.046117953996228700e-01
-4.507992331294204402e-01
-5.001879747890072281e-01
-5.243786657782610883e-01
-6.255823860003565384e-01
2.349459386017151430e-01
9.931183528664694338e-02
3.196912672032340974e-01
2.555943560037891027e-01
-5.316579787619784420e-02
4.508337286597369903e-02
-4.617482191252678669e-01
1.698264660980196294e-01
5.547459297416208468e-01
4.117104498924962774e-01
-3.136650941236795997e-02
-2.695986715722624716e-01
-5.513284792568243914e-02
1.042189658707683569e-01
-3.016715055433693560e-01
5.814066679479390487e-01
8.376134967730027858e-01
5.908390402714478462e-01
-5.749314184936411554e-01
-5.909809879052781989e-01
-5.035857982426064083e-01
-1.468608004346801110e-01
3.095600121093901036e-01
-9.837264651724426934e-02
-1.196186919806224574e-01
2.510152842365757642e-01
1.481136674952960031e-01
-6.692570346414038196e-02
-9.097210389939333619e-02
1.743247778564953887e-01
4.554433338027906453e-02
-5.396352907464362358e-01
-6.207628135710884648e-02
2.595855347402844515e-01
2.513222356549852932e-01
-2.601449862742526986e-01
1.026667064057923823e-01
6.030427053517000563e-02
-7.560721754500631109e-01
-7.021479868348136089e-01
1.585893786030985186e-01
6.383895388837615426e-02
2.974294192937828804e-02
1.980755727083224893e-01
4.102879634137747145e-01
2.342553486722374900e-01
-8.061906920167460910e-01
-8.784117874100417778e-01
-3.120716555025774830e-01
-4.668898936319511306e-02
1.582774257309086663e-01
5.098108712150989374e-01
5.540608673111303561e-01
2.023127282894612161e-02
-3.710701019975664594e-01
-7.169530016957676999e-01
-6.373825070319627528e-01
-4.227901889489039111e-01
-1.182035768083794375e-01
4.866071275400400964e-01
4.526820382150089084e-01
-4.647114384734957748e-01
5.546906570059838282e-02
-2.768621976774131577e-01
-3.945478908820465591e-01
-2.658410073953338393e-01
2.057671524648413131e-01
2.035152560404501210e-01
-2.365020167763439152e-01
-2.926035589011056204e-01
1.452093102847207828e-01
-1.170120926872993544e-01
-1.026977761270558148e-01
2.820904423194307009e-01
3.939897979816656681e-01
1.734844762627216763e-01
-6.289387606828274191e-02
-1.529153079701447704e-01
-7.850124250870126053e-02
-1.416015153925126724e-01
-2.418473165567643079e-01
1.857957203762987675e-01
1.787653234891248000e-01
-2.054288517798259078e-02
-2.532725604986775861e-02
2.082143484934308453e-01
1.048093895610876930e-01
1.821080321712675032e-01
-6.744944270571033573e-02
-4.511965402568314243e-01
-2.468684489487952549e-01
-3.263886319837632222e-01
-1.209998073430802908e-02
-9.970065910984787783e-02
-1.754917140235869311e-01
-2.021907686047451358e-01
-9.711108673699980764e-02
-3.772315836624705043e-01
-2.703532656136563572e-01
-4.555964771210969655e-01
-4.031310166452474752e-01
-1.303931942953863166e-01
-9.699394747613825085e-02
-9.112624590424632520e-02
-1.973772786407070046e-01
-7.092751224436669166e-02
-8.478725795567297607e-02
-3.082946496509963441e-01
-2.702285869928392481e-01
-4.387165462007924788e-02
-9.603607606854637491e-02
1.330025005943933913e-01
-3.192292444673883178e-02
4.356401035934346494e-02
1.036155929841003076e-01
1.235202970994757066e-01
4.045815626611998783e-01
3.165858164405079278e-01
-4.714797448405626951e-02
2.068030412372050264e-01
1.549676004761435799e-01
8.529648579447635104e-02
7.396219179987978398e-01
9.518540526719863060e-01
8.633627539033849052e-01
5.570960567529031904e-01
-2.157963401856335672e-01
1.395567041826131227e-01
4.205384545832461241e-01
2.034456108800423157e-01
7.712957696226749871e-01
1.120700705607117209e+00
5.623856770154220808e-01
-2.030444102060311451e-01
-5.359394877783283384e-01
-5.124206300434001882e-02
-7.008761689239829951e-02
-2.054253282749686771e-01
2.915995391219283195e-01
4.294421402362825213e-01
1.912525960837105632e-01
4.580432154712934904e-03
-3.743375316010949527e-01
-3.486490180233309255e-01
-3.714719267404145014e-02
-1.150534126221012116e-01
-2.642900981861111553e-01
2.019981420252994486e-01
3.259848314616402565e-01
2.931464894813187727e-01
1.836677502265723905e-01
7.165029619786692505e-01
-7.335500900166226634e-02
-5.255171365600845856e-01
-2.659525839713102746e-01
-3.248701753297105754e-01
-4.323769187211816689e-01
-3.403701526046208903e-01
2.955989660568090205e-01
5.999467304495081921e-01
3.174789600839127840e-02
-7.891861239874513601e-01
-2.083936859913894657e-01
3.232512795328780775e-01
-2.675877188410199503e-01
-5.612024132905147900e-01
-3.329651032549367784e-01
-1.125967975932354870e-01
-1.200964462842906005e-01
-1.705504732381073196e-01
3.839528910670916839e-01
3.541937027037136421e-01
-6.355021606499766662e-02
-6.913827527652868232e-01
-3.433917285133679664e-01
1.336784111972868783e-01
-5.592713345945306280e-02
-5.397294291049874460e-01
2.864703767931396916e-01
5.924535024231879499e-01
1.014602989102220409e-01
-1.275787592457913455e-01
1.952466617766070167e-01
3.542794155387142818e-01
1.385038520591340694e-01
-3.040973623261344905e-01
1.156514909585995912e-02
2.033417595627353136e-01
9.140549643652046141e-02
1.143659337785034036e-01
6.463333396085196858e-01
4.035199283213704025e-01
-1.746205646865407191e-01
-7.531741614099785043e-01
-8.240935583446933332e-01
-4.037089396601291069e-01
2.074519259710505270e-01
1.457223971017595210e-01
-4.869635042008134684e-01
-3.161965731738754504e-01
-1.334780504784246757e-01
-2.111429808534676933e-01
6.582723374240515013e-02
-3.553411103014539885e-01
-5.040210537371196953e-01
5.708017805813344475e-02
-6.304228374958623649e-01
-5.396347373079690701e-01
-1.659130950166798624e-01
3.971436431996270833e-01
4.741996303007462443e-01
-2.582503413743723053e-01
-1.180813456719230908e-01
1.921793475972108020e-02
-1.955332558029478640e-01
-1.485446080475462394e-01
-2.089639385071120625e-01
-8.269879571999219636e-02
-9.286562267763212586e-02
-1.275090538720196620e-01
-9.821342649596837004e-02
1.309302835863131176e-01
-3.576187700417973736e-01
-4.183628012075685243e-01
-6.769774728179206447e-02
-3.075061749068184747e-01
-1.562099961376861301e-01
-5.211728135956271712e-01
-3.180291165521828469e-03
5.447954295977905925e-01
-8.658275785452693718e-01
-2.562412228408332826e-01
5.680984816353178840e-02
2.245589525327444658e-01
-1.363515260598341661e-01
-5.395360618677104148e-01
-3.118356874539586487e-02
3.284961844816735588e-01
-4.081857567040302337e-01
6.631491334307151875e-02
6.676522117564186454e-01
7.755784830532513885e-01
4.162664480586119597e-01
-2.935588152720978172e-01
-7.192034928718948894e-01
-2.345844192353304936e-01
-4.453002785122214119e-02
2.936556303680871727e-01
5.202867383808924551e-01
4.196016838823807271e-01
4.299688644024105555e-01
-1.169277948972608228e-01
-6.251887127754590656e-01
-4.795551551111794097e-01
-9.239534515738657972e-02
-4.681812490402636334e-02
-2.287772644766805918e-01
-3.146535484158342610e-01
-1.024113505050433526e-01
-1.706153157814940535e-01
-3.434571585831196483e-01
-2.173649881213843282e-01
-6.652609155902555749e-01
-1.489451900701009579e-01
-1.490877513058115611e-01
-2.175982290988580370e-01
4.018614131571567050e-02
-7.988110695085889890e-02
-5.005923256154572176e-02
2.853992214097446634e-01
-5.432972899443020420e-01
-4.348197945433044526e-02
4.044706154970417189e-01
5.850074048124388471e-01
2.049281509973975290e-01
8.649861606699488226e-02
4.767075557642763695e-01
4.827203892988113920e-01
-5.977950629349211287e-01
-6.255888303690454455e-01
3.362267354326716751e-01
5.940467279922136967e-01
-6.496581067913012597e-02
-2.330032308149772857e-01
-3.122329624627079303e-01
1.213381357406232708e-01
-9.046986292007115349e-01
-8.201204973081006600e-01
3.487811797492484239e-02
1.543035548550632519e-01
-1.511064340919701654e-01
3.834445450415574497e-02
6.712531373849379979e-02
-6.512357599773178907e-02
-3.032748948276790535e-01
-6.085258335129816176e-01
-5.717607075060675559e-01
-4.780789552463855507e-01
-2.125734461723449709e-01
3.467055762933851093e-01
2.352268832073100002e-01
6.101314265998827174e-02
1.318182053711854616e-02
3.205193427604507289e-02
-1.037156539237100022e-01
-4.368337055960096471e-01
-4.583197498783368740e-02
2.270489620513560236e-01
2.422633182571448662e-01
-3.009628343561265851e-01
2.896383039126256831e-01
2.549249918511264923e-01
4.637778789633363319e-01
-3.969453789366403917e-01
-3.228469658296763689e-01
-2.183307587799272753e-01
3.424944501021860987e-01
1.214011709354881619e-01
-1.196731987724542479e-01
7.871243436374411595e-02
5.676935622935117554e-01
1.140764136928363731e-01
-8.978457706540082794e-01
-1.409625981599764155e-01
6.021112962479916453e-01
2.409808515199809986e-01
-5.543623141143801947e-01
-2.485683553764070908e-01
6.960631793923209576e-02
-2.967711343758631659e-01
-9.711233955666774831e-01
3.887601435831923857e-01
6.324430675250706235e-01
8.853444437377950074e-03
-2.994666877677714667e-01
-1.216195848492974824e-01
1.960956413243748475e-01
-3.286335866135292605e-01
-2.602590452089065809e-01
3.294155134825983433e-01
3.155950057553343902e-01
-3.827421281856633883e-01
3.435638151446118727e+00
1.825711131830222378e+00
2.059811404082455333e+00
-1.080630289283854628e+00
-1.402865866996742650e+00
7.434157695962623436e+00
4.846917431933412068e+00
-3.923649681890459373e+00
-5.712064880835831637e+00
3.015808701448468909e+00
-3.789396549246657919e+00
-1.136619340972649717e+00
-5.230039810707277859e+00
-3.358315896507509279e+00
-1.780346064952313512e+00
-5.767455901195966739e+00
-5.427654742213646522e+00
4.108978683228735385e+00
-7.070693752402018362e+00
-2.167908852635420380e-01
1.551861592089631703e+00
-5.750344290093843957e-01
3.813137088223700566e+00
-3.442209468052475074e+00
-7.168976520353485427e+00
4.745438681211359366e+00
-8.409139584861389238e-01
-1.589117918776687288e+00
-1.042206357770687486e+00
-5.163732049222504727e+00
4.084892102175920137e+00
1.067847708268314655e+00
-3.600114642223499750e+00
-2.575333142891671034e+00
3.022380396972347061e+00
-3.308089242272145736e+00
-2.456929643403110486e+00
-5.677904742392129833e+00
-2.869095515541265073e-01
3.450917286932401740e-01
-5.869095227054161867e+00
-1.061534682004897867e+01
5.545871451471996672e+00
-3.495563695080441846e+00
5.251135939677729958e+00
-1.566657111720025197e+00
-3.131026994938008734e-01
5.687209067192127598e+00
-3.515583858413396268e+00
-6.020138843445842269e+00
3.890171775946128285e+00
-1.933006766511528030e+00
-5.634082838844107322e+00
-2.727531599358456571e+00
-3.445309261054099181e+00
-4.211212832744249401e-01
-2.526358107933768249e+00
-1.297189198355992223e+00
1.021981618044516926e+00
7.831644723984070022e-02
-9.284149045737100092e-01
-4.655418481103493988e+00
-1.168845201361761843e+00
8.620376722823694937e-01
9.291719132069095055e-01
-5.757257527527096741e+00
-1.568155701447808781e+01
5.430441667414275919e+00
2.477472536800426894e-01
7.206438849030083027e+00
-1.016245565733502110e+00
-1.755381354775374048e+00
-8.455310956726789229e-01
-3.022283635601353602e+00
7.048597627797846821e-01
1.317931022024494414e+00
-1.013032231181070886e+00
-1.235116286453159296e+00
-5.980156122903184546e+00
2.155933318686439559e+00
-3.335251540308083462e-01
-4.161588040898293706e+00
1.748411705816222517e+00
2.262535079368391155e+00
1.447385480529935320e+00
5.929868578477204277e-01
-7.369096909812380858e+00
-1.164138878189802245e-01
-2.130258631573969552e+00
-1.240093307385652821e+00
-5.018702453862781354e+00
-1.328587233914531751e+01
5.284007523529855810e+00
-4.066619222814391588e-01
8.628227198777885798e-01
2.483617435484474445e+00
-4.249334018639502553e+00
-7.502746410442339808e+00
-2.583697738167488378e+00
3.063800635509633441e+00
1.483054790241440379e-01
-4.767925798731013742e+00
3.120918105490078975e+00
-9.744794747542730562e+00
4.603878396260624228e+00
2.717528726593094301e+00
-6.921433255826793030e+00
4.068383676669554916e+00
9.263950417778624713e-01
3.827403870582336332e+00
-5.818199280437987841e-01
-6.387978114790475281e+00
-4.947173942194011076e+00
-9.621962176944708345e-01
-3.078584579718903758e+00
-1.015100841198318893e+00
-4.939736512641150767e+00
3.394591158732015668e+00
-1.868678870819152404e+00
-5.712140990114322747e+00
1.832767622926366746e+00
-4.526884115437698419e+00
-5.910838211457265956e+00
-2.852722208114609970e+00
-7.080368723676343512e-01
3.068657788430881883e+00
-1.044148816525847856e+01
-2.743710553361257132e-01
-8.498898509401906054e+00
1.932761483868346675e+00
4.915444315476179327e+00
-3.296714181887747230e+00
3.519747996868279216e+00
9.062109249375745190e-02
-3.815290726383189224e-01
-3.118833043115742054e+00
-2.007171437710562945e+00
-6.739383350717091936e+00
4.671496135301309138e+00
-5.070303107412892807e+00
2.207036677452212103e+00
-4.059900358738389725e-01
6.104583805375592975e-01
-2.806196057102108288e+00
-5.424000731141825682e+00
-1.032134232644205563e+00
-3.253837779506284722e+00
-3.575346864816181025e+00
-3.535801523337688046e+00
-3.242465967537730087e+00
3.978678964756432457e+00
-8.298417453733488713e+00
-3.339910853666780977e+00
-3.307203684861314219e+00
-3.728335056106139689e+00
2.971195744712103792e+00
6.513199371950400440e+00
-3.788495528350426245e-01
4.815480520323461633e+00
-4.936521615660883100e+00
-4.693412984697429735e+00
-1.803509637418129197e+00
-3.684462415468375607e+00
5.112058575635365365e+00
-6.779153935932545672e+00
3.189656895804269698e+00
-1.640695119052647755e+00
7.248591711725408393e-01
-2.225346339128528861e+00
-3.825768462991171681e+00
-7.603467554517325810e-01
-2.195402714604410832e+00
-5.582607992606098968e+00
-1.421934729555367705e+00
-2.160659373656344862e+00
1.018367821418010299e+00
-2.727579123302737774e+00
-1.113164329558910648e+00
-7.301985435918526557e-01
-6.533521855763373409e+00
-6.484654655772473797e-01
1.120739224010170076e+01
-3.878586953212316057e+00
7.866260285202320901e+00
-3.993053438661556598e+00
-4.496322659722226334e+00
-4.085606932041549122e+00
-1.953567711860700662e+00
6.198874076627902685e-01
-6.081244791567711694e+00
2.156172010172204612e+00
-3.792026376703006463e+00
2.519658510979312371e+00
-5.485046434102853752e-01
-3.815448532406156446e+00
5.127980245810687121e-01
-1.732819774276967983e+00
-5.892140333440069710e+00
1.269321838333414165e+00
-8.629375815808671968e-01
-1.181257885116643314e-01
-5.538178701956474326e-01
1.840315835804415157e+00
3.608015930908013313e+00
-1.966394372511918398e+00
5.524957935062730918e+00
3.121674067212785175e+00
-4.055245638585702750e+00
-3.818199963243507078e+00
3.108081828684114978e+00
2.578548678154305218e+00
-6.841068093345051837e-01
-4.195582157107053511e+00
-6.464823776016621615e+00
-3.863972293575369310e+00
-2.321614693349871139e+00
-1.656161500523240404e+00
5.991424230637224291e+00
-7.135968606341728915e+00
-2.065751318559096106e+00
-2.968519764088779933e+00
-2.231323823105875181e+00
2.570915532294417272e+00
-6.988733901943924742e+00
-9.276633945761265210e+00
-3.177790784132933366e-01
-3.553579779671913297e+00
-3.326677746555622761e+00
4.511560060241783354e+00
-6.293832195438588961e+00
8.112019217734659504e-01
-1.043808661061272902e+00
-3.600221301194164170e-01
-1.272438206669305849e+00
-1.272963037700459155e-01
4.807175762084611392e+00
-2.170022977429188149e+00
-4.766046686834870094e+00
-1.347169592843970420e+00
-2.028027844674811231e+00
-4.336283910628242921e+00
-4.431628876413014950e+00
7.369835148142434456e+00
-2.976575636185196050e+00
2.935045747675481209e+00
-5.821876660008991955e+00
-2.066051833123342618e+00
4.563164636564778220e+00
-6.304143943677335216e+00
-9.183093056847832614e+00
8.643021980927235726e-01
-1.293878290739437498e+00
-7.797610069609190120e+00
1.814212831886634625e+00
-4.020909776382765699e+00
-2.686491532360822276e+00
-4.648834637063918862e+00
2.095643474346403856e+00
1.471215722230866385e+00
-7.208141604369896704e+00
5.112744816548472571e+00
-5.165593028568709499e+00
-8.010493216898297852e-01
1.974997083289926625e+00
-5.695602872666878369e-01
-8.063597064612951115e+00
-7.917293094692325006e+00
6.588408322657847371e+00
5.867289233529316035e-03
4.223052215981053514e+00
-1.337981880068833229e+00
-2.817787569044053697e+00
-1.622426780958736048e+00
-3.507213459945659473e+00
-3.151136391322741925e+00
-7.057864743098019034e-02
3.832495226241944053e+00
-2.197088275841665883e+00
-3.123000445545285775e+00
2.736456981646892217e+00
-4.373586716940353614e-01
-6.762103516961480487e+00
6.897031498461718424e-02
4.282893297584502434e+00
-6.846361646101646770e+00
3.826318260436829988e+00
-8.212225685758934191e+00
-1.335137335430604810e-01
-1.072268935596718542e+00
-9.929262741281364990e-01
-7.714932272412227121e+00
-5.370516190319952976e+00
6.129017180128478515e+00
-1.522306671750815354e+00
-2.308183366157122940e+00
3.623926443871999581e+00
-4.497964283324749957e+00
-7.554555282050725573e+00
-2.747937370851120331e+00
-7.536572603493210121e-01
-2.223536141048346071e+00
4.038081023317745544e-01
2.314537303119199141e+00
-8.360076354045979485e+00
4.551996029662081611e+00
2.507027566802011886e+00
-1.049908838765334274e+01
-2.063944753663651266e+00
3.260021032863340995e+00
-2.433449860194792702e+00
-3.982001099755990703e-01
-6.354354362299005743e+00
-5.372124441950398399e+00
-2.005785828492468587e-02
-1.022878630354651541e+00
-1.357197727128883979e+00
1.228984312377016996e+00
4.824300844649396680e+00
-1.987464233461073926e+00
-7.503381232393562250e+00
2.164676795255781716e+00
-5.217008293168865940e+00
-3.216973769018056206e+00
-4.674939853595240002e+00
-1.670069942782815176e+00
-7.073575697166907261e-01
-9.080194049400242662e+00
-1.622068586378085486e+00
-8.364960042451336619e+00
-6.302718122547821267e-01
3.717567081218597913e+00
-6.480896381798961770e+00
-2.380168517348022483e+00
-5.159013675694361645e-01
-3.770309755124433782e+00
-4.715521186973322898e+00
-7.529991838540724958e-01
-6.334590102173724091e+00
5.814431008551234292e+00
-1.201111031598853351e+00
1.901054364958801868e+00
5.078305524945712968e+00
2.733782328758327385e+00
-2.388717688923045923e+00
-4.669475104231292306e+00
-2.915576182337771827e-01
-5.265460492965138961e+00
1.272669306233568109e-01
-5.701915662564498888e+00
-6.361606115627267410e-01
7.601828511586886661e-01
-1.067261389210637823e+01
-3.723534993039457230e+00
-3.996662247434650705e+00
-8.895455869991055309e+00
1.473864011595102719e+00
3.539088807302398276e+00
-4.209267883765078544e+00
2.397724087814601557e+00
-4.308247596365883503e+00
-4.527406801224457489e+00
4.609474895653900006e-01
-2.216814642101126775e+00
4.754130351820287537e+00
-6.219304347092113883e-01
2.728727680989627702e-01
3.712321479118628087e+00
2.791605988482210865e+00
-3.577482158467224505e+00
-2.911138604396845686e+00
9.353346819676060520e-01
-4.332426304492138947e+00
-4.881382977900181608e+00
-8.662998813348220528e-01
3.945232424918617697e-01
-6.571544717561771387e-01
-4.619791827247769156e+00
-1.122230169430143282e-01
-1.346732600823475012e+00
-1.185124371559881773e+01
-2.113221980220965079e+00
7.721396149889756089e+00
-6.164603790541215211e+00
6.867600255044472135e+00
-1.086562191314079051e+00
-2.154635831118840716e+00
-2.340956835781479395e+00
-9.975387956985295457e-01
-1.214147562802861291e+00
1.291281904542903869e-01
-1.478022544323737142e+00
7.774378033657828313e-01
3.982791270517204385e+00
-2.714423631254285763e+00
-4.211974300785035652e+00
1.557064789996685183e+00
-3.189585689992231909e+00
-8.404178616787248757e+00
3.893841991315058593e+00
-1.965882865105293420e-01
-3.422637579728673440e+00
-2.680312078100801187e+00
-4.380384110318662483e-01
1.532345584684776219e+00
1.998209841225814687e+00
-9.059103704202341456e-01
3.035025039791121593e+00
-5.449490072698299770e+00
-2.405590236253086989e+00
2.123053989883826098e+00
6.327504207084133192e+00
-1.495285664955117610e+00
4.194676634381394043e-01
-6.879279574665070562e+00
-4.446401765684671048e+00
1.177115927262601058e+00
2.029572699485536980e+00
4.607657236077922214e+00
-2.442159326755839910e+00
-2.664882108169564390e+00
-9.349608427024813651e+00
-2.173298493768132555e+00
-2.691942182531222194e+00
-9.041814030162582227e+00
-6.225707588246455870e+00
-4.501215543768638305e+00
-4.676868382391445422e+00
-3.999981980260877368e+00
2.574672802401841487e+00
-1.127864949237517678e+00
-4.898905495799930065e+00
1.396852667203960063e+00
1.224496328583318139e+00
-4.212919866247679224e+00
-2.382090336873513792e+00
7.596852730854674718e+00
-2.670059849069671198e+00
4.924668775210271909e-01
-9.380284213772007718e-01
-4.663314872183120130e+00
-2.233230127722043878e+00
2.630716372795896429e+00
6.659327031533170960e+00
1.251400300083190364e+00
-1.480833489907536160e+00
-1.087819970035285344e+01
-1.947810285072712366e+00
-5.267889374750408527e-01
-5.125191490815298678e+00
-7.517513903546816145e+00
-8.689739833018856885e-01
5.053052536149472279e-02
-6.630418422389452004e+00
2.211857354364787476e+00
-1.680914855305317923e+00
-5.178518314878302498e+00
-1.693242589235968598e+00
4.189457748092473288e+00
-5.456943174568945842e+00
-1.144486180067975134e+01
4.142196250284985837e+00
-4.258073478336992679e+00
1.305404612866601477e+00
3.351828013695476560e+00
-3.500393006097375359e+00
-7.403944376109999226e+00
1.694873550082888869e+00
5.952934249990813775e+00
1.210717962272177761e+00
-1.989972886855441159e+00
-2.946061355773994528e+00
-1.952990589065431104e+00
-2.837176921448561373e+00
1.231271482959540142e+00
-6.363939506411987246e+00
1.039857976165409426e+00
7.638834992927591827e+00
-2.925989021405216217e+00
-3.850786372377735800e-01
1.545184684881731441e+00
-1.672967746637790354e+00
-5.147957233604047111e+00
-3.383428973136004547e+00
-1.478802002479577826e+00
-1.272827332552117774e+01
4.524489335264597067e-01
-6.210045669744928887e+00
3.635502382920556830e-01
-3.405388983917809753e-01
-1.998516223819619464e+00
-5.198853649467298332e+00
2.042176627298307956e+00
4.582448127323682563e+00
-2.353724054776695329e+00
-4.746973358867579762e+00
2.086655573392999674e+00
-2.394533527571618858e+00
-4.505495205266911718e+00
2.761300265843720680e+00
-5.776144742820938482e+00
-2.951921093115834172e+00
4.997237309156908225e+00
-2.606168523739384457e-01
-3.972738232624388743e+00
1.445318294777665713e+00
-1.108989299819033159e+00
-8.243865290357707210e+00
-1.118114614050397471e+01
-2.466404886565018995e-01
-7.895033840977910167e+00
-3.415908573117773628e+00
-5.499672224902835360e+00
-2.505665289036881127e+00
-1.411428437616117915e+00
-1.667317163581756301e-01
1.797479837141514825e+00
3.444331620837938424e+00
4.822448892525233788e+00
-2.307670039790143957e+00
-4.879969203545572398e+00
2.104649893304951114e+00
-3.242721414808286795e+00
1.742137409827552164e+00
-1.707719196466900069e+00
-2.627940540483842735e+00
-5.333872517857248141e+00
-3.832663978548762174e+00
-3.836344343232182652e+00
-5.667673777289606640e+00
-2.655959599285754980e+00
-1.872137203343265499e+00
-4.939742392383586811e+00
-9.117881313965391143e+00
-5.690097801681635481e+00
-5.249395683041877092e+00
-5.336429011127894029e+00
-1.000859367189901539e+00
-6.315696120507156008e-01
2.543713126399609781e+00
1.681416267238133422e+00
2.076078047904503343e+00
4.216662346469352229e+00
4.649499726687231771e+00
-2.628500459021867464e+00
-1.601307273836682699e+00
3.320583454352870945e+00
-3.848962381253831833e+00
4.746316117725060124e+00
-6.412062527200524720e+00
2.212771256861471247e+00
-2.772171525147061555e+00
-6.124444922750722498e+00
-4.857679021473519043e+00
-5.621960169736243351e+00
-9.245452429483840717e+00
-4.117675322829922102e+00
6.359369252524895710e-01
-4.626028932149322870e+00
-5.322437295444283123e+00
-4.288245772154525293e-01
-2.181323541814129463e+00
2.244462472034258305e+00
2.411316380916180169e+00
9.335848153234289626e-01
4.406830174341001438e+00
-4.248321739906681493e+00
5.047102847351202293e+00
3.271401629251478038e+00
-6.203955535647209807e+00
-1.735354696953298692e+00
5.126616609237730771e+00
-2.653023277019272097e+00
-2.153797265475969169e+00
-3.548152437689054750e+00
2.529162968522236987e+00
-6.758682645685770707e-01
-2.117339883889445940e+00
-1.076421252272453666e+00
-4.901998630299591930e+00
-1.145223420465644359e+01
-6.084028029281568273e+00
1.068866058579078127e+00
-3.654279670011556291e+00
1.994171293143897350e-01
4.124466165376885485e+00
7.818672089304794515e-01
1.342170852400305758e+00
7.822550803638996797e-01
-3.934819859787247687e+00
5.315297556569769988e+00
-7.132808167165889834e+00
4.298948125220931615e+00
2.353947733936529119e+00
-6.470715725400546070e+00
-3.620506277072054413e+00
2.446719941775509000e+00
-1.088511853403919760e+00
-7.861310546561708357e+00
1.769500534493569699e+00
-5.900171612219391459e-01
-8.541175520473269778e-01
-3.895886905744593953e+00
-7.461246202848449416e-01
-5.638223247339409383e+00
5.993262838135767545e+00
-4.852276626886765420e+00
4.290019016656652973e+00
-8.243211366107225047e+00
-1.165519857449464070e+00
-5.106384229104797556e-02
2.135461725782440645e+00
-2.259514211669052752e+00
4.943254646255825335e+00
-5.779097348822895164e+00
-9.115926162403239497e-01
-7.468042589380651242e-01
2.771542809836812227e-01
1.725599683186580746e+00
1.772625527586904948e+00
-2.091257134782884108e+00
-1.138702548325693975e+01
-7.696372842691098226e-01
-2.445566254652439042e+00
-5.549112098874837251e+00
-8.524820942347873798e-01
-1.856924240340658949e+00
-4.589446815266691182e+00
-1.696033328769715576e+00
-5.290528407629629726e+00
3.544247048981496118e+00
-7.025975489317921152e+00
4.388644342125779474e+00
-1.120076946628963954e+00
-6.462725642143460902e+00
-6.766497665055185573e-01
-1.107885121974274967e-01
-3.999568738742195873e+00
4.552779595147330660e+00
-4.861317543947861752e-01
-2.966477133052094040e+00
-3.901824533561385699e+00
8.995999390008361241e-01
3.964572662001560666e+00
3.803844675975300849e+00
-4.273416347206247856e+00
-1.373207707271706646e+01
2.072748542732938959e-01
-4.454509273984325612e-01
5.102847107324119946e-01
-1.008551069158645896e+00
5.412443881022218628e-01
4.149581541793850858e-02
-3.760167732606087387e+00
-1.639220301564898064e+00
-6.883264400577934206e-01
-4.669230284148714993e+00
-9.836724975496972945e-02
3.096001108805273905e+00
-1.147433071007504779e+01
-3.999853568094573930e+00
-5.034731450359303473e+00
-4.190733767146015865e+00
2.819811441758522719e+00
2.192158054578317028e+00
-4.093246213181437554e+00
-5.137800694725951800e+00
9.572912957990259430e-01
4.293469605802131106e+00
8.505189861445039412e-01
-5.886015940160159055e+00
-7.147220832206304664e+00
3.533413017064345185e-01
-1.888661550528548227e+00
7.975775241851485120e+00
-2.688924538262578157e+00
3.436257160131766852e+00
4.659201291446989579e+00
-3.225331052727663739e+00
1.427018632029217471e-01
-1.387136065510150784e+00
-2.394301067149554818e+00
-5.496693106031909970e+00
-3.572066560678921032e+00
-7.861224812683927254e+00
-5.910109605036620195e+00
-6.633606734584092557e+00
-4.077397587367995513e+00
1.263978795725309690e+00
-3.026263286132477415e+00
-2.286289033887261901e+00
9.273090089859866714e-01
2.770410177309542976e-01
2.560976478359362485e+00
-4.075420851324687455e+00
-4.439837508333648763e+00
-2.181144255454215752e+00
5.898235749194337130e-01
-3.312063117079945496e+00
9.936809885261926212e+00
-5.687078398190606343e+00
-5.294116642928353711e-01
9.586668549716270693e-01
-1.033009811901999697e+00
-1.438759545615286184e+00
-1.070389172637735919e+00
-4.505456836221742201e+00
-6.162843954457021489e+00
-1.032413549864022073e+01
-5.185781304184118312e+00
-5.040715394081605183e+00
-4.634667586265480033e+00
-5.460493153140997258e+00
6.406701623666897216e-01
-5.720978511923493492e+00
-9.390010410724328738e-01
7.838097734350611745e+00
-1.438506062010498132e+00
2.532921276520452292e+00
-4.549447961559923037e+00
-1.390140507558230931e+00
1.382533800415558733e+00
1.886157887989467596e+00
1.934497441055094802e+00
3.831518957506524270e+00
-4.003600996239820908e+00
-4.989425584047175732e+00
-4.013493491026392412e+00
-2.788713311735692368e+00
-3.306402256742537737e+00
-2.135291367582036859e+00
-6.681136535459648584e+00
-1.708130679960106812e+00
-5.808416859415590494e+00
-8.992515298936261559e+00
-4.024878667069217819e+00
-2.404132718355951326e+00
-4.600375195770259218e+00
4.028183325129327308e+00
-2.098503604453623606e+00
-1.550020783869920482e+00
4.841178432680144361e+00
-2.501002535862923537e+00
2.328229996816318259e+00
-4.453025188550499003e+00
-1.027672784696172625e+00
6.964017276100539000e+00
2.943467242677709983e+00
5.464527387432865702e+00
-5.092665634558851906e+00
1.294354767226356451e+00
-2.016201544797427303e+00
-1.062921737183182502e+00
-4.468632875192749765e+00
-6.232705070664848357e+00
-6.323231513402910231e+00
-8.389655307984213550e+00
2.565065946091244498e-01
5.565965302326197905e-01
-7.009968067184905394e+00
8.701240842179809309e-01
2.267125677379092097e-02
2.428992792364199904e-01
5.727079610984980640e+00
-2.515069089620724174e+00
-1.144166578328552841e+00
-3.029682790505198398e+00
3.165022311978946123e-02
2.178110642282226062e-01
-6.699029045118557235e+00
-3.896441850158903542e+00
7.208075415112402240e+00
4.011645433585365517e+00
9.313975109565334476e-01
-8.661292758266123215e+00
2.255317879098345912e+00
1.474823102746425363e+00
2.815881094461040846e+00
-2.812732274229774454e+00
-7.632808265178411489e+00
-8.925030914219856726e+00
-8.356056504515427363e+00
-2.239855371422564634e+00
8.538909444165176943e-01
-5.920138486839585656e-01
5.292521740859984725e+00
8.674533880439944111e-01
2.499705620124757832e+00
1.921652089523611773e+00
-5.255736035416084917e+00
3.710845845576791757e-01
-5.889743858670358989e+00
2.088726461866492023e+00
-9.215538576516421054e-01
-5.967055628819210256e+00
-4.962215022975414946e+00
9.867920089720717547e-01
3.767022369769230217e+00
-3.634575397003372288e+00
-4.723983772748881371e+00
-9.778947454078230628e-01
3.352721173786913145e+00
-6.590334310446182897e+00
2.353726631743020548e+00
-5.246617959862315494e+00
4.550362727509099869e+00
-4.831741580717742401e+00
1.524503586083991058e+00
-6.993641150583891353e+00
1.985421460188890652e+00
-5.726385035095471032e+00
-1.680045418666231916e+00
1.000528538655642841e+00
4.773926347915334212e+00
-5.177560593893395513e+00
3.711627252501658702e+00
-5.394541042784876339e+00
-3.567140776181527251e+00
-1.630314052897378074e+00
-8.850727204468589182e-02
-4.661527856093703015e+00
-7.251408672608262052e+00
-2.697431280725495206e-01
2.708998780907178716e+00
-1.180249909084472248e+00
7.470122938194052598e-01
-1.791881973134011041e-01
-5.754524298213143929e+00
2.353950331373482197e+00
-5.117298896623745819e+00
2.708728008630784778e+00
-4.109933714399368831e+00
2.073195369115583109e+00
-1.444052040607369136e+00
-1.525160035807909154e+00
-2.561466221909967533e+00
-5.667687063788608981e+00
-1.785239254980963031e+00
3.322928370760960703e+00
-1.330799500157634041e+00
2.041619968263965745e+00
-6.876553944188653844e+00
-4.710930074609506413e+00
-3.950077912147772485e-01
-1.343548234138673969e+00
-6.755719628441588576e+00
-1.163658621828819939e+01
2.186978434941453830e+00
3.684640851229821212e+00
2.832826541974174273e+00
2.924255245414609128e+00
-3.794951441216355636e+00
-8.574175389013425352e-01
-1.534705418221810724e+00
-9.533227111541274779e-01
-1.754186281586016971e+00
-6.594198017992636274e-01
-1.512921933309153477e+00
3.072634303211688511e+00
-5.445564171077210247e+00
3.199430469945514499e-01
-1.124356130706840773e+01
-2.392555240606940803e+00
1.451836790842114144e+00
-9.737477290416453046e-01
-5.218922657743254589e-01
-2.953555873207939442e+00
-4.547026793975827985e+00
1.465407814509193773e+00
-4.648538186806445260e+00
-5.735296802769058289e+00
-1.039016484650041683e+01
3.021993080815285726e+00
-9.317345201202261729e-01
5.591154422272574642e+00
3.060331250152660942e+00
-1.380221200177586649e+00
-1.846812411239569240e-01
-4.013536100516510885e+00
1.412880765728699695e+00
-2.746445187795236720e+00
1.604837496355221264e-03
-6.406021564226270115e+00
4.227767091903518737e-01
-3.604548110562033170e+00
-6.988014534932213140e-01
-1.030872185734663304e+01
-6.922267110085033037e-01
1.348652563856467701e+00
-7.457743189610622991e+00
1.044265890768685923e+00
4.462589940777268893e+00
-3.792849273166750912e+00
9.099544142524714774e-01
-5.920207307740651181e+00
-1.675996066465241574e+00
-5.682238856288898354e+00
3.379885533760340621e+00
-6.092712468107968959e+00
5.874973860978902174e+00
-2.600580280089977769e+00
1.049658653120554147e-01
-6.806478633624795549e+00
-2.758452868652894185e-01
1.480523582145748807e-01
-1.200914309259514035e+00
-2.531464575599244426e+00
-6.161143526019436933e+00
-2.765578489669800355e+00
-2.639774679163830573e+00
-2.203505536098390838e+00
-3.441927908228373134e+00
-3.818009494257911474e+00
1.340222339946085750e+00
-9.861896546104615524e+00
1.282512937372510820e+00
7.788334862467409359e+00
-3.738570948210088396e+00
-2.284359201389589700e-01
-3.500943256782174995e+00
1.529726148386506779e+00
4.514598235195692033e-01
7.616167888643791350e+00
-3.664689271819800531e+00
3.394015326011553313e+00
-6.676153316960178330e+00
-3.629442942651556203e-01
-8.580004216795643401e+00
1.730716367539353095e+00
-6.670009603975780577e-01
-1.557089267621199147e+00
-3.693118679660661208e+00
-1.638440165080180089e+00
4.655110022588929142e-02
-5.184210715380880963e+00
-3.921810598840473006e+00
-1.825061373956851363e-01
-7.528098523974725786e+00
2.596528751802091861e+00
-5.853966383416613795e+00
-4.059388367017813692e+00
3.198826451635233603e+00
-3.452437913251592772e+00
-8.660805269475171375e-01
-1.683173736840037238e+00
-4.509759131817726585e-01
5.823851879980495028e+00
1.146265632453044958e+01
1.054991674963124515e+00
-3.719304776479646968e+00
-1.646992334547908943e+00
2.480578243037078412e+00
-1.538871671323485402e-01
-4.125928666789617782e-01
-3.270751977179191528e+00
-5.835641867130748395e+00
-3.782014030388773929e+00
-9.954855470710864962e-01
3.497648318022090308e+00
-2.746739080041733505e+00
-3.019455430062492951e+00
-8.547865641705280071e-01
-2.604986235532935179e+00
2.600418584164256419e+00
-6.123386750918827559e+00
-8.880841142545159883e+00
-1.154837784400520206e+00
-1.314478916992525726e+00
-2.136664971884359332e+00
-1.518130197683396743e+00
-4.712966200395454663e+00
3.137449011218576889e+00
9.547273127973419093e+00
1.706014980870425912e+00
-9.411143146304503659e+00
2.654983820679448048e+00
4.057355759235028891e+00
5.045037817035298744e+00
-2.087419890721871507e+00
-6.220986732883097226e+00
-8.723128507741495952e+00
-3.652651994896481735e+00
-3.743312282551453762e+00
2.745230890322643447e+00
1.873953610344261556e+00
-1.008536273295738417e-01
-1.533128526980599426e+00
2.415682052585023332e+00
-1.953090632216312739e-01
-7.624145489646993568e+00
-6.812275443279609100e+00
-1.514988319979373665e+00
2.456695049759193700e-02
-2.400303394008014291e+00
-3.028605860992078513e-01
-5.252244357178716960e+00
-2.942704440827285328e+00
5.200549062665814404e+00
3.146902606365117316e-01
-7.336519074380317029e+00
9.539940095835103273e-01
3.453777681824574675e+00
-4.951696265626030602e+00
5.839112474210508275e+00
1.128891463321033628e+00
3.440346393371521705e-01
-4.988563814546238540e+00
-1.614880146766144664e+00
-3.013638784569732110e+00
1.747325683697282361e+00
-9.633590891020116231e+00
-2.212075491062445387e+00
5.519161150370210045e+00
1.634986770526588806e+00
-2.222659681764596940e+00
5.634950078207959123e+00
-4.950881093576780856e+00
-6.125898792925941194e+00
-4.459399518980205812e+00
-2.137478182754410483e+00
-7.485515200810645808e+00
-2.444699454349962497e+00
-1.717691979963931859e+00
2.511149211746281917e+00
-2.901001600740904074e+00
-2.528124244949406130e+00
-2.883490303700323665e+00
-3.511364111108373542e+00
7.086013031834483833e+00
9.723329000980260872e-01
-3.126464761696964856e-01
-2.448598124067518977e+00
-6.833612941099415083e-01
2.907232088586443330e-01
7.856266284983953740e-01
-7.181725615574327648e+00
-4.539824881262225276e+00
1.965418733159975284e+00
-6.234922323840687008e-01
5.047553553774920543e-01
4.832467147838475974e+00
-6.535404034699241471e+00
-6.336614742086536189e+00
-4.558164791818889228e+00
-7.403075720880352151e+00
-5.547828816512685890e+00
-6.429783784617391973e+00
1.664546317519084440e+00
2.131000120218096150e+00
-1.466653757233963962e+00
4.325706676996378119e-01
-1.186824382060410343e+01
3.191651650076836599e-01
1.313065696926337456e+00
1.288181560652636781e+00
-7.050164420935485232e-01
1.311245816135162778e+00
-5.817395945618032416e-01
3.750225369728634739e+00
-3.583652332275877872e-01
-3.554262939751999362e+00
-9.567568570567017261e+00
1.087298553938161216e+00
-1.858572384388080811e+00
-1.386709838748296564e+00
1.188480019927048881e+00
-3.199113425716200165e+00
-4.481782297447906238e+00
-7.146990319088782906e-01
-9.736927695619595369e+00
-4.057510608934441487e-01
-7.171556976989945653e+00
3.249710896734939070e+00
-3.061668326392986028e+00
-1.884523435908673994e+00
3.267765249704984942e+00
-1.001446955115452475e+01
-9.162593921894582882e-01
-3.677300150312425409e+00
1.118804888602944914e+00
7.910751496680243910e-01
1.116911273358124790e+00
-2.678624493964439690e+00
3.481469486114161516e+00
1.255265559439412426e+00
-2.932856443092826115e+00
-1.101483649642456619e+01
3.767966766141949364e+00
-4.173858447988965659e-01
-7.717986749756915010e+00
1.942344263519343972e+00
8.266398517382909095e-01
-2.698016560424586707e+00
6.035320783284470192e-01
-3.644181927208827165e+00
2.832769283684585471e+00
-2.769091754212275713e+00
3.201786982895211242e+00
-8.468670084579956736e+00
-2.505113482003695768e+00
-2.865501646347735409e+00
-2.997073132426080644e+00
-8.074107539877747541e+00
-7.234181395990905150e-01
9.889660655394257871e-01
1.583674099021170179e+00
-1.302472048449011544e-01
-4.078830393641770691e+00
2.298046684449282229e-01
7.150442571142144876e-01
-2.017210954457725691e+00
-6.212212772611514389e+00
3.724873167815228453e-02
-6.446188935346626181e-01
-8.186455877272923232e+00
2.956126983713768475e+00
-8.077197716804992433e-01
-6.471687085816202334e-01
-1.056846074255319623e+00
3.562922223583512071e+00
3.178832336245382972e+00
2.097795344887137592e+00
8.119345802108323795e+00
-8.131623436611038258e+00
-1.407262823677326358e+00
-9.049089207067650520e+00
7.614943557925399897e-01
-8.557945562316149335e+00
3.303729370528931675e+00
2.544654933471889979e+00
-7.747526285212695818e-01
1.654156451233910863e+00
-1.984286285099303493e+00
-1.926498571691428019e+00
-3.096662616607921414e+00
-3.474938640726132455e+00
-2.467337950215975795e+00
-5.889944286091743031e+00
-2.984401261631048019e+00
-5.033838501283220523e+00
-2.077287896010257207e+00
-4.725995923892536865e+00
1.075928617697274881e+00
-2.353561659233227132e+00
6.079713847054374121e+00
4.448492808253734498e-01
3.183337196808229130e+00
1.167400352830360966e+01
-4.954227716673114124e+00
-3.028143835826880181e+00
-1.995710543686437299e+00
2.872275515238569277e+00
-3.173512298766408835e-01
1.885201835897109435e+00
-2.612729503814809062e-01
-5.813786656114603879e+00
3.734198194159296325e+00
-8.955885335784060652e-01
-3.286591782268619699e-01
-3.511680263922203338e+00
-7.410837765348412987e+00
-1.723597181376774312e+00
-2.284749400772063677e+00
-5.291125461145997022e+00
-7.211802624161826714e+00
-6.975667970891911374e+00
-3.670816430522292784e+00
1.230278212318131725e+00
-2.822668169633682833e+00
5.955823571183435305e+00
-2.117373995024136146e+00
-1.092992025863364969e+00
6.898396808867808261e+00
-1.367926086197362334e+00
-5.224008652469152914e+00
5.100989757602051533e+00
2.699491037151389605e+00
3.766229463536570066e+00
-5.164240697363304822e-01
-5.499981983188884094e+00
-8.297140420652016957e+00
2.721892408564158483e+00
-1.886345140428373535e+00
1.439864590181357817e+00
-9.544566019394500334e-01
-7.196280030228488833e+00
-1.276912402450634643e+00
3.288360782845539010e+00
-5.879417848268126967e+00
-9.013066524275789249e+00
-4.850483571709601094e+00
-5.954425849116177227e-01
1.330487672814172073e-01
-2.293926333654522587e+00
5.553792996154295558e+00
-1.782506847259504479e+00
-4.674176942168131177e+00
1.814238655271474654e+00
6.461514717094574145e-01
-3.737156976234938810e+00
3.003108177587113570e+00
1.416335896866498523e+00
3.237602598379800689e-01
8.108142259913307726e+00
2.420833871776626456e+00
-3.603514240029997318e+00
-5.862962027775859397e+00
-1.885758928606857454e+00
-2.370829593226766896e+00
-3.261951363526311987e+00
-4.726209979270027617e+00
-2.345478090206031929e+00
5.320079949782230422e+00
1.332309135474516237e+00
3.099498530531191953e+00
2.793345057585321811e+00
1.121580392484500255e+00
-7.959108976529812196e+00
-4.922584820519595006e+00
1.914178042639513633e+00
-5.520559257069459491e+00
-6.634919829811087855e-01
-3.356065932977045474e+00
-4.341011400284676469e+00
-6.693223650546931580e+00
-5.775869507544466153e+00
-4.174744277125890690e+00
9.791078536857655834e-02
1.190897236854671526e+01
7.157674727909262291e-01
-3.949279023817934497e+00
-3.276339828219800854e+00
-1.870719884829721291e+00
-1.505215653387906416e+00
-3.426821242364983977e+00
-5.156515882285526153e+00
-1.268784662493826598e+00
2.001298686127479076e+00
2.067918489461536766e-02
4.871253648977750927e+00
6.419278160503929520e-01
-2.336822085247565184e+00
-5.042113916838050436e+00
-6.848948815895930409e+00
-4.379518351645306673e+00
4.406634283560594278e-01
-2.944682806903293759e+00
-8.503682574821712636e-01
-4.716378265072695974e+00
-3.985408946373390826e+00
-3.179045735372386439e+00
-1.213340476755412389e+01
5.747310260893786493e-01
6.112230563009234174e+00
-2.463389484214192127e+00
-4.930834466872467958e-01
-5.595615382186304165e-01
-2.442516029349344198e-01
1.339881914289451081e-01
-1.024309376414352490e+00
-5.244566593099109220e+00
-3.673587427400329730e+00
2.840463048028233128e+00
-1.656537470049420424e+00
6.394353236314682665e-01
-5.185741759664968420e+00
-4.629557725869171136e+00
-8.041234600367717089e-01
-2.892322756692000230e+00
-7.566972470608604340e+00
7.507357609056619197e+00
-2.390483381689504139e+00
5.618222375584200901e-01
-4.760720172726300881e+00
-1.657281279276821673e+00
1.822568294438946246e-01
-1.154803485475312286e+01
-5.968267078704596607e-01
-1.479217806120200374e+00
-3.140407981548989813e+00
3.286728225226116074e+00
-1.837707934383147945e+00
-3.906027687483834554e-01
7.633350605492492669e-01
2.397657992218450218e+00
-3.433485173841030136e+00
-8.203488962968473075e+00
7.871872763065632661e+00
-8.068465405359341869e-01
-4.136087657144781993e+00
-6.422161824622749648e+00
-4.754659228219782818e+00
-7.255001640919532813e-01
-3.851101023384386757e-01
1.174123923254660057e-01
6.089075127656411013e+00
1.853973941518795243e+00
5.454604921873281581e-02
-3.896537110491344436e+00
-1.604017878352434145e+00
-5.056528343387665103e+00
-6.136952956989346397e+00
-4.251572084852968558e+00
-3.449421326203152560e+00
8.240891019950007390e-01
3.656369339436828181e+00
-1.321755597673401450e+00
-3.321215870973144302e+00
-3.090344451121972202e+00
1.566289166669122102e+00
9.791751867555013034e-01
-7.451435802723741730e+00
4.909765365008118998e+00
-1.160256151676825498e+00
-2.529115604951570173e+00
-3.748114684972635224e+00
-7.709442515215297220e+00
-1.028327942427721631e+00
-1.694879989175223756e+00
8.149672479013728932e+00
-2.896388430124924862e-01
4.379146460132338881e+00
2.730206037808559305e+00
-3.920843082548947756e+00
-9.956780909369827848e-01
-8.427404464504173021e+00
-3.249976070837347741e+00
-4.630577940198534748e+00
-1.566484858554835657e+00
5.191475016933187803e+00
7.680068536661941447e-01
3.583178202534079038e+00
-3.290177667246222182e+00
-8.688243880367734207e+00
-3.380022899245566315e+00
1.231721792035417762e+00
-1.877803801720775656e+00
-5.996947446279142779e-01
-5.080871326329759796e+00
-2.881346738025113985e-01
-3.137103234773476856e+00
-8.939906249707171071e+00
-5.834679297249512064e-01
-3.361776362428825049e+00
7.882783597605637738e+00
-4.286865498612092651e+00
2.084092156378064775e+00
5.629079841545530094e+00
-5.961826171719412315e+00
-5.759061599815145094e-01
3.940683196006207201e-01
-2.966918842263763345e+00
-6.209307385325654183e-01
-1.637906197654135809e+00
-2.814003259303861706e-02
-3.083679119248464051e+00
6.847319628730245356e+00
-1.186887516286487948e-01
-6.184183307169894839e+00
-6.296846484767566032e+00
-4.656212109661083787e+00
3.366577113755879758e+00
1.428272485054986829e+00
-1.002789730852264860e+01
-3.458951120697891568e+00
-1.728732860889580669e+00
-3.590855375534759197e+00
-2.132724989604582788e+00
-3.530461420812537110e+00
6.023811324195251338e+00
-3.388502995352155267e+00
-1.401039519075075512e+00
3.639903502846476790e+00
-4.334522365157034152e+00
5.312320245812405251e-01
5.754091844842433190e+00
-3.065780966737698954e+00
1.138969033421124877e+00
-1.564942463105711834e+00
-8.147128828777937315e+00
-5.117812987172402295e+00
4.141308740546312706e+00
1.271257016203772405e+00
-5.851485626292445286e-01
-4.865983264737352876e+00
-7.364704016950089915e+00
4.770621061113930139e+00
5.046954313513690060e+00
-9.782964727268758764e+00
-6.273268975598681685e+00
9.283165892072998693e-01
7.326965157484620628e-01
-3.954488468421471836e+00
-2.365469548518325915e+00
5.450998396638024879e+00
-7.935265486011940927e-01
-2.196502625920796703e+00
7.761297688449917409e-01
-8.255124683917011152e-01
2.133042415592338426e+00
1.172408955555855448e+00
8.582716739241429138e-02
2.365580467816874588e+00
5.764669044511047780e+00
-2.585085452591666666e-01
-5.285666308282637615e+00
-4.727779726292633100e+00
-1.605348023913368616e+00
-3.791818587082719016e+00
-6.598483611081400468e+00
1.204817662985676385e+00
-2.459016804822327540e+00
2.253976627426966139e+00
2.856881813539095649e+00
5.044624734963200297e+00
-1.271918050068803208e+00
4.014819834340904059e+00
-7.273235070249672418e+00
-3.178822813890736843e+00
5.562083332423227056e+00
-1.770369863859261761e+00
-9.402016708630603903e-01
-3.079074492464102253e+00
-8.354996330858146081e+00
-6.054338917471757675e+00
-4.491617149415842114e+00
-2.145996253643678298e+00
6.713443795961182570e-01
9.655978867624437356e+00
-2.876890022343864484e+00
-6.188324057653486143e+00
-3.232763666619787646e+00
-3.185913335146281167e+00
-5.006291919356803177e+00
-6.022398868290882668e+00
7.455627050432145700e-03
6.463521732939411235e-01
-1.282469340428518678e-01
2.997157541263359093e+00
5.927360832995550943e+00
-4.805294266967989003e+00
6.534663463417561546e-01
-3.746770707477072193e+00
-5.887791653071687392e+00
9.842263236400041748e-01
4.118592595411618262e+00
-2.441289166104713804e+00
-2.191214644863370697e+00
-7.894638292343340247e+00
-1.966413349924483134e+00
-2.679012192183649610e+00
-5.152050963586630061e+00
-1.004073644834385881e+00
6.254400303500339930e+00
-6.789351879144394530e+00
-2.804940710341922383e+00
-2.209744008031300222e+00
-2.658239768729173669e+00
-4.921187383347066735e+00
-1.278350741358723397e+00
-2.115880935523267947e+00
1.212231488516418043e+00
1.829546615869932724e+00
1.052979292797489697e+00
1.609136600702979036e+00
-1.159820136188853645e+01
-3.791076181120387467e+00
2.721263661595621497e-01
-4.001500575677916949e+00
-3.584495937990389791e+00
9.295749884110449557e+00
-1.543543018219850849e+00
-9.429657290129338509e-01
-3.167570743166831182e+00
2.729656983912475798e+00
-8.679092780707432508e-01
-5.962677647873166009e+00
-1.392166703205838685e+00
-4.422862533636257587e-01
-6.469916110938331855e+00
8.204078551892917126e-01
-3.721209732740426102e+00
-2.233055727379970712e+00
-3.793957393816699497e+00
2.606631879272277796e+00
-7.625835373265875683e-01
-2.221991548018831253e+00
7.280434227355242705e+00
7.227759090504766171e-01
-8.650723026275141114e-01
-1.363812121174642833e+01
-5.288433294812139529e+00
-1.418138092215553980e+00
-1.938269118735002960e+00
3.585833371839788342e-01
4.482584874323907620e+00
1.750062826231445046e+00
-1.260689701446486399e+00
1.654632164290226637e+00
3.542509725869292581e+00
-4.653106849158243463e+00
-5.293279568936696045e+00
-2.457789787016939620e+00
-4.843702465213914898e+00
-1.163958552764723930e-01
1.745382789170675242e+00
-2.490885623760592971e+00
-4.943378981691917140e+00
-6.091077261737275705e+00
1.777772596511245640e+00
3.143566398222052527e+00
-2.600178105226847336e+00
6.909460902005130301e+00
7.060924785338491549e-01
1.353527338910725630e+00
-1.039917550507001742e+01
-6.135751249296541587e+00
-4.446462745433141350e+00
-2.387710117737012805e+00
4.331333257076358301e+00
-4.459325609831545911e+00
2.885359079282245442e+00
-1.688538834525044885e-01
1.593902425141650925e+00
2.242501789960883229e+00
-5.133280608817368140e+00
-5.324053312226428858e+00
-2.877842243158493574e+00
-5.758024970472463977e+00
4.479748271731629039e+00
9.092507623783242510e-01
1.734773811280774014e+00
-5.182370306662880566e+00
-1.021792528851094595e+01
-2.516187072955812454e+00
3.653108071652957811e+00
2.272123272445563114e+00
3.834013182820192878e+00
-1.830100499761144528e+00
2.786510138161089944e+00
-6.188930111138182255e+00
-4.904496921871909443e+00
-5.534550377867342164e+00
-3.691513632971071601e+00
1.128651803914693108e+00
-8.588321250646567151e+00
9.528312488500704225e-01
2.200940024917913185e+00
-2.889598810384061967e+00
1.877594988600672421e+00
1.506038023343311938e+00
-6.418135246453513076e+00
-1.816165866863842293e+00
-5.206608378292388650e+00
-1.416061786517339049e+00
-3.505347179007370362e-01
3.604507332306617684e+00
-7.943982110710281486e-01
-7.106132246784504503e+00
-5.455082647570566046e+00
-7.872644856700768967e-01
8.090613345441958870e+00
4.812975486599522235e+00
-6.517480485894802555e+00
3.488710623888292561e-01
-9.696399832098244742e-01
4.519101565406836302e-02
-7.141033919286590148e+00
-3.422232517681349950e+00
-9.346198041796116573e-01
-6.100440717885446951e+00
-3.753215430332334512e-01
2.962185381705804588e+00
-3.844946289927974270e+00
3.951020250988956928e+00
2.880977163212519176e+00
-5.884254772321226845e+00
-1.004253694017938292e+00
-2.983768490276034857e+00
-9.261075854412395003e+00
-1.613111078478436600e+00
1.255546260940738401e+00
1.945424938010107851e+00
-1.228559712277643046e+00
-4.909313249152534198e+00
-3.687659410243853575e+00
8.336718118409937262e+00
5.524029316534249112e+00
-6.996616262975494216e+00
-2.188261211705456510e+00
2.268690307646219484e+00
2.760254525495303035e+00
-8.124936407557051155e+00
-1.806402534055886466e+00
4.571520616994047548e-01
-2.737143045281949849e+00
1.247827784121424838e-01
2.030307371192043853e+00
-1.233733485817978259e+00
4.922356614483768489e+00
-2.056373929720117122e+00
-2.375098187681385919e+00
-1.963207337057124358e+00
-4.016171595212584045e+00
-1.460606158250371767e+00
-1.826244318352708840e+00
-3.571067934233871810e+00
-2.918786825147964947e+00
-1.637253281410103734e+00
-2.371724813590511793e+00
-1.555481352689263908e+00
-2.643238780417683564e+00
-3.667033599164070790e+00
-3.168730302761320949e+00
-2.408307677234844846e+00
-1.900258544138495820e+00
-1.817166049379121739e+00
-1.493895002671334238e+00
-5.937918808259158965e+00
-2.964427972574588122e+00
-2.229732719888243508e+00
-2.588831579258085380e+00
-5.765331813343117062e+00
-1.737463901311833814e+00
-2.403051854127884024e+00
-1.875081380617300342e+00
5.892685134723781859e-01
6.733014406757477088e-01
7.868945671480999104e-01
8.083896065996473146e-01
8.682985397453806264e-01
9.514385956596664862e-01
7.886796520158790846e-01
5.992015536179288171e-01
7.449328554686879267e-01
8.410218039357980624e-01
8.934063026107836869e-01
8.494692632389790887e-01
9.320067109409018169e-01
1.045363217297422764e+00
8.785439049980757753e-01
6.726631260160663706e-01
9.087368539388848143e-01
9.010031940738066902e-01
8.724089899727414110e-01
8.518537681052670285e-01
9.410048957620011922e-01
1.000447888159946119e+00
8.683846579352043626e-01
7.774598443333620157e-01
8.705943928999961834e-01
8.654593116525928220e-01
8.958802121636066929e-01
9.337599964064385860e-01
9.146981112182658302e-01
8.797632987888932554e-01
8.388663105268113762e-01
8.550628063784069255e-01
7.923926111894834534e-01
8.733796743859809641e-01
1.007168214454983390e+00
1.018010135659577431e+00
7.752381839783718531e-01
6.363505465855077148e-01
7.498147005073354521e-01
8.522977598166321389e-01
8.258795896524083746e-01
9.357917575827502388e-01
1.018727508997012254e+00
9.499952932073245648e-01
6.638466908523102950e-01
5.407404631266496953e-01
6.906969611952522570e-01
7.440327045096418734e-01
8.014814306252150411e-01
8.768386919778740074e-01
8.650931171298027467e-01
7.961182650461585686e-01
7.158475597871974960e-01
7.029068489067451520e-01
6.654151936167604919e-01
5.974954087351681542e-01
7.079359744553779255e-01
7.823320526320720614e-01
7.449153837719317828e-01
6.997034783840482275e-01
7.533324209174931951e-01
8.172424143168494082e-01
6.613475974408797864e-01
5.263603163121937101e-01
