2.780505713897116551e-02
-1.100067402356914720e-01
9.529633390634924262e-02
3.400104584344147418e-01
1.126454560525174814e-01
-3.301905905721998213e-02
-1.187276366760695728e-01
-2.861361870293850987e-02
2.288125415388148898e-01
6.821922922388601318e-02
-2.459834043071067178e-01
-9.952996734493611830e-02
4.244838375918338902e-02
-1.799906512565330741e-01
-3.157579738296293348e-01
-1.322581471698788119e-02
9.277992097314022857e-01
1.532864495318213005e-01
-2.390661400919492918e-01
-1.740181612984284254e-01
-1.270935160394690289e-01
-1.029592864527411888e-01
1.824709122166256470e-01
5.757594592890133423e-02
4.941814573789168330e-01
3.500914490062057016e-01
-2.406962042193254436e-01
-2.607647137061054332e-01
7.009994988180044684e-02
2.415720486509917164e-01
-5.831632022614138822e-02
3.053365031329107748e-01
-6.782122152632787115e-02
-1.657348427475057728e-01
-1.704285501540530323e-01
9.873376597741517768e-02
-2.765437387741153108e-01
-2.683090806289514241e-01
9.285077104999055198e-02
1.866598703287880301e-01
-6.078108825114151292e-01
-2.748578897324494563e-01
1.397507611997476640e-01
-1.738724465250029716e-01
-5.035207102769558851e-01
-5.921165961113266096e-01
-6.535919127001851847e-02
3.154468582096809914e-01
-4.588531410682133993e-01
-3.034892748558392639e-01
5.533124422494976880e-02
-1.113367157472305996e-01
-4.226388011500530895e-01
-3.272281465808603573e-01
1.575650103415815739e-01
4.139795359688346887e-01
-3.162240398465184232e-01
-1.457428331339059302e-01
2.312582252520675730e-02
-4.975932161255568892e-02
-1.634428723219670254e-01
3.820540534936280042e-02
3.071401157579951580e-01
2.779776037623289398e-01
2.102208729884501304e-01
-4.386852677657457344e-01
-1.027934468067580459e-01
3.065342114584213573e-01
2.222004800482309250e-01
1.542395757270391687e-01
-5.877017174456064530e-02
6.999558549886526759e-02
-2.064999170923619565e-01
-6.856754668622203619e-01
-7.593926933070792584e-01
-1.662672148245946113e-01
-4.242725787509269986e-01
-5.880884429360909715e-01
-2.258261689194941968e-01
-4.172925001916638066e-01
2.533530818018128183e-01
-5.161439395704392474e-01
7.821003557760793090e-02
-2.210119155824905868e-01
-3.802927825827889796e-01
-2.539788622665519191e-01
1.585485096742109135e-01
1.556472742540091769e-01
-4.129470741191333394e-01
7.667628082435005987e-02
2.305013677056807347e-02
-2.627014039303274817e-01
-1.174577376046354038e-01
7.573881634419290521e-01
6.657649960241873721e-01
1.609954853891573390e-01
-1.858167224796790917e-01
1.173481911580101511e-01
4.000618147480884679e-02
7.419637282233311482e-02
1.038507598535447357e-01
-9.364180995693921136e-03
-5.490591853332831007e-02
8.720462217860436294e-02
2.026946490911517851e-01
6.102085910760148835e-01
3.951023108521497518e-01
-1.036881098569006482e-01
3.023813102827305754e-01
2.614809002010791139e-01
-4.045007283522186747e-01
-2.100301383146690737e-01
2.065447710188569042e-01
3.265322406323564741e-01
-2.591748471641358020e-01
4.799065726983713781e-02
4.874571628046921457e-01
-9.180116810479899137e-02
-3.015783639373138120e-02
2.772074742193871844e-01
-2.137418737977881955e-01
-3.816476664048092382e-01
-9.460738325168948082e-01
-5.730226237752196194e-01
-8.119196557080726739e-02
1.351577098733020010e-01
1.655667208240033383e-01
2.510191835395824134e-01
2.298458656696093227e-01
1.114157473403782628e-01
-4.050836762009424885e-01
-1.391976161207052476e-01
3.969336013187498013e-02
-8.088373536796725216e-02
-6.701674036583510352e-02
-2.303395770045521818e-01
3.068471527025680087e-02
-4.009247048046007955e-01
-1.643521648020581927e-01
-2.308277200346416369e-01
-1.022202809737846468e-01
2.582047503094642704e-01
3.306369677372431592e-01
5.107660478190491071e-01
-6.692555093839119840e-01
-4.313905590409239377e-01
-3.125477534908900901e-01
1.851211258487267253e-01
-3.668625709378429689e-01
-2.858103492241944044e-01
3.382579224933178197e-01
5.666387762191460453e-01
-2.406937342296751603e-01
-3.931585661306128965e-01
1.318087938183138408e-01
9.084600812008247761e-02
-8.166631781343649532e-01
-3.139917762266353218e-01
8.274424234231525510e-02
2.366788086915427025e-01
-7.052334176872666893e-02
-6.771615903504858702e-02
4.551134500987529322e-03
-3.251391063872813847e-01
1.653270110679792848e-01
-2.444593613516348185e-01
1.869338549482994771e-01
9.657497554766640568e-02
2.112262319907046160e-01
-2.346056308924716616e-01
-7.409565633687413555e-02
3.651009473798462468e-02
-1.005487968886231986e-01
2.310862735936254353e-01
4.675185351515418475e-01
2.112733009964018124e-02
-1.982011899708245595e-01
1.696810667172316267e-01
1.051635492051714998e-01
3.998879512532001468e-01
-4.436970071823062578e-01
-1.490148468229276768e-01
-1.887404221356850376e-01
6.173274201280082307e-01
-9.684611646337770718e-02
1.018747919988789025e-02
5.388763844725608099e-01
1.988007468249213816e-01
-2.379970836916770194e-01
-6.855561860271649488e-01
3.275300772523364046e-01
3.172294191330140567e-01
-5.782080186899596352e-01
-3.472895903249280658e-01
-2.592518574869760450e-01
-3.071272317884451986e-01
2.806139664274888146e-01
3.036296087721229719e-01
-2.835082022273085686e-02
1.057804931598681636e-01
5.381867112465518049e-03
2.402730357535444172e-01
2.453217660555295776e-01
3.911472969310171299e-01
-2.817846489580586727e-02
3.334533940895699211e-01
1.782486108520098811e-01
5.950272204015592120e-02
-5.874856012038673359e-02
5.388672938028431503e-01
-1.305665759190375586e-01
-4.895518781792651541e-01
3.935466461390225157e-01
-1.675705892370254191e-01
-3.210903572459394839e-01
1.850218054744085794e-01
-9.431211625817882693e-02
5.414030646483688862e-03
-1.425212928297061310e-01
-8.960855212088850719e-01
-5.381937165885937180e-01
-4.663810011258301413e-02
6.011611399017482288e-02
3.269692627516673084e-02
-2.786457093734555079e-01
2.281775200097782286e-01
-3.519695637892379381e-01
-2.918824891882775829e-01
4.476281163384363548e-01
1.014069991809568860e-01
-1.976593592004115829e-01
1.595615954125772229e-01
-4.917720952821659219e-01
-1.810204169094535923e-02
-8.533502267158498550e-03
4.062428928216914661e-03
5.839606460451489678e-01
4.692532037693379343e-01
1.234213957703267223e-01
-7.135204311352291717e-02
-3.238395177582324425e-01
-5.700414088836004423e-01
-6.165702616956694193e-01
9.054701983527717324e-02
3.474295071644424859e-01
8.615212401404663545e-02
-3.933202667205181191e-01
2.588861976608747284e-01
1.883899281750634480e-01
-1.572209962592252819e-01
-2.761443180050949242e-01
-4.866875826701735352e-01
-1.765253701040946366e-01
-7.766244228271920180e-01
-4.602859699995053844e-01
3.538363157718201202e-01
-2.613523588116151153e-01
-1.988620654982048985e-01
1.603554778437774331e-01
3.107016443308484588e-01
6.220429544242634529e-02
-3.681204364178608524e-01
-2.778190642623293849e-01
-4.155019925999859365e-01
-3.282136830078334899e-01
-8.469462866711169324e-02
3.455535065485862978e-01
4.068956929757299168e-01
2.292416299877545471e-01
1.220223663798601366e-01
-3.154179383384922986e-01
2.083157632537359083e-01
-1.170922150114297594e-01
-3.177111482649286889e-01
-3.541713655406172334e-01
2.821326503294442900e-01
3.729601640887737768e-02
1.418791776546558109e-02
2.826342902517454680e-01
-4.917256158462231241e-02
3.106845780315616312e-01
-1.995998985565406447e-01
-2.961275718205162444e-01
-3.455575491338125915e-01
4.587217448538145892e-02
-2.627400973418616004e-01
-1.327078219365838418e-01
-1.161964587229395579e-01
4.587464936422732675e-01
-5.864134621596998886e-02
-6.248554986051513271e-01
1.897348404356620777e-01
-2.519802175178851855e-01
-1.504352125296805689e-02
-1.405098162863772926e-01
-3.491557319663818881e-01
4.186923575658081931e-01
-5.790499415089424978e-02
-3.746903746565636295e-01
2.250152718067393448e-02
-1.693902325978864642e-01
4.402883763968935826e-02
-2.868575922704572623e-01
-3.160608799838048877e-01
4.812816513757691150e-01
-3.625591359662438257e-02
-3.047905436402288393e-01
-5.398654332579245763e-01
-2.106251374806258625e-01
-1.222210406842255820e-01
2.324659377546005046e-01
1.170468309846635080e-01
3.257902922045102234e-01
6.482148246386468249e-02
-3.303674831206347973e-01
-1.434438689334045502e-01
-2.503207939078199162e-01
1.370867499002972889e-01
3.721620293049699990e-01
3.283694363560545337e-01
-4.549842154170048447e-01
4.236373931131462434e-02
-2.966731713489195177e-01
-7.021821714336854425e-01
-4.268297950405525176e-01
-7.225658657875073942e-02
5.034990869401857402e-03
-6.774654419006011230e-02
1.520559582382997321e-01
4.482334056059750216e-01
2.959617228603812489e-01
-6.206334165101410338e-01
-4.868321312117080413e-01
3.839363479400140222e-02
-9.984644330664717293e-02
3.562331735343313155e-01
1.329090094235294006e-01
5.802863334421679564e-01
2.426051812885587911e-01
-5.039020547738348559e-03
-2.312745909151753543e-01
-2.219931870525280182e-01
2.757060916865717859e-01
7.596150470143599176e-02
-2.174204209908066621e-01
-3.513869341095064991e-01
-1.048561738282023786e-01
-1.979075255757085372e-01
3.545379191710598121e-01
4.314411076885749791e-02
-3.498491098467420568e-01
2.433282432857278299e-01
-5.546477572356955932e-01
-5.100708039202380695e-01
-6.274593332338759266e-01
-3.333244191152016922e-02
1.580057488227079032e-01
1.429395889769661254e-01
-1.334356415474934054e-01
-3.498166202896291765e-01
2.573362079797040236e-01
1.927082730988618209e-01
7.246051899238301064e-02
-2.607737561396071269e-01
-6.387671700823872867e-02
1.990844035417567159e-01
-3.374570723735846878e-01
-2.930208960263857021e-01
6.885984817723492246e-02
4.905998330756403125e-01
4.317922264192369797e-01
-3.996300543600196375e-01
-3.331183127306140968e-01
8.374189445642719540e-03
6.644452344749593453e-02
-1.873191178181168037e-01
-2.537326939143622062e-01
3.285006902726080036e-02
1.019460185653794787e-01
-3.663747685892212447e-01
-1.993224509250072218e-01
2.210658570482917917e-01
3.406728747107031219e-01
-6.173576343890137784e-03
-2.888313068135436174e-02
3.864064441069588463e-01
6.542509924636847884e-01
5.274081964439253367e-01
9.535673657321271784e-03
-2.877160585550326832e-01
-8.019549963283432170e-01
-4.454180361760761708e-01
-5.293753428597045008e-03
-2.757691567798171636e-02
-1.588863583439180938e-01
1.916810748946924381e-01
-8.710822200312992591e-02
-2.377644383648326309e-01
7.213962470987329845e-02
-7.169344161799396167e-03
2.633577161105900566e-01
-9.068269859759026108e-02
-2.923718870788731272e-01
-2.755725976975219038e-01
-1.260648977646010582e-01
1.338475499202892993e-01
1.476571502556511145e-04
2.709418604851148160e-01
3.245846576616284729e-01
-2.998944919738835146e-01
-5.671232361770698338e-01
-1.002873520731729501e-01
-1.382391733741976381e-01
-2.027458890453721560e-02
-1.652420676234461761e-01
-1.206994056165289486e-01
-1.958389757335751435e-01
-1.674093472013325479e-01
-4.986487145528965548e-01
-3.832838255574583797e-01
6.917415502050504317e-02
-2.717540366052534351e-02
-2.368402886386940243e-01
2.741878732347661010e-02
8.661281471024880052e-02
2.864072121191813588e-03
8.058866189832096516e-02
-8.106330688966915943e-02
3.041993159716223083e-01
1.916935797747335579e-01
3.079565151307074866e-01
1.118998260225908259e-01
-1.646440199297963605e-02
4.619863247127906081e-01
4.462239746462418610e-01
3.726227466457662230e-01
3.319022242579214299e-01
2.103191208267966017e-01
-4.458516535515590906e-01
-4.135166301557318541e-02
-3.326691309732165425e-01
-3.978408324440907418e-02
1.646899009750456278e-01
2.373695455853506997e-01
1.000524998162206636e-01
-1.008739867407733304e-01
-7.428656779403056687e-01
-1.002564512305218702e+00
6.952111820073191006e-02
-4.240802976503876831e-01
-7.727885174750338537e-01
-9.925062897562707265e-02
-1.996290621180999980e-01
-9.432491612448763718e-02
-4.494355564086087718e-01
-9.476725717350957534e-02
4.305201646280045757e-01
-3.459795267574933830e-01
-2.393024276003401229e-01
3.056965103902035130e-01
1.840498402219714613e-01
-2.943168320713460129e-01
-1.994175264837571848e-01
-1.869538393179558111e-01
5.775858300987645189e-01
-1.709454179428574958e-02
-1.579971877036604466e-01
6.376478585215771266e-01
9.537731076354510895e-02
-5.193986763989150157e-01
-3.178996250572722615e-01
-2.321570078758947164e-01
2.884224759876106159e-01
-5.904314578876618952e-02
4.320415157724263322e-01
2.336777232497189716e-01
-2.535262990964379237e-02
-1.352007444514869428e-01
-8.909922773625195136e-02
-1.472723039276286339e-01
-8.652883255107929328e-02
-4.370142398025865238e-01
1.667050106245028807e-01
3.874609994835316318e-01
1.581220633043323442e-01
1.614674297186853014e-01
5.175446012257323147e-01
-1.313207482144745086e-01
-3.192482403351535325e-01
-5.470111673813878028e-02
-1.528793112957847929e-02
4.982801162361290975e-02
2.139706801667134728e-01
9.759185114523588611e-02
1.331698970959316053e-01
-2.443820046978580629e-01
2.766002363214734583e-01
1.160581670926550714e-02
4.710270720572092007e-02
7.466293015816537204e-02
-3.775314795282574964e-01
-1.784841825801253279e-01
-5.285520931205668349e-01
-2.682742426767838473e-01
4.238042704912899361e-01
3.840960762095504966e-01
7.361941949119706063e-02
-8.565131145557035308e-02
-3.451103808678014362e-01
-5.487018097857159216e-01
-2.896935245763493372e-01
-1.748795881806975983e-01
2.679541478548937428e-01
2.268975509183873696e-01
2.610482023302780896e-01
4.245698347289984520e-01
-2.700640786444264557e-02
-1.255367229476478386e-01
-1.344984889874131229e-01
6.063323165176258411e-02
-5.822309440444234374e-02
-6.617233353270110530e-02
2.691776547553217935e-01
3.135418182817718055e-03
-1.366001664972561584e-02
-3.614434696068383746e-01
-1.166770463690151305e-01
-6.233256951041919736e-02
-5.638111112761693411e-01
-1.515260610167409594e-01
1.565641780084512935e-01
-1.112100381951980910e-01
-3.699739723675705277e-02
1.597588315141810766e-01
8.259970354176718321e-02
1.105216127467073123e-01
-7.070161907790598610e-01
7.535169651943533775e-02
1.994723816689705775e-01
1.108145384161982466e-01
-9.069745648469798582e-02
1.309573407876458637e-02
1.788714893737145262e-01
3.024369716999716351e-01
-9.558110803018615709e-01
-2.866071626327524879e-01
2.953721900600940753e-01
3.594064711785181776e-02
-3.646444671408866078e-01
-2.880574226215671385e-01
-1.062949169965122231e-01
-1.300407222718695799e-01
-7.306584203494737029e-01
-6.931875408856331688e-01
1.582534789413275189e-01
-7.253001934084009339e-02
-9.346636215894101041e-02
-2.284395655204564113e-01
-1.879173549867851067e-01
1.544443135652416865e-01
-1.270534597565632917e-01
1.968408111788174930e-01
-3.733390178752494792e-01
-2.366650430010225625e-01
-1.070851593841003757e-01
2.128215593979656539e-01
3.437312580431670095e-01
-2.667148616016840057e-01
6.538348599233892999e-01
3.218820630812415651e-01
-5.596643780155414333e-02
-4.166947692350447818e-01
-2.529826603971934151e-01
1.602138959040411981e-01
-3.337451128991350546e-01
-1.870805707126568795e-01
-1.824615233378436285e-01
-8.273068962407854887e-02
-4.141488839423309032e-01
-2.438522169342997592e-01
-2.354925696545346822e-02
7.270906383682740684e-03
-3.897307637511416845e-01
-4.632661627060111198e-01
-1.950459668200391627e-01
-4.801617063026592663e-02
-2.615816597553389244e-01
-5.259701806819072623e-01
2.813255003454224190e-01
2.883980544874597540e-01
-7.828793265159858517e-02
-4.985406930436658834e-01
-5.022652364756762661e-02
-3.700681668216039832e-01
-5.232357413316912620e-01
-1.218091741154961501e-02
5.608404094852235122e-01
5.505837175217654922e-01
-1.972661453653875852e-01
5.751385744126381178e-02
-5.459400619842617042e-01
-3.642422284423759045e-03
-2.385414822889502795e-01
7.503635293946592233e-02
4.105767629016938147e-01
5.646156447945798185e-01
-3.172118689493872573e-02
-1.626394462665749219e-01
1.407311811089849256e-02
-2.338795575741858535e-01
6.397991442209853552e-02
1.302518931949276926e-01
4.482362148938419666e-01
-2.686512963047838487e-01
-3.698051230090968478e-01
1.912483087341265986e-01
-4.601348366777240906e-01
2.385740570767314883e-01
-1.040859910221428493e-02
-2.692877883731255584e-01
-1.253533647329431733e-01
-2.450787514409198675e-01
-1.063502907860303937e-01
1.368847860917946635e-01
5.946359910180780417e-02
-2.719459984643399220e-02
-1.300938874560836900e-01
1.944244534652485867e-01
2.186139411218264092e-02
-1.936205981883196980e-01
-1.958707971042199236e-01
4.009422213810183155e-01
1.842005188988205533e-01
1.667411915707106007e-01
4.513726984326058012e-01
7.560663147360838221e-02
4.835792880911984337e-01
-1.349179473656975381e-01
3.184030290210364961e-02
3.125246244285694308e-01
-1.545062300604649677e-02
-1.217562688412849176e-01
-2.840432411104811261e-01
1.344644776440901031e-02
-2.334614834414844020e-01
-9.280990394080758724e-03
-2.847382118558043906e-01
6.623123592009011462e-02
2.900552970293783228e-01
-1.742473539547003680e-01
1.937576288106910849e-01
3.032586315449162240e-01
3.545523441713592794e-01
-1.966895990995399801e-01
4.628037834080785951e-01
1.370750211256193951e-01
4.274773990542629076e-01
-3.182068494633829570e-01
-3.035443305685874282e-01
4.726851955574505326e-01
1.870766777024448213e-01
-4.423488262360725232e-02
1.116381183551883177e-01
1.133943737080480157e-01
-2.200692000383373814e-01
-5.408719062983414760e-01
6.329007256671878578e-02
1.755586648106078479e-02
-2.731960926179107241e-01
-2.606252496619488115e-02
1.402395285885063847e-01
-2.242085256177151209e-01
-2.764263062027288997e-01
-2.650970817791721834e-01
-1.840304131865395931e-02
-6.641248778203344416e-02
-4.369769802088897120e-02
1.997833442938649340e-01
2.871402947714764564e-01
-1.208326053128226663e-01
-5.072155650352946354e-01
4.948178155805964262e-02
-9.854070561235769854e-02
-4.595743671360032478e-01
-1.819437065276816590e-01
3.604975264670267077e-01
7.833552443043634295e-02
-5.923556562347489507e-01
-2.973112145456568989e-01
-6.566100855899144051e-01
-5.302561886639538952e-02
-7.436008849260528075e-02
3.913535403855047945e-01
4.788843309749746813e-01
-1.119607037063907046e-01
-7.853117333188019966e-02
-3.634069045315873048e-01
-2.098385673766323400e-01
-7.092228369178806002e-02
3.226133357441308136e-01
7.948012493611529283e-01
8.528710465186791767e-01
4.886966296796929066e-01
1.129621731471033286e-01
-4.718364716620383759e-03
-2.197473871894342623e-01
-2.838062075528930417e-01
1.657422026482186644e-03
1.509866056371166401e-02
-1.440068967544281264e-01
1.735429027345577191e-01
5.891336480896517402e-01
1.467848059546944701e-02
-5.052955400342323822e-01
-5.799567251516190014e-01
3.137377562383221463e-02
1.438015414628267263e-01
-5.779123257025448740e-02
9.655261101683948466e-02
3.608389167341724546e-01
-6.597679163430894556e-02
-1.381305138975518765e-01
-2.930130135880313902e-01
-1.349704977267279227e-01
3.431742819828446089e-01
-1.021541448893892590e-01
-1.699704790800454501e-01
1.418102311987179398e-01
1.887204305144077332e-01
2.097109296541378731e-02
-2.635211436584247724e-01
-1.578995768130832603e-02
3.802432931762233376e-02
-2.197939943173087551e-01
-6.391079935030863357e-01
-3.837293523608830692e-01
-8.423531910942823331e-02
2.530403936516777419e-01
2.901066111511951817e-01
-4.245173085370778678e-03
-6.161571727819747935e-02
-5.968226760953869725e-01
-6.703622863555899203e-01
-4.215772995174041360e-01
-9.718414228237513830e-02
5.071213842547801776e-02
2.899523547964226733e-01
3.320385779859824638e-01
-7.728071819275629528e-02
6.329377904437090419e-02
-1.248857360031907643e-01
-6.638040701048254777e-02
-4.155471520930487106e-01
5.800949486335696403e-02
3.202266416900351187e-01
8.848624905990918818e-03
9.603583056244278937e-02
2.379782773053286116e-01
3.741438340674569374e-01
-2.189079257419731805e-01
-1.480737340870114938e-01
-5.054590231268577677e-02
-9.951718002189736956e-02
-1.973272004997654039e-01
-3.050784083387453327e-01
1.831222301009580444e-01
-7.920690602343169462e-02
-3.466853551900694885e-01
-2.504699794502679988e-01
-1.770879862051963627e-01
-1.109470245544737568e-02
-1.336041455132268296e-01
-8.207204761804857973e-03
-9.848478444572042467e-02
7.338613628986483117e-02
1.143311000645083272e-02
-4.906925099395159640e-02
-2.195586282477763329e-01
-4.948034907458436632e-02
2.991307246382757246e-01
-3.268555694183889609e-02
1.415853257896283746e-01
5.118395013858363374e-01
4.980616535893973018e-01
-1.588807935238320534e-01
1.207102305827599809e-01
-1.301087900060765856e-01
-3.746102557056178728e-02
3.193645458899815881e-01
4.961426281448310105e-01
9.019325879958572934e-01
4.873568681067355080e-01
3.147525391676399553e-01
-8.771806936567047921e-03
1.588439102166995798e-01
2.087604066618105325e-01
-1.591566399378989416e-01
3.521079332487610514e-01
5.292394456915879841e-01
1.145662129784962707e-01
2.856481659332018100e-02
3.015881124123570567e-01
-9.279567059835926168e-02
-1.266101169323128328e-01
6.363149305167023484e-02
1.841540511848454575e-01
-1.192812411578048626e-01
4.930632489187431605e-02
1.746506888245590028e-01
-2.476951119927051082e-01
9.874140182193247295e-02
1.508093629668241231e-01
-2.532672101646529783e-01
-5.131877422412824963e-01
-3.857772292773264944e-01
-7.098037101270366911e-01
-2.579896642903392601e-01
-4.269541972630082338e-02
-8.768752463106693762e-02
-7.838726892178826677e-02
-4.345830195300023208e-02
-4.845231272013819646e-01
-1.149186878423392955e+00
-5.856505366154620695e-01
-3.392465567659749132e-02
-3.444689085344664892e-01
-2.438186060007958844e-02
-1.877006802933762087e-03
7.902929324231542166e-03
-1.473686137019728781e-01
-2.748386345401014896e-01
-4.622965901781851961e-01
4.114035628268938871e-01
4.178643577007836174e-01
4.346127852012664217e-02
4.270945539028552229e-01
1.091770758895592053e+00
7.615405642324432067e-01
1.362735315174791184e-01
-3.051616096350556750e-01
2.318628351230423157e-01
7.708956681043532821e-02
-1.637351237264364767e-01
1.479023546932272948e-01
5.192504227305834164e-01
5.966079707742865113e-01
-2.258014727041868508e-01
1.060838365727196086e-01
1.518292792226604015e-01
-1.431212708215001683e-01
2.057034358328986012e-01
1.966031361508662201e-01
1.145534958482493648e-01
-4.178578516936490850e-01
6.912094512543710823e-02
-9.704443385125419153e-02
-4.402975168319920307e-01
3.893474232683562242e-02
1.265345916850386387e-01
3.700870355236297593e-01
3.707643921240110635e-02
1.538751766806746857e-01
-5.892339636737677910e-01
-5.399120916187954977e-02
-1.390538433280958663e-01
-7.756731907776054369e-02
2.264531803125586010e-02
-1.574572210601148659e-01
1.007464944942825791e-01
2.337116796027166252e-02
-2.149112282575438848e-01
-2.800514274181202246e-01
2.290832687049510624e-03
3.089294159494935799e-01
-5.908424822744870464e-02
-6.118528603780644115e-01
1.620608075653237057e-01
1.618725167754393734e-02
-7.345260937961516079e-02
-2.080107763668327392e-01
-5.622196709594096120e-02
3.473649017642762016e-01
5.754485729357879109e-02
-1.856794833660408151e-01
-4.372370964474905919e-01
5.331561460026670689e-03
-2.455685941057147714e-01
1.521110446436403085e-01
-4.286873241710891791e-01
-5.426719829452981980e-02
9.891638971171595740e-02
-2.106991961225254950e-01
-1.130203275938761048e-01
-2.499236263506214029e-01
8.716181943402807886e-02
5.265266528992243455e-02
2.973892749406281677e-01
9.752880347134314232e-02
-4.374752772276467305e-01
-2.973663631954830966e-01
1.272210471892201156e-01
-3.954568121940629788e-02
-6.692543240726470111e-02
1.986415274259823727e-01
1.253149377164896883e-01
-1.003211361568599469e-01
-3.962419741719171440e-01
-2.229027616021965752e-01
1.066890862006808632e-01
-4.155556676396239824e-01
-6.958828676763709753e-01
1.313330973792609935e-01
-3.968182802457325686e-01
9.032326386703448673e-02
4.700759450327656602e-02
5.422335129069019016e-02
1.620113217375948600e-01
-3.097903801724850581e-01
-3.012415252255016274e-01
3.165058094798819388e-01
-6.535825865903638343e-02
2.647306791820663863e-01
-1.868139282738390528e-01
2.005428621874557060e-01
2.591540880284698423e-01
-3.357406805545679052e-01
5.778525391460955646e-02
5.516355150088322334e-01
2.894181525209848505e-01
4.028914171902410746e-01
-1.637527469065880661e-02
-7.180232491726724620e-01
-2.550276366793042260e-01
5.189652018984355214e-02
-1.543511757667166417e-01
5.811357741992985160e-01
4.271349339034814507e-01
-7.684163587751779989e-02
-6.409254975770277696e-01
-9.756618346843025646e-01
-4.853129959795789844e-02
-3.212679475430345044e-01
1.549418615808732524e-01
4.773511392917341445e-02
-1.671209036479866239e-01
5.599552236403509270e-02
-6.031122165417337477e-01
-3.421778685549522331e-02
-1.079817843832797108e-01
4.553689236091604808e-01
-2.344632265092093104e-01
-2.435125056505552110e-01
-5.017459212516010847e-02
-2.549765493859103976e-02
1.216299031515109125e-01
-2.532647197386671614e-02
4.311711203254969260e-01
-5.716435285361264745e-02
-2.691757264719085718e-01
-4.964129439232705665e-01
1.245051270385456155e+00
6.423513550874222489e-01
-3.662941015719596571e-02
-2.633862475327371500e-01
-4.443863136978960515e-01
-1.624083873146616938e-02
-1.916241080824842291e-01
-1.150293679978521139e-01
9.013454683132134937e-01
4.759683181602195057e-01
-7.340510266916717985e-02
-3.429280643135139139e-01
5.321092558770004061e-02
-9.008947163565594884e-02
6.590328794818313407e-02
-2.518756536778289923e-01
3.618262884685730790e-02
-1.065939271169129010e-01
-3.652147854800853466e-01
-1.488509526579743503e-01
-9.594827967083069398e-02
3.291786401324449662e-01
6.132191194030760240e-02
-7.108614753463617097e-02
-8.390852119971810297e-02
-3.301215364916738199e-02
-2.974373601301219874e-02
-1.675655921910901847e-01
-3.508067277237227888e-01
-5.847126473305136636e-03
2.136727662576065265e-02
-2.947682304079384807e-01
2.924884958376188226e-01
1.542588585988108885e-01
8.458261851469625614e-02
-2.248797798450061572e-02
2.411119532715023592e-02
-1.142929844545338414e-01
-7.509470694644367061e-02
-5.528988467815708630e-01
2.433716458182183517e-01
-2.208075014130836122e-01
6.189143896414524976e-02
1.871226057915673924e-01
1.758054861694423043e-01
-1.068191859231362078e-03
-3.485469765558099065e-01
-4.265957272136832179e-01
2.358702552190360471e-02
-3.765614821678300306e-01
-4.115728315995510478e-01
2.727350122319227577e-01
1.313451387314396313e-01
-2.217998718307460926e-02
3.097707363797077423e-02
-1.423673742349297888e-01
2.377278813196600504e-01
-7.525382340641596779e-02
-2.457357222993759860e-01
3.049418058687325753e-02
-1.667481399395141436e-02
-2.654666045520284179e-01
5.482866731076264932e-02
2.513873442251002843e-01
-1.672155843704610789e-01
-1.513063746385822084e-01
-3.127630411890478523e-01
-1.411193116338650411e-01
1.258765642625272151e-02
2.984710704326233310e-01
5.443872064970009528e-02
-4.660132962758906094e-01
2.449826620747097604e-04
1.447557776860429468e-01
5.510415174149883855e-02
1.264615537149845481e-01
3.850870728113690022e-01
3.565782745482375393e-01
-3.570892991525826954e-01
-6.609233876073206115e-01
-1.828242281121630342e-01
4.281372901081587773e-02
3.921779051078386757e-01
5.430597588450803391e-03
-6.307215747856441401e-02
-1.082603337113244475e-02
3.152281119742565696e-02
-5.971360679803695559e-01
-3.250781525156561380e-01
-4.530029376846874123e-01
-2.442430220511331851e-01
-1.146694106144851011e-01
-5.028170218379165446e-01
-4.140728445470249763e-01
1.878450665070157191e-02
3.279082668407794499e-01
-1.173348460665728059e-02
-2.142685621575598498e-01
6.604031884804584251e-02
4.664580617141422109e-02
-5.448355639771897962e-01
-4.566223839837947884e-01
3.538447537253400221e-01
1.820942534198867480e-01
3.094621603671802168e-01
-7.299296068748478694e-02
4.548423935056511991e-01
3.951523335965896888e-01
-9.930699783867212582e-02
-4.299782106449616670e-01
-8.243321927496849444e-02
7.489815395049606583e-02
3.117791039296939366e-03
8.110806597955519393e-02
5.879873432638910852e-02
3.938093830151056518e-01
-3.666276346879914216e-01
1.661950828789036938e-02
-2.153588151344853485e-01
-3.796747899996284481e-01
-4.401549354108678647e-01
-7.212727789918359500e-01
-5.366279155087241848e-02
-1.972784495829565943e-01
3.216295580042740632e-01
1.281051244486470023e-02
2.019229828505585689e-01
-3.278316874049548302e-01
-5.401884692654801423e-01
-3.727825554227634508e-02
2.671710873327864388e-01
-3.600727227231285965e-02
2.482391085596125091e-01
2.661739632577008186e-01
-1.885368729338315619e-01
-8.185097731251294029e-01
-3.689993874096964555e-01
7.026228914927124328e-03
-2.275723500962760215e-01
-5.528360284535291935e-01
-3.453942347968774751e-01
1.844560329637257856e-01
1.405626959569489520e-01
-6.138563740860236012e-02
-2.101984254279064962e-02
1.432234924660601705e-01
-1.174425961140440795e-02
-2.510263914001029106e-01
-9.473073257180706364e-01
-1.148455320835473914e-01
8.722333187665440302e-02
2.176962479064257217e-01
3.498839797840568866e-01
2.647444208026114021e-01
5.541023243521449038e-01
2.462299702371312515e-01
6.318315865958787358e-02
-6.972050531166070764e-01
-4.006043308702392225e-01
-7.454870144328165638e-02
-5.076290893684958644e-02
1.097171444675048985e-01
1.909543086027635506e-01
5.314159753023915966e-01
2.299496906353727110e-01
-4.270304267347411337e-02
-2.529059996283676837e-01
-7.993011945280596720e-02
4.629876235873386231e-02
-5.831635701103280445e-01
-4.393348121629382930e-01
2.821199665508291043e-01
-7.877385463987039704e-02
8.883592276309201785e-02
-4.079445224793465941e-01
-1.036009001477899566e-01
1.978486619170256519e-02
-1.833773138359550969e-01
-3.050525937741555560e-01
-3.886870590751681509e-01
3.547999501652897569e-01
-1.634582293952402399e-01
-1.408242235999040692e-01
-1.099970273710155627e-01
2.816194331118439947e-02
-1.459728657845421329e-01
-9.787932332401785840e-02
4.087087851470248556e-01
3.415272267145240126e-01
2.126735382615285164e-01
1.119563116138814346e-01
-1.051225808259436401e-01
-3.987404416030659871e-02
9.997975293604053487e-03
3.194874491968994201e-01
-1.525233191288856982e-01
3.747152185041475320e-02
3.021619948118729471e-01
4.840981972730049598e-01
1.995442303364179104e-01
-8.757262936534154774e-02
6.855410243970944117e-02
-4.801526899674924964e-01
-1.446200433914870964e-01
-2.617114282284423443e-01
4.392822790835535507e-01
4.760259837211444078e-01
-3.512700567830125825e-02
2.649539004014735410e-01
-4.571848969046728994e-01
-4.652612750216079673e-01
-6.836338264900567729e-01
-1.357553432472856092e-01
4.916481674892290293e-02
-9.417314628429018439e-03
-6.664064149972662721e-01
8.459299570041421690e-02
-2.483381867959443268e-01
-1.959856274552156941e-01
-8.327014250429008724e-02
-1.377646870559094960e-01
1.685552807803968045e-02
5.742968332167161169e-03
-4.553141467866947401e-01
-1.026347561266074820e-01
4.484192829685890169e-02
7.168625862293563633e-02
-4.577239513461433401e-02
-1.704468464108949977e-01
3.057816526425317649e-01
4.730256637579833834e-01
1.836672509352129945e-01
7.618605377317152864e-03
1.947985487813961442e-02
7.980098538390130447e-02
-5.341646556561705506e-01
-2.751797489233830940e-01
-5.860338882089838330e-03
4.486156708192541309e-01
1.696110471391139574e-01
2.780571411425140083e-01
1.620755923373559393e-01
-2.948632298998274393e-01
-4.073907871774843370e-01
-5.230368655199314487e-01
-3.073198064404623203e-02
-1.543392331998278966e-01
-1.819846549530485802e-01
3.335922090955031338e-01
6.223391792042049647e-02
-6.662612095039899263e-02
-2.111535330690035295e-01
1.649750725992684686e-01
7.209222505713704099e-02
-1.906568803523363553e-01
-5.247648487868835643e-01
2.909859776764620737e-02
-2.897752679207543092e-01
-5.250664825836996036e-02
-5.666227928162755056e-02
-1.261735004852173880e-01
1.816424292888147163e-01
4.998815148929222074e-01
3.462077154560166403e-01
-4.359853995112894509e-02
-4.098797229868000325e-01
6.454401758802492950e-02
8.565860776499530094e-02
-2.580857674164743765e-01
-1.164415080800400848e-01
3.921271862999749502e-01
-2.486532235947794822e-01
2.206760011501032182e-01
2.142377584663330004e-01
3.562609353836236337e-01
2.491766001507440265e-01
-1.229470394279034706e-01
1.536990689579169622e-01
-2.762057728634937370e-01
-1.902452307926481290e-01
-1.439816184991658983e-02
1.633524122576663073e-01
3.166015375998189052e-01
6.094028743040561663e-02
-3.962145102623189086e-01
1.855235964121429715e-01
1.138059529019920246e-01
-6.469607525100539158e-01
2.256205765026099083e-02
-3.733597212276130728e-01
-4.346066990194216162e-01
-8.481274177790919522e-01
-5.161684715565968418e-01
-3.671756437545580232e-01
-5.161962227034935236e-01
-1.709468871745598861e-01
-2.052986213498991519e-01
1.495372579829866988e-01
-4.721515894179759143e-01
-1.497111008141633337e-01
-4.921135045909389577e-02
-4.286095822286755674e-01
-2.719343747345019380e-01
6.388030677605750773e-02
5.185348632002658720e-01
-3.424725674245109042e-02
-5.033567405375788395e-02
4.597824098437967022e-01
4.452870641636175741e-01
-2.147868769377719589e-01
-2.663333025714842428e-01
3.002219173770367400e-01
1.789858483692907953e-01
2.584738688977376020e-01
1.189541636820749954e-01
3.746019878925764823e-01
3.080419006310243235e-01
-2.477751948959807105e-01
-2.024340541295533702e-01
2.579058076516362874e-01
-7.368704115849331049e-02
2.561433453433916152e-01
3.665222092132831566e-01
1.187224250393384556e-01
4.769214827494990677e-02
-1.974658945192707404e-01
5.433709634276691069e-01
5.269848107477473897e-01
8.102188533459600550e-02
-1.323187081710834045e-01
4.617763873842085087e-01
2.054793329369083987e-02
-4.857283378743489366e-01
-2.515444983923544875e-01
-2.449821571779270679e-01
3.103182081146356741e-01
-4.731480879454580402e-01
-1.132987537398499056e-01
-4.731874343406218264e-01
2.539838065005283751e-01
-7.229024131162382905e-02
-6.644860099387015495e-01
-3.395058760063062731e-01
-3.374560561378819878e-01
-7.422180723004148661e-02
-7.851132860502603172e-01
-3.123066063785710431e-02
-3.273479650160665555e-02
5.196486221175933284e-01
1.326499069389200924e-01
-3.313375659806390705e-01
-1.742990843972608631e-02
-4.101660437086176308e-03
-7.926286590309922220e-02
-3.194925648518739392e-01
5.834656691504909176e-01
4.127488106684832347e-01
4.433728479905521547e-02
2.138726544337428148e-01
2.047267792151563348e-01
-1.313125326837383776e-02
-2.435410824462717894e-02
-1.083554149166046504e-01
-2.951008964482182244e-03
3.575315906502565810e-02
-2.643965158285161432e-01
-4.053584082994557414e-01
3.706582979961729057e-02
-9.021618271495185359e-02
-4.137541843555118670e-01
-1.426464259513977595e-01
1.790221121500279178e-01
-7.916118108403763509e-02
-6.775854706483188661e-01
-3.639493276311776548e-01
3.675094924918106271e-02
-3.295686493634442660e-01
-3.211727592436441903e-01
4.220496763005365803e-02
2.274797168365235156e-01
1.584359568902337645e-01
-1.430084348611537493e-01
-7.076996581058012104e-02
2.563590680928752863e-01
1.623097888879372064e-01
1.148383427066070328e-01
2.699133903604939398e-03
-6.900736164792384275e-02
1.302013587979121700e-01
-4.426182021840298353e-02
-3.471409931625351469e-02
-6.480180980045763262e-02
1.860324569992970467e-01
1.206024264699225995e-01
-7.879469542750488706e-03
-3.297362565391485228e-02
-1.055492208229572570e-01
-2.154008998035281675e-01
-6.903516621468683834e-01
-3.384965369201272667e-01
-9.183307084294684008e-02
1.159916554356199420e-01
-2.114828718434015875e-01
-4.682305952498809487e-02
-1.956868065420052649e-01
-6.088809844537675930e-01
-9.647112016661476552e-01
-4.150288810423735097e-01
-1.919384808067416404e-01
-1.412714383124816786e-01
1.046988668512810611e-01
-1.435889490507180066e-01
-1.784797898961024143e-01
-2.634247464594574595e-01
-4.488528351152979989e-01
-4.964281461568370024e-01
-2.626665092785690492e-01
5.037811217093279836e-02
-1.393316041883592982e-01
-9.960110715969380801e-02
5.681969250222554391e-02
-2.542469570601101070e-02
5.935474282415888203e-02
2.384515813760442193e-01
-3.627213024271631198e-02
-6.598913872425445082e-02
2.044102010169886463e-01
-7.619414285017453436e-02
1.680810921677969583e-01
3.831242305597530318e-01
4.430148998764248947e-01
5.271814772265149829e-01
1.002334291159300145e-01
1.544007193307617987e-01
-1.092799843556937628e-01
5.176985719276294001e-02
1.605601453281812752e-01
2.625186635967510229e-01
8.838497989467053451e-01
5.177438924051880331e-01
2.274129135991826423e-01
2.507112139228632741e-01
1.763211513135831687e-01
-1.918409254330172842e-01
5.046967462764458123e-02
3.023022334020022961e-01
3.085085357016217888e-01
3.536564937767550654e-01
-4.555557038102265310e-01
2.179567348390957504e-01
-2.352246966735834291e-02
1.250637620910253489e-01
-4.834227207958297634e-01
-2.777992429945131403e-01
-4.628916403255513012e-01
-9.486955071122671335e-02
1.102712471155925383e-01
3.451738544967655753e-01
7.487552150200236234e-01
1.310543134611883154e-01
1.552616146093954187e-02
-3.803206014440292937e-01
9.223752762268860872e-02
1.064957765022226943e-01
2.035937973846351778e-01
-1.866711771322857594e-01
-2.837861933707421236e-01
5.126234899293760638e-02
-5.578790325627339813e-02
-1.848666066225795879e-01
-1.941301710398809360e-02
4.211918344829077010e-02
-3.815843977964112343e-01
4.018933221067214623e-01
-6.849389033037653340e-02
-9.887222968967929182e-02
-4.120617480032043312e-01
-1.133493864322003275e-01
-3.312470581611829945e-01
-6.648929505700830467e-02
1.129002250129265278e-01
5.298952147948908786e-01
8.866234774997042711e-01
6.789074522439633719e-02
-1.872551107480421029e-01
-3.842264337112433759e-01
-8.540071844531828271e-02
9.848932462545433031e-02
-7.386466629121887784e-02
1.333872630395907866e+00
5.815410090043621194e-01
-5.667512348103620479e-01
-2.439660192212002865e-01
-3.477373071248456848e-01
-1.234874272365291820e-01
-1.696336041457765509e-01
8.548334195101463251e-02
1.350698245342602660e-02
-5.424117461400063817e-02
-1.275010801928911919e-01
-2.977356014671339035e-01
-1.970045018283839156e-01
-5.671059866562494500e-01
2.747010875525730533e-01
2.627693734306888462e-01
2.206573303968787925e-01
1.905943242444666230e-01
3.247555697844517475e-02
5.407729674710357592e-01
-5.664105172060319993e-02
-1.275519142699232666e-01
3.804624627055268049e-01
2.472584582264225617e-02
-2.768689588774045710e-02
1.204492063004022062e-01
1.118652841840393347e-01
-1.181182581115276624e-02
-1.990724546425288732e-01
-1.968945003307700226e-01
-8.885232908324451617e-02
-5.233622287502466275e-01
-1.870946716484227779e-01
1.299505581388025743e-01
-7.981926084295039303e-02
-2.164136891693745623e-01
-1.726223168011125353e-01
-1.986775529065454293e-01
-5.087617674133138035e-01
-5.448585273077918290e-01
-4.780053460971156465e-02
2.317798680241167919e-01
-1.271566150261948247e-01
-1.246577999300134687e-01
9.642619497204610313e-02
-2.097719468404658227e-01
-5.159885741441792018e-01
9.707948199664072353e-02
3.358072462630858901e-01
1.408968530678604836e-01
-1.356932793869968235e-01
-8.877082177013442821e-02
3.233192788018418584e-01
2.895344397251638502e-01
-3.874782997095782000e-01
2.998299567945066912e-01
3.767666508173949658e-01
2.045691271859774452e-01
-6.956281406114963595e-01
1.760430930291662921e-01
5.423015262265988845e-01
2.997189815364840332e-02
-6.639576250231333798e-01
-2.343647512459105242e-01
-1.775749184648608980e-01
-5.793254225084664560e-02
-9.292450483698226626e-02
-3.443751907253883027e-01
2.331304086308283174e-01
1.806169970411656001e-01
-3.997782357756299310e-01
-7.806788162837388079e-01
-1.796784122759967003e-02
1.375169516508443490e-01
1.337678330910678226e-01
-4.108298044519312908e-01
1.899293143054788802e-01
-8.298991727674044638e-02
-3.170259512685756342e-01
-5.079489621584846182e-01
8.922533434094189267e-03
5.607442678663394631e-01
2.088520344815838758e-01
-3.217610501014939728e-01
-2.592053309790968152e-01
1.490856864676719518e-01
2.146799233046650379e-01
-1.603796391235669944e-02
1.691142276015149618e-02
3.222376796230209117e-01
-3.298862411256885951e-01
-5.142316826853718936e-01
-4.999514653955788868e-01
-1.449400226431406535e-01
-1.989149987722761692e-01
-1.076468331466283596e-01
8.606315700041948513e-02
-2.001818011197749603e-01
1.552228247932010141e-01
-3.019000587344795594e-01
3.053502012996358594e-01
1.500871707788386245e-01
6.338225965658210448e-02
4.991992162758103480e-02
-9.301857355798358318e-02
4.436982480913290727e-01
4.214562164679339085e-01
2.524313630368794081e-01
2.923276517680379882e-01
2.474722670951976788e-01
-9.836881528729564395e-02
-6.782674399103091889e-02
-1.051954813211516820e-01
4.298975953002813211e-01
3.701685612223913902e-01
1.767528958145394291e-01
-3.638875568263660876e-02
-2.894758141149560426e-01
-4.619401377503130068e-01
-4.913080767306838952e-03
1.010178113080960061e-01
-6.330206033551025180e-02
8.763070007366169367e-02
-2.456423562890706069e-01
-1.042932546797525201e-01
-1.028358659014759757e-01
-4.077245836030694848e-02
9.016238425449575600e-02
9.901626527031134883e-02
-3.188227891424667143e-02
-2.087753025884081792e-01
2.411187354257434204e-02
1.468847867619177128e-01
3.116714853284321407e-01
6.798868149757262280e-01
-6.931355080753560938e-02
-2.126881713715813860e-01
-3.879433244903543465e-01
-9.420251709185620270e-02
-8.379861316726597287e-02
-3.461200751695588801e-02
3.049185825801456473e-01
3.582552899765469867e-01
-5.379263243621633661e-01
-7.383847882544356533e-01
-6.378295650875260847e-01
-3.672802959420777280e-01
-1.803527848443708392e-01
-3.325234101046713464e-01
-3.332263694429942746e-01
-1.859631293313182276e-01
9.430067059921031225e-01
-5.967877157625647300e-01
3.479207837252527469e+00
-1.154285592669500993e+01
-9.855059938257861418e+00
-6.904608190676825963e+00
1.040191207064796730e+00
-4.051940277306493310e-01
3.102395174237579489e+00
-5.526408070441096498e+00
-2.774356419277547170e-01
-3.374796328090149178e+00
-3.087711492205770902e+00
1.255103054335766011e+01
4.464574572657868501e+00
3.042710035506537025e+01
-5.335344739772330591e+00
-1.146811505401587716e+01
-1.965579035312428724e+00
-2.809328353287284141e+00
6.303566420128549341e-02
1.402175183123899327e+00
-4.260996195049446378e+00
-4.735346021554651230e+00
-1.308680336485220641e+00
-7.765784205455318334e-01
-8.263849717382427684e+00
-2.157038169569425179e+00
-7.744932646027013590e+00
-6.325964535676604328e+00
-1.370820252012947105e+00
8.231977163317960589e+00
-1.336952218927569191e+01
5.188795782773555132e+00
-6.111402105365855597e+00
-3.562343246641933359e+00
-1.099341711329213744e+01
-2.932099140690719530e+00
1.222048866955420543e+01
-1.356669006873560290e+00
2.029242336670865754e+01
-7.455492994185239475e+00
-3.020845847924763294e+00
1.213024694472706555e+00
-6.997562221895362811e+00
6.664765680071628395e+00
1.228095378913523605e+00
3.025923166307664669e+00
-3.231982863570454612e+00
9.430092553221610663e-01
9.470654222525615173e-01
-6.056689855654417975e+00
-9.019345421666834284e+00
-4.996130607834084358e+00
4.012341848229713293e+00
-8.480176687977470706e+00
1.220761824985054567e+01
-1.805729027699348777e+01
8.977546805191037649e+00
-1.200704247547448844e+01
-3.376548194234578748e+00
-1.172072502749459844e+01
-1.563921706386088184e+00
6.806597609247930336e+00
-1.166486168389744371e+01
-4.679458047177365576e-01
-7.759468589114218773e+00
-1.700447218711697295e-01
6.034853775026957079e-01
-3.799794540455035730e+00
1.056135054810145313e+01
-7.162615424873264303e-01
7.229332670065555355e+00
2.695399650681027937e-01
-4.488605448613992022e-01
4.736529649391999719e+00
9.483940338722246510e-01
-7.598987873091330947e+00
-2.324612261098641053e+00
8.415991879020598532e+00
-2.073393161813100605e+01
9.779780280188319352e+00
-7.218991434921325556e+00
8.102888063310292210e+00
-1.272530234970349916e+01
-3.115696687049517299e-01
-3.548984680816244630e+00
-6.903037223058134941e-01
1.420195899032076703e+01
-8.830259757394580689e+00
-9.407094731132501053e+00
-4.793477833674861799e+00
-2.725698942385399448e+00
-3.676855919073475754e+00
-3.321292346522540129e+00
5.171645643874842158e+00
-1.486686156052516861e+00
1.221654106073716051e+00
-7.823765454975186717e-01
-9.030374806059118242e+00
2.771509936313369504e+00
5.333002791256308273e-01
-3.699183761759907707e+00
4.444698125701700420e+00
1.461535926845501931e+00
-1.610515230022405220e+01
2.175578673156790821e-01
-4.060949634071694625e+00
-6.301132888587009928e-01
-2.260994986528757522e+00
-1.362498878270303138e+00
-7.140569633392287452e-01
-1.088307921396694189e+00
2.951777164682294696e+01
-1.415294221482514825e+00
-8.406400269496629107e+00
1.650277328030040458e+00
1.076731803361974160e+00
-1.468427711448373474e+00
-5.079820741781289506e+00
-3.233091890309628180e+00
-6.284834075138392429e-01
-6.675148099425559423e+00
-4.383352130314913886e+00
-1.579332453718293472e+01
-3.133073000884443182e+00
-2.612267294607141466e+00
-1.950707349010841307e+00
6.229642183122808596e+00
-8.539423491903841423e+00
-6.435237455431746412e+00
-1.133635726454667569e+01
-9.399608888090982717e+00
-6.942423110784143425e+00
-9.159711785092189418e-01
-2.914928916019356553e+00
-2.504442664166109722e+00
-7.653728331644374938e-01
2.388722962693614704e+01
-4.328798350205992129e+00
-4.936335804372221858e+00
4.648259281662741493e+00
3.554289795981028899e+00
9.714619853950269501e+00
3.269149386843615446e+00
-2.582546128843595579e+00
-1.832031238843118359e+00
-8.939611263035978084e+00
-6.964383252462306828e+00
-1.149968428713486190e+01
-4.832114107111197931e+00
-4.364054210054451488e+00
-5.841149949070590930e-01
2.956911050466778157e+00
-1.194868352662188293e+01
-2.651358787180001286e+00
-1.635323446558356508e+01
-1.023769028472020715e+01
-5.176740049610025096e+00
-1.209659564943785881e+01
-5.552467098360248654e-01
5.462878327655823263e+00
1.957747815354516030e+00
5.375848885091145668e+00
-5.674095061297096620e+00
-4.584691105949867840e+00
-4.317776162993928857e+00
-5.760528684527205456e+00
1.458355269630168216e+01
1.063682784570856832e+01
8.709791217548172426e+00
-3.672164691999310726e+00
-5.920561865496786425e+00
-8.718092531681108426e+00
-6.058125373562617710e+00
-2.349440588567236698e+00
-4.643202346524471835e+00
-5.996019826545888609e-01
3.118764517489292509e-01
-8.419556463360740040e+00
-1.245055678106087749e+00
-1.169960779482089563e+01
-7.100229203510063591e+00
-2.441405021892704585e+00
-1.619145500490422052e+01
6.699302330419919516e-01
1.293032206960211994e+01
2.754602592915235348e+00
-1.469242451862725840e+00
6.143461404029273432e-01
-5.269444185102761580e+00
-1.400518483392641755e+01
-1.460419447109597435e+01
5.865986432643557791e+00
6.121139803567354321e+00
1.341587227943589156e+01
-2.784914994250009102e+00
-2.950266174334943425e+00
-7.510646935317104145e+00
-5.166606514887119417e+00
1.037342524059391913e+01
-5.115447015017544174e+00
-5.176006451544888698e+00
-2.845703272459719102e+00
-1.051111681973002732e+01
3.461254400939651088e+00
7.472314974725804415e-01
6.457905507721800831e+00
-4.918943759294712059e+00
-6.340009476684040024e+00
4.220056911332202176e+00
-5.177005744897422268e+00
-2.709342150999737520e+00
8.872314045972370167e+00
1.379836387102473527e-01
2.568249875607014587e+01
-3.207744290247424246e+00
-9.625616771520736137e+00
-1.222902062157193770e+00
-3.051258692649842175e+00
-3.684904585092552143e+00
1.332475445004458248e+00
8.427320899016119693e-01
-1.471040139474910902e+01
-2.142871517712926721e+00
3.315466614662668121e+00
-1.579030918908689962e+01
-1.156985050498884959e+01
4.754293810549003574e+00
-8.160072340414981085e+00
1.168609914071844180e+01
1.348094842436597274e+00
-8.332302346439442786e+00
-7.127320860701821803e-03
-8.919440885470487856e+00
-2.923610574608854318e+00
-1.547477094687093846e+01
-2.930953448528884842e+00
6.212869845250396317e+00
-3.632762682660312326e+00
1.314716540811381407e+01
-1.317535435493261964e-01
-4.668645872917417172e+00
-5.116842997349478672e+00
-4.750849983461473691e+00
3.896211355388515818e-01
1.512474853410308073e+00
6.943499188290032542e+00
-7.879379383171523088e+00
1.119396662101764112e-01
-4.346385204848091988e+00
-1.375720496896440892e+01
-1.134907761898513634e+01
4.260520938173706362e+00
3.507004725907665765e+00
1.510462541144682813e+00
1.027178872764948014e+00
-1.014230649689834607e+01
6.362501780779427740e+00
-1.633769189887412665e+01
-5.835062255853509239e-01
-1.753852836532378490e+01
-9.907409415518926288e-01
2.820922443045851935e+00
-1.095434956400594650e+01
-4.658609743928617597e+00
1.897647516746670870e+00
-7.241940974292219835e+00
-1.072082841173650714e+01
1.046380095590120352e+00
5.308070539523686016e+00
-8.875842499657586870e-01
9.323330039579021289e+00
-1.768156375939329561e-01
2.821089293774746043e+00
-2.630201887094539170e+00
-7.999105985958025578e+00
-6.428880608113173523e+00
2.089153192902990952e+00
1.206735649616292250e+01
-1.592507976164609751e+01
1.057219611239491153e+00
3.490745255728115115e+00
3.897308343670689457e+00
-1.255323251197629908e+01
8.095021519931522747e+00
-4.750565589994842242e+00
1.383411946236857704e+00
9.827181020711162063e+00
-6.892841092592431274e+00
-1.026423150945519680e+01
2.637625355053195619e+00
-1.596641558864192945e+01
-1.366556373382572076e+01
7.937974465827167814e-01
1.811632947986619113e+00
-2.408586184269348340e+00
3.174631708118018203e+00
-3.176737148368826258e+00
-8.371749955663364551e-01
-2.032300148102532233e+00
-1.058516763354881363e+01
-4.459831709151179879e+00
5.874153967787584918e+00
7.032670202879315546e+00
-1.593737906289454465e+01
-2.457944736384168660e+00
1.600907327048228357e+00
-4.139136845615652760e+00
5.382577806081227045e+00
4.927500760997225449e+00
1.921108443893947637e+00
2.663551466552195990e+00
1.990336882172649524e+01
-2.091332176310066515e+00
-5.806846772085356712e+00
6.137174353912907776e+00
-1.170151276906041282e+01
-5.423561122301973292e+00
-4.382207457616030588e+00
-1.055363387823903665e+01
-3.381726212567233159e+00
-5.421732118910682630e+00
-7.513974614127048923e+00
-3.893566066058410158e+00
-6.095086324529950694e+00
-1.214863572874940267e+01
6.211789564316801959e-01
4.845980131932406287e+00
-2.256144601154256524e+00
-6.335935663275399143e+00
-6.956958450021791585e+00
-1.086596714783675743e+01
-7.345729701330608208e+00
8.690368042265706805e+00
4.181637125553380185e-01
-2.139610565978499412e+00
5.579165370479928221e+00
1.359978662260902915e+01
-1.218058854370363520e+01
-5.675893218458690770e-01
5.578278501322472493e+00
-8.717527720560831750e-02
1.004501797831310839e+01
8.937423827784916064e-01
-1.551754019927786210e+01
-8.092328215983448203e+00
-7.912945933992984848e+00
-7.979824016714167634e+00
1.246498964291191891e+00
-6.366874391902209496e+00
-9.053008090065469915e+00
1.027171984729691445e+01
1.555924445932402866e+00
-4.726301899114067950e+00
4.235727070157788154e-01
-6.934129765043716809e+00
-1.329841553755936623e+01
-4.228250926588486891e+00
-6.391991653524486061e+00
3.490719374848079148e+00
3.549190700673860555e+00
1.085485481848396994e+01
1.911758893752125710e+00
-1.353139370884957948e+01
-1.301713660787171767e+00
-8.509138070701727230e+00
2.413036270275062400e-01
1.099339578478034696e+01
4.492193585412159962e+00
-4.649343903514195908e+00
-1.255342520109593707e+01
-2.883980721975633710e+00
-1.187210615185245111e+01
2.921024110537291385e+00
-2.000364367224006124e+00
-6.939185428048837423e+00
1.160447402365250191e+01
7.126619048672863110e-01
-2.215087784125977066e+00
3.897496747162021435e+00
-3.122761123692348040e+00
-8.567138299959994541e+00
-1.885844128123796093e+00
-1.359161867518099598e+01
3.617970254505478156e+00
1.214275068729908469e+01
9.694443323830222781e+00
2.303662440342987838e-01
-5.951407786986936399e-01
-4.951540298900935611e+00
-2.088653725232549618e+01
-5.157733166180502593e+00
-2.239558154261833245e+00
-1.727367675222827970e+00
3.834774498258081366e+00
-8.945219565750266000e+00
1.393295049230682814e-01
-1.484199177562831551e+01
-1.063867176165735007e+00
2.136877645034193307e+01
-5.128367522872038009e+00
-1.597902445511558334e+01
1.045236172867286983e+00
-5.485868707371904129e+00
4.056338760965603640e+00
2.801627109516076075e+00
1.075064827639129383e+01
-1.519072137802260869e+01
-8.766579548096084196e+00
2.617128001751994670e+00
-2.698072809561461671e+00
-1.488813197285842049e-01
1.027943313680286241e+00
-5.181328833967110192e+00
4.537192724555409562e+00
-7.507249633180312465e+00
-5.433072307513922006e-01
-1.398407801608404499e-01
1.603880852510212618e+00
-1.080847291177929925e+01
-1.224700345303884497e+00
7.297757425058465190e-04
-1.362329790223166626e+01
-3.468163584882089090e+00
9.615331896483423790e+00
-1.063663768269036503e+01
-1.745840728998267721e+01
7.248308468810711780e+00
-1.119357566313241215e+01
1.113419393857014228e+01
-4.915595657526149687e+00
-3.009945089999762624e-01
-5.799894740947800997e+00
-1.228475620993714124e+01
-6.997852364607652476e+00
-1.027220842286465263e+01
-3.735097194988288849e-01
1.157089926607826946e+00
-1.925852358071565185e+00
-1.519542581630842548e+00
-2.926819327754601741e+00
2.763592018122747795e+00
-1.073924829905947576e+01
4.852535591477407095e+00
-1.349354837123424922e+01
-7.288386245982270140e-01
1.718886941067982121e+00
-3.227994869702405900e+00
3.646015288443641422e-01
-7.210689193363731597e+00
-8.767244614565344207e+00
-7.314738182228536445e+00
-1.037367457211598953e+00
-6.971087999315182415e+00
5.176453066193579033e+00
-1.089327965994415415e+01
1.518775422480076465e+00
3.149126416589145716e+00
-1.547603291384690749e+01
-1.985928591410317301e+00
-1.506725517374833245e+01
5.127990227018141001e-01
4.401009289264663060e+00
-3.090033164953545075e+00
-9.068839729588116683e+00
1.976951983070347474e+00
-6.500433713023651139e-01
-1.907108127903996220e+01
1.012636766928945065e+01
-6.538871325246681465e+00
-2.109226528880999041e+00
1.580352795203970873e+00
2.100450183189841447e+00
9.768993204561596144e+00
-8.723122406722032096e+00
-8.858978474470896813e+00
-4.180480676003385909e+00
-8.673268377300150433e+00
2.434034907429947214e+00
-5.599238166808367723e+00
-8.017611419689743002e+00
1.205555453898389118e+01
-3.322942621109687411e-01
-4.468461910596539965e+00
8.316951708723692605e+00
-4.861760832098919849e+00
2.127198286602147270e+00
8.054321977502635121e+00
3.614252285177880358e-02
-9.622547326746765606e+00
-1.279933903191765310e-01
-1.235872428673365953e+01
-1.874669473358137139e+01
4.970652907334009107e+00
4.472311758677583460e-01
-4.065811132533036165e+00
-1.121080290190901607e+00
-5.026295521943271893e+00
1.240886505263986805e+01
-3.659954384345438072e+00
-1.109904311103505847e+01
-1.164177250870975122e+01
-3.978567178093331158e+00
2.670880665919471930e+00
-6.859959736454444013e+00
-3.705109391447559020e+00
2.309649644260379109e+00
-3.867651196803132407e+00
1.653974861120966011e+01
3.685720428278910443e+00
2.400425903049536291e+00
4.505309207947354899e+00
5.961626053439117001e+00
8.138781791967724111e-01
-4.415980810555277358e+00
-3.353081650524919688e+00
-1.904054691922564047e+01
-9.006277001723143272e+00
-2.963385921506489495e+00
-5.145263734529613942e+00
-7.241685431603443135e+00
-5.792140809167242388e+00
-6.698334564313729977e+00
9.091342552781791042e+00
-2.153133096101333077e+00
-4.703505781308287226e+00
-7.017316568093164619e+00
-3.017093691262868305e+00
-1.097278696255763464e+00
-4.419428377275469444e+00
-1.540121335154179594e+00
-1.161785749698892545e+01
-8.356934771749975344e-01
1.757837971060079241e+01
1.233351298051942393e-02
-5.257055193942188787e+00
1.102424789492490298e+01
-1.204537552105696907e+00
-1.177585550355549060e+01
2.089101753370018688e+00
-3.529721036946719792e+00
-1.142960145524341797e+01
2.647637935894778582e+00
-5.365995728465249304e-01
-1.646536081022377473e+01
-1.437832966497857790e+01
-7.045473978285932581e+00
-1.165614902146995480e+00
8.567824436468711724e+00
-3.582014937151285494e-01
2.327386198584866950e+00
1.020341890569357801e+01
-3.571845886285017535e+00
-8.970197997368409837e-01
-8.848535515089115400e-01
4.094834182259788902e-01
-1.216701093648275922e+01
3.095675423487662226e+00
5.048381193463449823e-02
3.521687610440784599e+00
-7.067619767730564107e+00
1.723288116090612831e+01
-5.184214042007305956e+00
-9.657423239592365150e+00
1.412318582442146697e+00
-8.219244656911815383e+00
-2.534359551232405749e+00
-1.818388828670479462e+00
-2.878594189264424674e+00
-1.589906010837174044e+01
-1.911777152012233216e+01
-2.709941631477088997e+00
-6.450469620534827087e+00
2.550769991372735745e+00
2.260710982467840857e+00
1.286020305278846809e+00
1.576517798702157158e+01
-5.034933998958834866e-01
-6.297837452098770106e-01
3.406224574505309022e+00
2.083545835764695653e+00
-8.297778700064258217e+00
3.045249709243004865e+00
-6.404279813721532655e+00
1.367356017677782809e+00
1.597355058165876862e-01
1.171726613934563233e+01
-6.768633453451021742e-01
4.795809735002078078e+00
-4.610982420032107676e+00
-1.359062778259661997e+01
2.994855783876967381e-01
-1.512231651290327505e+01
-1.071322358090001536e+01
-7.310915333497068680e+00
-1.336462545683633962e+01
2.392612384577926798e-01
-1.580386428192761272e+01
-4.628753198709707917e+00
1.570403490131949198e+01
-6.051062868290097541e+00
-1.262848951250901841e+01
-2.790149931180308851e+00
4.077503045086721123e+00
-1.002230874086627921e+01
5.026441819971612102e-01
5.335329965209892222e+00
-2.212873875092317633e+01
-9.732733963878356320e+00
-6.171172463771802619e+00
1.189881683777040733e+00
2.835633278848512351e+00
-5.490459729381598208e+00
-5.700809603069935116e-01
-1.808939159426634913e-01
-1.244606043359052450e+01
4.605714037040986142e+00
-8.329945332076298392e-01
8.799694241291374786e-01
-1.034193070455612151e+01
-3.651096199702177358e+00
-1.906900799942771618e+00
6.274174218557465599e-02
-3.615221957357172222e+00
6.734133205237288422e+00
-3.602143801179344074e+00
-1.118871624876673998e+01
2.285337661117451402e-01
-9.314332650075407116e+00
-9.058075304484859203e+00
-9.020783035765802538e+00
-2.371984575591734867e-01
-8.276923649238840497e+00
-1.038399787847955302e+01
-1.131622990183276301e+01
-1.339264491992661510e+00
2.498160100151229912e+00
-6.442235259723368967e-01
4.358449818247041030e+00
-2.415145035253118966e+00
-1.269592956991020394e+01
1.035875282626015448e+01
-6.905566400162161500e+00
3.018360553975179883e+00
-1.732479441596220582e+01
-2.775741148867412633e+00
4.224716239101275583e+00
7.970832622419538716e+00
6.212295784611445715e-01
-6.628499827129389566e+00
-7.799292791699834471e-01
-2.953801253345033295e+00
-1.149709469360270830e+01
-1.656335639788434833e+01
-7.602166627319411063e+00
-1.654145770545129324e+01
5.249460770415055322e+00
4.928211440271887511e+00
-8.269535701439130193e+00
-3.644424527073567344e+00
-6.309919382248061481e+00
1.599949885902426816e+00
5.752235926381796816e+00
1.480024095261981976e-01
-5.251689585767625346e+00
-5.785855538981581780e+00
1.331438764859583834e+01
-9.946661830166229734e+00
2.162786293479471045e+00
-9.895990636149299746e+00
-2.802823002771413829e+00
4.215880672144318275e+00
3.976978343963949669e+00
9.877648021686898261e+00
-7.931370140277439695e+00
-3.311710338476024251e+00
-4.709558456797814152e+00
-2.048331889278556872e+01
-7.317499537569816859e+00
-3.561422478017481463e+00
-1.225332992775747520e+01
1.188444995343874488e+01
4.257182887938188998e-01
3.420442485373024422e+00
1.298973686950374518e+00
-3.787251820112458756e+00
1.186576569992938701e+00
7.231709026828258224e+00
-1.053377637373786424e+00
-7.136858102472952048e+00
-7.820449846762603130e+00
7.345169072826324808e+00
-1.057288002289469730e+01
-5.911411923227886334e+00
6.356374576468406090e+00
-3.807941501678231422e+00
-2.738357204096413255e+00
-7.968156753666981729e+00
1.201011273509509003e+01
-2.742039429309224285e+00
-9.055658124571318579e-01
-1.648015631125544189e+01
-1.083282274124604072e+01
-4.561188040722846893e+00
2.056988853600095979e+00
-4.341221738770681071e+00
2.137926727231262980e+00
-5.081265087222184285e+00
1.887768560207117829e+01
-2.504349852786131869e+00
-2.755983129474278481e+00
2.841847071406471859e+00
4.231388277982234492e+00
1.708129799462124732e-01
-6.379342409883969722e+00
-1.757802595168081439e+01
-6.064664284725387766e+00
-6.778962430880840273e+00
-1.043647165377703701e+01
8.773219455045120796e+00
-5.114555038498360240e+00
-8.191857955550636561e+00
-3.531358792437063965e+00
5.587946643698972871e+00
3.797912351947873577e-01
8.806138520370186740e+00
-1.264295309543414092e+01
-5.712156343521868962e+00
-5.651005314507952626e+00
-7.637069771499227500e-01
-2.931520301504432435e+00
-4.036254075582435874e+00
-2.196506956233967855e+00
1.196271620437420680e+01
2.601569434902293310e-01
-1.518496544550380989e+01
8.809632746504043155e+00
-3.807112182608649587e+00
-6.621555326811368047e+00
-1.230003763195406830e+00
-1.257033092198613922e+01
-1.510994593239264994e+01
1.767048498171017057e+00
-5.164882315556595493e+00
-2.403160299628906316e+00
-9.000016557171990783e+00
-9.063897056933733154e+00
8.795061024833865204e+00
-5.390166421968410893e-01
3.838577905240584620e+00
1.267529396532766839e+01
3.335152184495940197e+00
-4.758168566750440753e+00
-5.653508982521391779e+00
-5.356295147128724565e+00
-3.366516002548551434e+00
-1.783554433034862496e+00
2.439370233725051129e+00
-2.686372181912067614e+00
3.643432765589448508e+00
-2.325665240426282665e+01
1.169999379483618362e+01
-9.768047833663162649e+00
-9.334877282679947541e-01
-2.441243450794681635e+00
-1.243830535926881531e+00
-1.159532594122053339e+01
-5.633837420065354040e-01
-7.156984870007334187e+00
-7.525446693993798064e+00
-1.190896287511350238e+01
-5.010185129331058640e+00
1.080597360165932219e+00
-7.538455683284283282e+00
6.012509913426241859e+00
6.512563776318216036e+00
8.346606435942794278e+00
-6.033315357785906663e-01
-7.153106162043902927e+00
-3.196601487692441346e+00
-1.436806372648990360e+00
-3.506578758316088340e+00
2.885213338898787949e+00
-4.004271276017698611e+00
-1.577501072007727156e+00
-1.481171870995112805e+01
5.906153378127681819e+00
-5.778194356284099165e+00
1.156459491792876548e+01
-8.949756355925075013e+00
4.604273972007707494e-01
-3.849834189279217167e+00
-1.052241658969183824e+01
-1.282154435562299888e+01
-3.755196345193577478e+00
-8.369068600640906297e+00
-9.258026480068505260e-01
-1.413659309663681007e+01
-1.084713739265228583e+01
-3.493640551131912186e+00
-2.230563754728084547e+00
-2.914857991568597928e+00
-6.941910880786734239e+00
1.079365446481364010e+01
-1.381863813884490533e+01
-3.705918267420152734e+00
-4.980723055685714940e+00
-2.809596382914150681e+01
-7.611527661754398544e+00
-1.156130251349252802e+01
1.031488443160908652e-01
2.894811736942917157e+00
-4.428292780170188792e+00
7.481135483295200395e+00
4.444350350876833389e+00
-5.081120499138005897e+00
2.012024588589547414e-01
-2.121933746609245830e+00
-3.891773970370902447e+00
-3.036332292987653059e+00
-3.231839822549990249e+00
2.565648223309703102e+00
3.323808291196543419e+00
-4.756482647126222263e-01
-4.727528778353152994e+00
4.263496042727353164e+00
-4.832368866312149791e+00
-2.477729223407532988e+00
-5.418270490991329957e+00
-1.585486461401395530e+01
-8.720102214114048067e+00
-6.897040346953399848e+00
-1.390732791780427924e+01
-4.598292211846546351e+00
-1.030556270734020785e+01
4.171094125076066916e+00
1.979592215691539092e+00
2.661193853504318363e-01
6.099612556702084909e+00
1.756329112162775985e+00
-7.744632106525634718e+00
1.481982161769404227e+00
-9.966504084875279501e-01
-8.035637564655525367e+00
-8.998548068603408723e+00
-1.971951348859981135e+00
1.953536623135738282e+01
7.366976954679206102e+00
1.144115210666102112e+00
-4.787377393554357319e+00
4.228739564707964860e+00
-3.681752098695354913e+00
-8.574530994238406478e+00
-1.671595610769772122e+01
-1.469404189202296607e+01
-1.323050976297529857e+01
1.744726476813830418e+00
3.011790376229583011e+00
-2.471379089772712145e+00
-4.242163569632813491e+00
4.969233730453464837e+00
1.271525932800164238e+00
-7.408743614882754569e-01
-8.982729069470998695e+00
-2.031480978937900417e-01
-9.534524823849575004e-01
6.808699734132795278e+00
-9.656346551223896624e-01
-1.546088513635748463e+01
-5.589377065982172432e+00
-1.130663761692339175e+00
1.732734474175910577e+01
1.755787039853660969e-01
2.069052158475429337e+00
-5.944104795760853044e+00
2.929414472526817304e-01
-4.826888960159763542e+00
-9.882990165812655547e+00
-7.568278286492517104e+00
-7.102939158858373681e+00
-9.142785615246761921e+00
8.540141733211015662e+00
-7.024877960815274491e-01
2.818318418300425954e+00
-5.287946676989829342e+00
1.503618713337704582e+00
4.474907557005279313e-01
-2.761112257564604544e+00
-1.625503835103623373e+01
-8.201275752687767762e-01
-2.189029458868577471e+00
1.214390428383718046e+01
-6.370392837715548318e+00
-2.013794162396427367e+01
8.641740964241391154e+00
-8.122544007179879344e-01
-4.606371859891377207e-01
-1.182129947741702836e+01
9.292681918365651716e-01
-9.216114789704134225e+00
4.156846513679520072e+00
-8.806887639875284890e+00
1.838785517815978876e+00
-4.275328313179652007e+00
2.682185615750219743e+00
-1.283438898698559649e+00
5.189065467314668112e+00
-9.825914558869914828e+00
7.429355463926717640e+00
-4.121730720844473339e+00
-5.837648576427180380e+00
-4.235282699335851109e-01
1.974536551375757787e+00
-9.379773537101769421e+00
-2.822492944249082480e+00
-1.707312414519546451e+01
5.482169661582169340e+00
-6.289754934966184763e+00
-1.842600188952342322e+01
1.164529382608228758e+01
7.553751930924162972e-01
-9.875314489173648624e+00
-3.594102844489807325e+00
-2.690746159570117424e+00
-9.085886604035778191e+00
6.686227040203688965e+00
-3.865266310843201047e+00
3.728969977454947848e+00
-6.644657405015187202e+00
6.885395017464093215e-01
-7.522179485262873166e-01
5.846145446188927508e+00
-1.014907742449997663e+01
-1.701985167721220327e+00
4.373810790639999446e+00
-1.772059103624288312e+01
6.902858325154217489e-01
2.621613898572402318e-02
-6.166224552447267193e+00
-3.389220407562363313e+00
-1.445075394644035605e+01
-7.199416499457097274e+00
5.532027758957069885e+00
-1.457175466380271267e+01
1.131444791905345415e+00
1.116967299331346641e+00
-1.050191850621255973e+01
1.176152659350185736e+01
-4.281996093147616200e+00
-4.872375558455622202e-01
2.411401098741638993e+00
4.591258669981557183e+00
-1.832601956117634323e+00
-9.857013073736915487e+00
-8.727459400089990993e+00
-2.833001116010416709e+00
6.645483324963315397e+00
-5.296393538049357197e+00
-7.777896877632502814e+00
4.207398245529991421e+00
-2.455069640652504859e+01
2.228662179439901969e-01
-8.878585006615189457e+00
1.119898671435223925e+00
-8.287256595483938781e+00
1.695064294115592674e+00
-1.191357306582276721e+01
1.097315484057778789e+01
-1.326555347938969476e+01
-1.959185717944663008e+00
1.362612190816924196e+00
-6.147777326672460241e+00
2.230203829322610520e+00
-2.794368817128176197e+00
6.348835967128795943e+00
-1.107388512117578383e+00
4.100744228020668736e+00
-1.292791082790038626e+00
-1.232654530401824111e+01
-9.821380509939208636e+00
-1.173040355209651997e+00
-1.011030706531896861e+00
-2.368400344797241264e+00
-1.367205930651332224e+00
-4.756081338529496882e+00
-1.802232941497139151e+01
-2.269547316926429747e+00
-8.589070317222249784e+00
9.877909798242274775e+00
-1.417593022243495859e+01
5.625851558791611140e+00
-6.051660126458676459e+00
3.339175316229757939e+00
-1.017201424178158931e+01
1.939424390377314289e+00
2.456437958942201849e+00
-9.990122437221206075e-01
-1.553498267324159166e+01
-8.651306188896933369e-01
-1.688026411939022609e+01
6.515195415431177750e+00
-5.814511991971370586e-01
-1.134362822869829301e+01
1.229660461809751126e+01
-7.314103212877764992e-01
-1.327416589581755346e+00
-5.784579996461579832e+00
-2.342592392034592663e+01
-5.335753984527290328e+00
-1.271139564157103230e+01
-5.543154617234102410e+00
-4.409898932548096950e-01
3.699549922567177962e-01
6.365628907803533743e+00
2.857958708397663194e+00
2.647484084701183349e+00
-4.547463979077719820e+00
-2.124247079333931032e-01
-4.897605321406796053e-01
-2.017174191614858891e+00
-6.643810256365642042e-01
5.269417130415590123e+00
-9.348063145457910394e+00
1.204316448589988875e+00
-1.207017952288535945e+01
1.236892756113849501e+01
-2.795331501428452992e+00
-8.124187200852874824e+00
-2.947668335092201719e+00
2.598560026158210245e+00
1.236463647737835014e+00
-6.260966360520414220e+00
-1.601088511680816495e+01
-2.360953355582800839e+00
-1.021573670910373899e+01
3.099858277154324160e+00
-1.273937685625695204e+00
4.972833574438124238e+00
-3.138141517733653574e-01
-3.385904826471326512e+00
1.765044317562498577e+00
-1.044980197473991446e+01
5.958581930678756855e-01
-6.896145240417338229e+00
-6.499074445687151425e+00
4.798427153357432418e-01
2.200708340226373849e+01
-4.057348872282527275e+00
-3.792052671556671584e-01
-2.954817042436900021e+00
6.868706835240279140e+00
-1.481185709866789546e+00
-7.399407760342318952e+00
-1.546690828938455731e+01
-2.277706913909099296e+00
5.104617425845565659e-01
-1.327206520455610494e-01
-4.489268787504608227e+00
-2.216177040453301661e+00
-6.446801659749225699e+00
1.043590221947805219e+01
-3.148779440652909045e-01
-2.498581750403871649e+00
-1.989044689339754868e+01
-3.277947534042629396e+00
8.654146942494470807e+00
-9.671010091452462376e+00
-4.297444979974527790e+00
-1.314551492355869300e+01
-4.994882805807787207e+00
8.183017519150167507e-01
1.528584972457804092e+01
-2.151299515524384365e+00
-4.458430012868402237e+00
-6.904414465994430650e+00
3.424828595888599558e+00
-6.589224096860865076e-01
7.611870286869666380e-01
-9.300404074261251708e+00
-9.130802356791168251e+00
1.715724588526455596e+00
4.376891784979464184e+00
-5.499950365792434681e+00
-1.574815508492468652e+00
-7.316386870578157620e+00
5.992056648820395459e+00
-5.635953842598361296e-01
-1.071179699621392345e+01
-2.523838142877032453e+01
3.220148411565542990e+00
7.410404515623691069e+00
1.261306782434060692e-01
-1.442160863298696150e+01
-8.395242588032990838e+00
3.275023770826800185e+00
1.556599812433112850e+00
-4.173745881263593915e+00
-9.871704810308319367e+00
-5.716708998969504130e+00
-1.932137721974509148e+01
6.778938128219214043e+00
-3.044231595212931740e+00
1.455725779256253283e+01
-5.741234566378056847e+00
-5.206732298950500493e+00
7.440219480212163283e+00
2.416570844702007559e+00
-8.776252863968302620e+00
-1.752737174924871910e+00
-6.701328674218397508e-01
-1.194424305006802856e+00
-4.437862323889027572e+00
-4.441419812617099616e+00
-1.105400588197460721e+01
2.654924623871890432e+00
-9.119470007537781697e+00
4.231207116127481349e+00
-1.333275879748245174e+01
-6.466156425480140690e+00
8.141472942564504933e-01
4.574223373928634651e+00
-1.147063153089566434e+01
-6.510199410204460690e+00
-3.420670825270260007e+00
-1.894102742666069972e+01
1.188532127664349458e+00
4.324135486574741671e-01
1.035094860631277491e+01
-5.764259770359226209e+00
-1.612004635322511259e+00
5.968846005153669587e+00
1.984320217200110203e+00
-6.394971114649801613e+00
-8.614236181648637469e+00
7.912621341502350525e+00
-3.796620629087793741e+00
-9.276754672982560734e+00
-9.283678843881405518e-01
-3.267527188571670127e+00
-2.876990289549146151e+00
-1.390416555821113498e+01
-3.212363458793061621e+00
1.223728717775578456e+00
-1.298780531005188088e+01
-1.111527496130172032e+01
8.713598678079735649e+00
-1.071135045515993767e+01
4.971471281952326571e+00
1.572559866959476027e+00
-2.727681439904056315e+00
-6.590133917244268780e+00
7.214490270238895775e+00
-7.118412091068249126e-01
-6.898717314420188984e+00
-8.247236605915961860e+00
1.257770226067018715e+00
-4.321114081125444761e-02
-3.837556225811054933e+00
-6.892240356922832767e+00
1.149905949848117670e+00
-6.613554680328425306e+00
-1.310162224492567873e+01
-6.414107299090276548e+00
-1.209918957497202685e+00
-9.312943824619948074e+00
-4.232072359805317596e+00
-9.789207565219541607e+00
8.847136655135182437e+00
-1.183814585317184509e+01
-1.047904157487234933e+01
1.273450292606172596e+01
-7.741636909155819701e+00
-6.792670266653935141e-01
1.055663167549850279e+01
7.771396869179064026e+00
-5.166898018259738379e+00
7.340086012674931659e+00
-9.135380370495750357e-01
-8.446581943634942746e+00
-1.109048309667551813e+01
1.379929470614426057e+00
-6.464150375434629225e+00
-3.803321536595119401e+00
3.444963376221652052e+00
-9.190212856019977394e+00
-8.556134194332365439e+00
-1.155256799095665521e+01
-5.851678123489444161e+00
1.347987872550158839e+00
-1.263072552110516256e+01
-1.540940783602091191e+00
-6.461559630987659730e+00
3.183684640983251324e+00
-2.666587276858896516e+00
-1.266743457712314225e+00
1.194145587750791115e+01
-1.204196248078658993e+00
-1.428821383956601565e+01
1.410974421841422632e+01
-1.725285889474740131e+01
4.500335212343308022e+00
-2.643884021384347527e+00
-1.075812359465627033e+01
1.279678663466271082e+01
2.771755662476031112e+00
-4.616791606680321625e-01
3.913876470171351318e+00
-3.354879876975573882e+00
-8.010032631332528741e-01
-1.358313530030467398e+01
-9.244850484794399748e+00
-3.449750375823036119e+00
-2.373386766496458744e+00
-1.085275406566470480e+00
3.463545122845093638e-01
-3.674619500984420917e+00
-2.836864327705681088e+00
5.729418088837106460e+00
7.023265390247051876e+00
-8.048193127494975840e+00
2.678718295401020910e+00
3.453009183320158826e+00
-1.920417682416314875e+01
-7.411942042379768836e+00
-1.174053335920850571e+01
3.831715520038532663e+00
6.116000198239556207e-01
-1.372025100828505195e+01
-4.306818941162546821e-01
1.101169109179842032e+01
6.828337839134929865e+00
3.259181205950546723e+00
-3.684449156114316892e+00
1.061524230220670439e+00
-1.243343717185371666e+01
-1.649478005927196067e+00
-4.151404304712360549e+00
4.358692511268082548e+00
-5.123979362663395598e+00
-8.878226656528996230e+00
-4.418789222433673558e+00
-9.528908552580439562e+00
2.184962583313977635e+00
3.029215263896652743e+00
-1.142238453433738066e+01
3.049367055023281203e+00
9.913552888385313011e+00
-7.153907963648123314e+00
-1.211884968180087263e+01
-2.455283077264263980e+00
-4.020650030592129553e+00
7.550162058818481015e+00
-1.352878295107742623e+01
-1.519068204727248350e+01
5.143054619036607988e+00
1.114396465572131234e+01
1.449186121798800464e+00
-7.720685404544196828e+00
1.324878214656692421e+00
-5.629140507065168109e+00
5.029263005200825809e+00
-2.304919184779504970e+00
3.366645799114854065e-01
-1.411433450943746060e+01
-8.622309746129248609e+00
3.538289009810650754e+00
-1.137419604168493414e+01
-8.307095919880380208e+00
1.548422983537334208e+00
-6.044330479665532607e+00
1.500762513450319524e+00
4.026956362396962419e+00
4.548959217236346220e+00
-1.380234020051715405e+01
-7.118561497311886477e+00
-3.186379019134173873e+00
5.275389860510779627e+00
-3.401107522220913726e+00
-1.508497988787536315e+01
-1.061258604112143189e+01
1.084859343963693767e+01
-1.448200173079072561e+00
-1.119921523678709363e+01
2.433803455247240954e+00
2.535608839091187949e-01
1.257559139700824113e+00
-1.939556452175269508e+00
-1.008719391847538738e+01
-1.133564310980786694e+01
1.571517969798445158e+00
6.323990096308358844e+00
-2.178120314959720805e+00
-1.729086182779074932e+01
1.007425400549346861e+01
1.441720022964066983e+00
1.544194510514428353e+00
-4.803759314578674555e+00
-2.110715689750780388e+00
-1.036849455034356460e+01
-1.689265675630423047e+01
4.168411478240924950e+00
-7.554895749907127644e+00
5.584203372157277911e+00
-9.729798055621252217e+00
-1.125318648761544615e+01
1.014336976199060913e+01
-7.499996698996127975e+00
-5.698412887491983270e+00
1.254711031007340161e+00
1.155867684751855684e+01
1.837758435205322505e-01
-5.513887422027484497e+00
-9.404513307659549071e+00
2.343794241851740456e-01
2.077144852153564702e+00
-2.930441088787180792e+00
4.734818308038790668e+00
-1.319788238511650391e+01
8.148013620636968213e+00
-3.916429581604555565e+00
5.127923623570861622e+00
-5.425548921313041895e+00
-9.627976025587965836e+00
-5.735410346534540516e+00
-1.202110650943319747e+01
2.026671438237164669e+00
-9.314327903801366659e+00
-1.647921279540688122e+00
-3.186157359450942028e+00
-1.133783895364881111e+00
2.581943320723801172e+00
-1.121578485767561162e+01
9.662222629590491163e-01
-5.339262854912886880e+00
1.767504703237387886e+01
5.908753557142381929e+00
-1.230412600096177655e+01
-5.297829135241967080e+00
1.506680204156508607e+00
-3.291557619899230236e+00
-7.560983072436869179e+00
5.204267449909422139e-01
-3.248542934576093888e+00
-5.855347886215461983e+00
-1.691374260121498097e+01
1.152633512335344612e+01
-7.356347923325040838e+00
-3.669809326207173150e+00
-1.528496430402207729e+00
4.071330084981786612e+00
-8.696550949706521871e-01
3.993206803598756682e+00
-6.847068464886281625e+00
2.492795381942510158e+00
-1.423695874350030977e+00
-7.638620834519050717e+00
-1.189584086759101922e+01
-4.046723276868843255e-01
-2.666947037311464541e+00
5.295342443344651429e+00
3.555835398032572314e+00
-1.923213250433155963e+01
-4.059533148697494376e+00
-6.212249238400081808e+00
-4.802011512118443015e+00
-7.181495611321969008e+00
-5.440266533096432156e+00
-2.511970857086466946e+00
-5.560404784898910435e+00
-1.358304798536102531e+01
1.642175472883396381e+01
-7.444819544775302944e+00
-1.629846467732045889e+00
6.060553014017034279e+00
1.124980971783315908e+01
1.436980574582069181e+00
1.187855677017926759e+01
8.520546391837314770e-01
2.489997724573816296e+00
-5.980262220051077549e+00
-8.464319219515692438e+00
-1.073771413310148937e+01
-5.005283212038220242e+00
6.695553977837777282e+00
-4.715406870715947107e+00
-5.725702903686968881e+00
-1.639352372452156104e+01
-1.229377127191982444e+00
-8.698358530195170246e+00
-3.968193790017606748e+00
-9.720618233190077007e+00
-4.626101742379081116e+00
-7.761059922406515099e+00
3.912456397464506797e+00
-1.610557771315909159e+00
1.295445169617137537e+01
1.064171384130816023e+00
-7.282821564638819467e+00
8.868774428448990221e+00
-1.095460802869371086e+01
-3.889621197054862645e+00
-2.964453484933151639e+00
-2.666419539224410773e+00
8.450655670323280688e+00
-4.917812675220861962e+00
-4.777406453993970459e+00
9.555141000170801036e+00
1.102325976310599565e+01
4.295914937261400723e+00
-8.760930860977122592e+00
-7.866159969856909129e+00
-3.575795979431350968e+00
-8.252354289055434222e+00
-4.191327534718574555e+00
1.567480497537711459e+00
-1.410502741097567814e+01
-5.895185140085150710e-01
6.877888276528795863e+00
8.042395736996011735e+00
-1.069895555426038491e+01
3.848565228272484262e+00
4.201316858420970135e+00
-1.493503920552008246e+01
-1.580177483784865267e+01
-7.155819498508299681e+00
-8.796315883518488477e+00
2.520942714332356616e+00
-8.052219843366547281e+00
6.503143436598504135e-01
1.529435493955499492e+00
6.959019790936362693e-01
8.276554866300067204e+00
7.686730108949902274e+00
5.946967616239647647e+00
-8.955383620555382507e+00
-4.081276938651942743e+00
-4.429887058909626418e+00
-1.969063896120820667e+00
-3.157941256596600521e+00
-6.332150336433019611e+00
-1.630893977525694893e+01
-3.891957236223603456e+00
2.352052044570729805e+00
7.074790731101699315e+00
-1.161876942058710327e+01
4.019307617882314609e+00
4.658573326709263718e+00
-2.649864394085559738e+00
-2.159275812206483280e+01
-1.418429823021618352e+00
-1.677507152841349836e+01
1.045220111193308554e+01
-1.292264818691836581e+01
-1.040819222969259528e+01
8.816990090773015043e-02
6.019765672738046192e+00
1.537909086325356833e+00
-4.570768945753732382e+00
6.448933047137725083e+00
-1.327789691285805374e+00
-2.091828488103162353e+00
-3.043297282892993838e+00
-3.306356069397544672e-01
-2.900689556589681750e+00
-7.724799516205771432e+00
-7.341851551481558324e+00
-3.881072988131485157e+00
-5.838302339193463197e+00
6.482576707773216818e+00
-3.707550159988325600e+00
1.527669648877182373e+00
1.652411745943368260e+00
8.860615124005216003e+00
-1.969101381363068271e+01
-3.732385665767298466e+00
-1.292911938479135259e+01
6.026605230252511269e+00
-1.010707739122272741e+01
-1.235853719861071021e+01
-1.020777675292474918e+01
6.268762298828737478e+00
-5.269407254874189483e+00
-1.174452071624133964e+01
8.323741564247150393e+00
8.379198509156662311e+00
-6.204341480615588544e+00
-2.172980872050087164e+00
-6.209968677816837257e+00
7.772086911922748698e-01
-1.055004147551481752e+00
7.898890233938035688e-02
3.471836376343941932e+00
-8.309308185197970431e+00
1.260744156064756538e+01
3.673435767649155803e+00
7.171371675793496436e-01
1.551962575187965765e+00
2.002712082889313017e+00
-1.336073763656147939e+01
-6.796818640296679703e+00
-2.190146122968177345e+00
-1.037078632654809773e+01
-8.508091868626953769e+00
-7.461661072912298742e+00
-8.671898406909742008e+00
3.212011956692503389e+00
-1.261971533001590551e+01
-6.533378219935969788e+00
6.899477178215184914e+00
1.998753361334525991e+01
-4.872265214518893828e+00
-2.797437360034595866e+00
-7.871041475213776728e+00
4.849248685709066642e+00
-1.624626366097825958e+00
4.450846536833550915e-01
8.389786524723890082e+00
-3.563656491641994606e+00
8.688678894302221067e+00
2.389992635689646219e-02
3.443115856557612542e+00
3.373157707259150317e+00
-9.286351712511519807e+00
-9.665859587186547586e+00
-1.318438241739349426e+00
1.903680479471006937e+00
-1.355061821851615811e+01
-1.661205082068863703e+01
8.525932017951769470e-01
2.801329839395626742e+00
-5.751745530238870252e+00
-1.536429949931721950e+01
-1.472115046754685963e+00
-4.818045001996084653e-01
2.355914078492142494e+01
1.688532533874180785e+00
-5.363127406128995744e+00
-5.347630750633878272e+00
2.094674586270359462e-01
-4.739399327724695077e+00
4.245309117788357844e-01
5.420728292516979074e+00
-9.064351048552227175e-01
-3.376296709276353614e+00
-8.218786180498854677e+00
7.474308944966573165e+00
-1.566427084666890845e+00
-7.065377284860118401e+00
-9.386102621628431564e+00
7.805850567710178822e+00
4.234534975050324057e+00
1.648073700162329569e+00
-1.320495661577285595e+01
8.528349396726323306e+00
5.106600591535587874e+00
-1.909896063461476245e+01
-1.257251715788162372e+01
-4.649212567721894729e+00
-2.631447244370222482e-01
1.230154997799201233e+01
-8.125331252702878704e-01
-9.717003410945187269e+00
-1.136702958418279286e+00
-1.027255291652701708e+01
-1.273542158698665272e+00
-2.783610404512545600e+00
5.813721348013090040e-01
-7.289814362139285464e+00
-2.686475988458240316e+00
-5.004417252277085559e+00
9.823941364437098756e+00
-3.248164105292353554e+00
-3.522682983833345105e-01
-7.149459672225059848e+00
9.180167351799461528e+00
5.483588794391403454e+00
1.103854874904205730e+01
1.182912418591634873e+00
8.474199463632714924e+00
-7.948534807487791509e-01
-2.099312013912178188e+01
-7.674739697612659839e+00
-7.980637028248778186e+00
5.929230616991588931e+00
3.035326612084399578e+00
-9.012974162154423041e+00
-9.333831484328769079e+00
1.736037614120832684e+00
-1.242402596614179089e+01
2.451264161809579178e+00
-9.220872847088131152e+00
-1.960987807910008929e+00
-1.305030333366986817e+01
4.049977436040760992e+00
2.427615445161429353e+00
7.579674956413461118e+00
4.095135205778604792e+00
-2.003980756652057604e-01
-5.056468624930364975e+00
-3.030094462802590094e+00
-3.030680230099034311e+00
-3.309618963872340114e+00
-2.426347749779231844e+00
-2.514030009831808243e+00
-2.258290437286323726e+00
-3.024233319598068626e+00
-2.755201284729504874e+00
-2.255742858482396862e+00
-3.054447485410927587e+00
-4.106516940066250676e+00
-2.236194481336879925e+00
-3.866590802528816262e+00
-4.857771179651070526e+00
-2.300512529585700516e+00
-3.692240527973248199e+00
-1.853404071244521001e+00
-2.449292109554425334e+00
-2.673008717486815122e+00
-3.115955473191844849e+00
-2.620429791296421840e+00
-4.406392265177298206e+00
-4.282290067285341451e+00
-1.923469836755986151e+00
-2.858104327674234835e+00
3.028421211036525507e-01
5.328140828497505144e-01
1.016030489462560693e+00
9.427529881833891512e-01
6.934920791091720993e-01
9.721404536779504335e-01
1.320799536994508472e+00
1.344934107120239641e+00
3.781191901702909419e-01
1.069175767616309836e+00
1.491395546527635840e+00
1.092742290071885058e+00
8.650318225721108645e-01
1.100130379839632466e+00
1.130448983996084955e+00
1.078625688422431006e+00
9.726866139537579947e-01
1.629264956235642714e+00
1.615337197192502794e+00
1.098025899344900580e+00
1.183218508745855546e+00
1.371292288195296472e+00
1.230207131809275323e+00
1.167290251453049210e+00
1.538495175294794182e+00
1.633244031108886052e+00
1.348275414011329110e+00
1.195504523074504277e+00
1.402580836769715678e+00
1.567048513610397098e+00
1.608360541454718629e+00
1.612930117447586520e+00
1.583762834976015110e+00
1.240220516906999748e+00
1.296367949753483462e+00
1.604597060076216497e+00
1.538971673616334579e+00
1.511933539997570408e+00
1.729360381038883121e+00
1.680723850593166091e+00
1.344979481323596904e+00
9.850681092921447224e-01
1.383725989159023673e+00
1.871069329683619165e+00
1.592397322054556419e+00
1.507590371933458906e+00
1.590433853132567021e+00
1.241916334666090638e+00
1.308830662822273672e+00
1.186272082781431259e+00
1.351921929692091240e+00
1.507583601230337633e+00
1.336020923296198371e+00
1.449447109581786020e+00
1.336598054158680604e+00
7.577144652603228225e-01
1.260794106648378765e+00
1.295712195748107698e+00
1.216637074019787157e+00
1.014347484225235796e+00
9.248035714926152728e-01
1.174183842308932801e+00
1.015323083736273002e+00
5.929441572052367437e-01
