4.625852374019537305e-02
6.409493803547688939e-03
-9.516420674692996351e-02
-5.203364509934561843e-02
1.151086300506182214e-01
4.819765223768851525e-02
-1.347810764198009714e-02
5.893238908898118522e-03
-1.050664390542897508e-01
1.167558593787022814e-01
3.970246936356938705e-02
1.295357502313684850e-02
7.242538827718206229e-02
7.305900707885282230e-02
1.122961366989744247e-02
-6.386854538648772950e-02
5.020600940781036470e-02
-5.638763102342632394e-02
8.577384350152048031e-02
-4.396177577635762557e-02
-8.657031001775604417e-02
-4.245470201011324052e-02
8.221050757690046007e-02
-7.576085569154236699e-02
1.062285576720040370e-01
1.179211892837398745e-01
8.825096480625677087e-02
-3.693107209108351108e-02
9.016840967605413426e-02
-5.993891814694462389e-02
-5.532625394264253926e-02
-5.436715294890492878e-02
-1.130678829653072731e-01
-7.540013481265792072e-02
3.291676567166049172e-02
4.278689023668799662e-02
-6.523457566157409016e-02
1.019505279426947131e-01
-2.062640714635716188e-03
3.682226978885064228e-02
-4.428376141954987188e-03
-9.772788416401889666e-03
-3.379025532206869631e-03
2.931641787216529571e-02
3.640823939197651571e-02
9.103916746550927419e-02
1.098388126247308305e-01
1.772217231240233448e-02
-3.958219473909443953e-02
-9.908100988438278689e-02
6.161414301392811876e-02
6.445025286818764632e-02
-6.281448669694514320e-02
-7.937893537012245815e-02
-8.718904277022726523e-02
-5.575121009366788838e-02
2.414198773999270964e-02
1.034003884095332781e-01
8.558891557607042899e-02
-9.751654532731673930e-02
8.884022730365548348e-02
-6.887124793360047126e-02
2.492761165317985972e-02
-6.246957845771631407e-02
9.358987981900004915e-02
-6.286312154135040298e-03
-8.584565421846618305e-02
-3.377516416980543001e-02
1.157163599975705726e-01
-1.110943430960990852e-01
-6.357651078867140870e-03
6.329634290798658025e-02
-4.111158627457468795e-02
2.318423396179236651e-02
7.269228837031282975e-02
-6.953067006775739967e-03
1.166803294100878796e-01
6.349062285496503977e-02
3.646061611593326424e-02
7.835022119991957856e-02
-6.295244922840771695e-02
4.166956721225062443e-02
6.525555573497335282e-02
-6.378586980072373236e-02
-3.627141820561298469e-02
7.960494925637021102e-02
-1.007023925603810627e-01
-1.111917213898526574e-01
-6.115963754182868889e-02
8.663899142963440991e-02
-3.996091856591874047e-02
-7.036710614061623958e-02
4.892678567964223180e-02
7.786646342631661777e-02
-4.689814820633320114e-02
5.574437321256325850e-02
-5.358980253332194799e-02
-7.700097094967273126e-02
6.765770891900585449e-03
-9.727046979893885781e-02
-1.144619446466339230e-01
-5.158047642179536263e-02
-9.294254802416712646e-02
4.137989586300655498e-02
5.570770826780718776e-02
6.763788523401970121e-02
-8.583796642870832050e-02
5.832929295199623665e-02
9.962998364179437294e-03
5.438516471321602763e-02
-3.732100060412572862e-02
-2.904919742484016187e-02
6.413736573071066038e-02
-8.992531979506654394e-03
5.260457980020910584e-02
9.987645613001741585e-02
-9.444789305166984006e-02
-3.895225406489120912e-02
-1.090511812851372164e-01
-1.011226137643455730e-01
6.832575219122713484e-02
-1.174409761528785179e-01
-1.156412307114537824e-01
1.010393231692819638e-01
-4.929424480524985386e-02
2.772534948839008861e-02
-9.781017742028916273e-02
-4.044699638659915442e-03
8.283936256614968241e-02
-1.008421810969306054e-01
1.768666451090694647e-02
-2.209733204421700237e-02
8.785354246063878381e-02
1.005694392654728209e-01
3.110435761666308085e-02
-5.208874602756874417e-03
-3.814186448830847453e-02
6.062348225869221285e-02
2.996540897222219058e-02
1.667969938781818651e-02
9.469985695924373892e-02
-1.176359841063437384e-01
1.695251103959094507e-02
-1.053820625520953402e-01
-8.633221378682373603e-02
-2.723850928065417454e-02
6.929487479685950135e-02
-9.119372091667188318e-03
-7.023333834294179234e-02
1.070485996717648047e-01
4.241734056836085620e-02
-5.988165575386991679e-02
6.197283202434261673e-03
8.097356226522656186e-02
-8.268958637203829842e-02
-2.431418902566498397e-02
-3.612948577191812949e-02
-1.077897884805613660e-01
1.845380310555508330e-02
7.389030296575202494e-02
-3.536737810771112267e-02
1.010672440058293653e-01
1.199799153175210853e-01
-6.480938349706069634e-02
3.684830876516384524e-02
-1.101559404651359375e-01
-1.027714150577688779e-01
9.650226668790451434e-03
-7.572221518679769781e-03
7.974959367596376469e-02
1.108101808427652823e-01
-9.910211178837359525e-02
3.758122382969295017e-02
1.919646145878214916e-02
2.927722422812017999e-02
-2.869186495496972578e-03
1.591735742873820469e-02
3.015421297917514343e-03
1.004298968405104853e-01
-9.530924861119896563e-02
4.425730928428095456e-02
-6.321935816743215475e-02
-8.878954731941363088e-03
6.563538754679659748e-02
6.213228148322302857e-02
-3.756791943258426525e-02
-7.288742219855386117e-02
-6.264148990375381643e-02
-7.552749767849975537e-02
3.984586143609972209e-02
-1.144525371760774790e-01
1.136088802341274628e-01
-1.148873640826729298e-01
-5.124705941483853611e-02
8.533503603840475460e-02
-1.175075183623354586e-01
6.638150348924615196e-02
6.127377433918179683e-02
-6.598211469460663059e-02
-1.085079594762353161e-01
7.981888272151638208e-02
-9.088854290899107957e-02
-1.454918074349294266e-02
-8.111900808367299154e-02
9.960503575027238043e-02
2.464557598431019181e-02
6.541857403550457861e-02
-3.793747272286608629e-02
-5.519118484596124974e-02
-6.942321067827497694e-02
-9.129596321167340878e-02
7.034108772243660712e-02
3.935549081438671770e-02
-5.241396778908773146e-02
-1.001253339297543676e-01
-3.600656377697285249e-02
2.568638956919705452e-02
6.729966675364282280e-02
-1.000445075151545210e-01
-6.642372427252145328e-02
-8.375532421004863726e-02
8.923366717133854320e-02
1.782476572274482862e-02
6.752079978377545366e-02
3.859779592109668922e-02
-9.042357111815420290e-02
8.567470176391986381e-02
6.112164791678512121e-02
-4.011410697680967141e-02
7.706362469121830205e-02
-4.282514589559451024e-02
1.796222724516491343e-02
1.878069258891820748e-02
-6.493195600768512932e-02
-3.335235167402958445e-03
-6.940301274003990439e-02
-1.052724963021735571e-01
-1.033019380226402884e-01
4.314822571280435559e-03
-7.640186616245182860e-02
-1.765486903504556726e-02
-9.870639473086129101e-02
-4.683001790505882111e-02
-2.521850352973153964e-02
-3.978240930050543078e-02
-4.340280233690091416e-02
7.710445185548520097e-02
7.877684952729277490e-02
7.379920374391060744e-02
-1.160109050671360859e-01
2.030526628837381331e-02
-5.142634017346203734e-02
-1.164602322249025518e-01
-6.829520614176259885e-02
8.289230864915952957e-02
-3.812914960418785359e-02
-4.115895649484725694e-02
7.187908250637362051e-02
5.890588735870538883e-02
7.854581665442397775e-02
1.083084222929696638e-01
-1.059172280007653066e-03
1.139393580869820510e-01
2.354397381613745899e-02
-1.231177392864117592e-02
-1.241023123134146755e-02
-1.048369351211317912e-01
5.810398127053670314e-02
-2.004341277814555844e-02
-9.487354278965939858e-02
-8.318909659478106178e-02
1.083217955343396266e-01
-1.465575761866234894e-02
4.866855185889623625e-02
-6.023994740173766599e-02
3.293045176646000605e-02
-1.196541270318508127e-01
7.369695710942797406e-02
-1.125313622793876200e-01
-9.559714660456269941e-02
-8.904117594435623229e-02
8.665484810172946473e-02
2.370830465771667228e-02
1.201319042134221804e-02
1.163295513205245546e-01
6.952643636124788973e-02
2.521453427416187054e-02
3.770500248496083673e-02
8.662035617503055507e-02
-7.040269781932032012e-02
6.601114878446318057e-02
-1.092899962913034401e-01
-3.347952781628517338e-02
-9.628035982159829920e-02
-8.335730352159606560e-02
5.733872792909228133e-02
4.415202035140464165e-02
4.304731366807251769e-02
-1.084065916003304070e-01
3.510813129165710200e-02
-9.229997296650251093e-02
9.282608725990773579e-02
-1.038342596858481681e-01
7.686851028659549834e-02
-6.002981084039479831e-02
2.203212468640039501e-02
-1.163528579135548052e-01
6.631848065140849569e-02
-7.768685122066421034e-02
-7.026606809763544237e-02
8.793544838336025959e-03
4.444415670392201645e-02
-1.010469785422384026e-01
-2.171979954855304817e-02
-3.157840325123890957e-02
-8.787973721577360675e-02
-5.562875568554773165e-02
1.211205688140365444e-02
1.088318705207613202e-01
-7.745308348179250069e-02
-5.319025610114896940e-02
1.518354619120995674e-02
6.101364546173379533e-02
-1.091227106162729055e-01
-6.068973918353732372e-02
-3.594850509111731374e-02
-3.094914159082173821e-02
-4.676745436030743663e-02
4.026447363602858598e-02
-1.003493950003753743e-01
-1.484245290155165875e-02
-7.444689800692262660e-02
7.077871463014023812e-02
-8.414825186388215361e-02
8.098738574488614783e-02
8.170138420568531790e-02
2.086537285971165612e-02
-9.558816489257609961e-02
3.040795819682931556e-03
-7.745830700801495383e-02
-1.034381475835113307e-01
-1.076893247311203616e-01
-1.184987407820896343e-02
6.233218628597914091e-02
-1.131726442055369097e-01
9.981680879854898381e-02
1.054798638081586581e-01
-8.599237371763204796e-02
4.573731236776909514e-02
3.317765143389758697e-02
1.189914950412016004e-01
-1.024346288493205304e-02
7.600845643507933569e-02
-1.146592195222274763e-01
3.826518293993186326e-02
2.548036398865499708e-02
-3.394767457355982176e-02
5.061440495768446124e-02
5.010004442043902717e-02
-6.315536322232861988e-03
-7.019014562764747112e-02
7.669161826643261515e-03
2.614238191871925965e-02
9.984773579787897813e-02
7.164709879190536701e-02
-9.337467145192285267e-02
1.887603877417265430e-02
5.694359289099870658e-02
7.785151336816112377e-02
1.043063391876513368e-01
9.684707994669941589e-02
-1.104242515379484785e-01
-4.425545160741209405e-02
2.577674843480889932e-02
-2.496236161337474224e-02
-6.349351417876984705e-02
4.528846621948068307e-02
-8.316761355835974867e-02
-8.330052495929701761e-02
8.456241311077919431e-02
5.336084263600465727e-03
-5.967593590933637643e-02
7.631219603585981393e-02
-8.225206691667180658e-02
-3.762175401746435666e-02
5.225469464683385468e-02
-7.849727638908052252e-02
4.352250561063314427e-02
4.792190708919680242e-02
4.424669184889573614e-02
-4.761964660108518321e-02
9.983905727690894905e-02
-6.405219187533010838e-02
-7.829292095693986264e-02
-2.599116921297414673e-02
9.363417706045762401e-03
-6.912177115109187364e-02
2.660020748698585513e-02
6.771115740986149989e-02
1.068902450542869031e-01
8.707035357669271058e-02
-9.404053133261719433e-02
3.728451939523400038e-02
6.771639622920128110e-03
2.774430134073080367e-03
7.944025854424938138e-02
-8.605499288191507945e-02
1.023026066699696535e-01
-5.545064330687710097e-02
-9.272301851663346250e-02
-9.128931148402541496e-02
-4.693951811107592575e-02
8.704262365342185781e-02
1.028178251332107218e-01
7.010417603558272148e-02
-5.058589555414907957e-02
6.863037484845599390e-02
-3.980112252416534435e-02
-5.459218291139750212e-02
-1.492698108412908453e-02
-4.722340599516136606e-02
1.196595221471105086e-01
3.792843682540755768e-02
8.896713119188531804e-02
5.207712941674849660e-02
-4.017291056290984985e-02
-1.109661084311993201e-01
-1.164222692662422454e-01
2.651355482428588428e-02
-2.237830649157764029e-02
-1.055603377273672122e-01
-8.712465157002427518e-02
4.924393775926422245e-02
-3.727927715895212879e-02
-6.271483289022669605e-02
2.342218073553448132e-02
1.131314604348543640e-01
-1.002228002425607500e-01
4.181901653946717978e-02
-9.835608916253733847e-02
-9.762571478145207204e-02
-1.054997049880339044e-01
2.859453419268423446e-03
-1.260774518398874444e-02
-9.088206928671001272e-02
-8.062202560230283255e-02
1.292529117053017873e-02
-1.999655274887683631e-02
-1.167785752816949685e-01
1.864808459554026521e-02
1.156187007579559112e-01
5.614338528084589219e-02
-2.061192053901642063e-02
-1.997616379318369051e-02
-9.040711412838567385e-02
7.959328076130084417e-02
-6.444681610292937735e-02
7.190219420479487811e-02
2.234567092983288927e-02
-6.450927878805047533e-02
-1.104506005906787658e-01
-5.043396423309784438e-02
8.627780726088654650e-02
-1.393128671404689212e-03
1.111602335608583014e-01
5.456120991653656827e-03
5.381874853335799624e-02
-6.205414800343875270e-02
2.819286308214297154e-02
6.001332529066416566e-02
6.146199891410772387e-02
8.431114747459370062e-02
9.276548087641517393e-02
1.125350534908784450e-01
-5.427715898977625297e-02
2.803531179377477534e-02
-7.973185022463660787e-02
-1.031874200462799818e-01
-6.727452713774434434e-02
4.286514133156130169e-02
1.792535972173972536e-02
1.746260263147383918e-02
1.162286546087036299e-01
-1.443216165939201212e-02
-2.792062620563671993e-02
7.698991591150505798e-03
-5.493853079790102234e-02
1.063871288276500293e-01
-4.148713782938788508e-02
2.312165242164332390e-02
4.633410136749580022e-02
2.815487703045935208e-02
1.141171689649521648e-01
1.094194264704593800e-01
1.175308644295432747e-01
-1.696346770058225484e-02
8.102235082933514909e-02
-7.358429859151985331e-02
-5.377019899111788737e-02
-1.077015234420583556e-01
3.470787883619716463e-02
7.841952253309550369e-02
9.963331423311044821e-02
3.327698243829399494e-02
-8.982038896674916784e-02
-4.082605655280978352e-02
6.339948466654796166e-02
-8.805095805359716699e-02
8.061101719201188565e-02
-3.812718490511274316e-02
1.623072161120969747e-02
9.808635294026368801e-03
1.564354356437444582e-02
4.494608332848482046e-02
1.394179051050989382e-02
9.321996771951554517e-02
1.040583256459423067e-01
-8.279587162643423093e-02
-7.254287471410703070e-02
-3.917844404050714602e-02
-9.313121169210181183e-03
-5.729419235829320833e-02
9.117591385741177779e-02
3.144846156724601105e-02
2.399639691393895546e-02
-9.525165890445268235e-02
2.887204404457277551e-03
9.997879582023080913e-02
-1.162766755816798253e-01
-8.422527098808421653e-02
8.275191797032863117e-02
-2.140950431371470286e-02
3.550412858631804558e-02
-1.774992216375935461e-02
-2.477606867393167267e-02
-7.694869633106557472e-02
3.867194657854211570e-02
-6.123865898126753388e-02
-5.842385714804979729e-02
1.175622981886405849e-01
-9.894504403640988488e-02
-3.502955718302253052e-02
-1.169742420766141100e-01
7.354191186902916955e-02
1.099712525797761908e-01
9.028380884993222888e-02
-3.919494751720001280e-03
5.565970410602835705e-02
-1.046353118817997252e-01
9.537216853377972203e-02
5.566288418540513150e-02
-1.104677891498153930e-01
1.065873698181521168e-01
7.028879000265386701e-04
6.427623423044320772e-02
4.638402402836161453e-02
1.159986540270026290e-01
-2.309486361583988623e-02
2.257636186711398096e-02
-1.015592855887290091e-02
-9.416404912233695967e-02
1.156047315616034465e-01
1.180642980749212478e-01
-5.501468052009089726e-02
7.571247351426632632e-02
5.912682318694695294e-02
3.536287852854980152e-02
-7.246611633905139516e-02
7.242783255517384888e-02
-6.229769693576181488e-02
3.523854420197083948e-02
-2.739468940815563414e-02
9.715346042541828098e-02
8.346649778531645136e-02
1.068122785816426890e-01
8.067610554205062456e-02
5.111910637262151447e-02
-1.914419705276393380e-03
5.516048684017693660e-02
-5.892441442911189320e-02
5.057345254749920360e-02
5.954720441353736349e-02
-2.976654347501268838e-02
-9.674201148028721553e-02
9.989722500401615468e-02
-9.661687478663626150e-02
-2.832261467814559119e-02
-3.129018443145947792e-05
3.961166899584964152e-02
2.273168668170708062e-02
-1.034772870248993754e-01
-2.804363269776018186e-02
8.142542410710937317e-02
-3.109954209912486889e-02
-3.887417379475031909e-02
7.549887434242652517e-02
3.092081821008077491e-02
6.044875209410882633e-02
-6.092285846186965698e-02
3.334516549982410871e-02
9.620771728208249440e-02
4.744557644396887874e-02
-1.477020060088822528e-02
-7.177659882874942721e-03
-1.600688399097784098e-02
5.088217386197824155e-02
4.303192259472862768e-02
-6.296324599391958654e-02
-1.031493418886224311e-02
6.288296710018798086e-02
-6.678587876849728655e-02
-2.778564827876203736e-02
1.178236911649712393e-01
-9.446483744683002726e-02
7.495937495040139176e-02
5.936146448905149642e-02
3.411419964255768544e-02
4.775638996849268514e-02
5.170162682371698404e-02
4.710484025176620015e-02
1.001652823172664852e-01
7.406204671717514509e-03
2.763569327724910152e-02
-4.674100330830187333e-02
-8.589008899782546447e-02
8.928610377418502719e-02
-2.352677731788388460e-02
8.381677912467466740e-03
7.137657477274056417e-02
6.637706560887607354e-04
2.278952009328832906e-02
-8.228679807156566439e-03
-4.439282376442764411e-02
1.679261525032418878e-02
-7.770352787765967550e-02
-6.161652638917491931e-03
9.071660910997347838e-02
-5.737080131100846803e-02
2.007805712301527490e-02
9.088834213083629709e-02
6.313859609896657621e-02
-1.048907493052149698e-01
5.811629323932671065e-03
-3.136697765329418686e-02
4.463657532423453977e-02
8.891416056000747692e-02
-1.094262129050463384e-03
-6.741823935815792479e-02
2.468551811524413719e-02
-2.622223416063750034e-02
-1.110402436875032456e-01
-4.162503802286728061e-02
-7.570509635391980963e-02
-8.560435148705279607e-02
-2.324563991629369220e-02
-2.427892531746631000e-02
-4.403134808828189362e-02
-2.855833208372468568e-02
1.136709048916864639e-01
3.652347906293992863e-02
8.603914684885527464e-02
-1.076554910190995612e-01
1.186430693016180260e-01
-7.820296117830868865e-02
-2.635803724489284294e-02
-3.722397271997485158e-02
6.395066345059216562e-02
-1.865709423632799790e-02
4.083010696862493516e-02
3.872698415024777852e-02
1.149145900645262564e-01
3.252987087141076539e-02
7.783652765370630000e-03
7.139118398468347060e-02
2.115387039572269590e-02
1.070546031378599716e-01
-1.194302590785193824e-01
-1.033626865799849442e-01
-3.825058333797114185e-02
1.196627412016194880e-01
-7.581776557671161820e-02
3.799361322986333223e-03
3.234508514496595155e-02
7.757276730687792665e-02
4.576874910762157578e-02
-1.156942492296770542e-01
-1.167532503563971230e-01
-7.307791210449483821e-02
-4.880960165198232337e-02
-5.055089752392473434e-02
1.183926369147619839e-02
1.065297754489615278e-01
-7.894521232988735426e-02
2.227432696285822078e-02
-7.625988697293889507e-04
-4.192344484852748854e-02
-7.412665655178984903e-02
5.159406576402994493e-02
-1.191726472706987061e-01
1.751072546194851198e-02
-9.798448079441662850e-02
5.240219372785226426e-02
5.070435259066966016e-02
-7.847893708873435181e-02
-1.069633616437790924e-01
-1.114568242587260782e-01
6.629997759840144944e-02
4.824588307764396400e-02
-1.148344217741453094e-01
6.414962160128806490e-02
1.326013931525457656e-02
5.748584443995533033e-02
-3.429593497800004220e-03
5.774230374963923440e-02
-1.161990653233672816e-01
-1.116030806183103824e-01
7.532194369982117554e-02
-3.414974509962688531e-02
9.638350531161854473e-02
-2.925674475415730724e-02
-3.333707096704560668e-02
-1.032027124914702970e-01
8.689347823014170746e-03
1.147128429864350541e-01
1.688672542461971959e-02
-6.696566875736312263e-02
-2.106503366601254756e-02
1.420240001981698530e-02
-3.691949495914857715e-02
-2.634422678792300299e-02
-1.112317386764508503e-01
-7.978276714696420913e-02
9.725972191949039392e-03
-1.067894407096049297e-01
-2.217820281810976846e-02
3.100920451290606339e-02
-2.588930718081534910e-02
-1.560684662730738026e-03
2.275396986355704421e-02
-1.957756422536795216e-02
-1.769547060150047924e-02
-5.862925244830410887e-03
7.995455698253775556e-02
6.398663220488309822e-02
9.412691251722349328e-02
-1.707742586370146476e-02
7.441151493032058251e-02
1.012693379175887420e-01
9.758800408404119664e-02
3.193287832163657636e-02
6.581353176609586186e-02
1.663129581803868273e-03
1.059229913956119817e-01
1.055603156286928357e-01
-6.051406789546416587e-02
-1.153606708588578722e-01
-8.709417806314484478e-03
8.566010251482414350e-02
-4.643568446088985890e-02
8.189602107894436434e-02
8.847349935045181746e-02
9.904429206813519793e-02
4.092118750536644090e-02
-2.305490498179295356e-02
-6.135873405233342043e-02
-1.471987965268599374e-02
-3.335593444813486630e-02
4.805686915008242077e-02
-7.029231525690710081e-02
-3.088823879465273092e-02
1.046786194845702456e-01
-1.133771761905046499e-01
-6.184553829259219204e-02
8.672311065218432646e-02
3.173339991840981589e-03
-7.003668890230854704e-02
6.685593309166940057e-02
-6.170069434011931503e-02
-1.099804296919596469e-01
1.556267285087470365e-02
1.068472395319379764e-01
8.353720237750272837e-02
2.638054761073635457e-03
2.810599043452782775e-02
-3.851619935644769177e-02
4.730130470022542166e-02
-2.862517255794792825e-02
8.175875688285760834e-03
5.650857045676754842e-02
9.361673563128261599e-02
3.490045881163980623e-02
9.628786806115396946e-02
-8.824029336415095681e-02
-5.400146860649646108e-02
-8.124928516247603705e-03
-1.174104765903011688e-01
1.059220403712032577e-01
-3.845237574148806237e-02
1.869951294442748213e-02
8.891613255405553251e-02
1.133404327543345858e-01
1.053171955835141005e-01
5.999076807433784131e-02
2.265722483810589383e-02
-1.081389650771583388e-01
-4.093935266389428507e-02
-8.670679321066157574e-02
1.043131558210227405e-01
-4.313621533138553565e-02
9.483651235872714302e-02
-9.331666326174006820e-03
9.992310296122061675e-02
-2.431436195778340081e-02
-8.573562207415254266e-02
-7.952075513043338484e-02
8.473283363325129214e-02
7.867603561167446635e-02
1.181548859663546502e-01
8.885009270396138081e-02
3.348777788800380573e-02
2.531164273009392507e-02
1.024306674198975087e-01
-2.137987911765654170e-02
-1.011833455630484768e-01
-3.442608250283006599e-02
-2.925952402434023325e-02
-1.177217774761787628e-01
7.004321508739486113e-02
-9.777006547650755885e-02
-1.150062488446229048e-01
7.664624240726450322e-02
-8.379993171603206115e-02
9.370719750079528620e-02
9.337496335344894205e-02
6.795685287503766547e-02
1.068157035763185048e-01
7.177242752047921504e-02
-5.105405665944506843e-02
6.486411144784154370e-02
-1.149046981437716608e-02
5.244132858380268214e-02
3.803270197415714593e-02
-1.614722834152920727e-02
5.556767638362739015e-02
-5.970198333171514160e-03
4.482692445122948843e-02
7.894371309632111644e-02
-8.899831732974329557e-02
1.022944741684628511e-01
6.360432025423162772e-03
-1.529723154234281790e-02
4.464537693363818116e-02
9.888769331724187039e-02
3.981086393375285470e-02
-5.748287884858571672e-02
2.477238034926734778e-02
-8.935735160980441683e-02
6.385021292628439982e-03
-6.805825389212696863e-02
5.353285807978341859e-02
6.831021907766077206e-02
8.196618398558058738e-02
2.835791844520063609e-02
3.432569591375214668e-02
7.050556893401313530e-02
-6.497953665559406955e-02
5.099638832735448046e-02
-8.993765463617618694e-02
7.195819640660436334e-02
1.054480337392441069e-01
-4.189310966060079411e-02
-4.774969565595281462e-02
5.310727441328877418e-03
3.611985432709510779e-02
4.393571639790783134e-02
-8.799828590650160542e-02
-4.106243517802837806e-02
8.188279934771730550e-02
5.886911355441457050e-02
-2.279352674396588341e-02
-1.164866496478187963e-01
-8.110058700008204724e-02
-1.421644230213454929e-02
4.915015420062646134e-03
-4.172746793921468245e-02
-5.165757103064447242e-02
9.764584912093982050e-02
9.237098056519066347e-02
3.274188497810459619e-02
-9.090285617662524631e-02
5.153634812886137562e-03
-3.976942210423864421e-02
2.404697568205646507e-02
-9.130546949120726952e-02
1.071075179947870715e-01
-2.930036764327542675e-03
-8.584879323583760602e-02
1.989612599228723910e-04
-4.795813469916532235e-02
-6.349157537199195955e-02
5.300097828135386102e-02
9.812147677935770251e-02
3.738084902542901378e-02
1.056421488835068423e-01
-6.641345626253680745e-02
-3.522966945428905594e-02
-8.946789520786239958e-02
-2.788603550942518605e-02
-3.166592850681877735e-02
4.727067095759904247e-02
1.166637369419445958e-01
-3.139177843415247304e-03
1.077126924201523839e-01
1.153682538725896434e-01
-2.831120382376262068e-03
2.965827960663741658e-02
-7.122572531453114086e-02
-7.570959805745065829e-02
-1.074231189288784444e-01
7.287813572334239653e-03
4.351049097504997021e-02
-1.589003913255114531e-02
9.981144508886707900e-03
-6.649725665676545217e-02
-1.105677135728128091e-02
-8.062963217337401622e-02
-1.175246075525848005e-01
-1.035567949080097583e-01
-1.044957669599585748e-01
8.049325093591075397e-02
1.044551413253896610e-01
-5.269398650611448187e-02
2.627595032797022667e-02
6.689518573748431951e-02
-4.365721932932642435e-02
7.781490220954734305e-02
3.144328267454130077e-03
1.134450121019313085e-01
4.990277351922442484e-02
-1.135002904461901857e-01
1.758540461026922297e-02
-8.557812255028297843e-02
-1.093984908461261008e-02
3.710125520545368150e-02
7.946492290576875894e-02
-4.263575521323689776e-02
5.587683863959716501e-02
-1.054895679921637186e-02
-2.110114757243698735e-02
-1.109717572674376040e-01
7.570619197826514157e-02
-6.813740434755238828e-02
7.571742554677268755e-02
3.106836250091346563e-02
-1.170198732765332372e-01
-5.541645214713569745e-02
-1.254562842839139492e-02
3.991797855262410599e-02
9.546005344672009452e-02
-9.509295142010218416e-02
-2.161149042171343904e-02
-1.029790150996558740e-01
2.985979883680417446e-02
1.151817371598568285e-01
-7.630189292843997384e-02
2.904629458160790101e-02
5.041927127065143344e-02
4.664721799653293033e-02
-6.573598922314455306e-02
-3.984889345129290217e-02
6.009903282567791161e-02
1.075304515179953402e-01
-1.075002179374217465e-01
-6.491162914424356001e-02
6.925397765400309602e-02
-6.378242915721114847e-02
1.128354289938651167e-01
2.397053674578428217e-02
8.109406772685887055e-02
1.000912207898897732e-01
6.672215147791735190e-02
-4.943559358785815094e-02
1.070321055754151207e-01
2.563060155389348949e-02
9.838211070917077250e-02
8.960510547510550095e-02
-2.693250086282808486e-02
6.447594848452170568e-02
6.290404100689284128e-02
-4.198881172554441710e-02
3.752960752330083971e-02
8.757642587450012450e-02
-1.030579693157297194e-01
9.623052289806527382e-02
1.198306926018114782e-01
6.427624855539795790e-02
6.501665302179740480e-02
2.422615424449012234e-02
-1.026245290743167254e-01
-5.507033457820513511e-02
5.007702363263474843e-02
6.608314459421962828e-02
1.135103479984297392e-01
-1.103648501169065960e-01
-3.628291714153744629e-02
-2.008433598232134409e-03
2.822584184580384514e-02
9.522430835252143622e-02
3.690740478010004488e-02
9.680355651977962106e-02
-7.636844139139797871e-02
-1.161734804379830760e-01
-6.070652078511014349e-02
2.499364563338538070e-02
2.804975492825267924e-02
9.144056602035316450e-02
-5.374140145638242605e-02
-1.020494838318190683e-01
-1.009063757522742077e-01
6.019935331418105329e-02
2.549630005486003270e-02
-3.100539903959187438e-02
1.031496539865936479e-01
-3.233761386470856980e-02
-2.864282651213728714e-02
-7.832856127089525555e-02
-8.726739734492780509e-02
-7.527683127172266064e-03
-1.054122014004674063e-01
-1.132430706805499648e-01
5.785822532807377572e-03
-9.218893917960256645e-02
1.062638954336824482e-01
2.149872729643917402e-02
6.800628112360793120e-02
-4.243408418208460819e-02
-8.150474347006873843e-02
1.154898106511172695e-01
-3.309939827257819822e-02
-4.034487264054799349e-02
5.315421333683639782e-02
1.155490263413688212e-01
-4.924017025968449590e-02
8.764707839677909895e-02
5.929004074124200052e-02
-1.703554494224791827e-02
-4.349779487682645107e-02
1.195485162270110979e-01
-1.072068869272655572e-01
6.703586423797702754e-02
7.031975083165267759e-02
-9.879258680410535343e-02
1.123316145680533507e-01
-5.800089513402703623e-02
-3.350000743026713967e-02
-5.339543519352665801e-02
1.083673878923067935e-01
1.118591201739848884e-01
3.431340444497885112e-02
1.181216547913638282e-02
2.046592188549342661e-02
7.544527394640379581e-02
-1.196341123324724115e-01
2.778755808550281703e-02
8.111995825222012568e-03
9.314488724609798487e-02
-2.586435124016958631e-02
-8.467591709139568601e-02
-8.309326276568794467e-02
-1.543127398775152870e-02
-4.593971151708747813e-02
-4.603894975915892585e-02
6.320245897406953639e-02
-1.063011964879475857e-01
-8.983985154802812123e-02
1.103421930217108604e-01
6.997312733893823467e-02
3.456705912219923404e-02
-7.586041313177416257e-02
9.197609629563036071e-02
3.408946921035743705e-03
1.112633844561610186e-01
-2.775391205394699135e-02
-1.570571529051008330e-02
8.953048987038911277e-02
5.795480558043647479e-02
1.044613250718185726e-01
6.243027571942016962e-02
-6.098331174014811479e-02
-1.188911993304812842e-02
-7.026085520843736165e-02
-4.608211595064568011e-03
3.413223653796232382e-03
-6.307334446728032895e-02
-5.591040503273679574e-02
3.829449877830734539e-02
5.081837128836363959e-03
-7.315415998954860610e-02
-8.064054438111982470e-02
-1.057453991408857652e-02
-6.738567702105398294e-02
-7.589118380006038000e-02
3.691018422824610123e-02
-5.946402164582503119e-02
-1.061606722306974865e-01
7.013912397620197803e-02
9.068755570217068573e-02
5.145067177583798057e-02
-1.149556153934995356e-01
-5.345971955955601540e-02
4.692560272717286041e-02
1.589044775245110341e-02
6.711381299471563810e-02
-3.839841846759392552e-02
-4.523502592894999841e-02
-5.386264193263864963e-03
-8.032446968266958309e-02
-3.649162303361486170e-02
-7.077225335571404874e-02
3.405600778834971809e-02
9.148160096856672308e-02
6.327357503947467210e-02
7.113209303951337215e-02
6.489201073223921368e-02
-5.602985986396274987e-03
1.081618264836752552e-01
-9.111146315921514471e-02
7.622956764569452370e-02
-1.056803334445883952e-01
5.898909005353658586e-02
-7.396018062107127811e-02
-1.317190245915444979e-02
9.510656645710410806e-02
-7.732524717146951887e-02
-1.759176476362760144e-02
1.817690651988060346e-02
4.815149400320742346e-02
-9.541399902741094785e-02
6.387593369949567945e-02
1.148588541845999011e-01
7.914071589979895793e-02
-9.721434674334389348e-02
-2.591135124097099229e-02
4.450341492643838937e-03
2.636321808173500147e-02
-5.420370595287404836e-02
-6.639851231578909607e-02
-1.117409120783607601e-01
3.253941278320846009e-02
-1.146195921660077971e-01
-4.882514706489315959e-02
1.164096608762223706e-01
2.591544271794357646e-02
8.156419609653714486e-02
-1.967011090402287499e-02
2.368450181083001094e-02
-1.059695698197500868e-01
1.184738028351806083e-01
7.658331986291735949e-02
4.539737560117740323e-02
-6.399587772041358258e-02
-2.020855726350567760e-02
7.975759921940947517e-02
4.455634625602061805e-02
-9.734342321612063365e-02
-3.349303339362803833e-02
-1.252352064492916195e-02
-7.009617877592479174e-02
9.912722286182762410e-02
-6.192244721263965440e-02
1.447425830481730014e-02
7.428343870778914004e-02
3.465391252064545236e-02
-5.954664614640414744e-02
-1.107091666244767875e-01
-7.836561567760136349e-02
-9.114996154886662039e-02
1.087944783846425401e-01
3.412039200728780863e-02
-1.851182690877807568e-02
-9.041224732779265527e-02
7.286173190480627060e-02
1.220765120258263114e-02
8.555676426873137785e-02
5.558972916317708735e-02
-8.608788502088868255e-02
-5.522246740516059682e-03
-5.066168786191323214e-02
-9.123705214758592863e-02
4.114707451700927443e-02
-2.224251213259634263e-02
-1.015929479421047443e-02
-1.990128614967957843e-02
6.904573002250474767e-02
-5.640666887990475331e-02
-2.748625801040051331e-02
-8.417470222071955777e-02
-3.482022288654711140e-02
8.415088763124053961e-02
-8.033965911194629328e-02
1.093693686737381987e-01
-3.812592119077357067e-02
4.724104846998447571e-02
3.209468176520030580e-02
1.101136423996972036e-01
-1.493777644616403610e-03
-1.988856624576022802e-02
-4.000090632181628469e-02
1.492858077685413343e-03
-1.004403416060640208e-01
1.094248808793897576e-01
-1.071086124498184938e-01
9.086213878422275125e-02
-1.319700568109824501e-02
-6.942679053249643795e-02
-1.133380291795853534e-01
1.258778165410187611e-02
1.827218840249611453e-03
9.045864841782247368e-02
-1.136349930383737106e-01
6.900203158007484072e-02
2.449661790661750160e-02
-1.792506921651564056e-02
2.854888169542546539e-02
2.864823349077041947e-02
8.651065283586081844e-02
-1.144025885098010620e-01
9.050008170896406412e-03
8.636386212367400117e-02
-3.548899869487083525e-02
5.494835953131474438e-02
-7.759241779397924033e-02
9.258337353265369551e-02
6.127485767596724253e-02
-1.098559290919485648e-01
3.154560961969074540e-02
1.424095542954051385e-02
-1.929775177720272072e-02
-2.761298882135772292e-02
-1.191026769661212431e-01
-7.288819676637922629e-02
4.038414112640595355e-03
4.279795996060375973e-03
-9.824557556522622859e-02
-8.737545774878366367e-02
-6.416743669823579688e-02
-1.046843109513717479e-01
5.244477041322406774e-02
3.255750277247254632e-02
-1.015952039822689834e-01
-3.892604288300574589e-02
-4.756191997853752296e-02
5.169674562976311893e-02
-1.197100437554344393e-01
-5.195720414328079684e-02
-7.165637688400830485e-02
9.313153967329801386e-02
-9.844977350421946216e-02
-1.322482011378592337e-03
-1.118156183948533361e-01
-5.713983640407854780e-02
8.347999744164799618e-02
-5.340071139907900943e-02
-6.686095731758301408e-02
-6.694169257797898120e-02
8.114038480509039308e-02
-4.604966578261925070e-02
-6.111623315401162881e-02
-1.089371701674996112e-01
1.566672916218678213e-02
-9.054352714034599736e-02
-9.575504221588770903e-02
-8.674954380615196303e-02
-1.813457918506765354e-02
7.186890261363879095e-02
-2.350868843674958075e-02
1.304297475938265283e-02
-1.002489739446212058e-02
4.499444892876791613e-02
7.917938172843880240e-02
3.616778508874771147e-02
-7.318732317817555622e-02
5.127972795709426213e-02
-4.384467216496223951e-02
-1.219886493301068631e-02
-4.935263031967727920e-02
-1.130236705639318939e-02
-4.842297751222704449e-03
-1.081506901742331356e-01
-6.235597791581573568e-03
9.247286509965804702e-02
7.077772911463103833e-02
-9.552526498904839736e-02
-5.579733864767663643e-03
-1.455802819938563364e-02
-9.498798648067317829e-02
1.827904357312631900e-02
-1.229028494205450239e-02
4.762187612668700165e-02
-1.131482287478676879e-01
4.879130330402647875e-02
-1.669492329809223186e-02
-4.623001584837931055e-02
4.715586867681809125e-02
-3.725020016403818301e-02
-1.897795729213137828e-02
2.069910069528327345e-02
4.457588310431945255e-02
2.258106968157791439e-02
-7.537105786625622472e-02
-5.358777051361165999e-02
7.997456890884316327e-02
8.459328629309090242e-02
-7.058208100322568845e-02
-1.594604984543318560e-02
-7.207443666269196247e-02
7.141308395512119267e-02
-5.403372988944887823e-02
-1.132932622041797205e-01
9.220674815564344762e-02
-6.938249669438256717e-02
1.304684771603692450e-02
5.959554964080807093e-02
9.192906348116722248e-02
4.354056438744630109e-02
2.933646395101174864e-02
-1.054798511507916009e-01
2.208586886036867369e-02
-7.518386115999264874e-02
3.665039018100940682e-02
1.157586953429146082e-02
6.515284787718006454e-02
-2.947713802223830837e-02
7.257613046540462021e-03
-1.188519031409290688e-01
6.080940873999085561e-02
-1.080606303828993559e-01
-3.460119302078973336e-02
-1.120179282577627444e-01
2.369903196474551499e-02
-7.746436447619806098e-02
-6.620155073384934030e-02
-9.181430998546630251e-02
-1.028905917422386074e-02
4.866526239894333750e-02
-6.131254664220023992e-02
-7.485195302208136336e-02
7.534459292790671170e-02
1.344575515145371436e-02
-5.452416615376694253e-02
5.323263170343184303e-02
-7.509910514329953823e-02
-1.033114237133648111e-01
-5.052557768589577281e-02
-1.078201521304278376e-04
-7.233649252519938622e-02
-7.851080317722507196e-02
-1.155283396248124456e-01
8.338067496043938265e-02
3.551235885515646729e-02
4.054529539498502588e-02
-1.189138683605726610e-01
-8.105900536159681147e-02
3.671888765611838745e-02
-1.940359772475602762e-02
-7.995071327378086568e-02
-3.034692329451840753e-02
1.159222842085067262e-01
-5.042543453069105175e-02
1.169699935662621704e-01
4.795977736492645915e-02
-6.339457590325789371e-02
1.466971571434863564e-02
8.430866160586075742e-02
6.173208077126288162e-02
-2.680927899545469673e-02
9.294894724486957305e-02
-8.727615856082268642e-02
-1.056947378148082178e-01
1.188143973140266541e-01
-3.621942361115966513e-02
-1.703403049668913982e-03
-1.282927746686476911e-02
-2.133845576620536921e-02
3.607589336584576811e-02
-6.340965206180698699e-02
-7.872837838780943898e-02
1.088363687177590633e-01
9.632476222916611097e-02
5.873698260263329751e-02
2.821359963635169943e-02
-8.598290698472565996e-02
1.397284947419741297e-02
6.324780536431623412e-02
6.245708144153741537e-02
1.137235688525939925e-01
9.187860635100564277e-02
1.299054354239448372e-02
-8.248821672266234972e-02
-9.713858374314646160e-02
-1.050961220094893955e-02
1.169905762159662577e-01
-8.073083235654794632e-02
-1.820178954794150761e-02
8.390336226967970434e-02
2.738940268342490714e-02
6.442878753905520450e-02
1.017283863415070766e-01
1.113598256118958352e-02
4.124103267486414759e-02
-4.489132797929151764e-02
-3.862357133899067818e-02
-3.556670946904515185e-02
1.117500976979597105e-01
6.196725061838548321e-03
9.485733936944273914e-02
6.725965562446761803e-02
-6.601457901428543773e-02
-1.239033639782265162e-02
1.027161531720650889e-01
-1.092744800335847255e-02
1.136848611371914508e-01
7.935911830985603599e-03
-4.856696041531297081e-02
3.162719659030058250e-02
5.257269438807668505e-02
9.974174717726266848e-02
9.658463504769704278e-02
-5.035139514392004967e-02
-2.813648441191790583e-02
6.819373998912664492e-02
-9.278521120815147460e-03
-1.059860550297564707e-01
-6.971499199042752171e-02
-1.997165605820669376e-02
2.905525261217983823e-02
-8.530293381268695685e-02
-1.163376885781770981e-01
1.407320080591847877e-02
-1.214116314915970885e-02
-2.553872845462962227e-03
1.009217419729361576e-01
-4.837820594726649492e-03
3.755731351242261318e-02
1.053990046498581024e-01
-7.601971813831556735e-03
-5.621412226617228391e-02
6.071305865242099253e-02
1.004094450925185900e-01
-9.230490720979842023e-02
-4.460802596759115557e-02
-2.899990629208348825e-02
-8.606064202202029501e-02
1.467016267663623363e-02
2.051251362610378992e-02
-1.683963872328037015e-02
5.390411545784337677e-02
1.078527469841968900e-01
-6.953529592913346158e-02
5.856012829271459164e-02
8.534250175939470107e-02
8.126819169414714605e-02
9.392705001795501052e-02
3.956928314744853625e-03
-6.445337714541782281e-02
9.182739751062865552e-02
8.843469123960170930e-02
-9.072280270347454767e-04
4.874538757319549220e-02
-9.619694044249560427e-03
-1.155457843644511068e-01
-7.492955722585567524e-02
-7.530349543997302830e-02
7.726291828870762712e-02
4.241229499784102130e-02
7.551444458088388267e-02
-5.014624741722495394e-02
-1.133784641816491939e-01
-9.822950882614822632e-02
-4.009515237187133430e-02
-2.917504499256431960e-02
-7.638405552496974060e-02
-1.162413661016812316e-01
3.952086802518078867e-02
4.604006707591593028e-02
4.793189204532000147e-02
1.142682134980763653e-01
-3.970765865756815949e-02
8.679488658244885468e-02
8.708278842726027702e-02
4.784411548536909864e-02
1.088501864262214625e-02
-5.826089179194846035e-03
-2.209873409529157506e-02
9.135508854888937935e-02
-2.688639105771409299e-02
2.495838608351258481e-03
3.744017764948448512e-02
7.956826234139144360e-02
-3.734858283787008404e-02
-8.407075007191086580e-02
2.063980021413028276e-02
-1.004490848186278540e-01
6.381637395398714885e-02
-8.022727901875953416e-02
1.348981273602123387e-02
-5.630214765175185765e-02
-2.197359087240155495e-02
3.529114504786282080e-02
4.268445998835412869e-05
4.770392303774459442e-02
-1.166930457832768414e-01
6.818592264785880430e-02
-1.166111325046822883e-01
-7.652814576052766049e-02
7.082928921386991150e-02
7.099101636673357807e-02
1.057757486636527189e-01
1.851154793702067258e-02
-6.550675571443839718e-02
1.137154129655726653e-01
-2.395316939829070235e-02
-6.784042024573103125e-02
1.668498488504224775e-02
-1.187525482059645365e-02
7.545958201013189259e-02
6.087894101682816972e-02
2.711401138363095376e-02
1.011162737152992708e-01
5.406900528157745911e-02
1.125173124876289454e-01
2.955336763630350694e-02
5.088463733680761991e-02
-3.659470532843614454e-03
-1.170383629170453077e-01
-3.849099525475357941e-02
2.178793796145078732e-02
3.578305526440134221e-02
-6.983402028635951608e-02
9.454434531899688632e-02
-1.134029449967547537e-01
3.770800862322876146e-02
-6.652736353858951235e-02
1.924464394001898504e-02
-4.737737933084767983e-02
-8.459160771003251811e-02
-7.739678245807832258e-02
4.133398122041093137e-02
-5.173292902465009835e-02
1.086711722765158483e-01
-6.354921147935482795e-03
1.041489678569923749e-01
-8.509290559653552577e-02
-1.972223451761248580e-03
-3.781120380654721946e-02
-3.357691710449942080e-02
-1.053415805528794963e-01
9.956580040568083212e-02
-1.036125868041949116e-01
1.025001039843326245e-01
1.028805602954866172e-01
-3.681652413208370833e-02
5.357558281153876334e-02
1.157497188675578048e-01
1.082727153644946483e-01
-7.435899056810581220e-02
-5.797838008063791598e-02
6.589102405342056601e-02
5.154062245489882121e-02
-4.639042205194823798e-02
-8.061234824323684767e-02
-1.186495333461370372e-01
4.611016013750043885e-02
-1.084392558799179562e-01
-9.481258837964241792e-02
-1.390944948757776023e-02
1.148227101162951069e-01
-9.334786718715325227e-02
-2.222788251885500499e-02
-9.323629789453750927e-02
3.906582410440662123e-02
-8.240144941415175617e-02
-2.767800884578437703e-02
4.159813500699213740e-02
4.180233257132459634e-02
3.636220842678489218e-02
7.020211293154082766e-03
-2.850436466215794384e-02
1.153072580010989223e-01
-1.914052805925876843e-02
1.614563560445966828e-02
-6.272132348708048255e-02
1.505743394890279863e-02
-3.068436348906578015e-02
3.296059687238331315e-02
2.148965670933000727e-02
-5.063481870014578667e-02
3.885346117483962081e-02
-1.088841746054994425e-01
-4.488235958041178475e-02
-5.895287522863306567e-02
-8.298328687609238252e-02
-7.643785584671422551e-03
-9.118435955605767862e-02
3.342799720287500942e-02
1.104330550884017048e-01
3.720582268208727506e-02
-5.225635741588673111e-02
3.954039684584428893e-02
2.375148840532984029e-03
-5.984806782985015172e-02
-6.557570825555469884e-03
-8.193903984615605318e-02
-6.095424949355500444e-02
8.321057521904093313e-02
1.044654950515348235e-01
1.161101120852837953e-01
5.438456442252931344e-02
-9.689898261392021483e-03
1.188646677384147254e-01
3.789844900846628395e-02
1.159517326718885466e-01
-8.360168375708729172e-02
4.432141423645263867e-02
-3.192271337973366652e-02
-1.199603625399797147e-01
-8.688849387426564319e-02
1.034384673890881567e-01
-1.128013907207464223e-01
-7.104153371076898926e-02
-6.006298126876438020e-02
-1.006683976966328414e-01
-1.603760834325800022e-02
4.688992211807835320e-02
-9.076543013835629281e-02
-1.014572787240775736e-01
3.156425492349010375e-02
-3.608392600768055292e-02
6.752511699779234489e-02
2.462810479297494748e-02
-4.646799734767841084e-02
-5.416790166051344002e-02
4.606544304318632710e-02
-2.416006082394940579e-02
1.749739899336819060e-02
1.005653934361734891e-01
-1.133036497562892875e-01
8.693680349913499028e-02
5.397265316537364077e-03
-3.277966252269426395e-02
8.589852036791786882e-02
-5.512517972151613488e-02
9.000555952080790956e-02
-8.300391452386904345e-02
4.596336254647837016e-03
-1.527764084056049132e-02
1.122101501552298652e-01
-4.829920409431841255e-02
-1.352343914607784248e-03
1.744853915711205850e-03
-2.140166882690326677e-02
1.471858107458479115e-02
-1.118162683927073076e-01
-9.502294478046534321e-02
-6.856052651712761514e-02
5.128493083852400658e-02
7.158712799903518831e-02
-4.750747380125887320e-02
-4.393636448213832091e-02
-8.525415003497918698e-02
2.348503270674720533e-03
9.341180852717911876e-02
-8.633896825562656363e-02
5.645355294547421687e-02
-9.936671782058405233e-02
-9.513692248173613586e-02
4.708013500719884781e-02
-8.788932952203805382e-02
-3.007855205044597524e-02
5.258298753254767033e-02
-5.391666396539054884e-03
-2.403063273122739429e-02
3.444640631817880161e-02
-2.821848505409543795e-02
-1.039593939944222223e-02
-6.522861376035762881e-03
-2.361627510066688362e-03
-7.488968359894954130e-02
-2.906281824642985290e-02
-7.214737379213465029e-02
3.638365429038803445e-02
-1.029068021872110300e-01
-4.462953004424025094e-02
9.521427052010647540e-02
7.859685729904752893e-02
-3.627099472959910420e-02
-7.372617625392566265e-02
1.765435906413323486e-02
4.732299156504193860e-03
2.500676736629264818e-02
-9.264298363039616402e-02
-4.103901644363437684e-02
-2.273658477995707528e-02
9.951205311306182688e-02
2.065842071522072665e-02
-6.661061030751871948e-02
2.588961587701416045e-03
3.353770640784317636e-02
-3.794720145069702122e-02
-5.675849561536919219e-02
2.084422153580789416e-03
-6.399558469702487651e-02
7.837852183846191756e-02
6.026409736889412616e-02
6.677508038756718722e-03
-3.274609078575588250e-02
5.306673465016012448e-02
-8.294959691939186863e-02
-2.970591484279312688e-02
-9.976656628649771541e-03
5.303528759690068206e-02
8.006792418128969024e-02
-2.728663281441483235e-02
5.198100773924313467e-02
1.162630252590162450e-01
-7.216771942334274104e-02
-9.677824101965483428e-02
-1.465940825130117309e-02
6.681476361101096328e-02
6.840166001942599161e-02
6.145502471885294637e-02
-7.869767459505226659e-02
6.009317026157121044e-02
-2.746585161656309171e-03
8.522934849316046724e-02
-5.099911859429065442e-02
8.596737447382715724e-02
3.461475490250759401e-02
1.384052066399149572e-02
1.172244382194750911e-02
9.173133590883625343e-02
-8.059874016897144999e-02
-2.591498312475473687e-03
2.907149734085617832e-02
-1.957213182123135331e-03
6.429061384320863826e-02
4.839519421692142775e-02
2.389229126835074046e-02
-8.573297451707675987e-02
-3.201013737249666646e-02
-7.170459851070701274e-02
1.351408185839553244e-02
-5.041366213084433334e-02
-7.715501398991780890e-02
-7.428641978847660976e-02
-9.080377217331950246e-02
-6.353661290113984950e-02
-1.165886449933737773e-01
7.139088005185287300e-02
8.395950145286210087e-02
-3.110007075743161098e-02
-4.807829868621300851e-02
-8.991619202195322291e-03
-2.560535747651924987e-02
-1.145961677937157308e-01
-1.140362837182394701e-01
-6.824243780391095471e-02
2.009465433596921424e-02
1.099909447372793281e-02
6.071083020021927901e-02
-6.968297057739390732e-02
3.231035364199599802e-02
-3.075869467444426741e-02
5.657941873782246223e-02
5.625018068944681593e-02
-1.461895800963991521e-02
-4.867374066885293837e-02
-8.427859306262469596e-02
-1.079556148509981522e-01
1.478844280877300577e-03
-1.154903849548816752e-01
-2.044511175303063977e-02
1.196211826700431247e-01
5.170673328686870018e-02
9.870936729319015890e-02
6.905728345375264365e-02
2.604125136439636168e-02
2.377615738722105299e-02
-3.330329241905664872e-02
9.223257718439611952e-02
1.138146923723573900e-01
-7.393311289742281189e-02
-5.966196940803660670e-02
-7.594843942008988602e-02
5.341536033533902939e-02
3.083676875539337336e-02
-7.240331926284454545e-03
9.984490437231641202e-02
1.167949835180003559e-01
5.914733337822331016e-04
-7.579613725284925496e-02
-7.989402409488206847e-02
1.684102590855854342e-02
-4.216648062602143532e-02
6.916685095360242119e-02
-3.231905177098086390e-02
-7.928408151594207309e-02
-1.461793307822201182e-02
6.279727514024949220e-02
1.153810276226798492e-01
-1.194131452705362584e-01
-6.108429235175127925e-04
-3.514218406990420041e-02
4.737560850645411437e-02
-5.078186279786248147e-03
3.938942698576461399e-02
-7.238323905858304319e-02
4.290568917012374528e-02
6.785292045213053846e-02
-9.974410079001362617e-02
4.148746820350993070e-02
1.864962249047921738e-02
8.933956105865606401e-02
-8.815408690567394512e-02
8.350809914644383158e-02
-1.189887191976303632e-01
-7.546063418927662081e-02
-4.267698670844810582e-03
-5.656389704801260965e-02
-2.834872950038008765e-03
3.925773693022904798e-02
5.963827081155442800e-02
1.087027324724795796e-02
8.991907735967186177e-02
1.108040997550407969e-01
9.923757532290952699e-02
1.133204645377231534e-01
1.033711788684121557e-01
3.136121575199937728e-02
1.052364178823570473e-01
-7.714829903200595695e-02
4.206849489077155169e-02
4.639090497405443103e-02
-6.566177159703806554e-02
8.342473709872011423e-03
-4.470597983928267793e-02
4.556215637329841250e-02
1.028059941074369044e-03
3.254896186360811683e-02
-8.391219493947574271e-02
-9.799138084868548593e-02
-3.462560958606165917e-02
-4.113272600712665483e-02
7.656694433386049270e-02
-2.824328486201291288e-02
-2.746312055608082781e-02
3.443046059077348175e-02
-1.860787695574303569e-02
4.365834396000520257e-02
-1.059071238175310348e-02
-9.609100465393503876e-02
4.121022503061358422e-02
6.729811649029254772e-02
-9.052943133399564413e-02
7.185668097910935526e-02
-1.648929128875074868e-02
1.155480616064171184e-01
1.045930597565474796e-01
9.528128618981629439e-02
-5.831973171514164000e-02
-9.346337022615891499e-03
-3.113229227286336276e-02
3.581968107252919697e-02
-4.473548031935425939e-02
6.117929771887026247e-02
-1.150038165153205033e-01
-9.395519075497527073e-02
2.546275401148048734e-02
-5.157825625327031038e-02
4.441229555138315188e-03
-8.012232023858682772e-02
8.403037172677796374e-02
8.228989230752012385e-02
8.105650958327284550e-02
5.656533646292283279e-02
-2.061227033035428757e-02
1.098463149385850990e-01
2.294706160580337051e-02
9.306710069218765424e-02
-7.006476815274312320e-02
-1.082851617188834437e-01
-4.814171968884535524e-02
-5.744077011552933820e-02
9.342121422792262764e-02
8.469417118064959116e-02
2.850274880782355247e-02
1.009372880473798362e-01
4.618956617263558773e-02
-1.077825314570172166e-01
3.669967638565765911e-02
-5.578643138430310067e-02
-2.639896711234256121e-02
8.139852137369435470e-02
8.562485634507122079e-02
-9.812381473511982977e-02
-1.187741964178176263e-01
-9.423520392007342372e-02
2.381267513448737105e-02
2.321219554876555180e-02
1.099572021853453818e-02
3.999098350001709101e-02
1.344777727198986916e-02
-1.076980497460766489e-01
1.147693560810115199e-01
5.696208494243365505e-02
7.316346042991767051e-02
5.464074052384856883e-02
5.109800267359965176e-03
3.392083914003723999e-03
-1.059414125861640604e-01
7.977412292173402530e-02
3.024747329049906619e-02
-2.566437906238300259e-02
-8.775014135156529449e-02
-7.253382460143165122e-02
-6.117275870014961259e-02
3.304849870404741319e-02
-5.747922632856838909e-02
-1.178616852699982398e-01
3.667061133086366165e-02
-1.226128227017836414e-02
-9.189209934897150933e-02
3.275981953709519723e-02
-5.021060455740018746e-02
9.343287781868298003e-03
4.451086293217659806e-02
5.515319838352128468e-03
1.034238589486823900e-01
7.465102856311753299e-02
-6.101511651338777792e-02
7.992378834038205149e-02
-6.775439329419362389e-02
6.406575394740210427e-02
-1.078060028980871721e-01
-7.562328433956472251e-02
-2.655414157783658746e-02
-1.198522925259204036e-01
8.462565201495644840e-02
8.386070012588667244e-02
-8.540465486280035545e-02
1.054667003438612971e-01
-7.132111766947316078e-02
2.164107616208918450e-02
-1.116778661337144429e-01
2.581583987478877629e-02
-9.930732716557785777e-02
-1.040086146650795185e-01
-1.100765833088517831e-01
-9.151691116529704628e-02
6.045372504628526711e-02
9.427177116255325284e-02
-5.188524728840955558e-02
5.284593781895721709e-02
1.063962971841950489e-01
8.120087248759466636e-02
1.977190948840273910e-02
-6.909397733664722485e-02
1.239581416364721189e-02
5.832795860109371566e-02
3.070010451093838078e-02
1.823160301513346293e-02
-8.298200398487190488e-02
-3.813001308472177553e-02
4.689187449609186209e-02
9.244642988002810258e-02
8.655153187160863348e-02
-6.142143380412039277e-02
7.324876571455005148e-02
-1.132869409550081030e-01
-6.833347239258488748e-02
-3.191408100905963885e-02
-3.469713421883328930e-02
3.602392942520707408e-02
1.105419523968426132e-02
-7.144147888773350052e-02
-9.155260666670345104e-02
2.493644765230354499e-03
-1.049058428805821480e-01
-8.769848125356291546e-02
1.073742480459025928e-01
-9.228068748716773684e-02
-4.402923604555569748e-02
-1.681272525402793816e-02
1.171681642685724611e-01
-4.077530438082635489e-03
3.492678379832031554e-02
4.214070964044125400e-02
6.167869815176768578e-02
8.681448744758793468e-02
-8.012668500991325382e-02
1.094020738974416374e-01
7.531052815759436969e-02
6.077689386872525690e-02
-1.690533255577847394e-02
-4.704051522886582015e-03
-4.905636404167862397e-02
-3.039189238640663260e-02
-5.805297078806998662e-02
-1.000689478696976942e-02
-3.502429196017732560e-02
4.317481784840543346e-02
7.820939737649024170e-03
-8.776310972109685471e-02
-3.428900171036450284e-02
8.210822000461714953e-02
-1.126885398582880976e-01
-8.856461250063772661e-02
2.313573126144166658e-02
1.193497415661199379e-01
-9.014375589692488755e-02
-7.486151699812561289e-02
4.399290115378934329e-02
8.087068658526172515e-02
5.889133292205425696e-02
6.837615571260252656e-03
9.812445657463525484e-02
-1.152510326845032906e-01
2.081972489086866829e-02
5.912017547584941246e-02
-4.589963043808109600e-02
9.560104280563014312e-02
4.160889331488989984e-02
-8.995943386744580106e-02
3.080347894492604932e-02
-1.274936100246990001e-02
-2.964935101330279377e-02
1.175744946496306009e-01
-7.669180379717795148e-02
2.943464091977768260e-02
-1.022010019151013138e-01
5.497302287893726658e-02
-7.032543355617992820e-02
-7.038539260880925796e-02
-1.316301917459443416e-02
8.098280457751755312e-02
2.813995818894071688e-02
6.978305887792571327e-02
9.669637131303648880e-02
4.777909066911847913e-02
-2.007015086506021284e-02
1.538060683571318421e-02
2.947504945580300961e-02
-8.785723551125126929e-02
-5.139523336640852702e-02
-3.196791027486624304e-02
4.344586305485292899e-02
1.128820990729076379e-01
3.754940280791066454e-02
1.892187959655977636e-02
-1.031658166462509074e-01
-1.327293827624323463e-02
-6.662205953116076551e-02
-8.628226626486779072e-02
-1.159712912629357190e-01
-1.132852336835174639e-01
-9.168113471911717993e-02
-5.640432664629024817e-02
6.929288925419932466e-02
9.895213978078537531e-02
-2.897426654759886755e-02
-5.952014153318684747e-02
4.343389789895135689e-02
4.210702130634622065e-02
2.557529926268656273e-02
3.658242595999275371e-02
-6.261346813736826111e-02
4.329985979948547392e-02
1.109196131260017648e-01
-1.061359157630100414e-01
1.143032253263415177e-01
-1.156918807881017197e-01
4.414235293182094955e-02
-5.136340731814306726e-02
4.670786486096006884e-02
5.520196278161476622e-02
1.742883181049484365e-02
2.335755625812160896e-03
-6.931727114164715209e-02
7.837918369004689967e-02
-9.165800863740589111e-02
9.578444713624803541e-02
1.183227940814568224e-01
2.702501680460217548e-02
5.247814670438394336e-02
-6.007031501265393952e-02
7.468586706618429716e-03
4.622167361212770054e-02
-1.032484034586109989e-01
9.089503501723736334e-02
-8.153603128646472187e-02
9.738855344470789821e-02
1.115935673338908918e-01
-5.816757394444227458e-02
-7.591810651324581993e-03
8.467259698614393315e-02
2.952856870317818738e-02
-3.519994295771823600e-02
2.708916130925248522e-03
-7.299445813035654318e-02
7.070276509859346747e-02
3.812375294565817363e-02
5.667662493934422230e-02
-8.059316237918577597e-02
-6.019590270754111155e-02
-9.306359452518803144e-02
7.230682865867205100e-02
-9.466796020752696328e-02
8.370761418535790921e-02
6.708138043429950903e-02
-9.894123884347345854e-02
9.125813678051056255e-02
-2.133965381317751153e-02
2.957934489447960891e-02
-6.823520668000015998e-03
-8.608344483652921597e-02
-8.210440149325523573e-02
-8.354994153169276183e-02
-9.783910216352444122e-02
1.197713098980607571e-01
-1.120084312392416459e-01
2.178309701466105142e-02
7.762296622104086774e-02
1.078232709339579098e-01
2.865014204034815881e-02
-5.213921170395280358e-02
4.293988414304583667e-02
-4.228907597522535422e-03
-1.098497768797745411e-01
8.964355617533398268e-02
-6.578874985457899838e-02
3.541935327612158457e-02
-9.103760191115432832e-02
1.664196079522592409e-02
8.843139540347225158e-02
7.053786563890371286e-02
7.584142056082682215e-02
8.584292164937029623e-02
-1.113325421345551097e-01
-1.034293626512646641e-01
1.009653783307656871e-02
1.006403851637626967e-01
1.140674121730051727e-01
-7.579640932321157765e-02
-1.721563392861302777e-02
8.100302466396258616e-03
1.027138526027906729e-01
3.086049458078174434e-02
-3.388462490582606901e-02
-4.475166326136270634e-02
-5.687399235247235507e-02
-5.178349753552148604e-02
-4.640072466050165767e-02
-5.911605332701971860e-02
8.924397940554734676e-02
6.076258730277828146e-02
1.033294816216652479e-01
6.383299881962725686e-02
6.260979336265543038e-02
-2.374820475414328447e-02
8.216519423543366951e-02
1.805739552070023679e-02
1.179728724856062561e-01
-2.236554393850698208e-02
-1.196919206577405220e-01
5.800446105302942135e-02
-8.977989943797456962e-02
4.579428365523488531e-02
-9.640022356509260482e-02
-3.921121111969280704e-03
1.043327373671878999e-01
3.142408543006394717e-02
4.510926245690061176e-02
-5.427653617095740124e-03
-7.294663404711637655e-02
-1.145732064158701685e-01
-4.714369745314922477e-02
-7.176239106431031578e-04
-2.906636109407555180e-02
-9.817429004349045862e-02
9.947079734769515014e-02
6.092000390130625220e-02
1.504521909670741842e-02
-4.556509962827576254e-02
3.961774074281421143e-02
2.241148963998249033e-02
-1.006711643336152401e-01
6.487923406744453003e-02
-1.329377274047154056e-02
8.609600946889886530e-02
-5.587928793513290138e-02
-1.307249962359763318e-02
-1.354805690531107887e-02
-6.140937547664615526e-02
-1.184046683640443826e-01
-8.728888154785892362e-02
1.105806796543437609e-01
-2.377655412602812379e-02
-7.254094791771331652e-02
-3.020405939160022979e-02
6.145296503022129597e-02
-2.999284164568365163e-02
1.109680657672172388e-01
1.400530708661709700e-03
-1.071225036036979605e-01
-5.448667932835740690e-02
-2.556415082106694436e-02
1.820385640786156833e-02
-1.639472252174573041e-02
-6.887765909135307174e-02
-6.118004934263757827e-02
4.541115311730817283e-02
9.231439630457941026e-02
-7.181802692808980648e-02
-2.446715597479720561e-04
1.170974033791755409e-01
1.284711277447114774e-03
-6.231170709895941795e-02
3.156301145957854382e-02
-1.101800323635968581e-01
1.069987027994462325e-01
8.891596052034034248e-02
8.320706439955818934e-02
7.687249737732515520e-02
-9.272375520974855678e-02
-2.055912266917860054e-02
-1.089900911444699888e-01
-1.167973945935299601e-01
-9.790572233427641269e-02
-6.786345574718252727e-02
7.329916146470610849e-02
-2.877073513161021445e-02
-8.580229042144671414e-04
9.416309644919237942e-02
6.938937820735727180e-02
-7.239340253669800107e-02
-9.691944941146414527e-02
9.161038294629447742e-02
-7.124837306577150309e-02
9.835716121037876847e-02
1.021104182837803687e-01
-2.062274989467426101e-02
-1.631823019481305759e-02
1.054996013264274668e-01
-7.428416252717581769e-02
5.186320493309870550e-02
1.013438332226637151e-01
-9.058747581205685295e-02
-5.638685463096730632e-02
9.301249029606373231e-02
4.280984152118536001e-02
-1.194628635302794062e-01
4.236427368053380382e-02
-1.717709399449791896e-02
-6.293927598094453679e-03
-2.858855208123008140e-02
-6.016011032983506479e-02
4.958519809426667480e-02
-3.454463995015148725e-02
-8.319585539557676490e-02
2.029282833655621232e-02
5.933733442673325142e-02
9.804452696018151059e-03
-9.940670724910952161e-02
-9.712342942071691687e-02
-3.827279367314818936e-02
-9.911625451163665057e-02
-1.017433232374926888e-01
-7.746885773113695861e-02
5.941487195667941035e-02
5.019135928120893597e-03
7.851995571571845911e-03
-6.230783070152456915e-04
4.586080915125068103e-02
1.186648465810066777e-01
-1.043229471557609311e-02
-1.110118343975870225e-02
6.209263161119293883e-02
-5.421642561118578119e-02
-1.190939098635900029e-02
-1.180335855630718772e-01
2.566130143536862751e-02
-1.009675602482745238e-01
9.557513730430641785e-02
-2.851459642654328996e-02
-1.657256434468078188e-02
1.016636220080059938e-01
2.775553731615307274e-02
2.039321209445507654e-02
9.060004868280796542e-02
-7.168703519841504446e-02
-1.403128970665079578e-04
3.841569907581748877e-02
1.093817242798997280e-02
3.897544874542455129e-03
-4.204715239512699099e-02
-8.843165308800099433e-02
-4.629722890132495494e-02
-8.831673785263566279e-02
4.221859477308570474e-02
-1.301469755024166342e-02
-8.399965814856605317e-02
2.043785129507424969e-02
-7.567755643500664875e-03
-9.924603922048436111e-02
8.682811838190870879e-02
-1.257987449797651203e-02
-7.975265600153269574e-02
4.168497515621624738e-02
9.103086872821214426e-03
3.289859055445495950e-02
-1.154506997030153997e-01
1.123540294872100165e-01
4.506894308569381336e-02
-5.715206560358261634e-02
-4.988808832594109066e-02
-4.570925242473528050e-02
-4.191041556579244709e-02
5.847518491264183660e-02
-6.030217632341795114e-02
-9.737184334601924063e-02
-1.293861407074238523e-02
-1.112145121260102038e-01
-4.370367816994710775e-02
-2.168965477877478343e-02
-1.169615519349417182e-01
-7.924309031843430884e-02
7.033943307676004952e-02
-4.605329076660433230e-02
1.136663093076462072e-01
-6.551676099935360709e-02
-8.184681231254885281e-02
-1.011668555468252517e-01
1.054784418521748368e-01
3.873476599231009954e-02
9.370580509712037043e-02
-1.160589503481494200e-01
1.095036505239991576e-01
-5.168567633351357771e-02
9.441822204851016420e-02
2.095257456002008745e-02
5.981809759132505899e-02
9.356292259934775868e-02
-3.813149977468247021e-02
5.490309569156823222e-02
-4.081915169602030879e-02
9.595476216767490074e-02
6.897552599495646031e-02
9.500516015553708837e-02
-1.022506719610305481e-01
-8.858400377284111893e-02
1.726589046446175280e-02
-2.642351492210245900e-02
3.977136321384125428e-02
-1.180349430486548334e-01
1.953230036191350161e-02
8.429977333604632417e-02
1.425822828722494995e-02
1.040650866557601417e-01
1.158241244275440562e-01
-2.069649063759584906e-02
-4.782887790038391207e-02
-8.060034211071313848e-02
1.143687385762536257e-01
1.061242324880148080e-01
1.842019646032286295e-02
9.410232350838221294e-02
8.020620589339361173e-02
-1.162920233221549915e-01
4.233845463851418356e-02
-5.166885460128875507e-03
-4.846879298928548352e-02
-9.937654421041607067e-02
9.800392992862116959e-02
2.056216734147592318e-02
6.106308468766877273e-02
6.790926497225710512e-02
6.388271869100620171e-02
6.149007618847879275e-02
-3.417370139524289474e-02
7.369015781728610603e-02
9.310398469807970590e-02
3.110700117211054327e-03
1.416787916779638223e-02
1.762965691678899938e-02
-7.254765911637763021e-02
-8.053868529923739750e-02
5.177762804280064413e-02
-5.532114975957166947e-02
1.187631069492253999e-01
-1.041210419681711519e-01
-3.337448459301659009e-03
-2.364044710072295274e-02
4.520632199140198204e-02
4.046603129507922447e-02
-3.579884576199757196e-02
1.078831334137864695e-01
-8.170262237017514306e-02
-2.582015141287834215e-02
-3.856317807775314077e-02
1.724296334874239611e-02
8.379029550955738315e-02
9.889760227917679392e-02
8.617925656693206649e-02
5.990030351584041401e-02
1.187076180928026137e-01
-5.158897748901918046e-02
-1.850331575736846590e-02
2.916994695689778538e-02
-5.463782971611520767e-02
-1.845385501345353507e-02
2.999921758105986158e-02
-9.950188955941791091e-02
-2.195798127254219856e-03
1.158688524646769025e-01
5.137938058338928360e-02
3.002394658360960089e-02
5.807986218345531637e-02
1.106707234445026555e-01
-8.596503597571514277e-02
-1.170861491600860282e-01
9.842011688574597850e-03
-7.942498487438567900e-03
-4.004805437430110360e-02
1.077164649377617689e-01
1.227557334296178193e-02
7.987274857881643264e-02
-1.375748192928957780e-02
4.916776059368443974e-02
9.851540078205212048e-02
-8.503704050623003829e-02
-3.498900010924411996e-02
1.110943943247559851e-01
5.614545258832312480e-02
1.083870404743997318e-02
2.474919067802827666e-02
-3.341428933393018885e-02
3.453969505915435723e-02
-1.091675734268041514e-01
-3.315853736035180577e-02
-9.526271002783574804e-02
7.746068937322841963e-02
6.172723133192106748e-02
1.155394621212161022e-01
-5.028715020266912028e-02
7.024664496075525011e-02
-3.740841862542393370e-02
-4.465880238631259047e-03
1.090512318838918193e-02
8.399253079077462214e-03
9.026560423557400403e-02
-5.344233663925414268e-02
-8.883517795991666133e-02
-5.684477460467930732e-02
1.517907604913548703e-03
1.012120371068663538e-01
4.957310913005819053e-02
-3.004831230259788488e-02
4.076584805420102597e-02
4.030344072286856649e-02
-8.551560219385564987e-03
-7.510533845330134850e-02
4.384363703886634545e-02
6.339733948853068513e-02
-9.490369152217320581e-02
-6.707631737649932813e-03
8.371710264922394007e-03
-1.695377365137014369e-02
-4.691898119481231755e-02
-7.069178222424520042e-02
9.834269510480977972e-02
-6.440531211442968029e-02
-9.852883424284444858e-02
-7.060465866207685237e-02
-8.928418738923213360e-02
-1.169515997646795591e-01
3.881280656493341086e-02
3.455709971416662252e-02
5.264355984135243860e-02
4.423125331293553675e-02
9.005478685894910407e-02
-1.092573954966757216e-01
-4.885744386952219076e-02
1.015771315712336864e-01
1.171185488352673998e-01
9.776952934711224952e-02
5.489076777983736832e-02
1.175092426063797935e-01
-1.100080732184555155e-01
6.576248237643947392e-02
4.282772986645999591e-02
7.454204133777020402e-02
1.141229882223992187e-01
9.017294298116437790e-02
8.366343597434541812e-02
-6.850892601444023844e-02
1.191067768049411668e-01
6.030102841960938154e-02
5.312132858243334699e-03
9.965494317800629998e-02
-5.817004128039352656e-02
-1.584832494837926098e-02
6.411465209595004766e-02
-1.741758542796070786e-02
-3.275428762124624193e-02
-1.122765002112938726e-01
3.455905497986314079e-03
-3.238599615030947343e-02
-9.768273747394347339e-02
1.634654421022499471e-02
1.318466905095347363e-02
-6.134064297024136025e-03
-1.050288999944845592e-02
-1.718678276592691678e-02
5.820357026868844263e-02
9.053163912007619607e-02
-5.294803012969793998e-02
-9.841462068278127029e-02
6.216063134609017826e-02
-6.936194389584739162e-02
3.651741162635038784e-02
2.423067441829845903e-02
1.120787489840775197e-01
-1.144803110300416371e-01
6.584639880537299095e-02
1.029586697121433192e-01
6.978414398084184511e-02
-1.762424650339627918e-02
1.184904285657623346e-01
-5.401981147719915610e-02
2.617673395454983565e-02
2.479932114644942120e-02
3.461184288623553318e-02
-6.753995220179609404e-03
3.785493405245610177e-02
-5.533236921800489816e-02
-3.417141878743452932e-02
3.444312670757912476e-03
1.010878264114540293e-01
-8.799719839323097426e-02
-9.387679639015880650e-02
8.901783488162084979e-02
4.546490226232319243e-02
-1.095505275065379591e-01
-7.376189405049271564e-02
-3.082153055979648670e-02
-5.620951968857289260e-02
7.198616251008582712e-02
3.186130088275418437e-02
5.663353792892084071e-02
7.367104536239230117e-02
8.807707553825344649e-03
9.337642205155619046e-02
-1.541214997262331521e-02
4.511530533433624757e-02
-4.344351415884079026e-02
-2.445074534849682457e-02
-5.718033041529593796e-02
-4.397571199988919988e-02
-9.780452442465215057e-02
-7.867722687304901097e-02
-9.295578809353820249e-02
-6.870495435778037341e-02
-1.013339246935827803e-01
-4.070895934450452502e-02
5.247556464721914171e-02
4.846058707346856398e-02
5.735958152546233313e-02
3.557234706984255257e-02
-7.400626958524056387e-02
2.014479786554709828e-02
5.353836738662862138e-02
-8.107625016039093913e-02
-7.467754985017785452e-02
-1.917107509025658962e-02
-4.153850131703547277e-02
1.187624778445055818e-01
7.801771884199384943e-02
9.912379201905710535e-02
6.244777767766049315e-02
4.320129891045165760e-02
-2.355507618654596735e-02
-8.373887945244556930e-02
-1.060836076946143902e-01
-2.504503499904081609e-03
9.167975522053198323e-02
8.462061854391914051e-02
5.905764983195169182e-02
4.839543716170624510e-02
-1.035007993258961478e-01
7.130787984354930442e-03
-1.030490912813959437e-01
3.559236920811822968e-03
-1.080065906423321870e-01
1.115916098022167180e-01
-1.033602106439058255e-01
-7.112756920346807732e-02
-2.284888854971794947e-02
-6.771354794401199251e-02
7.905256004223454314e-03
6.466968856735613724e-02
-9.738351283151280846e-02
1.752817119766003628e-02
6.969392332564036674e-02
-1.147170223212152784e-01
3.476617271876036863e-02
1.064316502735811465e-01
-7.069847527893222128e-02
5.249503224668858326e-02
8.304165258694654050e-02
-2.486951058208630716e-02
-2.632735219152684825e-02
-4.920505274875684731e-02
7.542263666952164769e-02
-1.132834394034575726e-01
8.486290557428513570e-02
-1.126498638028614330e-01
8.135133549459577784e-02
-2.410625914536487779e-03
-4.536494295447617009e-02
8.056717128894999580e-02
1.009360616009934986e-01
-3.989947366230145454e-02
1.041974881720119372e-01
-3.630833195088112308e-03
-1.117492244842211158e-01
7.750934824543723178e-02
9.049472536855862614e-02
9.984773576138541995e-02
5.425068762780899112e-02
2.550843333696414805e-02
-1.009072330215941143e-01
-2.221291811130864102e-02
-1.344400321679484200e-02
2.760161901695848408e-02
8.247161660041243958e-02
1.211244693945370821e-02
-6.868827356019704955e-02
-9.772190375418673969e-02
6.200501357086068976e-02
-1.082762582810719298e-01
-3.868111763132148218e-04
-1.109254394065066901e-01
6.050111624278858846e-02
-4.098640838153838617e-03
9.515513802430719537e-02
1.083129111323077876e-02
6.482229189868290997e-02
6.785238694453399333e-02
1.006720660492544106e-01
-1.093190181753010137e-01
5.310736424702103275e-02
2.753794349479296577e-02
2.213146931814291563e-03
-1.000236712501289538e-01
-1.974196794899076013e-02
-7.889325611363379176e-03
5.237544611172248454e-02
1.034783892179425013e-02
1.063402416451598442e-01
-2.344934025303332947e-02
-3.181478775984332430e-02
-8.715305564914219150e-02
-5.497363285506422226e-02
9.206848895491598350e-02
9.124954171175250761e-02
-7.495015064333890309e-02
4.531552571334071522e-02
-7.753549301437101526e-02
4.074473585133117637e-02
3.396592276653057074e-02
-9.210110275532160107e-02
3.974106783760103512e-03
-5.586309252315455054e-02
-9.837267737879798468e-02
-1.079808714643227946e-01
-4.708374598349854279e-02
7.178114454602410599e-02
4.966511912497834080e-02
-7.161715855483721804e-02
9.849184073713901366e-02
-9.055967813890634932e-02
8.179079766255800688e-02
7.199539460035878080e-02
8.180675119705846376e-02
1.445660466260190180e-02
2.236929620829652965e-02
-2.215158382744668308e-02
6.803053977903469884e-02
9.574357777618724974e-02
3.574348987041395254e-02
1.134251301690004932e-01
8.635652659129133824e-03
-1.143704746913261766e-01
1.590504220344540753e-03
7.292448417620611689e-02
9.620368092523848280e-02
-8.577152563785586659e-02
9.635308669006018012e-02
-1.058739779875155773e-01
-1.776905240365546368e-02
-6.209342725874304053e-02
5.294915062231261849e-02
-3.700452514390301095e-03
4.536744797466429890e-02
-4.891358827414342414e-02
1.006018041214160053e-01
-1.896013544856864352e-02
-3.595430050877300443e-02
4.729536380451970778e-02
8.070149689821293215e-02
-5.153740439566927012e-02
9.121253926096292708e-02
2.055843833870060755e-02
-1.583792270213921216e-03
4.296939715470837751e-02
8.007522188535204366e-02
3.416440020235236852e-03
1.168695469705462453e-01
2.587328773378769209e-02
1.077179911689517267e-01
1.035454154234801694e-01
-6.557444025010773780e-02
-8.933792887427245699e-02
-1.343971427189118162e-02
5.615031597947822695e-03
-2.492341142368910412e-02
4.496775242386871763e-02
-5.275172570174943565e-03
1.099794863065091943e-01
-9.173633259063161682e-02
-5.152655135768208217e-02
3.762924777546861055e-03
-1.105284892104825556e-01
-8.826391615132650470e-02
2.826532039322635081e-02
6.156155538923199777e-02
-5.757910484425063369e-02
1.589544197527867353e-02
7.802380038172798682e-02
3.286649219842951997e-03
6.707500229780902212e-02
-2.564049612643129472e-02
-1.156139794685692168e-01
6.016041467339525162e-02
1.104171743589985322e-01
-2.978126723885023142e-02
7.854998056057022060e-03
-3.543786901335234385e-02
-3.069827513284081877e-02
9.113546670882763379e-02
-2.697071899004939433e-02
7.310807789124923461e-02
-1.065340551021287524e-01
8.414596831126577858e-02
-1.108391450432385517e-01
4.052436523878596986e-02
9.217023865591850162e-02
1.273458071126407076e-02
1.610646153216155341e-04
4.102544289936474464e-02
5.154720742129420552e-02
-6.257654495197563504e-02
2.099389205840115902e-03
-3.314273251659381747e-02
9.464163497584496265e-02
-1.292776013198376761e-02
1.075486903810390638e-01
8.798179313050852324e-02
-1.123042665191979483e-01
9.261809711618149143e-02
3.515160291829771966e-02
-1.487422505382200721e-02
-6.000877333408732861e-04
1.127514508059115628e-01
7.429778573837433897e-02
-1.697381735892729282e-02
-5.098660891193222688e-02
1.004318213748689737e-01
-6.867115643321136664e-02
3.337621832154347157e-02
1.137250941741658750e-01
6.475772906732410461e-02
8.783678573547593071e-02
2.656291905191937586e-02
-6.657447159692894689e-02
-2.167798156031715273e-02
9.304743102246285091e-02
3.385157799612031893e-02
-9.318648867038653583e-02
7.942584782730427451e-02
-1.009269942027202910e-01
2.350563469753175205e-02
-5.912210600118109061e-02
2.435602066704939395e-02
6.348984279053948576e-03
-2.072144069455177096e-02
-1.380516771533329967e-02
2.493426202440848782e-02
8.511112856558239459e-02
-1.652960810905294842e-02
-9.728711309715981637e-02
7.490551629900299435e-02
-5.682502258603558398e-02
-7.941844582193198498e-02
5.282477379606698165e-02
-6.386835838484927752e-03
-6.802130980469163479e-02
6.490041899694221073e-02
1.128305355592124359e-01
-2.712292521978604265e-03
-7.256402719668221535e-02
1.147030939223363244e-01
-1.187256754612193987e-01
4.623118614770421742e-02
-6.167141459734348796e-02
-1.062670562203553437e-02
8.746685075035887103e-02
8.647445778031911945e-02
9.607010852382530386e-02
3.368640443524761885e-02
-8.837947962845357774e-02
-3.881101514582065148e-02
-6.272170143722696767e-02
-4.000179002079430612e-02
1.021211970007832870e-01
-2.327975637918588969e-03
-6.394302091894754625e-02
2.914167434769157627e-02
-1.182410222234094033e-02
-2.319635107006760844e-02
-4.896840994462263452e-02
-1.170191924831691654e-01
-1.822398825348892082e-02
4.370360283013965952e-02
-1.171667148756788679e-01
-5.954707626872319387e-02
-1.105620249516253567e-01
1.219149519248574620e-02
7.789645503243042279e-02
-8.215055171557664182e-02
-1.430609528597423519e-02
3.042218396414955728e-02
-9.211427670858765571e-03
8.077478101894855489e-02
6.189101859749079892e-03
-1.001785115927368297e-01
5.698141804055337212e-02
-9.142638237896237585e-02
1.184957766459401873e-02
-8.918607402697247000e-02
1.052048783088097017e-01
-2.239016482263807284e-02
8.478886438301827533e-02
6.195337567656419853e-02
-5.375029940085422620e-02
-8.248533475886180022e-03
-5.573508073916645655e-02
2.377733091212552718e-02
6.732777486733598771e-02
-1.029262236871681946e-01
-3.629011737164361540e-02
1.112124930112866339e-01
6.886754800900435347e-02
2.866738129607890317e-02
1.743385442818803921e-02
-3.677983078368221581e-02
8.051485573752617531e-02
8.237444571620197720e-02
-3.539788188617525033e-02
-6.422972026776421761e-02
-2.458620885904511111e-03
1.174862171427814850e-01
-6.366986464814608504e-03
1.105110907705713352e-01
1.157573686428340076e-01
-6.134839325815794053e-04
1.621276100880170157e-02
5.165159573068955901e-04
-5.965558558375351483e-02
4.622500408114368908e-02
2.714332202557909191e-02
8.368372579627844643e-02
7.480052361878769540e-02
-1.117296520602642784e-01
-1.132484736282997478e-01
-1.135498537788823120e-01
5.298841438682777572e-02
-4.601406964592935633e-03
6.392569781820123254e-02
-9.233275396315671069e-02
6.946045867786132533e-03
1.735550281905554049e-02
1.067909409934488796e-01
1.195860554547303056e-01
-8.388790776528293192e-03
-4.740734896575497792e-02
4.049348875286123972e-02
1.804858914958409888e-02
-9.828121600637107491e-02
3.226148363008865538e-02
6.950526310072457914e-02
-1.488599448150221272e-02
-3.927144593678624784e-02
6.380705353278101621e-02
-4.520119456950819070e-02
-6.516669290390819658e-02
-7.180993990133763272e-03
6.438049099273951414e-02
-8.319723920168370368e-02
-8.534093596228567447e-02
6.150561747441191107e-03
2.079026989763216315e-02
-9.309891488918824176e-02
-4.082202096089876386e-02
3.639588567720170031e-02
7.109566551417453861e-02
1.019407345882930860e-01
-1.104373218871001067e-01
2.567358857832727215e-02
-1.726953505392647692e-04
1.076070799593728256e-01
-9.993868194166885544e-02
9.647564918954840141e-02
1.138231271167347014e-01
-1.036641243643376953e-01
-7.508028270914623992e-02
-3.384689774880395019e-02
-7.757298496477915695e-02
-5.387929197406521320e-03
7.701775207438746329e-02
-2.674592324737549986e-02
7.785755810997149751e-02
3.333267474007226006e-02
-4.057524030685696892e-02
-8.821742178295360892e-02
-2.817577811777216557e-03
4.398117554639446869e-02
-9.764878762169131032e-02
-7.016181712726912711e-02
2.074280223456376193e-02
2.018142326605043557e-02
4.456701353706132851e-02
2.019283115559719621e-02
-7.955126327889083804e-02
7.383162371842910687e-02
8.761789815131179604e-02
1.163714383426911747e-01
8.797553059292739785e-02
-8.054665624358067766e-03
7.731704928444249614e-02
5.902576871142711790e-02
-1.044060314858299421e-01
-7.384708504925915906e-02
-2.379069351606127869e-02
-3.717507735740120667e-02
-7.036480657035767972e-02
4.032654659019904719e-03
5.938696549221947341e-02
-6.188713280855380472e-02
6.832799597104377565e-02
-5.392241884376594574e-02
4.271352504578274090e-03
-5.433704972196400085e-02
-3.878074346824476881e-02
-2.171618903711766690e-02
6.844952241123750114e-02
-9.044952223512461864e-02
2.401170686761475159e-02
1.003345001747407983e-01
9.609729672336464468e-02
8.557260966021579263e-03
-8.218820055777198430e-02
5.728818435325586100e-02
-4.717808498289817465e-02
9.386201296431054275e-02
5.203904367246808826e-02
-4.048713580817468738e-02
-7.373367772550429300e-02
6.911769971965944781e-02
6.769756246144628675e-02
-1.178879740214223287e-01
6.958314292834233417e-02
6.778141895280062612e-02
8.475926930958441186e-02
3.656167330591386655e-02
9.007504515884667828e-02
-3.246283384921266890e-02
-1.932113130427727532e-02
1.311074599282424646e-02
5.743277884769706909e-02
-8.605635157601883301e-02
-3.166144366249176723e-02
-6.204036560283300583e-02
-7.008292817906765226e-02
1.135483764173570442e-01
8.792073296097288604e-02
6.236396566641572159e-02
9.433122605727578547e-02
2.412885916727666724e-02
5.741590806106963707e-02
8.188963984645125649e-02
-6.975460151910589657e-02
-1.149855987989380074e-01
4.444339046002859783e-03
1.062399692079489810e-01
-4.819845997316944686e-02
-8.097260511484610790e-02
7.526055952652685455e-02
-7.843249863161963487e-02
3.799210387649801235e-02
9.251168398806916549e-02
3.209884508696295158e-02
4.468055947520366278e-02
-9.347209028919636897e-02
-4.470908327106976055e-03
1.188511050183178042e-01
-1.093632702470594686e-01
-5.687959266283661164e-02
-1.028259889286558537e-01
8.806084781923406712e-03
6.879381264238237925e-02
3.015871958506671779e-02
-8.958278116441047156e-02
-4.505201911709243168e-02
5.023974790309226890e-02
-9.055294750346658261e-02
9.322639195680046398e-02
1.010388938341879872e-01
9.595857160594381541e-02
-9.194983840024595345e-04
1.164102858815237729e-01
5.338135340295352416e-02
1.145373555025555601e-02
7.906104709674538489e-03
3.891046581695742357e-02
6.950333365058020130e-02
2.057491048569878855e-02
5.821373840095486751e-02
-2.943756445241178799e-02
5.776703413812089849e-03
1.356801366984630719e-02
-3.010173059228560266e-02
3.239840636937793561e-02
1.082766723054029157e-01
-2.427314702531782609e-03
-4.418344544669705609e-02
8.095771461578776806e-02
-1.126571458193972586e-01
7.251215587052134426e-03
4.420341167434496676e-02
3.528312217428850039e-02
-5.086003736703970102e-02
-7.215353736531784912e-02
-6.370697668023453386e-02
-3.089830247495206628e-04
4.506271018189783595e-02
-1.070273249029682905e-01
-1.917809031254436025e-02
1.169290062104706707e-01
9.222829469285029336e-02
-9.656643041670939787e-02
-9.528255759201124941e-02
-4.942533467951652770e-02
3.706686727262223369e-02
-7.254778770224760975e-02
4.575101211117410527e-02
-1.170270452394561733e-02
1.012885343138416883e-01
-1.529868048231565469e-02
1.740390043338302384e-02
-1.113749432889593743e-01
-1.372089033428611216e-02
5.977578562693877662e-02
-2.266581246755801360e-02
-1.167751823740653394e-01
4.477140263232637363e-02
3.338453591715559443e-02
-1.114519413608930226e-01
-4.161975966378511638e-02
-7.300305631720641064e-02
7.503043407207324322e-02
-8.688543299075565662e-02
-7.142803207885639605e-02
1.604985782997900290e-02
-6.931496358537167501e-02
9.778210315602603453e-02
-1.157858334317524718e-01
7.948621910879885566e-02
-1.153075534580484535e-01
1.102173518184772494e-01
3.307775759964717843e-02
2.761724248018987415e-02
-4.300624682573250812e-02
-3.017830044418845503e-02
-6.651912099865278649e-02
3.630797136208466225e-03
2.346764930422340356e-02
7.921168679805795643e-02
1.129058454118277988e-01
-1.152323817903704306e-01
-2.419547580763088679e-02
-5.826562158167254007e-02
1.052205941406831324e-01
4.428836166796634721e-02
-3.271721418656677038e-02
5.575797268937757178e-02
-6.011447471984061180e-02
4.928284866483709226e-02
1.027267874505951861e-01
-1.972286313179019701e-02
6.876334004842293846e-02
-6.755314014662239241e-02
8.225678473067168928e-02
6.847101415071896180e-02
-3.698455189353282158e-02
-9.018490765974626622e-02
-1.127400472931613523e-01
-8.407986126400904259e-02
-8.922340210192925003e-02
5.085219017028852484e-03
3.556772177637521071e-02
-6.311579869813191412e-03
2.767518362014567690e-02
-9.914493335674512409e-02
1.186875452958476296e-01
-1.114037150964973244e-01
5.858180853499156404e-02
-4.798921905221015249e-02
4.164991070902868131e-02
1.174860077873696174e-02
-2.776546179516950485e-02
-9.926092448706121119e-02
-2.075445142361008466e-02
8.946663874627597268e-02
8.253365480793814490e-02
-6.045233009812774061e-02
7.551105089871179565e-02
-1.027992147214839419e-01
8.843396579961312898e-02
-7.494386054489475535e-02
2.567520093889577582e-02
1.475906230710766209e-02
-7.083706045066349988e-02
4.193927948215742108e-02
-4.593190111630464367e-02
1.139417365748057742e-02
6.343137814949545428e-02
5.942608551856043420e-02
-5.422246719536323589e-02
6.814389570152040720e-02
2.229917515469465039e-02
-7.513384877917253513e-02
3.855841224818867818e-02
-4.470564435730331465e-02
-5.976805881469079984e-03
-4.668525816208515811e-02
-3.733634614478359426e-02
9.663762451029225820e-02
-9.000429077921097420e-02
-2.296585229519629290e-02
-6.357609407544637103e-03
-5.084238960402803764e-02
-1.078331896235560361e-01
-1.079916632715779284e-01
1.056356469661845210e-01
-1.037696207880768884e-01
5.082700440764004179e-02
-1.184278248231258879e-01
8.201336863366218144e-02
-9.400072799664860312e-02
9.657460804429590651e-02
-3.274217124715651794e-02
-1.089846207300074060e-01
9.278828027211727392e-02
-1.154364561528276323e-01
8.153577897597905078e-02
5.729542766465128834e-02
-2.882621305909494058e-02
-4.658668968480107753e-02
-8.247357370428404222e-02
-1.072910295936844449e-01
-1.201043364270126812e-03
-3.839883123877622928e-02
-8.149427258435523735e-03
-1.056554334965268821e-01
-3.270647754799552165e-02
-8.838459242120011439e-02
4.038296578769709488e-02
3.973531048341266692e-02
-1.140539044764627002e-01
-4.371389727767777122e-02
-1.269907644721983420e-02
1.305417990494608937e-02
-7.261367680786759427e-02
5.780542465785132311e-02
1.474123192576198838e-04
-3.892705078133014418e-02
-2.359278354931541866e-02
-4.290190634937442182e-02
-3.433936432392134530e-02
7.656219567799474324e-02
1.068478111882142367e-01
1.905858748260128022e-02
1.793928120669238679e-02
-5.959452925155327846e-02
-1.169272607257171304e-02
-8.907870714457932770e-02
3.653751412591219050e-02
9.401019005121785677e-02
2.282569129516459627e-02
-4.236417609081520597e-02
-7.730072470448737243e-02
-4.118273064032529351e-02
-6.273889204256929975e-02
-3.506665973379105572e-03
9.660465478759747149e-02
-6.412905379244429604e-02
-5.853196045469177128e-02
-4.892638413521588348e-02
1.041002962303909374e-01
1.052597958314551718e-01
5.207221228283218095e-02
-6.975571850306500066e-02
6.612199239580199284e-02
5.403878016426369446e-02
-4.213202021290758659e-02
1.156270705837752488e-01
7.573186401125200917e-02
-1.057099759064739075e-01
-2.492811655739476939e-02
-9.920978832608123854e-02
-2.047138966820155614e-04
-7.481435724595908443e-02
-6.235762196756311493e-02
-7.702060493536397323e-02
-2.135875240579497569e-02
-4.201046047599303612e-02
2.670087543359836446e-02
6.182069490801578304e-03
-5.150602746862766035e-02
-6.469114379782706092e-02
-7.406189713639790839e-02
1.977179269141501883e-02
8.368670979794351483e-03
4.338623655911641452e-02
3.036323876750576800e-02
9.793975972555318821e-02
-2.689397438431470611e-02
6.900635420850989576e-02
-4.122260119821129221e-02
-9.509817936930899107e-02
-5.338282646013847721e-02
7.048562759746648809e-02
-3.744305169754365281e-02
2.343020572013831959e-02
8.865781670139571968e-02
-1.211245386489850917e-02
1.789805252869086649e-02
-8.133564065433114554e-02
-9.653626725873108716e-02
-7.385165334254323311e-02
-9.825460396635807281e-02
6.018409993604073582e-02
1.164670054885006967e-01
3.130742076594714152e-02
9.675330488093838999e-02
1.061155593841238698e-01
-6.278710499626247166e-02
-1.056591353497815661e-01
-6.049911476755568535e-02
-1.590891215095358024e-02
4.784307747226734797e-02
1.035146748462179023e-01
-1.186603476906077231e-01
2.191334646059464597e-02
-1.145252991903251694e-01
-6.975772894099602217e-02
-7.294429525105278200e-02
-4.929974949206081258e-02
