-3.703589585919376814e-01
-2.440887955368754580e-01
-1.392148444728767143e-01
-3.319168030113158196e-01
-1.448546150058009907e-01
1.098003912610037991e-01
2.060369062513327798e-01
5.208237424934710792e-03
-2.410114245976617553e-01
-1.615202759927354959e-01
-1.340636256838728113e-01
-3.519211279045687535e-01
1.725919956341727401e-01
4.286207104886175512e-01
-1.636306687178408492e-01
-7.945782915619733489e-01
2.721171820138080233e-01
-1.079130345798106766e-01
-1.863169935121343213e-01
3.134843592836621395e-01
2.570759914907566057e-01
5.360039045133252467e-01
-2.317288741141191322e-01
-1.184282495727623452e+00
3.188538927591508809e-01
1.055575001259971141e-01
-3.928389545464104349e-01
-1.603880425424214218e-01
5.363503578759182266e-01
4.916578718916455593e-01
-1.395329654902802419e-01
-6.305251082792888706e-01
3.582791698614876119e-01
-2.373508789659511120e-01
-3.155028001189326137e-01
5.913026012908723615e-03
8.194000972504753011e-02
4.049286849321716980e-02
1.531086007108191926e-01
1.636529166169437832e-01
3.311808308418422997e-01
-3.837508600486704696e-02
-4.390907807077393255e-01
-2.554010189336512471e-01
-2.662433132886959375e-01
-3.663569847421027648e-01
-8.573094098486006009e-02
2.340923964982005168e-01
-2.859926040398954594e-01
-2.237319173172549469e-01
1.864707279419842989e-01
4.304474515157115655e-01
1.994224480039790415e-01
-4.070783081914345902e-01
-4.471179680626177211e-01
-5.713482884804357287e-01
-4.729263389248160032e-01
-2.715792635740449379e-01
4.090467755052721310e-01
5.379845764364040717e-01
5.752584710751660335e-01
-1.115937117969876824e-01
-8.589124626910435989e-01
-5.407435464070388109e-01
-5.363598964931876045e-01
-3.905841503300722661e-01
-3.102336158758203788e-01
-1.720904199858488415e-01
-1.846851364309677612e-01
-2.203056916799751019e-01
-1.297251254184563773e-01
-1.005135289988275948e-01
-2.520786542746195624e-01
2.824568300505125515e-02
-1.349198357705059213e-02
-5.093550342471853121e-01
-9.610633741766176907e-01
9.017499085653050972e-02
1.130502011279172214e-01
3.102798888929116372e-01
2.430682977505920772e-01
7.907469214462754525e-01
5.679389308985131057e-01
-1.663057560950609859e-01
-4.247500696603175863e-01
-3.676446040780487201e-02
7.133368382070408575e-01
4.563685482101764723e-01
7.638845129036804515e-02
7.250433906873011702e-01
7.497616757870452231e-01
1.461937622567041628e-01
9.928966742033459858e-02
2.274430570580826538e-01
2.751463767182920489e-02
-2.267122609365438135e-01
-4.361594084938647531e-01
-1.742241844767511982e-01
-4.907149653883006307e-02
3.260328454999601999e-01
-3.612518716983367101e-02
-1.150102953361126085e-01
-8.528209689866828036e-01
-5.424960063787227504e-01
-1.534541479603794278e-01
-4.689846456557052456e-01
-4.110066054822434367e-01
-1.346765866394053768e-01
-1.743063765179947155e-01
-5.253513620737674250e-01
-5.711169976558414518e-01
-1.385862361356399730e-01
7.573512398991933585e-04
-5.294517589487414133e-01
4.851600418780643159e-03
-3.991969878593523008e-02
2.337206752371909224e-01
-3.635727946309029179e-01
-1.183978800332745190e-01
4.138343246880613613e-01
-9.820611850532268150e-02
-1.461952958352515930e-01
3.209081460076018688e-02
6.036227773220024240e-01
-1.788689328915962079e-02
-1.073160688751380876e-01
-1.312873798392072133e-01
4.105666613094824946e-01
-2.263087304338486094e-01
-2.227970553666652198e-01
-3.164345480322911519e-01
-2.437552741626984876e-01
7.286099784866700846e-02
4.217830596015493816e-01
1.920968442786273322e-01
-3.767268156925536460e-02
-3.771738208862056019e-01
-3.105527067565280741e-01
-2.511583793032716172e-01
-3.797373911959540660e-01
-4.100576032385178094e-01
1.596114041390653271e-02
8.389282491154800847e-02
-4.050709868465067753e-01
-2.087715933544375957e-01
2.439743484674501417e-01
1.340812100630672521e-01
-6.807975087144906012e-02
-1.667158454444516713e-01
-2.386883990086605678e-01
-8.763364736440348857e-01
-3.916496520521944302e-01
-1.824943148243677593e-01
-6.358332259282171994e-02
3.226260287026289642e-01
1.670072968301601346e-01
-1.511124032251826010e-01
-1.952755728657847578e-01
1.812558238562445370e-02
-3.578774502610088670e-01
-2.360719714510327583e-01
-1.306476725366711722e-01
-3.438960738952787088e-01
-1.830825884623619726e-01
1.515881701284662042e-01
-1.762372806940984138e-01
7.599731650673693939e-02
6.688248357794870369e-01
4.049707726420321841e-01
1.976221481027805038e-01
-3.202249315515493400e-03
-3.146698404643911706e-01
-1.798378323129436740e-01
1.370759871601874291e-01
6.294229143285673400e-01
1.254313781667224514e+00
9.810881147018631898e-01
2.638860935648771333e-01
-4.559245319024311516e-01
9.016922089976073251e-02
1.034959617048777508e-01
-1.925157991628801968e-01
8.785351586414642533e-01
8.955342734642185443e-01
2.529138436343227880e-01
-3.134742804938669969e-01
-3.192429654378119985e-01
-5.486813459444388474e-01
-1.103213173397527350e-02
7.717837010326570289e-03
8.381830206714081799e-02
2.872375032763162528e-01
1.459094337227768157e-01
1.914102247228808840e-01
7.931494712352621379e-01
5.075536155965083562e-01
7.519188843656142429e-02
-7.634270039538304520e-01
-2.579882734186995097e-01
-1.275672135694646270e-01
-1.441098372949719056e-02
4.402492744613248910e-01
8.058879403539151998e-01
3.967939529561085865e-01
-5.722502224064935916e-01
-7.998892947183837698e-01
-1.414442438880272601e-01
-1.664762684089540756e-01
-1.538815118724648837e-02
-1.052184626566180503e-01
1.891442105681629682e-01
2.746745801088847361e-01
-4.709834210778425234e-01
-2.461725514593747499e-01
-6.378711913066177630e-02
6.254571432189678926e-02
-6.424590047949740867e-01
-8.603467294926990805e-01
-7.895614836463379915e-02
1.300097449178453934e-01
-1.435795134969906350e-01
-2.571097812429936832e-02
-9.414817473691368399e-02
-5.989611162721095727e-01
-8.000945854319577166e-02
-1.621156075775888605e-01
2.061963278701529900e-01
1.108891267949311810e-01
-1.539735858154732129e-01
-6.037660128392865477e-01
-1.387735094338509445e-01
-3.022436058869856779e-01
6.033652656112067358e-01
4.887313221851499745e-01
4.660500459112218996e-01
-4.887543828696599979e-02
-4.826890848761205000e-01
-2.635760744911650466e-01
4.150236493143905081e-01
8.996513432360168927e-02
-2.150315654623164915e-02
2.747687097078133633e-01
3.542648471690409973e-01
1.509326687340838136e-01
-1.805191895160873916e-01
1.669792366569642084e-01
-5.313284049063921738e-02
1.073392177039763917e-01
-8.952740172364195281e-01
-6.890100882445809871e-01
1.375131216676518664e-01
3.660574592033697949e-01
1.571943441100763228e-01
1.173633165251942306e-01
-1.996460691942390231e-01
-6.372041531613584775e-01
-4.703546100666277097e-01
-9.165758291729716456e-01
-4.656201683032122896e-01
1.171930220407586265e-01
-2.721228941553362479e-01
-9.155379726082345238e-03
-4.706567666140525907e-01
-3.861741783041962028e-01
-5.361719878314751275e-01
-1.661884956624543400e-02
-1.918025434782356375e-01
3.937048925971424196e-01
-1.096048633191581446e-02
-8.396186017307309679e-02
-4.545100329550273432e-01
-3.083772471460948794e-01
1.949320954611605261e-01
8.035982261582683139e-02
3.223786625020075847e-01
3.462694163809203474e-01
6.161868456585879728e-02
2.061845817558994320e-01
2.022591038806113850e-02
-1.496304882919113344e-01
3.033510952809779226e-01
1.122435053771873859e-01
-1.308524130948597597e-01
-3.189056236734341687e-01
-4.430828075375788794e-02
-1.322906468345047548e-01
2.840524121019476211e-02
-3.479075768574665939e-01
-3.133316544031229389e-01
-5.799661774583608764e-02
2.449626786326512817e-02
-5.759427221431195898e-01
-4.692736882623953915e-02
3.360493023486564867e-01
-2.241968541098274814e-01
-8.633045068077274120e-01
4.473471446502978038e-02
-4.469015956770003989e-02
1.765848735041449791e-01
-5.221050376476924632e-02
2.738302415609526475e-01
7.846848741416631023e-01
1.703534320159159343e-01
-6.648812718717378445e-01
-4.418526245815087572e-01
7.285090750808470572e-02
-4.910374321959805333e-02
-1.451221547239135434e-01
3.823987047042886056e-01
7.127806952321081857e-01
4.457844876298749925e-01
-3.195416304362937998e-01
-4.956326565654054495e-01
-2.469254988604347723e-01
-3.508879697808940379e-01
-4.628655674759900029e-01
-1.151545966102360680e-01
6.692558013044763721e-01
4.313041792341841263e-01
-1.262052511977375668e-01
-1.222940884431129860e-02
-2.258979096060375613e-01
-2.947848780156224757e-01
-1.742299604517687783e-01
3.083330486304696749e-01
-1.081534492198733682e-01
5.764323597468054561e-02
2.612698341173282368e-01
-1.875624852903688689e-01
-9.062019821763198091e-02
-1.327928068744556878e-01
-5.225513732458779426e-02
-3.228628043055730146e-01
8.477575219671679152e-02
2.603199240747115506e-01
8.041909540294314707e-02
-3.326536818392683559e-01
5.327417660391195811e-03
2.558843314668706181e-01
-2.312162937720808886e-01
-4.249853748298457190e-01
-1.163432383644480150e-01
9.785755368707252377e-02
4.150677362787060232e-01
-7.239498207040603317e-01
-5.713924034761500570e-01
-4.986386276139901930e-01
-8.683010921674726434e-01
-1.683960098170828729e-02
3.459185972158936306e-01
5.494959496024350853e-01
7.198040084035742248e-02
-6.704353783141817624e-01
-3.403648274997698175e-01
-6.508699719598345368e-01
-7.816554874626131522e-01
-1.515952936007361473e-01
5.182171331622790200e-01
7.628153852336219121e-01
-5.703317838708137077e-03
-3.788928617581961700e-02
-3.459421090295825008e-01
-2.254004661315337499e-01
-4.754580578136736735e-01
-2.263330231286261526e-02
6.558810566090756966e-01
3.039683927649782236e-01
9.966412125638055008e-02
1.137800601324394367e-01
2.043457888998266581e-01
4.634079309286542325e-01
3.213251496084674752e-01
1.923793666806564162e-01
2.306360211606513777e-01
-1.335273547925844816e-02
1.468954285291098338e-01
-3.203990196243653998e-01
9.189944035437133674e-02
2.265971285300280025e-01
7.205306926046480820e-01
4.968375925050453473e-02
-2.859283177007327925e-01
-3.319239841094360766e-01
1.375410215196301404e-02
-2.426688919301573655e-01
-3.815362874085840850e-01
-3.788432990184074645e-01
-3.448716627099339127e-01
-1.733797528611511762e-01
-3.222388465364129928e-01
-2.719190385135395460e-01
-3.461557899170745745e-01
1.840203918841241404e-01
-1.203723362783025441e-01
1.030691056307408426e-01
5.194387667433292277e-01
4.517537229973842550e-01
2.396890580522056668e-01
1.025726939475536670e-01
-8.744870237289672360e-03
-9.810140308404968756e-02
1.666948067380991938e-01
5.905462189560140018e-01
3.781817815852632214e-01
5.994886546013669104e-01
3.427061795046295600e-01
-1.297849136135311165e-01
-7.413615438878565223e-02
-2.306264010564848255e-01
-2.725313396630674179e-01
3.024501082826003828e-01
3.030472586765192017e-02
-3.353645863377333614e-01
-8.920630367963897633e-01
-5.571664837775676116e-01
-2.748894181987173724e-01
1.141714841168329914e-01
-1.766163125013129054e-01
-5.045324190814141074e-01
5.246840150721485824e-02
-6.095099789775054733e-01
-5.456099684588975318e-01
-4.287194107179084224e-01
-3.813707881814447087e-01
-7.340821960359002196e-02
1.738711019981821204e-01
-1.077737434895569141e-01
-2.372782125628447591e-01
-3.472631899894204621e-01
3.868902572721390487e-01
-2.175787227380599764e-01
4.201414171702203548e-01
5.946017201586295542e-01
4.041920252711339034e-01
-3.341284202784719493e-02
2.742406895546310730e-02
-1.984913407811688124e-01
-2.074561477980670088e-01
2.413028049196378755e-01
-2.343615538655965114e-01
7.025975978271168376e-01
7.783532125702002924e-01
3.662398960541682902e-01
-1.270641483000805871e-01
-4.097741627892444449e-01
-6.189813330081861409e-01
-6.468192925863647247e-01
-8.296778369966385791e-02
-2.186695063616714563e-01
5.520451297751473654e-03
1.267398856514341532e-01
2.440665528192971848e-02
-3.905675385534124744e-01
-1.386697634046039906e-02
-2.148021508237699384e-01
5.543355517267930382e-02
8.428224897873952057e-03
-3.459957916050480642e-01
-3.064168831582445574e-01
-5.731229111412785571e-01
-1.377011667511384707e-01
-3.155120609958020350e-01
1.556392659070858775e-01
4.946156795561706954e-02
-3.391963799225101717e-01
-2.720767575117691295e-01
-7.458805096391883660e-02
-3.984537426305657659e-01
-3.349650566611970803e-01
-2.236320839818732031e-01
-1.139263448541823626e-01
-4.856466091754023384e-02
2.599204321796358963e-01
1.715499635143300783e-01
-1.606906354347688026e-01
5.724918655866656492e-02
-1.454986234263427047e-01
-3.574752809359554862e-01
-3.942010624330055668e-01
-2.688026403515888507e-01
1.897348714243461687e-01
2.038621418424987897e-01
2.671297236066525471e-01
3.944335968817389571e-01
-1.469163763723623506e-01
-2.656851526055726831e-01
-2.261838552854575080e-01
-2.332627552247281688e-01
1.377962860478931621e-02
1.248101393596271619e-02
2.847549988076784055e-01
5.015731556527570634e-01
1.700285964089489066e-01
2.582954584989977098e-01
-1.446229178413730443e-01
-6.086626734258172161e-02
3.763973152636527347e-02
1.006253896551870808e-01
8.589992285651093518e-01
1.256972267660373399e+00
5.409259840527267382e-01
2.800190587387041963e-01
1.897536786061954917e-01
-3.466497764509585133e-02
4.958470961046439474e-01
7.123551148761829710e-01
5.550175324694489598e-01
8.288053540999931190e-01
4.304368976990647910e-01
2.129240478285810700e-01
2.718458549732198914e-01
-1.142328177566942077e-01
3.122514886721087235e-01
-6.487820296001980402e-01
-2.370303470057679718e-01
4.757917190284651765e-01
8.644093223180863983e-02
2.292766545924872779e-01
2.990019851716809729e-01
3.054552568455347061e-01
-4.114227141127348997e-01
-1.236474993458442917e+00
-1.313228294535843665e-01
2.235504049139312999e-01
2.878150717516921378e-02
-6.512538841068420403e-01
2.025181644995498464e-01
4.908116501204787818e-01
1.327458046908975564e-01
-5.312127242446629261e-01
-1.335949825396318125e-01
7.064387361834807422e-01
-2.729693144776625391e-01
-1.369818640042267166e+00
-1.382682547378729088e-01
1.175635295779784151e-01
5.200286862792884435e-01
-2.320352485715231061e-01
1.326319526024804518e-01
5.044590259111729758e-01
2.275375043220778312e-02
-6.984259021736451967e-01
-3.491171833157274418e-01
2.236193687929871055e-01
4.208420052641300702e-01
-2.559452891048700218e-01
-3.620305450930812463e-01
-3.064974447619574216e-02
1.563466958902928194e-01
3.456688266753539240e-01
1.509847849525115526e-01
-3.500380139138923458e-02
-1.978195500313070787e-01
-3.465472464657629592e-01
-5.468803321336904721e-01
1.743782511858110729e-01
2.951786091703458847e-01
7.782795264516782774e-02
1.029770240445437857e-01
-1.000767899370508113e-01
-3.081806474964289277e-01
-2.525908482075588934e-01
3.242823381925523107e-01
2.337825891331592743e-01
-1.540623850399464867e-01
-4.410251283389255983e-01
-2.620072618137923581e-01
-1.978067444246709716e-01
-4.162193603571109346e-01
-3.107263635833863447e-01
4.348155049433095054e-01
3.048665864770793224e-02
-6.624892910486811504e-01
-9.051913625413440245e-01
-1.904313501522290342e-01
8.827681602441497799e-02
-4.267873880960421085e-01
-6.638239439190989771e-03
8.266845607299364018e-02
-4.951771412206779632e-01
-4.408627485834359927e-01
1.803630713619820136e-01
3.050319741432544474e-01
-2.813555185388397772e-01
-5.278660573112306867e-03
7.946432997110149110e-02
2.355915886922689551e-01
-3.547858172006906341e-01
4.210796927675870133e-02
4.166923772770724232e-01
1.455687870866242406e-01
-4.945167212762391351e-01
-6.079224833487276713e-01
1.803933587708000941e-01
3.540072327672729724e-01
-2.136217799198000533e-01
-8.072165214449922299e-01
-4.304083283641137701e-03
-1.610794757854334958e-01
-3.294820326077654293e-01
-1.401196270771472852e-01
1.460757671636536414e-01
2.071349861410283488e-01
-5.373977729484509525e-02
-1.255353091428562884e+00
-8.046835533717925371e-01
3.423845544247860473e-01
3.999896512079859079e-01
-3.451649290749557730e-01
3.526908727442631397e-01
6.084446978016974095e-01
2.561968111562373251e-01
-2.657917928402697139e-01
-3.637428822364082159e-01
3.042316824039845158e-01
6.279642471159206929e-01
-6.822023173874518509e-01
-2.078398291812969534e-01
3.785335684035902593e-01
2.474860889378337481e-01
1.062603639519403564e-01
2.230584009281879054e-01
4.951952092770533498e-01
1.509991348151508428e-01
-9.524907752561955210e-01
-6.894884974028417934e-01
-2.629155865895501654e-01
6.857913671996001582e-03
1.349649601450995662e-01
-5.608921309293043653e-03
-3.018816811496737307e-01
-3.392637110672006573e-01
-1.467132728697052579e-01
-5.134194769722345668e-03
-5.312435331331851612e-02
-7.929325489862726339e-02
6.295034737265001179e-02
-9.542167257698007388e-02
-2.523100643197964676e-01
-4.651529339679327246e-01
3.510749794505129695e-01
1.594376189145810530e-01
1.994082480094277465e-01
-7.492148983683728780e-03
5.626596361242540423e-02
-1.209462291294987057e-01
-1.414269406704357634e-01
-9.204238591211312548e-03
7.562310146090994722e-01
3.427456194901024600e-01
-3.366094194995746802e-01
-4.963286836266834201e-01
2.106241015747805367e-01
-1.335883389011841282e-01
2.881416387392223832e-01
3.088206351324431775e-01
4.968136684957122906e-01
4.716912889672166681e-02
-7.432967771202122487e-01
-7.045802388090860457e-01
-8.388895710422493435e-02
2.112543602238231288e-01
-4.157621513759529597e-02
-6.286946215273388205e-02
-4.652307099660642209e-02
-3.172563673207997592e-01
-2.880334984687288324e-01
-1.979812642747823814e-01
9.447681249414702220e-02
-4.497851122193492063e-02
-7.325667899715840869e-01
-6.877922675387941887e-01
-9.656369311480232642e-02
-5.953584149851790519e-01
-1.823225500026471046e-01
5.134610430091348654e-01
5.465235465908525603e-01
1.337309380006889425e-01
-3.697430577266026530e-01
-4.448023993797956543e-01
-5.520159410106977305e-01
-2.989387182906856899e-01
6.552535263108759389e-02
3.310482231597841607e-01
2.698068740613214778e-01
5.781152582724218281e-01
5.244621959149471380e-01
4.044824266606308338e-01
-2.948226870897289187e-01
-5.155403912224526541e-01
-3.594041088610023249e-01
-1.442177105355066033e-02
-1.740709166545490183e-01
1.510700572498425986e-01
3.384666349739043900e-01
2.138925891526342327e-01
4.842307108254316548e-05
1.978257554350018252e-02
-1.057794676598111661e-01
-3.870755528530565592e-01
-6.360449167881531141e-01
-6.012199467806907949e-01
-3.032440289927974542e-01
-5.397097976449350965e-01
-8.998098414609354001e-02
-3.627366153173712804e-01
1.348370964387788640e-01
6.239800245870377182e-01
4.451491516371741120e-01
-1.473689372090146721e-01
-4.400325253408255977e-01
7.964917549283608011e-02
-2.456747808455009841e-01
-5.443502495287989573e-01
-2.185193451703726919e-01
6.439494841604492814e-02
4.654441566413023423e-01
-4.026689787442939150e-01
-6.040854969423409271e-01
1.356443675426613205e-01
1.560506677884426763e-01
-3.456279228909690526e-01
-4.945825353196342533e-01
-1.639467903624119245e-03
4.415999159395823104e-01
-1.661674453903881354e-01
-1.003853368399401508e-01
2.886803741301640081e-01
-1.184345192431272981e-01
-2.847222862739288152e-01
7.719496072247308827e-02
2.959079073301868479e-01
2.970385440956545553e-01
-3.103526159446987065e-02
1.677580011091069079e-01
2.932935911630704107e-01
-3.372711437959354241e-01
-3.262808643423645294e-01
1.917658254906024207e-01
3.591198641174654371e-01
-2.746813312730764789e-01
-7.074223490393470870e-01
-1.062500166507018493e-02
5.830518099266995824e-01
-7.778199174123107129e-01
-9.382372319223551971e-01
-4.060088170842191535e-01
-3.442344175988901744e-01
-9.076942639119983669e-01
-4.735997170183461891e-01
2.935793315197506859e-01
3.080876034447089795e-01
-2.855016384683406461e-01
-5.655027869555493414e-01
-3.704182581143649067e-01
-3.592591373982582104e-01
-6.423751471057143059e-02
4.363664513182022309e-01
5.838676689581916157e-02
1.910151190546746924e-01
2.206014461737859644e-01
2.552237080688588566e-01
1.866170085025792846e-01
1.639323889551499713e-01
6.507141418212245565e-01
6.900808559881905779e-01
2.727316843833542115e-01
-4.771184200975076006e-01
5.749766697461355242e-02
-2.367292390140779135e-01
-6.092586491481289945e-01
7.106469480535054783e-02
2.413826612763484702e-01
4.598002436309455154e-01
2.419469350780862338e-01
-6.284206948613801913e-01
2.843433572951655983e-02
-4.840820271761369087e-01
-2.718528593757337797e-01
-2.683981552291370143e-01
-1.209021079548203564e-01
9.159895245178817369e-01
5.453193109288146934e-01
-1.206226954818004488e-01
-4.438742087864209762e-01
-9.071563616572058120e-01
-4.748255892398391409e-01
5.305255498016412524e-02
1.509235996385366492e-02
2.955166073833499496e-01
7.456135989883005966e-01
3.265906154664858230e-01
-8.331546173071658901e-01
-7.621925240940349289e-01
2.177859756434536720e-01
3.603328804339177016e-01
-1.429935230887509519e-02
1.041425946645683082e-01
1.938794700169553520e-01
-1.588817973760056623e-01
-3.888587749776270530e-01
-7.007564548335545318e-01
3.413398517615876537e-01
5.552663429903572645e-01
1.815836813295694518e-01
-1.280133100759150433e-01
-1.780035993505753034e-01
-2.604053065813217716e-01
1.509280075111625041e-01
2.035495493285000013e-01
3.474260367228671487e-01
1.499896227326339149e-01
1.022606219113092046e-01
-2.884230942550513599e-01
-3.528472936385313452e-01
-4.839683807144198324e-01
2.929132129036791654e-01
6.081086867194293588e-02
-1.578889573363861376e-01
2.983173202934503651e-02
1.210128868413033604e-01
-8.688345289725578693e-03
-1.797001848827655401e-01
-2.524399854026633250e-01
2.094901054885438263e-01
-1.223319573493580614e-01
-3.985749145638974866e-01
-1.798153341308177389e-01
-2.163558737123162656e-01
4.449276891772574460e-01
-4.670144504800555207e-02
-2.912923658613532085e-01
-3.977793606733416865e-01
-6.643877120316818430e-02
-2.368322429729338360e-02
1.932133396563867622e-01
4.373676870643936065e-01
8.824214872730977433e-02
2.705857418178168605e-01
-6.201622492108908868e-02
-4.609381152974168644e-02
1.232435797390738219e-01
4.709437386586068919e-01
2.523766638331815249e-01
2.577792453834373276e-01
3.547574800014739460e-01
-3.066595142995710011e-01
-2.614982405701798962e-01
-1.014759318846892439e-01
-7.881040996737241622e-02
3.820068557579687218e-01
4.195437339565750712e-01
2.287331971886129856e-01
-1.937164576654060444e-01
-7.050947147179988939e-01
-4.395924954016652286e-01
-5.428542910249067183e-02
2.837941618911803965e-01
2.828972230867434767e-01
3.266080125537366707e-01
3.634019615902822076e-01
2.165211543644438852e-01
-2.499832677282342874e-01
-4.234143609928421315e-01
2.301590127499912319e-01
5.869033902688741700e-01
2.593091034698808972e-01
3.462149780503779861e-01
1.199111436830416350e-01
2.333548708627355694e-01
1.437777604943281662e-01
-5.281534671756784455e-02
7.402512428355829954e-02
9.089821035176993969e-02
3.076660826593065963e-04
6.630344412428829104e-02
-3.056922053074088708e-01
-3.471330272402567974e-01
-1.539595182200472201e-01
-1.039615614625003914e-03
-4.053278941211396758e-01
-7.323393039103417435e-01
-6.358634802929579166e-01
-7.731403668581627864e-01
-6.417441926286021614e-01
-3.735028272898187618e-01
-8.591486877368463559e-02
1.121881027578126577e-01
-4.016892747664965180e-01
-8.734751371252582608e-01
-1.027671041472302482e+00
-7.033612974170764254e-01
-3.108885141607379277e-01
-3.018403068900434305e-01
2.179222821596205895e-01
4.992378319704989798e-01
-3.090808588455853587e-02
-3.232921019983885924e-01
-7.714940099002101093e-01
-1.778948956691686623e-01
3.481908328419389687e-01
3.880485702464560593e-01
5.827463920796101260e-02
5.212986635058888263e-01
2.951571719806712624e-01
1.085403427417940686e-01
-4.903004386310235163e-01
-1.278062048812807217e-01
-8.822059948659469186e-02
-1.464353033918556479e-01
-3.330206713313774713e-01
1.032156706110598510e-01
4.509103469471693049e-01
5.220746018487624207e-01
-3.856432098446402890e-01
-1.727453207197010288e-01
-1.982423895456287000e-01
-2.967978496175499581e-01
-1.055123200654074500e+00
-1.708695677138415414e-01
2.394506795975413077e-02
-3.015137786850899740e-02
-2.889096383702167148e-01
-4.666625210133085733e-01
2.014366922827708350e-01
7.925687303543912932e-03
-1.861429062048444161e-01
3.850820805953489301e-01
-8.959110535965182365e-01
-1.707832859626218502e-01
3.517141885385885458e-01
-4.093342444138409197e-01
-7.680734924010772235e-02
-2.984909525361882365e-01
-8.919612711667208871e-02
-7.575853588609610112e-02
-3.619124180809377145e-01
3.946407598836244035e-01
6.416233899917699324e-01
3.686462499929291647e-01
-5.687808800920358676e-01
-6.763606280988448960e-01
-5.168075745109990127e-01
-1.549314038555285877e-01
-1.840603040929732204e-01
6.531442319651019623e-01
6.671562942010483832e-01
2.517808638638816543e-01
-7.811850694254369731e-01
-1.180804095645565793e-01
-3.831683976629369770e-01
-1.735782175435873764e-01
-2.857866381888162222e-01
-2.307154177721538330e-02
7.753211412300588246e-02
-5.224478540400794291e-01
-1.275471243432068358e-01
2.037858748294770761e-01
3.058716950247795663e-01
-6.924890757769219807e-02
-4.189824500622016945e-01
-3.887945845592670757e-01
5.623271819351575163e-01
3.573714002726268713e-01
2.568288016067460725e-02
-1.798900969057995181e-01
4.761588850315897486e-02
-2.873636035798395882e-01
-7.352418680162634557e-01
-2.725791095680649700e-01
1.301330120930214440e-01
-1.728193151271457395e-01
-3.145279000904396133e-02
2.954336403686078083e-01
2.366471116929250509e-02
-3.622956365980780080e-01
-3.538938758354820968e-01
-5.217028428438520438e-01
-5.061911723817974496e-01
-5.065564517076004414e-01
-4.782032217260294149e-01
2.460502307926309140e-01
3.898168537743781359e-01
-4.013697501523521421e-02
2.163276334223944164e-01
-1.520883681462290027e-01
-6.584641801067044886e-01
-7.453677886066071290e-01
-2.350748281619469970e-01
2.002657563255168804e-01
1.266158187206011809e-01
-2.612188109319354967e-01
4.117623797578194300e-01
2.348329193947588378e-01
1.170160522608134496e-01
9.551719446222679821e-02
1.155149958557809553e-01
-1.529391605664761622e-01
-3.245131002793820441e-02
-3.863059467024932414e-01
1.810442173910069841e-01
6.852120796756208665e-02
-1.415745285659682738e-02
-2.568376156548541900e-01
-3.530522197646201454e-01
-2.205198588980986363e-01
-6.061384023963926893e-02
-1.888749520839705376e-01
-3.778491543892779636e-01
-6.215861869683374924e-02
1.335665649168349678e-01
-2.073892925547760335e-01
-1.070107742207961898e+00
-4.954318685093127006e-01
2.947993154514655378e-01
5.935063453431461689e-01
-8.558935387969479613e-02
4.048519243411131119e-01
5.888456702977024060e-01
-1.579942116288870213e-01
-2.776027633530431804e-01
-2.999802330285771257e-01
6.740606221475927695e-01
7.717886643713280925e-01
-5.200255282440380267e-01
9.826857002498613769e-02
6.130863296081306979e-01
4.269577570739077066e-01
1.954085749962433671e-01
1.189841216460333084e-01
4.783266804285688650e-02
-7.110766645603365521e-02
-3.419224440552351973e-01
1.934756729270684927e-01
4.434346415226091409e-01
-6.914303849198075169e-02
-2.074028681544148878e-01
-2.556858821943704951e-01
-5.398025168110006655e-01
-3.116250538263191094e-01
-1.218641683312074175e-01
1.299032957553333256e-01
1.091972739810862653e-01
-3.357332356300868348e-01
-6.027940006290682939e-01
-4.544424209915788326e-01
-4.508191881059870898e-01
-3.553077122921368680e-01
-2.126622678272230005e-01
2.173809331334339290e-02
-1.083166804023754856e-02
-1.680071796475230972e-01
2.015080321409557229e-01
5.253822914502337404e-02
1.699098294022647060e-01
-1.284760799790236607e-01
-2.918441293805569270e-01
-5.115111532505178804e-01
-2.100419853494697453e-01
8.054441455585339971e-02
7.697897976645682316e-01
3.273631904339251442e-01
-1.417114841634880759e-02
2.681878785896622541e-01
-1.565403204144863447e-01
-3.119923974612310302e-01
-3.622077955969163487e-01
3.246158593568212319e-02
2.108318757357685314e-01
1.152150346755205501e-01
-5.012130510857477628e-01
-6.826760718769424585e-01
6.117047417229078965e-01
2.881323787270269055e-01
-4.492296294079038410e-01
-2.680893694200356392e-01
1.014529492079683376e-02
-1.994264266605272617e-01
-7.103469985139088116e-01
-5.961446833238241982e-01
9.308353998782754601e-01
5.273294144303788400e-01
-5.383310769463992701e-02
-3.402374246814257597e-01
1.518093153655034333e-01
1.522696823596474819e-02
-3.433831373639918416e-01
-9.692900908961427087e-02
3.019731821123010085e-01
1.213620267352453763e-01
-7.356086400080114052e-02
-3.261829472150602066e-02
3.003753449297372757e-01
1.215563752504246336e-01
1.431341016147681944e-01
1.979181536718511991e-01
3.872650527453316144e-02
-1.197126460632703115e-01
-5.190283115238283340e-01
-3.458067531704721587e-01
-4.611926716727533515e-01
-8.771395946283352951e-02
3.813161516268248064e-01
1.878335805510914294e-02
9.930888848717345230e-02
-2.617493728389382324e-01
-4.538183950696845770e-01
-4.416635347539900058e-01
-5.101409691956383385e-01
-2.570001646374637794e-01
-8.360722430815917261e-02
3.594133797311671596e-01
3.366658416511094654e-01
4.522067142068401657e-01
2.904092820050990786e-01
-1.407317177270873132e-01
-2.853339938777323948e-01
-6.914650069408347088e-02
1.796491650864659451e-02
-2.816970296609122570e-01
6.363639286139209927e-01
5.637647023946706915e-01
2.048527747984274505e-01
-2.221887105618681191e-01
-3.328032437124151532e-01
-1.168239100886047238e-01
4.840060316638539889e-02
-2.319805354586643997e-01
4.520175496015667593e-01
4.196914452940713192e-01
-3.613851313837413981e-01
-9.930092962435187465e-01
-5.016082815293549935e-01
3.222427820663784082e-01
2.446489858507549797e-01
-2.673669002854696108e-01
3.009611345686558082e-01
7.460153891214237054e-02
-4.594610175566234966e-01
-6.066631842870622293e-01
-2.924556021082130308e-01
4.451051809187783204e-01
-1.692879838513566548e-01
-6.620082153924367052e-01
3.384953882660346469e-02
1.166771129212242353e-01
-1.163493895316949772e-01
-5.808079954178951843e-02
2.389142549198574050e-01
7.754505938613578953e-02
-1.849841728308623812e-01
-9.493712297932743738e-01
4.931121864999387094e-01
6.046771640034758200e-01
-9.166419204317048652e-02
3.415176615137319738e-01
2.565869907354173529e-01
1.018088888379964779e-01
-9.452297111859693235e-01
-3.924594996200923003e-01
-1.488776814571375062e-01
-1.387835571442899429e-01
-4.147423157665611204e-01
8.686211599752368534e-03
6.265324664119146236e-01
-9.243599880635555710e-02
-5.998976406940484951e-01
4.891478978582492615e-02
-9.037568674179641270e-01
-4.254545355269264140e-01
-4.239417140570748144e-01
-2.113292649125233236e-01
1.787447936379685243e-01
-5.325508796959721155e-04
3.576880431635112018e-02
3.325965309229990674e-01
-1.828119775303028438e-01
4.969193027335598312e-01
-7.007275353495744097e-02
-7.931921504265704304e-01
-5.617707418785221618e-01
-6.837889084376351512e-02
9.867270248941471811e-02
1.303913041648492865e-01
7.043923130869124416e-02
2.596538420834532679e-01
-1.446059314830439591e-01
-5.785376455532099671e-01
-3.417403457704039083e-01
-4.906322657983160362e-01
-6.882988712527271513e-01
1.080832589779335412e-01
1.299363143811407273e-01
1.036534125040111387e-01
1.106791695892115485e-01
7.491115800440525940e-02
3.327320473904482601e-01
1.234675107151375212e-01
-6.455297662129465541e-01
8.684146013012603027e-02
2.466556001761630590e-01
-1.345570835505574270e-01
-5.016283235102770854e-01
6.752817836206629343e-01
5.469140733027023638e-01
-3.044018759168200527e-01
-5.245349554062043174e-01
2.385359592200703704e-01
5.970511502303807450e-02
-8.626331854997829618e-01
-6.559792710592742271e-01
-2.812657818984435898e-01
2.222312324442579090e-01
-4.838299189526944488e-01
-4.578167079300149434e-01
3.043593548383567993e-01
1.346473009369122675e-01
2.597412160677803339e-02
-1.697395781012211446e-01
-2.264682775888919863e-01
-4.514487969606013618e-01
-1.501657643395571395e-01
-4.210386543298872408e-01
-8.774246489966874840e-01
9.560220952764298952e-01
5.612564797051344812e-01
1.560762912050859541e-01
3.545694447804450533e-01
-3.469209856266837200e-01
-6.594304003534423586e-02
1.099046094458970210e-02
-5.400729340849039772e-01
1.056895351246844639e+00
3.287069916066442943e-01
-1.588673383470156075e-01
3.202531129198422227e-02
-1.238142702418583985e-01
-1.978657395533248986e-01
8.854651192546826588e-02
5.291999615218805943e-03
5.392369501128341236e-01
-2.704740104963208602e-01
-6.877854098647190328e-01
-4.586999010832319978e-01
-5.839777974023550033e-01
-4.294684509579875797e-01
2.061862622524699984e-01
3.747968800970832848e-01
3.999246676799028677e-01
-2.821505677518882371e-01
-9.796853269261278641e-01
-1.472441444527365084e-01
-3.902602585773634614e-01
-2.741117409027770124e-01
3.105997284550073845e-01
2.846762587620833007e-01
1.660904217123876647e-01
-3.560636472850700063e-01
-4.279903048288181688e-01
1.909204059803804587e-01
-2.624323853751115939e-04
-5.296318255960286159e-01
-3.471287358060327621e-01
-3.356835446036979254e-02
2.160236581566648828e-01
-3.250410201086175177e-01
-1.526191622016636606e-01
9.793536486793817664e-02
3.252539530612777452e-02
2.990550092878057134e-02
2.461931625612341547e-03
5.378000886831670047e-02
4.921999296766122606e-02
-1.714497453637908383e-02
-3.079432481057045035e-01
2.015549121585725190e-01
2.417809703109598252e-01
2.585070164566009021e-01
5.082135335608515270e-01
4.609369670646068506e-01
-4.095726826080185456e-01
7.471091358086688616e-02
6.307015858550399368e-02
-7.715413238292179177e-01
-1.099888849727268525e+00
-8.232999851734432717e-01
5.946194427939434091e-01
9.655312933690721744e-01
-2.979807374848690849e-01
9.577979979274532651e-02
4.400371727080972795e-01
-2.921045364510185260e-01
-3.807361332990643055e-01
-5.755894108073495580e-03
4.127682415337400323e-01
7.965459097305207514e-01
-3.923945624042041724e-01
-9.719139720246482150e-02
-3.901870681617078951e-01
4.182312653532804791e-01
4.334786550973011576e-01
-6.267401125555659147e-02
-1.859231538530806971e-01
3.115834525267340352e-02
-3.846249921680434669e-01
-5.731452398938695625e-01
-5.212199162907297234e-01
-3.979798265454022044e-01
1.983059362681680593e-01
-1.945407216897741265e-01
-1.996322318633831916e-01
-4.969955933984401136e-02
3.541677770308244155e-01
-2.541851725197254996e-01
-4.257078246650957687e-01
-4.673676742337420920e-02
7.690306934211466050e-02
-4.011000899629340588e-01
-4.713501205755352141e-01
2.179453317907480148e-01
8.406144325324385602e-02
2.600664143523453986e-01
-1.398112192469418702e-01
1.977269028414607166e-01
-2.777137108280324299e-02
-3.671147641881263302e-01
-1.302684211276499415e-01
-1.203094718670671276e-01
9.234686732201775883e-02
-8.313686456331323416e-02
-6.038490692759773681e-01
-2.514110637263512471e-01
3.596055433428774206e-01
1.867035732240771018e-01
-1.247724826377634572e-01
-1.760216813879445230e-01
-2.239845403009179184e-02
-3.082682136788921778e-01
-5.022897268983695929e-01
-2.762027337103105107e-01
2.815185601280126293e-01
2.467366149491219962e-01
2.615030050532988204e-01
1.932273561437931331e-01
1.116161484187864650e+00
9.272197685571121895e-01
-4.332800073521175799e-02
-5.814889199874917480e-01
-5.586959564106142029e-01
1.974000654105145455e-02
-1.038201231778826256e-01
-1.705896604860747956e-01
3.262627662227675085e-01
1.420955223886659347e-01
-2.258699646274858752e-01
-4.853254107124376215e-01
-4.201768522669408479e-01
-2.291017093086966105e-01
-4.949191180902716702e-01
-7.429550137109530716e-01
-7.129231156879192177e-01
-5.450886432498034395e-01
-1.587756986910303092e-01
3.308220488932761549e-01
1.253011649452868137e-01
-9.832438124162951043e-02
-2.156555489878985155e-01
-3.284561303771745822e-01
-6.471323111570628228e-01
-4.132442409138943618e-02
6.612852057905357350e-01
6.238005163587013735e-01
1.868590249766349798e-01
1.134748070515460838e-01
-1.212153510966895442e-01
-3.906927865956432155e-01
-1.983093011862928079e-01
-6.796547147782096288e-02
8.200840204805683042e-02
-4.720294728583049326e-01
-8.986061910985880530e-02
3.423924499551755929e-01
4.334365384631509548e-03
-1.672391805663497322e-01
-5.203371611773068839e-01
-3.899414782677672053e-01
-1.719184371370237330e-01
-7.280791869174141340e-01
-1.557384028256826036e-01
3.756609707751045607e-02
-2.206525553230367087e-01
-4.813244241991617711e-01
-2.455801213586372989e-01
-1.635477592369001879e-02
-3.427649233743979701e-02
-1.068512475358346092e-01
-2.321017406287048390e-01
-5.885640927409194201e-02
1.175340036871377059e-01
1.608429674747626492e-01
6.647824246481885690e-02
2.723223240479015206e-01
4.430120185659650600e-01
1.998936681509270730e-01
-7.754611519951497278e-02
-3.645816838984006908e-03
4.918802149722443784e-01
4.744591601292453276e-01
5.621664525733562068e-02
3.053281139760710694e-01
5.621734917221349326e-01
2.760558243611513918e-01
6.806265387696781577e-01
1.114519169448218161e+00
1.281248733126415962e+00
2.174211084786217829e-01
2.134392781016126173e-01
3.512772736196355106e-01
1.111131558754729076e-01
1.876334524250450886e-01
1.426342573384233869e-01
5.590892928487924962e-01
4.319360257381872903e-01
3.118690550658874683e-01
-4.472370713458446306e-02
2.296463346667007230e-02
1.044248790929595827e-01
2.028209314192423729e-02
-2.815800875869076125e-01
-1.170422732693539025e-01
-1.962138045880222892e-01
-3.052169294778018238e-01
-4.524356549671863098e-02
-1.432765293143174190e-01
1.145496348536459430e-01
-2.899586140378817567e-01
-2.603425581568664660e-01
-3.025434046446543457e-01
-3.949005555328212735e-01
-3.365348008378065137e-01
-1.472856064260845976e-01
-2.700824510357262564e-01
-2.137936699967886711e-01
-5.698789609641469189e-01
-3.827202958339132599e-01
-3.249262250848155564e-01
-5.496336361797704573e-01
-3.682474529346407288e-01
-2.838569179956385025e-01
-6.007463213407061159e-02
-3.007921152313781099e-01
-3.075501490006719019e-01
-8.924336024100958109e-02
1.828590392575589474e-02
-2.765563634094164169e-01
-3.039580759883554473e-01
-5.238998046712904644e-02
-2.781176147358139783e-01
-7.700394360330717336e-02
2.619582649662740570e-01
1.961573569985177179e-01
6.934652456976160562e-02
-3.823875543370678504e-02
1.480966727213360867e-01
-2.862091064885103567e-03
-2.902117425420110974e-01
3.431547621080358046e-01
2.432188599057639317e-02
7.162943995462526248e-01
7.572601461735594189e-03
3.338196905901076872e-01
1.652727240492670724e-01
1.588101619542924281e-01
2.998970280291972101e-01
2.565653580911442244e-01
5.413717571420158942e-02
-3.049564442707013434e-01
3.890124696331242332e-02
-6.637135800359827628e-03
6.080599618798435135e-02
7.879573000675665906e-02
3.977284250498416274e-01
8.243279515650421552e-02
1.241585243083243723e-01
-4.032003773937609115e-02
7.810486950987391430e-02
8.083816895120701784e-02
3.196261346203689291e-01
-1.672980500948337002e-01
2.121433662724326319e-01
3.053862339238733181e-01
1.589710615268963845e-01
4.495468983135529895e-01
4.161292059070853533e-01
9.178416433957891085e-01
1.241649740267455060e-01
1.661104735199982751e-01
-9.154958414052147969e-03
9.060150164754542101e-02
-5.094483103648073108e-01
1.389771024139608013e-01
2.226380235246565864e-01
7.593157885144505848e-01
3.891321792998236329e-01
-2.174261036506515421e-01
-4.118614931195396234e-01
-7.739247562648017553e-02
-5.289919569785940245e-01
-3.582419382836705135e-01
8.058246669280295926e-02
2.838109763343349412e-01
2.296742045488182060e-01
-3.530664823827476817e-01
-8.176827137674938517e-02
-7.783038195345343135e-02
-4.977563374618073633e-01
-7.041558519590510601e-01
-7.536486600994096730e-02
2.737635294195963631e-01
-5.984346916212741202e-02
-3.537098297275923509e-01
3.328190517069992693e-02
1.149097119820021023e-01
-1.874224763964871809e-01
-7.509543523951336397e-01
-4.721920434114607046e-01
-1.242292395659805732e-01
-3.518202993697827630e-01
-6.555519896260639245e-02
-1.266939185576791416e-01
-1.928029167872387720e-02
-7.573553608861304243e-01
-8.241116913287900303e-01
-4.187663074328524804e-01
-3.827130413176400570e-01
-4.855443711221404390e-01
-8.900197775193574579e-02
-4.011270394582091559e-01
-4.897167441258249987e-01
-4.739422731774479147e-01
-8.830187164387264254e-01
-9.993999387871442819e-01
-7.822383225855085165e-01
-1.656374920448390187e-01
7.215810457721957838e-02
-1.988857310692709046e-01
-5.273616515232812940e-01
-3.677632994073097850e-01
-4.551337157279545798e-01
-8.411217405729162211e-01
-6.240758025926808061e-01
-1.807205331024681616e-01
1.458782649284986188e-01
-2.680951298481569767e-01
-2.688679451071950277e-01
-1.022223772397034547e-01
5.006928833403553325e-01
-1.792637853333716447e-01
9.597995332979281091e-02
3.909250481831325064e-01
1.359188707887893366e-01
-2.139048669715276074e-01
1.029492026850775677e-01
-5.463548729884515169e-03
3.352075018366778569e-01
1.520180013151358200e-01
5.505011817890830272e-01
4.316884353412607234e-01
2.937384363410869836e-01
1.430745207905350647e-01
2.671792916246943372e-01
3.747191128576696784e-01
3.197174370164715396e-01
3.880846196682083971e-01
1.914367759530188340e-01
4.040579553373179200e-01
3.153956679476617730e-01
5.280012708824809442e-01
1.974092829824111162e-01
3.380743262399218407e-01
-1.276589499696720031e-01
-1.827662494026731921e-01
-7.963948278008538273e-03
2.381113682235187767e-01
5.188622779504155347e-02
2.148878032356273393e-01
-7.186630466653702587e-02
-5.110687412792955936e-02
-1.873959909104218058e-01
-2.002917370864539526e-01
-2.560072908034106698e-01
-8.444134964493157924e-02
5.234664221299730261e-03
-3.289226649283802373e-02
-2.279659192756630925e-01
-1.205982504476839356e-01
-1.802950843774995537e-01
-4.695113548772234524e-01
-4.890529793540309700e-01
-1.638828009674926367e-01
-4.257416943086075989e+00
-5.673699015720409911e+00
-3.663251692912064428e+00
9.870973595933308919e-01
-7.705376355015177481e+00
-1.173603197919340202e+00
-2.781225812293017796e+00
-1.982952872896938556e+00
-1.753907846192233499e+00
-3.809419626723085095e+00
3.886407123095381611e+00
-3.214555880770229024e+00
-1.257602599646056918e+00
-2.549151047503177558e+00
-1.054763892682173632e+00
-6.187724605821047774e+00
-5.379690167551178348e+00
1.695380214869872892e+00
2.759374867994451197e+00
2.229093200458902579e+00
-4.732746631804818804e+00
9.738798910366803341e+00
2.446245544307103614e+00
1.243782660663571571e+00
-1.718792289422103270e+00
-3.810884812823219558e+00
-5.592338421009745097e+00
-3.882799866806265321e+00
4.347822940245251289e+00
-9.287763397775956165e+00
-2.683034433817868436e+00
-4.928229363260426155e+00
-1.243991103051831137e+00
-6.576436851275560436e+00
-1.334800895978220492e+00
3.185778392022045491e+00
-3.959762403417879995e+00
-3.551609320012038662e+00
-1.161202509268688843e+00
-4.173377831841389884e+00
-3.770091969223748229e+00
6.458313522460109590e-01
4.175747319352600684e-01
2.189009241058385236e+00
9.182715294828193153e-01
-1.326738782248130466e+00
7.674885898798448736e+00
4.773346717115758864e+00
2.639593222403469497e+00
-3.298074030644805088e+00
-4.014423135101777618e+00
-4.896874801721371462e+00
-4.223274410818887326e+00
8.722051988446779092e+00
-5.492380507044594573e+00
-3.241385096977505764e+00
-5.138719261249857340e+00
-6.570628897009226366e-01
-3.037201955448793456e+00
-1.341216453600395653e+00
-8.484174811747482448e-01
-7.334061330658369071e-01
-4.629469402943129808e+00
1.160192199298683224e+00
-7.455114218909388413e+00
1.945758013592889579e+00
5.661834214401385346e+00
-1.780979535240520883e+00
-3.818647518022034726e-01
-8.343889380950626489e-01
-1.544806513873983489e+00
-9.924658474109279149e-01
5.336356103712241783e+00
2.271329620035468011e+00
-5.602793470440021295e+00
-4.636650515934205075e+00
-5.734610873238425555e+00
-4.312211188307752074e+00
5.897430603413402750e+00
-1.869832285011537421e+00
-2.182771158971035685e+00
-3.371003696382236736e+00
-1.720452770615081173e+00
2.784025586267076857e+00
-4.812821595001244290e+00
-1.752541330227694205e+00
3.992966814855825053e+00
-2.346158313130399353e+00
1.914715564720353536e+00
-3.755233934884068425e+00
2.226420724558431985e+00
4.030936126329210722e+00
-1.838980180331963643e+00
1.600087242532410192e+00
-2.304943836008217506e+00
-8.088912824280928504e+00
-7.264657326038646445e+00
4.728419313611932573e+00
4.246031417884899573e-01
-7.053629740348338117e+00
-1.562088003828079774e+00
-6.002323655012347992e+00
-1.520843269446711776e+00
-2.808705853065641911e+00
-1.888243820375957061e+00
-1.058929027214387197e+00
-2.262689315666563061e+00
-2.466572499120061490e+00
1.208312183909182158e+00
-4.048541571603172962e+00
-5.394177314031992632e-01
3.660370621051530104e+00
1.287256399652872085e+00
2.329959462851119767e+00
1.344992293185362175e+00
-3.334185753676783825e-01
1.173417706684536599e+00
-9.574124749955794655e-01
3.690113829506638243e+00
-4.370985222256251745e+00
-1.212872208545478614e+01
-6.665640325017565537e+00
6.962874060031973400e+00
-1.160496756240361194e+00
-8.731986753589112027e+00
1.625365720946938097e+00
-4.081973441276677939e+00
1.469240126235409116e+00
-7.430475686153496184e+00
-4.125028980164976211e+00
-3.547682283055348385e-01
-2.620017270236386420e+00
-1.740222150073706064e+00
-8.084724006862374912e-01
9.792690847488517703e-01
-1.580281847731800360e+00
-2.351833823960997272e+00
3.880076112515905784e+00
2.371327999898016792e+00
1.438326576320560157e+00
-5.894487326499856517e-01
-5.218126584457583039e-01
6.402976747232569377e-01
-2.393038730840739703e+00
-3.990348930439920228e+00
-6.331800600123369094e+00
-3.563349982077105960e+00
1.171004138183503862e+01
-1.015462468475025526e+00
-9.920865325363054765e+00
2.510752650989016288e-02
-2.503615128284855551e+00
6.563299311465865538e-01
-4.683641864629720430e+00
-6.416639801509186114e+00
7.361743777659837118e-01
-3.536638535481796630e+00
-6.403568688701397615e-01
1.778626192896386682e+00
1.067215287583168859e+00
-1.234376336862404555e+00
-4.069193346039798875e+00
1.213329542158160912e+00
1.008089316818260972e+00
7.542916035055348134e-01
-1.709022290469994987e+00
-1.995415963322093367e+00
2.295090911012449997e+00
-8.408471253955687175e+00
-4.816483262248593356e+00
4.866195790453126335e+00
-3.623655248872445611e+00
1.185854674218195726e+01
2.464252891029033721e-01
-7.127561574211270568e+00
-2.904790191719561321e+00
-2.041702702073391329e+00
-1.477427362272916378e+00
-2.523164849752486116e+00
-6.037767858044280622e+00
9.464655208963961286e-01
-3.671093931203378347e+00
-9.656028500436933393e-02
2.626051312209931154e+00
-3.179481157327171292e+00
-4.139597288256039115e-04
-1.201090437408040223e+00
-3.936118590712841758e+00
-3.829526890982306031e-01
1.924404572569035077e+00
-3.644477068088594951e+00
-2.726606196591927045e+00
1.690397535180261590e+00
-5.352294748049560624e+00
-7.065192339529125398e+00
9.907937493012953567e+00
-3.978234683227166002e+00
6.280503620527246866e+00
9.487795551178367370e-01
-3.517607214755707812e+00
-2.962781580508908608e+00
-2.533168310465059303e+00
-4.114442740193784864e+00
7.223199096870002167e-01
-5.052243912012722049e+00
-2.728184869159473891e+00
-1.161565689778374821e+00
-3.126361125510313421e+00
-4.689244030829851084e+00
-3.584288253749281505e+00
7.006242893018858275e+00
-3.281576064806192239e+00
-3.293093300849478933e+00
-2.131317785828970912e+00
2.273318440886710423e+00
-7.361715167643846591e+00
-4.778376441392639506e+00
3.307767483547939258e-01
-3.079265070750263344e+00
8.709284276489475118e+00
-4.745867572483637886e+00
2.479999629953243634e+00
1.942023614191004111e+00
1.339001516301961514e+00
-1.012909561726119012e+00
-3.222981704211162146e+00
-5.038253922624149617e-01
-3.106396680109396513e+00
4.225820503878181533e+00
-4.928368972240556367e+00
-2.231666466630081835e+00
-1.298009127678718899e+00
-3.584043690784232794e+00
-1.050846038661566340e+01
1.904675314210037274e-01
3.129000792841110101e+00
-6.067122989603283223e+00
-6.883060435486909157e+00
4.327393315917490990e-01
-1.031695862164016958e-01
-6.288566673877799218e+00
1.271486141788733537e+00
-2.579826167438600049e+00
-3.295179783198105117e+00
5.866333083553309180e+00
-9.610985644081569967e-01
4.920874589250040509e-01
3.541527236395971556e+00
2.961882781447713775e+00
-3.813191062093526096e+00
-3.974550007680170971e+00
-1.730572522926747459e+00
-3.408413800367393165e+00
8.973434437400884534e+00
-1.372283978942068439e+00
-1.624125189358810228e+00
1.032855110011037914e+00
-3.531501828294918877e+00
-4.179390075030497087e+00
6.067377357669956339e-01
-4.680056244189181314e+00
-3.477680182073570769e+00
-6.675232158257331072e+00
3.422057929844082302e+00
-5.717516497543976506e+00
-2.277799807022282685e+00
4.293091461137539255e+00
-6.203723394502259403e+00
-3.822251889578074824e+00
1.446049647930593984e+00
4.932709954484771481e-02
-3.804478015151784742e+00
3.530722809443752830e+00
3.090388468673290312e+00
-6.511650795413160608e+00
-3.097494228687867501e+00
-6.954428694596667349e+00
-5.215231301894933225e+00
4.472350325559785844e+00
1.461759947064981580e+00
-2.368937763210620773e+00
4.296989006873660699e+00
-4.544814988843823400e+00
3.333178713438460505e+00
-3.977169020410031841e+00
-5.932830215694012921e+00
2.442200024844886741e+00
-3.586533230279356665e+00
3.511640436260284215e+00
-4.696184099534864487e+00
-1.971314815680865529e+00
-3.991555425792587264e-01
-7.023945318077925215e+00
1.237355811910747713e-02
-4.979687413115935213e-01
-3.698051848361382010e+00
-6.827687345752858405e+00
2.753043865612453622e+00
1.728776420538842951e+00
-6.068880880112777376e+00
1.606389741568900353e+00
-8.478400720079854125e+00
-3.881473293064820140e+00
-5.791488522603010836e+00
5.966892944204316152e-01
-2.815920292332036112e+00
5.146235524916312087e+00
-4.197439815774391292e+00
-1.532069875475603249e+00
-4.036583540334683917e+00
-1.919378253730553485e+00
3.006519209427962913e+00
1.100825373344541225e+00
2.643958123102013058e+00
-1.177943673247095813e+00
-2.244563610374433971e+00
-4.832936922698118920e+00
-5.529498122904350943e+00
3.883190358993875435e+00
-2.709179528571497464e+00
-6.008352413918968793e+00
-6.167248452404668235e+00
3.464405569278306452e+00
1.013612576029017331e+00
-6.709350095642988343e+00
3.889083949409515295e+00
-2.654825119755510165e+00
-1.289167707133920482e+00
-9.072928864241712077e+00
-2.718657164874866083e+00
-1.203948804571137732e+00
2.608452433262625547e+00
-2.120163349364107219e+00
-6.354218209340218415e+00
1.001215391103437380e+00
-3.951461161270485301e-01
-3.486794522822546316e+00
7.362610582829787198e+00
8.801684977101141838e-01
-3.321827562491110442e+00
5.978222246301940768e-01
-6.406529894187600327e+00
-1.711246902479668597e+00
-1.262943989968042358e+00
-2.674276079673105322e+00
-3.217017909894080763e+00
-4.570337857817126093e+00
6.140082037463906239e+00
2.203986830246881912e+00
-8.946861318363698246e+00
-2.723843183531828416e+00
2.376806043760026022e+00
-2.859950683175877195e+00
-4.525068900798252969e+00
-5.652197947981670190e+00
1.173415152038050469e+00
-2.502658850392147638e-01
-5.249793669099251936e-01
-3.877417273810485621e-01
-8.236456003006734083e-02
4.194227658277697168e-01
-5.319537320645678413e+00
6.602748450006239445e+00
-2.133380400884271832e+00
-4.666255765280960865e+00
2.370344586895986594e-01
-7.003556142434291587e+00
2.019412585174797048e+00
-5.956566180979361746e+00
-3.175864426366604487e+00
4.316294064571430056e+00
-5.881976426897969290e+00
6.164844172561955382e+00
3.396819337868803856e+00
-6.493506138712088038e+00
-9.013284550890618974e+00
2.598711354879430946e+00
-4.519710183230826850e+00
-2.330314132964003804e+00
-5.691827981748144971e+00
1.257336881147497643e+00
-1.302547318390160136e+00
-3.001725879278725473e-01
3.651689970098881854e+00
-5.509288178177746076e+00
1.236831048756642293e+00
-9.813608673224084589e-01
-1.897249861284161232e-01
-3.199036191437590659e+00
-9.806249237852923129e-01
-3.048002450720533663e+00
-5.889300924192499842e+00
1.905214255623066899e+00
-2.749638656374891355e+00
-5.143731248556378866e+00
8.364369872636558512e+00
-6.771207511226049469e+00
2.913569732961459824e+00
2.764654493299556481e+00
-2.315928827916144073e+00
1.898222439106025949e-01
2.530193110609574081e+00
-2.920758494023065754e+00
-3.780051955980536782e+00
-4.752432333537387477e-02
-4.757152381407237840e+00
-1.247427435364710346e+00
-1.951597842523884907e+00
-2.269070978987445475e+00
-4.416655284779290369e+00
4.261056790468849442e+00
-2.117139349239894663e+00
-7.873762952608827526e+00
-1.370962573922435146e+00
3.513364904102754149e+00
-5.083054057592909736e+00
-2.779508971808577922e+00
4.371697099697427480e-01
-7.134141022932257492e+00
9.939013687983029754e+00
-5.750075314023902706e+00
-6.817322663042532760e+00
4.384275167044529575e-01
7.330894374097126631e-01
-6.574018825822813827e-01
-1.454227262464137915e+00
8.638525341132883284e+00
-4.757887474616879775e-01
-2.036109186562644169e+00
6.155637800265387760e-01
-2.907021877115414377e+00
5.676233950237382642e-01
-2.782256028756438404e+00
-6.562015232242686125e+00
-1.546709815041300874e-02
-7.424339127921317782e-01
-5.686977676076681476e+00
-1.111620525938643489e+01
1.081704405696013671e+00
2.286946730044489673e+00
-7.311926876130693032e+00
3.703731430562857696e-01
-1.737835110096768609e+00
-5.113283399649493965e+00
3.944234012297823444e+00
-4.646359971948766265e+00
-5.510342198205270492e+00
9.857290819221403710e-01
2.048868225592366255e+00
-2.993351018992344237e+00
-3.064317898300211063e+00
6.786559711354244406e+00
1.690449001297879561e-01
2.577959621302960080e+00
1.497199084550441261e+00
-1.922368630477581553e+00
5.136043901057822048e+00
-3.277383082033381356e+00
-1.699634286295310881e+00
1.660210876287021131e+00
-8.165931695341020813e+00
-4.343508610943723980e+00
-6.086230746401928293e+00
3.825274871334353843e+00
-4.123267091725243638e+00
-8.291050156831101248e+00
7.643739111885305970e-02
-5.337821355002988710e+00
-5.523445422547433203e+00
-2.142081187010163923e+00
-2.849854747457939208e+00
-1.395506862427874584e+00
8.218026998361614988e-01
2.425552672400522525e+00
-3.774513342004731431e+00
-2.040335155989938531e-01
-1.740103617074860942e+00
-2.232699517374312936e+00
1.481946122971468327e+00
1.400525006538573924e+00
-4.437706547783427879e+00
7.396553260903007576e+00
-4.048152638462261699e+00
4.112679939800359286e+00
-4.265338872337362197e+00
-7.769611486614514284e+00
1.007981338128952187e+00
-1.393452759130097807e+00
3.848657617434058764e+00
-5.793453627792738203e+00
-8.519892360488535488e+00
-4.711044585193400636e+00
-7.657202475961401689e+00
-4.724117625566319312e+00
-2.680692913461414140e+00
-9.856451947869900865e-01
6.629844953540435792e-01
-3.310269783871879201e-01
1.792957724662495922e+00
-1.162045259715023260e+00
5.526946415771840648e+00
-4.868098475444615936e+00
-3.755022492966606951e+00
-5.174441448816493150e+00
5.167130390514879101e-01
-4.696248678863563342e+00
4.663146406376495356e+00
-4.421661796257090771e+00
-3.414061445289283014e+00
-9.171915232903128157e+00
-2.307005517745299716e+00
2.300748048884189156e+00
9.080716825383235991e-01
2.324668466864485250e+00
-3.291862722949449704e+00
-5.296709214538767974e+00
-7.149573623963819458e+00
-7.646238018518370261e+00
-7.940014351387778557e-01
-3.243419798818060418e+00
4.512750754757358651e-01
-3.945215110440331019e-01
-1.425694614351505685e+00
3.105340673840367050e+00
-1.600465156322651294e-01
5.251441404722481110e+00
4.052510857381123599e-01
-4.539411788980124207e+00
-5.764460205257638137e+00
-5.841615760394945900e-01
-7.523050521476218888e-01
3.049624705874157682e-01
-3.262766507268918481e+00
-1.113789044513293369e+01
-5.362333038034885035e+00
-7.871204663175346283e-01
-1.820563173342773400e+00
5.947651418303228077e+00
-7.781510591313437475e-01
-6.121004041183349287e+00
7.921572376393513082e-01
-6.742561264387657793e+00
-4.025841764775917930e+00
-1.268053683858431979e+00
-2.416489388458029186e+00
-1.038581163932591256e+00
-2.247531156444561251e+00
-1.392308169945303931e+00
6.639393237265312386e+00
-1.284894877176203432e+00
-4.644286689150343150e+00
5.116373748251243470e+00
-7.034761572047826483e+00
-2.386403728008606340e+00
-2.704695525038985693e+00
2.551180503216710527e+00
-2.052437771870941230e+00
-1.939674958943023331e+00
-4.310583305651524810e+00
-2.318297848830390251e+00
-2.436862089382566765e+00
-1.972705783912228839e+00
7.074571709709844392e+00
-4.979896630896334386e+00
-8.048883759865438137e+00
1.842348405601727634e+00
-6.531016207512008620e+00
-1.229426286648621636e-01
-1.402276301086947008e+00
-5.044629693079484278e-01
-7.822024460835167448e-01
-5.075730701123915445e+00
-2.058690522421452673e+00
8.055045888109621188e+00
-6.212173420915796662e-02
-1.235317193679875558e+01
3.859910784328279831e+00
-6.970790139640859806e+00
-2.378120705982167848e+00
-4.129166460719653209e+00
1.837871881958899722e+00
-1.828471326740917613e+00
-1.361550329526208580e+00
1.858217898526999257e+00
-3.482891074300070056e+00
-2.997285326408443140e+00
1.360465067882497658e+00
1.943691277340558132e+00
-5.366308842628129128e+00
-3.247321955335338739e+00
-1.745258083618401734e+00
-5.285727949463338682e+00
2.745998420407749427e-02
1.116296427515157230e+00
-7.075238986933454211e-01
8.433236491835643944e-01
-6.284417615834785309e+00
-2.449737336214806493e+00
4.698594030125049059e+00
1.993032021759358896e+00
2.296035691553208302e+00
1.460584990042153253e+00
-2.577867925231736468e+00
-7.582981885124780774e+00
-2.383471684452236339e-01
-7.778277357757084509e+00
-3.087075959648240442e+00
1.307440092224899431e+00
1.875304806029118643e+00
-4.459894009664399306e+00
-1.221970054078289847e+00
-2.129869419183634260e+00
-9.694590006260318304e+00
7.131625474218149519e-01
-1.699180390203390401e+00
-4.710317593736044195e-01
-3.218138749465941473e+00
4.627929289697497950e+00
-3.031260593223808808e+00
5.794137873773888003e+00
-4.922301336160989749e+00
-7.315852691773859107e+00
-1.312311174097647859e+00
-6.363225304793334036e-01
9.771770493665918322e-02
-1.277364961786048969e+00
7.563936201010572624e+00
-7.129824362921802772e-01
-7.241598465065826495e+00
-2.294571660677405603e-02
-7.008047768032472646e+00
-2.415616978415501936e+00
1.057741196099837078e+00
-1.877980432457679871e+00
3.957577683765395871e-01
-4.965991437570485445e+00
-3.860809128571659254e+00
-1.014757053019797439e+01
3.029964231642969352e+00
-7.844081128016330284e-01
-3.984612960619363431e+00
-2.514226154943694169e+00
5.006617454372728204e+00
-4.385166267333018286e-01
-1.823496826076943744e+00
-7.316175268604587778e+00
-2.971056599838112433e+00
-1.232665707104062092e+00
-2.510996221531889838e-01
-7.876108476708396644e-01
-4.230993549853578450e+00
8.083400585355585477e+00
3.180387611789226021e-01
-1.353722005444865983e+00
-1.356464347997217823e+00
-6.968576411311210528e+00
7.916633607946511608e-01
3.716377716089604433e-01
-9.360668908470605176e-01
3.480469689469888106e+00
-6.942045861381931360e+00
-1.088386881424769470e+00
-1.511512698470711902e+00
4.361729948762280706e+00
-3.948897773881740569e+00
-7.730570009621413163e+00
-2.375598002832574718e+00
9.110970195644735314e-01
-3.961853961684094649e+00
-8.745531218047000621e+00
-7.147648898467478418e+00
2.661467940438517310e+00
-1.918308003289513453e+00
-6.492444271762940478e-01
-1.890837833745728780e-01
-4.690953640196739438e-01
2.824261867024548067e+00
-3.606151137759526226e-01
3.808362844272119019e-01
-3.708260484616654917e+00
-9.002051311144180445e+00
5.401951771378797895e-01
-7.221571996398551407e-01
3.114998888273443178e+00
-2.992481172814437151e+00
-3.083894167620543136e+00
2.505288698216835197e+00
3.184378807570649172e+00
4.066905239236777270e+00
-5.382248884965413538e+00
-8.158036635243240298e+00
-1.998276561573234078e+00
-3.976802283045354880e+00
-8.756204786681212937e+00
-7.511887646506821170e+00
-2.722904047705263064e+00
3.730858204847081083e+00
-3.938894668892598094e+00
-1.734035966035221810e+00
2.208403716649347981e+00
4.643986678444295357e+00
-2.124608330545934842e-01
-1.893561124819487684e+00
-3.577271508846822101e+00
-2.145015551082678940e+00
-4.357534589807778858e+00
-4.587621902725299350e+00
-2.888308185010734608e+00
-1.629629150117873460e+00
-1.199219171239022508e+01
2.449304909197744795e-01
8.822097555235278721e-01
1.757541208623551565e+00
3.073739886528479293e+00
-2.539909918846395609e+00
-4.694627086251954573e+00
-5.744906869233129543e-02
-5.777293388084506987e+00
-7.017049785573656884e+00
-5.952865832697133541e+00
-1.977900160655532980e-01
2.339908373434991251e+00
-4.956188849719206146e+00
2.372239262527150172e-01
3.851611884852820467e+00
4.076418149870270291e+00
-4.951363476355082061e-02
-3.941855892438882236e+00
-4.326297222676897647e+00
1.728047165197489354e-01
3.310340423407136523e+00
-8.824124254097398534e+00
-4.554553582807414180e+00
-7.324774785778219943e+00
-9.221344888881006341e+00
-2.263967710778272302e+00
-2.287004887097079830e+00
1.610691434898483099e+00
6.620984746762359485e-01
-3.473212721605249520e+00
6.931719308779582533e-02
6.755152565018572863e-01
-3.327022847440192610e+00
-4.544583411494087066e+00
-3.553395538419420241e+00
-3.453382958046358198e+00
5.911335008808761282e-01
-4.922743935076393740e+00
4.951092194799713297e+00
3.874229794956100204e+00
-2.550316749170116193e+00
-7.238513288180726812e-01
-4.595977101211202509e+00
-3.216691842780589283e+00
-2.746629031793281772e+00
6.284131939413843071e+00
-8.383536517932851595e+00
-4.204276840689786354e+00
-3.559441630877691054e+00
-3.590717690202049339e-01
-7.778474893929790746e+00
3.590622986148546136e-01
1.773925820479645088e+00
-2.993915043520097630e+00
-4.693079743362944534e+00
3.750662247297124607e-01
-4.820509146615965523e-01
-1.617120394691625496e+00
-2.347698909113638877e+00
1.127907051788646253e+00
-4.868333076079364830e+00
-2.781251080794811870e+00
-5.909187279344343402e+00
7.630070853272359344e+00
5.059220313359786836e+00
-7.545639692163544687e+00
-2.229202398855329115e+00
-2.925557970548270603e+00
-4.390895355580044068e+00
-6.522275939300806513e+00
2.837838577385810357e+00
-5.262382841314791726e+00
-2.885149102042480873e+00
1.503890357062794281e-01
2.428796440582841942e+00
-8.924264885093355915e+00
3.567148905958512195e+00
-8.510540111505053851e-01
-3.939718683233389029e+00
-1.370915755319386919e+00
-2.955949380375256119e+00
-1.135697283589768070e+00
-2.454731892927134229e+00
4.677849217826020034e-01
2.376992735655474753e+00
-2.020857055271490399e+00
-4.777647432634721802e+00
-4.887017869851829843e+00
4.474015843739134191e+00
5.139360318767907110e+00
2.651912630350678590e+00
-3.479970813088678394e+00
-1.347773065053937458e+00
-2.211675201602655072e+00
-2.920374128627714061e+00
-7.069077122052184414e+00
-2.272334084484401995e+00
2.779426263065057690e+00
1.213733413091956370e+00
-4.493367005435691119e+00
-4.850967739442642923e+00
-5.330160792963169136e+00
-5.781031114503103474e+00
2.587265172507432265e+00
-7.142672875055179560e+00
2.556378023437290814e+00
-5.396954777068495801e+00
8.109393042514069450e+00
1.195679878130995466e-01
2.166665076670355461e+00
-1.079876122248487613e+00
-5.333983576107300451e+00
-2.796622824781575201e+00
-2.961657940389809784e+00
2.210316023557132858e+00
-1.792814392687193115e+00
-1.735273323218092356e+00
-1.230138406543944907e+00
-1.498849775025457909e+00
-1.847956424866854963e+00
-7.866877239072660011e+00
-4.012892542632161330e+00
3.080845489001922566e+00
-3.323650481963353442e+00
5.091416190503504913e-01
-6.374212999449970773e+00
-5.985721129135917806e+00
-4.246415795005664684e+00
4.381511430538674645e+00
-1.708563265703726408e+00
6.151012711770722508e-01
-6.122766772634876453e+00
8.427650721464114980e+00
1.305387025469893603e+00
-4.932091069848152820e+00
-3.940846733405952484e+00
-2.561726295089365557e+00
-3.027975299535348164e+00
-2.828908287207295036e+00
2.573807672220537412e+00
-5.963587164054677814e+00
-3.700621990627235292e-01
-1.998792029735430464e+00
1.149773686913704740e+00
-2.957879789443509821e+00
-9.530274624432943043e+00
-3.953135458304587235e+00
3.330685550358668756e+00
-4.236352520246829734e+00
5.397590552080513859e+00
-2.638959224301097528e+00
-1.433447465708138635e+00
2.579623158470655486e+00
3.958388896368666199e+00
5.367024035012998295e-01
-2.128533972100090210e+00
-4.256238182540072579e+00
1.220618320041782168e+00
-2.732771175283929654e+00
-9.063711406592474873e+00
-5.816241929140065992e+00
-1.167178976103502519e+00
-4.347719165096847860e+00
-3.365094124302945300e+00
2.910295892911191284e+00
-3.048482058829840913e+00
1.378321182309466542e-01
-1.800032803253980740e+00
2.419199955692353243e-01
-5.326051161288758884e+00
-1.001465104521294158e+01
-4.941471613884374392e+00
2.600032046776898031e+00
5.730418659101653711e-01
1.338753040343263923e+00
3.292567042087241269e+00
-8.819416001385471660e-02
5.526482733412438897e+00
2.659379404120634671e+00
-2.479927952528271806e+00
-3.215521055540798478e+00
9.210056460831982372e-01
-5.870353246487920451e+00
-6.404084292032084846e+00
-5.852291195559645054e+00
-2.777106018612813365e+00
-2.844902105492407962e+00
-6.423564894957135785e+00
-6.071423759179738866e+00
3.476788365870234099e+00
-6.041595372468796382e-02
-1.023238640027382296e+00
-1.660563674056676486e+00
-4.538055297244405928e+00
-1.293590971655080635e+00
-2.004092111207004034e+00
-8.496481640324446971e+00
1.568456230865360457e-01
1.359171352158224932e+00
-5.361403728362708065e+00
4.955906877321644366e+00
-5.139290995395429995e+00
1.694626887934526316e+00
1.901572970414691310e+00
-4.286348193761647885e+00
-2.799711912857562268e+00
5.540492330012975586e+00
-5.995975027022501180e+00
-5.685618596750244613e+00
-5.104838284787737379e+00
-1.924133030427171764e+00
-1.528058912042846940e+00
-5.751535393843242971e+00
-4.955657287379237275e+00
3.283771172022273088e+00
7.320230383551032394e-02
-4.736062487754646888e+00
-1.118996330880170476e+00
-5.226936531356897397e+00
2.418954224047842771e+00
7.176749737975227639e+00
-9.330383421320167514e+00
-2.280468509053751092e+00
-4.604830395082259997e-01
-3.679349678945482705e+00
1.305441904317987678e+00
-6.888480899874790175e+00
-1.432070857618420456e+00
1.088313318580605094e+00
-5.022716039097542051e+00
-1.803979177238983933e+00
4.196915933989498804e+00
-1.316173493319911847e+00
-6.214073805466486355e+00
-4.336744342218640469e+00
-5.813824650696222562e+00
4.223291445100928465e-01
-4.952056639825705098e+00
2.790721357825173277e-01
2.950365120578282152e+00
-4.865800273731342163e-01
-8.348622842768085306e+00
2.670519803819399574e+00
-3.296546932164694965e+00
-3.124329970534810652e+00
8.121529489625149978e+00
-7.131548928184062497e+00
-3.232205900549306676e+00
-2.247952234307667441e-01
3.601231449862987599e+00
-3.563981634219134609e+00
-3.616496979720498217e-01
-2.717849962380095352e+00
-4.942198755309846758e-01
-4.138581441378905268e+00
-2.720772797020297507e+00
8.380133648343235375e-02
-7.838418597447837088e-01
-6.271654574620537659e+00
-3.515306347405226794e-02
-6.069401525429805488e+00
-2.015189896240233036e+00
-5.984876628456535563e+00
3.711817065080716738e+00
4.068807433930592410e+00
-1.162538524434982623e+00
-7.380816268242130995e+00
6.097234709293630317e+00
-3.560993813661603280e+00
-9.947659760410305196e+00
2.391036911815213273e+00
-4.460749642416542038e+00
-2.543928437776546314e+00
-5.424734439936256258e-01
5.558633213833754638e+00
-5.289206390563269800e+00
4.082402896071423370e+00
-3.695662896753107773e+00
-1.389673015910908749e+00
-1.207708913643975368e+00
-4.788872693425914484e+00
-1.427836242803143030e+00
-3.324565424374109401e+00
-2.258315188766703230e+00
1.911264016858398751e+00
-1.795016459700688349e+00
-4.477444805151249874e+00
-4.515817018369712166e+00
2.289528810455141006e+00
4.002330358200047122e+00
6.956540168082488984e-01
-5.105770043084731924e+00
3.658725150451796360e+00
3.186630710779598363e+00
-3.544670343212282582e+00
-2.910009931463477972e+00
1.651919602690342215e+00
1.222944679888080977e+00
-2.792353516834772176e+00
-7.773673889362485490e+00
-6.128531978657025370e+00
-8.345967569752660964e+00
-3.896893023833483127e-01
2.622044599037804957e-01
-5.578191382682629929e+00
7.950577378392374994e-01
-2.339030617934884315e+00
6.327475412795134702e+00
5.698912175243018297e-01
4.036099148624125443e-01
8.801213216755457980e-01
-5.910964307306501020e+00
-2.715155158784463563e+00
-4.051816488772834290e+00
3.531109680139437934e+00
-2.628957227684441289e+00
-7.069247796125205596e+00
1.667788215899551174e+00
4.969650470517045449e+00
-1.058391551289862287e+00
-3.105139331406947534e+00
-1.825963371590188233e-01
2.258768663412684230e+00
-5.793910566190168865e+00
-3.738229900647221271e+00
-6.563253759090054373e+00
-1.012360705010301309e+01
4.297707014420877880e-01
3.544957859920047638e-01
3.090012026076896845e+00
7.694019925276210925e-01
-4.423271040539587418e+00
4.218183398833761366e+00
-4.282043477449785085e-01
-4.855758913791468956e+00
-1.299337104497918505e+00
-4.844322024694404760e+00
-3.041922538372928919e+00
-2.822174605501729161e+00
4.311978439185303102e+00
-4.642604535216091399e+00
-5.829563065246685660e+00
-2.100624366596080872e+00
4.792354141267597178e+00
-1.000516513485040671e+00
-3.741811110807144569e+00
-2.912163907285410414e+00
5.456256823383709431e+00
-4.231293708369610940e+00
1.961295018573671056e+00
-1.838947655543285986e+00
-6.629165409242633089e+00
2.862799118108518392e+00
-5.318624862655543239e-01
7.791502009131272999e+00
-5.085651975975383765e-01
-5.740997450993588380e+00
-4.610459871129317655e+00
-1.766272155846947634e+00
-5.851847802524041242e+00
-4.188717335466400016e+00
-5.231010243451465591e+00
-3.592624237948894184e+00
-2.319555583418623446e+00
3.122534406151027842e+00
-2.219826992260866216e+00
-2.916292344114522539e+00
-2.584490748750427169e+00
2.259981915061471114e-01
-2.144186426914449495e+00
-3.647939095064629988e+00
-4.271573521399570694e+00
6.688281881316910926e+00
7.024056568303750359e-01
2.609269669200139585e+00
2.863050516288465186e+00
-5.943770568441180124e+00
3.054839893019965391e+00
-1.872325097734120369e+00
4.441516378152556843e-01
-3.396903711398846948e+00
-1.156813382801788137e+00
-1.162202500488998602e+01
8.506175939674056607e-01
-1.804628952317301804e+00
-2.152677740983668375e+00
-7.289567308841704119e+00
-3.790213607281914587e+00
-6.239307825213970204e+00
1.750955110051819030e+00
-2.020126681929310219e+00
-3.367964563665390987e+00
-1.646946713489769509e+00
-4.626458147301234725e+00
3.133765477610432004e+00
1.300380050823009004e+00
-4.507803653546108791e+00
3.773946880409397853e+00
1.639340304776176760e+00
4.766225891853539953e-01
4.692242762025840896e+00
-8.446480313382318528e+00
9.926050942020726853e-02
-2.897797293125767393e+00
-7.210767668005093611e+00
-6.341240223086513694e+00
2.984851632999621529e+00
-6.929815216033024861e+00
1.960834301209180452e+00
-2.365356345157297646e+00
-8.274144859754212211e-01
-4.566997080482204652e+00
-2.566752553915746304e+00
-8.135053590193106032e+00
2.958991876176218505e-01
-4.111760340045548467e+00
-7.000392746686030065e+00
1.117345074973177699e+00
-3.391992008810056802e+00
7.845417931704410819e+00
6.814286385800466306e+00
-2.456256228260671914e+00
1.432963388058401399e+00
-3.067863158056124279e-02
4.543824460826099143e-01
5.383538040385633217e+00
-5.588930257929641598e+00
-2.506550835190935800e+00
-2.668599255868351783e+00
-8.709314143002842457e+00
-5.478971392804305118e+00
-2.755504066870710922e-01
9.283313908684081017e-01
-3.886142494067490460e+00
-4.631953564184131622e+00
-3.766978294916605297e+00
-1.181068961433300535e+00
-2.727389971104463573e+00
-3.055085885696969594e+00
-1.017872977806041801e+00
-2.722787445996075917e+00
-7.873607694416116409e+00
9.091688774154581765e+00
-8.128016555518087494e-02
5.026466743611814891e-01
5.445850929280121377e+00
-5.674070402184090423e-01
-4.170428126628251964e-02
-6.656337244399784803e-01
2.363416938842074710e+00
4.615572037113921056e+00
8.927715772439691611e-01
-4.645840452626059935e+00
-1.540308809238285059e+00
-6.227867223337391955e+00
-2.165018824724786572e+00
-6.450144533780480138e+00
8.506340851003876824e-02
-6.986190342990019175e+00
-2.638175353120853828e+00
-4.496478191839447192e+00
-2.131391166603693765e+00
-4.062042722271887563e+00
4.871531677646160907e-01
-2.865918898903043188e-01
-8.448745796641728978e-01
-4.020125173234361249e+00
1.340750104787245789e+01
-1.017703842437953643e-01
-7.957511924434907513e+00
1.759063150188185487e+00
-2.845145365809744198e-01
-7.475059475011270882e-01
-1.623928345524076056e+00
1.744976464805982896e+00
2.014134685006410574e+00
3.045508079364030785e+00
-4.855809793136420360e+00
-4.454181604107476655e-01
-3.195989701550861817e+00
-1.422565131754777390e+00
-7.404945427543236036e+00
-4.515393529308707521e+00
-2.003612353728286610e+00
-3.884656894557569351e-01
-1.791739421484838113e+00
-3.704459534452746894e+00
-3.089024323254847548e+00
-2.764630977752672858e-01
6.147288729768665139e-01
-3.356533356501278931e+00
-3.387960618836106441e+00
6.365584210692044387e+00
-1.216833318685109688e+00
-4.780182463468876541e+00
-8.650432763212210219e-01
6.421348991466217626e+00
1.941983260710600012e+00
-5.163816313484538512e+00
-9.067645760586877657e+00
-4.986590709242754826e+00
-5.101556913439394769e+00
2.017683094002656219e+00
-4.732086363124726525e+00
-2.518193874269951671e+00
-1.985273638737957258e+00
5.941027416622549850e+00
3.148876606398558486e+00
-2.787871995506541190e-01
1.859395259388921251e-01
-1.439474054346499277e-01
-3.381013338332020890e+00
-2.011185643811652657e+00
-3.144745856285810159e+00
1.537861105174582743e+00
-3.455122737554251700e+00
-5.555461530118533275e+00
2.253615065819720709e+00
9.393494820867135386e-01
-2.549172539909885682e+00
7.931083870892824406e-01
5.699036010106051542e+00
3.988769717852492569e+00
-4.688155274762048741e+00
-7.395742447657396745e+00
-5.933669853646845738e+00
-6.460489401192228698e+00
6.534440248266094597e-01
-6.973392968017236626e+00
5.132087521653409645e+00
2.125685092160921608e-01
2.441486040476211539e+00
8.474143224321689649e-01
-4.292388373558432058e+00
-3.325697203949647740e+00
-2.952104958722151284e+00
-1.734089350510384930e+00
-2.267746491459729619e+00
-1.562231495737691489e+00
1.489297046041168748e+00
-6.473126193840958442e-02
-3.213163640376103469e+00
-3.050773218023649758e+00
3.418969971978269573e+00
-2.392172919732673098e+00
2.975065238039084292e+00
1.118399586090382147e+00
9.029292138400650813e+00
1.082182944813864650e-01
-2.626997462573560593e+00
-4.102384483290721917e+00
-5.289307280509541798e+00
-7.070793174106759782e-01
-7.697034075279897358e+00
7.637647631850386531e+00
4.429055520787064659e-01
-4.370853462528833333e+00
-6.131791945883548145e+00
-4.133530764026727589e+00
-3.457484440565901540e+00
-6.543784134202375924e+00
-1.127106627381803783e+00
-9.330532612187509844e-01
-1.136343609946303568e+00
-5.840699433872040269e-02
3.611567075815622641e+00
-3.922157189964241980e-02
-2.877287091215891213e+00
1.141878914861536920e+00
-2.543111734220639519e+00
3.446399420755948295e+00
-2.347419845431107266e+00
1.098276007858122405e+01
1.673518489539192355e+00
7.663459316594450899e-02
-2.851250666849037607e+00
-3.670648493631710085e+00
-1.102377856935865541e+00
-7.581053309073775281e+00
-5.676922992745702112e-01
-4.761070157708307882e+00
-4.174691408179033836e+00
-9.728333843811004300e+00
2.777296360721382751e+00
2.145273330069201179e-01
-3.524463849388082437e+00
-2.983287104409187318e+00
8.969634146042814171e-01
-5.889743555076424109e+00
-1.025215495291022849e+00
1.373408544682786836e+00
-1.372221614786747645e+00
-1.003420216820996247e+00
-1.783519464820952027e+00
4.045340175220992762e+00
2.962276944002233847e+00
-3.790856300713978833e+00
6.903565943827102203e+00
-2.832470214702521805e+00
5.922596655354712691e-01
-2.489532569104011994e+00
-7.188580282641365837e-01
-7.880178968750530810e-01
-7.040662858396125046e+00
-6.719305617202341985e+00
-1.032045944789593506e+01
-8.118129521398913528e-01
-3.840321919401940232e+00
4.274205182238612011e+00
3.235745088342315556e-01
8.954186839284634658e-01
-2.867721147352760180e+00
1.859882875905549904e+00
-9.787809657099527882e+00
-2.345370306058645937e+00
-5.093678584988706959e+00
-4.322376307624614000e+00
1.863484029323902558e+00
-8.137669751597049750e-01
1.094624344752258160e+01
2.181288305605344036e+00
-3.213061974598163673e+00
3.890025812551951567e+00
-5.933365377048626321e+00
-6.134383453463086999e-01
4.502083068329890136e-01
3.265810578963928901e+00
-6.710879763606570902e-01
-5.334638268515837112e+00
-5.376793458400018544e+00
-6.478149351787536148e+00
-3.451738105460313122e+00
2.031970980101748925e+00
-3.552577824777332083e+00
-1.335774231039972504e+00
3.641375626683647226e-01
-6.121174076744437809e-01
6.287611799477054175e-01
-6.155539387483672797e+00
-4.498925737363151711e+00
-7.856180313587032948e+00
-2.398172028911318421e+00
8.928051129276555642e+00
2.136813735081172227e-02
4.722704190745772301e+00
1.095019843054091835e+00
-1.660853233776833138e+00
1.988299405996517555e+00
-3.923610274702160616e+00
-2.588638618997847196e+00
2.760144702369325298e+00
3.564933480217526984e+00
-3.211969685020865217e+00
-1.632354717404309374e+00
-3.522779651009117607e+00
2.796581074479735474e+00
-9.027013508948293463e+00
-2.086164653860210993e+00
-6.131869403734869550e+00
-3.472156676726290692e-01
-1.095484699698356712e+00
5.702690045140773600e-01
-4.053083259774180047e-01
-3.389397286381791385e+00
-4.004044643600198405e+00
-5.781983920135248312e+00
1.382420173547413533e+00
1.102047195283001990e+01
-1.311547515719234669e+00
-3.737173057770897699e+00
1.113474374641727049e+00
-8.129316985662192740e-01
3.326245847567805836e-01
-2.152770001462499749e+00
-4.084425126184928700e+00
1.186501891198321612e+00
4.286816515128952787e-01
-4.493667127247555015e+00
8.924731435309585237e-01
-3.187041305253976109e+00
5.716524989114556199e+00
-8.562457862095561367e+00
-8.185051651632834435e+00
-3.597059493923658313e-01
1.045514451588445359e+00
-9.171697367010309687e-01
1.556944224524503817e-01
-3.234325359000458922e-01
-3.918882300455851730e+00
-1.769172473896742259e+00
-5.271031885798493022e+00
-2.015137172914731600e+00
2.645492661432916393e+00
-7.937165276122643220e+00
-5.397597471297144622e+00
-1.288361405533759108e+00
7.487364464489244753e+00
4.253765815234925363e+00
-4.818429741255759957e+00
-4.537314950305024297e+00
-2.267289797054465428e+00
5.141701927441423292e-01
1.235534150215225502e+00
-6.262716380456686771e+00
-3.047003337561797753e+00
-1.592271085153424970e+00
9.283251344528448357e+00
1.111180685524290723e+00
-2.305968237274904631e+00
4.952712865010724386e-01
-1.542698086587713346e+00
-1.750855864323492272e-01
-1.393695073482881686e+00
-2.152127193326529575e+00
-4.624624467656984206e-01
-3.156674574061498983e+00
-2.690792621188332401e+00
-1.293058675772219779e+00
-5.909769758703343534e+00
-4.626672720921465753e+00
7.094581850429466652e-01
7.942372461114141302e+00
5.994961476753601026e+00
-2.976722497266675482e+00
-4.321177825255140270e+00
-3.128950013681503606e+00
8.729287001539534074e-01
-1.396162484765245848e+00
-9.003182495616584902e+00
5.971638860985495345e-01
2.111803243815637110e+00
6.190644549212687586e+00
2.741975221819075714e-01
-7.663527186666855506e+00
-1.714312188759549827e+00
-4.170807324125806126e+00
1.444971217001083330e+00
-1.708578972356803671e+00
-1.619033183566068512e+00
-1.016099719053695116e+00
2.536664991096350352e+00
1.819308740636290944e-01
-5.123251858450891483e+00
-1.256656910690148385e-02
-5.383443290342127874e+00
4.297299715647099561e+00
2.950236897342993547e+00
8.282074395853861404e+00
1.467127517213613563e+00
-2.754726054645886268e+00
-4.006246212876817481e+00
7.611449916200971888e-01
-3.778218037291053211e+00
-9.280654406678731760e+00
8.613300385060577158e-01
3.311180495312939787e+00
-2.289831417783217304e+00
-2.438413918868953534e+00
-8.256424746235186518e+00
-1.810876179279764076e+00
-6.884980535435400562e+00
2.408835090368943277e+00
1.821011218518484021e-01
-2.402994930121079786e+00
-2.133666274617636027e+00
6.590749025474288203e+00
2.856899540918207858e+00
-3.776972057663067872e+00
1.615087908228392877e+00
-5.459094571652905792e+00
4.941045032575747342e+00
-1.629620929915619243e+00
8.897270152924116715e+00
3.511228659145620989e-02
-1.288965678740242149e+00
-5.837062999605739044e+00
2.174858131484991741e+00
-3.288344009261127798e+00
-7.609135079839380644e+00
-3.541685373024026084e+00
-1.565513797926209483e+00
-4.321923507296560274e+00
-3.186457042067194934e+00
-1.515118456187766416e+00
6.908878870428977192e-01
-3.859162635058019486e+00
8.409936554252400720e-01
2.488653650939953277e+00
-6.387754539397387354e+00
-2.282682690194717701e+00
4.159237842280904651e+00
8.562071301145769420e-01
-1.042041155085738913e+00
3.721412230210539018e-01
5.720878164092094709e-01
1.648048745744213006e+00
-5.049613911036226810e+00
5.829893040051508990e+00
-6.946816925513239482e+00
-1.006052594284110757e+00
-7.966692593092850494e+00
5.917390982534580957e+00
-6.213010641369107745e-01
-5.369679734635705692e+00
-4.163718812608491859e+00
-6.502383860001898164e+00
-1.533569957206803558e+00
-3.902191585123167550e-01
2.676763097994721424e-02
1.902478650897197809e+00
1.110072402184705487e+00
-7.771208727275723538e-01
3.310163226594267982e+00
-8.672539238215410506e+00
-2.838261462507212674e+00
-2.942497018404331754e+00
-1.840288158547599862e+00
7.331935858515553628e-01
-6.608225246050475343e-01
6.859281575828662270e+00
-1.408462246546363206e+00
-6.989456782803001644e+00
3.822408639067181646e+00
-8.997267105085805738e+00
-2.440879294641365327e+00
-6.888957773458592726e+00
7.731073166680011433e+00
1.133885597760782460e+00
-3.194204734866726181e+00
-3.841469954150851240e-01
-2.944535089854752652e+00
-2.040268393119077039e+00
9.386601045176381497e-01
-5.376708085440517593e+00
2.241839852169204228e+00
2.206241920307487003e+00
6.496450763148712282e-01
2.072997324882799308e+00
-6.249481526791505814e+00
-4.372809261244554158e+00
-8.409287235121842841e+00
2.304162157907272135e-01
3.514723240427794160e+00
-3.073487071435920370e+00
4.143702155806277432e+00
-1.800217178228450399e+00
-6.002548045634433116e+00
2.418715647447966521e+00
-4.765577443093515164e+00
-4.778782569096629018e+00
-4.721916145044399826e+00
2.980687332923201538e+00
-8.028313384329975877e-01
2.821651272212710171e-01
1.406712421976992200e-01
5.924962317787782595e+00
-4.622058103617716185e+00
-4.582886055144637538e+00
-5.273483254189577529e+00
3.209086310426412680e+00
1.286597966031056917e+00
3.365548739596637251e+00
1.488975979746807177e+00
-5.149304781748879734e+00
-4.137940603013587904e+00
-7.565494687433477417e+00
2.513989666830877656e+00
3.896117064042015965e+00
-4.925159780783380015e+00
-1.715398701656086322e+00
-2.010089749144941818e-01
-3.661468042195952233e+00
7.105490512315638663e-01
-1.821593922741823857e+00
-5.803109702208768539e+00
-4.158812170395134622e+00
-2.069463342195395850e+00
-3.027117433429574511e+00
2.324061959472545791e+00
-1.778403908494131436e+00
8.526135015812256412e+00
-3.877166273114757367e+00
-9.244381943527764989e+00
1.302143860753094372e-02
3.164330696004165056e+00
2.966388295062976077e-01
3.441811456679753523e+00
1.132760441451670319e+00
-5.445169696040731644e+00
-2.155373473884129254e+00
-1.792608517252728406e+00
-2.399167795011431181e+00
-3.971436185113140116e+00
-2.804860976985633414e+00
-1.844766584615697980e+00
-3.191923587339193791e+00
-2.460664061038063455e+00
-5.927780431805705241e+00
-1.778044407442301855e+00
-1.622991065476718564e+00
-2.172156849468175555e+00
-2.528411041400068449e+00
-2.798444025447122119e+00
-2.818562973494468604e+00
-1.546052782408661841e+00
-1.844218263693715221e+00
-2.120033326319977540e+00
-2.326987172458317765e+00
-1.250810346924034588e+00
-3.109587717741675750e+00
-1.774610906098683882e+00
-2.003192805041135394e+00
-5.123673398273806079e+00
-3.236420320653851768e+00
-2.466122913187569043e+00
7.866384009819198386e-01
7.757183904911153505e-01
7.431955178237470427e-01
8.024203633018550663e-01
8.079641108738927491e-01
6.670075908763535288e-01
5.639399291272472192e-01
6.625365690599477331e-01
8.061714956424335110e-01
8.331854030828461655e-01
8.460413458840515544e-01
9.881440817436931701e-01
1.023201900746361970e+00
8.172390169318566322e-01
6.840343528180122812e-01
7.924958378945399229e-01
8.846374202019490207e-01
8.959667015655742306e-01
8.474394858111299333e-01
9.525194854907146347e-01
1.081239946639947824e+00
9.518156588616296654e-01
8.276224806833080150e-01
9.360123755423473968e-01
9.753972019743960553e-01
9.944854080768189553e-01
9.046573300198238465e-01
9.551746247930040790e-01
1.081352451813391236e+00
1.053374323441973015e+00
9.553169569087476276e-01
1.020246960165157590e+00
9.049772414986320124e-01
9.967008469598839238e-01
1.013649674832932224e+00
1.055546772012507351e+00
1.103257445233813305e+00
1.017628572233807205e+00
9.023716607154688152e-01
8.827610018902461997e-01
7.513426721198787073e-01
8.916049655241032879e-01
9.529819837855617592e-01
1.021428420212460164e+00
1.028946518618328865e+00
8.363004657812468379e-01
6.539841309735444641e-01
5.917260080957470469e-01
5.730787995542429014e-01
7.213719596826708713e-01
7.170374723931398631e-01
7.074791269078618550e-01
7.469073001646837628e-01
6.370737589882747853e-01
5.373275469447673647e-01
5.671088056579607350e-01
4.847380693520456640e-01
5.975630955320138105e-01
6.039367174561577345e-01
5.142444171519108265e-01
5.435749884365280726e-01
5.636443797817332069e-01
6.096963661444203542e-01
7.047289014538872243e-01
