-4.372954917504597028e-02
-1.043320942952200014e-01
3.847264935931774682e-02
5.202787049265013980e-02
4.434107022886201593e-02
2.834241570209800609e-01
-2.317669845901178249e-01
-2.167556616581292617e-02
-6.087250582221064299e-01
-5.547073339102022160e-01
-5.637643894014865431e-02
3.325445437513061542e-01
-8.442246683048719447e-02
7.688707850100799657e-02
2.252646682904941022e-01
-2.566650819714474258e-02
-4.573577305405200355e-01
-3.613650031057554779e-01
5.210623653109538456e-01
2.437934003697567187e-01
2.839678147745461900e-01
-2.407066006796527713e-01
1.082481958620037793e-01
2.378009631607251040e-01
1.957672905888910020e-01
-3.310935677692005141e-01
2.281028384464129088e-01
8.380198009788505376e-01
-3.099356799602812074e-01
4.632995340259390971e-02
2.091826324541850024e-01
8.696166525109592926e-02
-1.820855822396710566e-01
-1.126503775209046765e-01
1.050681016879812385e-01
1.500323148782704286e-01
-2.950607445897387993e-01
-2.979990826914490909e-01
3.579752336381221423e-02
-1.178638941457956502e-01
2.261793212637779049e-01
-3.980750725709544108e-02
2.482428989569185340e-01
2.421189760156962079e-01
-4.656552603216313480e-01
-6.049962215058679593e-01
-2.079024830293015602e-01
-5.503060405295630009e-01
1.411613237564455503e-01
2.075259307472541448e-01
6.424837479336807933e-01
2.231568596099704205e-01
-5.297615076082512475e-01
-4.343003862725083319e-01
-3.253546724862693695e-01
-3.427746897721478669e-01
-1.762568611611399771e-01
4.306267632537794099e-02
-9.521937233153482394e-02
7.447734577152630153e-02
-1.410995582450021435e-01
-1.628769970217663343e-01
2.154275471726637414e-01
8.784897119981568969e-02
6.316772934189987532e-02
-3.704169367059692575e-02
-4.482707407770074592e-01
-2.764285605168803617e-01
-6.074089654609269306e-01
-2.447142859028340611e-01
2.290675312718832013e-01
4.079783390711111402e-01
1.347148076372608472e-01
-2.286749632474833205e-01
8.746052151049818479e-02
2.169749136450190574e-01
-1.544342594552520868e-02
-2.662068536457633527e-01
-1.610222229436613153e-02
1.145569088896991883e-01
-2.671009291614668824e-01
2.056443459183458777e-01
1.526964803003898474e-01
1.860451017736360069e-01
2.696255139312203064e-01
-1.273553510953935319e-01
1.068352961515764855e-03
-4.927810777728023339e-01
7.246556957677501021e-02
-1.299192507067089553e-01
9.579460781338611230e-02
-3.226853782939236304e-01
-5.589453707711565800e-01
1.613709147999745908e-01
6.728950516100856531e-03
-1.639392180294679535e-01
1.232906170063829132e-01
5.720996960196026437e-01
-2.433821866220461094e-01
-1.135989925734365302e+00
-4.174715505982773411e-01
3.112103222071794240e-01
4.811398332317733950e-01
-1.297662080609018886e-01
2.754319167794296308e-01
9.126059168512069830e-02
7.854616710729635243e-02
-4.942488879486604536e-01
-4.203315401962813835e-01
1.702560969370620070e-01
2.391288325237165002e-01
-2.979004851055379599e-01
-2.139552106422709932e-01
2.673875050637344319e-01
-3.963529676733448803e-02
1.236991522158287088e-01
-2.228524910402849279e-01
7.966771294055352559e-02
-3.466591913889449095e-01
-3.196650982240069605e-01
-1.952598544756346810e-01
-1.150391839909084418e-01
4.589577214059893939e-01
1.135418024951828919e-01
-7.442148818238168706e-02
-4.557230271190071402e-01
-5.528089835185624051e-02
-5.650928682328282965e-02
2.509779912822335604e-02
1.334949845240979704e-01
2.434478755248877663e-03
-4.463614354364724840e-02
5.945469708015364146e-02
3.253137482790232071e-01
-5.795382672200480312e-02
-3.544075600185848107e-01
-1.450796712602791805e-01
-4.823168012674342725e-02
-1.620906228000833227e-01
-8.055417101432428284e-01
1.220225080235003423e-01
1.658928069959282325e-01
1.151980571240650286e-01
-5.248759225420280838e-01
-6.399137948838272416e-02
6.157984206308237014e-03
-2.560699319335129065e-01
-4.393608035074813012e-01
-1.650594835360487678e-01
4.787575967047474901e-01
5.484334285373047846e-02
-1.524813542940749445e-01
-6.776246750952440168e-02
3.723216374312820487e-01
1.334097983921356534e-01
-1.188854614518347480e-01
1.061269380471425439e-01
3.075853068494818210e-01
2.508729229335170396e-01
-1.644576463510686315e-01
-1.617955859236781813e-01
1.269096004531471492e-02
3.310249095521269891e-01
-1.535449252111390495e-01
-1.225304099777224515e-01
-6.115645144343773848e-02
-1.391013519006079335e-01
-4.906921428021536469e-03
-5.352200533061789445e-01
-2.357907383993414485e-01
-2.993486116898012028e-01
-4.633574223778818002e-01
-6.513433496346345830e-01
-3.909782691176382219e-01
-2.220847141562834193e-01
-8.329847167378170991e-02
-1.563613748858858066e-01
-1.539721621678827312e-01
-9.309391034697460376e-02
-2.212817128421593060e-01
-3.090084145665004667e-01
-1.876621306242587939e-01
-2.197247586820940193e-02
2.761578015648626788e-02
2.060230687176066999e-01
2.421215036761429074e-01
3.424998415566263277e-01
1.684332978847969953e-01
1.724622836926048564e-01
1.957391489833330001e-01
1.903827158530638497e-01
1.946229639102657893e-01
3.240410828193880377e-01
2.705210152604506368e-02
-7.739714263945218775e-02
-2.772663179220679064e-01
2.690257850112909854e-01
-7.376435510018063135e-02
-4.319888036293020872e-01
-4.511835418641970130e-01
2.269914003126735913e-01
2.176603619556944091e-01
-2.190835048754389836e-01
4.512520714808323508e-01
1.623729743380489532e-01
3.048817047636344091e-01
-3.500580676479912445e-01
-2.005608729788281308e-01
3.355670882093014784e-02
-3.860778126904726992e-01
-1.496480569500929225e-01
2.250662493929715124e-01
6.528015750281587204e-01
-1.578092646959763368e-01
-6.829726254673244845e-02
5.224983576106522615e-02
-6.074277653177431041e-02
-3.811566998390691352e-01
9.014778230776773760e-03
-1.525858961398127850e-02
9.507629890754655533e-02
-1.478460628453939218e-01
-5.441830899290373003e-01
-3.372851119891518978e-01
3.348867317364107588e-01
1.921755081038064583e-01
-7.162130906621697601e-01
2.025077186071271851e-01
-1.745449355168383343e-01
-1.772769992970484598e-01
-4.883736522414270365e-01
-2.757759402382952141e-01
4.607953720448385582e-01
-1.213690590796624030e-01
-2.257800116737304075e-01
-6.514989507715470696e-01
2.317385091701026079e-01
4.684698690280107714e-02
-2.358832821729574258e-01
-2.949820379193625608e-01
2.182798445690775913e-01
-1.287871463560499169e-02
-5.854379086633063611e-01
1.823984193967332912e-01
-9.960387748284174614e-02
6.670323208016876171e-02
-1.351077139548160777e-01
6.734561672282371458e-02
-1.905393383734548668e-02
-9.661440334521144424e-02
1.612575167994748093e-01
1.099030883603431957e-01
2.714459873202313411e-01
-6.435947788168798478e-02
-3.499952971551198444e-02
1.773149892427617336e-01
-1.971604868776461461e-01
-3.034409549658128591e-01
-8.972866655430988825e-01
-2.250390853527110824e-01
3.628537130498458302e-02
1.643903341578313582e-01
-1.355000360160691364e-01
-3.689893703795443791e-02
1.472260439530529152e-01
-1.302776827748400867e-01
-5.579300553654009676e-02
-1.910629337197362887e-01
5.902438698295617292e-02
-2.690073842453588604e-01
-4.315449729108171151e-01
-7.753400459738460371e-02
-2.081667092188071999e-01
2.922868621519177923e-01
2.284266311140924488e-01
1.459353855319733273e-01
-5.540180938414934059e-02
-5.088790074906811567e-01
-4.129384217378460620e-01
1.875305766719204681e-01
-3.872053127360387537e-01
1.351941396510342730e-01
2.758520316633326086e-01
3.506475475051956670e-01
4.396539568748854959e-02
-2.907281965906177712e-01
3.354161632428382944e-01
4.135528921818898418e-01
-4.140848848373355207e-01
-1.251861501956434697e-01
3.478077097281983554e-01
9.373986285470761737e-02
1.311584292470023838e-01
3.898281956078633037e-01
3.305180822458105017e-02
6.682535593683975872e-01
6.393560837856657186e-02
-8.761233478442702338e-02
-4.255274411704002557e-01
-2.045987317601199174e-01
2.333793917877501345e-01
-2.753387719521435684e-01
3.393321145677409834e-01
7.445215296489157697e-02
1.549130563143673311e-01
-5.564147189211734318e-02
-5.054558315293411486e-01
-3.126293758949716950e-01
-3.110825670485709710e-03
1.455732431787088582e-02
-6.591389177235703611e-01
-6.222752640181174882e-02
2.930756589919276678e-01
-5.729175777041668055e-02
-2.085411483828159551e-01
1.892524915910621594e-02
3.619208758615905519e-01
-2.206568861051655117e-01
-2.827214216589287177e-01
-1.552143944641511952e-01
-1.981798920612346526e-01
-2.358367627442110315e-01
5.114494860688432176e-01
1.180170231297602151e-01
-2.259795387377346032e-01
-1.200297135043165847e-01
-2.208820154711502726e-01
-7.492280057331653920e-01
1.380343636298038690e-01
2.245334814388256217e-01
-1.764550391809872540e-02
-1.918741921540858056e-02
-5.235864657770323838e-01
-2.301788310925463044e-01
-1.258286861356604502e-01
-7.893677696870282645e-01
2.722632455334275670e-01
2.612766041782582996e-02
2.251882540418309597e-01
-2.458764727966062658e-01
-7.451843171013944334e-01
-1.927338672242787446e-02
2.050815120478590436e-01
-2.486721525058908921e-01
1.587301057694661399e-01
-1.551071467627629652e-01
-7.305650448441784912e-03
1.251207562791963879e-01
9.268091234574901693e-02
2.280084686002151889e-02
2.483909874101097870e-01
6.952757320854371925e-02
1.575154553117254219e-01
-3.710184059851474592e-01
-2.425037572048074630e-01
8.706915100369630456e-02
5.448092949756920544e-02
1.942763969485894471e-01
-4.601590909050198852e-02
-3.370951089426478531e-02
3.788877316725470235e-01
2.672486678589338083e-01
-1.337373784069416094e-01
2.246347414403853104e-01
4.928662549894232553e-02
1.741442904617337625e-02
-2.620376686047175552e-01
-4.309685956806155183e-01
8.131294461648578276e-01
5.171181021811620537e-01
1.921729753158230580e-01
3.037218915622911797e-01
3.052467139711461663e-01
-1.072678846422843585e-01
-4.708371579687550268e-01
-2.820227003807825872e-01
3.563164692896400587e-01
3.503854063575747024e-01
4.213147855132438613e-01
3.435241944439431094e-01
4.809249584750732026e-02
-7.141364428175926010e-03
-3.044757307809047853e-01
-1.609604495286400816e-01
-2.655829658906819213e-01
1.100382912233149602e-01
2.742964452168774603e-01
7.066544741041444477e-02
9.557130028787576281e-02
1.420755809032056838e-01
-2.999144826861872559e-01
-5.084400325589111258e-01
-2.608138112479681525e-01
3.348492238171880131e-01
3.852081092568699905e-01
2.496602168833492869e-02
-1.790171342680521860e-01
1.914790307169426664e-01
6.894782917930550314e-02
-1.306392950421012833e-01
-3.199325043477765362e-01
2.296659094927130662e-01
9.287065072238102903e-02
-1.597042718600884814e-01
-3.119811113675008407e-01
1.254383201114061264e-01
3.575021544244131461e-02
-1.552683225110691213e-02
-2.628297557244457239e-01
-7.620593101549653914e-02
4.747737228747704319e-01
2.819505236182324667e-02
-2.485381197727126179e-01
-3.101588353357100925e-01
-4.928770911310194069e-01
-3.532925976442957139e-01
-3.498628768789847077e-01
3.198341980256793060e-01
1.640709256795357118e-01
7.840751523066825934e-02
-1.265365959030565202e-01
-6.685678141979953248e-02
-2.403514881482798904e-01
-4.886655382614662479e-01
5.494435291650343750e-02
-2.791481316338072227e-02
3.468021234046133605e-01
-6.104921080965827751e-02
-7.849470651864136339e-02
5.417386587582753155e-01
1.482156933543628541e-01
4.260564019635906807e-02
-3.505780037664828486e-01
1.440455818714520553e-01
-1.348010591335090658e-01
-3.938826291721809203e-01
1.246181049449704981e-01
2.581474096579833843e-01
1.672157720358952160e-01
-3.930627300363117582e-01
-3.853607472607413209e-01
-2.108742426716807006e-01
-1.557694141338037963e-01
-5.223638486288557231e-02
-1.130482645237717021e-01
5.308872942300627701e-02
-4.452224526776065727e-01
-8.383243628249105184e-01
3.450225309697195764e-01
2.511285309444497571e-01
-8.787356373253993325e-02
8.569927066022642315e-02
-3.606750982702536246e-01
-2.478066635751755564e-01
2.217063116644453213e-01
1.017592643888501625e-01
-3.171636469787094681e-01
-7.678203009741547680e-01
-1.414519970159563989e-02
-3.576226015850260675e-01
5.626648723028686294e-02
-1.485862956466216800e-01
-3.459129375435077702e-01
-8.486160795460542250e-01
-7.168561564556833465e-01
-5.239968194620682196e-01
-2.449128433704127750e-01
4.459754325287218490e-01
8.398198869613193729e-02
1.921033917627553156e-01
-2.271577214974584702e-01
-6.358163072899067902e-01
2.122989658120410031e-02
1.286615321007515966e-01
1.576004107728516124e-01
-1.090825049487791770e-01
-2.594784475913561872e-01
2.528967166914772302e-01
2.909326242707869770e-01
-1.524255238681213043e-01
2.814933533104809760e-01
1.090495903848982262e-01
2.004087280965708984e-01
-7.656310111121189012e-03
2.280603271935413012e-01
-2.807419060944864597e-01
7.873334159251732522e-02
2.302599499470083799e-01
-1.347917680594941103e-01
-8.903872023035906691e-02
1.090285832633460655e-01
5.798497026682043476e-01
2.193005538683781286e-01
3.718604055473652501e-03
-1.770799242129232620e-01
-2.067853687293487730e-01
-5.247572281244555770e-01
-3.562823813300450282e-01
-7.997019607334691915e-02
5.006184734512684198e-01
7.243972099529178976e-01
7.633852424964578109e-02
-1.575526649814052160e-01
-5.396531200947272955e-02
-1.792756710584580970e-01
-5.424673373593381642e-01
-1.078385327055081250e-01
-1.196804971082367081e-01
2.007309491692295389e-01
2.668151089168014911e-01
3.006702983245965535e-03
-4.161768195399738468e-02
-2.882842557582255272e-01
-7.743623196574266343e-01
4.449778554379340417e-02
3.601146388952575217e-01
3.041532241011207782e-01
-1.749672396053637280e-01
-4.783398018862272116e-01
-3.461275718022153169e-01
-5.640612740751539400e-01
-4.593993161147694737e-01
-3.556211044329612436e-01
3.196105927564639182e-01
1.226526459641449074e-01
-7.756384828313860058e-02
1.318935220038303657e-01
-4.519886498151436116e-02
5.407691118116084855e-02
-1.145906413794664652e-01
1.047281875781578137e-01
-6.372792807778727975e-02
-3.903459191682575047e-01
4.325167693703794169e-01
3.621604796850327879e-01
2.875887867263942632e-01
3.891436855905325981e-02
2.358989846199300855e-01
-4.464978067804860340e-02
-5.406216999467342577e-01
-2.573910437428706954e-01
-8.411430580576072236e-02
5.231375475810260411e-01
1.105413558722462553e-01
-6.036021897662768865e-02
-4.033749561679714213e-02
-1.604356538489623285e-01
-3.676256730339080847e-01
-5.258030593062067437e-01
-1.110143069819875677e-01
-1.317077714346561179e-01
-2.753471906995398344e-01
1.661329824402238697e-01
-6.018353472157102202e-02
-5.029242033512842935e-02
-2.432553789920567297e-02
2.043310990107622127e-01
9.143457657706563491e-02
2.899863547627885840e-02
2.549003878677971180e-01
3.764113942439810678e-01
1.376134765702312912e-01
-3.883883104269998388e-01
3.600623510503062757e-02
1.017149436680987867e-01
1.401570171986290247e-01
2.504160284919558777e-01
3.555456716748053858e-01
2.054957303054436857e-01
-3.462924162558064789e-01
-6.235350704348202600e-01
-3.633546919285808863e-01
-1.475742075040197832e-01
-2.114722756332665932e-01
3.715452285571032697e-03
2.697922489330944473e-01
1.712848482203646050e-01
-2.041652751645518793e-01
-7.146508424404095505e-01
-1.429287646230154030e-01
-4.549410974171314709e-02
2.176866981743402207e-01
-5.057701964652893123e-01
-4.090815878006618389e-01
2.189487878038364477e-01
-3.525440960643372312e-02
-6.515388409986639928e-01
-4.757685995686525282e-01
-8.025582138472127369e-02
-8.650928756739657832e-02
-9.264709220986358518e-02
1.283239597676713861e-01
-8.862060421125404763e-02
4.000539420336368668e-02
6.872424183804835829e-02
3.770699963098908102e-03
-2.942825525516885588e-01
-4.549839191061338939e-01
3.264244041525201645e-01
5.027986773782786578e-01
9.515783936049282410e-02
-3.626770570678506944e-01
1.382546298735136681e-01
-1.950239234008265266e-01
-1.792866994756767418e-01
-3.618092590535946229e-01
-3.736220846894893755e-01
3.033663542712323191e-01
-3.534975961969835656e-01
3.321087291623345261e-02
-1.655068375865562658e-01
-2.680495230740354701e-02
4.916750352449381642e-04
-9.111941126655351275e-02
-3.123167175086912217e-01
-6.289377726116425482e-02
1.723185069754144538e-01
2.160118737039915526e-01
-1.508544926127613484e-01
1.271221564617810440e-01
-3.583102922277259239e-02
1.187908575713325227e-01
1.658055727763213805e-01
2.889851995123988160e-01
-5.915983754510725223e-01
1.995562334634421175e-01
1.064228515588276247e+00
8.348605834853788793e-03
1.549294096649266039e-01
6.416864162237970182e-02
3.745093511992248492e-01
4.664971166885619192e-01
-6.795500928083317849e-01
1.325652704620088052e-01
5.628711667276649067e-01
4.166501824194588921e-01
-1.763881609284838337e-01
1.892276731263277390e-02
-7.060580440861001679e-03
1.350915046744116943e-01
2.797330947076354102e-01
2.462939286802686145e-01
1.741590695486041340e-01
3.220669744845625071e-01
2.732561158176046168e-01
-2.183513640195495209e-01
-4.296412344467485933e-02
7.063807464472143804e-02
1.284396143367725340e-01
-1.246656819257513094e-01
1.835382491321262133e-01
6.587667511357197213e-03
6.227692876572024985e-03
-2.692868093427112086e-01
-3.126923635285585035e-01
-7.992413392341118222e-03
-4.602921377193027186e-01
-1.616308563849815916e-01
-7.230015759507922857e-01
1.594582611931441851e-01
-5.471228791096244271e-01
-4.807733752859536525e-01
-3.028661878981659394e-01
2.787730831969059339e-02
-4.229396818737095054e-01
-3.523636483722336066e-01
1.444701613665542450e-01
-5.059446198006122275e-01
1.419680503909507563e-01
5.094760032141151807e-02
-4.879320675433268528e-02
-1.089766475444851751e-01
-1.579903425562969310e-01
1.421637542480886363e-01
1.190604330965503443e-01
2.364336889037465528e-01
3.412604885884765737e-01
2.331130259584227316e-01
1.218201327366119913e-01
-1.678731232494124759e-01
-1.845499253048009936e-01
6.257751695453817042e-02
1.463575288647323835e-01
6.906287004565260512e-02
3.559812618017400843e-02
3.347876475262704932e-01
-2.078315377008331521e-01
-1.787220252149444855e-01
-1.325562144168596357e-01
-5.327962432736001869e-02
-1.229958085631208120e-01
-3.314277893081542525e-01
-3.084502250523449840e-01
-5.673457926261278317e-01
7.492396570342438333e-02
1.909034859822761332e-01
1.268934791599220790e-01
2.240396580100320334e-01
9.193135099053202641e-02
-1.798419965248609920e-01
-6.800707043329506929e-01
-3.854945597454690343e-01
1.132137888747946075e-01
5.992684367016188896e-01
3.026569281373097109e-01
5.623599672674904904e-01
2.616513492822790110e-01
4.239066385755283495e-01
-2.602849526010078685e-01
-2.237075780949962511e-01
-3.879003806031510182e-01
-7.727547722190106737e-03
3.203083066754558450e-01
-1.747498159754771463e-01
4.739576152931014308e-01
-1.658630982201501347e-01
1.933705825006034884e-01
-5.802073343586913179e-01
-3.859372331183035243e-01
-2.568156636125050740e-01
-2.164308175303207224e-02
1.257389364897840978e-01
-6.050388343340653563e-01
3.027689711549188534e-01
-1.750458548274793913e-01
-1.958088768599006990e-01
-9.797846017724702594e-02
6.171469652515668147e-02
3.607806778112002122e-01
-6.039751344685220236e-01
-7.764222699012507389e-02
-4.800400233880646600e-02
-1.529388353408654422e-01
-1.054783346499893332e-01
1.419482506006814471e-01
3.191612692429267040e-01
-1.185894265171548168e-01
9.910301689318404272e-02
-2.277855895830341038e-01
-2.053400534973159886e-01
-3.469059189248116515e-01
-5.098340927443193449e-01
2.433062925065564985e-01
5.089290319809915975e-01
1.031980938178609780e-01
-2.964760582660608268e-01
2.849890048040478741e-01
-7.233052304312712066e-02
-6.586408046206229105e-01
-3.768180512904780177e-01
2.461514037383503439e-01
3.434310944030757318e-01
-1.209943433573833632e-01
3.569776821591780780e-01
-1.716279788151355290e-01
-1.007712128503435028e-01
-2.371002533086377928e-01
2.839110164841164852e-01
1.053132297932164729e-01
-9.479410134494844695e-03
1.709578679699221004e-02
-7.449093657435368332e-02
-9.017341121964170259e-02
-2.316473938542251421e-01
1.617040175849101535e-01
4.533073878456743144e-01
1.392481381767583515e-01
-5.138712311187263460e-01
2.604364022232452669e-01
1.308296925067174710e-01
-1.479491306012077345e-01
-3.679045845803115555e-01
7.679816893847070391e-02
6.222741816436111462e-01
-1.006454371313775104e-01
-2.659402027471628460e-01
1.940140400512182506e-01
6.832197704312524891e-03
-1.120361534830304068e-01
-4.151617856086119440e-01
-2.776725415660134533e-01
1.474670392808880015e-01
3.199476063054925712e-01
-3.247601009379670889e-01
4.304532423846880729e-01
1.335709918285685471e-01
-5.771906406252498567e-02
-2.025503191412217907e-01
-5.485556943704759103e-01
-2.975481192194076030e-01
-3.933319354851960159e-01
-1.822265621204417763e-01
7.495430913323537503e-01
1.119803751370794520e-02
-2.348012804860050706e-01
-1.100395227316678382e-01
-4.188662318744773572e-01
-1.524886689962397790e-01
3.575761205314836322e-01
-1.536328646539976417e-01
1.364315836759414646e-01
-3.160060929297281995e-01
-5.359266478412729739e-01
1.080569048016232769e-01
-6.146319051917468936e-04
5.969329725577835477e-01
4.104004995073584072e-01
-1.024130350463767630e-01
-7.103253910857007525e-02
-4.052727983209590823e-01
-3.075118868760853275e-01
1.694977813119021570e-01
3.357776974517425184e-01
5.505762706690142672e-01
3.748412989692483377e-01
-5.738255595617982596e-01
1.134012240243242875e-01
-4.370129433964566323e-01
4.092140337425292929e-02
-1.492920880597074784e-01
9.274763863322346702e-02
3.276382189622606411e-01
2.034598166746907355e-01
-3.748026838778276693e-01
-1.559452565524595269e-01
-9.561454981786056406e-02
-5.337543387471634926e-01
-8.509604331136697009e-02
-3.717459443266382668e-01
2.694347368380924923e-01
3.992857481082030535e-01
2.235963931091391466e-01
-3.272041033908740237e-01
1.813932792355662516e-01
7.527319034124659025e-02
4.248375601997261830e-01
2.140957897274118338e-01
2.006745677306435993e-01
-1.249102899572539366e-01
3.098914440078687563e-02
-2.069111992996455762e-01
-1.880243016171033177e-01
1.590012628643966974e-01
-4.707172861430463096e-01
-3.134351850570410436e-01
-6.786759429145883260e-02
-9.613458847047255673e-02
1.592643644251458546e-01
1.592725444058264994e-01
1.514903562954996730e-01
-5.540180551239750617e-01
-2.476439236918751563e-01
-5.723546458660223879e-02
-7.384728511662448647e-02
5.837362371622992901e-02
2.497523960969564027e-01
3.015401521826138187e-01
5.951591531311981043e-02
-2.619221080700318560e-01
-1.123838529634851001e-02
5.266179144342745255e-01
5.832633246791915083e-01
8.223884911777525064e-02
4.512580307542927299e-02
6.376398431849837900e-01
-7.237987097755085864e-02
-2.474104750061788260e-01
-1.232138674322460214e-01
4.045029031558101673e-01
2.515661808926742959e-01
-9.207965753688493460e-02
6.697962913032295962e-02
2.264584041170122075e-01
4.075485348157652510e-01
-2.824474852580712292e-01
-1.264875513839368304e-01
-7.622946019462021640e-03
-2.805709404282883401e-01
-1.844661025759126646e-02
1.861067555121478090e-01
-9.515094053235413629e-02
-2.136039798272509060e-01
1.931429596795082859e-01
3.350345008868772789e-02
-4.191890187703028459e-01
-2.696348699843703067e-01
-4.966003413164463698e-01
1.561759585717466432e-02
-9.399164595253225452e-01
-5.565817537939041770e-01
-1.592889815221874561e-01
-1.738281098977683846e-03
2.537933306717412019e-01
-4.689743343056622660e-01
-5.004775177502011063e-01
-4.745310942425804979e-01
1.140247969001756817e-01
-2.045043675775388425e-01
-5.112496433837883103e-01
-1.106376490922844971e-02
-1.801833054937692913e-01
-2.011933461657372246e-01
-1.932130862934297866e-01
1.384969991086570928e-01
4.592535701437620577e-01
-6.355456636081990851e-02
-1.064787062488785629e-01
-1.764990670209801160e-01
2.108759952687093986e-01
-1.363190135196486463e-01
-1.057585625648919531e-01
-1.689545173451993676e-01
4.402219711794532198e-01
2.586189614479570964e-01
-9.321929306841378327e-02
3.053722118394075480e-01
2.196639849816425238e-01
5.095152364557409275e-01
-1.072993925649888824e-01
-3.406380955105123842e-01
-1.895202414583466999e-01
-1.327588725976519002e-01
-4.343804925478480516e-01
-5.144250481512239320e-02
3.698160414939532514e-01
2.881038630377301679e-01
2.479240540752420119e-01
-3.572866137277845855e-01
-9.084163723693502446e-01
-8.115854357452463308e-01
6.303526308687457114e-02
-3.126243756075057223e-01
2.506134118240563313e-01
1.176544812251022615e-01
-1.339593056930392101e-01
-3.477414565153644777e-01
-3.592418166306091121e-01
7.675657455186760125e-02
3.363327070882251024e-01
3.732358421651384428e-01
-1.166134504515115994e-01
-2.100814155962452690e-01
-1.367670402868069283e-02
-1.519304279158430193e-02
-3.735191965192945912e-02
2.511301373853019325e-01
4.308409008526258854e-01
3.746468542869105245e-02
1.887880815932408904e-02
-3.488443307331212662e-02
5.740978053345806298e-02
-1.269681789726113674e-01
-1.882020279612642809e-03
-2.283737685983984467e-01
-4.138024011965206195e-01
-5.307130545711105096e-01
-2.827612008661921084e-01
-2.235170093050203172e-02
-1.036115329897882992e-01
-3.174857682012341420e-01
-3.729275655045121568e-02
-5.011790158117499505e-01
1.565257111801861278e-02
-1.199373395082240293e-02
6.399703752749960964e-03
2.037730936686870942e-01
8.014045534957638939e-01
8.711705126789387466e-02
2.395368357954127392e-01
7.749366030614174283e-02
-4.312242018661278098e-01
2.715657882386619537e-01
2.167994306494159806e-01
2.739471868142287492e-01
1.587813262054497410e-01
2.756765483630903568e-01
2.111366571628814082e-01
-4.831656838683111022e-01
3.560805877790623741e-01
4.465980831446572097e-01
-4.014314319893007021e-01
9.796273325372725771e-02
2.555557183958062084e-01
-3.435181424871160405e-01
-2.173495608036776772e-01
-3.359212632854000069e-01
-4.121758694625292374e-02
3.044161857018364836e-01
7.068006322628307414e-01
-5.995672866324022188e-01
-2.875282722302006100e-01
2.130833359602090915e-01
-8.899423149341990913e-02
-4.131557922317427578e-01
3.197563835625943929e-01
2.373256082974973258e-01
-4.687319549598676360e-01
1.729088204664754047e-01
2.998504535425399187e-01
2.362412500769725879e-02
-7.610235821667966916e-02
7.233392975802016567e-02
-2.635978840146776525e-01
-2.420874399554371892e-01
-3.262037186844009007e-01
-1.159069687641375024e-01
2.420287231856778701e-02
2.124946427075541933e-01
-5.948665201424987448e-01
-6.067346561174099540e-01
-4.961972114290654212e-01
-3.012228695475189788e-01
-3.789615745930406954e-01
-4.267750559532546700e-02
6.152721088609988120e-01
1.191046913950782604e-01
-7.983755335159135047e-01
-1.006685235998274974e+00
6.426240563061118294e-02
-1.895360667589130743e-01
-1.172482995478144607e-01
1.381530033033490368e-01
2.757273935210787785e-01
3.095617327765062821e-01
2.154558425508635577e-01
3.411139853936575594e-01
5.897551845189902969e-02
-7.068634235503576946e-01
-4.095806294455647811e-01
-1.590954246001620165e-01
2.336900862419817038e-01
1.169817066286936956e-02
1.947025802080095958e-01
3.624456850640135896e-01
2.233022417805043958e-01
-3.993282445317841156e-01
-4.372036633504725600e-01
5.158379319070687252e-01
2.640609856250198950e-01
2.609458530254563091e-01
-3.016102047200770464e-01
2.901689996353360584e-02
-2.062011930589600361e-01
-1.380885613493523512e-01
3.860971806886212727e-03
5.275328544211746462e-02
3.571551865404087867e-01
1.780582921281278208e-01
-4.458225926447634824e-01
-5.838566968000374890e-01
3.652383030366163075e-02
-5.437167206620754367e-01
-2.701691828317202004e-01
-2.637907020629304822e-01
5.288144160785491349e-02
1.465919461885106523e-01
-1.059977821340458426e-01
-6.044006654995189021e-02
-2.439134191092856008e-01
2.658127574010394345e-01
-1.690014139480559008e-01
-4.608552311238014454e-01
-6.608138131008879645e-02
1.457504126093471797e-01
2.638252561381676520e-01
6.131390023958576546e-02
1.592175394562538732e-02
2.972678859643980709e-01
-2.513439461269535019e-02
-1.246650149882775616e-01
-2.002079165109844072e-01
1.455127552986998189e-02
2.911258860958294004e-01
-2.113353008081940987e-01
-1.972209699931005700e-01
1.517059395515963360e-01
3.202813635863673847e-01
-4.206332559011861094e-01
-2.766718162244999335e-01
1.156542951690773535e-01
8.525519935143349715e-02
-3.109303896649415200e-01
-3.943044779174240677e-01
8.620434362680767792e-02
-3.865803258884034643e-02
-3.407003182873063474e-01
-1.115595887133439407e-01
1.309713419397339762e-01
-2.253974402499232532e-01
-3.475620449356476294e-01
-3.630847499529454847e-01
-1.186217128339762672e-01
2.150475805613530356e-01
2.262308011830568150e-02
3.656640673317906876e-01
2.807285145828088968e-01
2.806739606790396580e-01
-2.345734872040624308e-01
-2.503603196010894538e-01
-6.954810742794259593e-02
9.944330322872027561e-02
8.065208743378005085e-02
-6.313196176174452889e-02
2.373451407251338796e-01
1.915923995587962558e-01
1.669477055088496864e-01
-5.593282896578664065e-01
-1.977862281394733301e-01
-2.448197988620663124e-01
-3.301238616566048445e-01
-1.896795164301012526e-01
1.566822006360849284e-01
1.191254712658861986e-01
-8.401176765413675973e-02
-2.444558430453771247e-01
-3.141734969041570791e-01
-1.818068109832127709e-03
-3.007343198980453880e-01
-4.667148640328316195e-02
1.565142604897043210e-01
1.891578114199046479e-01
2.911336918740444202e-01
4.827930335119430261e-01
1.331627055298841844e-01
1.350334179030182880e-01
-3.105831131009102464e-01
-2.839761456394884753e-01
-7.357561867452229454e-02
4.213342680896550729e-02
6.162962502213760185e-01
1.977579725325132043e-01
7.178052081425428943e-02
-1.479359577491612954e-01
-1.062551474257793643e-01
-5.164397345523348282e-01
-5.335499470999640614e-01
1.331319674695196631e-01
9.649651185999133518e-02
-3.023056344275181634e-02
-3.443396670842480689e-01
-5.910826247406390094e-02
2.066627751375301747e-01
-2.187795548239960253e-01
-5.075892227992367944e-01
6.652066810709718336e-02
2.856577725579451804e-02
-2.706439671971891392e-01
-4.373365873916983393e-01
2.120782659381192647e-01
6.057062578433114464e-01
2.672463665189662718e-01
-1.296466088437762398e-01
-7.458735108190477359e-01
-2.401287253677549249e-01
8.932935353234823517e-02
3.037373376287132512e-02
-2.011671190154970257e-01
-3.299158243847101768e-01
-9.363748167603477834e-02
1.140682050803529662e-01
-2.242942628417801676e-01
2.866525619982689399e-01
5.499456609519993711e-01
2.423166501058445776e-01
-4.874695089874325066e-02
-1.794229449260377751e-01
-2.325483722220725025e-01
1.547475833077077978e-01
2.740983947744918270e-01
2.553773359236810037e-01
1.875948988155982933e-01
6.812159920360896792e-02
3.118666710236866341e-02
-2.496641407929887646e-01
-5.196161883939774684e-02
2.867163841984135542e-01
1.084334585614538521e-01
1.115269963919983398e-01
-8.176762054196751173e-02
-4.964715540222005008e-01
3.952261493645897739e-02
-2.437860362203635167e-01
4.953396372855985857e-02
1.325464311605734358e-01
-1.971805240613724516e-02
-2.177317472104646767e-01
-4.852922052260694730e-01
1.378732571604305290e-01
8.699220338896342108e-02
-7.465299802907977844e-02
-2.924667888321128562e-01
1.814342046020107624e-01
-5.378571712005076888e-01
-4.711936701455343712e-01
-1.266616777258190163e-01
1.779586835157253855e-01
2.835240441559050417e-02
-1.296736166440765614e-01
-5.535800341882983755e-01
-4.153607228129954643e-01
-5.446290707261365327e-01
-5.313603735900516156e-01
2.300883765482799118e-02
1.422390672700816865e-02
2.128810267464816275e-01
-2.770801279942451956e-01
-1.192596863804464141e-01
-1.137346388758456173e-01
-2.122182756268606862e-01
1.618480571923660294e-01
1.753875772406620903e-01
1.853740430353994495e-01
-4.514537442961742003e-02
1.788398642611507272e-01
2.563997037088719955e-01
2.300283662205437063e-01
-2.156319835005646446e-01
-1.551088638342515702e-01
3.975080729853032457e-02
8.118075972330122958e-02
-2.346895301660320565e-02
3.980494762189897839e-01
2.412097990982588480e-01
1.536412157542022816e-01
-3.041567037384478311e-01
-1.734888748707236472e-01
-3.010615371838311072e-01
-8.741428689449878831e-02
5.123975484299182481e-01
-1.423272443078856253e-01
3.664819939158633910e-01
-2.052825773789309916e-01
2.316687463708422823e-01
-2.533852558641341290e-01
-9.690161493673662974e-02
-8.640130432359620360e-02
-3.222993151215213237e-01
4.306531145576293351e-01
-7.371965718655635325e-01
-3.023947108988309651e-01
4.136977096778675089e-01
2.346187901825119715e-01
-4.987546771556452541e-01
6.876839053733979634e-02
-6.907218793746389141e-02
-7.690607724475446716e-01
-3.186259097980372323e-01
-2.835893057404665352e-01
2.487494113411880536e-01
-2.557634918860779427e-01
2.270131983769405233e-03
-7.525775213470997649e-02
-3.128141789754252527e-02
-3.108181192683170391e-01
-1.324478869194006259e-01
4.182283500340979177e-01
-2.842427337282276145e-01
-3.504264536502608718e-01
-1.307838310631495582e-01
4.407572434365191749e-01
3.061550370577103847e-03
-1.648312970348704554e-01
3.418913161218453678e-01
4.274045534165710203e-01
1.377040011407522010e-02
7.066014639716114432e-02
5.807503776678910740e-02
8.145388904021069743e-02
-1.302801314538029887e-01
-2.485091788208985131e-01
-2.827405797267649318e-02
1.405291446438284436e-02
4.252457146423068157e-01
2.954696658004756782e-01
2.054488486220475696e-01
-1.187413327049248180e-01
-4.534223462188809450e-01
-4.909857101011350089e-01
-5.227174316065389403e-01
-4.166576967054869685e-01
-7.799197877091061937e-01
-1.227915312894415634e-01
1.426575548130886405e-02
-2.423355769073908261e-01
-3.238903104379820541e-01
3.376414179112785519e-01
2.289352560556581206e-01
2.040503172703810320e-01
-6.645728846224154829e-01
4.033619789872940065e-03
4.422553696952680746e-01
-3.496218639825924845e-01
-1.738715398736098983e-01
-5.215952187941716445e-02
-1.993082102496757449e-02
-1.893822753143785675e-01
-4.273543202685542997e-01
1.106236646473537089e-01
2.444785962363853205e-01
3.863607518671078982e-03
-1.570406957512332780e-01
7.904807580689164614e-02
-7.144688579791814709e-01
-3.569846227915395298e-01
-2.504840627645050222e-01
-3.054421476193602270e-01
-3.103641520133235132e-01
-7.596465131116018898e-02
4.631603797738255146e-01
1.366522614082778427e-02
-2.202903996067281933e-01
-2.995799385421720196e-01
-3.424983332953685650e-02
-3.100196280101511492e-01
-2.724629333398451703e-01
-1.565536539461254151e-01
1.499495305572035864e-01
1.547299305679065706e-01
1.899784174346934654e-02
7.173322028546300078e-02
3.114182041027715453e-01
5.371467512650226483e-01
-1.914409021857097215e-01
-7.958038520411797601e-02
-3.715897324398371310e-02
-1.320056865667303403e-01
-6.333076578159867187e-02
3.639899410129509572e-01
4.221844664502524269e-01
2.679402546521363893e-01
2.479635356748960962e-01
-2.172338580145218578e-01
-1.103657263028149094e-01
1.603815665870367557e-01
3.076294515893420178e-01
3.663308274901769246e-01
-8.128804981138140762e-02
9.082546609895886247e-02
-1.677290276404671543e-01
-1.596123483305567359e-01
2.698230775277083993e-01
3.340938037415052686e-01
4.355367919779098429e-01
3.173370070574549895e-01
2.311754943107252949e-02
-3.276554948890573332e-02
1.681807926735794934e-01
-2.884655459376203046e-01
-3.744743789246897103e-01
-6.111238764153079650e-01
1.367104921237043136e-01
1.768438585345851258e-02
-3.501745682608231047e-01
-3.228067987917797588e-01
-3.032543661945732993e-01
-3.818926102020769875e-02
-5.131887899112027585e-01
-8.848872685637096391e-02
1.526050107014925994e-01
4.733706411446983453e-01
-2.679362491791563161e-01
-5.328153532795131264e-01
-2.171630543085321940e-01
1.490330297169257523e-01
4.870505588141622183e-02
2.447212574577643796e-01
2.934034222391912472e-01
3.937493952989117307e-01
5.742520062069285391e-02
-2.636535460442009926e-01
-6.209926997991428721e-02
2.551982808401822567e-01
3.838485701979767462e-01
-1.087072176739641571e-01
1.126411743320539643e-01
3.123622422666169629e-02
2.124090489202593579e-01
-2.230048582535927582e-01
-1.745954272573585486e-01
1.295463338366134032e-01
1.946064923789452561e-01
2.193656483898800968e-01
-2.384224961259371889e-01
-1.105223026699084371e-01
-1.893493343126730344e-01
-3.703784035131553742e-01
-3.758005633663435985e-01
-2.898677377264139987e-01
1.108639940621401893e-01
2.183827725533391828e-01
2.246892636116957220e-01
-1.530721119321760970e-01
-4.780202431910034883e-02
9.922130305799554961e-02
-2.608605892641366886e-01
-2.129183967487403295e-01
-1.425888818507015654e-01
5.332005198133600299e-01
8.120898150038886876e-02
-2.627316802540855534e-01
3.315590503006219936e-01
3.988251295397718388e-01
3.921496927872341054e-01
-2.922738030516722763e-01
-1.119463179232263461e-01
8.631107286299199988e-02
1.379487857326149557e-02
-5.133334102300679547e-01
2.711802304087367332e-01
1.532871806547433102e-01
3.971627703320097791e-02
5.149393134249743986e-02
-2.250449541240713003e-01
-5.056174709114104049e-01
8.861052396790206065e-02
2.177140221433197242e-01
1.634799654925185586e-01
-2.902497659542196407e-01
-1.265940291394488104e-01
-3.765914259501041972e-01
-7.555773652554433895e-01
-3.901649378243770006e-01
-8.879078723631479708e-02
1.602685578511674203e-01
2.427419056535300990e-01
3.345729332044922177e-01
7.040462480427059355e-02
2.250203775239591752e-01
-8.433221235770790858e-02
-4.304603694855778095e-01
1.961202884032817173e-02
-1.217369277984418907e-01
3.804363091555606480e-01
5.244977285115092203e-01
5.496331473722231298e-01
3.630644893059966627e-01
-8.822629399983987486e-02
2.694292548125246101e-01
-4.072986037238721657e-01
-4.391169070002711172e-01
1.182904502510028072e-01
1.595819615089482182e-02
-5.751218553386935189e-02
1.272958797097634986e-01
-9.049850166688463288e-03
-4.771541810370212855e-01
-3.854727253904752238e-01
-4.109089406325548977e-01
1.646449104820283185e-02
-1.386269874819616721e-01
-3.393149276853290458e-02
-9.679396814867663457e-02
-1.287525529988245709e-01
-1.855110879198624274e-01
-7.530090882249468320e-02
1.039255666908409925e-01
3.168174520797490401e-01
-1.037957413883234120e-01
-2.092210760859034568e-01
1.073501370492115775e-01
-9.015233339725905711e-04
-1.657169814896096716e-01
1.789211350810173129e-01
3.987866880910880818e-01
7.600604605050223506e-02
-9.400232198212636614e-02
-2.871205437666939364e-01
-1.251035047672950928e-01
-4.527062539590664264e-02
-1.949759479671427098e-01
7.248860895003690630e-02
1.976200651350019100e-01
3.597509811767937715e-01
4.422955821273050203e-01
2.194071100276652562e-03
1.286471475566638434e-01
1.676493024100852436e-01
4.786410172798180040e-01
4.389740956134489114e-01
-5.499675171646075528e-02
1.067074818816206166e-01
1.083763208441572562e-01
4.731525894484001071e-01
1.600910570669572819e-01
5.367380562223256386e-03
3.710915589717354024e-01
1.589790088783499256e-01
-2.473547260527284575e-01
-8.439363982961160804e-02
4.176373060135558091e-01
6.696949500415452228e-01
1.120103933067328333e-01
1.333747042304633257e-01
-7.543969520552963604e-02
5.177170924543592762e-02
2.572230901978719286e-01
2.013844815684637246e-01
8.032442002734547712e-03
2.583346493896264140e-01
1.304484083337671407e-01
-2.998404999192091913e-01
-1.472276391951577064e-02
3.477593388255966200e-01
1.843557656508119647e-01
1.805608395733106913e-02
-7.679690989142759494e-02
-5.175455112953590842e-01
-2.912683183679198873e-01
1.770331156723253530e-01
1.132082735295747017e-01
-3.877436132723376949e-01
1.134188247748513373e-01
1.386807461430257238e-01
3.586904708339321707e-02
-4.077723183564734843e-01
-2.874498134427456164e-01
9.424664696334743297e-02
-1.872428548404189430e-01
-2.559263791297669566e-01
-2.012755480519403672e-01
1.344557851617507113e-02
4.582943856221122769e-01
-1.038839619431562583e-01
-5.735603830094019306e-01
-3.344072318216947393e-01
-7.318509182723323403e-02
-2.856032258769092835e-01
-3.208554898250865622e-02
1.370143905371280224e-01
3.322603368025089932e-01
6.841092098585784508e-03
-9.983938054240572013e-01
-5.922726040245762658e-01
5.316875884728988408e-03
-7.520403963093062749e-02
-1.111310594844302918e-01
2.284550535471931432e-01
1.269532499084650989e-01
-6.963297122337054612e-02
8.884186552259752956e-01
2.785645117923315484e-01
5.095611063210326863e-01
3.301493308372018820e-01
5.895727655052884764e-01
2.132935934267366496e-01
-4.479788356257821680e-01
2.443625634061862284e-01
-4.214724274006501070e-01
4.014474006748349200e-01
-5.330943714300886427e-01
3.615499689797970762e-01
2.471074403240923201e-01
-2.669952119418921299e-01
3.328035441059652016e-02
-3.638598782017675726e-01
3.187854280958944964e-01
-8.482005240329693052e-01
-8.592610474234410600e-02
-1.439501596177397424e-01
1.192927367458070445e-02
-2.641690355444391014e-01
-1.045340850552429895e-01
1.466344366386218290e-01
-8.965891190978611536e-02
1.402130567293588537e-01
1.545048385791412959e-01
-1.528710419953268895e-01
-6.069246876397706852e-02
-5.284030201360750967e-01
-5.571148692279881409e-01
-2.301757708741588582e-01
-4.872889978164713365e-01
-1.110005740811545599e-01
-1.126099185115425755e-01
7.022180227208145442e-02
-4.086147204714251080e-01
-1.600741032716903600e-01
-4.668317868068466020e-02
-4.652989176660407566e-01
-4.126845293945653748e-02
-3.737537678527735885e-02
9.237814910827513160e-02
-2.383905100441695013e-01
6.861892867721164357e-02
2.167014791292657394e-01
-3.649733378733198419e-02
2.698576115416240206e-01
1.262061599957592650e-01
4.618520292207021760e-01
7.827202706505068108e-02
-6.404910553252969596e-02
-1.110498040930554264e-01
2.593518533318458011e-02
1.647813973542632329e-02
-8.310092941851174309e-02
4.838505567675297492e-01
5.850791557435249812e-01
1.481800959018688690e-01
-3.227422186030390883e-01
-1.604868327647250292e-01
-5.636175134733720782e+00
-3.669922560311005277e-01
-1.986876477770806781e+00
6.975500144491769916e+00
-7.721865975381726699e+00
-3.698715092864607978e+00
-9.040281290047325058e+00
1.868685348270125557e+00
-1.527010822477100760e+01
2.167932392537366582e+00
7.397318069966568821e+00
1.113518038531261034e+01
4.236316715441406089e+00
-5.687974753813645812e+00
1.847972556398630228e+00
-1.615451549801441455e+00
6.587770852351348516e+00
-6.395088766173042671e+00
-2.079593447191816580e+01
-1.016267725358570218e+01
-2.142508990555615611e+01
-4.887174331938504146e+00
6.770565472354848069e+00
8.220442954098704291e+00
7.823869251551855086e+00
-7.210800522029994220e+00
-6.351888323180793883e+00
7.101126316243302483e-01
1.933729273757825773e+00
-1.569287538580215546e+01
-2.372830469223245475e-01
2.645900531883456086e+00
-4.434276474210196994e-01
-2.078804360566829956e+01
-8.319961355956319693e+00
7.773591865363018272e+00
1.412652724770327062e+01
2.112826761649625240e+00
2.114398318087919726e-01
-7.630514222145756698e+00
-6.337352046467310984e+00
1.169811685277396940e+01
-1.179870199437027622e+01
-9.108569740131086334e+00
-8.177565980655842282e+00
-8.421733909270043839e+00
-4.185318408826877778e+00
2.506402637763630814e+00
9.609755209469241777e+00
3.579719564653800035e+00
-1.794645455654046540e+00
-1.073690219793059697e+01
-3.615511896332503472e+00
-6.110860390062776482e+00
-2.210636105710073807e+01
5.183236452888694501e+00
8.075093149291877381e+00
-1.237628053073828172e+00
-5.689821600228484932e+00
-1.845292944911610178e+01
7.934250840343078259e+00
1.320702906460111947e+01
-5.546435581055105146e+00
4.705056296495284229e+00
-1.375364744204364342e+01
-4.159606164538133477e+00
-8.517706834071496758e-01
-1.221029646343357378e+01
3.330041130997775323e+00
-4.054311219270383404e+00
-1.528227356099314260e-01
-3.363569383019894499e+00
-8.300807731454483696e-01
7.325302722324999571e+00
6.918804287014503451e+00
2.186119396613214416e+00
-1.203774775381666373e+01
-8.469498012398695153e+00
-2.206865755410066576e+00
-1.335840248441702194e+01
2.107336942665904100e+00
2.059726708484436397e+00
-3.465492677866425897e+00
9.245934119077347191e+00
-1.202305807284861849e+01
9.861739456979824681e+00
7.969419134073969957e+00
-8.539503351849345947e+00
4.153651481263884726e+00
-8.316917077784637513e+00
3.168111137687057988e-01
-1.984055762192166839e+01
-3.932438319866148113e+00
1.053580041744404117e+00
-6.812302313662302877e-01
-8.938642699705829031e+00
-9.868417738091611824e+00
-4.496671589759725585e+00
5.327379399401158011e+00
1.771018492497116981e+01
1.926617844071832231e+00
-1.547891777179905581e+01
4.531004256561912968e-01
5.501855112897493072e+00
-1.885368287250172470e+00
-5.068161348566552427e+00
-7.307928517584356687e-01
-7.736599096242549045e+00
5.997366275594107066e+00
-2.432318138681746067e+00
4.729728304678548767e+00
-4.010790305430085745e+00
-1.741999044980658551e-01
2.927918137246765973e+00
-5.577660452832734705e+00
2.143271889077762449e+00
-1.885971122812700429e+01
3.201881182387491531e+00
-7.189976521882535110e+00
4.455245740228924944e+00
-8.693702279902987939e+00
-1.931977442286027724e+01
-1.519478913526771002e+01
6.770127858171913537e+00
1.643414132815053819e+01
1.144904400334739281e+00
-1.056620250248652759e+01
7.281635634558902836e+00
-1.845710564548163957e+00
-2.395726275128075677e+00
-6.219039699486048178e+00
-7.927367178078890131e-01
-5.698263747447278149e+00
-6.446795765839595127e+00
-3.744628592747039075e+00
-4.972664578204724961e+00
-1.354873370158274604e+01
7.657933295839312926e+00
4.793464611100267114e-01
-8.810421322800754851e+00
7.434217952624449843e+00
-2.288854321788076351e+00
4.535885498075229449e+00
-1.149790342426704548e+01
9.271603737958907132e+00
2.311139682126140293e+00
-1.581666737447294047e+01
-1.525372885871261630e+01
1.137396167926106472e+01
1.234796544303578791e+01
-7.510334933759397202e-01
3.343859348886749405e+00
-3.167660646284962134e+00
-1.608946193596475993e+01
-6.807583372914531417e+00
-1.042437008441487833e+01
-8.703476949676469232e+00
-2.947449514801863124e+00
-1.286170050697468881e+01
-1.074765104661290671e+01
-5.684975511728763031e+00
-1.231026601685668886e+01
1.843448573919477917e+00
-1.521378565691040574e+00
-7.358408832478734674e+00
1.186457266280517509e+01
6.732741906052305048e+00
7.304791043395076677e+00
-6.772005301192678850e+00
9.115475836644897356e+00
5.967764521908149433e+00
-2.460877487784502105e+00
-1.349278546238483312e+00
8.617143323514232733e+00
1.735772516214067096e+01
-2.326420656650885821e+00
8.965268683878994338e+00
-1.351175850388226429e+01
-1.595401526227441380e+01
-5.991426770728545570e+00
-1.603633861315193343e+01
-1.488670352869913138e+01
-4.669748036775459354e+00
-1.152447104731008842e+01
-9.984632400054948675e+00
-8.662341276311579241e-01
-6.112136205001919897e+00
-6.093359290078764090e+00
5.336035730044155212e-01
-3.399227906786447484e+00
6.397761509908097999e+00
3.515814355636131427e+00
8.451451665265915736e+00
-5.462534599924910861e-01
2.653324409877480861e+00
3.683252023432892930e+00
3.558677065015111829e+00
5.875397840975511876e+00
2.178816759054186036e+00
1.753730608616424647e+01
-1.632291077747934693e+01
-1.426672321545767286e+00
-5.329375263832589305e+00
6.664011648893049866e+00
-2.853972247669334550e+00
1.098595968116701682e+00
-8.932851467193703598e+00
-1.254901508409995081e+01
-1.648971162133767265e+01
3.640624327343831901e+00
-1.158012202519102196e+00
8.134343381349399493e+00
6.211481393552049646e+00
-5.009736016277291704e+00
1.049018033736283506e+01
2.256478775757806865e+00
4.776141882815772455e+00
1.728084661313845860e+00
-7.880707883849794371e+00
-9.641171182858569111e+00
-2.068092414405197488e+01
-1.293832228844281396e+01
5.654279227557178267e+00
6.292846192624866219e+00
8.531718396941114779e-01
-1.529202421723286953e+01
-3.345052696484330124e+00
-3.656558921422472075e+00
-7.197018748256319709e-01
-5.622908068257022940e+00
2.579751735717925154e+00
6.276181944161403514e+00
-1.533033826833765367e+01
-2.034915920130375611e+01
-5.606840936823009436e+00
-2.573307353108897910e+00
6.271505606033300317e+00
2.304969473417718184e+00
-2.848473108383722252e+00
1.273944743573694360e+00
-4.005746505030168159e+00
1.069768022218422132e+01
-7.075283242608784384e+00
6.350173883557041599e+00
-1.106079641233025335e+01
-2.623634422307406844e+00
-1.635949593064169960e+01
4.215067617799675981e-01
1.139024779361081841e+01
-4.304050111567504722e+00
-4.796908189987329069e-02
-1.334666962467298212e+00
-1.326408247500703830e+01
-4.502816127367989196e+00
-9.314316469021459710e+00
3.328037648970598728e+00
1.093846337332308849e+01
-8.205888674809125760e+00
-7.170346038466878014e+00
-1.590317053484827170e+01
-1.540434800037974838e+00
5.210814232262736212e+00
-6.029901506936193201e+00
-5.395454440993094458e+00
-7.655259016904315317e+00
-1.624915945315585919e+00
2.680483269172083127e-01
-1.483085183240949867e+01
1.560270114606216119e+01
-8.820296073800035330e+00
5.827837793875566774e+00
-1.057036014339846908e+01
-5.006743627944467256e+00
1.307906919383667876e+01
-1.811619846356696817e+00
7.661492431886591348e+00
6.346084899679030888e-01
-2.144544621589221833e+01
7.627521594711647701e+00
-6.469744518383993004e+00
-4.663897778467615218e+00
-1.390947148286433066e+00
-3.373920317570934024e+00
4.668520943237173704e+00
-1.215872428724155796e+01
4.167890292646728168e-01
4.225997860449198562e+00
-1.016171947554656185e+01
-9.044547647107194166e+00
-3.168049968225786994e+00
3.706184779489854808e+00
-1.678223471669261713e+01
-7.820245680859803095e+00
8.720632837608011556e+00
-2.419891244519880136e+00
-6.579051566478937296e+00
-9.396952603068514875e+00
-1.129181629917440688e+01
8.642176918920073447e+00
3.873811858777366446e+00
2.708920218693184445e+00
-5.513301905628942734e+00
-4.956212643313079091e+00
1.618911660283943732e+01
-4.163303734890959618e+00
-1.331449035308235374e+01
-5.182714516889172174e+00
-3.885498072008371384e+00
3.289237915004902479e+00
-6.002191694335319738e+00
-6.577835866136652498e+00
-6.196302865146900096e+00
-5.901179514892268330e+00
-7.094410915435183540e+00
1.435436664657925299e+00
2.953143466357545766e+00
-1.223687584084335889e+01
-9.150978724877356640e-01
-3.289203292812537427e+00
5.400162870574517271e+00
-8.869280738992832980e+00
-1.344549589822632285e+01
-2.351478764646114428e+01
6.260338057784498034e+00
-8.270260937731531703e-01
8.498774071476766778e-01
-7.948596430670837876e+00
9.543075221370925121e+00
2.898596651995983375e+00
-1.229851395330769570e+01
-9.421035807079123359e+00
8.758804317134986084e-01
-4.417959352499613246e+00
-7.418459920111096784e-01
-4.987230486371080573e+00
-1.699759590310236845e+01
-1.763002752762999137e+01
1.429349949728643043e+00
-4.554236754016352862e+00
-1.817637450964078472e+00
5.268007124164392430e+00
6.199055787153505470e+00
-2.090197553692913601e+00
-1.175660165765917320e+01
7.340930610109628773e+00
-2.455290075016456797e+00
-6.442903324016017841e+00
-2.040083124063444231e+01
9.672978408915504644e+00
-2.591282547669381042e+00
1.930542856963335607e+00
-1.519022871575279598e+00
-1.607372680044994562e+00
-1.208579705167555218e+01
-1.524686143872861877e+01
-9.800834675774774851e+00
-2.537340115054676826e+00
-1.117485494878901164e+01
-8.650256261576733108e-01
-2.800282630947489526e+00
-1.300492259419638152e+01
-1.699535426300294105e+01
-1.215718943587240197e+00
-2.249934080204021303e+00
-6.661363862839899674e+00
8.442230971345214385e+00
1.503215345051021679e+01
2.197646559583549042e+00
-6.912797051846737872e+00
1.283271629289027382e+00
-5.256855588207870689e+00
8.907973098976912141e+00
-3.950586584922793243e+00
7.368913256012897151e+00
6.391234521729246332e+00
8.396122261906887596e-01
2.686856773007008092e-01
-1.586516203048362961e+01
-1.049981549968226524e+01
-7.654562013700885181e+00
-1.598036520178944997e+01
-8.684310040219852311e+00
-1.821843597135215731e+01
-2.316401090061674051e+00
1.277687845689118529e+00
-3.717192805184380333e+00
-8.274239644616052658e+00
-8.037729508135774026e+00
2.992314680187408538e+00
-7.529697049062868075e+00
3.845778735675088988e+00
8.658410244213911255e+00
7.812733601084633328e+00
2.355399486862867153e+00
-4.850611930321170107e+00
-6.309235092626312991e+00
1.411822300090282845e+01
3.323086830188168861e+00
1.951796599947510646e+00
1.018773447245938790e+01
-1.434532409276761733e+01
-4.654136602014750324e+00
-4.590848573701197033e+00
-1.880698073749106136e+00
-3.733441162492361798e+00
4.561378767214745444e+00
-1.158053652359472530e+01
-1.707525527006892574e+01
-5.323489464379440150e+00
5.206210833381391678e-01
-1.590423689240010674e+01
2.217142874272671538e+00
1.074076189285855243e+01
2.482214286096408262e+00
1.005584492834901233e+01
-5.986103644473312890e-01
-8.917795716436444309e+00
6.302657184339039986e+00
4.962105919588243097e+00
1.073457463336863649e+00
-1.401244748283383679e+01
-1.329865374227802377e+01
1.053914729679399720e+01
4.368664709179437722e+00
-5.398255407929594796e+00
-1.194601811603807029e+01
-3.141248262447110529e-01
-1.367125303465565711e+00
-1.057903996769927879e+01
3.370161216165233675e+00
2.526499610284717701e+00
2.993289090112596806e+00
-1.643858508435690879e+01
-4.550747489896631137e+00
-2.347601350658750530e+00
-1.740630830240122862e+01
-6.312166071720614724e+00
2.953718220387670179e+00
-2.435762416592664348e+00
4.618050289649514362e+00
-5.856459362019714732e+00
-5.094500527246200505e+00
-3.506357097695067981e+00
1.176683633802407414e+01
-5.789517409505342549e+00
-2.877305897044809768e+00
-2.007251791060914314e+01
1.227344358823630621e+01
1.124535164915676333e+01
-5.935978030402684347e+00
6.499123840251050943e+00
4.232261585344224031e+00
-1.013360303210689217e+01
-7.172967598071747553e+00
7.166038561276545593e+00
8.256804911467762187e-01
8.423495054806133808e+00
-5.861760930942049974e+00
-3.081768686585176997e+00
-5.663094797380698431e+00
-1.478177249853076702e+01
-8.178318682455643085e+00
-5.775952594832549636e+00
-1.243723857945422040e+01
-2.430780158149582260e+00
7.593438276753011751e-01
-6.470419555830343228e+00
-1.676518342025684660e+01
8.496069244484857563e+00
-1.088285883217946015e+01
2.464093435516446107e+00
-1.021221017178886115e+01
8.930172432018339990e+00
1.543889148925906518e+01
-3.153250669784355420e+00
1.457467362968284341e+01
3.068369558622862758e+00
-1.934875223375525977e+01
1.029133658196504442e+01
4.253221149608557461e+00
-5.815900591182322721e+00
-4.956625984500302451e+00
-6.476269457445850419e-02
-6.387511530756073697e+00
-7.063135978199992060e+00
-1.251355236086130240e+01
-2.418661694632973092e+00
-1.062529461357740423e+01
-1.168972291344856629e+01
2.082209174001261154e+00
8.319528323737577225e+00
-1.348477156099977314e+01
-1.437098696305557155e+01
1.196700951232640087e+00
-6.057559168408910288e+00
-3.001248124650634175e+00
5.363409615796028707e-01
1.786081477495201186e+00
8.136069120822488898e+00
-4.188167288448569003e+00
2.602865211543799351e+00
-2.362970925106973485e+00
-4.146894991170070988e+00
1.543447149814126895e+01
-4.787269259709481695e+00
-1.159457495113508152e+01
-1.124229384893571471e+01
4.712818738070788105e-01
-6.247922158714509955e+00
-1.042136001624621144e+01
-1.611349469441541160e+01
-5.799208440013156718e+00
-1.388490774397323690e+01
-1.656193114354618023e+00
1.141771237833289376e+01
2.950924021505345607e+00
-9.078378380003274017e+00
-9.422308724343677611e+00
-4.525764752026423920e+00
-2.045025664453324676e+00
-2.463111948971056453e+00
2.073276241039400780e+00
-9.589801925110664982e+00
1.538166983213228312e+00
-1.109772105521994057e+01
-1.042866670830938647e+00
-4.359476810091475585e+00
1.176410484783950849e+01
-1.943024260930404090e-01
-1.630000408940952994e+01
-4.153637744423743783e+00
-4.847061471000492894e+00
3.154081578052193580e-01
4.418762980214085090e+00
-1.001065860546121478e+01
-1.963340698288268626e+01
-1.111301849171119294e+01
-8.395028123838869760e+00
2.644694308345614697e+00
1.057256677859862748e+01
-1.279885568699991483e+00
3.314229909287985887e+00
-1.152285208010931861e+01
-9.648893478638786547e+00
-7.645012407740668259e+00
-5.235588810361106127e+00
4.364615276238420272e+00
-1.222583291803308647e+01
3.733518960154484922e+00
-1.037251971889673463e+01
3.492669376141139814e+00
-5.478089210274190712e+00
3.764406384268822237e+00
-1.146344460461003045e+01
-1.148890846997648474e+01
1.884490590124180374e-04
-4.892614637069073069e+00
-7.813123887517051891e+00
1.387115888497895355e+01
1.090254483002758734e+00
-1.307518725005510696e+01
-6.495353647041618217e+00
-5.195894484555532600e+00
2.264670138588790405e+00
-1.466141824329574961e+00
-1.549655250855764277e-01
1.057039822550929209e+01
-4.921932156457048180e+00
-4.525180957052982400e+00
-1.636751662826828735e+01
-1.752647850382455275e+01
1.252375655335984383e+01
-7.628099656939949291e+00
5.756542432306112289e+00
-3.113683299313918074e+00
3.270812230232504003e+00
-1.023352260211594000e+01
-9.647508209089286524e+00
-7.034988880757613749e+00
6.489039700888932227e-01
-4.887613152141396355e+00
-7.367975653273548531e+00
-1.724710333679174212e+01
8.446690892139143259e+00
1.081307707423889752e+01
-4.907711049649120305e+00
-4.522543279826951590e-01
-8.094832401203619909e+00
4.675896902007995237e+00
-1.066680502047122658e+01
-1.371893911906867825e+00
7.354766536066323468e+00
4.032999003562983908e+00
4.637071194863129797e+00
-1.546676356687647491e+01
-1.668628000428781277e+01
1.351936370982570779e+01
-5.961316237297961784e+00
4.666392398726801005e+00
-1.091925444789104915e+00
-5.469345440572998207e+00
-1.649701164934789466e+00
-2.771981985440944207e+00
-2.055446163065965504e+00
-1.108555845105432347e+01
1.453608083384255956e+00
-1.398792128500585896e+01
-2.926884796322180016e+00
-3.868550235283774730e-01
-4.922359364915378954e+00
-1.718196768360524018e+01
-6.958179579067143294e-02
1.098139875424734058e+01
1.071288636694510643e+01
-9.751325782328528646e+00
-6.823139861376932735e+00
-1.654667195171137806e+01
5.115485515940686234e+00
4.224327805960126803e+00
9.465194130739165601e+00
-1.037362581249982263e+01
-4.234235698825156824e+00
1.358271961558473251e+01
3.330535642582320044e+00
-1.368571850181321281e+01
-5.239720168839386183e+00
2.996913008843318682e+00
5.630230666782964910e+00
-1.206313117263605328e+01
1.287116849203271629e+00
-3.123775787091256806e+00
3.474794271750160646e-01
-1.231678396917955887e+00
9.595812391906276551e-01
-4.438771985503905171e+00
-1.360051476550452243e+01
-1.058026385971261973e+01
-1.335610243226511562e-01
1.378521220168582362e+00
-1.259031464322477412e+01
-8.993873653342477681e+00
-1.652129213840560240e+01
1.206167232954779900e+00
6.146175658854079182e-02
-1.257642344628854936e+00
-1.068015348948188503e+01
-1.177635488090310467e+01
1.962922328966614316e+01
4.992773558042706838e+00
-9.653136161341814514e+00
8.815324326631362339e+00
-3.387363781359573611e+00
2.923304167884936966e+00
-1.140397041978559756e+01
1.277842176191025558e+01
-2.100284552925070880e+00
9.104316601521567520e+00
2.017770893708997537e+00
-4.982533613038971687e+00
-2.873555303405049610e+00
-9.184813103602015971e+00
-1.236030717080481800e+01
-8.121912474768546275e+00
-9.938898108805739540e+00
-1.068959771640422929e+01
1.750971063968070007e+00
-1.209000901178225895e+01
-7.501788664741340540e+00
-8.937845951799786803e+00
-1.046250669251821286e+01
-8.967469688314871235e+00
-4.949111304061120542e+00
1.768521365141513968e+01
5.062062985055955089e+00
-4.190153244030770274e+00
1.371299108529900224e+01
-1.700413550344302749e+01
-6.290694794916894317e+00
2.760568976697988841e+00
1.112291186445022895e+01
-2.756773983720364196e-01
-1.925457758555562338e+00
1.153817871337453838e+00
-1.761342305097525696e+01
-4.007103152579730043e+00
-7.316982449909640529e+00
-6.498521606029365572e+00
-8.957202201942488173e+00
-2.025322814815942785e+00
-1.908179055930154355e+00
1.007560144185733009e+01
-1.161858845757318903e+01
-8.584568203335814829e+00
-9.806509478365548205e+00
-7.084596680717992534e+00
-2.939567282709095952e+00
8.223467814255380759e+00
1.172829653793846916e+01
1.377200667697053404e+00
-6.109342812563360425e+00
-7.115722301190768873e-01
-1.460486330911790986e+01
-2.820689038554788364e-01
4.613155471931650098e+00
1.615620293897667148e+00
-1.336451323591291374e+00
-1.204804701963306179e+01
-8.400239352090961287e-01
-1.699455182483530891e+01
-9.630970840271071864e+00
-4.347574075223084478e+00
-9.709249363954349121e+00
-1.005900787340823577e+01
1.391304185854319542e+01
1.062784005114055574e+01
2.255830997019188544e+00
-1.382016310981319585e+01
-7.721817570901341909e+00
-6.641834496655906861e+00
-1.017666716512733416e+01
4.872395534089314140e+00
1.076777596153049998e+01
1.495454078576553547e+00
-1.152774697928140135e+00
-7.328401275576759133e+00
-3.563421134558198755e+00
2.711374871431632694e-01
9.243543275118152991e+00
-9.667570061116723679e+00
-4.525172930887328526e+00
2.447217295647312163e+00
-1.311240892355348109e+01
2.054701466545053812e+00
-6.868866161099356216e-01
-1.333714862998622941e+01
-2.927413434218473665e+00
-8.980680016604182470e+00
-2.261137988526783715e+00
1.416317303165301666e+01
1.259809007226618505e+01
-4.976888340485404072e+00
-9.929636021720023464e+00
-1.205143642367475110e+01
-8.088374592076849723e+00
-2.103215854811879382e+01
1.034730589877860540e-01
4.822590552959549193e+00
-8.079505753827392667e+00
7.188262753626298851e-01
-4.041784526234879493e+00
3.359645394873584490e+00
2.603907714190448530e+00
4.603923409828350799e+00
-1.963202046409373835e+01
4.496608746648228738e+00
5.470394214159941981e+00
-1.775985127304318567e+01
1.918693250175172782e+00
9.589235731504858862e+00
-6.037461832800625317e+00
-3.871154088609224164e+00
4.415658829554963916e+00
2.604454040230661072e+00
5.126394700424484085e+00
-6.300029365642511037e-01
-3.193446236421755735e+00
-1.341839142739260915e-01
-7.407611193724499721e+00
-3.894408870396577793e+00
-2.047025134191340712e+01
-1.191697075331814659e+01
2.290723159211880411e+00
-1.544778679194920024e+01
3.892150739622573408e+00
-4.222635341560184941e+00
1.997277889728700462e+00
-7.549603712788480081e+00
-3.855577410037461128e+00
-1.384205714327366366e+01
1.407081866890420585e+01
2.132140359686679698e+00
-1.708600069694900014e+01
-3.880391125726740054e+00
4.043614728738379682e+00
3.746756613752877829e+00
-4.801784847316080018e+00
1.123602665540093604e+01
-2.905004323905210573e+00
2.840728565637195668e+00
-1.196133039358977612e+01
-1.354924980383779065e+00
4.141757129863796294e+00
9.097963170879856953e-01
3.828944908250727419e+00
-9.929467005021971104e+00
-1.099409045462585688e+01
1.409777038697428653e+00
-1.669069386319511850e+01
5.164402584578974498e+00
-7.272218426835296512e+00
-2.888385316271952608e+00
5.360228175218430202e+00
-9.730005644332630155e+00
7.981293293420104185e+00
-1.166559574018470258e+01
1.271319284949793849e+00
-9.704695251044883619e+00
3.760576630139487175e+00
-1.412902356921345692e+00
-4.387826882032198839e+00
-8.107318830949594712e+00
-1.819052081361764994e+00
1.968767541042889757e+00
1.451117293754788840e+01
-2.667179437893744876e+01
-5.380737552021088277e+00
-6.527329943857556493e+00
6.983446813938748221e+00
-7.009067961734569252e+00
2.163740614208183199e+00
-2.437013787037261903e+00
-1.327855021252762668e+00
5.121513392081828542e+00
1.283322652403397601e+00
-1.806766449065047908e+01
-3.589295048312509007e+00
7.533113552310346073e+00
-6.863826370008389022e-01
-4.925110780718895853e+00
-4.075768721234872771e+00
-4.962053185820244572e+00
3.196958756062524554e+00
4.136517265090152051e+00
-2.849586547462047204e+00
-3.265248698755725432e+00
-5.652398675505682091e-01
-7.034447242619340734e+00
-8.622942606944191013e+00
5.098048376690723416e+00
-2.212217060725612328e+01
-6.268961144126766527e+00
-9.246337176192385598e+00
1.252600866762692533e+01
-1.388264051909507479e+01
-7.145968004970772114e+00
-6.053406738950236843e+00
-9.406918531493117186e+00
5.535444720413432051e+00
-2.729443658485507740e+00
-1.727317299454928445e+01
6.574621440512421700e+00
-9.102011839925079784e+00
9.782885412889649190e-01
-1.644687871124643763e+01
3.145200349097415415e+00
-4.794400955798645114e+00
9.813429788562842759e+00
4.851154073443286308e+00
-8.946303337812961942e+00
-2.620343871307063477e+00
3.584547755268678415e+00
-6.162075872586703973e+00
-1.032650700170456126e+01
-6.693662178823540643e+00
-9.265227689027636160e+00
-3.320391396355223956e-01
-5.872592233373111981e+00
9.264417494253420315e+00
-1.552080795383989020e+01
-8.671260544046671015e+00
-1.003417520593307799e+01
-8.097143369797271006e+00
3.871447164086361248e+00
-7.907026787318596206e+00
-1.401438408713879546e+01
7.302539396712977471e+00
-3.216355130833890996e+01
-9.331346004755882717e+00
-7.540815959786416833e+00
5.182959108779793489e+00
1.806114617483341345e+00
-3.534984563589835815e-01
4.504820978166518053e+00
-1.589871484830633719e+01
-3.234708469444461887e+00
4.087133408401951939e+00
-8.032600432711644700e+00
-2.749125490451842957e+00
-7.375311855699487884e-01
-2.043717605300951590e+00
2.323895133212412034e+00
-2.250749501083997739e+00
3.128426129505380793e+00
-6.515553629010826242e+00
-6.043882380931305809e-01
-4.691985027756184756e+00
2.545274722588352745e+00
3.445142484014013906e+00
-5.888286001406946468e+00
-1.295273327543186248e+01
-8.310301014462378788e+00
-2.180854149944159914e+01
-1.106178840059569701e+01
-1.891309810625392496e+00
4.944012921825659213e+00
3.680803622949889498e+00
-6.503252225125222274e+00
9.243831736383641973e-01
-1.437900028038219880e+01
-3.940177717927299650e+00
9.902733526355415705e+00
-1.899844323478675534e+01
3.375068937057653429e+00
1.070105702904163536e+01
2.688819989978259439e+00
-3.797468412242937852e+00
-9.375488864946625256e+00
-2.216769348133436957e+00
-2.137484961642603487e+00
-6.278615349151603020e+00
3.164425355115348282e+00
8.317446302968800609e+00
-2.945551526307773837e+00
-9.396667666952489562e-01
-6.934274051669039984e+00
-1.074816115852878262e+01
5.046505257544607659e+00
-5.632015356582762422e+00
-1.076732378203372065e+01
4.804270934207907295e+00
2.685223099888415899e+00
-6.000634064981754001e+00
-6.089922555360224310e-01
-5.321587439473923098e+00
-6.484412856176398954e+00
1.032802903719578858e+01
-1.493082387729093519e+01
1.307989453327658147e+01
8.001560187978121519e+00
2.569148853643683061e+00
-4.919438864384140686e+00
-1.475446456698674780e+01
-1.064952354115799515e+01
-9.008767875537616376e+00
-1.469497717971213824e+01
1.332291360315315254e+00
4.486009190613449604e+00
-1.288608707817592958e+01
-6.733540553894857839e-01
-2.387477770058627602e+00
-3.093234267362367174e+00
9.342451561326200249e+00
-4.680388566564039898e+00
-2.041396170078592931e+01
1.247349959118336926e+01
8.660891143825678595e-01
-1.307434583942147732e+01
1.397873914058034073e+00
-1.304810324925740783e+00
-5.641023249756836222e+00
4.009185375776248561e-01
6.418544457210913379e+00
1.119176151376361616e+01
1.606461180169276970e+00
-4.779503241516916745e+00
1.316903237673189508e+00
-5.752274009897480944e+00
-1.379556227756652120e+01
-1.152134178350502225e+01
-4.350977134505545685e+00
-2.122760600904403105e+00
-1.921250144045083985e+00
-1.818929718014117825e+01
-2.116770445392680333e+00
-6.025033148835222008e+00
-5.157441120872337414e+00
-4.300375429514976311e+00
-4.973394071684112738e+00
-1.683567762418944369e+01
1.749989043326009153e+01
-1.630750002385651820e+00
-1.560223030268391220e+01
5.348651882452613027e-01
-3.534626372089952451e+00
-6.561275127852553846e-01
-7.114606073792602459e+00
1.689849863490378468e+01
-2.818417414785756137e+00
1.928019134348021968e+00
-1.077790277453140533e+01
2.819030314553116146e+00
2.333158948745738481e+00
-7.970225469262404161e+00
-4.858753129196589526e+00
7.017457727972870707e+00
1.212369021163764549e+00
-5.588203440139587030e+00
-1.486029037718148338e+01
-5.226928538914971112e-01
-9.192547424194144057e+00
-2.897857770757593654e-01
4.368897857637798587e+00
-1.722356143691142449e+01
1.127668134183508108e+01
-3.424902094367591410e+00
1.009056840254947929e+01
-6.645076108560584949e+00
-3.599898774133646562e+00
3.778297317484879958e+00
-3.923101925453358341e+00
-5.486235250835643562e+00
-2.081055477448270352e+00
-4.802601284222070888e+00
8.425928755824070748e+00
-1.519194430319140032e+01
-5.443846568153707821e+00
4.732568698162973320e+00
7.758687161471946148e+00
-2.056213405565845065e+01
-6.885530434209507611e+00
9.725710755964055210e+00
-5.266503449378565627e+00
1.508731400491032604e+00
1.915102892787884148e+00
-8.575135575038954627e+00
2.082496444675900005e+00
7.085307130691962385e+00
-1.315315533267987291e+01
-3.732283853871581680e+00
-7.098695475260516474e+00
4.832942886205692012e+00
3.207619154992022548e+00
-3.488717125084639825e+00
-1.352628186417973000e+00
2.797755700488970820e+00
3.342945089645332213e-01
-1.554806956541591179e+00
-1.221317685277156606e+01
4.383601023633526772e+00
-3.730079173585223895e+00
-7.576506530131255523e+00
-1.333180456314813744e+00
1.625353975888635460e+01
-2.310089142467607815e+01
-1.077928027379726394e+01
8.585700344287930719e+00
-1.147614294902150434e+01
-3.390610075331162321e+00
-1.186288901425960551e+00
-1.114383916574384870e+01
1.055958022502921523e+01
-4.352644413486448371e+00
-1.177087992409002304e+01
-2.090927694161273820e+01
-1.214382645289376761e+01
5.293258155272972942e-01
4.286580045728005217e+00
3.384031809541405700e+00
-6.882252377153223577e+00
5.886394070285848379e+00
2.287455549458722981e+00
-7.998527270662457722e-01
-8.693131842721792069e+00
-3.442988526275888361e+00
7.930034078344774251e+00
-6.651499737487871933e+00
-1.806740189397076923e+00
1.110578422037337454e+01
-1.162889343757353622e+01
-4.030911981175014702e+00
-9.655107400898970127e-01
-1.451414773701916339e+01
-5.656714700888832326e+00
-9.796370387552794767e+00
-1.128667899636548988e+01
4.706906375358325789e+00
-2.072632159453582545e+01
-2.127499475253177508e+01
-1.273022464069267556e+01
-7.605475212588395095e+00
3.934932975498798058e+00
-4.790650125059376485e+00
1.299713854106154187e+01
-4.384251542198708052e+00
1.855835158409479435e+00
4.802761982849739208e-01
-9.492964645949006908e+00
8.092476318351687903e-01
-4.503968387676393625e+00
5.275200913514586532e+00
-8.689781437637677186e+00
5.454835767652538081e+00
6.188185968478472354e-01
8.200351186809026194e-01
5.072936199507269706e+00
-5.294982019864928446e+00
-8.797316992855380491e+00
-3.027100199793099744e+00
-1.000411142585953073e+01
-7.379559618487523842e+00
-1.413845631059758468e+01
-1.475563177580111685e+01
-2.485969770790488909e+01
-1.319613605632850684e+00
5.275178565579484724e-01
4.301846293537345822e+00
-4.883421306255327221e-01
1.037493505611379696e+01
-6.659232017856476782e-01
8.117281826019296931e-01
2.721732632615125436e+00
-2.068459875797690728e+01
9.177870359490798435e+00
-3.424534461362260362e+00
-1.366118520376021772e+00
-1.154233122195836003e+01
1.252434170775314215e-02
-3.801998397568254973e+00
1.098160079614471485e+00
-9.888596072076796251e-01
-2.641238668404267464e+00
2.523499562994056422e+00
-6.303749513470862098e+00
-3.033250612624910580e+00
-6.348992239932297332e-01
-1.933294413204633955e+01
2.624392940360864568e+00
-1.848150190337697296e+01
-4.668499620007189321e+00
-5.606412615288493967e-02
-8.810656168729570359e-01
9.303442530401465405e+00
-8.256806148869977324e-01
4.633867104417579985e-01
2.821497630719840721e+00
1.919265810676410222e+00
-1.187576780133633747e+01
1.688650275590674354e+01
-6.851077633401050804e+00
-4.205729519800805782e+00
-3.761544995244963996e+00
-1.202170836356774153e+01
-9.321742838693209521e+00
-1.107240359518078776e+01
-5.443123475941372469e+00
-5.464285812084235250e-01
9.999845498088580698e+00
-1.080950835276727240e+01
-3.628698233949363861e+00
-4.515568261582100229e-01
-1.335789107368469075e+01
2.874910939533195986e+00
-1.129384810960714525e+01
-1.211422027668492873e+01
1.031782649922931450e+00
-7.216148514214212106e+00
2.993247402322553263e+00
-5.655834702306042239e+00
2.126073720471710171e+00
6.048687070629815921e+00
-3.754545232354158824e+00
6.534086849311491640e+00
7.251853960448529257e+00
-4.985778781642280499e+00
-5.030932073234533064e+00
5.803031605851232122e+00
-8.983213060638377101e+00
-1.940480385490038273e+01
-1.858405447338025596e+01
5.910792893663974645e+00
3.881662857393381127e+00
3.190941229855283279e+00
-5.648537450513677172e+00
-7.499737175242110254e+00
-5.961700373024148902e+00
-1.324808635353036124e+01
-8.547138374153631091e+00
-6.674077936483941542e+00
-1.074368184449193819e+01
5.076189683613162806e+00
-8.346128037388137244e+00
-6.307231178503788449e+00
-4.144737180266548471e+00
3.515153971211471884e+00
8.123289139402093184e+00
-6.839069512832706366e+00
1.193469882597467091e+01
-9.498472436561621990e+00
1.339268275764751159e+00
-5.639694146065603597e+00
5.344074237971422114e+00
1.033879142285568098e-01
-1.956644519538819438e+01
-1.314910268730780274e+01
1.304553548223830894e+01
9.189650921801188588e+00
-6.172139627688395080e+00
9.642606842570417003e-01
-4.840569359918718284e+00
-6.740065166276646202e+00
1.215969766195930113e+00
-3.576433433189550204e+00
-8.168233675731743304e+00
4.810508750403666767e+00
3.425621115728530786e+00
1.791784669985777256e+01
-1.113755052005479484e+01
-1.206317339974077640e+01
7.566677700916066840e+00
-1.042400996591482532e+01
-3.753766193243826432e+00
-1.421663937115152265e+00
-3.919976419850772498e+00
-9.124438507500830298e+00
-2.325371339456275610e+00
-1.581609786014653984e+01
4.642753887706619231e+00
4.690327976872088023e+00
-2.046398563903968082e+01
-7.343539599231033166e-02
1.191812179686696105e+01
-8.089644151241252856e-02
3.647887429220324496e+00
4.572594151168245524e+00
2.038427267938730303e+00
6.048191697826569957e+00
2.624000927110420545e+00
-6.207654588133869389e+00
-5.648994784370183098e+00
-5.487943444568601947e+00
1.567060832710407503e+01
-4.496331078482772803e+00
-1.359213365049227740e+01
-2.545953532898372895e+00
5.425148800278443595e+00
-1.007853767463930739e+00
-1.036764748214135945e-01
-8.968681962816631881e+00
-7.724361455681721722e+00
4.515463825921340657e+00
-1.847385967595535305e+01
-5.836079186514626649e+00
6.983255436789125525e+00
-1.641896957478341079e+01
-1.786252854356876751e-01
1.176846890533609091e+01
-4.670496564157899932e-01
-3.948824864593453388e+00
4.900460112566629611e+00
-2.586074425262871457e-01
1.146554410827032733e+01
4.110779169552641221e+00
-5.955671873158435048e+00
-1.447092944469771147e+01
-1.734901860063732215e+01
9.596539131759570296e+00
-4.637850821767948162e+00
-2.187220508064626312e+00
-1.163674572863306800e+01
1.918577519296709255e+01
-3.191085236026161454e+00
-2.216710074706618183e+00
-8.173599334721609821e+00
-3.987554551776312461e+00
6.736329953337399701e+00
-1.247932870002236783e+01
-8.174591322060971166e+00
-2.103730262406832807e+00
-3.034134214531628793e+00
2.424769583660729477e+00
1.101459752091313860e+00
-6.728921872693633510e+00
-7.764156531104240422e+00
-5.989445431418485732e+00
9.610065978889618110e-01
3.258241298304766609e+00
-3.446266102817443944e+00
-1.094252005268631578e+01
-5.365318319599701624e+00
-1.031821858495992394e+01
9.289112497077447017e+00
-1.022894438168485642e+01
1.274126399046819813e+01
-4.819167789046264971e+00
1.053436955495053695e+01
-1.121798749094364567e+01
-9.424395141112499985e+00
-3.117655585923769124e+00
-3.921390933856586880e+00
-7.662654456980221296e-01
-1.116912509823217547e+01
3.172954597769828133e+00
-9.606199144603159823e+00
3.959287168236930832e+00
1.876660438135905329e+00
-4.950300942510690305e+00
-1.196468972796461294e+01
-3.995562572829401304e+00
-1.671116720206356376e+01
9.252587037780063639e+00
-1.315504715224259513e+01
-8.565968320376974532e+00
-1.307593230091061898e+01
2.863341642538537180e+00
-2.996736736224837050e-01
5.746776012618485474e+00
-7.960957954877363463e-01
1.575797828036515291e+01
1.545593253901699660e+00
1.298917359041953823e+00
-1.747201105671235055e+01
-7.716865239083068317e+00
3.062295315297419940e+00
-9.087518388773036193e+00
-6.050675427753428259e+00
-1.024620193681412239e+01
9.179288970898457078e-01
-2.164040153878078243e+00
1.387382325763730995e+00
-7.597350688630491788e+00
-6.083921809426346972e-01
-2.623316781483191917e+00
-4.555954447229600746e+00
-1.163677529954038192e+01
1.459218590984612085e+01
-1.679030699566976637e+01
-6.698819040176971384e+00
-8.568857245920248999e+00
-1.512797655849054790e+00
-7.071357537554246342e+00
-2.843041582422718871e+00
9.114235493684184064e+00
3.959694282873501336e+00
1.678756949895077843e+00
3.071760596506751373e+00
-1.444830850133215883e+01
4.047279932498763166e+00
1.053392493554781595e+01
-1.705828152287482524e+01
-4.562366025586025664e+00
-4.430137530026794224e-01
-1.315492831544216656e+01
3.754072212098067851e+00
-5.679197077676719552e+00
-1.136998547834541817e+01
5.549074964385212638e+00
1.046542360479684497e+01
-5.217154657772978155e+00
-6.805662571107935932e+00
5.692070067332291927e+00
-1.148373379946880135e+01
-8.038426273756662965e+00
-2.846840755731216532e+00
-5.824580454706412169e+00
-1.326831880863334767e+01
-1.097556871240805343e+01
-1.006315928560623796e+00
-4.765049656659860133e+00
6.611162188126144201e+00
9.736720445217553532e+00
-3.076953402964259343e+00
7.305841627844953834e+00
5.482515373709108353e+00
-1.556558520631620190e+01
-3.892954588814794281e+00
8.619154801382265418e+00
-1.140246356148630724e+01
-7.450700849059521680e+00
-8.525597368761532735e+00
-4.586664422422579435e+00
1.259525241177702704e+01
3.090932244841928078e+00
4.268101782820809653e+00
-7.195642021890306772e+00
-4.539352520265960145e+00
-1.024418412839272463e+01
-1.154465881547596062e+01
-8.894644804972725582e-01
-2.695872837825330048e+00
-7.224930090197069887e+00
-9.327537584355916067e+00
-1.374621590160680462e+01
-5.959401281969035402e+00
1.095550577936791647e+01
1.182926083101478909e+01
4.616640804824414523e+00
-4.623144941555221710e-01
-6.184810625037425069e+00
-6.541205752217844172e+00
-5.835071670672024702e+00
6.364777461393928526e+00
-4.838110405644601708e-01
-1.694124349349164405e+01
-5.642578683815357543e+00
-7.919906386158648282e-01
1.365941851123811546e+01
-9.947115910778244086e+00
1.053796305973605563e+01
-4.477943378834983612e+00
-5.110079854918190279e+00
-2.009173981857208080e+00
-7.053323550576462431e+00
3.643317698254921133e+00
-5.763257238031135321e-01
4.114174913201189554e+00
1.209585141937109576e+01
-1.351214775517767386e+01
-1.034447430959033909e+01
2.699442938870319608e+00
-1.286890947495672677e+01
2.070856556427031203e-01
-1.970001344232842122e+00
-2.217445534377018745e+00
-2.328411031713651980e+01
-3.687774390202751995e+00
-2.097363828162600186e+01
-5.518592875956903621e-01
1.803264791638500064e+00
-8.268005889957812826e+00
8.170959994264663351e+00
2.696696580178467251e+00
8.458474708941281506e+00
1.597926079207840466e+00
4.519657107784754935e+00
1.917215088650028987e+00
1.302458584300149713e+00
-2.992386035347164297e-01
6.699070045079410285e+00
-3.208660710094229263e+00
-1.929251550029322360e+00
1.206485061399031977e+01
-9.890128309042538035e+00
-1.505700009174706544e+01
-8.455358575868237025e+00
3.020688022436152753e+00
1.957751981010879661e+00
-2.290792094094402653e+00
-5.999802577391999847e+00
-1.962029119717900372e+01
-5.614983860754421130e+00
-2.116933577226119567e+01
-1.146957267904898004e+01
5.807537861052554373e-02
-2.861465022621871857e+00
8.980297373067754663e+00
2.621566679842547654e+00
1.206408699603916546e+01
-5.307861789116769202e+00
5.076234405850670761e+00
-7.093925971752666759e-02
3.904830015868233861e+00
6.774370179842023276e+00
7.273919509283867768e+00
-2.894081140297922961e+00
-9.379531918172215654e+00
9.627148580674678158e+00
-8.826113432416054394e+00
-8.195662320987114668e+00
-1.852605743938022798e+01
1.924441436833211583e+01
-2.098908626287457668e+00
-5.064607757269925514e+00
-8.431079548618203745e+00
-7.652025027797366263e+00
-1.041633919783498463e+01
-9.055712674769626602e+00
-1.304366331478642493e+01
-8.365620970598723005e+00
3.729801481753175274e+00
4.212920857607720393e+00
-3.123828194798965008e+00
4.278915857671327316e+00
-9.231796331723611360e+00
-5.412133859433223115e+00
3.093259942633110882e+00
1.425811528383356119e-01
2.973072463994578030e+00
5.652234275545043651e+00
3.663077238223413357e+00
-2.836861930636788820e+00
8.931588950691635276e+00
-1.024519272285323090e+01
2.380153776752160333e+00
-1.281832158942846611e+01
1.114718761947373871e+01
-1.283448723551680892e+01
-6.227643298698921193e+00
-7.400445519938084082e+00
-2.371532211148423386e+00
-1.467631016704081759e+01
-4.437423568981889055e+00
-1.999890148793138867e+00
-1.044264551396214458e+01
3.488733576130791825e+00
-4.546739080160617341e+00
-3.824301247914406954e+00
-7.111738298017873383e+00
-5.189500851601351883e+00
-1.865916304184305474e+01
1.384096360888286981e+01
-7.346993821091734489e+00
-6.480602080937022613e+00
4.281308329386073197e+00
5.030425943637315100e+00
2.882592884467836569e+00
4.552445724001578320e+00
-4.716911053718757074e+00
8.238736749668575499e+00
-6.360814699825257712e+00
-5.214307080216536994e-01
-2.290432683510438494e+01
2.842446715570996041e+00
-3.403833409773060037e+00
-5.567129900211042148e+00
-1.074481493710407598e+01
-4.106232614251605462e+00
-2.970885749855516345e+00
3.652234603390350554e+00
8.721871222060327833e-01
-1.492655440035294312e+01
4.759822875037065693e+00
-5.003762085612304844e+00
-4.307265899113895458e+00
-1.384057073851476716e+01
1.786823557473440616e+01
-6.457244940797393085e+00
-1.059282340962876567e+01
4.884743609246086748e+00
-1.359157001783451113e+00
-6.268096040218902765e+00
-2.219681402251666213e+00
-3.096274120654970208e+00
5.439959029639807930e+00
-4.837131522183003796e+00
-1.121360901605630955e+00
-1.722208404109688473e+01
1.217555053392502451e+01
4.576666490241850127e+00
-1.492641344622957433e+01
-4.543956398385606832e+00
1.983753833027235292e+00
-1.309877128387629952e+01
1.534432111452312597e+01
1.605233347759256857e+00
-1.925532188054770089e+01
1.201551441740329373e+01
4.179715623756987242e+00
-4.710253112342034143e+00
-4.905029776256543350e+00
5.665414178812744339e+00
-8.121658608080163377e-01
-9.103151411646404512e+00
6.495031677266673853e+00
-2.388717981086451392e+00
-1.401327896062229783e+01
-7.033444682602702613e+00
-1.538056066675386724e+01
-4.303826026953395667e-01
9.036174812252190103e-01
3.156802061830957573e+00
2.331836743621567454e+00
2.778483361598726997e+00
7.739817614567805926e+00
-1.914813200850163710e+01
-6.314552441915004977e+00
7.709275699163319118e+00
-8.448617774831305383e+00
5.966026106395823092e+00
4.719915862742333879e+00
-1.752205248336367660e+01
1.539103890758727111e+01
-2.322979946556846365e+00
1.815136153268067876e+00
-3.269077971337409849e+00
-6.115020555408531955e+00
-1.369380198959085082e-01
-6.578597125183744510e+00
4.801407144306348407e+00
2.085758076916301995e+00
-8.741854688382586502e+00
-5.283491964220357495e+00
-2.503121935887470073e+01
-3.614962049875851680e+00
5.871363621622347040e+00
4.630996491332197706e+00
1.388673199705650418e+01
-1.031752219516258151e+01
3.123329310786438384e+00
-1.330866106482449673e+01
-1.040616715205115739e+01
5.364921463822715175e+00
1.063160327648698944e+00
-6.150166707922990028e+00
4.922940680894161147e+00
-1.439705360666132705e+01
1.163099324392259071e+01
-1.312079684283057013e+01
6.155423821060619360e+00
-2.500623920697412572e+00
-7.002622470966232804e+00
-3.330338869978687555e+00
-2.322914703674983095e+00
-2.298902531895750112e+00
-2.537659541842935962e+00
-2.671957896283894129e+00
-4.279178171585007462e+00
-2.096829954720233591e+00
-2.796461286517273770e+00
-2.676840463190838459e+00
-3.458166138770810250e+00
-2.411035443487724361e+00
-3.194757718239253474e+00
-3.566295656217077337e+00
-2.897709884752341924e+00
-2.364154132402929154e+00
-3.393016366200922729e+00
-2.642469760404367651e+00
-3.047835704885740071e+00
-2.303071197025767791e+00
-2.445177657150765960e+00
-3.548592834718589994e+00
-2.967432011469635533e+00
-3.165308689519709340e+00
-4.950080126643856104e+00
-3.925864118210923515e+00
1.008297964975353178e+00
1.140611534791532433e+00
1.162915345185943972e+00
1.094095206434734457e+00
1.175489940759954610e+00
1.019699643661405641e+00
8.088131296390206337e-01
9.134664882819392151e-01
1.295193784822984640e+00
1.455201810459375578e+00
1.432272505590603373e+00
1.584007363411015223e+00
1.922410969968760153e+00
1.756275591616993648e+00
1.292825756481373878e+00
1.135061637088146780e+00
1.332274786091470542e+00
1.460307439365157833e+00
1.305725778787252267e+00
1.456495252543369201e+00
2.036610632700543544e+00
2.024213160622022833e+00
1.439815028967769361e+00
1.177234811959900096e+00
1.374375769438659134e+00
1.702982776812331789e+00
1.527439273667664299e+00
1.281487647534355734e+00
1.568813437046891801e+00
1.704397714402269948e+00
1.408562547778254848e+00
1.211883421515945081e+00
1.382466424473592692e+00
1.950066652909780318e+00
2.108027089528937470e+00
1.676205938974826948e+00
1.523552885098618637e+00
1.682696685026785710e+00
1.633164088737825814e+00
1.412438916665714306e+00
9.479028381752927501e-01
1.368930012496601289e+00
1.870584338617220288e+00
1.838878920082275492e+00
1.646109087633755852e+00
1.693665254944386245e+00
1.705857352134747540e+00
1.432317963484971646e+00
6.821678722270129169e-01
8.583731927213635871e-01
1.355663287901717418e+00
1.629149228300414531e+00
1.390847926110888366e+00
1.297211024761300902e+00
1.335567838613903824e+00
1.289319251394503540e+00
1.001991592280388144e+00
1.109155541738709339e+00
1.357812769124778773e+00
1.464764063065385535e+00
1.121067315349336235e+00
9.174644943152331367e-01
1.081678862658452589e+00
1.280020711060731564e+00
