2.082405474185752836e-01
3.335353905632165716e-01
-3.296801773734095997e-01
-3.935632753902865710e-01
-6.761381211925093782e-02
1.672646293108334126e-01
1.092254772129532953e-01
-3.414350349238020471e-03
3.810138330642107718e-01
4.154314815509081021e-02
-3.236676151566559301e-01
-3.011742582349392211e-02
7.135387841368330264e-01
7.966683828434053538e-01
2.252589087254951161e-01
6.351555226789662445e-02
4.398323370740783028e-02
-2.865879304963059870e-01
-2.506202911163165660e-03
5.904276020530216940e-01
1.093031699303291138e+00
5.794691267183900152e-01
-2.827206219603472515e-01
-2.519307069212983197e-01
-1.463599595311673718e-01
-1.988397322118359289e-01
5.050369151981825011e-01
1.082998436814833321e+00
9.813347338932771891e-01
-2.048618853404540474e-01
-1.340467235384582567e+00
-9.922298785742754701e-01
-1.190519767239767573e-01
-6.889297084950649075e-02
4.450002498615822089e-01
6.839244707067079210e-01
2.356104408208063994e-01
-7.745726826494230277e-01
-1.473209624696840692e+00
-1.016929240971675696e+00
1.077974013211916438e-01
2.992261417761359343e-01
4.226702876081890881e-01
-8.073736321792976400e-02
-7.940956136255017395e-01
-1.021743213427564800e+00
-7.570991520266294739e-01
-2.003040370519745816e-01
-4.244018576806885684e-02
9.664979838032292103e-02
-7.594761538484898211e-02
-6.200028062085034541e-01
-1.177404837570848350e+00
-8.191324326757117857e-01
-7.971650844284436030e-03
4.943911891393032443e-01
-2.517177496500578315e-01
9.289070963518489266e-02
-1.803414353005073911e-01
-4.607424453526868247e-01
-5.820737711246206647e-01
-1.730942936955974232e-01
5.005896064574332227e-01
5.883250971367810500e-01
-1.380332140485069359e-01
-4.887795534940620606e-02
1.896749892362898371e-01
2.644001456405076222e-02
-9.395858496036715302e-01
-1.368439787329091439e+00
-7.874595459000031106e-01
-5.743870444977929035e-02
-1.883377109942435679e-01
7.350466103095387727e-02
5.434399809821383043e-01
5.991388785170784770e-01
-1.790103428710474731e-01
-8.923918188374171390e-01
-1.675648160601451442e-01
5.328528902537087442e-01
-6.892807460924166296e-01
-3.403408398104095789e-01
3.931343163756252923e-01
8.072439488211122782e-01
4.074735922383326825e-01
-3.479649255211482162e-01
3.699679823227442488e-01
6.561725624337045870e-01
-6.578542353278251653e-01
-8.858703680615548359e-01
-3.768872873972583526e-01
2.315832583672141343e-01
2.600739924524484992e-01
-4.100138325979064691e-01
-1.325426933988943790e-01
1.498308654043875865e-01
-7.695574232330014419e-02
-6.327693527876823154e-01
-5.469656276235556058e-01
6.113141996048817445e-02
1.314578089385174953e-01
-6.373719915765895250e-01
-9.506628030980297517e-01
-3.577923620350140776e-01
5.272019289393596875e-01
-3.371129774041241034e-01
-5.127817037799649036e-01
2.724379412764810215e-01
5.083540485629792771e-01
-1.126002719042976108e-01
-8.471422946357610728e-01
-6.906195822067096035e-01
2.871759478963078482e-01
-5.386060195373884030e-01
-7.618619736827609845e-01
-5.815399905492832366e-03
5.133327894164562144e-01
1.360462054129075726e-01
-7.601562109754376184e-01
-7.537995672696967686e-01
-1.315952168060724181e-01
-6.634368838569443261e-01
-7.185469495027057008e-01
-3.427515903785907647e-01
1.238864487872126663e-01
4.132065331269786645e-02
-5.754676112328864779e-01
-4.047070356669410507e-01
-3.499718203415283502e-01
-5.434826030696434662e-01
-6.320752017804328604e-01
-1.648358114503225003e-01
-1.580110398953987472e-01
-2.077972693157945638e-01
-4.717554638705378500e-01
-4.224986128939931529e-01
-3.594239818431511635e-01
-4.844291620568912382e-01
-6.664709710059014691e-01
-3.750881590099197638e-01
-1.984061291664485360e-01
-2.219301630025606598e-02
-4.694395186651071916e-01
-4.621104453257303124e-01
1.189081851317292382e-01
-7.415913976563438294e-03
-1.770957893375138814e-01
-1.497256716722958347e-01
-1.669952462124970616e-01
9.519139297547317413e-02
-1.865166166048720098e-01
-3.407423246890571300e-01
2.525206805871931803e-01
9.131140482819881388e-02
-3.329889100643443345e-02
-2.842484130810053466e-01
-5.826872965629013024e-01
-3.322356311202656065e-01
-3.662465767628957369e-01
-4.562030539062807977e-01
-1.943169896572571054e-01
-7.875755446993555620e-02
-3.009115474795380218e-01
-6.507525278452069850e-01
-6.359662156951372269e-01
-4.919162639029400763e-01
-6.149392220485322413e-01
-4.885021966121640968e-01
-4.688100396226399513e-01
-4.905456014626325967e-01
-4.740681475704817682e-01
-3.636333457139212522e-01
-1.323380604244316083e-01
-1.503545202978164574e-01
-1.769215287293677552e-01
-2.262313274960032483e-01
-4.440757590274708178e-01
-6.884115750181679649e-01
-3.005237537214632826e-01
2.535875970213222752e-01
5.547787866805169443e-01
7.561150650655387162e-01
9.205646489785600517e-01
1.985171317815228875e-01
-3.451526379958341217e-01
-3.874286072337131404e-01
-3.396274653757165932e-03
3.734044700922218296e-01
8.528022254477514164e-01
1.259375152614416793e+00
1.143513830544061305e+00
5.366942618134039611e-01
3.309549571299119086e-01
5.490722717656607577e-01
7.444012392042889115e-01
4.649784898888211226e-01
1.042335365353324744e-01
-4.790149334296874284e-01
-1.298760270443807263e+00
-1.054174572087645201e+00
3.839001645020364006e-01
6.144642161001679925e-01
9.660145236614285924e-01
6.511671038060916628e-01
1.082360147924898569e-01
-6.186528368080546070e-01
-1.718858792582635742e+00
-1.609906696447031660e+00
2.796787734992000618e-01
6.632198223441939655e-01
9.990289081409686744e-01
8.265445078007999102e-01
1.877041140176470280e-01
-2.181066600381263432e-01
-8.359338144418926309e-01
-8.210332252238372597e-01
3.173602621559832859e-01
3.035302630086013087e-01
4.812542845090074795e-01
6.806687593819611415e-01
3.201842009658210642e-01
2.820016394537683824e-01
-1.750511001538016254e-01
-2.517879325775002619e-01
-3.465151390652067981e-02
-1.017269963552764056e-01
8.526530835242507322e-02
3.939891960566571649e-01
2.140806585949333596e-01
3.504424964432497625e-01
2.073859934532362448e-01
-3.116296701253874063e-02
-1.113081352675146102e-01
1.427064716395229638e-01
5.468335128149891256e-02
1.672849069116531806e-02
-9.164269216591697242e-02
-1.958690514552005081e-03
1.983857063334575621e-01
-6.183602470527090056e-02
1.324248406813550993e-01
2.883634695144002835e-01
1.780122738734888632e-01
1.418665245620587267e-01
2.116713806621016436e-01
9.108256419401128401e-02
1.780372818619179731e-01
1.796691825967579592e-01
2.334585815808593035e-01
1.257024703435278834e-01
1.872640504544757223e-01
1.705940242583587063e-01
3.566747284173505950e-01
1.874272197725318778e-01
-1.481985009775862745e-03
9.917308299502328173e-02
-2.402757890286157105e-02
-4.425786198011041894e-01
-6.558605973652287258e-01
-8.247355157190803254e-01
-8.074748161807189240e-01
-3.233123447264454886e-01
-1.421397464265019561e-01
4.117900806433483912e-02
-8.741047275484439827e-02
-2.564580749131870063e-01
-8.290835433756628126e-01
-7.607170318269258491e-01
-4.474022956597468736e-01
-1.212035278428519498e-02
-4.315344151683437462e-02
-1.460577748098535432e-02
1.548469589528762014e-01
5.129270104255840429e-02
-1.930338750444415552e-01
1.331690524193953392e-03
5.185032004896455299e-02
2.231395054259044941e-01
3.879999500697610126e-01
2.838123505826768977e-01
4.397363951580305907e-01
2.770882178384113659e-01
3.279727995574823196e-01
5.639608764237006300e-01
6.878533224563914139e-01
5.233696340788177581e-01
3.222260270764953360e-01
2.941881315757692850e-01
3.818841992019358367e-01
4.114450398201222603e-01
2.969849677135111277e-01
4.421272801378321460e-01
3.629297626088696105e-01
1.443844762361240763e-01
2.050527006498261695e-01
3.983412041536165127e-01
5.302847878412828564e-01
6.253144984134330064e-01
2.969992223705498202e-01
2.631001171726302656e-01
-1.053606527885689488e-02
9.860537159790147207e-03
3.931569246311486521e-01
5.504598612387532341e-01
7.386790808970962185e-01
8.437764425627445330e-01
2.330289326674229722e-01
9.345333715487687265e-02
1.498153740313006854e-01
3.758678567768322099e-01
5.062005685715498249e-01
4.861066023899439648e-01
7.512258349863567553e-01
8.246190126470838155e-01
3.600073782991241589e-01
1.715734175146630125e-01
8.233315308621924622e-02
3.469700134922066304e-01
5.417020763253301840e-01
3.747881663547296682e-01
1.427926451158280763e+00
1.225946642596202896e+00
-5.693041754156154266e-02
-6.324334626195844411e-01
-5.181428427738302700e-01
-4.472090333190886779e-01
-2.015573256208991748e-01
-3.183819662035042852e-01
1.847006175822489826e+00
1.270436311364963933e+00
-2.756158055294708475e-01
-1.109705819175074382e+00
-8.230668761120844001e-01
-4.099790658246856845e-01
-2.321999125035373590e-01
-2.667424958152961323e-01
9.921131025974981865e-01
4.546127271935830327e-01
-7.604481898506987303e-01
-1.157200939993585864e+00
-3.769916866855431703e-01
1.272239194135758866e-01
3.455321326354036937e-02
-1.304078072618845563e-01
2.181029287642978209e-01
-1.819403010721539204e-01
-9.876609006761167819e-01
-8.189747038917836175e-01
3.324950160004892796e-02
2.566414770652373223e-01
3.331347085670716829e-02
-2.330985078042434322e-01
-1.464546347895609169e-01
-3.858447747055686605e-01
-6.364275930382277124e-01
-2.446236686794836523e-01
2.059306779959154121e-01
1.036746049353153148e-01
-1.529577558219825106e-01
-2.409758162403905779e-01
-2.260034581396614117e-01
-2.752455141290386931e-01
-1.527776732366834533e-01
-1.236223487691218668e-02
-9.500955244822868739e-03
-1.343937744151669500e-01
-3.656002621999128177e-01
-2.254444912382695121e-01
-2.199202453238843433e-02
-1.998509094573185790e-02
-4.726936614918633012e-02
-1.757066719348697181e-01
-2.671769928122698090e-01
-1.449728705636579296e-01
-1.635245586545170104e-01
1.162625897955573140e-01
-4.576617230397614020e-03
-1.371885495068842220e-01
-2.844549737731261185e-01
-1.859312362579698952e-01
-3.059891606123842367e-01
-3.312307809246697876e-01
-9.637902168002060455e-02
1.906101485622752334e-01
-1.488522467642629632e+00
-1.367472699044836260e+00
-1.150487650716721377e-01
7.200098428841181786e-01
6.458749908624810132e-01
3.065623856424830040e-01
2.239987014087703454e-01
1.349961377820233788e-01
-1.604835603155042145e+00
-1.271415915357262838e+00
4.146418317505493056e-01
1.509833862964559792e+00
9.954749016113373372e-01
4.592743115345003235e-01
2.483154303889295589e-01
-1.512065372658380827e-02
-8.287156637347420363e-01
-2.776434680295337687e-01
1.039507458666020234e+00
1.321108888654423996e+00
4.119615914001115708e-01
-1.540495111946268980e-01
-5.858135206672781398e-02
4.906445619572879363e-02
-2.269545859370250551e-01
4.151205597184027263e-01
9.839651161510782895e-01
5.187029623366364861e-01
-2.045689528283484715e-01
-2.858117009925154606e-01
-4.132268658539738765e-02
7.010217256757224347e-02
1.564724323543539852e-02
3.803142233634463909e-01
4.896388905338558972e-01
1.318077436997065477e-01
-2.874424108817352219e-01
-1.562009920994632262e-01
1.999098270412383999e-02
1.756169142431726338e-01
-1.156552644411208974e-01
1.300413219964806633e-01
2.479864271544267029e-01
9.255263279775359508e-02
-5.378585275874703947e-02
1.951639669572109992e-01
2.599112878330332443e-01
1.225972460781255408e-01
-1.032139085260531802e-01
1.272552614661609516e-01
3.681751049585639812e-01
2.369529280338795452e-01
1.772493038509566354e-01
3.023208405676887089e-01
1.471022734594516213e-01
-8.911691423391122913e-02
-1.001148495416597090e-01
4.167759822334906467e-02
3.567250269387434725e-01
2.316912166207827084e-01
1.675409811326837584e-02
1.137758707371335637e-01
1.431948780477487193e-01
1.886901233154124891e-01
1.167949111667957937e-02
4.166541147167938247e-02
-5.351861985024396542e-03
-1.313167431050900336e-02
-1.265329367897925772e-01
-7.568943939109840091e-02
-3.229860113165781976e-02
8.689809797927038060e-02
-1.846945415966941562e-01
8.490523898550987603e-02
3.184297121902492367e-01
3.867227287460665019e-01
6.687560012046921132e-02
-8.138965812485261797e-02
-5.638242218918255305e-02
1.691857473963326031e-01
6.023765644260826481e-03
-7.852815875632350451e-02
1.735796416649527940e-01
3.702604037105932111e-01
2.159577738578318251e-01
1.255598181903682387e-01
8.273248670198485311e-02
-5.360326867036509235e-02
-1.834203663963651365e-01
-3.480053229114087876e-01
-8.415338525514420853e-02
2.343224298556030594e-01
2.208148528206589634e-01
3.254901205162334665e-02
2.233557062312911956e-01
2.524408689531994487e-01
-2.123370319057479028e-01
-4.847256242712602026e-01
-4.812056405706089390e-01
-2.349286706122686308e-01
1.514305401343429558e-01
2.747837331515834980e-01
6.366217032383698626e-01
7.267327458869158319e-01
3.030640160095719043e-02
-3.662609905643500197e-01
-8.118017832514515808e-01
-8.878801639794330347e-01
-2.909769080529084340e-01
3.089611021516247003e-01
1.226652265467014002e+00
1.258502784310288725e+00
1.051075379146885341e-01
-4.074931631333030269e-01
-1.171073076840137173e+00
-1.473829283995954809e+00
-7.566840328152485418e-01
-1.507448345671909620e-02
1.272200676896422689e+00
1.485579409509949711e+00
-3.961986963697844422e-02
-4.033110996710375651e-01
-9.220073832355364374e-01
-1.223286616621587442e+00
-6.117083053213870913e-01
-5.299892219605117916e-02
7.423689030112134990e-01
7.132968737239436807e-01
-3.227907094250996867e-01
-4.573160071981988706e-01
-1.547388597433686508e-01
-1.778988978526274689e-01
-2.054737955019637075e-01
-8.374736884000830162e-02
-4.061149487410198877e-01
-4.835921688290868992e-01
-6.661735934194389364e-01
-7.015796674667394983e-01
-5.292108771395027667e-01
-6.156838441391075945e-01
-4.146747117452033726e-01
-1.638091736884984551e-01
-5.278636161527223702e-01
-9.024769104011393095e-01
-8.792221946914839936e-01
-8.641949203743214403e-01
-5.211261079774343052e-01
-6.602036754829673226e-01
-3.245835155940091088e-01
-3.684308093649114879e-02
-2.743365394730489237e-01
-6.231810418542808039e-01
-7.731621945704955090e-01
-5.328949596269316746e-01
-8.823480571125859317e-02
-2.318581670154293006e-01
2.791715466292598036e-01
4.599134619533908896e-01
1.110367053518006852e-01
-4.871202352354934706e-01
-5.289289151358516072e-01
-1.262406953101874729e-01
1.392628480998725771e-01
1.229267214707675665e-01
3.571017693532426152e-01
4.669895010594784512e-01
1.692714905315310936e-01
-5.087897850376227327e-01
-1.731151286044992632e-01
2.807560119436268709e-01
1.067277412836572653e-01
-1.157028583938725097e-01
2.440432880772251331e-02
4.665841429725671730e-01
1.411371414074345521e-01
-5.080127111913460558e-01
3.853194322248036929e-01
5.890964540555310158e-01
2.460990190620324786e-02
-6.278188474856235546e-01
-5.501316687504443914e-01
-1.269092394388701694e-01
-2.688073401704018650e-01
-4.407284127880535252e-01
5.025042660089431568e-01
3.833569351847596063e-01
-1.250332656998372483e-01
-7.387736615053690503e-01
-6.199104071748819944e-01
-2.415934001398609698e-01
-1.534648182205252398e-01
-1.766665362093203240e-01
-5.914389650745957572e-02
-1.004382223493318488e-01
1.194399778803042766e-01
-9.076673797430620527e-02
3.437471134795076766e-02
-1.405102846358535496e-01
-9.950343360748874211e-02
3.884920522571229384e-02
-1.206682038421755809e-01
-2.254512239587857514e-01
-4.152686143917487249e-01
-5.293276896112465435e-01
-3.255614603388840567e-01
-3.031243207152160002e-01
-4.616920596073365024e-02
1.348900084908360719e-01
2.093602786673849983e-02
1.407254146083452596e-02
-3.110007565059070278e-01
-2.932502126228007100e-01
-2.802875036363260963e-01
-5.085053242392796324e-01
-4.240491824124590914e-01
-2.575280592007948011e-01
2.743186033479242947e-01
5.538982032608638084e-01
4.860886660329565845e-01
3.931666013379099822e-01
1.673670283132756842e-01
-2.541468250079201852e-01
-4.674283809431981074e-01
-3.481050542854640106e-01
5.034463061950271712e-01
9.322188931788265576e-01
1.420685580827633299e+00
1.337007933312714281e+00
7.683974530217212440e-01
3.312562011138965312e-01
4.675128423842661585e-02
-1.227884273945455823e-01
1.332526080523467882e-01
1.155656829145053771e-01
7.871298460968283450e-01
1.073483056348925269e+00
9.884121264111197513e-01
7.644734775154700124e-01
4.181219602775845257e-01
-1.936454403399190350e-03
-6.939026096039409008e-01
-8.949487405677578611e-01
-5.745213883588375925e-01
-1.738553740565914052e-01
3.751679585535905859e-01
4.509990124849880266e-01
3.263029188474009246e-01
-5.522751367335827777e-02
-1.202163981817661487e+00
-1.391509502779439744e+00
-1.285880477528170696e+00
-7.199266375343575941e-01
-7.113275769434125595e-02
5.777933198628040085e-02
3.410186892592390051e-02
-2.381890810150063265e-01
5.984178641268098758e-02
4.160709011438072924e-01
7.527636267700349437e-01
1.117804291669019623e+00
9.884552690067479608e-01
8.842223842633990527e-01
4.285724271352594483e-01
6.944228949182484900e-02
1.277205553436296381e-01
4.532362276810542046e-01
6.345198680117490886e-01
8.257482153516858547e-01
6.867021425998429685e-01
5.961432458937778733e-01
2.755290245500257099e-02
-2.389061043308810528e-01
-2.725026774946134323e-01
2.805307134239732117e-02
-1.759358160062536036e-01
-1.657414445538244741e-01
-3.011020883124023162e-01
-1.576987911383758434e-01
-3.346270132309115408e-01
-5.728710882413797778e-01
-4.233294958927675822e-01
-6.850726214241097123e-02
-2.334384234328727714e-01
-3.885229024945845988e-01
-6.025546794499371250e-01
-2.160968552513015117e-01
-1.575730654977527401e-01
-2.878224232792064297e-01
-5.188762020101159722e-01
-1.980377130980273681e-01
-2.651972394520778487e-01
-6.940851242163144086e-01
-6.946972488219960162e-01
-1.157945193229080599e-01
-1.925782325140974471e-01
-1.117957449151119331e-01
-7.218718388532033847e-01
-4.330528514156329889e-01
-3.782383089427380218e-01
-4.198768083220931757e-01
-1.913209090807836688e-01
1.233883881171165230e-02
-2.734978992001729781e-01
-4.056506465516931947e-01
-6.717299739741320330e-01
-7.276309571655508179e-01
-5.979698242071477265e-01
-3.997164597579473955e-01
-2.097678983305928946e-01
-2.817498090521600163e-01
-5.202159989865938750e-01
-6.735758708606132128e-01
-3.021375615189892949e-01
-4.558891445931322894e-01
-1.551174330893161923e-01
-3.037501141645772007e-01
-1.105011301881181351e-01
-1.258672836675928386e-01
-5.091649841098114804e-01
-4.299372388948429213e-01
-1.620251695163418826e-01
-5.696841994661302339e-03
-1.050215652707154473e-01
-1.424911230379029836e-01
-5.292344934616144067e-03
2.039044034724548093e-01
-6.683192016651864908e-03
-1.362672710964659972e-01
-8.858734082540817290e-02
-1.248232603296615673e-01
-2.046317379505336598e-01
-3.390543423530389400e-01
-2.399380527923743456e-01
2.059857105510532957e-02
4.670624909616526155e-02
-4.289997119403863440e-02
1.582716905787129036e-01
9.373981286502436339e-02
-1.054975108549731783e-01
-3.256778236937686311e-01
-3.292255031445957547e-01
-1.144253695803054693e-01
-3.655876192335941622e-03
1.300795222772289927e-02
1.374188084533949639e-01
2.554969687135811296e-01
7.870098595575218681e-02
-1.508435541213702102e-01
-2.043798490926588274e-01
-1.308898008672174373e-01
-1.997001254167140860e-01
-1.800707555111548952e-01
1.762869666629676979e-01
2.946206296951443537e-01
3.589577407847113766e-01
2.914052600999467169e-01
1.176376910736255527e-01
-2.345107117136086827e-01
-9.133744031798076701e-01
-9.844798921248433254e-01
2.925992937485233369e-01
5.223573763631016442e-01
7.833527803950369739e-01
8.313960247069209775e-01
4.719395649995426489e-01
-2.196558698791495623e-01
-1.332112525361589306e+00
-1.412265656943079151e+00
8.434529205712986213e-03
5.780428516874459577e-01
1.489431622788310650e+00
1.631884240817517817e+00
8.028570231358155285e-01
-8.070656069405331146e-02
-1.112456311553529087e+00
-1.096637067217610451e+00
1.544645214402655675e-01
2.363688967361504967e-01
8.818275624837373927e-01
1.020452775052321570e+00
4.378897863342564589e-01
8.367399807671245526e-02
-5.019950206807067827e-01
-5.144245001750056279e-01
-1.653893571600014434e-01
-1.973664193922456123e-01
1.311464882163470994e-03
-2.021684737379217042e-02
-8.126267692938463072e-02
-9.556334968047584810e-02
-1.649710712967906653e-02
5.269424602799877705e-02
-1.015980207448519482e-02
6.485474888324550824e-02
2.990930208424224523e-01
3.404969226767611268e-01
3.759770239936260916e-01
9.688145765974964796e-02
3.925232098127362512e-02
7.409380074078562861e-02
7.144582590401940547e-02
3.762666777970023746e-02
2.854841624078712226e-01
4.298155354509216597e-01
5.413537943567812150e-01
5.068828143754225968e-01
4.751571434049267073e-01
2.434812460654886268e-01
-6.901650480840063051e-02
-6.104100172995646778e-01
-4.436574071230702243e-01
-2.176822459515335151e-01
-6.935085168493335117e-02
2.170662007537380311e-01
3.569125252304325979e-01
2.200464465218036070e-01
-4.166425194706039892e-01
-1.119215923418096503e+00
-1.356430144050416509e+00
-1.201192601728346743e+00
-6.918875410195481912e-01
-2.485827679000275903e-01
-1.276540474817634552e-01
-6.680844842907661396e-02
-1.542235348425831931e-01
-5.308400328062953255e-01
-7.827154363670019155e-01
-8.605469321822912798e-01
-8.195440362936450285e-01
-5.855043952802128082e-01
-2.116882374033502434e-01
-2.513805108197984112e-02
1.036293696186429747e+00
1.023562457785999857e+00
4.747602824424876911e-01
1.897506840992802257e-01
-2.130356919222794465e-01
-3.313609179249578651e-01
-7.888591419175124131e-02
6.560909280161900808e-03
1.462038219576337506e+00
1.921231464682366719e+00
9.893041871557896050e-01
4.104657148283148982e-01
2.411115079096323721e-01
7.008771007796735231e-02
-4.605147861841144691e-02
1.247308768035922805e-01
-5.182641341381852840e-01
-2.496808611017642676e-01
-1.536184414452620506e-04
-1.928762906588936676e-01
-2.405624573135348998e-01
-1.314388631669225760e-01
-2.087199322642770138e-01
1.272783024767641658e-02
-2.444572258036532553e-01
1.039144902651491648e-01
1.995708869254935458e-01
2.195023874961321217e-02
-4.706300838425676036e-01
-5.315825903616469006e-01
-3.145790860375611842e-01
3.059348558230105472e-02
1.839753457378837664e-01
4.617598854020887322e-01
2.762764518588885498e-01
-2.386987807972968181e-02
-7.806149435190583574e-01
-7.642817482919835870e-01
-1.021888279727639626e-01
-5.665792025280812216e-02
8.287242431868696579e-01
9.987375658589969785e-01
3.425968196131951582e-01
-3.684275704932465367e-01
-1.074108801050322803e+00
-8.671459838672556097e-01
-1.021364400562658203e-01
1.967283926678540726e-02
1.000520101391042083e+00
9.293904994861934554e-01
2.203484202660802582e-01
-5.588267050521579238e-01
-9.776241387365859348e-01
-6.043629883284734605e-01
-3.206237124587127951e-01
-1.769446087969044762e-02
9.999999996287285420e-01
7.798041241043466298e-01
5.622544877828298399e-02
-7.042866029468451972e-01
-9.583739315897631394e-01
-3.925830634694025822e-01
-2.045177759715536558e-01
-5.288127498297473528e-02
4.046018236474087093e-01
3.856278796973540146e-01
-3.305190137335662359e-01
-9.332162764660452137e-01
-9.229050986111659860e-01
-3.022641720651637054e-01
-1.273748631900674388e-01
-1.675338969714553483e-01
1.148322096149996877e-02
6.711593343015709312e-02
-3.581592669342951174e-01
-5.179855340248340489e-01
-3.625083999703250237e-01
-7.728559717488346636e-02
-1.218017925381841282e-01
-1.008380930611718768e-01
-2.818630552649168952e-01
-3.971085115190678971e-01
-5.029575061164129890e-01
-6.149174950263912587e-01
-3.468920845458358659e-01
4.207782262101478765e-01
1.284065939619865482e+00
1.417662568574712623e+00
-4.035852024839794439e-01
-6.823709604890485503e-01
-1.051585241053897946e+00
-8.905762461648066841e-01
-1.907709612097557572e-01
6.374493393903535310e-01
1.568848238276821627e+00
1.437793094147607365e+00
-4.899043858970492660e-01
-5.079102036300019440e-01
-7.531402841450310914e-01
-8.454671480930707750e-01
-3.188269532910463777e-01
2.164820591603297262e-01
7.334364992211990231e-01
6.420910046441687946e-01
-2.785550748192403003e-01
-3.633749399037107808e-01
-4.362949312875322172e-01
-5.028377758259271468e-01
-2.853777467633712428e-01
-1.610669931209166850e-01
-1.543350497146203648e-02
6.313718865403258884e-02
1.258119646200607233e-01
1.567051196818378513e-03
-2.290658197596210921e-01
-2.476540915235016238e-01
-2.916794039689574181e-01
-2.641698223852833038e-01
-1.535182257309577747e-01
-3.045239023630580064e-02
4.465914042074639601e-02
2.040303583645800348e-02
-2.406407428559023121e-01
-1.100090823210260749e-01
-1.218977329861078845e-01
-5.306382644990788322e-02
-4.175616274687077301e-02
-2.541360361280567415e-01
-1.773567638204992525e-01
-1.073591953807924992e-01
-3.042512738193913768e-01
-2.062924411405303304e-01
-2.537342547354235270e-02
6.294332072889635699e-02
-1.808694495251569195e-02
-1.940922619657025616e-01
-1.959336991624375801e-01
-3.445881987920026979e-01
-1.394440775366004859e-01
-1.687496219498572647e-01
-1.938235764327735644e-01
-9.529959845387822592e-02
-8.597117715608586230e-02
-2.261275082803756442e-01
-4.958968591992586328e-01
-5.426357648006486789e-01
-5.605403572440637028e-01
-4.071630665555590611e-01
-3.086838311847747707e-01
-3.123692500957584994e-01
-1.435933632682670769e-01
-3.899014555023299633e-01
-3.098352910186204512e-01
9.071407476768633682e-02
-2.194453652993024750e-01
-2.394964980174236757e-01
-1.009212347604459270e-01
-4.482938837216140365e-02
7.073819321129740101e-02
-2.696042168913378653e-02
3.805665483951526373e-01
7.783524584074473784e-01
3.711279821631218723e-01
1.596152338883104205e-01
3.945813114394333687e-01
9.586711201533804072e-01
8.924133211233987728e-01
3.222471990641243011e-01
7.441716320887458158e-01
9.642080009753124514e-01
7.402252432623687151e-01
4.738800814468461242e-01
5.365329337379477481e-01
1.170988973089353458e+00
1.164182361042571223e+00
5.170410964070115689e-01
-1.361924818781194979e-01
9.058600777626615863e-03
9.185195429323896044e-02
4.375216484585602028e-03
8.949357658376748403e-02
5.627130794728658625e-01
5.156941018437299906e-01
-3.714612507431209326e-02
-6.106183953265164055e-01
-6.783139837934534233e-01
-3.877626273967809678e-01
-4.113944890563629997e-01
-5.001858984493641191e-01
-4.228804312393091847e-01
-5.846289462544462801e-01
-7.072188889724337901e-01
-7.771378995266224887e-01
-8.941205661186281128e-01
-6.554997697413168511e-01
-4.510170974937086630e-01
-4.311925660197910015e-01
-5.691450814195720964e-01
-8.533270469682382453e-01
-6.727013647279517228e-01
-3.692419940341434281e-01
-2.536256495608835704e-01
-2.805745757789323003e-01
-3.079478776624638633e-02
2.308343593000959301e-02
-1.505054885534699016e-01
-4.130815634646650136e-01
-9.081249589440955339e-02
4.341702580876637962e-01
2.050812027502389723e-01
-1.467699346364549906e-01
6.320066234566935892e-02
1.787285079295342083e-01
3.933469984782200779e-01
1.590400099066081319e-01
-1.043530131195499616e-01
1.162650590125163252e-01
1.917490364571594053e-01
-1.680638751036165612e-01
4.564280133224388539e-03
3.716898946316339880e-01
4.293743400167546742e-01
1.840998140658007542e-01
-1.027449380576467286e-02
-1.658431890408382237e-01
-3.086841821496658089e-01
-3.016436522451433344e-01
1.379161935533347871e-01
6.512971439934512885e-01
6.875179877148837049e-01
4.072115154420836713e-01
8.192159689315406390e-02
-7.878192467323076320e-01
-9.313206304673464775e-01
-5.008079973004765373e-01
3.426697898288041944e-01
9.797416681439844455e-01
8.323038300865147621e-01
2.970497596164988763e-01
-9.203165824751112500e-02
-1.210477554202464390e+00
-1.011496330898280060e+00
-2.817692155204213345e-01
6.008572886824111725e-01
1.174612995524837000e+00
8.614261571532243478e-01
2.093678365027704102e-01
-1.110282367020149902e-01
-8.416908457487219941e-01
-7.338819641146010486e-01
2.117449297093895177e-01
7.887481088900236692e-01
1.022236292450015460e+00
6.304850097105193507e-01
6.003592512874413034e-02
-1.911045580538436872e-01
-4.182130977258305404e-01
-3.698312072597595979e-01
3.178713453463956617e-01
5.047732885945088732e-01
6.595045791801106283e-01
4.918516457292634869e-01
1.434595012911958900e-01
1.742827844587234998e-01
-1.381719603215728065e-01
1.928313739435816255e-03
2.507959654567870622e-01
3.432553434909534351e-01
3.715740697650288249e-01
2.327426851499911353e-01
3.052602441045858261e-02
1.758700987208931255e-01
2.650096746511966805e-01
6.210903321396380461e-01
1.699912227391488784e-01
5.785027507052699081e-01
4.215061851442042928e-01
2.929267838333511897e-01
5.270714143318289135e-01
4.967167008192114319e-01
2.696923173095065462e-01
3.879456028260813705e-01
2.707573024875038481e-01
4.399572074677831623e-01
1.566257566528873324e-01
1.177700531555073843e-01
3.729532047125986294e-01
3.085650846139548764e-01
-2.416189810832614360e-01
-9.048954114345625355e-02
1.498312199910806775e-01
2.870737933450999702e-01
3.178596705465821376e-02
-8.014132928148970381e-02
-1.091996171025191517e-02
1.136934275806296135e-01
-7.358217436807341916e-02
-4.917444918298548989e-02
-9.701822453236909338e-02
3.758136388727573163e-01
3.716611112035553277e-01
3.819538285508091158e-01
2.997901900656064211e-01
2.566267760754685212e-01
1.720820440466784007e-01
1.181014894464862269e-01
-8.134413387602629220e-02
6.452198622432767650e-01
6.576068584953085328e-01
7.318400498616532968e-01
7.100464044006038478e-01
6.605320279916406800e-01
5.373844330606730724e-01
7.552935680841228461e-01
4.123715249121975845e-01
4.192629129783070341e-01
2.453935844938084920e-01
1.966652102965312232e-01
1.986108861954940727e-02
2.834052321859814247e-02
5.802464938983274978e-01
6.950333012018404810e-01
2.511136003406179151e-01
-3.470102977207036865e-01
-5.816152577467454954e-01
-6.580278964283736709e-01
-6.803429645280564264e-01
-2.926379450267548865e-01
3.560845595907760619e-01
2.373567171659526909e-01
4.607487541444636736e-02
-4.386412979440167947e-01
-9.332073252796537766e-01
-1.357475552321091294e+00
-1.086765347112863989e+00
-7.593384704160395238e-01
-3.098748511454464949e-01
-7.105851802590189559e-01
-1.015203948070215745e+00
-1.063156047151026795e-01
8.181239371655817383e-01
5.644861194522338144e-01
-1.550833204625271522e-01
-4.897610247503327852e-01
1.477566177627287758e-01
-7.920854092270843694e-01
-1.032985812563858019e+00
3.149566485991857068e-01
1.375979402651540839e+00
8.207913210310792129e-01
-3.375607664020260912e-01
-6.626240582009523816e-01
6.050707532338807093e-01
-2.990424034141466736e-01
-7.690722377105178031e-01
2.427856139511238021e-01
1.017554761939718722e+00
5.037116173000191210e-01
-5.226164139431433986e-01
-6.420121468042735424e-01
1.173416662200321259e+00
1.873913934582134289e-01
-9.651123381488333486e-01
-4.249500412309538122e-01
3.820420871436665533e-01
1.267762877696807233e-01
-4.699900430349701619e-01
-5.220943155399114799e-01
1.324042603963138554e+00
2.214236779759221618e-01
-9.348110613463277430e-01
-4.878682633846863070e-01
2.262279902905120488e-01
1.963850650558197630e-01
1.048251129493787959e-02
-3.935624505578346616e-02
9.584341397124148676e-01
1.445576549972642788e-01
-7.179018030325072797e-01
-3.119190372673649181e-01
3.201145500662930798e-01
3.539608041802256300e-01
1.725210132312845202e-01
1.725740718675302654e-01
5.176757115612924398e-01
-6.155555526047160747e-02
-5.775242740692148047e-01
1.965818116433880672e-02
3.886408663588472590e-01
2.822698153624928277e-02
-3.646041169280865857e-01
-2.434677501977895453e-01
-1.152453286445044439e-01
-3.015267462152118605e-01
-3.857667752917879334e-01
9.942791267798695154e-02
1.439950230658892938e-01
-3.198323099004193870e-01
-6.519529171492396413e-01
-4.608529924365621366e-01
-5.687593322783631722e-01
-7.489007462374758228e-01
-1.037376224402956737e+00
-1.164555389301121346e+00
-8.463343230276160201e-01
3.406674039245393693e-01
2.206895063482480490e-01
-7.948975615128596461e-02
2.207202787041949721e-01
5.001918128360305360e-01
1.751393632019883906e-01
-1.701062290257494836e-01
-1.092201826159562433e-01
5.712410948103225916e-01
2.666616031950786447e-01
-3.794746728031134220e-02
5.634946120481256759e-01
1.493002221582606648e+00
1.275595860468781817e+00
4.186186844139359597e-01
2.216115020953709006e-02
8.781646341566563818e-02
-3.574409554219699636e-01
-6.192052710453613829e-01
-1.275892148029279527e-01
5.764910917801991941e-01
6.249494528036423358e-01
-1.044083987045185263e-01
-4.469986165391412469e-01
-6.382132627094906363e-01
-1.179159708064960510e+00
-1.108644849280363109e+00
-1.097707615020588223e+00
-8.496981016739129089e-01
-4.024403481167744823e-01
-5.237007390911024851e-01
-1.994386826280095948e-01
6.790177339778155630e-02
-1.851967101684960648e-01
-2.849511374052701163e-01
-8.156413752186398858e-01
-6.693582370370250167e-01
-3.757776567624556557e-02
8.097093193237481223e-02
5.989131789047754673e-01
9.359359598558305571e-01
8.083862508414200176e-01
4.554653451136829179e-01
2.471533041903290623e-02
3.377191828699441928e-02
3.117656409034583742e-01
1.701528032083713116e-01
2.476026522135749697e-01
1.794773638634153401e-01
7.623413507372174547e-02
-5.842362527531181488e-02
-2.030915948590433506e-01
1.846918685744408997e-02
2.410893097292964860e-01
-2.243291708914375848e-01
-4.253990157239702086e-01
-7.917830191189150213e-01
-9.630139010741716188e-01
-9.089468643428634254e-01
2.265727305895864907e-01
3.648228184968063670e-01
2.192676745018234952e-01
-7.858783638148764128e-03
1.315182818544327181e-03
-2.243683894559999614e-01
-9.885568787782733624e-01
-1.245530473190284537e+00
-1.158957924511224286e-01
1.389567685844138589e-01
3.289407440611585853e-01
2.376268995473098111e-01
7.659109839991476987e-01
1.019402679197896511e+00
2.760658318333234496e-01
-3.877378150353076869e-01
-4.231908989121546671e-01
-4.544967463299993682e-01
-1.913271498249667912e-01
-2.478210233516276728e-01
6.135975774306610120e-01
1.930318249519066276e+00
1.795135986781987825e+00
6.852587596412005322e-01
-4.582573686610016961e-01
-3.839783293525740326e-01
-4.973507592671888577e-01
-8.550027976725980139e-01
-5.854221354007039801e-01
5.382275321560479053e-01
9.642624010065949935e-01
3.916996113548790737e-01
3.249200123218523584e-01
7.419145243275314661e-01
3.515440420937805954e-01
-5.926446702280215861e-01
-9.944205624344272243e-01
-2.979496257307624463e-01
1.469219373603512235e-01
2.625561548062769757e-01
3.334957560681774402e-01
8.726982995174850100e-01
1.048572252009140060e+00
1.875568662928535912e-01
-3.448335670764972605e-01
3.659866200110770823e-02
9.110583949238516832e-02
2.464065243660143734e-01
-3.540269566986792849e-01
1.459668337232103040e-03
6.162672652810842200e-01
2.900421431146681384e-01
-1.111046349637509756e-01
-9.815566525521388086e-02
3.696929163598545315e-02
3.180332786828689029e-01
-6.453444128376771838e-01
-6.576132309319583369e-01
-1.194291405205746143e-01
-1.251426027023391785e-01
-2.904253311006358418e-01
-1.233270784019203509e-01
2.139523336707080670e-01
2.000170617828672115e-01
1.819489152880486571e-01
4.044994389520070732e-01
4.333971091333413406e-01
5.357733591873714563e-01
5.529669876130435258e-01
3.235906870229184329e-01
3.910553296627684583e-01
3.001534067816681306e-01
1.684275331799072184e-01
9.213552835585943346e-02
2.366728028767629832e-01
1.425075150996737150e-01
1.866279250324903161e-01
-5.963274823935027502e-02
-1.134226712809179860e-01
5.113107903862126186e-02
-1.077427148353260478e-01
-6.778721194178067844e-01
-3.359500766456781085e-01
-4.266600153317466892e-01
-4.207415165259165146e-01
-6.809200086110875905e-01
-8.224923692748138393e-01
-3.778451313472200312e-01
-4.600798584658338797e-01
-9.266564075539153178e-01
-6.475738799364774145e-01
-6.135622569780395663e-01
-6.296309352867893727e-01
-8.529062088832383148e-01
-1.012929978177864454e+00
-4.972939734311471183e-01
-1.992730130912907516e-01
-1.854294877643823947e-01
-1.998177274991914942e-01
-5.574356004275948101e-02
-9.004982202600989027e-02
-2.276906386763966894e-01
-2.598278748044796083e-01
1.438256106299841408e-01
5.928228513466901051e-01
1.001637530174634305e+00
7.121916055156052305e-01
5.374059062570958334e-01
3.031176035365089061e-01
3.839187372967293732e-01
5.669801977731148135e-01
7.305390475987759702e-01
6.467523081487484005e-01
9.607184167531229724e-01
7.068032005153720432e-01
4.601930715236673408e-01
3.537173857880714367e-01
5.958495888834468568e-01
8.970917118106287447e-01
1.027212743811101392e+00
3.342685835208558665e-01
3.995152566802795957e-01
1.881662471577950912e-01
-6.835707797041867817e-02
-3.446212112019397811e-02
7.543378852708824966e-02
2.943521703816034396e-01
4.988429527365415561e-01
-1.256902346641211587e-01
-1.432253773909741013e-01
-1.319867448720093636e-02
7.520182098106863167e-02
-1.437211709380585012e-01
-4.471955480662206384e-01
-1.831137840365894831e-01
-7.400824864062315912e-03
-1.825164976846837261e-01
-1.324166632141155764e-01
2.117778480575406852e-01
1.860308452475701035e-01
-4.412574898782616328e-01
-7.696013931946785736e-01
-3.454443188693748779e-01
-1.829146312147239550e-02
9.076510165492945870e-02
6.439716060707038892e-02
4.416747393583577569e-02
-4.811471686304252260e-01
-8.453324929470613647e-01
-6.597650593049559919e-01
2.404148737750339340e-02
3.551595832741274994e-01
2.478252530577548518e-01
1.806202847411459700e-01
-3.963793452913755844e-01
-1.079399912846761955e+00
-8.299618869186552450e-01
7.078033382429699261e-02
1.076436163413296621e+00
9.936944532934326446e-01
9.641714733479504751e-02
-2.810397297144082152e-02
-6.197987204479635803e-01
-8.131799848303763456e-01
-8.976009969450997328e-02
1.118802479042796838e+00
1.767189954240109051e+00
1.139949878511610004e+00
1.024915857601491342e-01
-1.265495203523942513e-01
-4.061957100324691816e-01
-7.320097870964721587e-02
7.455212142215300597e-01
1.318282166316574466e+00
8.596229457888785452e-01
2.136582259755185065e-01
-2.574791210237740158e-01
-8.030773680973066209e-02
1.277644048271328603e-01
4.188516307909192493e-01
8.386284907575797254e-01
8.282121399123254513e-01
-2.026755643096613546e-01
-6.275188748516445925e-01
-1.959206526190936659e-01
1.221276763882611291e-02
1.716839187003843803e-01
2.450157937829610943e-01
3.942834680261049218e-01
3.783832535909930073e-01
-5.938179589279419801e-01
-8.243973794239723984e-01
2.773557227191210117e-01
4.025631719860996438e-01
4.181408190726914054e-01
3.312075749223802323e-01
2.409630891039598877e-01
3.840399151137620093e-01
6.111674166858033219e-01
4.933130804534779368e-01
7.445472778573103412e-01
8.058450570074791042e-01
3.623386661508263829e-01
3.972818024064767028e-01
3.661225859987848885e-01
4.746915190852049049e-01
6.977797615160462597e-01
4.995384549138351948e-01
8.623592958358223814e-01
9.681502210177119760e-01
3.575507446933169353e-01
1.314077894260221591e-01
-4.494971322453547753e-03
2.380010791192128938e-01
3.902008862509833698e-01
3.816411274727555814e-01
5.988377527332012784e-01
6.634742945574612083e-01
2.497193879700622399e-01
8.241200996218073227e-02
-4.421594958125029534e-02
1.407224155389957300e-02
-1.870391098168331379e-01
-6.271406244090502353e-03
3.313911454882514929e-01
3.839826457997457254e-01
-3.368669139414590813e-02
-1.303909870977993379e-01
-1.562141386130292131e-01
-1.317600229896944974e-01
-1.119594636126915177e-01
5.572335509751379090e-02
1.469459679980351652e-01
-1.405104900702876768e-03
-1.168710214494670246e-01
-2.394556661532207600e-02
5.278584258102927279e-03
-2.610424688194040374e-02
1.180482397437848524e-01
-5.496869002263218840e-02
8.200830482748857481e-03
-1.560365634639457877e-01
-1.832255124681950731e-01
8.018076798392795301e-02
3.818696843076143099e-01
3.961906418145450526e-01
3.199553773686861780e-01
1.960933208019820517e-01
-2.729163004522231969e-02
3.668485832570016897e-02
8.339746661927470439e-02
1.883510746689306958e-01
4.623420820502632256e-01
6.409235250611344803e-01
4.048688642543447624e-01
2.175383277196422382e-01
3.517158042842231935e-02
-3.466338762233847626e-01
-3.654043223407837382e-01
-1.295928089343220124e-01
-2.095165756473428009e-01
-2.326600081405594822e-01
-1.744375802725036673e-01
-1.306800895468457624e-01
-1.764787684656633771e-01
-5.668030634440851534e-01
-5.077862418279541767e-01
-1.467318009114419730e-01
-1.850123713142919624e-01
-5.416596836685785288e-01
-7.635138463344709470e-01
-4.818660126697122403e-01
-3.433892244976788355e-01
-4.137088748062471844e-01
-3.472900885768231971e-01
3.633388595946724503e-02
-8.089060266298341018e-02
-5.570207637415347524e-01
-5.530235060838192274e-01
-2.333479737153855982e-01
-2.359623134477971396e-01
-2.745403237976180577e-01
-6.563970291363502296e-02
1.131721595175818190e-01
-2.010377245241629085e-01
-5.186716319271763576e-01
4.446449864360836612e-02
5.048711831096451830e-01
-2.970567344218761896e-01
-1.374429052257608863e-01
1.518990638129111004e-01
2.724101910734967949e-02
-4.852738844077034153e-01
-6.113887574627340227e-01
3.494185067337663986e-01
9.112965531458506740e-01
-6.707931500613021347e-01
-2.949875335583621583e-01
3.200325617805685474e-01
3.225722098336444299e-01
-4.837624683422904193e-01
-9.163467316136826302e-01
2.173524062138765534e-01
8.564292667025791284e-01
-9.382213828703152014e-01
-4.404960637322288819e-01
5.345127498792637821e-01
6.210215207288168893e-01
-4.614871634802208966e-01
-1.409536564994706032e+00
-3.574066127408312976e-01
5.612708980003650039e-01
-8.873476803070942109e-01
-2.853414581613557544e-01
5.593944446572993723e-01
5.444058352153500202e-01
-3.140893877129525280e-01
-1.019650969234287885e+00
-5.368837981238413493e-01
-1.523990635981833652e-01
6.033341236672279395e-01
-8.502238534309345397e-01
-1.534379649961226999e+00
1.049205466946431908e+00
-4.633659626180959279e-01
3.302486680630111859e+00
-3.163287861095503750e+00
-1.836348553474397849e-01
-2.013746012821543196e+00
-3.327085937208750788e-01
4.223668015418670096e-01
-3.422749052551084525e-01
-2.248760382512655920e-01
-1.078650115667074472e+00
-1.162443480807580531e+00
-1.103086290570007844e+00
8.903704853351699366e-01
1.453888328101390792e+00
-7.394590830551831528e-01
-1.586531943362039510e+00
6.057577455247940001e-01
5.050610838354717691e-01
-4.603599530776663618e-01
2.156993031875484856e+00
-7.900358334510219072e-01
3.213535424660018958e-01
-3.521277216292878487e-01
-2.074005623435438039e+00
1.556078776177339584e+00
-1.293808861778354302e+00
2.703778707532379144e+00
-3.137851339645773674e+00
2.552642787888690160e-02
-1.991296226853335849e+00
-2.817741343377148655e-01
1.289045033920613204e+00
-2.936298909210102726e-01
-1.461913572258053406e-01
-8.303849867731514234e-01
-1.522776076100341713e+00
-1.234342636434948570e+00
5.295016022822055524e-01
1.670627819798721436e+00
-2.074158703698989470e+00
-1.964948505196665529e+00
8.716163427333314395e-01
8.211762123231295396e-01
-2.866346539661579484e-01
2.441470948901450999e+00
-1.408464461125624290e+00
-4.986941672817503113e-01
1.994869628795924998e-01
-2.008091485566710688e+00
1.809645893208667422e+00
-2.264691698498580319e+00
-9.460943961877438246e-02
-2.668816165801033979e-01
2.874204531235941551e-01
-1.672638051981326424e+00
-4.206411498162784257e-01
2.243680256408048468e+00
-3.071131979072784235e-01
1.513133568295599307e-02
-3.277688586962911876e-01
-1.904879575565843641e+00
-1.251579318036392552e+00
9.416098629408974074e-02
1.579213059169024769e+00
-2.517401375378791606e+00
-2.620489915163126238e+00
8.390169434674927817e-01
1.007641428288686081e+00
7.198151341333505759e-02
2.477957089547932146e+00
-1.576314232423703166e+00
-7.005198871798012927e-01
-2.712146823056010292e-01
-1.436541580636584658e+00
1.352870385103713380e+00
-2.600335773783764015e+00
-1.704108373053503600e+00
1.968016911345765729e+00
1.035335981982470760e-01
-1.599540197326170921e+00
-4.769453764287339692e-01
2.812816376637830906e+00
-3.419119394569218318e-01
2.397472649057258084e-02
-5.472849448842072029e-01
-1.762968935229997758e+00
-1.165908063792787219e+00
2.446520608711879874e-01
1.747073819781999271e+00
-2.761107283324549799e-01
-3.031496060531538639e+00
5.221308210243180703e-01
1.108702814765199607e+00
1.207124561346794300e-01
2.298853292657630387e+00
-1.063938033259841598e+00
1.001549172891435802e-01
-2.389825346085626467e+00
-9.909713900295380462e-01
2.031496380901248733e-01
-1.862399791633432056e+00
-1.786382316447033380e+00
2.068706728431051189e+00
-2.165762734488058394e-01
-1.477859484937341872e+00
-3.403224380596747145e-01
2.940013210052227155e+00
-1.858956455077361569e-01
-1.138500778521307488e-01
-1.094460456041900898e+00
-7.595479755820803147e-01
-9.566821048652860426e-01
9.615270083041809190e-01
1.700449479585370405e+00
2.132469142416568708e+00
-1.782082509480363397e+00
3.610655976033305126e-01
1.055435404767103735e+00
-4.473023571628721995e-01
2.210622226393400780e+00
-9.670352947801723609e-01
5.429657633468721878e-01
-3.760045443772051410e+00
-1.190173606872510836e+00
-1.385477371759079146e+00
-1.015556347350505373e+00
-1.418994455318981052e+00
1.314951365938427985e+00
-2.315482302958312699e-01
-1.525250558547435187e+00
-3.156024371866382183e-01
2.341953842471012681e+00
2.898062328801879681e-02
-1.861656361324560971e-01
-1.034829974236429528e+00
1.107000929575826742e+00
-8.966166114768685524e-01
1.137175977867722176e+00
1.485233619761005208e+00
1.485077638561280056e+00
1.571952365813832075e-02
-3.548704589421133315e-01
8.059452433114463465e-01
-1.014696488403192598e+00
2.552859119032849122e+00
-1.394085852135089842e+00
3.671008931378978990e-01
-2.395251863358500266e+00
-1.637043418880893775e+00
-3.059146762748780279e+00
-5.521954476739862061e-01
-1.110138522677507122e+00
8.794047516744851745e-01
-7.219090475378820565e-03
-2.086203833477981995e+00
-1.373286188520242146e-01
1.247103137974289622e+00
-1.663306383377285980e-02
-8.310695856339433973e-02
-5.953260462755414206e-01
3.349668413520733079e+00
-9.016927765403225381e-01
5.470554175823364451e-01
1.706249007551667196e+00
-5.586377136683855493e-01
3.172698517497569148e-01
-1.993134824750280476e+00
7.422567662373761310e-01
-7.423779996724398922e-01
2.978005397166060941e+00
-1.281912257838434099e+00
1.805269134348930493e-01
-7.411567951798275766e-01
-1.675166407963300852e+00
-2.672629730406546944e+00
-3.843663024677970719e-02
-9.483797534861224676e-01
6.147169900952196286e-01
6.403437003175233011e-02
-2.374652999666335251e+00
6.879278776675606943e-02
3.683300925062822362e-01
-1.725775764900682741e-01
2.816692843162590248e-02
-4.087382248434539012e-01
3.258819921028790478e+00
-7.749518749226744774e-01
1.759752326228164743e-01
1.634498407974847245e+00
-1.151671301125861913e+00
-3.227059609848766386e-01
-2.590663743288714738e+00
6.353359794363715451e-01
-3.860404586562137808e-01
2.702508203745963122e+00
-9.673024234287701528e-01
6.028895862327067201e-01
-1.248460672652894177e+00
-1.360342080192642467e+00
1.292077306481861809e+00
-3.052149973152881723e-01
4.028092108435894048e+00
-3.594850714012995052e+00
-2.363997819987724291e-01
-2.860616745980097075e+00
-2.983843480884766919e-01
5.123101393674352882e-02
-2.771730815645853108e-01
-1.243330673158565408e-01
-5.241633205430540343e-01
-1.574867058138152975e+00
-2.288334041728453672e-01
6.579708920669505856e-01
1.101406524357652295e+00
-1.425759885728483944e-01
3.356467369503802756e-01
2.943537467104853991e-02
1.160552583792930914e-01
-3.804916739646262425e-01
3.351412373303029213e+00
-1.177916987844006114e+00
5.006767349452931337e-02
-4.385789003376939221e-01
-1.827455780293135490e+00
2.113994837066308197e+00
-1.169738989586666111e+00
2.768349089907302663e+00
-2.463195879735513572e+00
8.581238559540757538e-02
-3.031035604513522497e+00
-5.255261519597925757e-01
8.237284167077469910e-01
-3.523695347483687401e-01
1.148603004181673187e-01
9.489679868565545351e-02
-2.180358191967192383e+00
-2.633339020683213572e-01
2.183882556359192373e-01
1.350573667382096277e+00
-2.014559914335586122e+00
1.116220028225416439e+00
2.332223378172784967e-01
1.899060899207273556e-01
-1.140877971143096775e-01
3.629908148352104735e+00
-1.782241049811576161e+00
-5.190368532951115110e-01
1.106187708028496308e+00
-2.006451653577070005e+00
2.664533295908476429e+00
-2.095916012891114732e+00
-9.282664393983810491e-01
1.154190570475800648e+00
6.716388669248235521e-01
-2.639769690026951388e+00
-9.835266428493012469e-01
1.614392628917104222e+00
-5.670744149069796292e-01
5.869803172309400185e-01
3.102756700931971756e-01
-2.721183868422941909e+00
-5.499811174943887160e-01
-1.245308696179076580e-01
1.479298654663720791e+00
-2.656308727939308056e+00
4.241957418637428701e-01
5.550308907840628692e-01
2.897945285368759838e-01
2.086794569501947139e-01
2.962295537992081673e+00
-1.734683726263000159e+00
1.445409683332930517e-01
1.294391108362231702e+00
-1.457521026698883171e+00
2.095040299831122610e+00
-2.188381562492391907e+00
-2.801768890816680901e+00
3.422837781648938815e+00
6.079159888817701196e-01
-2.599473851129663338e+00
-1.138497641749778522e+00
1.894576851879875123e+00
-7.540620713015256937e-01
8.685510954612968293e-01
-6.303168840203665635e-01
-2.485021453981712813e+00
-6.421725003574765278e-01
2.507448391486357675e-01
1.648855009780037850e+00
3.756713728470014724e-01
-7.774644174718673417e-01
9.525126278542370706e-01
4.673535544025000932e-01
-3.692697332973455399e-02
2.367006642561801488e+00
-9.934372982622556858e-01
1.554955224701003447e+00
-8.763851831131385106e-01
-8.684579343526941386e-01
5.194095128541279527e-01
-1.239338225659888826e+00
-2.250648102217725821e+00
2.620893597757618210e+00
1.224914228153149431e-01
-2.085102684407040829e+00
-9.148489781779662877e-01
1.740642230520607292e+00
-5.930169190585262706e-01
7.709784845738649750e-01
-1.742344009463805410e+00
-1.061528979092078551e+00
-2.466921957932249887e-01
1.255505258076324626e+00
1.367664777286927924e+00
3.453622815495739573e+00
-2.869440686074994362e-01
2.166680977587165380e+00
3.562560487798286935e-01
-1.011676103388715164e+00
2.294566386098153998e+00
-1.049640779604745111e+00
1.698985565776792273e+00
-2.563965948662878969e+00
-9.393255696522104792e-01
-1.627345536008179216e+00
-2.875351269403072507e-01
-1.247930320919119040e+00
1.295336703807043355e+00
-7.607129371028871490e-02
-1.581270848322831046e+00
-8.387641621896017030e-01
1.111186662072462639e+00
-1.419771311830579641e-01
5.002928266417854264e-01
-1.757795426366821401e+00
1.217372299326224816e+00
5.652759317919227311e-02
1.545132694825154696e+00
1.037372596091484800e+00
1.998737623725826973e+00
8.708046601533004916e-01
2.964951200210519389e+00
-4.519618586179988129e-02
-1.723356347641208153e+00
2.694953650708431958e+00
-2.053718410949618711e+00
7.541440011480821104e-01
-1.083034115926251761e+00
-1.532069782255553125e+00
-3.874185149041051712e+00
1.874780176598281056e-01
-8.632982514275014951e-01
6.098465146362098688e-01
4.210113904908210913e-02
-2.277802671824522118e+00
-5.879551241623083291e-01
4.451391842967915985e-02
7.053495593098954575e-02
3.752682022768147885e-01
-8.326007704600787429e-01
3.864378784730404970e+00
8.670300289731019960e-02
8.518546620797418090e-01
1.242288730807810548e+00
-9.725781968377997799e-01
4.912876860816788871e-01
1.137341502932079473e+00
-1.404922095642987256e-01
-1.005651594864298559e+00
3.220169612610869869e+00
-2.269067095931453615e+00
2.584071422649582561e-01
4.969531222952853211e-01
-1.747017308060380580e+00
-3.673349711668840722e+00
3.458694050148786170e-01
-8.440536696968383712e-01
3.898472766014872692e-01
5.042053740682983509e-02
-2.997297708562971508e+00
-1.990410023231934111e-01
-7.139864030640825643e-01
-1.691683512909196996e-01
3.164989631649256507e-01
-3.429344205067770823e-01
3.634705707518206541e+00
-5.933734560565200045e-02
2.909742239575125455e-01
1.324590851093605748e+00
-1.718003913965209239e+00
-4.816220887375658455e-01
-6.291871909579191957e-01
2.355034724215115168e-03
-3.961107725618256969e-01
2.903699311033875130e+00
-1.573011031664137471e+00
2.563597346223393456e-02
-2.157037033359034073e+00
-6.604110174900618135e-01
1.203489050680129679e+00
5.629410639897279856e-01
2.318700529938220178e+00
-1.826651925068491611e+00
-4.509450136448501789e-01
-3.337104093510299574e+00
2.094718421349382742e-01
-6.196800679085049390e-01
1.891033378365511441e-01
7.294815619842801024e-02
4.858145928056832319e-01
-1.410011514034681390e+00
1.386630644440157711e+00
-3.287200163850370060e-01
3.752681753768322137e-01
1.175070426132211576e+00
1.589868100582430444e+00
-7.969998328886356287e-01
-1.045111740669103062e+00
7.116727411610321297e-02
3.848335411606013778e+00
-1.645209477549113286e+00
-3.747009950530216793e-01
-1.481492004746512769e+00
-7.458185003809957303e-01
1.959198112788195001e+00
2.453795151278765074e-01
8.187468412998081257e-01
-2.898950751737912057e-01
-2.086320244513684974e-01
-3.391291568922413457e+00
4.732335573629072034e-03
-3.144871051311212140e-01
1.346969286443002456e-01
1.097324790990678589e-01
1.325841411623230437e+00
-1.949021076974339461e+00
1.896564789022890496e+00
-9.844602825855961470e-01
4.560446671898775173e-01
-8.941796228278766634e-01
3.403587393030811814e+00
-8.265189491177338255e-01
-1.499128114363032838e+00
1.324887546112409886e-01
3.984380551010421101e+00
-1.843160889510762512e+00
1.094187697909288770e-01
6.222462880241249605e-01
-1.179662952232592321e+00
2.615940558140092076e+00
-9.412207138824331409e-02
-2.247884780996068255e+00
2.642243498010598657e+00
5.461862350690090961e-01
-2.709615380060613532e+00
-5.318523011609599394e-01
-1.660171969590467922e-01
-3.453933898347719134e-01
5.619198312529231076e-01
8.203450889478437480e-01
-2.448387010725705082e+00
1.380764150806646828e+00
-6.484661392193222795e-01
8.582237066733759967e-01
-2.382331457746701187e+00
2.982341458121184452e+00
-6.675484227638642798e-01
-1.404548198281464044e+00
-2.588677162636053297e-01
2.716245351690976140e+00
-1.422585305463934136e+00
1.783407743980917948e+00
1.765641792096447116e+00
-1.378592818595353542e+00
2.250483864305400594e+00
1.700330305306918255e-01
-3.073954251289585660e+00
3.245466505533206369e+00
8.607156440586912760e-01
-2.542263230770597016e+00
-7.797782593404257723e-01
-4.142309309230194359e-01
-7.781589451401474955e-01
1.054795861851903549e+00
-8.901090845101100602e-01
-2.374423936146383252e+00
9.265926637749009043e-01
6.818136119489153213e-01
1.305527648906662952e+00
9.343552233647572924e-02
8.930035208742573838e-01
-3.364996495592270653e-01
-1.124833400681938267e+00
-1.157220983916696477e+00
1.775939497380643273e+00
-7.082704450069158275e-01
2.856049569101675623e+00
2.758300562437708825e-01
-1.117914998562038242e+00
1.052812990920236835e+00
7.715163268846398914e-01
-1.420984199081642974e+00
1.485512796567180827e+00
5.248816976721807359e-01
-1.717575688197854555e+00
-8.577378156975093981e-01
-6.730159876100966221e-01
-8.092460845564827254e-01
1.165282568795432017e+00
-2.492972966791938472e+00
-1.326310060069318286e+00
1.423672647520773937e+00
2.052784126465713399e+00
1.149452496716126149e+00
2.596788397479270039e+00
-7.094541762314432454e-02
1.717226027471572491e+00
-1.391845983283445554e+00
-1.990997839268695335e+00
1.560741840135605463e+00
-1.120100057389212811e+00
1.467975239780683117e+00
-1.140562627119534378e+00
-9.422528074542265708e-01
-4.963796479530966366e-01
1.123769532787594505e+00
-3.137625919927095608e-01
3.640344811096242750e-01
1.837536577834300855e-01
-8.281235480616041533e-01
-1.177880919995145215e+00
-7.818541869789034093e-01
-4.129252239985145012e-01
1.007447710208397851e+00
-2.482864745157929764e+00
2.323971851498547181e-01
2.230130995494580937e+00
2.141880872788508139e+00
8.149260134734801486e-01
1.149602647919119702e+00
-2.856324778563260613e-01
4.508174117846887263e+00
-2.071935673998502647e+00
-1.475607317531898666e+00
1.718080453971388089e+00
-2.269567012296185737e+00
-4.704589012843137241e-01
-1.138106798693708371e-01
-1.350027921664197939e+00
-2.169712203578121112e+00
1.259136768260254113e+00
-2.731196951002572426e-01
9.591951200560407120e-02
1.461733475791118508e-01
-1.634367977629890500e+00
-1.149439847488656463e+00
-1.263464444705819201e+00
-8.196225751119139147e-02
8.787657541796852767e-01
-1.052849452370881567e+00
1.728258851090211046e+00
2.211049774227566100e+00
1.220174228928268656e+00
8.315545431056828862e-01
-1.409316436579657772e+00
-1.316444785208663815e+00
4.178624208143190799e+00
-2.120541474559538120e+00
1.433966411664281959e-01
1.976975633049858683e+00
-2.071850747200463694e+00
-9.066339040993827147e-01
1.070471639312132961e+00
-1.631810537535894001e+00
-2.374617663913123344e+00
1.226198095932439669e+00
-6.409332280287936001e-01
1.072818008253177136e-01
9.742322910166216487e-02
-2.761761721340134645e+00
-6.579935484624788167e-01
-1.589658540345697091e+00
-2.264095299334836497e-01
5.240424453037048069e-01
-3.786914544564152774e-01
1.666904586360170359e+00
1.257123071552831872e+00
4.669287467522377777e-01
9.490603941251450903e-01
-2.025072667335936050e+00
-1.972909328461661893e+00
1.764420160935241011e+00
-1.247387803199148992e+00
7.014550667643647541e-01
1.980024193635467000e+00
-9.771778707315097456e-01
-4.030316933821105896e-01
-2.305894584725381780e+00
-3.445376091027180232e-01
7.801256083333910629e-01
1.375333766224196896e+00
4.639504558433337200e-01
-3.027011617823735512e-01
-6.475856274165345816e-01
-3.123667373893639798e+00
9.711458628019721262e-01
-1.172796197377800942e+00
5.390799472305064510e-01
-7.193024502051625912e-01
1.660561436445144423e+00
-9.097703800377784367e-01
1.583376956854705586e+00
-1.844947742058084428e+00
4.015466821530201957e-01
2.445677467244320447e+00
-2.868146888307573361e-01
-5.471406790589303792e-01
-1.611460803248627727e+00
2.172644692174829917e-01
3.140377188854956980e+00
-1.502769637139708792e+00
-2.554364736737050889e-01
-2.740789709475403679e+00
-3.478348631896346355e-01
1.119286083101959095e+00
1.471508418189489964e+00
-8.150161096835637498e-01
1.126643188770366732e+00
-7.378341171473354887e-01
-2.580716216832027676e+00
1.492207068617818599e+00
-1.034875350745651179e+00
7.392445647315777357e-01
-1.332019242747499721e+00
2.375363316666513569e+00
-1.195717543688801232e+00
2.308510933143262278e+00
-2.391197705182855682e+00
3.157157785827371388e-01
6.344888036891314573e-03
8.887007155466459807e-01
-5.048734785606551201e-01
-2.289510272226468857e+00
-1.891128328759463309e-02
3.159655144065255605e+00
-1.413087517174159258e+00
9.571454992030069553e-01
-1.174082000739569365e+00
-9.478270761275096046e-01
1.728355363779202181e+00
1.531797088870472168e+00
-2.717377872859090271e+00
2.614441783198341085e+00
-2.556001666394611127e-01
-1.478708515799944001e+00
1.565057010706655261e+00
-1.280522314894332103e+00
2.386476871031015246e-01
-1.247615441978706219e+00
7.774934877473924644e-01
-1.544666179782119508e+00
1.998829210585081118e+00
-9.363989151618237194e-01
7.224214401138867592e-01
-2.474535079081610967e+00
1.043606951436701680e+00
-9.582059848172886918e-01
-2.143862684564560972e+00
-1.161295569177396292e+00
1.969845656400733613e+00
-8.449177628668237405e-01
2.660827114400995619e+00
5.616374104748134144e-01
-1.678423476188563690e+00
1.834243737505807159e+00
2.104058545191367813e+00
-2.290008421333236566e+00
1.734478284307814144e+00
3.632813052150362654e-01
-1.084058759726963528e+00
1.245425784325047136e+00
-2.047664809799339292e+00
-3.545853540316643016e-01
-6.872271080983847202e-01
-1.449102408477277892e+00
-1.684803185026071626e+00
1.475075969342503290e+00
1.291576031199807018e+00
1.510288795153584607e+00
-9.447519398720254369e-01
-2.847385149883185362e-01
-2.025990181468055873e+00
-1.809223952399850344e+00
-2.427955219430324441e+00
9.449625641181506053e-01
-5.320053868824912158e-01
2.253045129315902617e+00
-1.324962312342076350e-02
-1.883999788170169332e+00
1.371807544011563351e+00
2.352820727563906811e+00
-5.027811388829385164e-01
1.388607032404704789e-01
5.178361154245609832e-01
-1.233311421388369467e-01
4.895393789794735828e-01
-2.251734340933040368e+00
-6.829191942184844599e-01
-1.005657350483172563e-01
-2.941400094751092098e+00
-1.321721032896159942e+00
2.052408483355335989e+00
2.893683199122874417e+00
1.762163630142584481e+00
1.075240859845646879e+00
-1.273029226471771747e+00
-1.021860592763039310e+00
-2.002602854064027493e+00
-1.958797023714193619e+00
6.626839641048102303e-01
-1.479426480894737272e+00
-4.395743135093707066e-01
-1.471359136705221005e+00
-1.706562774913049640e+00
7.868669595331145850e-01
1.957591823794402774e+00
1.675591095639862027e-01
-2.499568693040899736e-01
4.729928060768328613e-01
6.361835746625598143e-01
-5.398263618688565746e-01
-1.550793552936594599e+00
-7.960845181966611506e-01
3.390496450234621872e-01
-2.573886182848826198e+00
-6.925767143618145605e-01
3.241333769121048647e+00
2.594659035367077315e+00
1.620077684168049981e+00
4.343406917658339528e-01
-1.846494515191104080e+00
1.789964208826734238e+00
-2.552559820559016757e+00
3.022835391766539592e-01
6.769768663521595897e-01
-2.084595540787056223e+00
-2.892070290510319719e+00
-1.079619352335289717e+00
-1.828802786777219858e+00
-1.297197083460131239e-01
1.784300973639105337e+00
-2.002431691168814476e-01
9.175656408231316896e-02
6.749708574423776142e-01
-5.065661707351444276e-01
-1.055875890453504384e+00
-1.322355889142962981e+00
-8.363676079516615403e-01
6.445707193225594933e-01
-1.050973440182726426e+00
-7.745864277015852839e-02
3.080963202144850310e+00
1.278075469738289227e+00
1.648926441391235898e+00
-1.056305537464837130e+00
-2.751898706077196888e+00
2.878472701969749803e+00
-2.457465650255131084e+00
2.574862693380916667e+00
6.900106652434128129e-01
-5.872986310353941475e-01
-2.612595130044190306e+00
-1.234163033490373873e-01
-1.788043158688707557e+00
-7.181994140285627992e-01
1.721238266082337542e+00
-6.977101907720609786e-01
2.010113896820997503e-01
6.426060112271724245e-01
-2.068829508547490814e+00
-7.571562845350509052e-01
-1.378129297278627430e+00
-8.199985247907782826e-01
4.634648128296599556e-01
-3.404771272107695590e-01
7.762513536996343624e-03
1.563536826742307095e+00
4.823731633433944732e-01
1.544898623115919634e+00
-1.493329969519075373e+00
-2.784557233100509066e+00
1.674302793696419211e+00
-1.421730097497274636e+00
2.553389087720668194e+00
1.012274910281101725e+00
6.952681656642150099e-01
-2.278495369733185283e-01
-9.656889466308560266e-01
-8.502633706089235410e-01
2.973837950276720377e-01
1.758147662859140814e+00
-6.730462788093758419e-01
1.007081710547687720e-01
-5.519488634647613523e-01
-2.053505239065133825e+00
1.310101252446924658e+00
-1.878505284806081921e+00
6.669792524702233827e-01
-1.559421936772601436e+00
2.478537604557633500e+00
-4.790277729049833288e-01
1.171752869481326904e-02
-2.727152495050763292e+00
1.241957253181665832e+00
2.934908029566228205e+00
-2.448368209227099079e+00
7.951262137794354867e-01
-1.279542215909826863e-01
3.797431127368439130e-02
2.154517479697111160e+00
-1.467013549009720474e+00
2.635711235545278308e-01
-2.304702119627177304e+00
-1.062557629143925597e+00
2.999141047092563350e-01
1.997934170523786301e+00
-1.349592534421290679e+00
1.089194739080420415e+00
-1.062853138720107671e+00
-1.142817730666501053e+00
2.384523412372032247e+00
-1.523843136648081131e+00
1.168653621814021992e+00
-2.980571026900819209e+00
2.771564987803927238e+00
-5.862451198666591701e-01
2.166833050945141670e-01
-2.590413173584857454e+00
1.176336512290162339e+00
3.799186571436888316e-01
-2.006979416145084016e+00
1.444066311650645140e+00
-2.672066293867553788e-01
-3.310531150477851736e-01
1.895984715429455791e+00
-1.172000968479870453e+00
1.203043277135721789e+00
-2.068598011711362261e+00
-1.630519000563800613e+00
7.174047746391604141e-01
1.948747745232451312e+00
-1.785444806791624428e+00
1.623272677639091999e+00
-1.253308284484707436e+00
-3.376769685237093754e-01
3.383552554744785557e+00
-1.624866173436744665e+00
1.105711125474428513e+00
-3.403906112046251042e+00
4.134153136590323907e-01
-8.786729905617504111e-01
2.423274151262818366e-01
-4.287869577035477997e-01
1.261278600295224317e+00
-2.431915230543203243e+00
-1.299973167532577412e+00
9.392338410815240790e-01
-2.048580921053335391e-01
-1.378805260823788181e+00
1.033363412768421696e+00
-2.217829074421069913e-01
1.609732857008730145e+00
-1.742541171656865617e-01
-2.201952453226260875e+00
1.033566264740626295e+00
2.176873274141331471e+00
-1.091046269731127838e+00
7.129075928475935298e-01
-6.898229045282778804e-01
-2.307291146462005782e-01
3.374296567692856463e+00
-2.343335549272755003e+00
6.839779094475167964e-01
-2.910412252221385554e+00
-1.905553746938253745e+00
-1.134891621135528661e+00
3.304646737951355551e-02
2.005562845657017146e+00
1.970608210766269464e+00
-1.257724463256977510e+00
-1.112446753328047988e+00
-1.224641502156723627e+00
-7.568436970539477171e-02
-1.751431070815129276e+00
4.090486694983701543e-01
-2.651345960613971653e-01
1.368445964862199382e-01
-1.971032244179515835e-02
-2.339380421827778278e+00
1.025304016397079021e+00
2.041635070646159011e+00
-1.791250670527192723e-01
-1.917302000637114701e-01
7.030377255588921015e-02
6.665325317754116075e-01
2.417097377909115163e+00
-2.155767144935525792e+00
2.946376519527288060e-02
-2.054428563242746364e+00
-2.924170905060365477e+00
-1.062400450818538067e+00
3.942078867415386711e-01
3.377459053486563167e+00
2.459380691402131447e+00
6.072838180751044534e-01
-6.848688102231224040e-01
-1.999903036826056191e+00
-2.550153676402434622e-01
-7.015548032444889059e-02
2.768962302043699308e-01
-1.929867778839347681e+00
-2.248727388703427810e+00
-1.892986782997891471e+00
-2.244914246514136735e+00
1.094571323157642162e+00
1.628999159318862855e+00
-1.936336682400570663e-01
-4.301321478471417659e-02
9.166577296229923011e-01
1.343630578033372824e+00
1.059833095094605770e+00
-1.238373655401186602e+00
-9.952575544283093212e-01
-1.185842879795080185e+00
-2.260846114257363926e+00
-8.117077448917239257e-01
1.084717878340620167e+00
2.556874126220300969e+00
2.445354645867150900e+00
5.596827708297302806e-01
-3.105556309585847385e-01
-2.865720955187911478e-01
-5.467583967029500114e-01
2.710170978939491881e+00
2.369555928178351256e-01
-2.175436881745121287e+00
-3.507438977314762507e+00
-2.610417977583152194e+00
-2.148055322142140788e+00
6.553890074663957233e-01
1.763626751625859246e+00
-7.250259365748874529e-01
4.364362557317564839e-01
1.832153498016668491e+00
-1.625045787654401733e-02
2.172999833369771427e-01
-1.002692632550089780e+00
-2.150185114159210542e+00
-3.838027346860842792e-01
-1.067494424569680245e+00
-6.762330934953740824e-01
9.539259688021320960e-01
1.015294885645048328e+00
2.403157421532933213e+00
-1.548893947201587518e-01
-7.517662844018672130e-01
1.026679261657340358e+00
-3.394054591186831948e-01
4.066793072778203566e+00
2.376623140202971385e-01
3.591562585524084583e-01
-2.442253173138144717e+00
-1.749845006595367236e+00
-1.786641569445300837e+00
-2.392190768587985124e-03
1.890571836369750347e+00
-8.887808066522171480e-01
4.168382715745294065e-01
1.825404382600644526e+00
-1.778822200562644174e+00
-1.673462412388477399e-02
-1.183318207179492099e+00
-2.294455187550543673e+00
-5.156195187458807033e-02
-3.966786250664433577e-01
-6.896854774944433109e-01
1.126114581178097457e-01
3.430762963828840606e-01
1.836270597708896446e+00
-5.126955431818269737e-01
-1.037122238897971060e+00
8.467135071896508824e-01
1.483676873959961229e-01
2.701166934976830802e+00
6.347093386592262965e-01
1.990283794286524355e+00
2.026147292192958041e-02
1.283073993717635808e-01
-1.660422758531796106e+00
2.729882135247624353e-01
2.216666878524800044e+00
-7.504643634323540091e-01
-1.444316461039337612e-02
-3.137897615756468084e-01
-5.360135133757055748e-01
2.086077718975397344e-01
-2.439008037971964082e+00
6.123927445900294586e-01
-2.408754822037943721e-01
2.179631408253260183e+00
-4.743592849392927469e-01
-1.620072704191992008e+00
-2.245327850678792814e+00
2.109585582268370896e+00
2.231596777063849846e+00
-2.142487863084901356e+00
1.019077018374375143e+00
1.740102216976111782e+00
-2.425600528034419501e-01
1.123848362920921051e+00
-2.188238087928726650e+00
5.255244601801176696e-01
-1.433312992688417609e+00
-1.953485977044692623e+00
3.373827782710577261e-01
2.291360314885385385e+00
-9.523972523874570939e-01
6.090732729557313263e-01
-1.236429799116907535e+00
1.957944832381489642e-01
8.398222335851014408e-01
-2.110784550345921051e+00
1.607676416499127514e+00
-1.276558824149654381e+00
2.025696512602428889e+00
-4.889924688994852220e-01
-1.860436243073616547e+00
-1.719582099559697319e+00
2.332412997026196422e+00
1.538336478424141562e-01
-1.813478955066143428e+00
2.210068081065391432e+00
2.293339419702680182e+00
-4.322054951309948767e-01
6.338657409413042121e-01
-1.346348112211013470e+00
6.919493830464567008e-01
-2.007345262957187959e+00
-1.846990553453769390e+00
5.221343457716629555e-01
1.700213791188541990e+00
-8.678475868953864358e-01
9.913016257274753773e-01
-2.342322485635974783e+00
-1.195006016261686566e-01
1.907815220559557545e+00
-1.848284296324467668e+00
2.533637391597298283e+00
-2.155281025494656166e+00
-2.746113673665541710e-01
-6.626963600773747576e-01
-1.541280096235934982e+00
3.534813491919456818e-01
1.862468210970412485e+00
-2.070479542020939867e+00
-8.737508469915263865e-01
2.480491078211596978e+00
2.142892144889914086e+00
-5.830547919720895367e-01
3.220642403149689970e-01
4.824145311022481342e-01
-3.263011992732306465e-01
-1.201768215831389708e-01
-1.407942679326229518e+00
5.735328943093791487e-01
1.401653217802012907e+00
-6.296968107763194489e-01
6.140280256687840055e-01
-2.370525557015259022e+00
-8.958989038078128964e-01
2.640077475518653127e+00
-1.988976461559339048e+00
2.506265947957428963e+00
-2.371619807098004351e+00
-2.407059163659450274e+00
-9.138723955910189600e-01
-1.434207278763893756e+00
2.415640245299142563e+00
1.617841087511656895e+00
-7.499053145943126442e-01
-5.992575893995791964e-02
6.408206585902069818e-01
1.781597345380964814e+00
4.537181277468341212e-02
5.318679703505353462e-01
4.707738275674686612e-01
-2.097890917613632666e+00
7.810305554001797379e-01
-9.683649332981471014e-01
5.359516636106879117e-01
1.213115829924902300e+00
-4.935032367239099438e-01
2.896348317080241208e-01
-1.049835078104310648e+00
-2.907889197097981993e-01
2.662423224190094473e+00
-1.563394390381815047e+00
1.252600556495420792e+00
-2.136659108663288453e+00
-2.841415414953171847e+00
-8.173313514652418288e-01
-1.409214478516372493e+00
3.195172944863667652e+00
1.352913689021089105e+00
8.984730005170650236e-01
1.029333065614329801e+00
-8.537685628507546420e-01
1.524982699828515864e+00
1.888038678070665277e+00
9.017873879932012393e-01
-1.973487195639818337e+00
-2.890438040599340841e+00
-1.013400993251569515e+00
-6.638771740942176480e-01
7.514713334623256413e-01
1.260014379169303700e+00
-7.704591991353508806e-01
4.911101756725324563e-01
1.008908719826366873e+00
4.118625540347670699e-01
2.000952454065404229e+00
-1.113892839083301833e+00
-8.442296241769021714e-01
-1.566990034511752450e+00
-1.875787736951035622e+00
-4.888988827202864762e-01
-1.352624708704072143e+00
2.155643568102148411e+00
9.373786273063049457e-01
6.214725621031037539e-01
1.875074077382693716e+00
-3.896542338083057722e-01
1.575720711148331121e+00
3.335409573473020028e+00
9.439529214294932746e-01
-2.919019246573952842e+00
-1.999764841154216377e+00
-2.843906371394482768e+00
-5.769056248985422464e-01
6.738075077581490158e-01
1.804068725650611160e+00
-1.032961425715327675e+00
6.221713414055722868e-01
3.133506961760113008e+00
-6.055110745352949575e-01
1.150591263601907333e+00
-1.370483069171732016e+00
-3.129685376908329264e+00
-8.196155005677691063e-01
-1.052152846242473849e+00
-5.509961267466989554e-01
-1.581572328002678107e+00
7.348659583906709258e-01
7.265010569922767392e-01
7.378884817038675048e-02
1.551318795313490373e+00
5.999471287977617973e-01
1.989552814342620213e+00
2.340088254917935817e+00
7.749915236291274878e-01
-8.460158587359738191e-02
-7.413123708336245565e-01
-2.396430152187638996e+00
-7.072316834930963969e-01
3.080255646241267242e-01
1.987479296645040749e+00
-7.728031274158148056e-01
4.083274208184366483e-01
3.227662138658768054e+00
-1.940610836131397399e+00
4.300192203942824198e-01
-1.707709102435199355e+00
-3.389384754229853858e+00
-3.220565625619657979e-01
-5.547360919481927333e-01
-7.165905780115505719e-01
-1.655651445724556581e+00
2.325945686054622097e-01
5.651239509694911956e-01
-1.120799390991314565e-01
7.637603796809883105e-01
8.301057853372524331e-01
2.097385686951854566e+00
6.454124189727231675e-01
8.064076531746832144e-01
1.966411807130704181e+00
-1.534181748250448007e-01
-1.726826537952654561e-01
-1.920305978581019701e+00
6.062922308593373666e-01
2.894467665166958525e+00
-3.435857903571251648e-01
-4.918254536861804693e-02
-1.755809344438947206e-01
8.645915791058853550e-01
-1.950420265947940379e+00
-2.305613027203420096e+00
4.778078837684075486e-01
2.530306031353285245e+00
1.117669431895866650e+00
-6.659680234404034005e-01
-2.101358814244745243e+00
-1.207791808719344218e+00
1.916477965200191091e+00
9.607101801188527856e-01
-9.194436084500205997e-01
-5.414088073228491282e-01
2.082958953512074274e+00
-4.043559888952295567e-01
4.297186778619472847e-01
-2.843597642665641967e+00
8.566315594908098519e-02
-1.657460964429843919e+00
-2.050415430135805739e+00
7.459748389094960075e-01
2.866341863668748324e+00
-5.179551562568371903e-01
4.974614485965691002e-01
-1.279727249980828097e+00
1.115538183287746232e+00
-2.153056933325748545e+00
-2.273249053839826672e+00
1.721239402969754417e+00
2.561972239353856207e+00
7.702039466341599194e-01
-7.707791584737477830e-01
-2.324222110822391496e+00
-7.300742530066557379e-01
2.097541330363840828e+00
-3.910607237520595247e-01
-3.598483324962160612e-01
4.390206859329687239e-01
2.590742717342806145e+00
-1.759187180376066140e-01
9.792686920000169548e-02
-1.528902176051690320e+00
-2.622485265562735646e-01
-2.350508353006086626e+00
-1.124770764111575616e+00
7.403042803850806708e-01
1.781090538352427366e+00
-6.605174237025956963e-01
9.364151406060634564e-01
-2.970917373833357189e+00
-4.984554039646730828e-01
-1.234664863286869529e+00
-1.864032421446023990e+00
3.466651550549268546e+00
1.303194247905905101e+00
-1.038081664066798027e+00
-7.787224878188687693e-01
-1.890569042961990576e+00
9.140445416634604969e-01
1.110666577515230236e+00
-1.545140777068023885e+00
2.248292912183853798e-01
1.507104549390412940e+00
2.236249291597180111e+00
3.241596596378252815e-01
3.037898557466980343e-01
1.045220715429856506e+00
-1.771010233928380861e+00
-5.580494128831116063e-01
2.228907361686534860e-01
7.203643010677035496e-01
1.181885853237032213e+00
-7.867106731293418420e-01
8.304166709051583606e-01
-3.681343918044099439e+00
-2.218693953807278962e+00
-8.065279083472078059e-02
-1.559091280722417094e+00
3.778711572696225929e+00
2.005441680298205021e-01
-2.745063600360422740e+00
-7.992398297607278268e-01
-1.583222945174820540e+00
2.100700775784468455e+00
-1.387648494775933772e-01
-1.531413394271959605e-01
2.792539219324661204e-01
7.984664133076944115e-01
1.639939156415542110e+00
1.142801283930815703e+00
1.026375645891824284e+00
1.214716395787366565e+00
-2.930090504976140320e+00
7.896697223217212791e-01
1.524846582501910408e+00
6.845004891199172325e-01
1.028841039705156835e+00
-9.799407578716365919e-01
7.023173638865822799e-01
-2.222577830952797040e+00
-1.936605756782281196e+00
8.630450382582576241e-01
-1.189614314388753868e+00
2.057318834643871330e+00
-4.551166720104615204e-01
-2.558854146276417829e+00
-7.064623536271741333e-01
-1.574085807177641794e+00
2.336198938215922283e+00
-1.298025704556924120e+00
8.671594309608721129e-01
4.331594383538213133e-01
-3.178550577077660644e-01
1.389450047287100976e+00
2.193605658241140954e+00
1.952101160047002848e+00
-1.698132014777946175e+00
-2.034188202769268816e+00
-3.448321053372099265e-01
2.360861819478751400e+00
6.688093705656955601e-01
1.390872802093289673e+00
-9.963098237418718250e-01
7.548503901966034935e-01
5.179522635550274368e-01
-1.043847362618636421e+00
1.245197985649123096e+00
-1.202626984664383114e+00
-3.343203204811655005e-01
-6.187746469687785966e-01
-1.383931710292205297e+00
-4.064555742120564696e-01
-1.937655407952959097e+00
1.701163475156109994e+00
-2.128895446597949714e+00
-1.079611879799085711e-01
5.492775661336743998e-01
-2.477784154430090202e-01
1.775363958682180776e+00
2.043667645195017979e+00
2.222122482545762168e+00
-3.620203053410951721e+00
-2.465049064916412236e-01
-2.226474603292397880e+00
2.064750517701959165e+00
5.845764518274469967e-01
1.939406702686762740e+00
-7.236611065701777923e-01
6.028234162937270435e-01
3.307075318285661147e+00
-1.268073291486260912e+00
8.106280656035680376e-01
-1.800612638115199227e+00
-2.529445568777667130e+00
-3.538989060506874673e-01
-8.309099414501144309e-01
-4.936737272435626211e-01
-2.336895156079710212e+00
7.706170464570779588e-01
-2.149004027033303288e+00
-9.373234120624885923e-01
1.946885137293188350e-01
3.937697660247863052e-01
2.557168368194750130e+00
1.011968075849742077e-01
1.740107522810653284e+00
-1.404525460520709146e+00
5.030225863382720153e-01
-2.227915426736616133e+00
8.876572306476605556e-01
5.504076624555873654e-01
1.993483125398956668e+00
-3.498449142933521272e-01
2.485297471619319631e-01
3.532305521454701225e+00
-1.835274341929646669e+00
-5.797878511403933323e-03
-2.113663015327896577e+00
-2.771525766848566441e+00
-7.931180512807188554e-02
-6.124894818506715355e-01
-7.061493368834594886e-01
-2.011044871251127741e+00
3.553575827879671412e-01
-1.257102872273745842e+00
-7.768730384306550274e-01
-2.674451201836263170e-01
7.442046534761462828e-01
2.582435758138966531e+00
-1.170821454044897347e+00
1.282057473725015662e+00
6.354136204805476140e-01
-5.013289565571980022e-01
-8.675901628107658414e-01
-1.290738322721777021e+00
6.515304958591311424e-01
2.712125361418700642e+00
-3.630992125431320439e-01
4.801147592095230017e-03
-2.204242449145831506e-01
9.995711613568278864e-01
-2.576553045687705268e+00
-1.667515004211834961e+00
4.341621489047741700e-01
3.742146940917504327e+00
1.780154521272203638e-01
-7.648959083805975112e-01
-1.336003228577448354e+00
-2.651296060308364066e-01
9.749070928014905713e-01
3.806337123276129497e-02
-3.928886362565026658e-01
-1.487247100811013301e+00
1.089617261521289571e+00
-2.425840022130965890e-01
4.989628447744388073e-01
-2.544469157331665343e+00
-4.529786247982420244e-01
-1.911980495096454069e+00
-1.193465976640586623e+00
6.384626713050483016e-01
2.810849463107265578e+00
-6.143250855312425429e-01
4.960656792588859498e-01
-1.013059559057033931e+00
8.694512791478364866e-01
-3.278964817604427928e+00
-1.815379466393764574e+00
1.186091524748444925e+00
4.410136368239024662e+00
-1.023021024993611416e-01
-9.437869951828591342e-01
-1.282061417571811246e+00
-7.952021669057557363e-02
8.490766770007427411e-01
-6.199305211492310841e-01
-8.077134459797191343e-03
-1.109071156139301406e+00
1.208495933132718969e+00
5.859116462211830939e-02
4.112842056047722461e-01
-1.435032721721646976e+00
-6.962794194357422306e-01
-2.414846457766971266e+00
-3.020930635986180390e-01
5.683838771608070717e-01
1.835169195876602988e+00
-7.464408300487610504e-01
8.919771201053777743e-01
-2.286670370765440996e+00
-9.742454082377268731e-01
-2.872057278977386385e+00
-1.603243338653081551e+00
2.333185701860390981e+00
2.876726330038060553e+00
-1.208463391297567524e+00
-8.718677333971884824e-01
-1.002713760116316744e+00
8.563266237003408499e-01
-1.493906075162315106e-01
-9.957298076007721210e-01
-1.286970686800376941e-02
-8.407183493956842113e-02
9.234073629598061883e-01
5.944807850312472386e-01
7.971680938037268849e-01
7.594919006187643706e-01
-1.468392723990204818e+00
-1.217248885828459581e+00
1.004916493012262046e+00
7.450138973641673434e-01
1.265484009566585355e+00
-7.945944533780573416e-01
7.749279486469634604e-01
-3.004984206785006773e+00
-2.620262173754801083e+00
-1.684030404237760070e+00
-1.274130195017097344e+00
2.706745202440782982e+00
1.574485125050753664e+00
-2.049582705936068283e+00
-7.696838337069645819e-01
-7.406579095748395680e-01
1.389831290599086167e+00
-1.537815658761994664e+00
-6.629564411743638086e-02
-6.381749431411977147e-01
-1.246407472020830652e-02
5.946649530310262888e-01
9.462460620098113173e-01
1.438731800322215815e+00
9.428742653352328862e-01
-1.655288997397748929e+00
-1.260113428529307522e-01
2.356625594914925514e+00
8.625664381288490334e-01
1.220475205997243684e+00
-9.940119697169434998e-01
6.035499860490215474e-01
-2.018484196814957610e+00
-2.427717140538045104e+00
-5.083815464572419840e-01
-1.012732165261856832e+00
1.628492096464307703e+00
7.858696525127784049e-01
-1.683034402605554147e+00
-7.624077027297818665e-01
-5.719999056665318049e-01
1.397916776771946257e+00
-2.791218088798014030e+00
3.268279538267450657e-01
-1.288625238797552752e+00
-4.332398424081677635e-01
5.394982585977120548e-01
1.178860689804452244e+00
2.268247871075919964e+00
-1.429417711325160489e+00
-5.927158435524700897e-01
-5.968094503574866705e-01
3.402362484514821706e+00
7.014176194478166648e-01
1.595278918881979591e+00
-8.767474323740226394e-01
5.871609699680104821e-01
-3.669583176477244496e-02
-1.596412371894744053e+00
9.905516072955350415e-02
-1.202010259293327721e+00
1.333522441155395866e-01
3.604891363734998855e-01
-9.329305581159557104e-01
-5.660804096243432504e-01
-7.620895082063866566e-01
1.207959870068384234e+00
-3.420619831044425130e+00
-8.042175006494191036e-01
-1.838916571178025761e+00
-2.616758504846869449e-01
8.224322444494238660e-01
6.428500774131259421e-01
2.498166366767986535e+00
-3.213345855694395237e+00
5.367042889950449647e-01
-1.772209387377295720e+00
3.017450551349939669e+00
5.040282728594033257e-01
1.834424987992981926e+00
-4.636858838193306243e-01
5.939365168030403819e-01
1.919983820898252702e+00
-1.251958119823368021e+00
-1.616719031210857652e-03
-1.636787791267555914e+00
-1.089482573862569081e+00
1.413811873868516533e-01
-6.847291059233098220e-01
-5.670970852538101958e-01
-1.089531301887878501e+00
8.048431097793138367e-01
-3.166183497643670464e+00
-1.702341313209433160e+00
-2.219413565095478269e+00
6.834122688270702350e-02
1.350753758579012143e+00
-8.730366377317830828e-01
2.032679260502200602e+00
-2.040856003004593688e+00
7.612351413534467204e-01
-1.809574296552981520e+00
1.323541993291871055e+00
6.138136651168466518e-01
1.691948107175984095e+00
-1.512925750275520009e-01
3.637881349171963041e-01
2.172446968901703634e+00
-1.270332078436669399e+00
-3.974607272629792076e-01
-1.746979016504999427e+00
-1.414237611803253136e+00
9.200420938655355652e-02
-6.451724524012792950e-01
-7.005713187367880179e-01
-1.046842695869079520e+00
5.273653908217751374e-01
-1.776378104195063701e+00
-1.399873691947893795e+00
-1.995900699203846829e+00
3.603870234160794772e-01
1.456539256566393714e+00
-1.588764816342965736e+00
1.526445331708754516e+00
-5.769727641807174123e-01
-3.379815113433090268e+00
8.006369468662476452e-01
-1.729704173889994312e-01
-7.527728535956060618e+00
-1.002705807344597844e+01
-1.910957011565282526e+00
-8.172234605536351282e+00
-5.040183175463793575e+00
2.039247040489412299e+00
-5.189322048602170057e+00
-8.412751564179568042e-01
-5.481062711625646955e+00
-5.451973165038465297e+00
-1.168471309588957840e+00
-2.098666523572633391e+00
-3.401375605854446427e+00
-8.659245195990628474e+00
-9.009930946150205955e+00
-3.620997439519325400e+00
-1.939318532796094896e+00
-7.397192701122524916e+00
-7.592910021883939820e+00
-6.237988971697477680e+00
-1.199885931267452044e+01
1.180189692783099709e+00
4.484121715836850153e-02
7.800384728548845348e-02
1.010587878886564511e-01
2.890102685174912242e-02
-6.556342997750440327e-02
-2.133341239212122389e-02
3.190994894056972675e-02
3.435787898138380897e-02
-6.694069343484557177e-03
-1.061473874427029673e-02
8.016026705939233166e-03
-7.723047316790891681e-02
-1.893060521809089847e-01
-1.401352254992463686e-01
-3.839419776104281007e-02
4.155070795246163656e-02
-5.762823106566045822e-02
-8.154828813781073160e-02
-6.141262356876874690e-02
-1.140207657574399680e-01
-1.805079037672053244e-01
-1.347279690787864803e-01
-4.765825796413505205e-02
4.977359173566957284e-02
-3.205477721590949819e-02
-3.500625523506691039e-02
5.485430322030222273e-03
-6.645562368332113765e-03
-5.141586747464561152e-02
-5.460927066450513984e-02
-3.462595392690593493e-02
1.810775632799502613e-02
-4.571221010514875394e-02
-2.789515468081069788e-02
2.257441373623095271e-02
1.768942623134344555e-02
-3.453761328776899092e-02
-6.499381454572547567e-02
-6.990208810918252524e-02
-3.089058417233993270e-02
-8.019714955739395967e-02
-8.294845980810131025e-02
-5.752919771960826600e-02
-6.135724988363139287e-02
-1.064343069208888576e-01
-1.213567601404192120e-01
-1.056036319165194470e-01
-7.440904279046489656e-02
-7.048586850963615980e-02
-9.525495885995652334e-02
-9.147152688190914038e-02
-6.419942921998952889e-02
-7.765610923406941757e-02
-8.498754861580098963e-02
-6.286749007098844932e-02
-3.988012889252300769e-02
-4.156672423427945628e-02
-4.012485357660807578e-02
-1.858380446511517445e-02
2.695753947734734392e-03
-1.123180177213028465e-02
-1.314459351842514785e-02
2.060296628000346866e-02
3.504650715791578913e-02
