-2.337292705775301238e-02
5.753590520662448665e-02
-2.688628841756629528e-02
7.609797546842683724e-02
-1.428189335441429515e-02
6.634285432224949763e-02
-3.110078616937852689e-02
5.943067325539152373e-02
9.667477238282393137e-02
4.684962708335899811e-02
9.216234986520585593e-02
-4.393075194005156836e-02
-1.107521292974573274e-01
-1.647640770053699910e-01
3.355002447081252559e-02
8.531801284575145014e-03
2.900772599851081032e-02
7.133055344661581865e-02
1.121067266959753644e-01
-8.502766569351298542e-02
-8.336510492778646808e-02
2.989550060448062721e-02
1.176896488768173349e-02
7.638852347280112448e-03
6.553870681521428709e-02
-1.987120009398058926e-03
-6.047635290439993400e-02
8.967915457976444876e-03
3.307733751680381334e-02
8.361105371673094311e-02
-7.726017691103753693e-02
-8.420853172169562306e-02
-9.030683608351948444e-02
-4.669848464832398321e-02
-4.332235695561537786e-02
-1.382561236601677068e-01
-6.023446071566063154e-02
2.146420222039138390e-02
-9.569708475526439440e-02
-6.999384386750966136e-02
-2.515612324115058807e-02
-5.243601427550698829e-02
-1.673454317866122920e-01
-4.196239284165865363e-02
-1.470322714870937464e-01
-3.139134974860668947e-01
-2.638865216948480530e-01
-3.584410711624250734e-01
-4.426297634460418795e-02
-5.865717531629006248e-02
-2.133148504031229589e-02
7.029933598660084715e-02
4.663366714959481935e-02
3.409288461086655564e-02
9.059911911235943305e-02
-6.320023490462765847e-02
-1.110151339502517542e-01
1.138803047502055799e-01
2.271134988759820200e-02
1.140840991431267964e-01
-4.376336067498896865e-02
-6.598699251732292881e-02
-1.394854093467478018e-01
-4.041003552365742685e-02
-2.183238936985568701e-01
-5.436819913584647196e-02
1.281902723831473100e-02
2.713492261949310147e-02
-1.595949442139335886e-02
2.059350221115408691e-02
-3.640036231960343260e-02
-3.172534403322560103e-03
-6.936282157926457193e-02
-1.027504665648772270e-01
-1.457179850590516468e-01
-7.171464657585914504e-02
-4.288938516780531340e-02
-2.746300657172959844e-03
-3.008626291211106366e-03
-5.159888138584142747e-02
2.210570634762295400e-02
1.141770474572751798e-01
1.642074286868394281e-02
-4.793040214996218545e-02
-1.086680402271869399e-02
-7.884457235092598437e-02
-8.713244734749155812e-03
-9.651434295376187800e-02
-4.888492498924715268e-02
4.084293500646536679e-02
7.503293239737932052e-02
1.021102014422386461e-01
8.501327743012655758e-02
5.703361949278700632e-02
5.497341672859309275e-02
-1.431050694843975790e-02
5.227858455771711849e-02
6.133494548962429085e-03
-3.752762274561793638e-03
-5.299536975864398841e-02
-5.336764715087230493e-02
-4.270939793365046561e-02
-2.100440642672218514e-02
-7.722387664688200315e-02
-9.560427011782085538e-03
-7.529657710735293552e-02
-6.713717579127189902e-03
2.099175095947845848e-02
-9.670982190495625019e-02
6.642059994984458871e-02
-5.521310345523576524e-02
1.066731211337844792e-01
7.750750019253088707e-02
4.468375463848377888e-02
7.037491031663672958e-02
5.494175351571771448e-02
-1.266470224607481043e-01
2.409191055073581916e-02
7.974530451493553121e-03
-4.960532455266040974e-02
-2.507424352780436919e-02
5.208785550373003920e-02
2.558504653248833138e-02
5.977790907681201915e-02
-1.942205132594005887e-03
1.070568968035434526e-01
3.350441848941300427e-02
4.589456942314182331e-02
4.763532461987051575e-02
1.227843334640633076e-02
-2.261550151874315573e-02
3.625390288042508458e-02
-1.542750956658806363e-02
4.389307755322725650e-03
-3.033770301967426281e-02
-6.266923928113994277e-03
-2.727460527887266839e-02
1.069411877970891794e-02
-5.864681169855617132e-02
9.622675251657827888e-02
6.862618225465759447e-02
-2.573413144412801945e-02
3.424858002351040265e-02
1.013002272293729022e-01
8.819459960269568355e-02
3.411920257970409848e-02
-6.981405249427609372e-02
-9.817408462198590202e-02
2.841228422740200987e-02
-2.662581753404875268e-02
3.778538642612070536e-02
7.219705739523869792e-02
-6.032940829526768980e-03
-7.007069544845642012e-03
1.460820824708767944e-02
2.463659212671310411e-02
-3.779409176916666974e-02
-1.116406218375325977e-02
1.007874792190750768e-02
-4.139632631522975267e-03
1.296724699131668324e-02
-1.024496906694536379e-02
2.416091803705872759e-02
-3.222370663334229307e-02
-8.865467711864281203e-03
-3.819244534382810335e-02
-4.724826578272016409e-02
4.766091461331856127e-02
1.618943330401719644e-02
-7.231060709562382727e-02
-4.658158068735059748e-02
1.141733438653714516e-01
1.018802858066216177e-01
-1.376011211107069053e-02
2.257229650728792818e-03
-2.553608182870164417e-02
4.329814391970843884e-04
2.029978008075390347e-02
3.611123211409636435e-02
3.454182009299503614e-02
-3.713784949028491739e-02
-2.337713720545333065e-02
-7.469759721408907038e-02
-4.419054260733131650e-02
-3.144590739458449913e-02
-3.285521004083555296e-02
-2.595887361811944835e-02
-5.480342425228315259e-03
-9.137413736883497409e-03
-1.109102043277416030e-02
2.807284334812005112e-03
-3.298534796424547940e-03
-2.374421163903610993e-02
2.955399522135129450e-03
2.337928726757897493e-02
-9.453296434215288646e-02
6.094692757326789466e-03
-5.646308696037638172e-03
-2.123289260844362647e-01
1.723012173686337412e-01
-1.086764412741931807e-01
4.132185618254914650e-02
-3.623631094898722982e-02
-1.039907994399746384e-02
-1.964150770718258322e-03
4.581168399499351007e-02
3.100147615086436617e-02
7.823096526546190633e-04
-2.987416639584797307e-02
-5.809508269212507181e-02
-9.789819402000715654e-02
-1.102436215331034364e-01
-8.622862615405593734e-02
-4.108838649339186661e-02
-1.245266798534915356e-02
-3.034580663368755676e-02
3.412099881928924022e-02
-2.627547730511820001e-02
4.204937277547544927e-02
6.614027996938703219e-04
2.085656601475435745e-02
-3.458853252042742160e-03
2.138153743530998158e-02
-1.041125338980451315e-01
-1.019534355675414117e-01
8.731025792312985256e-02
3.624235250768102073e-02
-7.042544172457164409e-02
5.374686827516018429e-03
-5.146001420320566594e-02
-6.684829426907608341e-02
-2.207700094358408614e-03
-2.137818726912850756e-02
2.512458842265381798e-02
4.535439352022703138e-03
3.128167345267046455e-04
-3.114579865601038028e-02
-7.900146962590032240e-02
-6.559816246635565007e-02
-1.113462560824157038e-01
-5.087022167533385847e-02
-1.396295879697397220e-02
1.277829128757032758e-02
2.419043718490415315e-02
-6.301374274412381050e-03
1.805060756132233213e-02
1.171093828165159327e-02
6.281893981717021243e-03
-2.856464909974742658e-02
6.583651474860002795e-02
-4.386027534516624693e-02
5.242591805978762814e-02
-7.633255380530087897e-02
6.577820466793399268e-02
3.028362215756531806e-02
-7.376207758498390908e-03
-9.237322551903186241e-02
-8.984656659691665770e-02
-4.588954727011543971e-02
-5.030308840691772448e-02
2.120693736720809935e-02
3.487558330392313138e-02
1.313349028916934759e-02
3.575010690086237453e-02
-1.684262755009112780e-02
-3.038109668002159439e-02
-5.507026261347209434e-02
-2.408673775212830798e-02
1.372366943751936186e-02
3.137325615225072112e-02
6.761009343180413023e-02
5.500906258487774786e-02
-9.906439299657864017e-03
6.160213468542201885e-03
-3.549207083586745914e-02
-6.447117497503855425e-03
-3.401675664404726213e-02
1.249000431697515692e-02
7.917209100142942602e-02
-8.947066741702744408e-02
-3.936677389777409192e-02
8.984685532637390337e-02
-1.160011817531868966e-01
-4.767799085011642513e-02
-5.821821247409197930e-02
1.059404306947367598e-02
-4.962815014520326196e-02
-2.758405176458633701e-02
-8.255616942660186364e-03
4.476140992432826871e-02
7.314801858441567772e-02
6.972465962666583861e-02
4.587167639452665452e-02
-2.836299616250539599e-02
-2.477080570874808443e-02
3.357881217932254941e-02
9.259759450795498892e-02
9.695483427037913937e-02
7.089922921486394025e-02
1.324051528980612312e-02
-2.017376508900040055e-02
-2.857516164132197639e-02
-1.147965907301007858e-02
2.025093068097204470e-03
-5.582338411597829314e-02
-4.557285463287178567e-02
6.259550806879338181e-02
6.961107798028044746e-02
1.402087178742991366e-02
4.965699377037804951e-02
-1.015023654016083826e-01
5.481158902897579482e-02
-1.572278527346429935e-02
-1.138097955319216509e-01
-4.162132779890016093e-02
2.660095479292751836e-02
1.515193872431195785e-02
5.959944545326380239e-02
1.044006386036716999e-01
9.159994509362744119e-02
5.459700503934818844e-02
6.642185123051107601e-03
5.602249132771727758e-02
1.192344354005730744e-01
1.331727841000148738e-01
3.632413947365735474e-02
4.851605554737381532e-02
-4.049993186043249899e-02
-5.820745832480846149e-02
-2.735366832542828960e-02
-6.408943971071164036e-02
-4.116340507619765943e-02
5.587990442036019911e-02
-6.928104363592542392e-02
-6.775138773409437876e-02
-1.490207374899641946e-01
-4.787903280155763469e-02
1.537321075723648844e-01
2.040195610154069139e-02
-1.024927147509965414e-01
9.356576032810927368e-02
5.617839445565148832e-02
-3.353559923520395974e-02
4.369302947114579727e-03
3.950045740874372387e-03
4.326803437737333086e-02
7.219618057717944182e-02
5.689415118188363707e-02
6.998962485291299052e-02
7.864302478765022864e-02
1.082879958582566582e-01
1.491636163714779306e-01
8.019120201903323641e-02
9.415286810996874312e-02
-3.207639585895276368e-02
-6.457662215147258467e-02
-6.490612830334373251e-02
-7.099406017001656972e-03
-1.687711521341489149e-02
2.597729495612592296e-02
-7.010368884130768752e-02
1.408503575760637061e-01
-1.160894363037399124e-01
-1.376869699379321965e-01
5.947005268173024585e-03
-3.145255647223168388e-02
4.051014973821705223e-02
1.188010063324284639e-02
-3.274944462792159228e-02
-1.164481232220501150e-01
-2.016421502082040018e-02
1.383460621749698673e-02
-1.401646817869171835e-02
4.823392593843161408e-02
4.431498230358696389e-02
6.083676737731902318e-02
9.618060629668771788e-02
1.243525559008621245e-01
1.403689111701102721e-01
1.658319774742924579e-01
1.341072689088997627e-01
2.042347036178076419e-02
-8.451783457809737554e-02
-5.062165907251185704e-02
-7.882371079143302151e-02
-6.209834862115719972e-02
-2.548903437209912304e-02
-5.379851376836301824e-02
-5.513665729655913006e-02
4.273522799229766134e-02
6.122653529310841114e-02
7.495887852483411329e-02
1.128575948908838861e-01
1.347897360505533743e-02
4.506759388844511910e-02
-3.707036454136571155e-03
8.665450846539952956e-02
4.710197360920903684e-05
-6.870266965293941874e-02
-5.083622655908844046e-02
-1.365439041112613550e-02
-8.768252668619334195e-03
-1.095641446008135088e-02
2.423914146305620326e-02
8.587456273796970074e-02
8.540708545687801523e-02
1.484056437947318119e-01
1.100125280511509429e-01
6.772967535077066559e-02
-3.187118369315114497e-02
-6.648594678274674652e-02
-9.795090065591625927e-02
-1.080302224384480092e-01
-7.726722385336111214e-03
-2.736731121986172091e-02
5.356625454144032378e-02
-3.722607341894427352e-02
6.693563320158760210e-02
-3.952905037480670958e-02
1.846977396625058138e-02
7.817369149579059262e-02
-2.561878393154564879e-02
1.107529190522765772e-02
1.142670098091412090e-03
3.794974828340892670e-02
-6.392292138799350598e-02
-5.833682741492599716e-03
-1.409192088641037302e-02
-3.658926439294069716e-02
-3.326695515636916151e-02
-3.475600550705418290e-02
7.855520369684204640e-03
1.517871202269933245e-02
3.772704231628227350e-02
3.809783803691689508e-02
4.010738071181008807e-02
-1.052756437312206590e-02
-6.622183741114716360e-02
-8.418885165481110322e-02
-5.293289545479158004e-02
-5.977022901324369197e-02
-2.117771277030988317e-02
-3.849442511569092090e-02
-2.824241995029583632e-02
-3.410795363025505376e-03
-6.804435278197057402e-02
1.250699317837580295e-02
8.607046801225053459e-03
6.420690271909447466e-02
-9.822380936250568739e-02
1.269149802217746648e-01
-7.715843847653229559e-02
-5.433906141871241990e-02
1.819037501365885004e-02
-8.142692044164483167e-02
-3.610819222246291343e-02
-5.787380111152071183e-02
-6.051876486006731171e-02
-4.168260840117828797e-02
-5.974722945577790739e-02
-4.749417181074056492e-03
-3.453954623479998237e-02
-5.734905947105965740e-02
-3.381962460273143373e-02
-8.264919276345815413e-02
-4.997100960241306761e-02
-3.446396583973875688e-02
-3.516214241459840462e-02
-2.326210511464679720e-02
1.502446429647191252e-02
1.014107494308306122e-02
1.598828258291324841e-02
-5.658991735608972541e-03
-2.255104226300214121e-02
-1.158642280101435384e-01
-4.358264315665640737e-02
1.096464590492788049e-01
-2.406618922418509929e-02
2.789201316576535652e-02
1.573039756251823074e-01
4.323583938792229658e-02
-7.408363698335709846e-02
-1.585737418974826618e-02
-1.840559973177735911e-02
-3.713892365776558235e-02
-2.977858194268408892e-02
-6.310261920305117178e-02
-6.060913178541094820e-02
-2.957658719705289971e-02
-7.447897507264425454e-02
-1.164962855505857209e-01
-5.233267183519090676e-02
-7.551352328430488425e-02
-4.654618755561614613e-02
-5.431628725313027151e-02
-6.133041899351014334e-03
-3.182440194137407894e-03
-3.165803800387743255e-02
-1.420146075841160344e-02
-4.894853212612024912e-02
-6.041964588222535626e-02
-7.263275900051653633e-02
-1.175025932226674875e-02
3.054824301961100649e-02
-2.004859786697310575e-02
3.930684155276831238e-02
8.956775011223816474e-02
-1.363374831601958381e-01
-9.483528907224628157e-02
6.428991359025558634e-03
-6.043510082493221136e-02
-3.770698073771061587e-02
-3.270917085705041250e-02
-1.641802267180970595e-02
-3.623166428205626920e-03
5.548596059858908018e-04
-5.142582010993523162e-02
-7.516496681479646613e-02
-9.028933299853240946e-02
-9.529559036766285796e-02
-6.189997880912955636e-02
-4.187476869228802523e-02
-1.444922729125475494e-02
-2.578788523781252572e-03
2.124526936760396528e-02
-1.568324414897457816e-02
-5.092788799603029624e-03
-4.665221479851430070e-02
5.682041194163204439e-02
9.235491495913822346e-03
1.263608215504243536e-02
-3.409126843023388247e-04
8.335548374974968699e-02
6.883703444833941081e-03
7.115197722657573554e-02
-1.835016767550309846e-01
2.423559224800948472e-02
-5.518562881009777404e-02
3.504469982836734381e-03
-9.007896839585496224e-03
-1.634118674243823649e-02
2.265065291768050132e-02
-4.090189270350346427e-03
2.782948596060670285e-02
-4.764900672372679447e-02
-4.741688648528803035e-02
-3.721021597565379174e-02
-4.395986988089874842e-02
-4.835179753972183164e-02
-3.756946620404083559e-02
1.402195715602462707e-02
3.871881764737650916e-02
8.475478081749665896e-03
2.235029247372330788e-02
-9.176008393822848719e-02
1.236639847212167402e-02
-1.334260393659074118e-01
2.192108978789943444e-02
-7.257672020548684710e-02
-1.139560721452396869e-01
2.197183023138640431e-02
-4.995360250615164810e-02
1.067158143658334113e-01
-2.118951125855301487e-01
-4.152256431820753463e-02
4.664156017414113065e-02
5.370506265079835750e-02
1.296778648666773413e-02
1.315706966105382363e-03
6.163982346632047166e-02
4.241747108523282600e-02
2.816337089909412561e-02
5.313251854716632971e-02
-9.127232514571590946e-03
-1.207183344429887603e-02
-4.039845410637377121e-02
2.014199899934755126e-03
2.906567664591924380e-02
3.943723612496922992e-02
3.304973475742142147e-02
1.232321429980184208e-02
-3.144766083509315663e-02
-9.159622392820726544e-03
-2.836748843053659222e-02
4.291166368677834519e-02
-5.834173984078144110e-02
3.914766697784669534e-03
-1.018741519644806859e-01
1.817368460784202222e-02
-1.038762696696205745e-01
4.633343965377238749e-02
-1.415452567428117370e-01
1.576173102837980650e-02
-5.454146522813598831e-03
-1.267235592315779126e-02
3.525022093756682157e-02
5.444963837223135150e-02
6.522443645892064823e-02
8.438089384128087678e-02
9.713446214964249759e-02
1.095758130821494064e-01
8.587212991075179880e-02
6.408361520876224016e-02
4.163900679872847843e-02
2.410108617453124435e-02
-1.227906556889324331e-03
4.712037291349298329e-02
-1.884995753614973797e-03
7.271258952461406855e-02
-6.718064365924562853e-02
6.041852701872462393e-03
-6.554778952919800006e-02
4.807493802647997555e-02
-4.175125609735737264e-02
1.660016659864214580e-02
6.977836912558534055e-02
-1.025292716391328490e-01
8.633839764199049971e-02
7.297309508285468316e-02
1.931322901532246950e-01
-1.566837045463147227e-01
-9.994737266324441732e-03
4.804563180204953800e-03
-9.735155759424518607e-03
2.882046232797709842e-02
3.712736647786778980e-03
8.088405083778840710e-02
8.763959299197358888e-02
1.194574540141130903e-01
9.575012950845528115e-02
7.217229788910754784e-02
6.099915738291121839e-03
2.146797625834668752e-02
7.322167352255425435e-03
2.810530320305179401e-03
-7.304895831162615261e-02
-8.262594571286403788e-02
-7.609594891717729077e-03
-3.417011336678383443e-02
-1.337910366573181742e-01
3.431694445608683697e-02
4.975536362062782381e-02
-7.245786296263380388e-02
-1.149848992571938650e-01
-3.018616512705581817e-02
3.100641218271090599e-02
-7.453805983697610327e-02
-2.267100537939718830e-02
3.592077497802182579e-02
1.992756884633027636e-02
-4.742496597003680037e-02
-2.821610128800937020e-02
-4.232556729050403199e-02
8.545979538838219258e-03
2.118644921639313908e-02
9.334079071029760533e-02
1.040990207019258096e-01
7.723441319416106399e-02
6.087571989151436408e-02
4.026330527101680545e-02
-4.279902203649571524e-03
-4.249607759323976997e-02
-4.947032513985522018e-02
-7.316675887692674490e-03
-1.101993868265038062e-02
-7.193871934453593964e-02
1.304733541013855247e-01
1.087935740210844576e-01
3.241548729033984916e-02
-8.874215228112145026e-02
-1.250468735866024084e-01
2.281666933479547903e-03
-1.017823808671231012e-01
-6.824986568168686651e-02
-8.379774083459937128e-02
1.021130972544025128e-01
-7.376130636245091521e-02
-4.788590033489585618e-02
-1.513507491283762156e-02
-3.462382169486456079e-02
-4.738505533071266096e-02
-4.515122524887558997e-02
4.489959180661975274e-02
2.319258514675966512e-02
6.774560463915149655e-02
3.532931741362616701e-02
2.351314647804735383e-02
-2.374091522751566735e-02
-1.930902514961515756e-02
-7.765282264037158544e-03
-5.064518820890750311e-02
-2.116099080714630917e-02
1.238649426984250387e-02
5.236933849686449538e-02
-7.640223726307880658e-02
3.315972429061075921e-02
2.176174890892576541e-01
-3.420273813514930483e-02
3.694823903879868032e-02
-1.051549052899387604e-01
-4.904776054217726416e-02
-9.266278254073194443e-02
4.720322771813598856e-02
1.331985497920792072e-01
6.107429150301716542e-02
-6.415748185087215283e-02
3.141635424596646298e-02
-5.429375695576934419e-02
-3.223776541707305994e-03
1.315440996364552854e-02
1.375229209814035451e-02
7.269241944921295794e-03
-1.645247207823954602e-02
-2.691240660294233131e-02
-5.351106893752945182e-02
-4.808774098994807872e-02
-9.194159339320530366e-02
-8.982928387947605731e-02
-1.779843683363457885e-01
-8.153608840659729018e-02
-9.847253270859047947e-02
-1.016081405220606027e-01
3.921091267711083322e-02
-2.369053671651951895e-02
2.185384638900286086e-02
1.042323646616821198e-01
1.146466715595385877e-01
-1.046961216346163348e-01
8.572663361680959992e-02
-9.936989194275562542e-02
5.184928854586739327e-02
-8.769995747979937584e-02
2.730436274297593641e-02
-9.773045032222391071e-02
3.211365813818312098e-02
-8.142331684000363168e-02
-3.398043388375822371e-02
-3.499316621107931985e-02
2.501333530736097981e-03
1.440355891133337195e-02
-4.006883038926385698e-02
-5.320146842746036747e-02
-6.709282002180334825e-02
-9.620510293168127447e-02
-8.191729300884659226e-02
-6.492785948758086900e-02
-5.095908883507668102e-02
-6.972363002955726807e-02
-3.562247449427231871e-02
1.265452113781682097e-01
2.963366678018290040e-02
-1.115315392793478078e-01
3.142273264272003874e-02
9.336108350858163263e-02
8.342382068180720367e-02
-6.547621980295208199e-02
-3.833916695207027076e-02
1.132726459550052189e-01
-1.797358642909790277e-02
6.711420929123462775e-02
1.006965816104942457e-01
-1.169790146671796302e-02
5.733837234405907840e-02
-2.786619826056591781e-02
-1.024555834899092306e-02
8.398383402832977629e-02
-3.205663793499101411e-02
6.501582897532587335e-02
1.992381686845061742e-02
1.251796105181916460e-02
-4.262404754994150030e-02
-1.596354103378826716e-01
-1.369050164383558109e-02
-6.892395103264545297e-02
1.526306066367741528e-02
2.391133127008259751e-01
5.049379823787387284e-02
8.974063463006275165e-02
1.186744844690899442e-01
3.113798843044009862e-02
9.701368350620456771e-02
4.238594566158387228e-02
1.043862129003940015e-01
-9.949007590503880505e-02
1.899006419758663897e-02
5.827999621863604041e-02
-5.694547348549659077e-02
7.941483898834084121e-02
-1.293616409062553138e-02
1.453205080400773487e-02
8.483396507370762063e-02
7.394508686164420752e-02
7.374197777359789430e-02
-9.175089184780181595e-03
5.067832571236396272e-02
-1.047752098033614132e-01
1.113656740939685252e-01
1.780533384128998517e-02
-9.706747941376440286e-03
1.113251604133613237e-01
9.643576219587150777e-02
7.453010699864737187e-02
1.936038570822814706e-02
1.099270932007294019e-02
-7.491538430644813229e-02
-1.027941390467398131e-01
-9.746208145053253391e-02
4.801847988439346578e-03
-8.297956270396560086e-02
-8.458117216017514706e-02
-5.351571514574291616e-02
8.198299976038136982e-02
-7.304548052655290835e-02
8.922400593806145697e-02
-6.616840968827659986e-02
-4.089403820916417964e-02
-1.073873072097092513e-01
5.361878235376511814e-02
-8.759021623931073641e-02
7.698021236826982361e-02
-4.381614671914557668e-02
-1.429094769231529279e-03
-3.425412345689365923e-02
-9.385874408223067455e-02
1.932574923585328452e-02
2.886926723731431804e-02
-1.696053020660545294e-02
9.642732463327600978e-02
3.172872087544362230e-02
-7.435065221926129286e-02
-4.217795531827893407e-02
2.791004020360174712e-02
-3.477973630789589488e-02
3.175982229315384847e-02
2.083251876989122213e-04
-9.210718793580550956e-02
-8.897526424919814658e-02
-1.136936942840947179e-01
6.290004733592767516e-02
-3.617041301176107584e-03
-1.449733343856241669e-02
-1.149561868237606171e-01
2.102841538541980193e-02
-5.133193065364080598e-02
2.261000857245723181e-02
-7.450318076146582313e-02
2.074918820799352345e-02
-5.394934421090112099e-03
-7.315070820790618711e-02
-7.619151437183296904e-02
-8.149115948299841261e-02
-6.365426325763574866e-02
6.315162133457037641e-02
9.343346759771697929e-02
-1.992659449524659954e-02
-1.108090638222295199e-01
-1.297211955915384685e-01
-2.647082635164793932e-02
-4.081151600257830470e-02
-7.681142532542270529e-02
2.796287020101733897e-02
-1.964346774382932925e-02
-6.969322465681732776e-03
-7.659354319288631807e-02
3.940696336515599196e-02
-4.159527653206128439e-02
-7.707806967782367125e-02
1.062324842628267207e-01
-2.601085221720560170e-02
-8.002897536463066119e-02
8.950737599708056061e-03
8.809075240116026606e-02
7.219577214220243566e-02
1.114010537606861528e-01
7.723553549943458496e-02
7.822805299650736899e-02
3.175639784153582584e-02
-9.201908855859967928e-03
7.986734300972600509e-02
7.649399756952453278e-02
-8.468301004166946255e-02
7.350456168932509304e-02
4.741223347243309072e-02
-9.042693892459693905e-02
-1.811721289358601134e-02
9.168697594267702713e-03
-4.431610312554125353e-02
-7.871695711586793043e-02
9.864034283376504897e-02
-1.070113963653010307e-02
4.150989982610084339e-02
-8.484157301805449192e-02
-1.047276558263648683e-01
-7.596344154914529134e-02
-2.205149499696464760e-02
-1.150317768913429600e-01
-8.991536397402805081e-02
-6.985709311377399922e-02
-1.066849344271038197e-01
-2.340053933752826178e-04
-5.298091405061541165e-02
-1.098312169892742829e-01
-5.194946858160939124e-02
4.952644979654236695e-02
9.462430541243006810e-02
-7.768620205911799803e-02
1.814100347030524543e-02
-3.806217892020227062e-02
-7.201117543594785786e-02
-1.057843014652529584e-01
-1.576946845333802583e-01
-2.793331283651982744e-02
-3.112006368339037890e-02
-8.995119221392487707e-02
-1.197789393139652575e-01
-1.546526714590921916e-03
-1.346373728164285480e-02
-1.081980235285478348e-01
-1.095834772381951705e-01
1.069568659793527360e-02
-4.586164240442029000e-02
-5.490031395146711957e-02
-5.086504286223455032e-03
5.150113027996446047e-02
7.378697585622859267e-02
2.682236332212631358e-02
-5.898196725193666050e-03
-1.680809137327117161e-02
-1.112879004441890696e-01
3.474761057799938962e-02
8.544543996274347672e-03
5.640644381958802994e-02
-1.468250278608351084e-02
6.955599719596067265e-02
7.665702492553094771e-02
5.606529814162392045e-02
2.387275729502356253e-02
-1.530212811965947217e-01
-7.205444607431796267e-02
-1.846924400518174247e-01
-2.052335467729666241e-01
-1.333607600510294255e-01
-3.009895979577409050e-02
-1.786058278264516519e-01
-9.748753632636358857e-02
-8.862874753494101587e-02
6.455092858442244841e-02
7.024958904195946485e-02
2.375362043657007483e-02
-9.834189005088408986e-02
-8.996800098127785694e-02
-5.803213786714749717e-02
-9.580635094339347291e-02
8.981603222471370995e-02
-9.357420796279249109e-02
7.827312421805474041e-02
1.002557478508920713e-01
1.006775745423182100e-01
7.204187258491170920e-02
-4.931513468006491069e-02
-3.612465723318739053e-02
-1.139452259934471273e-01
4.270459827276987252e-02
-2.966006313657962995e-02
-1.175784082396702096e-01
-1.055432231258465192e-01
-2.221744256410858320e-01
-1.318007663354771875e-01
-2.977632881496751760e-01
-2.155146821056447004e-01
-1.521817682054081855e-01
-1.305488877801053715e-01
-9.407972019506935513e-02
-5.144072090745147909e-03
-2.364006013454683294e-02
8.549974155146641830e-02
2.705758690579058989e-02
-3.750054047163866450e-02
1.064020811281654738e-01
-7.269336784045099531e-02
-1.136086753277290307e-01
1.027075943298923211e-01
7.020444443271062901e-03
-2.392464057183251933e-02
-8.241746085250137299e-02
8.572728479966809298e-03
1.102709348427978048e-01
-4.734693253389569284e-02
-8.762448411769811762e-02
-1.752093533664568839e-02
-1.340764541309537490e-02
-9.111616149996777658e-02
-2.818189892979399147e-01
-1.835554476745332730e-01
-3.877750288240239818e-01
-2.293034401294104241e-01
-2.313849060023123738e-01
-1.358820730945773381e-01
-8.688628095481638891e-02
-2.317901878458359655e-01
-8.904441709505626912e-02
-3.887209864937497816e-02
-2.396786882791016211e-03
8.865779893119697663e-02
-9.649888382345349347e-02
7.304503163373415875e-02
-5.143704622857005193e-02
9.944912957665673348e-02
-1.134475746189516215e-01
4.526056891686774941e-02
-9.678045151939892662e-03
7.649448713160100777e-02
-8.743956301816954713e-02
-2.913121312008548191e-03
-4.451643748310111365e-02
5.989169764740526897e-03
-1.566400534519882953e-02
-2.832473417173817995e-02
-2.857803339704948486e-01
-2.703838946291580170e-01
-1.703689036495108500e-01
-1.847192676547523837e-01
-3.336339133955282810e-01
-1.519389804522545129e-01
-2.379203592914707344e-01
-3.148507731703981682e-01
-8.764824080134404893e-02
-8.730272579126263643e-02
-2.189195844803866475e-01
-9.522551336917350895e-02
1.641565220074105852e-03
4.071595812434597450e-02
5.528489268672100165e-02
3.467412862160712539e-02
-7.735638755587330440e-02
5.167927163124152318e-02
-1.022133425581646937e-01
-2.652390634219157703e-02
8.121449998423289907e-02
4.436931237279210377e-02
-7.361863428835560552e-03
-5.860740407483727710e-02
-8.772055132435509217e-02
-3.547667982640407419e-02
-7.489467402156864406e-02
-1.407931019589575283e-01
-2.371536489904814693e-01
-1.717900030832708036e-01
-2.608551852412714367e-01
-2.704810321062612877e-01
-8.063272504686587461e-02
-8.344167839919316987e-02
-2.231757436802467576e-01
-1.740124999138497608e-01
-2.258905769083909276e-01
-1.971243134294764499e-01
-1.477286231524984894e-01
-4.980499945640662340e-02
-5.311339442479490885e-02
-7.824767604759834405e-02
8.090900414491151993e-02
-3.420370856325218034e-02
-1.045848255389286441e-01
1.003877745751256545e-01
-8.940262686934393951e-03
4.563863311481649102e-03
6.083694418487917838e-02
-9.841835732958367777e-02
-1.143830203651388794e-01
-7.981101731986789405e-02
-1.374302509449395471e-01
-1.184187571729760358e-01
-6.796727804407141915e-02
-1.234753890574174229e-01
-2.672141291998016421e-01
-3.567828175846020078e-01
-1.199537118380072237e-01
-2.212613983902661854e-02
5.259713220344261475e-02
2.293660152550506745e-02
8.075781560735203687e-03
2.495892495066805855e-02
-8.370407635767328214e-02
-4.447665381917342148e-02
1.759830630928547676e-02
-8.690197061336353557e-02
-1.155139456593256564e-01
-6.128787263788270517e-02
-3.331159476920705909e-02
-3.426687600469471655e-04
-7.166301405375299916e-02
-4.453002844757749518e-02
8.093951871938551146e-02
-2.924464475328423640e-03
5.900310780266667526e-02
7.179556936058784089e-02
-2.965453434332648158e-02
8.210610881951152865e-03
-3.201877519169331332e-02
-1.308699817672025756e-01
-7.893264203521092870e-02
-1.940011176394592918e-01
-2.839377833357740188e-01
-2.379082821603309694e-01
-3.724995053624596125e-02
-1.062714668792845291e-01
5.825155581192316412e-02
1.166010622006431185e-01
2.023047660780608221e-03
-8.223593015439974174e-02
-1.150146407420465505e-01
-2.127298387652281908e-01
-1.187811668470601933e-01
8.578091196812273611e-02
-2.333800353215022966e-02
6.382283268506031525e-03
6.998684213150230260e-02
-7.026013052560721450e-02
-7.465195966834958785e-02
1.385272209335325876e-02
9.408561976771609436e-02
1.023775908508719329e-02
-8.358696342851922728e-03
2.614101044085892500e-02
-4.549910934857770840e-04
-1.689481629178197705e-02
-7.476474438553101787e-02
-7.127224297818045284e-02
-2.134410722875404731e-01
-1.192327767272919337e-01
-2.711762307434741892e-01
-9.978774843008408890e-02
-2.304157902762284105e-01
-1.458279120601601031e-01
-4.665505204030452602e-03
-5.258324774026168491e-02
-9.122889503353258378e-02
-2.728293858167919472e-01
-1.423295699857844709e-01
-1.783982672010049064e-01
-1.670522253196117801e-01
4.009746322582812689e-02
-5.595044485808910867e-02
-1.891710832002518883e-02
-7.270225702276893187e-02
2.906167991937231784e-02
-6.731003940643816297e-02
-1.088834742633051911e-01
1.005347803632382908e-01
-9.484149832000582370e-02
-2.438776697280865130e-03
-7.304841341024786994e-02
-1.524299681934753847e-05
-4.517395554194358204e-02
-7.461065850861332838e-02
-1.138359596533769780e-01
-7.221693993456876348e-02
-1.389138344481586629e-01
-2.495273220044822993e-01
-2.578272930936733043e-01
-7.281279071296378747e-02
-2.477168967416804590e-01
-8.051503720420311039e-02
-1.367577881476335910e-01
-3.137101690251692943e-01
-2.676367314806145092e-01
-3.332371422596669408e-01
-1.918691497097501086e-01
-6.766022618445367842e-02
-1.197367692273464644e-02
-1.604131418161506423e-02
-1.264446977852477436e-02
-6.950644350982020103e-02
-6.317707489378365793e-02
7.546562642829704459e-02
2.346727460080037797e-02
9.675793984588308694e-02
2.864262231529293712e-02
5.444805105396197803e-02
-6.597048008491006310e-02
-3.755820729266269586e-02
5.183868878247199774e-02
-3.499748549444853252e-02
-5.841947636561335699e-02
-9.494379725873328124e-02
-2.706630575314643572e-01
-2.888454027378102862e-01
-2.344175178714110741e-01
-8.742253262834279171e-02
-1.179379502137336000e-01
-1.989526996209730614e-01
-2.817449502698832209e-01
-2.236536051403600900e-01
-2.390629024830243365e-01
-1.995957856974079070e-01
-5.253560430682397558e-02
-9.524465412697736416e-03
-1.232512456072243703e-02
-1.173219185941384718e-01
1.223914613545971919e-01
1.446227435115515249e-03
9.761306910062798534e-03
-4.174780898329410322e-02
-1.425228003326002753e-02
7.255461652870132117e-02
-9.962573572043936787e-02
1.034740441872348121e-01
1.054819839443923296e-01
5.068446006901670270e-02
-1.989386357738311475e-02
7.075243346239806774e-02
7.702822879722735772e-02
-1.651861587579123714e-01
-1.612251045720311249e-01
-2.213596930701829946e-01
-2.949455814055277347e-01
-1.195889311873998134e-01
-9.386382400742709908e-02
-2.624028908043786745e-01
-3.536320421593683871e-01
-3.535976528953651554e-01
-1.864840864078145810e-01
-1.384997583751541583e-01
-1.431385850624426193e-01
-8.430048961830002852e-02
-1.002117004052688054e-01
-5.663972351226696789e-02
2.190759671051031518e-02
6.150960973619445243e-02
-2.469025739890272353e-02
-4.127979959912068952e-02
-6.563449022103240438e-02
1.027634873603343185e-01
2.182739774998972496e-02
-5.956226170533219372e-02
7.936065191547429787e-02
-9.780262279705702333e-02
-5.423948916433981443e-02
1.246456150473888302e-01
-4.648283742406717281e-03
-1.565784502441850135e-01
-3.377086647909972178e-02
-2.809899758186823471e-01
-2.861763544713140095e-01
-8.678123190635431139e-02
-1.620552195197329792e-01
-8.083273080069444672e-02
-2.204607622520670107e-01
-2.951247378138223132e-01
-1.102896495953223227e-01
-1.573796869317460601e-01
-5.753125613822102774e-02
-1.683859285849854115e-01
7.157809207360676940e-02
-2.069045804978566355e-02
7.194273425221284213e-02
8.146544140393618960e-02
9.104412964710704992e-02
8.617168774023310773e-02
3.112438944053986037e-02
8.513566461297933374e-02
6.340694807125246690e-02
-2.702493525084985818e-02
-2.272218864479613656e-03
8.034990403367577028e-02
5.053324082288377511e-02
-3.668661284409447526e-02
4.504679848572896994e-02
5.694504870031842636e-02
-9.212733276068866412e-03
-8.971886525518665834e-02
-1.124698881214447610e-01
-2.450777221788667248e-01
-1.139776673584630695e-01
-1.781873399795260715e-01
-2.174239926118129163e-01
-1.072355022376942218e-01
-1.092517234182834029e-01
-2.057091491321949572e-01
-2.093279707228030972e-01
-1.436894418468894277e-02
1.499217585387510425e-02
-4.093424077442316122e-02
6.439940131408905359e-03
-9.347665741518679239e-02
-8.432605443571316098e-03
-2.684994819522644113e-02
1.057759493435386083e-02
-1.499851271829756236e-02
3.338176840807377532e-02
-5.069499540594138431e-02
9.840075210767518232e-02
-2.677919506753431364e-02
-3.803137436336050115e-02
1.354574948770753129e-01
-5.313940379733452651e-02
-7.057954017574062655e-02
-1.501122066645820818e-01
-1.138349770830756891e-01
-1.549643764600169282e-01
-1.213930831409783945e-01
-1.448516695554999123e-01
-1.281564962143196540e-01
-1.496251239470340333e-01
-2.984325004706986362e-01
-1.366590259043734545e-01
-1.557658448558729425e-01
-1.474491850644717439e-01
-1.663235638164451413e-01
5.743085444669708550e-02
-4.202201772299390958e-02
7.134891739219164156e-03
1.177856569612307017e-02
6.144828781928037692e-02
5.247785007184023465e-02
-8.473388704661666271e-02
6.205130764153297257e-02
-9.044018884511821621e-02
2.051407125535432280e-02
3.901295051321933965e-02
-8.306806331058860793e-02
-9.108439152560858509e-02
-4.606334353602177523e-02
-3.156250551554064254e-02
-9.498357373744509974e-04
2.636494767125197383e-02
-2.065701237233631971e-01
-6.039411737885304332e-02
-1.000516644086537899e-01
-2.650895313089971506e-01
-1.719650206548319071e-01
-1.895203527102542196e-01
-2.645471196470939867e-01
-2.406836587151202078e-01
-5.912099413884357169e-02
-7.561625734552746003e-02
-8.982437756404197671e-02
1.768362831048410355e-02
-2.309349285501883370e-02
2.369698981576395108e-02
9.160220361752409446e-02
-1.342295882038300851e-02
-7.188194094962387093e-02
-1.046178710717268340e-01
-8.770102304440398344e-02
4.705317461007710311e-02
-1.139676041361546988e-01
4.112628306487824126e-02
4.093713604268137823e-02
-6.827375602971986687e-03
9.172601538956826062e-02
8.117112563627400246e-02
-1.853807342114034695e-02
1.039387740192244947e-02
-4.268482659782953104e-02
-2.254458586418927463e-02
-1.461522755142779240e-01
-2.896581036639597206e-01
-2.743316646179574936e-01
-1.995587917692900060e-01
-3.120137295328153093e-01
-1.302157040637484386e-01
-1.937346427163525731e-01
-1.443815642183433057e-01
3.491560154795972371e-02
-6.342286138866928824e-02
-1.112491764534791344e-01
7.579413819237161565e-02
7.102637107270638739e-02
6.929667991411948835e-02
7.492699268922582700e-02
-1.580340144370775968e-02
1.064707121386855720e-01
-8.511139991923115378e-02
-5.330453506691414101e-02
4.154723414451184232e-02
-1.783430795929217844e-03
-2.237491528915812669e-02
-7.831713526436276385e-02
-1.353174025134359360e-01
-1.476278610045678175e-01
-1.774188830366225378e-01
-1.072950736500886959e-01
-7.756275823460274943e-02
-3.019460941831416667e-01
-2.385095636752998516e-01
-3.435446242989296795e-01
-3.141907937961088138e-01
-1.263545894026210370e-01
-3.616641798792045309e-02
-1.901001868241480319e-01
-3.834764005594772096e-02
3.902898459437275508e-02
9.945566382810168415e-02
-8.564115071666855358e-03
3.552078379202292663e-02
6.925934802511764243e-02
-6.500373432821414388e-02
-5.132950095230007226e-02
-2.832157825316104077e-02
-6.299654658633926929e-02
-4.571388913151508415e-02
8.166862177622428998e-02
-7.126728259701999024e-02
-9.931709613315205243e-02
5.403853722035800028e-02
6.930939272815737906e-02
-3.616743107354137426e-02
-4.076341999396569660e-02
-1.203364029680127484e-01
-8.401071418024270987e-02
-8.620244712543216614e-02
-1.701456195633029855e-01
-2.932227258012312099e-01
-1.394204933807264846e-01
-1.696045729526927670e-01
-1.373939630886187868e-01
-4.864570320844972123e-02
5.612389429556021575e-02
-3.039955265423009700e-02
3.310136916844297339e-02
-1.098996885625295600e-01
4.866505631914652685e-02
8.972978545100204067e-03
1.277182672579485652e-02
3.746466911712807019e-02
5.298756471408653385e-02
9.337273713419025345e-02
-5.335213333563538357e-02
1.025386320005732960e-01
4.388871786407905207e-02
1.092814050795790498e-01
1.442811287187123655e-02
-1.924660506973332325e-02
2.491781689796959340e-02
-6.994854915170925502e-02
-1.144958580411523930e-01
-1.376166044178635250e-01
-1.574727216423079945e-01
-1.729536122766938411e-01
-1.517936794690898372e-01
-2.734299424246237065e-01
-2.594634833577051380e-01
-7.444163745012878641e-02
-3.216622305244555557e-02
-7.435088716452013802e-02
3.087976541559793800e-02
-2.550012271657674592e-02
-9.278533136695173156e-02
-9.652059959312606074e-02
1.135604081504931057e-01
-6.304471560269590824e-02
7.484070825161560914e-02
1.115345834084788129e-01
-3.595157144898511459e-02
-8.268857687364183917e-02
1.055919089384948217e-01
4.852209559403507927e-02
-4.449394968331805977e-02
4.842866195984626976e-02
-5.284382426344184924e-02
-1.054798552534257777e-01
7.908178207869541454e-02
-4.320006238215464214e-03
-9.454501491890240916e-02
-7.562947410048458108e-02
-7.640934777925638410e-02
-6.994976592930862366e-03
-1.547712041183081921e-01
-1.156561403607857669e-01
-1.477924860576017851e-01
-4.589719433944387111e-02
-2.125895834350222460e-02
-1.034454308671002576e-01
7.750337812755739297e-02
5.507954637287443278e-02
-2.378524977003824981e-02
-1.157194932099991636e-01
-3.211135331402233811e-02
-4.886430040251567991e-02
-1.708282638565358780e-02
-1.071289640679041477e-01
-9.960966253065541010e-02
1.043847006306626926e-02
-2.251839022253328271e-02
1.149286172055058591e-01
1.501210796403570046e-02
-3.275157357240235552e-03
1.139155129154318692e-02
-8.956995550719480670e-02
8.908229216097070247e-02
7.196988107293776638e-02
-1.032597802267781611e-01
4.546160990945936897e-02
1.038210519842679494e-02
-2.198610850929649807e-02
-7.672257037392181400e-02
-8.602077669261382065e-02
6.384662944230086457e-02
6.460006802502445133e-02
8.272957371320439901e-02
5.007139250422843781e-03
-4.266532405751710666e-02
-5.298903534322498693e-02
9.654951416649837359e-02
1.152261661016389660e-01
-7.537255863843055070e-02
-6.744255369127624689e-02
-8.274465977701307706e-02
7.442485671084822681e-03
1.034599945595454790e-01
8.908199402284308621e-02
5.182253846507738071e-02
-5.769656386678663484e-02
4.057277097365953600e-02
-8.085496885707889325e-02
-9.476567451814285614e-02
-8.958109578454719057e-02
2.495090013359592407e-02
-1.032007139274106755e-01
-1.088194421357906033e-01
-4.428407750103613427e-02
-2.019134218796498140e-02
5.428990511739993641e-02
-1.014387965150851667e-01
-8.778414058167240130e-03
-5.610580956382850426e-02
3.054467461415875593e-02
-9.075644492272329222e-02
-2.140721604614529566e-02
-9.543373817388563218e-02
-7.231144335078475149e-02
-5.056450935928357912e-03
-1.119434353752842698e-01
-8.367740097074115313e-02
7.143439574066805242e-02
6.457344399108102748e-03
3.526645797822126199e-02
2.043589594329770463e-03
9.131226098035484517e-02
7.010232654151385412e-02
-1.800968974082194779e-02
4.779941910298829422e-02
8.636223595290656863e-02
-1.079677944353030355e-01
1.350181730408638210e-02
-7.088451316159312399e-02
2.885489029421513946e-02
-5.062142286495633497e-02
5.150467435030324503e-02
4.339258537130640664e-02
9.324304551988139844e-02
5.153871609575971791e-02
-1.812143322983737759e-02
-7.135147490620608046e-02
2.481415763595192295e-02
1.641794404579868328e-03
2.798726615154652556e-02
7.115611337817208393e-02
3.033868601297203763e-03
7.227910227533659859e-02
-4.558491308080599852e-02
-4.786533428213758656e-02
-3.190096828448739635e-03
1.610729119024261607e-02
-6.607586082595150179e-02
2.089990013001962257e-02
-6.331675069403688849e-02
-1.017207386360186872e-01
-2.416389752216984224e-02
-3.298830956887725124e-02
2.714162446440168339e-02
6.797933469077933888e-02
6.841542283928143953e-02
-4.261477582586161448e-04
-1.111531926733410891e-01
-3.274561420737418654e-02
-7.391388897453173012e-02
-6.258001792078289605e-02
-6.444040199488172693e-02
-4.869880189484541294e-02
-1.303777527013761164e-02
-9.639588524167308492e-02
9.060317477952416210e-02
-1.871821684564132712e-02
-1.062342384119689537e-01
8.462546436730807031e-02
-6.077902231343230641e-03
-4.850325549349632920e-02
6.185260990541433662e-02
2.352335266351613524e-02
6.069191161235321097e-02
-1.139622262674734599e-01
1.595181769107532205e-02
8.935709901512545184e-02
-6.358051602055936335e-02
-6.537501252826447007e-02
-3.710923780195440891e-02
1.045607600658933073e-01
5.059225223104475699e-02
-1.105878098045949415e-01
4.247272607001583572e-02
-5.568450131377691847e-02
2.207887895569991821e-02
-1.536237410790847746e-01
3.739629384570439252e-02
-2.556067615558969830e-02
4.552506830481783950e-02
5.272897714279990017e-02
-1.753146810547941414e-01
-7.831833008100348714e-02
-2.046441612614995909e-01
-9.325991653620645250e-02
-1.437676034505683542e-01
-6.869289224534352867e-02
-2.324689907959884283e-01
2.538603555453204305e-02
4.812778455875091994e-04
3.698800311787964722e-03
5.197196194017653786e-03
9.457521248070431541e-02
1.048172484097484175e-01
-6.808632340945981742e-02
7.725857725526476261e-02
-3.343367575624859450e-02
-4.810650272988067216e-02
-1.299483561596536350e-02
-7.261605912197202639e-02
5.081691331531955347e-02
-4.696992716263889006e-02
2.318062581007459720e-04
-1.843354828273921775e-01
-8.405440128193734928e-02
-3.554787657312515059e-02
-2.583219367757000340e-01
-2.668286530700918896e-02
-2.890723469431359383e-01
-2.108443946466742325e-01
-2.843188263216256395e-01
-1.470160135537499080e-01
-1.576228168821179609e-01
-9.147935750511822228e-02
-8.368963509615652552e-02
-7.676714004137452640e-02
-1.515769115724504776e-02
-6.801695614476001295e-02
5.271183350985136212e-02
-1.489365904733086221e-01
1.414968010145336609e-02
6.657631115906957608e-02
2.621552775653761616e-02
-4.012534026837231982e-02
7.000715561125482600e-02
-5.798710095978074769e-02
4.264660244863648433e-03
2.039672798792863465e-02
8.490868672235978021e-02
-2.843059379469726686e-02
1.885011516286682134e-02
1.532145147500095679e-02
1.782667949344565739e-01
-1.999506590468548561e-02
-1.232483739388111899e-01
-1.825031263712953711e-01
-1.719810568523751360e-01
-1.336260062381637026e-01
-1.300052966566254964e-01
-1.043123692231072847e-01
-8.375819623458313767e-02
2.108985718036390442e-02
-9.338859888570557113e-03
4.536697553857711035e-02
1.020514201557757607e-02
-2.184565817594435674e-02
3.436230660054305497e-02
5.391991314638312771e-02
4.243249870779185196e-02
-4.022307844316664899e-04
2.705044040394234336e-02
7.261667483886527497e-02
-4.442998882760774287e-02
8.348067820137899941e-02
4.565903972909605285e-02
-3.341373730139949455e-02
-1.249029044343941998e-02
5.792722282228664893e-02
1.617675215219101514e-01
-7.873382491496883073e-02
-1.276907699908861292e-02
-4.412880202341033786e-02
-2.113015178741703762e-02
-2.491492333299639983e-02
-2.495718245613254976e-02
-3.531539578232723714e-02
1.586613852581422951e-03
-1.208639773145866493e-02
1.070274501786539108e-02
2.209858572213838079e-02
3.398997458903475072e-03
3.084373083662913725e-02
-4.178242539417341417e-02
1.444704616056086480e-02
-1.392906148701652559e-02
-3.252639367213469579e-02
2.835090159452916675e-02
4.522454906677983444e-02
1.327976229236944306e-01
3.016000814978593916e-02
-4.643904361288819088e-02
7.210701767875619950e-02
-7.587863106059213048e-02
-7.675469928070773051e-02
2.261119679741416949e-02
4.149427586245563876e-02
-1.056798499694530241e-01
-4.920310217142354059e-02
4.416171038863799664e-02
-1.768223614537271435e-02
2.286588257412175418e-02
1.231905273898004256e-02
1.819033553297787209e-02
6.831361301092932041e-03
2.279556696373793642e-02
4.994731541805876029e-02
3.707434702787664599e-02
3.882566978347267578e-02
3.595310157507566884e-02
-1.062399345372739418e-02
2.121468400718490993e-02
-4.249509245420146175e-04
-7.003856199695729715e-03
-1.827845581942741035e-02
4.424246585701756274e-02
-4.524155034014366167e-02
8.262171994863300173e-02
-2.370354452300257181e-02
-4.595047708474398612e-02
9.985548506865553342e-03
-8.138465700474918629e-02
-6.118189086802414134e-02
5.070015701686402670e-02
5.981997678151155379e-02
-4.747315240732307567e-02
2.181981903525873848e-03
-2.212494642924727958e-02
5.687250629392625288e-03
5.880282373127167228e-02
6.676200973509720943e-03
2.815899519106088850e-02
-1.085657141970342238e-03
1.029450835744695480e-02
5.746715284845092808e-02
8.695874191570496237e-02
7.565797030243050225e-02
4.316415197099326279e-02
9.782564706637660035e-02
6.583029803260875140e-03
3.534859548056321771e-02
3.087073519502375393e-02
-1.746411078271309716e-02
-4.861353318919276606e-02
6.930376854933716080e-02
-4.995475100169900762e-02
6.806887858435213545e-02
8.242482119127976514e-02
-3.268453718885416109e-02
-3.329976880215749363e-03
-1.058498467040550894e-01
-2.177132539079736431e-02
-6.466819468063135512e-02
1.581390012994163957e-02
9.236548550180957023e-03
5.177809955375833884e-02
2.853853006883884380e-02
2.290391691040679148e-02
1.438505140254501061e-02
5.094407463179582811e-03
2.778869256231670214e-03
1.508088872795810415e-02
8.779709786583751729e-02
1.136612769966126035e-01
1.101872241173859901e-01
1.066064365687990623e-01
7.294139016336687042e-02
6.393530022088490805e-02
1.790130417869741433e-03
-7.699213495081949285e-03
-3.062312129942555000e-02
1.549826058289268185e-02
-4.528504607254407732e-02
7.980434287739469890e-02
-2.064476632994939609e-01
3.800150155725109946e-02
1.455026941081489777e-01
-2.118075380178728040e-01
1.092495976947494840e-01
-1.884350650395682364e-02
1.693230707569620729e-03
-1.036847616377611046e-02
1.865187387290154902e-02
1.358650182869148085e-02
4.112662981711239646e-02
1.352648035836464917e-02
2.180270957503582709e-03
-1.727596032084777883e-02
2.900865390118829643e-02
5.996111368545008896e-02
8.013258934204246786e-02
9.465412216574900506e-02
1.037059425554218428e-01
1.225090598314748508e-01
8.081163414880022933e-02
1.558798886699958551e-02
2.202724901884255734e-03
-1.006948844356408621e-02
6.843966217809431020e-03
-5.233851584674473895e-02
-1.844570880491512837e-03
-8.669489228268077718e-02
-5.887929362345512702e-02
1.406165320321287882e-01
2.145406919910265442e-01
-6.581787028991190058e-02
-1.284995078523930856e-01
-6.882582402034756464e-02
1.319051428184143948e-02
-3.080468821565480672e-02
3.932466559158420694e-02
3.765308071936634363e-03
-9.072720214354287188e-03
-4.990255232244875799e-02
-5.507620694680989692e-02
-3.320893012428185326e-02
8.108892150301000030e-05
-1.373747503036387013e-02
1.957045859806123486e-02
1.919549598607138419e-02
8.533555163112934577e-03
4.254768168194250633e-02
6.395417075265951920e-03
2.553100244326802007e-02
-4.407654323536786684e-02
-2.290770562140401895e-02
-1.204091506445030373e-02
-6.234015910140371791e-02
-2.548811339113455851e-02
9.177900541434218240e-02
-4.294887276792900936e-04
3.241583332156589004e-02
-2.870074072332279291e-02
-4.208950981698471143e-03
-3.414547587144011603e-02
-1.683878005006712864e-02
-3.292265147358015842e-02
-2.597915753082732579e-02
-2.954284339014437433e-02
-3.912000609339479074e-02
-5.326755101246223589e-02
-9.520496856916724204e-02
-6.865784012551232052e-02
-9.183877200249891681e-02
-2.521782238001516255e-02
-1.223319722704263070e-02
-7.534265207075711845e-02
-5.838694865333801665e-02
-1.012669124528437804e-02
-5.827178322443426345e-02
-3.627692134191275869e-02
-5.194849405264161113e-02
-2.372951555924875805e-02
-2.197198365769185285e-02
-5.983048988580498204e-03
-3.888331816690140247e-02
3.160856365904055054e-02
-3.093866824529287185e-02
-5.887947851859272330e-02
-6.966094860982013914e-03
-1.894788807483275828e-01
2.008582291896250094e-01
-1.445088975998195802e-01
-7.362898007926936550e-02
-7.346169572541424997e-02
1.173018985810403945e-02
-3.945152171530003776e-02
-3.607346025935024431e-02
-7.875298008823677920e-02
-1.127998282168454075e-01
-1.083287027785413137e-01
-6.599807820468926722e-02
-4.574607363664923154e-02
-8.499381384987338139e-02
-9.120476324194318196e-02
-5.471758169739782823e-02
-1.049257961960949476e-01
-2.492544126079421218e-02
-5.869234960019471814e-02
-2.325715638760395346e-02
-1.601311342086326334e-02
-2.557625352456660908e-02
-6.994352445504894988e-02
1.141946895829113184e-01
-1.813100165051634294e-01
9.091704140733763984e-02
1.506981931671508117e-02
6.329619402672684303e-02
-6.197504990243585254e-02
-7.410264208459829693e-02
3.311341129076889739e-02
-4.113045995274336973e-03
4.060327675428425376e-02
-9.606243206818866273e-03
-3.136609693966245505e-02
-7.816539996671788282e-02
-1.004278592218511290e-01
-1.217552356610065445e-01
-9.867582800309339375e-02
-4.517800130351488225e-02
-1.973436600076244538e-02
-1.981172855007114555e-02
-3.280655084923506798e-02
-3.574020302516470876e-02
-1.772052925453696318e-02
-2.296079514149632766e-02
-3.897527981194098823e-02
-3.140719157912041926e-02
-6.273989014654432483e-02
-4.126017028848293598e-03
-4.178010025843815166e-03
-3.437257975064199333e-02
1.587185723159311446e-01
-1.185878903272929857e-01
-1.425719130884250396e-01
9.078703405143838390e-02
-9.058220910134927306e-02
6.799084557168325049e-02
-1.469607718577143896e-01
-6.221790459440552229e-02
-3.102607627008165114e-02
-8.444015191434697115e-03
-4.649191751677939771e-02
-5.216000731112480082e-02
-6.359156329526806373e-02
-6.783583922010676115e-02
-2.864176405515429791e-02
6.883034867950186229e-03
7.848797093046791518e-02
3.526649553895809530e-02
6.301362914936144144e-02
5.636774504768973793e-02
1.137430079142656182e-02
1.711350636876620562e-02
-1.390275293857516463e-02
-2.015973884463414384e-02
-8.241370382950700957e-02
-6.221030941535780900e-02
-3.484050240655846981e-02
5.061750302044316224e-02
1.124937952487206627e-02
-8.724713751654508687e-02
-5.783949464904602350e-02
-9.480857195440066387e-02
-3.697032279918451014e-02
1.116783799862456489e-01
1.083117839317954550e-01
-6.827908637618680665e-02
4.164923519069298891e-02
-4.966720841338973652e-02
-3.014479751348763878e-02
-6.270675724435759157e-02
-6.169219370274119790e-02
-4.224257171242625647e-02
7.895852275765487260e-02
9.082603736627659075e-02
1.003202126959889529e-01
1.057849984366565632e-01
1.387478168244241916e-01
1.196319107872279852e-01
1.201810365515631612e-01
2.736418498283662779e-02
-3.752928138895769705e-02
-3.936868407279654064e-02
-3.860590728498718843e-02
-4.528144165781062408e-02
-7.552927738973399478e-04
-8.078171450634138995e-02
8.869927697871847483e-02
2.085371756415173305e-02
-1.612008623185429493e-02
-6.327065557514391370e-02
-6.918510707990958852e-02
7.451985834903455952e-02
-7.609282844439058374e-04
1.227253938275443546e-01
-2.800037247212864081e-02
2.968900200880143433e-02
1.887283490333114752e-02
-2.251106290659521739e-02
-5.189617570609892511e-02
2.395454499454093694e-02
1.012752130199409129e-01
1.388162828868496623e-01
1.139076571109877423e-01
1.205773781221590873e-01
1.396196437464765072e-01
1.750204321915743433e-01
1.381553206651237320e-01
8.309022209376519530e-02
5.033156584769366698e-02
-2.531620974312640687e-02
-8.588798033877093063e-02
-1.044750104174474864e-01
6.893638860270162941e-03
9.968674306749557290e-02
-7.548890815143317889e-02
-4.287918744836129864e-02
-1.128827661983971692e-01
-1.159593813656850658e-01
6.389425348897261048e-02
8.172681544554900868e-02
-1.172298883769998246e-02
5.331579202874303647e-03
5.179835851153606618e-03
-5.473072140322038370e-02
-3.673792747737828629e-02
-4.078589053999648328e-02
-2.308584452712658316e-02
6.221891506381779791e-02
7.889876802565401470e-02
1.155044605549026548e-01
7.666207380704945229e-02
2.250973160492116334e-02
5.873651180008288702e-02
8.398602148982313442e-02
9.293481704968450940e-02
9.423583687523853780e-02
5.297136497779756509e-02
-1.182868993487928150e-02
-2.061469207983198867e-02
-3.067792964627400615e-02
-1.496188916706084615e-01
7.949045481778255207e-02
2.880551066496688309e-02
-3.919080926511128021e-02
-9.017831210731788727e-02
-6.991052225992408498e-02
7.085198558886998677e-02
9.893732949387751274e-03
4.676246225834659875e-02
1.691244252213919622e-02
-7.029177104913654495e-02
-4.431936106720578417e-02
-3.550979448571852520e-02
2.286915024076179460e-03
-4.584436389340464102e-02
-9.647389985637432053e-03
7.956137781205746551e-02
4.300969903774203018e-02
3.145098507689495729e-03
-9.918740600200509627e-02
-4.409180683425754227e-02
6.221335341316921487e-03
8.693380214161365582e-02
7.898643889529377571e-02
3.439790079052547356e-02
-1.116313180054232142e-02
-8.181621381409664995e-02
-7.183417285266494035e-02
6.826888752663648474e-02
-1.110003529780913614e-02
8.523945827011752963e-02
2.943921738678868111e-02
-1.279805140385744007e-02
5.367852258402977528e-02
5.100071005875538022e-02
5.695656193200435841e-02
-2.150956486140567780e-02
-4.797512643088416850e-02
-1.827710042889709938e-02
-6.494170537881405192e-02
-3.106203046066802892e-02
-5.105473165646250838e-02
-4.286723061178993738e-02
3.638682643247239615e-03
4.323395430089720798e-02
1.795740113109202396e-02
-2.650655091785287035e-02
-8.441242356982243955e-02
-8.392252164691026139e-02
-1.754256498099974332e-02
3.514298700866010962e-03
4.298743913615728912e-02
-3.429881088669840643e-03
-1.919260438283748593e-02
-3.697169361685029992e-02
-7.749734543552515287e-02
-7.827534492134120836e-02
-8.770123136225484173e-02
1.034642560712803194e-01
9.319061780834785036e-02
2.172864454534317522e-02
-8.378997868876388033e-02
1.006826526492675816e-01
-1.101268966983367514e-01
7.331002511948764289e-02
-6.204745186273322166e-02
-9.939203207509676730e-02
-3.717138643232544004e-02
-7.555390121714958274e-02
-3.393006637486128962e-02
-3.418846601075937325e-02
5.200058705764384025e-03
1.032383847778279955e-02
-2.628768400577757500e-02
-4.603632189478487624e-02
-9.577762368524393721e-02
-7.604146837916324342e-02
-3.741753663691652076e-02
-1.979633329862419671e-03
2.595519563977532335e-02
-4.594562581020911890e-03
1.254492966679099722e-02
4.687555999650059278e-03
2.057843426239744020e-02
5.202292854778203107e-02
3.928932877168317406e-02
1.372425035992209941e-01
6.456866422127539862e-02
9.897104058550452998e-02
9.145074958275434263e-02
1.585870954583991355e-02
-5.441402772120781939e-03
-1.220439601878944673e-02
-2.207362647148382664e-02
2.797528708451710311e-02
-3.817256244581784114e-02
-2.475173693445189421e-02
-5.929490894394788547e-02
-3.050897819972658159e-02
1.301293684212922845e-02
2.848559530143315172e-02
2.831049784216992105e-02
-4.416382323960813677e-02
-4.805856632044448740e-02
-7.993754386302959203e-02
-6.746140340232892330e-02
-1.385468993934130949e-02
2.914664706631309513e-02
3.296497240430934506e-02
3.186069430598152674e-02
-4.298556930101522094e-02
-2.344763192444899308e-02
-8.176593511041725659e-02
1.705730593023477033e-03
5.429343602162051141e-02
-2.797248103005763736e-02
4.671602380131623794e-02
-6.283149488744203814e-02
8.214691445410676751e-03
-5.127436657280702581e-02
-9.997805996888037283e-02
-7.367133602721434582e-02
-2.051785372042935068e-02
-3.612296679056690996e-02
-3.033942967530776566e-02
-1.522939186666988527e-02
1.899735630885985085e-02
7.046691594311452374e-03
4.974322113106303955e-02
4.897180606015364562e-02
3.746207935200222133e-02
-2.386659388932624304e-02
-5.256143695726993997e-02
-4.971085555912180959e-02
-2.649322111612975247e-02
2.759067707718158152e-02
6.500125493792972484e-03
3.642352438773790307e-02
-1.025409036695355998e-02
-1.586030616671007393e-02
7.112577459468720498e-02
-6.099359371315048878e-02
5.123559899604757800e-02
-2.138405673098687588e-04
4.493400848053075852e-02
-2.797230761189601830e-02
8.226807988482959244e-02
9.139453533851545075e-02
-2.954743685826569446e-02
-2.157432657314893587e-02
-1.477755978152565063e-02
-2.462969063100739486e-02
-1.166124537357667544e-02
1.797101991894834577e-02
9.675642597418484397e-03
4.644866463521574868e-02
7.161852372765376007e-02
7.268499858871513286e-02
3.857850084932095552e-02
1.568323671013638343e-02
-4.155120588332272824e-02
-3.426509216334387015e-02
1.069397967216152885e-02
-5.060530818949981330e-02
-3.786965630203568793e-03
3.638202506016812582e-02
-6.296301149576637168e-02
9.867908729872923446e-02
-7.700489239598716507e-02
1.802327255636684278e-01
6.230966601156959217e-02
6.673693033301539290e-02
-5.371428443574861010e-03
4.774245593178579050e-02
2.091742422542309902e-03
-4.240972194192837302e-02
-3.154244941834766225e-02
4.745848705812711482e-02
2.040552292876529270e-02
6.608629380161451516e-02
2.989699998220329835e-02
2.317213596326392344e-02
-5.405930336778002818e-03
-2.865389003625286573e-03
4.748043906779695483e-02
5.413963298685553482e-02
4.229968105188271904e-02
1.653158827324050992e-02
3.059265128086055552e-02
1.218667885473842701e-02
-3.354013806477173371e-02
-2.130910658659208173e-02
2.364132997320654225e-02
-1.324815036553540250e-02
-1.688451090987176662e-02
4.778904499915952175e-02
-6.337639020118086830e-02
1.481777831720654526e-01
-1.169033222158633173e-01
-1.205976540808142011e-01
4.142720400950491294e-02
-5.678248480851419769e-03
-8.445600510003327399e-02
1.051756252045795981e-01
-2.029371339322529749e-02
-6.613725601771575091e-02
-2.613991179933383008e-02
-5.193008498562309144e-02
1.052485790030702716e-02
-1.836905617825091569e-02
1.222716342023277749e-03
3.399805599584188737e-02
2.785292449076102322e-02
3.705452360431982922e-02
5.666125536337456026e-02
3.836164519549811053e-02
3.662791668384346444e-02
3.113273094089104645e-02
-1.522274358921897608e-02
-2.305821617227920076e-02
2.222496577156630668e-02
-5.111280289497281346e-03
2.791637803834292123e-02
3.032160558886014962e-02
2.932422775965681100e-02
-9.433903370510992106e-03
-4.200433548977146325e-02
1.103199125226634048e-01
-3.472092316355031294e-02
-5.378590265629348138e-02
3.195231687627921036e-02
1.046106396709503734e-02
4.411140682377415884e-02
-1.452143308264838839e-02
2.095844940612191440e-02
-8.237340182741897943e-02
5.680553133569243201e-04
-3.706885156001246684e-02
-6.411214076136512174e-03
5.416789992379863333e-02
7.881704888505902326e-03
1.315402054712681498e-02
-3.252367412593430013e-02
-3.630784041643571585e-03
-7.453058532717360060e-03
-4.762809590741852450e-02
-1.203760020019680084e-02
-1.043024731797650012e-01
-7.964687287083170586e-02
-4.441724068460080332e-02
4.239436966382655742e-02
-1.347318576661236111e-01
-1.145017303583132674e-02
-9.311156371076227678e-02
3.269074315268889752e-02
5.558045366950629951e-02
-1.114416208159721977e-01
-6.773133426077310171e-02
7.418810660761192277e-02
-2.086918041443219796e-02
-2.766317915401008895e-02
6.931366067677142973e-03
1.549584407325783246e-04
1.012668236949044037e-01
-1.383400152414248352e-01
-1.047106877492597621e-01
-3.690973135871244981e-02
-7.171823424611861730e-02
-1.664610860433967526e-02
-3.979202678563277529e-02
-1.916404143386389591e-02
-4.260392577642063694e-02
-2.051752386913638024e-02
-6.129362299333230429e-02
-6.727044959372982524e-02
-6.340835579380338372e-02
-1.889001867232277879e-02
-2.003994457591353265e-02
-8.626824063918849331e-03
-3.588972386111850127e-02
4.041894808761446745e-02
-8.882954408490997822e-02
7.318392182976028726e-02
-6.439699516675710667e-02
7.237281476755969001e-02
-8.890010133484474442e-02
-1.754410536788827621e-02
-3.880767572881268362e-02
1.139184264563203597e-01
8.546977750373359328e-02
-1.656846574185703025e-01
-1.412058710093486713e-01
-5.436177764541174490e-02
-2.478359904631595168e-01
-1.589882266381643372e-01
-1.087912187962625093e-01
-3.692386725718018597e-02
-5.379542107030359926e-02
-1.079270482485952809e-01
-7.535694228137826411e-02
-2.709454755591336195e-01
-1.282092161198759295e-01
-3.985217725627792085e-01
-1.344388813558404783e-01
-1.253480682413083691e-01
2.725812967257565736e-02
-6.504229784087063766e-03
-1.275280734914924774e-01
-1.302421274008622176e-01
-3.019888176402867747e-02
1.063504475577092684e-01
8.174201948051774969e-02
-7.066008397989449741e-02
-5.657406517975901300e-02
3.811375664299637700e-02
5.163709200395624754e-02
4.753985948203495043e-02
-8.242922151536002939e-02
-4.731257667531423017e-02
8.526187334730359058e-02
-6.847521714690692207e-02
1.995822027326944401e-02
-9.433928724387717624e-02
-5.528873177397085337e-02
-5.799799007817234980e-02
-9.873007640781214511e-02
1.122873417876483898e-01
-2.678727638817472029e-02
-1.024710200935983057e-01
9.994956792133961876e-02
8.765589078807171919e-02
-5.094521062893431207e-03
8.195488257553848466e-02
-8.061576859288950569e-02
-6.038950678372192148e-03
8.200334276368849429e-02
1.400499669481549900e-02
-2.820522764975122443e-02
-2.196419445458923370e-02
5.618543803687759547e-02
1.406142518971698584e-02
4.402981173328521930e-02
1.153931530386151233e-01
-7.450242350142086134e-02
5.965275370589192411e-02
-5.291746867673721016e-02
-1.095844657559347790e-01
5.833906253513303219e-02
-9.725363768591223368e-02
7.501857852490745326e-02
-6.110678384416404207e-02
-7.316922426836640347e-02
-6.061878939864132065e-02
-6.622186980775907061e-02
-4.431017055740753274e-02
-1.159006482217655731e-01
-9.026603897075905977e-03
-9.248125787868570480e-02
-1.069410038568696375e-01
3.253692500919287689e-03
3.546436462115567373e-02
9.708936184235515687e-02
-4.736041556671687081e-02
1.096304480192443753e-01
-9.832940498652577299e-02
6.906794664714650811e-02
4.566367774334202656e-02
9.968056766065062912e-02
2.615021338733609924e-02
-5.152504986571126294e-02
5.238650686104574100e-02
1.413969504226610975e-02
-9.253955673381183966e-02
1.528213126649535791e-02
6.161493302820154026e-03
-1.148957182908285635e-01
-6.155741104094699517e-02
-4.673415955709867703e-02
7.101603176132412210e-02
-1.724468088330493101e-02
-1.025322945625881527e-01
1.686682928154912761e-02
4.966382367757765648e-02
1.730727549893508119e-02
9.383502453809508537e-02
-6.339888154138630105e-02
1.512765389049646608e-02
2.584047097065278811e-02
1.962752252175869322e-02
-1.954917264278953348e-02
2.943518915825806340e-02
-1.654485091473519714e-02
-5.285788456048996081e-02
6.412243792156289979e-02
-7.216371273901089900e-02
1.425584867040742207e-02
-3.590054646791598653e-03
-6.023760658446248445e-02
3.866641270140017822e-02
1.213642418021708760e-02
6.289108549664654269e-02
1.160813734752617031e-02
5.045098136799012339e-02
2.160197173211015481e-02
9.991292059328996111e-02
-9.925488794925206582e-02
8.633072754774437363e-02
1.834088926462490790e-02
2.052915065664109168e-02
8.955603587328615778e-02
1.505132579538539031e-02
-5.159425660272156516e-02
6.172237566146921567e-03
-1.219044052846936059e-02
3.507027788389099204e-02
1.803757454065854984e-02
-3.106899380344169820e-02
-6.437252297268341097e-03
6.375073316191667838e-02
4.641270083030291094e-02
-3.857288620444877109e-02
5.003949867547020924e-02
-7.485700716362231333e-02
1.038916679337231197e-01
4.197061646942337049e-02
1.099887843764543738e-01
2.982450116224283007e-02
1.072917346678331219e-01
6.880812952194587974e-03
1.669413911092154992e-02
7.351498916772840342e-02
-5.112672969679904478e-02
9.144208069549357443e-02
-1.071324481805503853e-01
-7.379718940479776390e-02
8.849628653598340389e-02
-5.836826548422048566e-02
-1.217358349084024793e-01
-2.104578155348583654e-02
-1.171412160975462829e-01
-6.477804479371802870e-02
-1.086205970068794824e-01
1.277288085868687542e-02
4.488321131606713699e-02
2.568306322137579173e-02
-6.037002545406448123e-02
5.784448600315715561e-02
-1.165138893147081439e-01
-7.034077003800812133e-02
3.702031284652067267e-02
1.163348222818221499e-02
-8.577941055964591333e-02
-5.838450734705478290e-02
2.647818467711083971e-03
-4.901446463215844429e-02
1.974737728556763376e-03
8.101598359537910687e-02
3.681027117219688727e-02
1.088026367094382246e-01
-5.811495171761534712e-02
-9.042084425047709761e-02
-6.931597862197493021e-02
8.319048395552144926e-02
6.471260066437035940e-02
-1.376583574408970223e-01
-3.605187127676227898e-02
-7.633127386938605256e-03
-1.474432137656960518e-01
-1.307304123206258772e-01
-3.614023647706940401e-02
-1.100252848056035987e-01
3.345023719353103914e-02
5.423482859953182578e-02
-1.397239315539387794e-01
-8.753380487826413481e-02
-1.415539430855571046e-02
6.196807172094173644e-02
3.210816903894323643e-02
6.364441724527317157e-02
-1.145620053683540779e-01
6.265870550616017831e-02
-6.828686487030886931e-02
3.860729629510536998e-02
8.334631356259801505e-02
2.392727489241160826e-02
3.587179455518738069e-02
1.114455712008969590e-01
-5.542758264924950440e-02
9.860590750455776321e-02
-2.621965324024198157e-02
3.230881310742780843e-02
-1.329214084621135883e-01
7.708613932317281113e-03
-3.440079849508719673e-02
-1.474013368766296239e-01
-2.012253379325324720e-01
-2.161343021306367795e-01
-1.540114236265259784e-01
-1.865916121979776521e-01
-6.096761400286857674e-02
-1.439039941514698717e-01
-2.513252233600204652e-02
2.705102020627063453e-02
-1.182611970191085188e-02
1.953606719289309110e-02
-2.175695099852620329e-02
1.037748096519592877e-01
-9.664097020895995316e-02
-5.236566978263663269e-02
9.185347501824683847e-02
-1.080671075107977747e-01
9.107303650333564704e-02
1.589724410933620116e-02
8.486199404431148119e-02
6.544297903114054682e-02
-9.552604900268203691e-02
3.163594144371714018e-02
-5.821298874322425321e-02
-5.522253421902409420e-02
-2.081128604419491268e-01
-4.555208998696504141e-02
-3.109863709706648383e-01
-1.380465350006264136e-01
-1.395236646080033061e-01
-1.263748014693203414e-01
-1.119186728851753465e-01
-6.950266294384242760e-02
-4.505768886645152710e-02
-1.955250636639034936e-02
-1.550684997613062388e-01
-1.058798275980635251e-01
5.775709018891592682e-03
-6.261180783260544835e-02
3.582718658686984137e-02
-1.892319742814922018e-02
7.963903530815198695e-02
-8.302833171940415813e-02
-3.252168254825333477e-02
7.715410687906515408e-02
-1.979519136884618988e-02
-9.135604126779960088e-02
-4.329813583796605914e-02
-8.174107978723312018e-02
5.777012557122845199e-02
-1.526269545149098184e-01
-9.491857951951081229e-02
-1.898174609813610691e-01
-2.131163424046141897e-01
-1.619448741608698616e-01
-3.337236977812743643e-01
-2.649345720250859126e-01
-1.989394058958892930e-01
-2.452796320778903305e-01
-1.109752771753395317e-01
-2.336246228780563261e-01
-2.823122611648947247e-02
-1.288527381769326019e-01
-1.019691648513073971e-02
3.381456979397002433e-02
-6.003705294185112534e-02
-2.962475456777254046e-02
9.791620095475507546e-02
-8.745827553723886649e-02
-1.582894417158711362e-02
6.364565967738361474e-02
2.412259343601364306e-02
-5.280551577082075176e-02
-2.802551833956628408e-02
-1.490232453030654672e-02
9.522497567671026064e-03
1.944133276675101552e-02
-6.458472807778205260e-02
1.827433673161792116e-02
-2.952327534947211951e-02
-5.143653710760345832e-02
-1.031876141309092526e-01
-2.996514592746167827e-01
-2.183168899182223732e-01
-4.437325297290601461e-02
-6.301543021381544700e-03
-1.467485058633731347e-02
1.187772421606715818e-02
-1.932556795898544011e-01
-1.906934592497171455e-01
-1.639604180898901753e-01
-1.410720284976716421e-01
8.937373521282222788e-02
1.268081471469841293e-01
2.514883413488734273e-02
-4.034101493209017730e-02
3.313058724425201051e-02
-4.365656511808600065e-02
-2.855392919406549157e-02
9.337993861001858686e-02
-4.488203279388223305e-02
7.250969678988321288e-02
9.103703048641381690e-02
1.136955020219143457e-02
-9.327996163744359248e-02
2.567973316723073246e-02
-1.062952496165374267e-01
-1.977600502535493410e-01
-1.484185322120590289e-01
-3.020174131087310920e-01
-1.961011110192836804e-01
-2.340331530417667227e-01
-1.736446859320062153e-01
3.483802728744619243e-02
-9.228456673810761512e-02
3.765767403958135418e-02
3.005802450972009515e-02
-1.768530048070978897e-02
-5.703919227628286015e-02
2.622988907543343309e-02
7.125454361797556313e-02
8.635715021621333254e-02
9.178141944634948812e-02
-6.424570171480585568e-02
-9.035549025395044065e-02
-5.943157111365082734e-02
2.210671760235019892e-02
9.522793304471752207e-02
7.100979958726143237e-02
9.258696888642700511e-05
-1.115276716819462166e-01
-1.051367462381192774e-01
-8.195822724899870515e-02
-6.965044606357749524e-02
2.685440474651372769e-02
-2.091127814710857236e-01
-1.613698740358076589e-01
-2.440327432081887959e-01
-2.591569086229817964e-01
-1.452912101500471453e-01
-6.739153254250505876e-02
1.205895418016149079e-01
-4.277447078411696080e-02
-2.588746478964350575e-02
-1.771030675198098647e-01
-8.571597983877632387e-02
-1.578030012108126712e-01
-5.031256004351675193e-02
-1.283708317395751142e-01
1.798068758726499810e-04
1.350570219660182647e-01
-5.431677806410802056e-02
1.317389138072992127e-01
9.665642531037234308e-02
-4.254262029051571886e-02
1.121272441226035810e-01
-6.425262840869269687e-02
1.052690413168871492e-01
-5.963675614569530561e-03
8.093303576697959134e-02
-1.235783261290524793e-01
-5.802405447657169729e-02
-6.690086813921214751e-03
-1.420098085524145459e-01
-1.398365736735115716e-01
-1.890635221335748573e-01
-9.442206685170231178e-03
-5.498826252841852551e-03
3.000345746160556354e-02
-1.022124026903405009e-01
-6.995375959893905538e-02
-6.541006701792692613e-02
-1.082937228118339978e-01
-1.462164901834294151e-01
-2.181988304925987499e-01
1.809615648448199138e-02
-3.607120611427122158e-03
5.683712434270054431e-02
3.344372731216109507e-02
4.129880988645740630e-02
-5.419404293319809995e-02
-2.450935317253057771e-02
-7.913448993488718386e-02
1.041404485141146224e-01
-6.308671686862453443e-02
9.435845486490461453e-02
-9.475067309620563427e-02
-9.788147999272731048e-02
3.208533465751022690e-02
-1.186181948013032700e-01
-6.368764291676272393e-02
-5.530261194613687176e-02
-1.370920835313827191e-01
-2.180129766769922373e-01
-1.366305100766360969e-01
-6.815602064849420050e-02
1.943141320551448198e-02
-1.572509356342524645e-01
-3.639493617015189530e-02
-2.255010027665678429e-01
-2.333706367223093436e-01
-1.297441188119741462e-01
-6.890285088359515697e-02
-1.317611482491513053e-01
1.580854432772890381e-02
-1.131112715977669186e-01
-4.445941246278893588e-02
-6.322294583773357957e-02
1.044456867710316927e-01
9.025139507534442329e-02
-8.793362213545067793e-03
-1.124578661165435700e-01
5.936145131482974818e-02
-5.223957921553182282e-02
2.770721339404263236e-03
-1.104988808805406654e-02
-1.845119192615712195e-02
-7.107795862812292531e-02
-7.119130250281360817e-02
-9.414443810628853049e-02
-1.542435221018936264e-01
-8.990364117345307771e-02
2.653427231649796089e-02
-1.025558710896451592e-01
-7.086631645460080009e-02
-2.613734136696488908e-01
-1.490512507781440177e-01
-1.253589703818548395e-01
-3.410172895222844391e-01
-2.812797516910017781e-01
-6.649190659597856157e-02
-2.009504929370864723e-01
-2.952775282098466306e-02
-6.101620528184580061e-02
3.211025421948549702e-02
-5.225512944246221703e-02
5.519034218362089961e-02
9.667482635528204526e-02
5.024435461682227877e-02
-9.868736066328523751e-03
-4.175154197228748282e-02
-2.787361428017488818e-02
3.806338276685292121e-02
2.864355356230748398e-02
3.469819880683547211e-03
-6.175425806009911950e-02
5.123947197707017648e-02
-1.130238654083392663e-01
-1.900954545269669116e-01
-3.830894499280419058e-02
-1.292390349128718086e-01
-5.173716815830127491e-02
-4.729724404640313351e-02
-2.200426125427208945e-01
-1.767919373122182058e-01
-1.578405915466445097e-01
-1.957784422506117783e-01
-2.127981722897370198e-01
-1.607997938547054972e-01
-1.108309093688652908e-01
3.234389277979312499e-02
3.982073480246221125e-02
-7.869709358705916091e-02
-1.008094224560241725e-01
-1.073146954938033470e-01
5.375392407661631552e-03
-1.085264320032744145e-01
-2.866644230614039113e-02
-3.694428074108616761e-02
-2.942039317537731638e-02
-5.659172512714879394e-02
1.099514164314618764e-01
4.202426609451041795e-02
-5.799947307883518421e-02
-7.090158900160575817e-02
-1.248503523593018916e-01
-2.237981536001250882e-01
-8.792788605253162859e-02
-2.231530324662675813e-01
-5.919595213533750122e-02
-1.175251175850969831e-01
-4.522004035156555746e-02
-2.071609521526336928e-01
-3.006201574504788754e-01
-1.288454018961066594e-01
-1.494943529791239456e-01
-1.991765395410742545e-01
-2.547059590068577808e-02
4.410750320613381764e-02
-6.088304130091697769e-02
-1.047730650655725182e-01
-2.025443479292205265e-02
-9.044132663768185421e-02
-5.057198121322927994e-03
3.035991285477731422e-02
-4.980090138819227158e-02
9.703992200946218172e-02
4.759368477310325224e-02
1.292211326796871736e-02
-8.313970823088707995e-02
-5.924088623639276602e-02
1.037741433280235659e-01
2.079285994907683829e-02
-1.638475067304438759e-01
-3.026981483654649779e-02
-3.369696914184956010e-02
-4.041312730254191521e-02
-1.398448235214154733e-01
-1.112741573186354777e-01
2.417643025584057578e-03
-1.092291911953919004e-01
-1.153814134389502255e-01
-2.253708738803658074e-01
-2.605792211512211187e-01
-1.651937897496599805e-01
-1.174428439683801173e-01
-1.109087600164640891e-01
2.559259356814726910e-02
-4.590976574066061439e-02
6.692424772560208457e-02
8.662118340382880810e-02
8.417760273118694847e-02
5.674199526639250174e-02
5.620235821665756082e-02
6.751507134216684636e-02
-1.568912587486782570e-02
8.676186356277244827e-02
-5.873858990420527393e-02
7.552497484601398969e-02
-1.898248713894542042e-02
-8.323244831699301918e-03
-1.391519898834784885e-01
1.697931912090525769e-02
-1.352359336234650045e-01
-1.736828349108557323e-01
-1.105968454395163392e-02
2.767019972629206244e-03
-3.135783061797820653e-02
-1.874337233062650376e-01
-2.467386523673247289e-01
-2.813210596442107803e-01
-1.583302607867737022e-01
-1.690215317547561630e-02
-1.799736899573379234e-01
2.809015372579175621e-02
-1.102696406614060293e-01
9.017879162738089149e-02
-4.344876529886924216e-02
1.248871872566104102e-02
7.683101076530435281e-02
1.286262079108235583e-02
7.001624136199093018e-02
8.405503954648178844e-02
7.333897904914017662e-02
4.252975196536407099e-02
-2.417580064975265956e-04
-2.854398975469443420e-02
-2.542998786909937692e-02
1.140773354755532237e-01
2.110639104327383803e-02
-1.605856229674983982e-01
-7.358564763737726611e-02
-5.625007588306234207e-02
1.259739015625290642e-02
-4.413771534354238302e-02
-7.711015714841262803e-02
-1.733209876765171853e-01
-2.914948583456702935e-01
-2.676550142032302904e-01
-1.864564994481969495e-01
-8.094430679343697643e-02
-1.471825885677857659e-01
2.119345903796266556e-02
8.327854254815174329e-02
4.285848730882337726e-02
-6.645016073117052113e-02
-3.030642398864612230e-02
-7.224239607811716590e-02
9.168283895114558157e-02
9.371132202335991090e-02
2.226884346095342471e-02
-6.683626506592478533e-02
9.669956732854723125e-02
-5.906192734397674310e-02
5.625517903211649587e-03
-3.897260377394027447e-02
7.115948430021269699e-02
1.247623892749944036e-01
-2.712566003765175260e-02
-3.885918067526632907e-02
-7.046139936925323310e-02
-1.946214114723322786e-01
-1.653426672429263999e-01
-8.356909536067946842e-02
-3.053679195234774157e-01
-8.826182423718290093e-02
-1.797064719623796269e-01
-1.192263017855244994e-01
-1.465493953660636055e-02
-1.547467616236612165e-01
4.918880198011754690e-02
7.141250213088340404e-02
-1.127194432386743189e-02
-6.180244687355446881e-02
-1.110628125137403249e-01
1.543884695231137613e-04
3.700500873474642932e-02
-8.402320660738137048e-02
4.813557802254820293e-03
-3.979289159727791847e-02
-1.124426242564400547e-01
-3.070928280280433957e-03
9.980699546917018439e-02
8.086324159285901078e-03
-1.004562572701388073e-01
2.250796172488298691e-02
-6.666872458341835395e-02
-1.374185275574219267e-01
-3.860761736470660899e-02
-1.195638359286608082e-01
-2.113436340467071128e-01
-2.346604701907798185e-01
-2.142427746503680619e-01
-1.632362992351309161e-01
-1.887186002932953466e-01
-1.838889961558151653e-01
-1.696800689103813153e-01
2.444706130320838111e-02
-1.041889507330649202e-02
-1.064425416225407983e-01
-5.839420832161237168e-02
4.237682702186819361e-02
-4.327240766071063088e-02
-1.575419258972525841e-02
-9.295390838335274020e-02
6.658286596301760119e-02
-8.276334085723645317e-02
4.708257230657398457e-02
-8.328091949538152239e-02
-5.279576530349308627e-02
-1.023930268238809338e-01
1.863704945656443832e-02
-1.068640753498943663e-01
-1.962525241646281837e-02
-2.885959179273813249e-02
-8.127004399442834537e-02
-8.957535426877470675e-02
-1.267979514082949732e-01
-2.444177306686939610e-01
-2.094379689689313540e-01
-1.035584414538693598e-01
-2.640193710014416065e-02
-1.164870953516160546e-01
-1.718171657379650996e-01
-8.367325458625694823e-02
-3.787785890147636614e-02
-3.001897811661781781e-02
-5.126774530887380672e-03
-5.840270747360425813e-02
-5.660573915818734730e-02
7.715479453413526256e-02
-2.873901052654198162e-03
1.149416381100095280e-01
-6.261512658357848427e-02
-8.482911972832492264e-02
-9.602195722521042476e-02
-1.359202720775973088e-02
4.637085618237605372e-02
-1.123890418492214972e-02
8.575955375295404859e-02
-8.436872928174686537e-02
-8.386122700413688180e-02
-2.705697734518342640e-02
-8.291702219984734001e-02
-1.808817140182532590e-01
-2.066267586051388494e-01
-4.050035764177864483e-02
-9.316146091841000232e-02
-1.784190148248264440e-01
-3.706265333814136309e-02
-1.435151145196680023e-01
5.787831181976307859e-02
7.943853321085019015e-02
-1.235698675716083439e-01
-3.263482166892050802e-03
-3.549580627119728465e-02
-2.048937623703252914e-02
-9.648822279458778295e-02
-1.353634433804144083e-02
-7.222888901869740919e-02
-7.520618566434555952e-02
-7.242850004023233812e-02
-4.330416190059051956e-02
2.331627301261278082e-02
-1.064020987108420108e-01
-6.843306605319410263e-02
-1.814757991269418114e-02
5.349899087340308224e-02
-1.077300258134099020e-01
4.299966534638600263e-02
-8.261584330409935117e-02
-1.626504901034646344e-01
-9.897313953161480937e-02
-1.233348748419828833e-01
-7.590612508635699585e-02
-2.625467588259458324e-03
-1.528616423247276535e-01
-7.942100663958254203e-02
-6.215797774031989881e-02
-4.535528640444671383e-02
1.706384380826002920e-03
7.196900294694101585e-02
-9.450790835590747174e-02
1.013787047366564026e-01
-3.365817648512112181e-03
-2.015253066704842527e-02
5.411556033099550189e-02
-1.148981367841881707e-01
7.707414188876213212e-02
1.261180175959869532e-02
8.232165272608946149e-02
-4.942332905515656183e-02
8.838514308750813897e-02
3.829795584257117413e-02
-4.245449769066307610e-02
4.521571776327991399e-02
3.946096346628604618e-02
-8.455543505703861859e-03
-1.309621014886568069e-01
6.008550029643669466e-02
-1.262314509347872149e-01
-6.452718531116155565e-02
4.505273254758110357e-02
-1.427139131079763479e-01
2.757984886129180233e-02
-6.276171458506973888e-02
-9.370044151386884568e-02
5.451338741635326085e-02
1.703771350181858529e-03
-9.852062392315234785e-02
8.860607587342886338e-02
-3.849465656840012767e-02
9.817174247025946265e-02
2.458478161095431144e-02
2.524082922247397782e-03
7.426113529430772298e-02
-1.145175800723921972e-01
7.317268774826735100e-02
-5.691552636826998149e-03
1.006758928510275153e-01
-7.738755634167991670e-02
-1.955576220744244600e-02
2.216265789460301547e-02
1.079997006996795128e-01
1.124604757461532406e-01
-4.489925714425757608e-02
-7.556508923508332976e-02
-5.000360771581769531e-03
-6.901938851506303485e-02
-1.164995448008065843e-01
-1.082224765708005576e-01
-8.401122475125034905e-02
2.286209225914627788e-02
4.193703965242071008e-02
-7.358765726739735502e-02
3.347916598654054887e-02
-6.049567300880562271e-02
-5.017586585243845321e-02
-5.908678376482105754e-02
-5.147057669483660891e-02
-6.749792456045239364e-02
3.159329759148879480e-02
-5.749656928736546907e-02
-1.608285734639011005e-02
-3.326586033447536533e-02
-3.866114454205223788e-02
-5.239993970264866102e-02
-5.690077005573006969e-02
-9.849952312143199495e-02
4.774135417227963474e-02
-4.753736199261205525e-02
-1.081557972202469575e-01
-2.165636591722988960e-02
8.609890839772760263e-03
-3.051211708163497488e-02
1.098408432452646979e-02
6.002636442871668587e-02
-6.562681213057376325e-03
4.080473038391248947e-02
4.831583841768238852e-02
1.141179834989539399e-01
-2.436044944898699618e-02
9.718054056415101338e-02
1.311862105255320703e-02
5.049075650097600149e-02
-1.087038276077911952e-01
3.564117928208351826e-02
6.066728635407539483e-02
-4.166724941703179447e-02
-5.032398842071163225e-02
5.572717588739322520e-02
-8.121686425505299234e-02
9.584816744952355527e-02
-4.005232998720865273e-02
-1.108884957459262410e-01
4.508233040353305104e-02
-4.410413850096912836e-02
8.411287087715844935e-02
-6.599342997969583069e-02
8.875601353462282683e-02
-6.165627661957735718e-04
-1.040249704795710543e-02
-9.654364692954078842e-02
-8.824882605105657460e-03
-7.537371501189591740e-03
-9.494174196000608468e-02
1.515074408021122900e-02
-1.898903720329089481e-02
-8.590669270971323934e-02
8.356258286646503497e-02
-4.313576314518798721e-02
8.982116187416175346e-02
-2.593270835106285810e-02
1.112479239968767464e-01
1.060307777317447686e-01
5.840720199229580516e-03
-8.003649145426061651e-02
-7.241181217344253018e-02
5.415230438047440725e-02
4.875259776771505293e-02
-9.710819500945805371e-02
2.647713745161866129e-03
-7.972074211950669342e-02
7.635210448555852791e-02
9.907078532171806340e-02
3.389302764884997293e-02
-8.230336033091782688e-02
8.375242154232979963e-02
9.782479424487232345e-02
3.235327335682928324e-02
1.052894879862867616e-01
-5.527360094812641678e-02
1.128136067162317652e-01
9.030466398669154127e-02
-5.055777333227358394e-02
-2.591002821965257899e-02
-5.683151287180118749e-02
-1.042245283144145468e-01
-1.025747631863842269e-01
6.247923549854683678e-02
-3.967857660917541163e-02
-3.467575002362313641e-02
-4.196517845369479582e-02
-7.919000269711702622e-02
6.260477487271261243e-02
9.736210168369942297e-02
5.628783715988508463e-02
5.251440704013340260e-04
-1.083838319020547086e-01
-7.069513709418255576e-02
-1.037090396317699552e-02
-1.070405877548256113e-01
-1.074416762426740474e-01
-9.583253886932566190e-02
1.014888933094329204e-01
-1.055137965617063411e-01
9.738717900182053411e-02
-2.256392643626561195e-02
2.745299095486057606e-02
-9.495535666906669559e-02
3.438730100574931975e-02
-8.631898219907940817e-02
-7.671703493274537045e-02
1.057109422583816030e-02
9.259403146600873186e-03
9.194077981038710490e-02
2.909709397452472229e-02
-1.960237689608932549e-02
6.527334648279622953e-02
-7.984169652826239583e-02
-6.921021407965662064e-02
-7.349331124992188220e-03
8.906568739205898699e-02
-6.488976543233097860e-02
-1.105684778445902156e-01
1.220035832180842335e-02
1.971741999288032648e-02
-7.091758081600295360e-02
-6.627301989645913161e-02
8.468459957763978252e-02
8.085313121565892991e-02
-4.174272506945182065e-02
1.073412813728900905e-02
-1.097810674009714188e-01
1.129883361472224235e-01
-5.071918413795866581e-02
-6.895192726675417050e-02
-2.393809656553916310e-02
4.691565912958142216e-03
-1.124767170043621534e-01
5.560357966945272956e-02
-7.400276905090881485e-02
1.705683402406974261e-02
6.592487075452087286e-02
5.521064421001142808e-02
-1.035059568965433774e-01
8.509501470054017802e-02
6.848320423945949975e-02
3.529138566951767891e-02
-4.844829189512436102e-02
9.069133828036335387e-02
4.417686379578241590e-02
8.312656213669517014e-02
2.669700016812805859e-02
-1.110838904469383798e-01
-3.700736863329371490e-02
-1.020995382965173420e-01
-8.972148709570709757e-02
-1.133169960746737009e-01
-1.795900737368405151e-02
-6.708437380329559940e-02
-7.190990024938771763e-02
-1.037965913215589328e-02
-2.758190644927197357e-03
4.620380835971724109e-02
7.952594012256858358e-02
-2.838707194677540790e-02
-2.046620523018934101e-02
-1.014129708782878919e-01
7.027873252559369011e-02
-5.844006959552090763e-02
-4.084043563845419014e-03
-1.573932497504355529e-02
-1.310373386855148052e-03
-1.506296662408722897e-01
-6.319690498412747909e-03
6.553515112178956437e-02
-5.483587801567114950e-02
1.054253212327038586e-01
-7.312219325069907461e-02
6.811223235420932332e-02
8.859797762236260033e-02
-2.206326394548623754e-02
-2.070453923149412692e-02
-4.639620815596876002e-02
-5.039738892751405297e-02
-1.779432616392921662e-02
3.930470134256673631e-02
2.230125154981200258e-02
-1.033624323867025629e-01
-2.479942257441225192e-02
5.035188419242364599e-02
1.473049423772642905e-02
-9.876272154369143685e-02
-2.307026111824387465e-02
-4.138221368387589444e-02
-1.963273550547474378e-01
-7.877053037002774982e-02
-1.553975165621984955e-01
-1.456056684218899056e-01
-1.244504004595601843e-01
-4.843819147850765561e-02
-1.007411233902905795e-01
1.176401865871487540e-02
-1.225044497592724518e-01
4.279549305751356031e-02
5.416797162603109728e-02
4.530394327924206627e-02
-3.168214704186188280e-02
-7.973376221337512282e-02
2.190606436109440378e-02
4.026247267142817748e-02
2.347465072296640518e-02
-6.001491438775252533e-03
-8.471927703703453771e-02
9.313543994376052848e-02
2.424733285840728961e-02
-8.104184013855264546e-02
-7.988263943949999724e-02
-7.740619358792759364e-02
-6.894633505116186389e-02
-8.221965650016738181e-02
-1.529421929188778395e-01
-1.149119468771028080e-01
-1.812490789451037809e-01
-1.178422215856079341e-01
-2.389861824971483972e-01
-2.490572930865835033e-01
-1.254240139804447540e-01
-1.128812261655243593e-01
-1.148168902603433489e-01
7.286079242041638461e-03
-3.327617904833516521e-02
4.265566544755634848e-02
9.425085274204773184e-03
3.982349413314962422e-02
-6.955544952674626302e-02
-6.049279525173264366e-02
6.215974692532984930e-02
5.445860274891178160e-02
-8.646190483751438338e-02
-1.721987700731451854e-02
3.357697866126985176e-02
-9.691029278399372615e-02
-4.767972738394366666e-02
-2.958575713125541698e-02
-2.718624371188214581e-02
2.070358807905472651e-02
4.142827548924034320e-02
-3.028218458391229717e-02
-1.619996467030349607e-01
-3.279934797659638801e-01
-2.209389398065538801e-01
-2.688014682869850902e-01
-2.769092852234172897e-01
-2.630828612448566362e-01
-1.381760798378006416e-01
-1.305677064822679811e-01
-1.089611971115760497e-01
-1.766709462738620118e-01
2.191713643044045437e-02
-4.870270520223356908e-02
3.792590096038091912e-02
-1.326378899263840616e-01
1.716452545615194947e-02
-3.943309775177134165e-03
-1.058123028717014719e-01
3.386157400181685762e-02
4.563659705819590739e-02
-3.568620658910506838e-02
1.210767602547853155e-03
-7.444554698938093094e-03
4.061994099294593402e-02
-5.815569224606667587e-02
2.767437866293973384e-02
-5.153841550452609166e-02
-9.497588808000717586e-02
-2.200735341006448686e-01
-2.008422364842910035e-01
-2.203373258864147199e-01
-2.859930605458559927e-01
-2.766689694512325937e-01
-2.912797082435091833e-01
-1.513695645322340466e-01
-2.591609677477393903e-01
-1.887163842968584415e-01
-1.164332794565283991e-01
-1.211646528612478763e-01
-6.987677148419582651e-02
-1.682487632184049287e-01
-4.297550206935311923e-02
-6.204930763371225427e-02
1.023874833872261136e-01
1.095242719441119894e-01
-4.929546463165142278e-02
1.016561106250065682e-01
4.933932412739638895e-02
6.098881301281208756e-02
-6.822514281160670102e-02
3.444478089838828860e-02
4.963888673353046566e-02
-8.410553881594912129e-02
-9.725994679471766657e-02
-1.036857228954839588e-01
-2.147999344462016014e-01
-1.360603534926366209e-01
-1.766259537171661897e-01
-1.995556939637193605e-01
-1.672617171947635983e-01
-1.490184828389185534e-01
-2.278304787499239592e-01
-1.110877499385908851e-01
-1.215990844625076117e-01
-1.229420338838159710e-01
-1.454323526797184074e-01
-2.128724910826365335e-01
-1.137483858788410074e-01
1.163932547312137959e-02
-1.392143540824043735e-01
-6.074496723025378520e-02
-9.989972702852099873e-02
1.115303724754905246e-01
-3.058829480000656298e-02
-9.519736487581839657e-02
6.586429254870608541e-02
1.153852055969001311e-01
-8.801504660744313702e-02
-8.802328366451683817e-02
-1.840496775478630762e-02
2.888234566028488950e-02
-9.527477071740911296e-02
9.108462252327101383e-03
-1.468940092339367232e-01
-1.446222944704884661e-01
-3.204061041550874123e-01
-2.944902288593366224e-01
-1.235887725437209567e-01
-1.404643551070043073e-01
-1.472838498925808648e-01
-1.321773897817344334e-01
1.522285079456111570e-03
-8.050133536529802125e-02
-2.372539431186239389e-01
-4.012450753813766313e-02
3.259713211677602029e-02
1.193196143253435690e-02
6.242084814339471377e-02
-9.210363930552556422e-02
9.944502303042332403e-02
9.780174740519913257e-02
9.431317151253612585e-02
6.936869948404875141e-02
-1.265805305876056483e-02
-5.993583038368348326e-02
8.324549026374214455e-02
-4.975662113666566577e-02
6.456368328432222914e-02
5.948830828787514402e-02
8.495555891491014811e-02
3.770291594280641978e-02
-8.767109660831733098e-02
-2.683424893399580791e-01
-2.435433521080951902e-01
-1.869923343055577558e-01
-1.182468836234964876e-01
-1.184513391419409964e-02
-1.021977790591089424e-01
-5.085330954321495844e-02
-1.095917806969261971e-01
-1.595305884614711123e-01
-1.477375551963210076e-02
-4.153462654467561521e-02
-2.485183509072483310e-02
1.015243513049980117e-01
7.435065720087129931e-03
3.980943559799923065e-02
4.928959599749554998e-02
-3.884993812164643477e-03
4.036892067076879725e-02
-2.868766782453541914e-02
-3.025687367437034439e-02
2.291379064649301522e-02
-3.694052713737459859e-02
3.442920746448425301e-02
9.465498479212333671e-02
4.799685581569723691e-02
7.193614812632562194e-02
3.930131269235271479e-02
-7.727640382703390709e-02
-9.225725321004379920e-02
-2.897185628988975248e-01
-5.390323548187127972e-02
-1.515234643608731335e-01
-1.898679853891699007e-02
-1.165999229985742319e-01
-7.990387367603116187e-02
-2.193561056439833346e-01
-2.345487823868143418e-01
-3.806173246887897127e-02
-1.587383575842035155e-01
4.128906877760148142e-02
-3.789177156315493879e-03
-3.527190641925028597e-02
4.574270085734714192e-02
9.181242777206186090e-02
9.484866660690328966e-02
9.664389298708205012e-02
8.514921245379450387e-02
7.904701927609310286e-02
1.662834252059252824e-02
6.080548706986517449e-02
6.893709868244793371e-02
3.854260149413561709e-02
1.184163531836302310e-02
-1.297632895372030637e-01
-5.563956317179485911e-02
-6.398514723459905462e-02
-1.834701089743160651e-01
-2.826144040323935180e-01
-6.556486443912938611e-02
-1.165478340435597560e-01
-2.254634458519685636e-01
-1.029610875386864216e-01
-2.735809627804830502e-01
-2.630828692207378694e-01
-2.426296399848802687e-01
-4.465780072199416334e-02
-1.132131725890376667e-01
3.101841566960304372e-03
-4.484494157078258714e-02
2.262559822132067383e-02
1.270456173516876751e-02
4.871994793570275095e-02
9.816446429440892074e-02
6.145270684306951281e-02
5.513221946099364223e-02
3.211977368506457181e-02
-2.344780659437514791e-02
4.647479940680401996e-03
5.301791732949256986e-03
7.548530349070908807e-02
1.205077596902799780e-01
6.379700981610706215e-03
-1.478150179957410382e-01
-2.092288775364278264e-01
-2.217803695556374299e-01
-1.753641331156847449e-01
-9.553953328378686494e-02
-1.564035035822557151e-01
-3.469722615198545523e-01
-2.029262042709465697e-01
-2.562809684777888619e-01
-2.810096646395148778e-01
-1.537062515768444770e-01
-1.070078831092760724e-01
-2.757120523217904476e-02
-1.291329607630124950e-03
-7.136777326803075971e-02
-2.785483942909851816e-03
-9.908920149076101691e-02
-8.285342065238326253e-03
-3.112855964896230065e-02
-3.839839288701919762e-02
-8.910094076529084806e-02
4.863203346765801460e-02
-8.827313394204025498e-02
2.432184201868579920e-02
-1.076163914588780801e-01
-6.922506323285448904e-02
-1.728342795096244819e-02
-6.745217595921530751e-02
1.202960596544730074e-02
-1.798826008592414039e-01
-9.815077147381172373e-02
-6.696643741602707756e-02
-2.345310224187825698e-01
-2.685440983014303340e-01
-2.847853271660742425e-01
-3.689874785323359330e-01
-2.467795054611989225e-01
-2.347298308286347723e-01
-1.150931457341808906e-01
-1.538239428340489046e-01
-9.859621642410955344e-02
3.899398149133551789e-02
-6.194712757267890890e-02
3.326575196996441053e-02
6.171886195937820174e-02
-6.762713086470442669e-02
-6.015463013891455407e-02
8.447417563528604456e-02
-7.129425004652954756e-02
1.360201137188850676e-02
-5.730558677313312387e-03
-2.291224947897089331e-02
7.704192289819326855e-02
-2.628377853927765795e-02
-1.779342390173994579e-02
5.692042464595262891e-02
4.777212216312797660e-02
-1.747852917074908252e-01
-2.303158066818381533e-01
-1.067060181466719243e-01
-1.485412019032860409e-01
-2.906902464336872383e-01
-1.846114283780694032e-01
-3.679454944497820290e-01
-1.549822833167526226e-01
-2.485267791381184366e-01
-1.993634709813291161e-01
-3.211939211325983649e-03
-3.320582159374987213e-02
9.943200585611921064e-03
8.496799927606632497e-02
5.964699117062281092e-02
6.765319884748705048e-02
-8.421476330035512770e-02
5.656915761581699648e-02
9.609011466547469349e-02
4.065359085938362316e-02
-9.615027603546300039e-02
-5.114462096252332668e-02
-1.027693965802986970e-01
-5.438712161415441837e-02
-3.473173578861719901e-02
6.933320040505568105e-02
1.731897207854684803e-02
-4.043155446090401783e-02
-1.380101287659301901e-01
-1.308398926831647879e-01
-1.032696078514798721e-01
-1.077409714929909584e-01
-8.498814801697095189e-02
-1.381376997877552526e-01
-1.800069202052203277e-01
-1.785922784141904252e-01
-2.424324060604851339e-01
-1.250058156324158724e-02
-1.651388782417269052e-01
-1.213858087032645833e-01
3.583131449353079562e-02
-3.882347418979525955e-02
-1.175157896863237017e-01
8.148409010992908874e-02
-3.678353884614425640e-02
7.557200552636912649e-02
9.203761303146491823e-02
-6.198968518113134180e-02
5.181182150329136094e-02
-2.451210238128641652e-02
5.967058656445695802e-02
-5.620139920194781175e-02
5.932873987497989596e-03
1.015005644945980584e-01
5.097829944159509158e-02
-1.753879893986022842e-01
-1.959189257541124607e-01
-4.620696998706540909e-02
-1.529634371419864025e-01
-2.184487633441290488e-01
-2.570581405624591809e-01
-2.189458267598216323e-01
-1.685755251617070682e-01
-3.376832895424445868e-01
-2.838578550217168983e-01
-1.462036617228609225e-01
-9.216089522672650178e-03
-5.584622581546371672e-02
4.875896519364125020e-02
-3.397461650358056529e-02
8.583366787066867842e-02
7.107777778738560981e-02
-9.551166056828947620e-03
-2.828605987140272310e-02
-3.920263958149622363e-02
1.569954291635568266e-02
-7.825147800695955724e-02
6.182233158489387759e-02
3.167802963318439718e-02
1.731206487069126415e-02
6.834178446236992277e-02
-9.514562867207501662e-02
-1.160175984350060585e-01
-1.212202547844128397e-01
-1.757842846898061140e-01
-2.151985011406834514e-01
-2.214651730642705485e-01
-2.196131285772621455e-01
-1.961170222968663945e-01
-2.927661923530416321e-01
-1.808890988397070243e-01
-2.522825406175641660e-01
-8.503659776604569065e-02
-9.267907994895530077e-02
-1.452493195648809354e-01
-1.560572048596652051e-02
-5.142393835996033474e-02
1.055224524873837333e-01
-5.901208125909089552e-02
4.305185170380666088e-02
-6.539139722476602912e-02
-1.421256991918675751e-02
-9.236502827148216840e-03
8.389316635447884030e-02
-4.010454712081678447e-03
6.544329022452179123e-02
7.483588561240953063e-02
-2.381669151864098180e-02
7.638318425884077500e-02
-1.408155608058394570e-01
-5.794176486567186729e-02
2.024194324502428741e-02
-1.437004266565235222e-02
-2.026461114117889539e-01
-1.099508510997683070e-01
-2.561042341365032393e-01
-2.432134020985746437e-01
-2.512827139720215652e-01
-3.416216191108347733e-01
-3.017461136531880972e-01
-1.409061949077886344e-01
2.217350562803887051e-02
3.888617223712763360e-02
-1.125399821266745842e-01
-6.031097478412664886e-02
-6.391747642132057650e-02
3.141125988794670962e-03
-6.082124390775370260e-02
8.428185481523897682e-02
-7.258029812779839829e-02
1.073180037598206113e-02
-7.835074850110958222e-02
1.178469694656596048e-03
1.432320173861758618e-02
-2.436490139151855500e-02
-1.120873528451299048e-02
-4.910309251977187234e-02
5.095012891050541143e-02
-5.094055526457041960e-02
-1.441226001073972127e-02
-1.747393171606897999e-01
-8.193961983099004587e-02
-2.521748640718713963e-01
-1.749426971480336768e-01
-3.727642712950514636e-01
-3.412797149568683186e-01
-3.313085750948029928e-01
-2.009432751790974636e-01
-3.725909391711919750e-03
-7.695416187407652653e-02
6.337036216787463039e-02
-1.100220664864886289e-01
3.313247101773873077e-02
-8.251283771224618424e-02
-2.445749785692783243e-02
-3.454688405784299421e-02
5.270680017279848195e-02
1.529424444098680461e-02
1.376096621076023339e-02
6.964865051820009860e-03
-3.683897366714256830e-03
-9.783596209507834651e-02
-7.173769562727305704e-02
1.901922180905881235e-02
8.272593419415529004e-02
-1.367195690154212329e-01
2.364174862739812019e-02
-7.151528097653710170e-02
-6.726909743129999564e-02
-1.875351696797275258e-01
-1.599627418946138746e-01
-3.218813500557476392e-01
-3.214247367603458860e-01
-2.298410516197034459e-01
-1.348036865823833697e-01
6.406584158559264133e-04
-9.031051901063858953e-03
-2.237911152522937056e-02
-7.429672443505440371e-02
9.693661929326921611e-02
2.204905973010010817e-02
-1.123558801549160019e-01
-8.773741311432837683e-03
1.139110923855064655e-01
-3.656024322015826583e-02
2.764495185332260449e-02
4.712053414333111645e-02
4.171026450871782171e-03
7.772592217310810014e-02
-4.572273749888836059e-02
6.877294836736287664e-02
-7.193124190230537618e-02
-7.136753344874932625e-02
-3.780837149444045420e-02
-1.490890295249912012e-01
-1.783219558296957608e-01
-2.192375647759621515e-01
-1.278119978246931854e-01
-2.167840710125001347e-01
-1.963809747943036366e-01
-1.712401691138143722e-01
-1.375381990844762592e-01
-2.234891830500806628e-02
-1.096062994979689342e-01
9.019477630461128492e-02
8.419804119534984865e-02
-9.145315093652353622e-02
6.244954400498761021e-02
-8.310467552349704023e-02
8.080356212947464867e-02
5.339478875514658274e-02
6.972860218351829842e-02
-5.143418306997683820e-02
-2.347289782660940197e-03
3.165327098523943589e-02
3.653205325544604809e-02
5.199311201835838531e-02
-1.041788892263674077e-01
1.054012841367048814e-01
2.071435521356706708e-02
1.945617520188168414e-02
-6.034170249515104917e-02
-6.212352973687361446e-02
-1.426311415190846255e-01
-1.589832611756244185e-01
-1.609109043040567524e-02
-1.540833928379498410e-02
-1.098162814843934576e-01
-1.610511903676471457e-01
1.518148564203413570e-02
-6.513454491869182655e-03
6.084807507915371977e-02
5.667067186428321156e-03
-7.447433510778186938e-02
-1.102136176167711618e-01
-4.339200270983037400e-02
-3.701598202626572853e-02
-3.358820047209749166e-02
1.022069829288711623e-01
-8.090430079946075992e-02
-9.679580286401083533e-03
-8.935675468369083663e-02
6.443342884941628823e-02
-6.411087262343073689e-02
2.513910492171433572e-02
-8.955707604618660944e-02
-5.457760394750080235e-02
1.271832442027636886e-02
9.790272397772979956e-04
-7.949067947642672605e-02
6.104248733630852908e-02
4.093240371909353387e-02
-6.839600574315134185e-02
2.006737433176957602e-02
-9.989318950537524888e-02
-7.885491082907646054e-02
-1.295271217255576923e-01
4.261326910055966699e-02
9.106222246773491846e-02
-2.777477975016070730e-02
-6.772034896867366871e-02
5.150593320807784342e-02
-9.693065373453334244e-02
-3.856663729633304227e-02
9.455866987985138417e-02
7.923986373371643549e-03
-6.547914173299854146e-02
2.790818755824765046e-02
3.239138005250669083e-02
-4.813084331233998675e-02
-2.267303664416838241e-02
-1.057470943954939673e-02
1.301301986194000268e-02
5.218310565843447407e-02
-1.246604057269614339e-02
7.159900645050334966e-02
7.263592971950202926e-02
-5.178174994448748319e-02
7.580074918162096886e-02
6.811490566706487199e-03
4.282349980121730182e-02
5.578024476480632904e-02
-1.227898279027318795e-01
-1.067753900412446305e-01
-8.022995237035106253e-02
2.680386523842684388e-02
-4.970504092876862345e-02
-1.151452110094932785e-01
-2.386161238356000400e-02
9.848255888018656035e-02
6.827037400369045939e-02
5.182146824855893980e-02
6.855303060688526517e-02
1.086939235512326685e-01
1.001879341027237524e-01
4.699002677361165115e-02
-9.639786130653790752e-02
-2.974654851906298730e-03
3.162879812036300392e-02
-7.510243307619191011e-02
-1.586591313923101793e-02
1.141041331759160837e-01
9.812718682260422598e-02
-6.993847927455806857e-02
-3.724254972460878249e-02
-8.031486172109977839e-02
-1.000289828178074908e-01
-2.701342460512157553e-02
6.360113556626396936e-02
-6.476177466251398229e-02
-8.083597694744668050e-02
