-1.562483638885244725e-30
3.846283792854424844e-30
-1.797352366650300274e-30
5.087160941713006789e-30
-9.547466880565284121e-31
4.435029646878491500e-30
-2.079092166165102015e-30
3.972949317817009419e-30
6.462722865984082414e-30
3.131904516055982216e-30
6.161066751707249598e-30
-2.936777279997880747e-30
1.587589529638877876e-04
3.476273625243750322e-04
2.242824109719523483e-30
5.703521807272698272e-31
1.939170783443064222e-30
4.768458072776855404e-30
7.494351299630650689e-30
-5.684112057101169885e-30
-5.572969623434910433e-30
1.998518647466132328e-30
7.867570475097161435e-31
5.106584118879712985e-31
4.381272266816980463e-30
-1.328392672220338449e-31
-4.042853157376805809e-30
5.995064778737833497e-31
2.211224916767406425e-30
5.589411336438222692e-30
-5.164854280449860476e-30
-5.629352829647163827e-30
2.676402915876089223e-05
7.639287080539949198e-05
-2.322597786249900177e-04
-8.042529039706672930e-04
-1.827744731825205757e-03
-1.952746095685454347e-03
-5.005658920103638748e-03
-5.164560006258330990e-03
-3.803109815467713584e-03
-4.401370938787243191e-03
-5.257625061719363273e-03
-3.399046468723468210e-03
-2.113509395195053292e-03
-1.205948179023981709e-03
3.120930922918284714e-04
2.399196013272659155e-03
3.831952989932552178e-03
8.823138919604468213e-04
-1.652773292284746929e-04
-1.838673444408734942e-04
3.117467562467418213e-30
2.279114390562050162e-30
6.056564544128038019e-30
-4.224945072912003895e-30
-7.421378162748523649e-30
7.612915255491674848e-30
5.210077505340420006e-05
-3.682915125013435687e-06
5.205625417736340060e-04
-1.982564490863596325e-04
4.852868236807460884e-04
-3.009599486202013934e-03
-9.543519379810827194e-03
-1.378161264263149527e-02
-1.687239151125279751e-02
-1.756007388960683160e-02
-1.459344053610061274e-02
-2.033974340761618774e-02
-1.942165902667683866e-02
-1.077691011746483539e-02
8.259105019114351687e-03
5.938227354808908731e-03
-8.558738461543573955e-03
-1.183591717488726054e-02
-1.134408585556842715e-02
-8.214958657989952090e-03
-4.082054361567884898e-03
-2.130772932930422112e-03
-1.460182587356668484e-03
8.700635577724700510e-05
1.097729095173360980e-30
-3.204154489485084750e-30
-7.264474599401159778e-31
-5.270771350495489808e-30
1.147845200395311089e-04
-1.621802245117320702e-05
8.908619734555400880e-05
1.256251182042183903e-05
1.170125597613519810e-03
-6.712730505082716188e-03
-1.572855699185939440e-02
-1.616684374645210517e-02
-1.776139750433369802e-02
-1.259423370345430504e-02
-5.951609102034276060e-03
2.243729813436175918e-03
1.264459568318821586e-02
2.988025806985041694e-02
1.903105595897450902e-02
-4.812568322097664913e-02
-7.939296038682448764e-02
-6.647933290968194298e-02
-3.365646320292632609e-02
-1.356504895059452119e-02
-5.522315821785463326e-03
6.553029546359224989e-05
-4.758557090709865411e-05
8.822916753439187542e-05
-7.075076048418235317e-05
7.131113962257258732e-30
5.181387878483675299e-30
2.987115622021979567e-30
-7.988336492706030816e-06
-9.249743880406633063e-05
-2.301697393573766577e-04
9.230493144845538546e-04
-1.706758361880494814e-03
-1.110886661973918901e-02
-1.727748070652536730e-02
-1.673282538517910714e-02
-1.426269330900524664e-02
1.762910997431596429e-03
8.615222164266529703e-03
2.029053063558340642e-02
3.402971247412198835e-02
3.756046637421370238e-02
-1.539804142764625294e-02
-8.724867542593095493e-02
-1.080513147073881158e-01
-6.035394708752033627e-02
-1.760066851271890193e-02
-4.533352669994719468e-03
3.063764068089979038e-03
5.557113085297463347e-03
3.736797649719367752e-03
-3.982913361995099079e-04
-1.542663967261031794e-03
-3.183211926030333930e-04
4.587670457667012090e-30
-1.720330502166790110e-30
-2.180507717243494238e-04
2.817382738540732804e-04
-5.701144890178120537e-05
6.670042940841599231e-04
-1.173995011367936700e-03
-7.804881625958338606e-03
-3.905291821376933453e-03
3.945470985344045473e-03
2.034511895029688863e-02
4.190050879266461054e-02
5.459105154037369872e-02
6.789920628889488385e-02
5.840094944521120185e-02
1.680289955217567285e-02
-2.862955411372725134e-02
-4.564630682481745499e-02
-1.101761403464374470e-02
2.657778571640908791e-02
3.574813673491490651e-02
2.338275732432621920e-02
1.420980463185929528e-02
6.693799814554535210e-03
-1.904929823085042698e-03
-4.558898250215450386e-03
-3.726180514042332949e-03
-2.854540842141008433e-04
1.082266016483359016e-30
-4.833974804507656350e-30
1.311044499471080739e-03
2.390786654772275241e-03
2.981704831273554717e-03
9.691141311508710929e-05
-3.382775445357687118e-03
-5.975145206201871832e-03
9.061945074886558829e-03
2.234938035552781754e-02
4.431521759993963666e-02
5.970311333508347001e-02
5.944159869100366922e-02
4.803632266468690903e-02
2.576439948317595791e-02
-4.189418836718394532e-03
-1.026404011192657770e-02
1.883687012445064632e-02
6.505919017669806181e-02
8.132236354420281643e-02
7.129094892508752723e-02
5.919444647128318387e-02
3.217404799454909314e-02
1.367584016706936516e-02
-5.452527174510716189e-03
-3.941278415188568737e-03
-5.019948998397263072e-03
-1.396665335510065048e-04
-3.712388524397219175e-05
-1.990878167454696501e-04
1.215262710300305492e-03
4.989031082827234329e-03
2.563294285984204016e-03
-5.095194536482559704e-03
-1.731643603635683176e-02
-2.454286625415119313e-02
-1.362899710819668805e-02
-4.591853155406106293e-03
9.871516716363295391e-03
1.801876031561729791e-02
1.413473030009359047e-02
-1.251487140987311147e-03
-2.047691477757650202e-02
-2.953506548705496851e-02
-2.632954649309234355e-02
2.153766624066216079e-02
3.786144783695117449e-02
5.171169320305817052e-02
4.093121516649860653e-02
4.821786869402032438e-02
3.526671377885921138e-02
1.572776896501374908e-02
2.721262922046609970e-03
-7.514516138185354382e-03
-3.580963183054020667e-03
-1.302593264882152997e-03
-1.508651506723124357e-04
8.812239688710812261e-04
5.915655450385832494e-03
5.246339560167044731e-03
-3.019640198209399499e-03
-2.024601602223821337e-02
-4.095186481530633388e-02
-4.474031105038622780e-02
-2.911523369385259422e-02
-3.081620546862210569e-02
-1.801884937888067681e-02
-2.483408320722288107e-02
-5.291717453877085170e-02
-4.406637049132046402e-02
-3.815648236135928822e-02
-2.907653643607066921e-02
-3.343957312305684271e-02
-5.688921024088128969e-02
-4.740195368774272056e-02
-9.144370425837078029e-03
2.771129506625192099e-02
4.941399829516704423e-02
3.910149976333576055e-02
2.576314151700458133e-02
5.907645624707958537e-03
-3.509537882621437382e-03
-5.490812994306890592e-03
3.342846470237189043e-04
-2.038574341036459843e-04
1.354712159617828173e-03
2.255917829185149440e-03
-2.591937003726341388e-04
-5.435329803768525724e-03
-2.535181009405051283e-02
-4.627340765686444035e-02
-4.565611828396828886e-02
-1.688263857553209263e-02
1.530329248579804938e-03
-1.147011472894596783e-02
-5.645432478092878015e-02
-6.046919166152613101e-02
-6.707782499815347077e-02
-7.271429778445767655e-02
-3.949626590328810666e-02
-7.351643089249369767e-02
-1.452569055290995614e-01
-1.142323709176838731e-01
-2.932001089732665100e-02
2.049667255909199889e-02
2.553029474435705021e-02
2.427737577594591550e-02
2.303460412315420230e-02
8.687175285787517021e-03
-8.327982780522974861e-04
-1.299670284609288559e-03
3.658049430333037456e-04
-2.532801611549533017e-04
9.196855652779936316e-04
-5.001729953347684981e-04
4.858412980453621390e-03
4.454215667511501019e-03
-9.774481863465210585e-03
-1.887788565088015930e-02
-4.636433577965012355e-03
3.049056668153687227e-02
5.310965010276785109e-02
-8.763762167810237522e-03
-3.872039540694965920e-02
-2.865167986402337302e-02
-4.421175198696609965e-02
-3.925081953895796089e-02
3.306044113006250534e-02
2.733956170668524685e-02
-7.356502011207632918e-02
-6.083788483344683418e-02
1.159202068309861042e-02
3.724410367835265245e-02
2.849457079282160729e-02
2.508287443608481562e-02
1.823678392774086623e-02
1.092783790590543848e-02
8.369303737392042421e-04
-6.816934287059658350e-04
5.952646856283529998e-04
-2.122648166561460950e-04
6.397799661344447325e-04
2.712979447777623919e-03
1.211943514692119701e-02
1.995961512179589628e-02
1.080591446469031207e-02
2.371772841393397779e-02
2.972734608151180596e-02
9.306173294641371940e-02
7.848444108797879293e-02
3.239407648788734939e-02
7.022448378990137074e-02
1.206770181823750149e-01
1.328798791901799892e-01
1.742414385687655609e-01
2.506068736520490892e-01
2.294192544341075446e-01
1.042720730051157341e-01
6.074142542461300615e-02
6.722184707402142911e-02
3.899455305563162555e-02
3.286038270019286250e-02
1.697116440909071308e-02
1.671566306225659784e-02
1.738007435928186697e-02
6.343453936587327424e-03
8.857337268956785078e-04
2.020004144111204003e-05
-1.314063994758182645e-04
2.047672281966889021e-03
7.017761959040439042e-03
1.493454522762365302e-02
2.432716917050542146e-02
1.975955615335255738e-02
2.422558066906160129e-02
3.176686305997346998e-02
9.087141956881378269e-02
4.000287021242455304e-02
7.231950020946482927e-02
2.172027836226744502e-01
3.788026541014039572e-01
4.787627230362885844e-01
5.297021473195393515e-01
5.933596883665062105e-01
4.647453609348022319e-01
2.388998720649713747e-01
1.063786534764440267e-01
3.353565093905553490e-02
7.609781295972888049e-03
1.105113210385500096e-02
8.675892998646085250e-03
6.965273501702370744e-03
7.295405942870322215e-03
3.092468033338523908e-03
9.965760585525097314e-04
-1.752436379204477237e-04
3.975581838305781417e-31
5.350828843908403843e-04
6.295004611309307739e-03
1.210955158462126771e-02
1.980543324517820489e-02
7.783088380682424458e-03
-1.265020362499601030e-03
1.603729605308203653e-03
7.181912867566470418e-03
-3.143776996396203255e-02
7.831136676567915234e-02
3.202759556687203024e-01
6.091628933514918742e-01
7.736842701774411246e-01
8.010706552849308215e-01
8.076692011839397001e-01
5.079318967907565652e-01
2.031211169690473606e-01
2.188746587128652735e-02
-2.424097670259322754e-02
-3.092155490080850458e-02
6.136082543741166843e-04
6.694099054247405409e-03
1.039702089344945492e-02
1.044837353779363813e-02
1.343956285847492478e-03
-4.836856040226337507e-04
-9.103030504713708726e-06
1.481994903131596297e-04
1.650374445578281979e-04
2.493331908619438042e-03
7.476673683923783578e-03
9.167131000668581747e-03
1.396475132849166450e-03
-7.887066855499943324e-03
-3.944042760633503786e-02
-9.626874521121039918e-02
-1.336374558199835971e-01
-4.332160280648055667e-02
2.021178505421099281e-01
5.153699894963280626e-01
6.489422772473704137e-01
6.293428334275295022e-01
4.321415015996197817e-01
1.669878843170926608e-01
7.495768655293758367e-03
-6.969403241631093315e-02
-7.212338424253555980e-02
-4.244155408010291675e-02
-9.900503019944174518e-03
1.207849730679141746e-02
1.534442192228603619e-02
3.939575270927315152e-03
1.370332814962247139e-03
-5.595578987447647227e-04
1.234707127817893891e-30
4.776528111160941446e-05
-1.712619503850215257e-30
4.988184851886614309e-04
4.355409906102454543e-03
1.041564274429047227e-03
1.656294563052779526e-03
-8.421103557391219213e-03
-5.557753418653522959e-02
-1.546538213460748046e-01
-2.266970298873745848e-01
-2.217309245505910686e-01
-6.217578241796944960e-02
1.483539808980026686e-01
1.887381298076938885e-01
1.183393553242794854e-01
-6.851802785339185242e-02
-1.574955684788911514e-01
-1.190867130235064436e-01
-5.109473779724282849e-02
-3.425372793616532352e-02
-3.310836721496544788e-02
-1.449700337475824836e-02
1.183499804586927127e-02
3.318533609573887273e-03
-6.457955747414410343e-03
-1.754680611790233489e-03
-4.734046487803746615e-04
5.753823546705926404e-31
-4.344089809104663023e-06
-6.566276217722975601e-30
5.847190490808919894e-05
3.419876757898092888e-03
2.056785426469788514e-03
8.629078547219264789e-03
1.220788438242577725e-02
-3.504012282540584777e-02
-1.535055251496904305e-01
-2.361716602966991430e-01
-2.282462147067720604e-01
-1.026684661618889466e-01
-1.279545678343968658e-02
-5.379421975084087287e-02
-2.098908659791999254e-01
-3.019238163577264156e-01
-2.461687054148409548e-01
-8.402747978941885187e-02
2.259104334088380198e-02
5.287741107949719792e-03
-1.197577023165808177e-02
-5.645412660867369335e-03
8.657188493870442494e-03
3.809021468711318997e-03
-7.869483758501721535e-03
-3.171611928634496518e-03
-1.905900349183002422e-04
-2.913506156220224275e-30
7.329882042710230107e-30
-4.540034021336732405e-05
2.142214031181175621e-04
2.478348873750379783e-03
3.836068255163739733e-03
1.962142041221253200e-02
4.693560295089652806e-02
6.476748260082280419e-03
-8.358892279285444482e-02
-1.393606815426230439e-01
-1.229022327870871872e-01
-2.930395165660434550e-02
4.765333285988202806e-03
-1.175054575461765977e-01
-2.518144816791576535e-01
-2.721972086150974413e-01
-1.691510768849828761e-01
-1.346906538812796825e-03
5.655972040146498708e-02
1.629846628738347916e-02
-1.866813068385464805e-02
3.165127516767987995e-03
1.647268802800585380e-02
1.047115822208156315e-03
-8.307631967254466843e-03
-4.202319921827167050e-03
-1.297902456873937583e-04
2.042154574687701999e-30
2.033760930621143423e-05
-2.979397326502230704e-05
7.728311015066369454e-04
1.360171164119051328e-03
3.148645564399431100e-03
2.797993021695854843e-02
6.560328604992893275e-02
7.032403145000067080e-02
1.070911215183993105e-02
-1.511526627827212629e-02
1.900062354877363191e-02
6.764028464171688293e-02
3.969776370528362713e-02
-7.829581725966755501e-02
-1.462162222128678413e-01
-1.585311640041522918e-01
-3.713135591566983640e-02
2.270911335050200888e-02
2.283678695333125896e-02
-4.469304140790841123e-03
-1.029806303127025861e-02
1.446480142198343539e-02
1.715088506410559696e-02
-6.322606230402497141e-03
-7.155608023170345784e-03
-9.817114239960482523e-04
1.201156853665720053e-04
-2.279006348647189198e-32
5.572326446256899664e-30
2.175156199114586394e-04
-2.541734801490996322e-04
-1.200932189366407362e-03
1.257755114655587699e-04
2.552992999303519903e-02
6.414682560161140412e-02
9.856808878478925950e-02
7.581254196929482214e-02
6.609102198546842888e-02
9.675212768061026980e-02
1.123077638684556734e-01
3.272484851191163197e-02
-9.358436742945530976e-03
-6.595195180182868155e-02
-4.168248846067180297e-02
3.421924830554499974e-02
4.198576018343567855e-03
-4.487334090016181776e-02
-9.815504571872897197e-03
1.305013150955114734e-02
2.381581202122782723e-02
9.967829782120390253e-03
-5.258881575020739330e-03
-3.382537598243332173e-03
1.366748721243197151e-04
2.149509336241558707e-05
-7.617980317082357924e-30
1.468820108327775233e-30
-1.023318571244267082e-05
-4.649349196068406731e-04
-3.548681009136482947e-03
-2.460821931708134010e-03
1.488266319531916966e-02
5.708946714276361134e-02
1.083620418909750222e-01
9.385314542133815774e-02
8.139514298647691770e-02
1.005253027800772914e-01
5.245829246786985062e-02
2.253279657739858458e-02
2.366599334770866717e-02
-1.214354495762301304e-02
7.839000128951403856e-03
3.623853856224102526e-02
-7.605586331757920038e-02
-4.289592564262347668e-02
2.373063228746416856e-02
2.261569161269520387e-02
1.297152477149773712e-02
8.008723328395216112e-03
5.442130271258248386e-03
4.562236297711075631e-04
8.304048623429922341e-04
4.173437145091192345e-05
7.533736255893384414e-05
1.214913510312536244e-30
-6.944144027240246473e-30
2.488986978626605708e-05
-2.836244405825359780e-03
-1.945026967608122839e-03
7.131701115053973132e-03
4.101555599143720532e-02
7.804998465954618436e-02
9.077666817321435044e-02
6.229936926876434439e-02
9.982976950516290852e-04
-4.575106170293740532e-02
1.538659319141917788e-02
2.176345550608710031e-02
-1.305981644724467719e-02
7.398064512663064980e-03
-7.788647821434936669e-03
-6.656506547677502883e-02
2.030647511812275208e-02
2.984019519872889437e-02
8.046854857392019347e-03
7.289621166965213825e-03
7.734486191663863218e-03
9.887477286267468482e-03
2.810447258413468347e-03
9.532286922965370205e-04
2.346080344020517647e-05
4.664694320802174366e-30
-6.854097009207362229e-30
5.771734682174996203e-30
8.433829701464285543e-06
-5.602481819674712087e-04
-2.161631143490522645e-03
4.285239782165827454e-05
2.932051781075871791e-02
7.313527713435225008e-02
8.420677263042017358e-02
6.825190304170336564e-02
-3.076027410769576614e-02
-6.784143610658555090e-02
-4.442994193705544770e-02
-2.600284607434476258e-02
-6.889559546401737011e-02
-2.654222857412049871e-02
-2.072960169339970599e-02
-1.881519960110337661e-02
2.378804663487092338e-02
1.738182170844689359e-02
9.853711138178613757e-03
4.530094740176589425e-03
9.642815325972548327e-03
9.387963663593673971e-03
2.345773984931969966e-03
9.754428687016629884e-04
1.970296615271077849e-05
-7.686757562041854432e-30
-2.017949613891772214e-30
2.072783251165277192e-30
-6.538785532931151712e-05
-3.462100696870725261e-04
-8.398292905428007002e-04
-2.170619025402256892e-04
1.297733555235873817e-02
4.540069690308599915e-02
5.955013832394459583e-02
3.231068385569507706e-02
-1.540436050167183317e-02
-5.710656933776652290e-04
-4.777485154031716787e-03
-5.208859824156698848e-02
-5.109513540721864061e-02
-2.130689117551651419e-03
1.351036157952194110e-02
2.252178234613972513e-02
3.129572067861754320e-02
2.285423445528456804e-02
1.184840895691854391e-02
5.925179218754224840e-03
7.676679036146442231e-03
3.369389665937851715e-03
2.688603877595131027e-03
6.286487208762172154e-04
-1.703505169419789830e-05
1.525297727639419436e-31
-6.804167250370803120e-30
-4.562513638974486017e-30
-9.235144655168734838e-05
1.036785216913404693e-03
1.168094241494183538e-03
-3.860878060149305988e-04
-5.880884960667869974e-04
1.073198949814918937e-02
8.779544017021075758e-03
-2.206340430459281104e-02
-2.875387652024995189e-02
-7.697747783028291955e-03
2.702952259798594228e-02
1.180066459553915856e-02
8.331696157582292248e-03
1.426768472976077014e-02
1.922314947232032015e-02
2.310120257279692918e-02
2.752935008535928318e-02
1.807161229899995059e-02
9.295234322478440961e-03
3.928483421747620309e-03
1.316643954937769421e-03
2.260129415608806962e-03
2.267778927495730634e-03
1.667930962922747863e-04
2.469995257380281293e-30
-7.029621008018086597e-30
-3.278850063654835743e-30
-6.194520750256191599e-30
-1.334720859370507787e-05
1.350597209357913856e-03
2.994082596326669374e-03
-2.933863508277502648e-03
-6.430400433205436111e-03
-8.141256061009558009e-03
-2.418968959787323389e-02
-4.149004662311950309e-02
-3.267778330308076379e-02
-1.585892830335100534e-02
-9.696441082978487017e-03
-2.230773244332124108e-02
-1.385963204232046851e-02
-1.557490204297873673e-02
9.428904518465017551e-03
2.373464118833760322e-02
1.276620922167744782e-02
5.049834489901044651e-03
-4.464959461692994715e-03
-6.576229956921084314e-03
-3.693616495808178194e-03
3.818732070163830612e-05
1.567106429871401030e-03
1.067505304321729362e-04
7.664146990310697733e-30
-6.998951252644443727e-30
5.730838166396637038e-30
-6.642892008121326672e-30
3.466132626032611881e-30
4.632075728743935785e-05
8.498214763886947215e-04
-1.637070617330029128e-03
-7.693408791811834520e-03
-1.389590023443356900e-02
-2.795901299518125521e-02
-3.474085299737548344e-02
-2.890358147529739283e-02
-2.599058795009885278e-02
-3.412241072479440390e-02
-4.273779461744012936e-02
-3.826656169415147690e-02
-2.850207418000003795e-02
9.089892313447709435e-04
1.432287542248781090e-02
1.363005625189574362e-02
6.696493271124005602e-03
-5.963858879953153579e-04
-2.347971540988444059e-03
-1.479878460199659422e-03
-3.388317884206520567e-04
2.697685522378842155e-05
-5.070514332166217903e-05
5.576894780295923592e-30
-4.377095000783442524e-30
-2.562978994589790273e-30
7.572293174946025284e-30
-1.201536917398609737e-30
4.486594840909739611e-30
-1.457749564606413846e-05
-1.431494841062353179e-04
-8.810749694166851919e-04
-1.519642565632355275e-03
-1.344162012910143748e-03
-2.271094207850164141e-03
-1.141064525284866694e-04
-2.728663223305242882e-03
-2.096472537895166174e-03
9.726817358749409318e-04
-6.051819572534108613e-03
-7.794898299610805541e-03
1.726280368389789986e-03
5.182894950519286933e-03
7.213692388660487322e-03
4.878739493273141943e-03
3.695280965072977484e-04
1.160050665354316118e-05
-5.805625416786793034e-04
-1.235323006782547916e-04
6.485379124826196268e-30
2.833506751262261919e-30
6.978233807817200444e-30
-6.650926323817499537e-30
1.269488606916578902e-30
3.896026387320095715e-30
-3.806813344764524940e-30
5.308893759749659482e-30
-8.647844872656916836e-31
9.714697506480955167e-31
5.671163141950773841e-30
4.943240019180390354e-30
4.929662146533209666e-30
-6.133560722244566749e-31
3.387853587015821417e-30
-7.004238308449904823e-30
-7.121433469455230533e-06
-1.559348363139333700e-05
-6.488975389221821356e-31
7.442103477769336981e-30
6.446744999552722813e-30
4.982348702069200265e-30
1.294244654803730765e-30
7.348642477339336787e-31
-5.008104547213633966e-30
-6.871803434672899415e-30
-6.515354593880259045e-30
3.210042499089497147e-31
-5.547196068615302496e-30
-5.654263898204190987e-30
-3.577533491284776155e-30
5.480575688094606804e-30
-4.883101202311414532e-30
5.964638024563417441e-30
-4.423367997235684901e-30
-2.733772516890350858e-30
3.441446644783375370e-05
1.154286776633824336e-04
-4.658503380572441110e-04
-1.168714975171439427e-03
-1.402051615520594641e-03
-2.147384703241024019e-03
-2.718913179829196124e-03
-1.130262654725369340e-03
-1.104217900475509698e-03
-1.515004362521262275e-03
4.763105450466947064e-04
8.762292221468900378e-04
9.914244469959720019e-04
-2.199251924755937782e-03
-4.134284885484578245e-03
-5.872331880010893748e-03
-4.098427807772431382e-03
-9.681411594933067447e-04
-7.398189398521111187e-04
-1.698235289682812086e-05
-5.948009605786553863e-30
-7.600440318166837195e-30
4.204877489441108998e-30
-2.417997472158805157e-31
-9.691488896211672873e-31
-7.684838131610107790e-30
8.232279790187575807e-05
-2.105611611000007970e-05
-1.700205470855210117e-04
8.113506488510330045e-05
-9.198232702953139687e-04
-6.932048875283743604e-04
-1.864190198812145293e-03
-2.428521469598987192e-03
-2.963628151780952225e-03
-2.150310701336116247e-03
-7.610667023883507798e-03
-7.313214166370681293e-03
-4.186362396826759716e-03
5.018723381589649743e-03
1.176535935269252273e-03
-3.092344519757406728e-03
-1.614445763935636394e-02
-1.610600364726497841e-02
-1.141350900736862531e-02
-7.251196564584858582e-03
-3.515932777463989280e-03
-1.517755427684353833e-03
-6.300609043050544450e-04
1.420748316439693769e-05
-5.152680384911704848e-30
7.101657322108596439e-30
-1.738829326871321895e-30
-5.349948867551396071e-30
1.813674141275700594e-04
-1.670495943759846345e-04
-6.178019449324040954e-04
-1.043842728063356902e-03
-2.646440886614550994e-04
-9.442621636007752541e-05
-1.389489918452553206e-03
3.218141409201844493e-04
-1.034238677527869570e-03
-8.899999565444762645e-03
-2.320304919072270489e-02
-2.725293583877202649e-02
-1.432354469584659271e-02
3.158147191436192457e-03
2.098507878903371413e-02
2.637565753825481946e-02
1.927958495593299834e-02
1.272755447250489141e-02
5.906443527908524123e-03
-1.017080394961262764e-03
-4.036377783152207861e-03
-1.942883643453752803e-03
-2.111458919602824964e-03
-4.487828510445998099e-04
-1.056297355719730195e-05
-7.689891338834439135e-30
-6.010855411762831723e-30
-4.669957031083480421e-30
-3.788771399023855321e-05
-4.183466981639552464e-05
-7.609133335651562880e-04
-2.452395807121446943e-03
-2.477466057700009484e-03
-5.261053145278271961e-03
-7.761834686548912780e-03
-1.353376515914075408e-02
-2.473053247235923804e-02
-4.108729427068819051e-02
-4.559740120436753252e-02
-3.391930117565462866e-02
-1.694800893497100684e-04
2.437718024006254453e-02
3.579140099597383218e-02
3.565783214406055557e-02
2.621418058381661323e-02
1.969543535948910587e-02
4.580725739328235686e-03
-7.027591460196487387e-03
-1.301623505854588268e-02
-6.504776323241814699e-03
-6.153030345407087785e-03
-2.609659999006834572e-03
2.793872691310963965e-04
6.791077557233498403e-05
4.932670275028076682e-30
1.793078964543179088e-30
-1.457507917975185479e-04
-4.072431191872575743e-05
-1.601852603829308566e-03
-2.462417074613504342e-03
-4.508621437453840496e-03
-1.580225324829817590e-02
-2.717640210280769866e-02
-5.861348727434699535e-02
-9.318224991174939298e-02
-1.122039837110473948e-01
-1.051455087361056889e-01
-8.190033921230063796e-02
-4.867509584313105958e-02
-1.177552616127218454e-02
2.327144227601723320e-02
6.484628741136023999e-02
7.646319492234308901e-02
8.076360761163815793e-02
8.171189693114395969e-02
7.042047904583072226e-02
4.241697581614487650e-02
1.830165921109906668e-02
9.812358768760635203e-03
2.777384051874851999e-03
2.045250908147080732e-03
1.173032531270373817e-04
-6.404668764013295599e-30
6.004215069595090327e-30
1.325329975810872734e-04
4.564972497983482290e-04
-8.126021725794727903e-04
-2.632725635650774026e-03
-1.111738852879654883e-02
-3.818840705913489203e-02
-9.333051875817688359e-02
-1.669339764950006355e-01
-2.067155012649002921e-01
-1.883915826313963815e-01
-1.534944411621345650e-01
-1.176084664748156122e-01
-9.679730953814112693e-02
-1.088356627895465945e-01
-1.242016280958605362e-01
-7.931048699120421541e-02
-1.668132446747277314e-02
3.165988767715557234e-02
7.152246238734995265e-02
8.145436835285167765e-02
5.004619004718274117e-02
2.208002049323859461e-02
1.051764534266727384e-02
4.926457113464202849e-03
4.453617586753183359e-03
2.892566176883574363e-04
-1.212857804827061081e-04
-2.211169198182285169e-04
9.709242129472061634e-04
1.351958326972359887e-03
-4.023154650729989781e-04
-9.396075559802333221e-03
-3.310602144786435608e-02
-9.744102847219437979e-02
-2.069412360337558598e-01
-2.695479541911534604e-01
-2.057299996250551988e-01
-1.214566872783250234e-01
-4.933250739548856317e-02
-1.766300866995989052e-02
-5.144753138121409275e-02
-1.231492076590486456e-01
-1.783722563433609298e-01
-2.091581499121134557e-01
-1.952260181597996191e-01
-1.383977518785831917e-01
-7.661445078430050015e-02
-2.814308324986182150e-02
-1.175771574067281666e-02
-2.095328763635079250e-02
-1.641479745161411596e-02
-5.341923868282730595e-03
3.100266586272339229e-03
2.417340877873708040e-05
-4.928847674935504493e-04
-1.049625133182463776e-04
4.062559810843825552e-03
4.352202800397831674e-03
4.935595141884515508e-03
-1.189069032654764806e-03
-5.100982396314773099e-02
-1.399313738450064237e-01
-2.162405367946946821e-01
-1.676723164293113244e-01
-4.993962046693199708e-02
6.701146398180013453e-02
1.284951789617116702e-01
6.839379438306296410e-02
-2.207938024213735185e-03
-6.159897421402357742e-02
-1.140415120426291895e-01
-1.977770352461362680e-01
-2.443229413342842549e-01
-2.141643212433896604e-01
-1.703115384158275236e-01
-1.140765681337917586e-01
-7.289290385709033815e-02
-5.967768533180860951e-02
-4.018180961565479686e-02
-1.815057518340239609e-02
-4.036395970952961175e-03
-1.175325726270556214e-04
-3.263699325691209034e-04
6.779242958020784658e-04
5.115132878944475027e-03
9.669679563738473038e-03
1.336235654032979711e-02
3.913053681597695489e-03
-3.907514278637815031e-02
-1.194562812372266802e-01
-1.394399614727869219e-01
-4.734396838776726291e-02
5.987955265409687644e-02
1.580107347840815357e-01
1.193123229664346391e-01
3.319547255874737840e-02
-4.743450437184548729e-02
-9.605298874333789705e-02
-1.281532947286131430e-01
-1.567783315356083562e-01
-1.656140764490274808e-01
-1.683401754413434981e-01
-1.568499049845598625e-01
-1.198668426145179378e-01
-8.489080108923521828e-02
-5.101943080991846319e-02
-3.869475961424155563e-02
-1.550096398484140936e-02
-1.923423463759034598e-04
-3.525701041813858564e-05
-2.540038767715323167e-04
1.740014963423109533e-03
4.867514822891189086e-03
8.633349523067903458e-03
1.344705300997028376e-02
6.003366612381370870e-03
-3.028496427732544835e-02
-8.873824343311619012e-02
-7.759451571404388237e-02
-1.505016929816941143e-02
9.059992923974033788e-03
1.446003752793788982e-02
-5.958596891478319668e-02
-1.413226543391723766e-01
-1.953246666581064384e-01
-1.772134556650415416e-01
-1.607803991581189251e-01
-8.665370887681346501e-02
-5.452541272849938808e-02
-6.806637050541096412e-02
-8.659977464380429202e-02
-7.676644168024228387e-02
-5.438294096220727680e-02
-1.578408194860530037e-02
-9.542268169631502872e-03
-5.621600361324459970e-03
8.415158417955640640e-04
6.270120249220750711e-04
1.669048339425938273e-04
1.807158123766735257e-03
2.435594320983248354e-03
1.926891331777570932e-03
-1.054714642685042987e-03
-5.855478742630895045e-03
-2.213187756297443562e-02
-8.082758062388432918e-02
-5.131115907721106595e-02
-8.442401147298490838e-02
-1.176257830226472012e-01
-1.839643531272456556e-01
-1.620993296689330621e-01
-1.683385610819931599e-01
-1.503248424016096763e-01
-1.321203747047298704e-01
-9.180696850995258285e-02
-2.207661323688394142e-02
1.835836895967542584e-02
3.018757146985114569e-03
-3.365757204435464167e-02
-4.626519394589390100e-02
-3.298958010889219833e-02
1.738775552808404651e-03
4.113374966804660138e-03
1.099216655662515899e-03
9.421454234098040979e-04
1.512147401918244381e-04
2.141606409243198520e-04
1.160368958273139605e-03
-9.433678270140213613e-04
-4.968268505961387881e-03
-9.014781858980813051e-03
-8.534941846468850624e-03
-2.241783064584594240e-02
-7.469085859699262087e-02
-6.348499638075734419e-02
-1.765757727686447232e-01
-2.686895093123636835e-01
-3.162832435970626133e-01
-2.016676586151616157e-01
-1.377112568054131569e-01
-8.302881055122333931e-02
-3.733521332295062362e-02
-1.587933100568649988e-02
2.761661497021130132e-02
7.786856234710404223e-02
-2.141859919638663696e-03
-3.186957055112511761e-02
-6.009700596237291248e-02
-3.930668866527153166e-02
-1.199196103526386191e-02
3.797416138734016969e-03
2.443937898853235959e-03
3.342569118477020608e-04
2.607704484023557856e-04
6.720764971727250521e-30
2.691341501812953259e-04
-2.884928879405732841e-03
-4.740279969865794467e-03
-2.168545000805373584e-03
-7.059772813918565974e-03
-1.337742262996328632e-02
-5.428161185576654141e-02
-9.402006004934933270e-02
-2.186433173117489082e-01
-3.653502903834738302e-01
-3.492065639331247140e-01
-2.294814139819836007e-01
-1.138708486314165963e-01
-3.377493582646109299e-02
7.993919036659047697e-03
-2.355703361085775480e-02
3.314165805052007863e-02
1.461894125753798561e-02
-1.986660299990594333e-02
-3.498366783790854417e-02
-8.647180174640872741e-02
-6.214016674433276571e-02
-2.272179320921526718e-02
-6.204417051963184021e-03
2.421448269026630327e-04
1.163148002310045517e-03
1.487999236227413819e-04
3.186015403216071394e-05
-4.344272664329041473e-05
-1.934046185653274250e-03
-1.905601723326013058e-03
9.249115551283696455e-04
-2.798958369424700728e-03
1.329895622468454323e-04
-3.374213678488371254e-02
-9.911917616209389714e-02
-1.811719865461341450e-01
-2.681344180090258211e-01
-2.276358749970114614e-01
-1.308377010269006213e-01
-4.679791261849824968e-02
1.141723540792950221e-02
-9.875616911150698896e-02
-1.867720041819667942e-01
-1.077314357139892986e-01
-2.586742850414211134e-02
1.719739204758584383e-02
-3.806938567809342588e-02
-1.016830083286090203e-01
-7.898398398002018372e-02
-2.975015539746897475e-02
-7.704803508404518657e-03
-3.059657066220523771e-04
7.383695687480567931e-04
-9.527670331471372935e-31
1.286508999772387595e-05
-6.659995202588683240e-30
-6.997566812961136546e-04
-1.395601249897469040e-03
1.844633866904094120e-03
1.372837815004631940e-03
-3.462455017693506949e-03
-3.509714799280012898e-02
-8.103515472996966618e-02
-8.517768868803174409e-02
-4.090180234260132330e-02
5.331793590717166104e-02
1.383163584044673489e-01
1.407764649989229067e-01
1.328191788137405606e-02
-3.231259894278032396e-01
-3.920526926748611474e-01
-2.122984925409023005e-01
5.218956352187643921e-03
4.146893716816396624e-02
-3.049573609926735374e-02
-1.031284905290628939e-01
-1.014476540904286489e-01
-4.459845632293325118e-02
-6.818871242155608720e-03
2.465761802444578574e-03
5.028231768117295440e-04
-4.387675401695938560e-30
1.390288093819730998e-05
1.459164775534076820e-30
-2.559479097225421916e-05
-1.002527155768353963e-03
-6.957473123107816518e-04
-9.765090921843282840e-03
-3.238018158649571404e-02
-5.517524986340217180e-02
-7.055647978343593252e-02
-3.051120967782580250e-03
1.426548755647793210e-01
2.693837536360439988e-01
2.851974079436750964e-01
1.686203502886169658e-01
-1.627430572530550457e-01
-5.238698125266317840e-01
-4.763463686004583697e-01
-1.905694362575537926e-01
3.760007238576534849e-02
3.071281361961235648e-02
-3.931013187220082361e-02
-1.044825392084590687e-01
-1.022169482330363560e-01
-4.744319689110067934e-02
-8.159696252624016460e-03
2.285632589933931248e-03
1.101524776939279506e-04
2.080670048341451037e-30
5.691331800878550714e-30
7.019595732478934821e-05
-5.683477441632089715e-05
-8.114954279174003754e-04
-3.271282644966190620e-03
-2.881024767368393566e-02
-6.695328497048920469e-02
-1.112098590686550897e-01
-9.292320345967640394e-02
1.724475522226395774e-02
2.098708261932628882e-01
3.000348522706811627e-01
1.978641137030972830e-01
-3.940404172256538329e-02
-3.951974079509664173e-01
-5.398729132594339841e-01
-3.645119336231064655e-01
-1.079632134037239038e-01
1.226293849151244980e-02
-1.693328473729787190e-02
-7.461432702683729046e-02
-1.142164350605330975e-01
-8.848346599777444366e-02
-3.653122356747622729e-02
-4.764829920032761720e-03
3.867668409979808128e-04
1.466964243129403129e-04
7.071137895072188411e-31
-1.123393566025248356e-04
4.606609699439304280e-05
-3.488627830830525259e-04
-2.025316102273659255e-03
-5.670731096661863445e-03
-2.692950487645654617e-02
-9.029956604108788087e-02
-1.580376575370840697e-01
-1.277841251023754954e-01
-2.543911675034184628e-03
1.201373478879037560e-01
8.989197499203485653e-02
-1.039458797357314668e-01
-3.639896401811215099e-01
-5.371918913848553467e-01
-4.624113595916248265e-01
-1.964934915875006793e-01
-3.577427544987767799e-02
-1.220896584960201765e-02
-4.256314543199739980e-02
-9.154005520427417608e-02
-1.158953908077968165e-01
-8.134155148578438299e-02
-2.801014961945148124e-02
-7.075785724049465583e-03
-1.757630116367042781e-03
1.194910070434678309e-04
-5.664472911002872638e-30
4.148139115043724452e-30
1.576231791065147401e-04
-8.472523906304389642e-04
-1.805476953455386344e-03
-6.362352436369373733e-03
-2.240791594177966861e-02
-8.492111762519974349e-02
-1.485137355050070163e-01
-1.365422621707367556e-01
-9.016927183691987591e-02
-4.896406412167758626e-02
-1.425988044121926646e-01
-3.505439615191011660e-01
-5.464120016540654490e-01
-5.083379369625542488e-01
-2.651473411718599515e-01
8.420300140295596675e-03
3.161650801230686536e-02
-5.397524489806504282e-03
-4.782427217337990866e-02
-1.018919946033489815e-01
-1.164936587323499029e-01
-6.856397033965322407e-02
-2.592375044750612478e-02
-8.604991016396621242e-03
-1.445289724792960884e-03
-3.775220656044221988e-05
-6.993720190914520061e-30
-5.862826392337814884e-30
9.261691507685465888e-05
-3.184531706096463194e-05
-1.411814611231408320e-03
-4.127534158200009927e-03
-1.274932142069527645e-02
-2.769687490955200643e-02
-6.424187330416901431e-02
-1.103918383369397321e-01
-1.624541931417675389e-01
-2.242895445227992834e-01
-3.224895903440087030e-01
-4.448530649314986207e-01
-4.540629440895260216e-01
-2.464451398881916111e-01
3.965984652116219533e-02
1.906217980858042615e-01
4.070515397859260365e-02
-1.476219603774337093e-02
-6.111730009064678115e-02
-1.243833157817505197e-01
-1.050018528073393131e-01
-5.303311847076802588e-02
-1.525854693266462392e-02
-3.886024464877617813e-03
-3.762707019301155952e-04
-1.436444393170579743e-04
-7.536277364377232352e-05
7.117582890927385034e-30
-5.689709702504136342e-30
9.691267052054157959e-05
-1.634243997999574758e-03
-3.626557503145184675e-03
4.803014447122970140e-03
2.553975888046328829e-02
3.990408560810384392e-02
6.799367299683388086e-03
-5.432198811954037226e-02
-1.608612310939767365e-01
-2.543893637344444292e-01
-3.433953464634238451e-01
-1.400659573666633573e-01
1.611829518154512392e-02
1.703503052212196611e-01
1.154680634762273589e-01
-2.089791133011108248e-02
-4.455341594192515492e-02
-1.086306587986530098e-01
-1.316964016390828884e-01
-7.612187756231630908e-02
-2.915134700967491124e-02
-6.687566720176627358e-03
-1.834087224424033481e-04
-1.893397915019821853e-04
-1.367385717375467014e-04
-1.893301704943866852e-30
-4.211328478637298822e-30
-3.055980265600199012e-30
6.724169405875299930e-06
-5.245671558223230155e-04
-2.043177699895995948e-03
1.659426293416931680e-03
4.599880820944288184e-02
1.015598544527299557e-01
1.127604528794416971e-01
7.921672616366823294e-02
3.429094032290223165e-02
-3.291087454215462643e-02
-4.393910045236450179e-02
-4.844274352376862040e-03
2.771158425282559470e-02
6.142158060338404751e-02
-1.800024393438611273e-02
-9.773793654036391776e-02
-1.212346803195318568e-01
-1.320396215005169294e-01
-8.957883640454519791e-02
-3.690383263984069184e-02
-1.363600263472132187e-02
-3.733376801709860447e-03
3.551854474259012826e-04
-6.174835582406766089e-04
-1.303370836294373146e-04
6.241981320080789880e-30
-3.566598023027789127e-30
6.854722750757421258e-30
-6.320337392025807632e-05
-6.265249754986253932e-04
-2.787042439377837490e-03
1.521871952247291814e-03
2.674339412580285097e-02
7.434858781944286843e-02
1.019122251647531507e-01
1.069151114376470230e-01
9.388071416239612832e-02
5.240056539851494638e-02
6.937977632825539920e-02
-1.828473331079826306e-02
-1.083595690305764331e-02
-8.535944836456442475e-02
-1.388722150790235588e-01
-1.275087038111756277e-01
-1.041170285729609152e-01
-7.690548077735294419e-02
-4.051107439323904658e-02
-1.288734319631059354e-02
-5.817587940770243757e-03
6.523603113312339543e-04
-1.762402588861321294e-04
-7.432595720748459570e-04
-2.932940024788267830e-05
-5.527743622719060435e-30
7.058834766710805687e-30
3.243709283940849687e-30
-3.569860913003874438e-04
-8.399883917118152821e-04
-3.546254120057548958e-03
-1.459255926779351627e-03
4.195640353537312753e-03
1.440565983990444408e-02
1.377396709849259757e-02
2.081630467484926403e-02
2.609695048649906396e-02
1.192202505043329572e-02
3.980363795174470323e-03
-4.378965666748563246e-02
-6.502005985696567014e-02
-1.101282806975350526e-01
-8.098614150523357480e-02
-4.426744346315977796e-02
-2.786056259549049216e-02
-2.589561272509705372e-02
-1.296111276973195732e-02
-3.353422532344804956e-03
-2.661761070470354713e-03
-4.270755540569540296e-04
-7.259823965918205980e-04
-6.325004965377022635e-04
-6.658920707468792410e-30
6.978132712361503514e-31
-1.505357724764358799e-30
7.682995098542546246e-30
9.434862786564347112e-06
-3.087301291725985685e-04
-1.198050094920207745e-03
2.448839862619855718e-03
-1.891372721347306211e-03
-1.967518844882728754e-02
-5.009274137322830556e-02
-5.215573813729729863e-02
-5.145076918887628997e-02
-6.897191395767209021e-02
-3.066410656040403568e-02
-1.970600411676019532e-03
-6.016238544846485778e-03
-2.322394911361859438e-03
2.425298716915364264e-02
3.101901483120433900e-02
1.499564160443286887e-02
-2.464721423480543613e-03
-4.362765435647877367e-03
-2.955859998079814459e-03
-6.914085430123478870e-04
-3.276882866711730981e-04
-1.338468125624163625e-03
-3.255208666748535067e-04
6.916315974418119709e-30
5.955144506977568749e-30
3.464344379166071795e-30
-3.857023848104164181e-30
2.712295754568471225e-30
3.045515495769064292e-05
5.077726771660968268e-04
1.831653700000678876e-03
-2.603301154840821727e-04
-3.988222500363261709e-03
-6.492185839543796605e-03
1.413906751937072650e-03
-4.500877704265881423e-04
9.572224285477182529e-03
5.995821218204044900e-02
6.396181624399790988e-02
4.098267085938072513e-02
3.621114138967088114e-02
3.618757954023280043e-02
2.761308458348950279e-02
1.278237938997316657e-02
2.176727366328597493e-03
-1.524885140662866900e-03
-8.664437146086883569e-04
8.051450070674020802e-06
6.033181403518562622e-04
-2.006664803371629885e-05
-3.389205309479623954e-05
1.366142673464292345e-31
6.104238183727938891e-30
4.686350922084125718e-30
-1.203950429139765110e-30
3.195398253376453895e-30
5.773328276793848798e-30
1.075376017194223189e-04
2.022294996976887224e-04
-1.136035041054296710e-04
1.086932491325269736e-05
1.734815752558414035e-03
2.099981215182486309e-03
3.123979250701598622e-03
5.564607056074980657e-03
1.117928373705302098e-02
1.228763367674634219e-02
1.472855294014137686e-02
1.320901479362858455e-02
9.962929600027774571e-03
6.759263367791963281e-03
1.154471100343943020e-03
-1.699978802866263915e-03
2.083298527473151341e-04
5.636006416826557256e-04
3.848634689560326890e-04
5.636766561875820831e-05
1.076774803999838899e-30
-4.417181092068781122e-30
1.397161422136003068e-30
-4.232734170707720078e-30
-6.800046458082764243e-30
-1.615360131694187426e-30
-2.205273385250012696e-30
1.814421619235242827e-30
4.544428602125509497e-30
4.573581159503693343e-30
-2.848804081668723315e-32
-7.430607408854541891e-30
-2.189049164353569760e-30
-4.941154435801678075e-30
-4.183483475593902381e-30
-4.307850426752255295e-30
-1.002833281136645497e-04
-2.195859081109550917e-04
-6.444079219252749439e-30
6.056835666079255438e-30
-1.251315571137217616e-30
-7.101774587238835105e-30
5.657224838817308261e-30
-4.063086652241861765e-31
-3.242449820426770401e-30
4.134856141926950441e-30
1.572539612931364700e-30
4.057263288960497328e-30
-7.618391721066045407e-30
1.066381377531325536e-30
5.973535316496391797e-30
-4.250366921889325762e-30
-4.370329279466463388e-30
-2.480758048565515805e-30
6.989902311707627127e-30
3.382099562029013528e-30
-6.750119067671204782e-06
-2.438864516184390864e-05
-3.264292601486967348e-04
-7.852225498838754378e-04
-1.153361980255678595e-03
-1.436050077026360897e-03
-2.619552342165031803e-03
-3.339382942246141468e-03
-3.671391937900326825e-03
-3.859654173711101182e-03
-3.578966875843087123e-03
-3.334616118079267166e-03
-3.406676390283761013e-03
-2.946123628702037624e-03
-9.964216283837455841e-04
-1.031770332568098490e-03
-1.591236415458896665e-03
-6.449500412340974454e-04
-2.990065905287386913e-04
-1.115324964159000064e-04
6.322366975264247659e-30
7.007048595519483809e-30
-4.551580813830657468e-30
5.164747343224221924e-30
-2.235046180902063119e-30
-3.215926839359824777e-30
1.192214901419577037e-04
-4.236162847383153448e-06
-1.263366273242989574e-04
-9.798300401350205533e-05
-5.647858928864667432e-04
-2.490423565606163323e-03
-4.198672293221158806e-03
-6.799077453071846258e-03
-1.184250413109540385e-02
-1.673760498131789468e-02
-2.419654455157942141e-02
-3.259946123935222873e-02
-4.215215310388244901e-02
-4.935991707391994276e-02
-4.952155532153956763e-02
-4.128103091828749793e-02
-3.181856995906391650e-02
-2.373949346194317508e-02
-1.564218638793662269e-02
-8.179202313434814561e-03
-3.837873014221612495e-03
-1.564797303733101103e-03
-8.861895847076384355e-04
-1.717658369538053260e-04
1.752511917019171397e-30
-2.682384945587646354e-30
4.679988731287109842e-30
-3.876446295843409522e-30
2.626598454690005219e-04
-8.560488082533897951e-05
-1.925007159891399013e-04
-4.541006170073064456e-04
-1.312961185893370434e-03
-4.959023807311320996e-03
-8.654320157506526986e-03
-1.454209382671349006e-02
-2.409678332092708708e-02
-3.413565972865612724e-02
-4.854771456250802503e-02
-6.789262039674244520e-02
-9.116905751318193918e-02
-1.025447769429476130e-01
-9.250464067903188536e-02
-8.115628192877408220e-02
-7.031760275520061720e-02
-5.231803864108137969e-02
-2.730500777661185388e-02
-1.262105403722039998e-02
-3.830149805603995979e-03
-2.502723261588951989e-03
-1.706061564261210275e-03
1.753539562174211077e-04
4.224847146582461852e-05
4.854435478518328063e-30
-2.970151339943688144e-30
5.580695713908637883e-30
1.490527865069922707e-05
-1.881548454379076713e-04
-2.331254840472105321e-04
-5.245788561220564306e-04
-2.928170790674692291e-03
-7.733209116134630995e-03
-1.534344649536506511e-02
-2.660005659214051410e-02
-4.952633004550324736e-02
-7.572842112313137031e-02
-1.095418416510154785e-01
-1.552858229853855965e-01
-1.955768479417005490e-01
-1.898948069364070346e-01
-1.643332957655553872e-01
-1.280995702167089523e-01
-1.032091153545939693e-01
-5.743927719606446020e-02
-1.710296737905560305e-02
-3.406308392904353402e-03
4.756972042273822400e-03
8.153961922087480524e-03
3.391852302379233085e-03
-4.763552193341902708e-04
-3.006630281907714448e-04
-5.115555446416126433e-05
-3.104456950185364490e-30
4.820364821807493821e-30
5.318053185035691625e-05
-1.943160099080507941e-04
-1.267090982639725570e-04
5.772177531381523065e-04
-8.933893009367141003e-04
-8.778557825040909923e-03
-1.718869907478243891e-02
-4.323066133856046794e-02
-8.735742667058059296e-02
-1.397358880640402756e-01
-1.998883526878451611e-01
-2.241098652637483757e-01
-1.862144126008954126e-01
-1.325015114642361103e-01
-8.112777961237938040e-02
-1.850147853420424857e-02
4.650429042403542157e-02
7.988575566570296771e-02
9.640354894045699563e-02
8.132054804852258123e-02
6.053763285697800339e-02
3.845071065754609996e-02
1.036989539252814591e-02
-4.783403122107366193e-03
-1.500443794937703513e-03
1.470518002782324139e-05
-3.071796205348096381e-30
6.675353980577685284e-31
-3.284680350692119116e-04
-8.631840003418424613e-04
-5.385780956213263469e-04
1.250103829323558416e-03
-2.251793749989687305e-03
-1.035695103135514383e-02
-2.110188577895489095e-02
-3.302317465332056667e-02
-5.134818088837253547e-02
-7.805215350228231208e-02
-2.857876411330850797e-02
1.476068587967386825e-01
3.469897654319004099e-01
4.313031874867864768e-01
4.000648626923372086e-01
3.197642095730445777e-01
2.591044895845953100e-01
2.214875583999614816e-01
1.908916372227741354e-01
1.438907292872259602e-01
9.488327827425128980e-02
4.228379812923202530e-02
8.698024956731161689e-03
-4.947982283077663815e-03
-6.060068393020726259e-03
2.600869630841205131e-04
3.655421430165064654e-05
6.561123233155019031e-04
4.397889358692328972e-04
-2.735611878022447489e-03
-5.808896187996273087e-03
-7.101153161855968537e-03
-8.304871977726906510e-03
-8.449521931775689360e-03
4.672977745150345107e-03
3.376816237717623903e-02
6.075658280025093144e-02
1.406814498099850375e-01
3.832722826248520787e-01
6.522252468062521569e-01
7.675956118943442208e-01
7.715192034032708479e-01
6.791920257849392017e-01
5.271244614007252194e-01
3.475453843992493685e-01
2.070470327270836908e-01
1.321611001860719392e-01
9.785081790045872807e-02
5.383443113912030759e-02
5.613549283308201347e-03
-1.634775557945992996e-02
-5.620783924851611817e-03
-6.639091959139236093e-04
3.360013860472851194e-04
1.485501049279845198e-04
4.897173929368940691e-05
-4.756057709577809003e-03
-7.710839606021109745e-03
-1.520884665644243496e-02
-2.118245246975486440e-02
-1.919908650853996770e-02
-3.111898434734443417e-03
3.147107952333453446e-02
6.197003165150519882e-02
9.907671523488353893e-02
2.497588967468970800e-01
4.226170914806939849e-01
4.836047503212733689e-01
3.897726968676946679e-01
2.787419531541493467e-01
2.324625211451790963e-01
2.296832698373179327e-01
1.158421995697305057e-01
-1.483518760969707029e-02
-3.710144534023634283e-02
1.801941279416247044e-02
1.211966816018772257e-02
-2.631636692256794641e-02
-3.050503004695163944e-02
-9.620484542543477485e-03
-1.028373589064226394e-03
-6.414447453073926098e-07
-1.785847733395795449e-04
-1.381214837755962007e-03
-7.424536122149102274e-03
-1.345116432737020369e-02
-1.967122977401183914e-02
-2.787373217325610913e-02
-2.143760226526909840e-02
4.241943422512574704e-04
2.467754148280370749e-02
2.764777588267937694e-02
4.538666622806081241e-02
5.757358791561065225e-02
5.322429112511629229e-02
-4.493167013723758235e-02
-2.134738565264362453e-01
-2.338684391443063004e-01
-1.108608234565931910e-01
2.385539523266654027e-02
-9.368519347525373561e-03
-8.892734180402084299e-02
-5.783297116256224529e-02
2.036802356185680660e-02
9.663529415252015628e-03
-1.978717275435083744e-02
-9.518715714977305301e-03
1.255214926357022497e-03
3.126495249253349916e-04
-1.135130007770325218e-03
-3.649153869753618009e-04
-7.955246545761772599e-04
-5.204998525703954937e-03
-1.233586464799839647e-02
-1.684121413019249239e-02
-2.431239806120934904e-02
5.607897653370437323e-03
3.075821722260111898e-02
1.533310741170906821e-02
-1.641889845233194395e-02
-9.499064503916068714e-02
-1.605375124275582877e-01
-1.913234772423159924e-01
-2.611302474045850697e-01
-2.918298142310950527e-01
-2.472496510546570436e-01
-8.849891036764989671e-02
2.601573109842443554e-02
-1.560763245932306198e-02
-5.448199888727314755e-02
-7.745869888294523720e-03
4.010216886886929649e-02
8.491239382663606783e-04
-1.031393817003274475e-02
4.627673879319773795e-03
5.929339286701073089e-03
2.113838416479818776e-03
1.266554616270306952e-04
-1.320657206620197551e-04
-5.168744665396556070e-04
-2.412880446370310131e-03
-8.238430923843803252e-03
-5.368576007183930437e-03
-2.909661995038298303e-03
4.529400983520386753e-02
7.581588212402644300e-02
2.840634721083961853e-02
-6.068529278460589593e-02
-1.667548103602242981e-01
-1.911103481823104577e-01
-1.943246828719160657e-01
-1.623128933264317564e-01
-9.853248593811744782e-02
-1.701519967014893456e-02
1.023613501251845886e-01
1.190083731474320533e-01
-3.543913872064221606e-05
-4.703841349557039836e-02
1.991488203657480749e-02
2.667747568133761737e-02
-8.322912026698433413e-03
5.558263255154098073e-04
1.221956358824478027e-02
8.911044041974826302e-03
7.036849040018944290e-03
6.938497906710176355e-05
1.551401518367529506e-04
-4.749778361556041364e-04
1.059179211253765069e-03
1.001249182176878436e-04
7.534203666311860455e-03
2.105704439622533425e-02
7.081623054134561501e-02
9.668313533226179091e-02
3.797552196678006392e-02
-6.164904215378372299e-02
-1.453462257464216423e-01
-1.572116965685213807e-01
-1.341886896701739995e-01
-4.774248344588865461e-02
3.121830733249117418e-02
1.078852329967331658e-01
1.903223991094674661e-01
1.462674122756258133e-01
-4.979088467393463779e-03
-1.745894217315810404e-02
3.732251763541033496e-02
-2.965511291027181622e-03
-1.612725920037169983e-02
-3.459567363977778236e-03
1.530013527426572068e-02
7.486909168937319788e-03
3.642848110084147273e-03
1.021187439524083042e-04
6.069126685664122305e-30
-2.512148764343570388e-04
-8.026382543645735888e-05
2.379444111514948462e-04
6.968112361355942828e-03
2.836250322242877403e-02
7.189734227206880102e-02
8.149229063734482470e-02
3.206006000641330872e-02
-1.682050695220266984e-02
-5.928697244037547942e-02
-7.239310308769848767e-02
-5.172321760641289401e-02
-1.032146275507906351e-02
3.090834850734084510e-02
8.340627625146943003e-02
1.191995437316513140e-01
4.321230960142539296e-02
2.999497922697404173e-02
6.016802469149995503e-02
4.604795563564260952e-02
-2.963428620626415433e-02
-3.894022001508172515e-02
-1.240579001185193250e-02
4.631459320635232003e-03
3.844971976280770181e-03
6.936153446409588572e-04
2.439969428306726040e-05
1.396864974347318913e-04
-8.809543614154220943e-05
-4.226161171324038812e-04
6.109027818442953331e-04
7.043127593835286221e-03
2.653917038761417421e-02
6.717007475702446717e-02
6.650500393581136593e-02
3.953677441315204405e-02
1.103331452049993201e-02
-6.985460223113820581e-03
-1.834316373860059302e-02
-9.794912715531950767e-03
-6.152959703932244472e-03
-1.853538407248523159e-02
7.315365016656133826e-03
-1.050997978922038091e-02
-1.822686804959689280e-02
6.658960678917014847e-03
6.843119211920765943e-02
5.491454522629223706e-02
-5.063833769311376631e-02
-4.928867713325630479e-02
-1.901144847349183625e-02
-4.416117037260279717e-03
1.610327320675542266e-03
1.317667249612981448e-04
-1.077630154428464891e-30
4.321055449882402839e-05
-4.625034665096702835e-30
3.112054950995200831e-04
-3.194585750002029451e-04
3.440677065267754801e-03
2.470683552262419730e-02
4.077878851051500164e-02
4.414572507088166536e-02
2.157480066142757058e-02
6.815288540879947676e-03
5.713350994727459976e-03
2.593626714248851994e-02
3.272811445722471901e-02
5.378024444378327017e-03
-3.664568775600626684e-03
9.368375947158884493e-04
-3.768825241171639556e-02
-5.899244269847427058e-02
-4.269584915274611536e-02
2.661896675801537701e-02
3.936263625478027967e-02
-3.810460058999869809e-02
-4.216874623194212524e-02
-1.728166948797410160e-02
-3.795725098644296518e-03
-7.190010752238344682e-04
-2.736108300151541460e-05
-7.546229655416506787e-30
-1.444286961911315454e-05
4.271340318164907635e-30
1.852093731163990595e-04
-1.177570865900171839e-03
2.733398635818879482e-03
1.762507374041907826e-02
1.882505739795221206e-02
1.233730275020219688e-02
-2.499436039690231329e-02
-4.555929065209193829e-02
-2.354153639634239820e-02
9.208657912169229340e-03
1.796112717791836441e-02
3.835791628550043464e-02
8.798493413236503635e-02
6.934955748518208118e-02
1.939211775331920341e-03
-7.245265844796654198e-02
-6.383970238744732240e-02
-3.909376910566230573e-02
-1.691728166465770664e-02
-4.450724240380949520e-02
-2.706340661345402882e-02
-1.026580028533958036e-02
-3.505601393800304548e-03
-1.780228313855158027e-03
-6.071158737054475532e-05
-6.028433533455616742e-30
-4.673528777424645631e-30
-1.299088195233128492e-05
-1.700347120004922614e-04
-9.047681078740007696e-04
3.631302027380290624e-03
1.057690978021677899e-02
8.152093752238954300e-03
-5.388357538499565121e-03
-3.869234176424510979e-02
-8.405693461359105279e-02
-9.430113040061227636e-02
-6.558229563932971296e-02
-3.212128785197834735e-02
7.966938774270453105e-02
1.497771663345093818e-01
9.804250145911634629e-02
-2.820606124959437137e-03
-4.266341378892801045e-02
-7.408322723674259924e-02
-7.451931165860394002e-02
-5.150101708924677280e-02
-3.416510206321225762e-02
-2.029247117873782952e-02
-1.516017924575546912e-03
-7.648613318530552698e-04
-1.175629318438963433e-03
5.479979616391704661e-04
-8.555516336798186397e-31
6.130040052657870785e-06
-8.525266281217406579e-06
-3.215844208528246249e-04
-7.062566091431526352e-04
3.633354000855072621e-03
6.226324273013395839e-03
8.821356592350895959e-05
-3.573868153891187564e-03
-4.190677947641948536e-02
-1.228519674355778579e-01
-1.617818805406660010e-01
-1.568863104736509806e-01
-6.842872463549526385e-02
5.697088071026481376e-02
1.210290106658188508e-01
4.754566396889964991e-02
-2.085181870731050990e-02
-2.128056159609777176e-02
-5.091309631230647725e-02
-7.025951693734013015e-02
-5.816611161608031821e-02
-3.916638997301662845e-02
-1.856703065621463644e-02
3.635244762942402546e-03
3.248302476599396020e-03
-9.288224541106036587e-04
3.357546080521127949e-04
1.452563109163119754e-30
-5.601372497344513301e-30
-5.381762494878373907e-05
-1.266180029874460107e-04
-1.519582024992672869e-03
1.105848640866021956e-02
1.366763377827153597e-02
-5.783949090012790659e-03
-7.997994834914937123e-03
-5.060933570244522534e-02
-1.511832285629237937e-01
-2.303030617120541690e-01
-2.339876496096231495e-01
-1.532481519183356011e-01
2.537379915760926922e-03
3.089206230189821614e-02
-5.740829300683613495e-02
-3.431793005851829781e-02
-8.319362712636104926e-03
-3.083872971719081937e-02
-6.582019685793312480e-02
-5.772654462426310418e-02
-3.904064667517208320e-02
-9.493728997778306047e-03
5.530364730896763538e-03
4.367335576774328786e-03
1.365067371311304647e-04
1.107417072855192106e-05
6.616228735758787935e-30
6.113496167329487595e-30
-4.949412549764434455e-05
-2.045181378017423164e-04
-2.384817353850691871e-04
1.264798958653573675e-02
2.487047641558609232e-02
2.483878462723293490e-02
2.149714857890173969e-02
-3.797261295952610027e-02
-1.642583161377330903e-01
-2.583929437771098625e-01
-2.818028061545016505e-01
-1.504336607516915392e-01
-1.805236376197944317e-02
-7.559364094344378504e-02
-1.429460832178993668e-01
-4.585665820026137846e-02
2.895390363265345005e-02
-1.275054500209952743e-02
-5.893838393356288369e-02
-3.863448288204244380e-02
-1.921861981584050902e-02
7.391585117164078782e-03
4.628454231322456577e-03
9.380110301887094847e-04
5.427615380149496517e-04
1.390403796488352679e-05
2.403637171645289439e-05
-4.200294748096843599e-30
5.491533409670647922e-31
-1.682032602246361259e-04
1.200900905698147961e-03
8.993218272517353173e-03
2.546740149075845186e-02
6.637468108113876719e-02
8.170808483521015131e-02
4.713062085598992978e-02
-8.012022176199380674e-02
-1.960104722911020503e-01
-2.218676018943011863e-01
-1.121729025556791881e-01
-2.812495205615362162e-02
-1.585974197519664231e-01
-1.513914179548856986e-01
-3.573828377486808899e-02
3.791782655928949836e-02
-1.239237896227393318e-04
-5.211499728630510607e-03
-5.705994069612819672e-03
2.297317337643605892e-03
7.881003630428966983e-03
9.646090179340535004e-04
-1.436949334749731922e-04
1.224434436569292592e-03
-9.073304837213898147e-07
3.003845128463360549e-30
-1.869952910795361977e-30
5.499633336677597867e-30
6.215013281222835523e-07
1.346525909378516554e-04
5.373794677368265958e-03
1.981367027957651669e-02
7.179018929175952357e-02
1.405194084470635651e-01
1.710381236408377859e-01
1.202256135652254310e-01
1.301547463912944638e-02
-2.086345021755234980e-02
2.483772182233268816e-02
3.470327751775591912e-03
-2.032034657512247211e-01
-1.094225509515221600e-01
1.083997236436307771e-02
8.057344145427940141e-02
5.486809169982861945e-02
4.497901706595371779e-02
2.346748954709862792e-02
9.763249721667371581e-03
6.175982267820711788e-03
1.007619431436773639e-03
-3.542350773823285171e-04
8.849385773032913700e-04
-1.794558872444247893e-05
-3.590807877759851948e-31
3.191590256936650434e-30
1.398332910511711482e-31
1.534044570579530189e-05
-2.734534441652130177e-04
1.046116078452727100e-03
9.162694889464912187e-03
4.702736358795538835e-02
1.147533499559026254e-01
2.011421600730571857e-01
2.406510827014579912e-01
2.284037830465136254e-01
1.812374272455889446e-01
1.148481845427809372e-01
-3.701726743853826773e-02
-1.083681405250286056e-01
-1.578411047219231353e-02
8.453796803928441406e-02
1.105641452227606042e-01
9.258505721719038906e-02
5.940252005215664044e-02
2.952575687438525887e-02
1.374881670877551101e-02
5.933575235091598059e-03
1.398788052666120798e-03
-9.577787680695075759e-04
5.113275154687917069e-06
1.772802956350887973e-06
2.769414729685781693e-30
-3.795917527544934726e-31
-5.645896461677365673e-30
-1.760843009646919670e-05
1.583577244376259646e-04
-6.127463757736618119e-04
2.648846460934554904e-04
1.397271553222524491e-02
5.819493517300807633e-02
1.281529819971171102e-01
1.994242471443973819e-01
2.445054157196331623e-01
2.488945547626703614e-01
1.959722574385966143e-01
1.041589958943210797e-01
6.092963632355784254e-02
6.645229299714384974e-02
1.219137428641661469e-01
1.399121737150127998e-01
1.033990807010761459e-01
6.085586128810109574e-02
3.336614902957545092e-02
1.884732008070680309e-02
7.027482481315741429e-03
2.715694600804338405e-03
1.947729588183729355e-04
-3.313558563253144921e-05
7.374902507246402121e-30
-2.321098860916693515e-30
-3.595595566420819815e-30
2.136017120162263053e-30
-1.934156960181145733e-05
3.644466085822124974e-04
5.491595197791751233e-04
-4.656403511407882986e-03
-4.335774402605246589e-03
1.251260524906345865e-02
4.246391011744175131e-02
7.835829106744077177e-02
9.728783662619974737e-02
8.943531279680226598e-02
6.300505057625387095e-02
4.394731900164562666e-02
1.562534371165875957e-02
4.503146652093293484e-02
1.034664618484397725e-01
1.089303369119132558e-01
8.025677113510940042e-02
3.957228222912522603e-02
1.809760958034346834e-02
9.220584699885528424e-03
3.715446567404420610e-03
1.170718035143194840e-03
-1.572270878123669809e-05
3.211174810507675883e-05
3.715561567699185039e-30
-7.449888872949239519e-30
-4.527849736613109716e-30
4.959485925226301859e-30
-1.395107804594753102e-30
1.257452775136924964e-05
-6.609465343338375765e-05
-4.718734238988975239e-04
-6.258722630365717507e-03
-6.929665019196655333e-03
-7.022100513714243540e-04
1.614632489642897628e-02
5.457491297905071349e-03
-3.002193390117395208e-02
-5.036440673844698457e-02
-3.035632603245648486e-02
-4.349657322943779880e-02
-1.842574493197380106e-02
7.138622482890198163e-03
1.196579589628428940e-02
5.065656400710964388e-03
-6.670974790402662245e-03
-3.274538766866208570e-03
8.894142581953340832e-04
-1.047797359768550831e-04
3.377140736852477627e-05
-3.463767271761821083e-05
7.036654847151017618e-05
-4.304948673857066532e-30
4.838133396598890365e-30
-5.942984953819076170e-30
-1.172826044785496570e-30
-2.594298875772213247e-30
7.615463697196999324e-30
-1.230612485403329199e-04
-8.907187345836293634e-04
-1.865844878239575648e-03
-2.970493102005894448e-03
-2.052877716519643358e-03
-1.152024109346862484e-03
-9.061518098894228920e-03
-1.494052455175279986e-02
-2.073194264730747471e-02
-2.132759076433700732e-02
-2.396161637755474250e-02
-1.797143557781169868e-02
-1.208924106352128602e-02
-8.660589417767606754e-03
-5.549104586485872036e-03
-2.749739857010170038e-03
-1.257574632782452323e-03
3.403485403221715144e-05
-8.553852494593601073e-05
-8.814218669486258335e-05
-2.018799722958683816e-30
7.109543185859699914e-30
5.464466120659979422e-30
-4.723637089528438854e-30
-3.781984644464098787e-30
2.547910282010711817e-30
3.451947255747356799e-30
3.178046654235501515e-30
-5.510405678567992852e-30
-3.162852764911186024e-30
5.699768873478722601e-30
-4.577578417833093462e-30
1.334209984106696337e-30
-6.306595338206005454e-30
-3.696059915734459623e-30
-3.877174235022277786e-30
-8.853975966485037223e-04
-1.938715427144138128e-03
-1.790733397806757542e-30
-6.850202884752466348e-30
6.681643433227685189e-30
5.859809294311038008e-30
-3.405694883254591678e-31
5.478696050119479463e-30
-5.389176081853552505e-30
-4.037047481334560946e-31
5.481935620881555001e-30
9.362361053119645686e-31
-1.885523649856778993e-30
-1.468309655516857049e-30
3.756004862347887583e-30
9.400083585617439982e-31
2.943399441861316795e-30
7.714049387854046438e-30
-4.980498056175489114e-30
3.987795428856611816e-30
-2.608247966177679143e-05
-7.215631215811770546e-05
2.608504214560344848e-04
8.252425618175140715e-04
6.451425067452345573e-04
9.174278554101570520e-04
8.832103948473116889e-05
2.110662447989584793e-03
-3.840413321181013629e-03
-7.716865565938889338e-03
-1.676714950758731882e-03
2.048848282963937253e-03
4.360289860692171987e-04
3.272116226740435607e-04
-2.112010070195906915e-03
-2.674261086086818489e-03
-1.520645012411877021e-03
-1.617425499070311362e-04
-6.230510963824849010e-04
-7.402736827838694335e-04
4.617202472797213177e-30
3.052623626856967576e-30
6.663660725920905442e-30
1.748145641755083539e-30
-3.444457222195214725e-30
3.502045750045748330e-30
-2.636777427894577185e-05
-3.136159328803436575e-06
3.208243191298349611e-05
-7.131381372815107729e-05
7.012285380232830727e-04
5.001231721736782397e-03
1.122567939080232509e-02
1.261638369130402976e-02
1.602931240536825327e-02
2.621452470286679548e-02
3.318653812324936364e-02
3.676428549675154339e-02
3.398829848018471850e-02
1.696022309803289774e-02
7.830574893938088352e-03
1.206816151373614693e-03
-1.589073242309601772e-02
-1.756328655330641544e-02
-1.113069527121674646e-02
-3.127256591318096617e-03
-1.256301110039766150e-05
9.427254526450163557e-04
1.020029211678898817e-04
-1.122844183142863924e-04
9.530055970695052152e-31
-2.399956853694618197e-31
-4.026892930494470995e-30
2.584855421447157102e-30
-5.809150270830237752e-05
-9.292744448727099124e-05
-1.093180085255835452e-04
-6.430113654037737268e-05
2.933044842121189724e-03
9.320638072246999195e-03
1.404608173889780945e-02
1.584071123972336306e-02
3.061380941720153598e-02
5.272240416313308392e-02
5.996454254501539655e-02
5.878259243584279398e-02
3.825691761209729785e-02
1.818434045820804465e-03
-2.463557995518015839e-02
-3.279730263220955594e-02
-2.722759170366374770e-02
-1.259237097663321037e-02
-5.922363681396819327e-04
1.147829626402945523e-02
9.647653460694308181e-03
3.875744369258044691e-03
4.150086205580517441e-04
-3.451983192957192698e-04
1.030103273026408597e-04
2.805741933193128792e-30
7.352766541582180962e-30
1.993772324226735360e-30
-1.472769307874919908e-05
-2.759686013366343749e-04
-6.391238854256088217e-04
-8.678346034409785545e-04
3.589376008406026768e-03
9.365167141404817305e-03
8.837537949730078779e-03
1.528263581713901718e-02
3.739712248639945336e-02
5.175249504640275916e-02
4.448673976839186139e-02
2.577595134414283756e-02
-2.195124906816463967e-02
-6.884364276821655637e-02
-8.399718817621992795e-02
-5.903074266308024065e-02
-4.044634088462038118e-02
-8.222011366405176588e-03
-1.614201094533163202e-04
6.329323695614519525e-03
1.448854610651563284e-02
4.561521129336394698e-03
3.183676108826630300e-03
1.219933689424329126e-03
3.519490204704124755e-04
4.082532107511155567e-05
1.770070571098818689e-31
-3.276624227133926064e-30
-9.839525551176846359e-05
-5.697283927299097136e-04
-7.820307379291433197e-04
-1.926964796395689607e-03
-1.011925252133887227e-03
4.925949163755245688e-04
4.374052884340022020e-03
2.021268010367270954e-02
3.205781946327127679e-02
4.353039979321476211e-02
1.114403208628339526e-02
-3.993937616886955588e-02
-1.012294344556942116e-01
-1.268468932966071439e-01
-9.438214558948154753e-02
-4.586949973134742814e-02
2.033233603381570144e-03
3.183187743778893852e-02
4.047366215995849142e-02
3.698519035128107479e-02
2.870413041832815121e-02
1.405386948925964503e-02
1.038992640599306801e-02
6.244804212294786418e-03
2.037073321498110608e-03
1.351770733206948357e-04
-4.564987040218945607e-30
2.580903480922267405e-30
-2.879969346997451733e-04
-4.311103270541443030e-04
-2.954384403073957461e-03
-6.949585434500966767e-03
-5.218716153605713198e-03
-2.807897983976367570e-03
-1.080470872382117758e-03
1.836640543674090964e-02
2.619997630504587380e-02
7.645666910023697421e-04
-6.538466300521114660e-02
-1.442164846405285805e-01
-1.875625790461923625e-01
-1.814842328218082002e-01
-1.263222707645882958e-01
-7.548031538495726667e-02
-2.700963666909220878e-02
1.575496264848597408e-02
6.009107130032503852e-02
8.342360995093356379e-02
7.644375552913883209e-02
5.655029922663034475e-02
2.615469774138891659e-02
1.375298628073184058e-02
7.239641778460413971e-03
8.100133560350475251e-04
-6.246031240218050833e-05
-1.075311055954575193e-04
-3.745257185149982143e-04
-2.697993028872038099e-03
-1.128737427583721351e-02
-1.958530618146544708e-02
-2.649758875952022696e-02
-2.891093417653509828e-02
-2.269270592519428975e-02
3.183700796277046281e-03
1.484263652610426408e-03
-3.415466960213766473e-02
-1.144039267019032191e-01
-1.519345369333056639e-01
-1.682946281005963662e-01
-1.295353733083083880e-01
-8.665090223628130195e-02
-6.420688476982648607e-02
-2.969202194181698104e-02
2.415185718865263398e-02
8.279423291058529699e-02
1.285415712294047941e-01
1.282436404374649730e-01
9.132248229624488622e-02
4.281797461163589641e-02
2.066320449353428387e-02
9.864502118112376469e-03
7.766084551329566340e-04
-2.538280780599253277e-04
-5.852158924091863026e-04
-4.495523080833615376e-03
-1.174685155507459826e-02
-2.507564524169383566e-02
-4.477959404782284880e-02
-6.133804425290854956e-02
-6.250232251131392081e-02
-2.933878091473175048e-02
8.061697938237397110e-03
3.055743165807256467e-03
-6.842115300551400436e-02
-1.368566725449531229e-01
-1.629939121534075275e-01
-1.271258253661280146e-01
-5.064490006424886281e-02
-1.757792606336067848e-02
-3.120684991660763533e-02
-3.590240728413978538e-02
-1.144435565951614289e-02
4.032209285080906591e-02
1.092518910567330526e-01
1.212924887967141291e-01
7.804421486434186261e-02
3.930259818470010352e-02
2.341469298509324740e-02
8.109229635718707627e-03
6.015719520923838454e-04
-6.283175412945415060e-04
-1.365988521069900390e-03
-6.958081071122062741e-03
-1.960467736460815014e-02
-3.488296896433141364e-02
-6.111313929618072266e-02
-8.070161798933914166e-02
-5.646480548648333264e-02
-4.011488328395997581e-03
1.440986212735944835e-02
-3.741444655097954375e-02
-1.099102913836451645e-01
-1.616565630059919323e-01
-1.516969002489797214e-01
-8.284990903969584319e-02
-4.409082999506323125e-02
-1.671115931225303566e-02
-2.188053054911651835e-02
-6.426563730641447758e-02
-6.052868864130524218e-02
-2.350986486306426426e-02
6.404271507143678710e-02
7.427538114628472188e-02
3.672250006683808882e-02
1.453614412658590579e-02
1.252662635663442763e-02
3.444013954045454292e-03
-2.467799603258879603e-04
-7.041923117456421822e-04
-1.227719341140934457e-03
-8.066310912300094990e-03
-2.123477647728906278e-02
-3.281832434120377645e-02
-6.315081456274068694e-02
-7.077280430997048843e-02
-3.050233259831620219e-02
2.985679630966415685e-02
2.692786177238570139e-02
-7.255747837634846098e-02
-1.840236884137055884e-01
-2.347726858978267384e-01
-1.848057842060797096e-01
-1.114050650059742326e-01
-8.794804148799227617e-02
-3.408390846110363054e-02
1.363980853261957324e-02
-3.095030340554744130e-02
-5.929124273810576495e-02
-6.738690957075023358e-02
6.904397665629386296e-03
1.908862951326977322e-02
-3.307925904210910870e-04
-1.644431411210669645e-04
6.780154639656567122e-04
2.394099854292891429e-03
2.446794904346342284e-05
-5.122096538338618773e-05
-1.187352647437683352e-03
-6.113746568736938385e-03
-1.777428214667095205e-02
-3.344159300118028366e-02
-5.041975123900363509e-02
-6.087282023394997854e-02
-2.263054820806532225e-02
6.911745377319584993e-02
5.924800571680375466e-02
-5.505846537270612379e-02
-1.915362928618853933e-01
-2.181608333319536019e-01
-1.621980217476496622e-01
-1.064671181129882571e-01
-6.626114502650319593e-02
3.603103058910915590e-02
6.912517345693112991e-02
-8.111604886446423333e-04
-1.213543523835196869e-01
-1.303070797669002578e-01
-4.344951338265363311e-02
-2.158024430042139105e-02
-3.700042817302198316e-03
-3.540851197608181362e-03
2.930762772891083549e-03
2.498159118962518018e-03
-5.559682151422668222e-06
1.522404012793911914e-04
-5.778960635656607081e-04
-2.788882607740527514e-03
-1.218136916565635067e-02
-2.824768384599305945e-02
-3.850606220905569005e-02
-5.461739263701921587e-02
-2.638723504709117665e-02
8.856566536573631798e-02
6.319033528560245860e-02
-3.242973151347471050e-02
-1.539802873011660578e-01
-1.454823247645912476e-01
-1.285451851972405635e-01
-1.067715662863790299e-01
-3.957803315613777490e-02
9.534573946881308437e-02
9.999784527030193548e-02
-5.524515504911270414e-02
-2.562814939074867793e-01
-1.730608038787997682e-01
-3.835256549304691398e-02
1.004861596355140739e-02
2.241463287254764208e-02
1.200526310976519212e-02
5.986882732278696675e-03
4.166614913102341150e-04
-1.803917500558446785e-04
6.961804422159426675e-30
-1.414099376056065453e-04
-1.236141911429805172e-03
-1.066264926325020436e-02
-2.268604322938325840e-02
-3.688264242233539603e-02
-5.469642758309703479e-02
-1.810232795727809499e-02
5.877915016759922145e-02
4.693925966416864076e-02
-3.300390570612091179e-02
-8.533498266151355593e-02
-4.892746583158855134e-02
-4.371631234375561448e-02
-5.517849908152892835e-02
1.556764680060059546e-02
5.142952338456683453e-02
-6.201168533599568655e-02
-3.719483425762188378e-01
-4.275302219426685424e-01
-1.877565650111902851e-01
-6.717413920052135376e-03
5.755440200762840935e-02
4.321332592766288089e-02
2.105226687279154393e-02
4.158790892004275014e-03
1.949641107146811284e-04
-1.178642897180266672e-05
-6.186644999129861135e-05
-3.171924054046529849e-05
-2.424438536370238838e-05
-8.317151621824754940e-03
-1.943173587564028110e-02
-2.868065598046909762e-02
-3.746223104778784174e-02
-1.419920839907387253e-02
9.813889660623345210e-03
1.355164930138378276e-03
-2.512174018252440535e-02
-2.613032974957096854e-02
5.196382837645301123e-02
9.036637590033018419e-02
8.635669590199361589e-02
9.116517722106708133e-02
-5.784915991901863619e-02
-3.886409075801717239e-01
-7.316810623742078246e-01
-5.497794549655237173e-01
-2.324720398797275045e-01
8.479333036628421139e-03
8.992252431485986408e-02
7.011960456348483028e-02
3.259432821226807692e-02
2.508601351331871208e-03
4.695748427302135348e-05
3.358842554941904162e-30
-2.014569847383534045e-05
-2.791096770581466217e-30
1.056797244609239791e-04
-6.370299517510906798e-03
-1.336225415598101159e-02
-1.583540815801007251e-02
-2.796275104481098575e-02
-3.186251908696833418e-02
-2.958302840235026848e-02
-5.141247187722043643e-02
-7.245928884300578687e-02
-3.872797954003370791e-02
7.991140969932372662e-02
1.502835454683569549e-01
1.911630940112278576e-01
2.063886139521465546e-01
-6.349538937086796064e-02
-5.662801329888245139e-01
-8.035982542012132246e-01
-6.777794573323812077e-01
-2.817530542151093775e-01
1.179058027554443638e-02
1.017991144769263973e-01
8.502281771206157690e-02
3.485989169160351453e-02
6.416378773752011606e-03
2.175875686536042012e-04
-7.255008068639017541e-30
6.369012457474896968e-07
-2.469730644591326302e-30
-2.444304227099123911e-04
-4.688448648958534921e-03
-1.062676914174025614e-02
-1.503659125157698166e-02
-2.120043120043726970e-02
-4.082115505256991156e-02
-6.117647418617255806e-02
-1.009543588401012465e-01
-1.370121556879823066e-01
-9.638023352306190894e-02
1.063450922165080220e-02
8.036032142043918192e-02
2.220414807108107846e-01
2.989274974267551177e-01
5.065765661021508909e-02
-4.692885837255784121e-01
-7.427694840104627216e-01
-6.398060795885706087e-01
-2.549717927294916642e-01
3.525453463147078248e-02
1.102324098939073127e-01
8.669242799785746578e-02
3.493997785425585756e-02
7.211267763478339081e-03
3.381538939307541266e-04
2.029564675248337528e-30
-3.329197640865319423e-30
-4.965950125783521356e-05
-1.247327833149346286e-04
-1.291915197099739124e-03
-9.446279567394758048e-03
-9.315296275091996744e-03
-8.674912652349927450e-03
-2.694719860465080719e-02
-4.598163431758525710e-02
-8.647265921626233476e-02
-1.160601068758154303e-01
-9.216601520866485320e-02
-2.539733659220319226e-02
4.292401627695793809e-02
2.216964977284671678e-01
2.918533349654873765e-01
1.038726281588353978e-01
-2.966684850258549111e-01
-5.884006838512914062e-01
-4.780889578376792404e-01
-1.709863301413216408e-01
6.138490622758952658e-02
9.398738230255337944e-02
7.343506796124812941e-02
3.297306305068029714e-02
4.633100067074374072e-03
2.466514021975756664e-04
3.793210795651383234e-30
-7.645739884223189543e-05
-3.258904770045435424e-05
-2.667170033025898380e-04
1.233440711069806045e-03
-8.581524445970357962e-03
-9.102872664144738904e-03
6.920173494999040187e-04
-2.003379795388106517e-03
-2.667090800835446134e-03
-4.032104849343168609e-03
-1.930847210320780702e-02
-2.783742920909273652e-02
-5.356078810813500769e-03
4.956714240085961787e-02
1.665857604832419736e-01
1.794116071362935050e-01
8.487346478172916320e-02
-1.393613131642382763e-01
-3.251517331466216021e-01
-2.787776943726482659e-01
-7.765989432176140239e-02
4.585093004530887278e-02
6.203422805523952505e-02
5.427072963045333209e-02
2.678291790254639163e-02
1.251372546854185794e-03
3.168348458011601169e-05
8.598681067883034374e-31
4.680596115070733583e-30
-3.529727425319706781e-06
-1.074823868850805246e-03
-1.141242061507317680e-03
-9.086075137109411379e-03
-5.075844729315356733e-03
5.164156453322175412e-03
1.222100152750718594e-02
4.221555190815257791e-02
4.400181883151930290e-02
3.955402650588359798e-02
1.849857977834682213e-02
1.922149719008258220e-02
2.518727861987858294e-02
7.400923004840197217e-02
5.545755092833883071e-02
1.165497662374955085e-01
5.354977466317768775e-02
-7.621912802097080553e-02
-1.582453370903273981e-01
-5.969604271765872883e-02
1.501977042900206998e-02
3.291499511520640242e-02
3.388713590818447086e-02
1.528297167801551289e-02
8.709657255939062684e-05
1.132139502402039130e-03
6.129011376014078612e-30
6.264615770117493801e-30
3.986955651916231753e-05
-7.934874574027680604e-04
-1.997810488912240591e-03
-8.480062650507168981e-03
-6.115111772064999070e-03
6.798723160953945924e-03
2.488243736422715915e-02
5.329195299385586920e-02
4.556389020727313194e-02
2.472203493523659340e-02
9.576160822291401864e-03
-1.912836604265508948e-03
-6.859517070058601153e-03
1.142027687249300757e-03
7.413928573366515562e-02
1.949370573334339996e-01
2.347747239971803845e-01
3.470143123451974523e-03
-1.450715415771092753e-01
-6.609177020585789430e-02
-1.412273889763096535e-02
1.043824691408839003e-02
1.507778132336047051e-02
6.877888696218704620e-03
-3.012611091972915503e-04
1.429573167872021143e-03
2.412892483114065860e-05
-5.616963818280539136e-30
3.217870526985100744e-31
-2.243118323746021473e-04
-1.135690272498028446e-03
-6.692228684110653261e-03
-9.589995993288687876e-03
3.524867905575317529e-03
2.963622388896851312e-02
4.731354919472232495e-02
2.413764486216701810e-02
-7.332043683900254898e-03
-2.192856100256491622e-02
-4.152078480595145643e-02
-1.239596802717309043e-02
9.815441047504978520e-03
1.311703965718002407e-01
2.312163748526591678e-01
1.771736443734243660e-01
-9.259262691394361255e-02
-1.251113486311591083e-01
-6.200263453910215966e-02
-1.949002549185795824e-02
-9.186363236740877677e-04
9.496105728570475345e-04
-2.358644611821217839e-03
-3.827065293862431396e-04
1.433103372174600841e-03
-6.213982555995220775e-30
4.451074460646004676e-30
-5.532741606106229663e-30
-1.534225462181257319e-05
-1.058684844228092439e-03
-4.807720950882510454e-03
-7.490750600042592883e-03
4.565114369058403845e-04
1.223430146043073125e-02
1.564904817115723989e-02
2.519119499534114813e-03
-1.592841814502659117e-02
-5.004841429599410363e-02
-6.089399335034913208e-02
-7.375945959912565131e-02
-3.626799991814941282e-02
6.295473455487105019e-02
1.094925264327082232e-01
2.304209298319844640e-02
-1.142511925841765974e-01
-9.333100703798798137e-02
-5.062724989437879242e-02
-1.853645444010911317e-02
-7.608153935171836114e-03
-4.201881402543413725e-03
-1.504694091969013782e-03
7.642714870265713019e-06
6.948073442857781402e-04
7.683865547938949613e-30
-4.185830494906647641e-30
-5.670839229893478792e-30
8.428073545014196164e-06
-1.050744449697302123e-03
-4.554962546527817867e-03
-5.907014178042499508e-03
-6.972789195352845732e-05
3.397810989765966908e-03
4.054961383607385596e-03
-1.402177380643069605e-02
-3.097220535900591445e-02
-7.109857700502265898e-02
-8.649042461064782028e-02
-8.754693994730429474e-02
-3.445142583810846537e-02
2.338275407425361579e-02
6.732295994514894688e-02
3.059553635348399771e-03
-7.436713717529083723e-02
-6.046647856525768500e-02
-3.703328855700167843e-02
-1.658841529143967319e-02
-1.345746640533364291e-02
-6.963667107795916932e-03
-1.213818047774730107e-03
-2.120885435697467017e-04
7.341961398957039101e-05
-5.027544661100891918e-30
-4.841855965332482695e-30
-2.894889642966891939e-30
-8.867357636372869901e-05
-8.415845494652623906e-04
-6.462367030020944826e-04
-5.010797179546771542e-03
-7.205662706007083355e-03
-8.636111744215619820e-03
-9.202020541614477217e-03
-4.782093202809252312e-03
-3.732091892149572848e-02
-6.371380176788947469e-02
-7.588216737069637674e-02
-7.095268309866704926e-02
-4.046246496685544647e-02
1.741666593404209498e-02
6.986903665011247322e-02
1.346329632628058028e-02
-4.057964461373991805e-02
-3.217367196143136598e-02
-1.483282772149558879e-02
-1.189903524558152959e-02
-1.156849141342108922e-02
-7.104564375507114830e-03
-9.017130585863622743e-04
3.035902699710184532e-05
-7.680957477858668818e-30
5.152417811630654040e-30
8.431008173492981884e-31
5.503214689058093928e-30
-6.845963298058423748e-05
-2.964538593688514868e-04
-1.701239405768837374e-04
-2.712243505256357618e-03
-6.698793221538389825e-03
-1.152934253685371571e-02
-1.195341176082258608e-02
-2.103135975624096515e-02
-5.910988942279783026e-02
-6.965563977390086536e-02
-5.239658423000363024e-02
-3.113943231126955341e-02
-1.708544383943950973e-02
4.201932858216292366e-02
7.781755086846399438e-02
2.939364572294949837e-02
-4.120649369740632742e-03
-5.301987162327914324e-03
-3.820450489897216518e-03
-6.583946032954634923e-03
-5.215531114969406204e-03
-2.580867427928870868e-03
2.138770904059095505e-04
4.731066997054759934e-05
4.964367903758517639e-30
-7.655517205256923256e-30
4.891605023941638365e-30
-3.804811375538226874e-31
6.730198362456036793e-30
-3.258726001906714814e-05
-1.246177772483836885e-03
-1.813350665710946469e-03
1.955693534960696936e-03
1.168471327242586247e-02
1.744195076482136716e-02
2.139390883361181120e-02
1.435649049166887181e-02
6.689666120836825283e-03
5.846677112068392537e-03
2.526558855487634654e-03
6.831868251582773333e-03
3.289374544511034643e-02
4.249161259334150592e-02
1.401834506794681287e-02
4.883988857780462026e-04
-2.765275347178896941e-03
-2.511633938931033278e-03
-2.721969830208740160e-03
-2.883544489809574014e-03
-5.005253365144644428e-04
-6.452474087570164317e-06
-3.960980580413894314e-05
-1.075141397915947064e-30
-2.223827695077586340e-30
-2.584503244213768115e-30
-3.502943737498381785e-30
-3.803824913857269153e-30
-6.584707723382333919e-30
-5.386654034167959204e-05
4.302870421757679325e-04
4.615185860043931310e-04
1.548469620335296169e-03
-6.767191291967732309e-05
3.118167220366166643e-04
2.390643114758251968e-03
2.165186400377761260e-03
-9.588096553748605292e-04
-3.326070075699982288e-03
-1.241890260452692667e-03
4.812864160126304608e-03
-9.241673573692023086e-04
-4.045929888615141731e-03
-1.160791313451559189e-03
-7.844457733803555672e-04
-5.998636535488334996e-04
-1.341149148575514769e-03
-2.267296767097067099e-03
-4.179364166790217896e-04
-3.364166086537784858e-30
3.725369969716739440e-30
-5.429359415982516140e-30
6.407464203647483868e-30
-2.677504197468048143e-30
-7.412912380015054358e-30
3.013760471005076263e-30
-2.948368197300081420e-30
5.622957888007944537e-30
-4.411670577776009859e-30
5.933352663012827671e-30
-4.121731232662057365e-32
-6.954084698430468853e-31
-6.453957109992486999e-30
-5.899447104545130015e-31
-5.038744022821096367e-31
-1.835637994873829304e-04
-4.019414230154762235e-04
-1.269419952195651329e-30
-5.742875143451343235e-30
5.586171052912072495e-30
-2.883632161202923411e-30
6.004557987421132896e-30
-1.733605397834779010e-30
7.436940211877059790e-30
7.088173210602543460e-30
3.904530112147695112e-31
-5.350451319257471970e-30
-4.840740378963525763e-30
3.620089576001987323e-30
3.259118388423715293e-30
-6.491697232830172405e-30
1.770000563919389307e-31
-5.329343429418779082e-30
5.104149504183248820e-30
6.622896686161984449e-30
7.633738606116678718e-06
2.728358478839331070e-05
-1.280061502781168351e-03
-3.047777355592939420e-03
-3.666501886853153376e-03
-2.682328083421199952e-03
-3.266920490542093904e-03
-4.694458080544615559e-03
-3.422407017319278530e-03
-4.000621287666351021e-03
-3.717348479206777218e-03
-2.916738883247106846e-03
-1.887874584110269807e-03
1.881833850363083408e-03
2.123516178163199677e-03
8.305490581545291314e-05
-8.289074014825479828e-04
-2.352993813011178346e-04
-3.186204822228644182e-05
-4.351602575292658036e-06
6.508670931645327504e-30
3.762850258901772797e-30
3.510595895979159395e-32
-7.245475230731749656e-30
-4.725980395415185189e-30
-6.932964674417636986e-31
-1.640979132522232050e-05
-8.143224314420868776e-06
4.224411324521598388e-05
3.455089311852016596e-05
-1.445031057001586877e-03
-4.974185169055613150e-03
-7.641691791977601490e-03
-6.167336124764209206e-03
-1.372126429165740694e-02
-8.815961214289649156e-03
6.144318777683918306e-03
1.203096343042888393e-02
8.565291793970107592e-03
9.838785401078041504e-03
6.851888136442487939e-03
8.350618210150338727e-03
4.684461665488972096e-03
-1.277502063039309904e-03
3.482436183490464788e-03
4.960514526993108943e-03
3.988803315178027415e-04
-5.203395919235043318e-04
1.248149675004206005e-04
-2.607594230776383542e-04
8.155957625358784693e-31
1.318112449663660232e-30
-4.740850791196546240e-30
-4.430361205161263439e-30
-3.615282151338045682e-05
-1.727582672650403281e-04
-1.526745943868319853e-04
1.503692321980418722e-03
-3.990421631214953208e-04
-5.216283048009180343e-03
-8.956897807700226269e-03
-9.276618036250494290e-03
-1.746219887263481332e-02
-8.583771916893134790e-03
1.317246777129767177e-02
1.714343574030703643e-02
9.266104603082501306e-03
1.256146834281750974e-03
-5.265007608215796671e-03
-3.095542148419476447e-02
-4.914534169464614827e-02
-3.904019799506584093e-02
-1.472841850311542439e-02
4.979453867052591187e-03
2.334347009102543877e-03
-3.788835429428017180e-04
-3.827786685323862018e-04
2.034666827328139344e-04
2.377548449814114882e-04
-7.425974544745249372e-30
-2.473948079538324388e-30
-6.825369271544927551e-30
-7.846031840772022480e-05
-1.910266205792560438e-04
-6.696785784412017783e-04
1.860733035395066483e-03
-1.083380560352544637e-03
-4.499237650729659942e-03
-4.001760839055994862e-03
-2.257296958652608466e-03
2.778882023439204884e-03
3.019402149295368626e-02
5.294858522081603847e-02
4.770532520365784040e-02
3.841863831722214934e-02
2.954327903590024673e-02
-1.226526412488018573e-02
-5.628556790214023220e-02
-5.929956976123049867e-02
-4.077696464602520443e-02
-1.864344949655812045e-02
-8.749068132269492704e-03
2.675142520779480015e-03
5.555111326018213891e-03
1.910245304208244184e-03
5.101441186949080961e-04
3.952015098682335435e-04
1.111866273179122860e-04
-1.384101517107009522e-30
-3.101593393539859020e-30
4.103016580607576333e-05
-2.749458827294215318e-04
-1.518686772629951765e-03
2.784886719970285736e-04
5.348018215285856155e-04
3.779196311144188396e-03
1.170402799797114722e-02
2.148066677396692076e-02
5.326887440585725830e-02
9.194239510053121844e-02
7.147287628206090704e-02
3.956025942735318102e-02
9.343785520348268231e-03
-4.626519020886443040e-02
-9.554424865463607974e-02
-1.061950533167444199e-01
-7.999300669417641618e-02
-4.479050907252617869e-02
-2.426623403831058845e-02
-2.091616469479747747e-02
-1.746625212195477075e-02
-9.632368241908927445e-03
-3.771161353378733264e-03
-8.856408086745327847e-05
4.000788541640673307e-04
1.386780471126135771e-04
2.691552267062076343e-30
1.569283880985474586e-30
-6.776909842737367318e-04
-7.729862582076498434e-04
-1.038047307492880825e-03
4.945189319561337903e-04
4.478023665915919875e-03
1.627604421001035973e-02
4.383025008381882109e-02
8.172463982791626502e-02
9.417031657169656900e-02
5.831059597462083521e-02
-3.007356595688058173e-02
-6.962732007075046747e-02
-1.245423619814713112e-01
-1.421348757853377054e-01
-9.989382888169258401e-02
-4.399129117917355974e-02
2.361436665239672120e-03
3.114456989104761458e-03
-8.808373213052195227e-03
-2.251861811240549183e-02
-2.158903836505037671e-02
-2.366078006505977979e-02
-1.544953286442357979e-02
-4.240916331827764008e-03
1.286316664515852956e-03
8.494207580970547858e-04
-1.253624602479913706e-05
-2.120992049831620530e-04
-1.094037870051027496e-03
-5.125699672913816736e-03
-9.119481071793087562e-03
-3.954162533434077940e-03
5.289822892696768517e-03
3.675013060614028271e-02
6.685601791482403966e-02
7.239378984881572610e-02
1.639781165927053919e-02
-8.197155620406967880e-02
-1.302074636786516582e-01
-1.213695650540177057e-01
-1.256586566158595375e-01
-1.191570025759871726e-01
-5.776559565847722011e-02
1.077664572092408221e-02
5.276202784532085105e-02
2.120233674180264233e-02
-4.776053374508680734e-03
-3.087751995887325421e-02
-2.631671105750721038e-02
-2.330033488235963568e-02
-1.711266087895711024e-02
-5.770509838898051774e-03
4.168999214818554060e-03
8.055381599172882446e-04
-5.094517001567309039e-05
-1.015973908504595865e-03
-1.080793522404444821e-03
-7.893223548956615834e-03
-1.226510542374555264e-02
-1.120269235555946749e-02
9.379613245299176991e-03
4.632258738391255293e-02
4.710937472519866748e-02
1.093546994190979036e-03
-7.564297656028368122e-02
-1.229977670016661057e-01
-8.317713038892035615e-02
-5.075306238818715066e-02
-4.529883629621218183e-02
-2.227577791993463202e-02
-6.316608398609247638e-03
1.934640638097881449e-02
4.482679511821048568e-02
3.331547984027487253e-02
-4.815981044146658112e-03
-3.675590102127963138e-02
-4.216752955007942866e-02
-3.463221189199270494e-02
-2.380301886729623007e-02
-6.420694447024727358e-03
2.911001707002807727e-03
6.537756700329653030e-04
2.136590590572431134e-04
-9.168945456529510119e-04
-2.823462424187298241e-03
-8.943670596793936237e-03
-1.306289909543127160e-02
-1.431504900940762035e-02
2.503742829036704077e-03
2.788940633300837288e-02
4.744120217441985207e-04
-6.209732660068394833e-02
-8.060131884575336136e-02
-3.177746971855377467e-02
1.502738903802778442e-02
2.603724128945733400e-03
-3.907249403466283438e-02
-4.582468057411028667e-02
-6.808890474999423903e-02
-4.366929425144091409e-02
-1.274347503819391698e-03
1.359449357310802374e-02
-1.243554447335345169e-02
-4.902343528622622737e-02
-5.489209519172465884e-02
-3.275989356524618840e-02
-2.133137448503862055e-02
-9.138874543881958523e-03
-2.126416165839163045e-03
-2.671952881828221888e-04
3.771729831657075378e-04
-1.410632338908929825e-04
-3.335535965847744814e-03
-8.292553576333254808e-03
-8.830652135146241019e-03
-5.444889984847437608e-03
7.600251343111021941e-03
2.844206058618036371e-03
-4.356434486166949061e-02
-6.313630772334412333e-02
-1.210587879174495132e-02
2.389331387943781360e-02
-2.305166438838313764e-02
-9.867584163944070896e-02
-1.138364719546238607e-01
-8.940545940162780703e-02
-8.282369392711412537e-02
-4.145989906540190062e-02
2.742039808617035765e-02
3.154386170847699872e-02
-1.228226783274049758e-02
-4.861279306044287429e-02
-3.234949436590939947e-02
-8.491831075174833404e-03
-1.122090064481979198e-02
-6.195413169268922972e-03
-2.279758845604535830e-03
-3.592804480728379094e-04
1.833621838161615756e-04
-8.934718233922707452e-05
-3.175563236785406990e-03
-4.490490588394228065e-03
-8.352628745088207241e-03
2.412103524428638234e-04
1.802527730540886761e-02
-1.736589683698538727e-03
-4.265406349981158002e-02
-2.053954571264216683e-02
5.776950574942756739e-02
1.990349589187763446e-02
-7.880347193398236361e-02
-1.302013268686293135e-01
-7.839205585851000135e-02
-4.977863300688330911e-02
-2.260439813941856821e-02
4.249014468344951972e-02
8.298857664199295325e-02
5.714482872574054573e-02
1.826461705200033495e-03
-3.449127653686404754e-02
-1.137572653773955868e-02
8.593499224751511775e-03
3.183913927679950674e-03
-4.153117891156466769e-03
-1.067934710332687403e-03
-1.605534397814011483e-04
-1.104244996540955490e-04
-1.135529579618527142e-03
-1.543885188883064620e-03
1.200710527696597046e-04
-2.786789451631354730e-03
5.922881953122335029e-03
2.812459665125521119e-02
1.687762082398885921e-02
-1.684440407058371281e-02
2.924760494973310809e-02
4.629166005159224273e-02
-1.075776102074106448e-02
-1.100455758294883735e-01
-1.093008383544833845e-01
-3.768368366243257661e-02
-1.365905648573264859e-04
5.837267578910355914e-02
1.191737668336272232e-01
1.158122250368780470e-01
6.460521523463749749e-02
-2.116512545197265019e-02
-2.578527708290076492e-02
-1.942027750699807254e-03
3.867326410008314983e-03
3.271240863627375688e-03
-2.627469356149673453e-03
-1.073091574441431681e-03
-2.692505483442032268e-04
5.692237476045470956e-30
-3.527826922923976141e-04
-3.413517399185264786e-05
2.141956622877072385e-03
-9.847126275930701781e-04
1.391748976270867043e-02
4.287956181004064227e-02
3.390124124135647510e-02
2.157621549189105842e-02
3.789433462846336642e-02
1.072735343197961204e-02
-5.388860495824503855e-02
-1.267640742734705284e-01
-8.746047375364049414e-02
-4.020862611814650205e-03
8.374361737539866291e-02
1.525466490671999187e-01
1.469186915224851286e-01
7.901980949571159318e-02
1.582512693524961572e-02
-4.257379377395102693e-02
-3.308251032181271437e-03
7.292083830122545775e-03
1.002169648929514094e-02
3.424655381848020191e-03
-2.339706878323772211e-03
-6.458290537956182416e-04
9.980396800736020405e-07
1.361058319075098379e-04
4.014036406087655704e-05
8.637782447941108133e-04
1.709481291671347339e-03
9.040944862927954547e-04
1.348348998184030478e-02
3.056296293351574989e-02
2.964141141031514243e-02
4.682665092993402306e-02
3.818685728518150108e-02
1.505643694917500712e-02
-5.626679206573435149e-02
-8.584388981465233825e-02
-4.507886626973391098e-02
2.700566549716432521e-02
1.175403474838747353e-01
1.368326961658619945e-01
7.749389815222408606e-02
3.620605486538157336e-02
-1.179929205695682062e-02
-1.011599651302831811e-02
3.684583284831338679e-02
3.211354438846963921e-02
1.553246639236550465e-02
3.168386916048493603e-03
-1.880347068395389273e-03
-5.467487073105267758e-04
-2.566938257121483279e-30
4.287413806284389578e-05
3.251058647090953589e-30
6.080194397964669385e-04
7.358999990539420418e-04
-2.779410781511227539e-04
6.748142481020250050e-03
1.002948202443638276e-02
2.442289936503278316e-02
5.244428535490794352e-02
5.671904604741385275e-02
4.448118174546460829e-02
-1.400420107477264725e-02
-2.580732071362187158e-02
-1.419182766276659569e-02
2.659239982413163020e-02
2.962582459872325352e-02
-2.160930206697950565e-02
-8.756051256035148056e-02
-7.085964887860655981e-02
-2.519968440140776811e-02
3.649986707004564124e-02
7.973229556732194800e-02
5.524228829045608330e-02
2.063589407572648596e-02
-2.161048612449317438e-03
-3.970509705036712710e-03
-3.511626826972923305e-04
5.647111164652863263e-30
-9.665647508293448011e-06
9.092964767310672361e-31
-4.422933354251053906e-05
8.604123553507689532e-04
2.012260763972792508e-04
3.297627068169714688e-03
1.652472983214937300e-03
1.370914581559105026e-02
5.132625136036657321e-02
5.533773698606649083e-02
4.080938672196114669e-02
-6.479736176855547397e-03
-1.626540614807702595e-02
3.994384978774263156e-03
1.888296830422469749e-02
-7.599365945386939158e-02
-2.564667678347544166e-01
-3.733846557002498678e-01
-2.169156174907879986e-01
-8.471625606158484506e-03
1.024351492486811621e-01
1.261136789569875516e-01
7.131319769254904073e-02
2.673637659264255922e-02
-1.278410944053657303e-03
-4.260867698538085661e-03
-1.294193672665521606e-04
6.423638410902728572e-30
2.717698575910814180e-30
-1.763317328832822155e-05
-3.671512884478963739e-06
1.468076060098627046e-03
1.063113037759098010e-03
-5.001687010584134584e-03
-1.256882289287668784e-02
-1.374746952150451146e-02
1.544981624441791462e-02
1.271652661106876039e-02
-1.194655299043843703e-02
-4.741481089814357508e-02
-2.747282465397293469e-02
5.759476006675087745e-02
6.034194273558139698e-02
-1.568030359511725369e-01
-5.379319658708624496e-01
-6.347269182891027706e-01
-2.774917162985391372e-01
5.668186574179792658e-02
1.933248285694270097e-01
1.644772270305314976e-01
8.779574070512981276e-02
3.135014217527081620e-02
1.435014626679660286e-03
-4.106499652253021125e-03
-6.547046981491315898e-04
6.152728075879300717e-30
6.523934456446531509e-05
-1.157176997046539719e-05
8.238463094185245067e-05
2.270231743466204558e-03
3.457745879528923132e-03
-1.844025983355611353e-03
-1.636419614613243007e-02
-3.237953215147779118e-02
-3.122892298147915760e-02
-3.758904056930119364e-02
-7.975547440257876874e-02
-1.002383132825200862e-01
-1.983139785370891667e-02
1.306958886360033989e-01
9.008785100734220674e-02
-3.051309239537603468e-01
-7.862517081552894416e-01
-7.052325428238245264e-01
-2.215040671213481249e-01
1.786329609053195766e-01
2.717765766426570861e-01
1.806630373522806754e-01
9.244413865945541597e-02
2.517470910396529468e-02
4.282162510688882623e-04
-2.074380117520935492e-03
-7.208759101764029408e-04
-2.620702267878123385e-30
1.049516771441156771e-30
3.566600264880965643e-04
6.829072081995767865e-04
2.791158191404825763e-03
6.672799724754491756e-03
4.508922906730182534e-03
-2.113458638201922216e-02
-3.770381145149311053e-02
-3.430551445592307930e-02
-7.289714529284926914e-02
-1.125756000830662740e-01
-8.229019439077361886e-02
3.883060181075929929e-02
1.869755203125331444e-01
4.997265564420346612e-02
-4.858331043738225441e-01
-8.564488592383208143e-01
-5.819218042028958537e-01
1.437730281696916745e-02
2.909559852821771431e-01
2.840342586475368414e-01
1.621275987381546324e-01
7.484137902275973808e-02
2.097911455045946283e-02
-8.033517742717724563e-04
-4.835420790314489331e-05
-3.160034847045532715e-04
-6.174615833214320896e-31
5.608270608095275132e-30
1.497142946377973518e-04
1.046477868737673029e-03
1.607178421666095392e-03
6.147719926759886121e-03
2.694394564425540289e-03
-2.711110235078201952e-02
-5.000707873115416147e-02
-6.678671894839321999e-02
-9.990186509903241363e-02
-1.355945730421593276e-01
-6.267733720184265334e-02
9.737108547714291851e-02
1.873092358527615187e-01
-2.577204369173186072e-02
-5.205256533881774672e-01
-7.022802208313849714e-01
-2.366986369459266326e-01
1.833969524916546356e-01
2.993545729064008287e-01
2.475719057819945335e-01
1.254425279339475563e-01
5.014868372352646042e-02
1.234156279825803643e-02
3.764630757311194401e-06
1.911114791304232641e-04
-3.856844692467686821e-04
-3.935870826099556577e-05
-5.237759152925063670e-30
7.878087379784443099e-32
7.255393055481084959e-04
1.262618938426578489e-03
3.554295915120443249e-03
4.231768278865058984e-03
-1.782742475296119136e-02
-3.628729822656291681e-02
-6.451768510474478746e-02
-1.035579425897385358e-01
-1.380839237988691348e-01
-5.133173993483280267e-02
1.356129929516064758e-01
1.765601156560874518e-01
-4.600121628915729982e-02
-4.337480494038442047e-01
-4.248432565234697700e-01
-2.165241082334543390e-02
2.156293841098672059e-01
2.631301743453371422e-01
1.767337874468652981e-01
8.209567568934658666e-02
2.978006681131694158e-02
3.529867101268985719e-03
-9.176800052988619717e-04
-5.178488469710724931e-04
-4.437922380035397101e-04
9.199226312749427299e-31
4.656022612667523116e-31
-2.462690851086263526e-31
7.202584804781681448e-05
1.085012760732365772e-03
2.048623236220247206e-03
-8.798562000542751614e-04
-7.029139813251371847e-03
-1.212306286768978850e-02
-3.876769294480775924e-02
-7.701720996856614709e-02
-7.859607467980339601e-02
2.698741597638417214e-02
1.615427272137908155e-01
1.212583426788524654e-01
-5.831268742269320182e-02
-3.328882044584997035e-01
-1.938000214254010645e-01
6.284082854466604973e-02
2.012200403425069006e-01
1.866254092505433837e-01
1.067597649645553454e-01
4.541803086388933319e-02
1.414726440725155160e-02
2.457537970042390578e-04
-1.140432952547301487e-03
-1.243365416773407200e-03
-5.615414017978825455e-04
3.150014693177589669e-30
2.788337366022398118e-31
5.195989420266719147e-30
-1.712459970957274676e-05
4.191350625908805624e-04
-1.331769916155083663e-03
-5.762530178306324649e-03
-1.315733312140071089e-02
-3.350321670292207444e-03
-7.508933165878682939e-03
-3.101559053230296820e-02
4.962921705737871267e-03
1.304372290346076380e-01
2.014114854593943293e-01
1.517062129566916495e-01
-7.344419210036078061e-02
-2.478013031080865125e-01
-1.194466563315294411e-01
5.044041828772747454e-02
1.324559187091576551e-01
1.074867608222140752e-01
5.429055634682148496e-02
2.006999784979574333e-02
5.127188084586976717e-03
-3.524703998799063871e-04
-1.103697250367972719e-03
-1.313839472002339146e-03
-2.623180699531041729e-04
2.116025858012167055e-30
2.442173176062904234e-30
3.475747246490733780e-30
-1.799767185010624519e-04
-3.895135318168143506e-04
-2.847812273778395267e-03
-6.558736301212873127e-03
-1.013350604691593687e-02
2.173143918772624597e-03
2.116271114903621117e-02
2.993980588218883229e-02
8.443830335347213278e-02
1.500484455281408946e-01
1.421304338101450904e-01
2.952322218955157410e-02
-1.643442402146077785e-01
-2.109485979577721826e-01
-1.217242282553030880e-01
-1.075846244736666617e-02
5.648789110316840972e-02
4.969040770752915226e-02
2.291108197802401922e-02
1.105197842006651852e-02
2.605205516972317580e-03
-6.628847657702105121e-05
7.827708938142451806e-04
-8.029531526713805508e-05
-5.973512297888849533e-30
4.307384270944087477e-30
-4.285821339417520724e-30
1.680552890929818425e-30
-1.015902682680516174e-05
1.060064215240098646e-05
-2.830976993558535055e-04
-3.014721828523990888e-03
-2.487432890469224757e-03
9.787634520553983516e-03
2.825507461898854253e-02
5.800729729009693192e-02
1.251238094838477977e-01
1.933750785127789640e-01
1.665221910037544550e-01
2.240605500064420455e-02
-1.165887571663266481e-01
-1.480577339186506247e-01
-1.212521605948976844e-01
-4.288817567326245334e-02
1.944497312857071392e-02
2.483176400075681745e-02
1.652657873583213491e-02
8.742566540933688693e-03
3.275356091935931625e-03
-9.139659386476158324e-05
1.777037544662632299e-04
-3.296928078906803124e-05
-3.217554010905776930e-30
-1.515695860977220470e-30
-7.069208937517551158e-31
8.699223069720560470e-31
3.488448349496631323e-30
8.476594842944723803e-06
-1.218814451342309829e-04
1.256429355464131262e-04
9.947311409879394228e-04
1.987649117738840565e-03
1.004297271393655121e-02
3.091613385782424062e-02
7.465657608419680458e-02
1.063614440170961711e-01
7.026087345238124504e-02
-6.337087719756493050e-03
-5.445605250124385677e-02
-5.652421972726909272e-02
-3.418902077027415748e-02
-2.346605468369305884e-03
1.550518630365511734e-02
1.575291207297883564e-02
9.299112687556993981e-03
4.479190806604301661e-03
9.423270771435600596e-04
1.813824894439553957e-04
4.581100434604851563e-06
5.253995172762676585e-07
-1.988561178473582417e-31
2.114389843367048932e-30
-5.020608785201298906e-30
-1.060638645505032576e-30
7.627878218933447748e-30
6.559816986606149916e-30
-7.804847216493718959e-05
-6.907233722926392830e-04
-6.553819545646162809e-04
2.380450384943938317e-04
-2.900712985067269677e-04
2.079557655123475974e-03
7.069431498019019405e-03
1.043238231118660125e-02
8.753147588301689666e-03
5.180015768191602830e-03
1.989110208663502806e-03
-1.786849639198105980e-03
-1.720775799998259170e-04
5.149585018539612480e-03
3.969043957537055946e-03
1.715517751510896869e-03
6.593191830457658352e-04
