2.075369938286758489e-10
-5.108829020126397131e-10
2.387334483013132423e-10
-6.757024922955430194e-10
1.268142926914097673e-10
-5.890831094467658852e-10
2.761555560136952671e-10
-5.277072588367510273e-10
-8.584115968798877879e-10
-4.159954267965625682e-10
-8.183441033273057378e-10
3.900776386176783093e-10
-1.425197266909418404e-03
-3.120691257524320968e-03
-2.979032623661616402e-10
-7.575706654836890975e-11
-2.575704889961549414e-10
-6.333707624153017622e-10
-9.954377125708921932e-10
7.549925641190894016e-10
7.402300629345447103e-10
-2.654533730040108957e-10
-1.045010574511896690e-10
-6.782823771016610189e-11
-5.819427818449786233e-10
1.764438455261787739e-11
5.369922410012349998e-10
-7.962948801659707108e-11
-2.937060974490490853e-10
-7.424139345637674615e-10
6.860221152091351302e-10
7.477191660704014719e-10
-5.967342925758254606e-04
-1.801533246213697127e-03
3.128954264979848590e-03
6.505086922690165793e-03
-1.678393815386260146e-02
-3.039130034735209110e-02
-3.815435542264614122e-02
-4.481803476286862209e-02
-2.447633872569615274e-02
-8.176312887569360532e-02
-9.803852526924745903e-02
-9.841881151423391427e-02
-7.555514522587664095e-02
-5.576018167023878702e-02
-2.902935652757728663e-02
-2.404796174965034491e-02
-2.563394831818092620e-02
-1.464181000057104311e-02
-7.383607388463938681e-04
5.646559306296965002e-03
-4.140778374706630722e-10
-3.027235213460450892e-10
-8.044635906168246517e-10
5.611786118598928922e-10
9.857450507843265634e-10
-1.011185977937297530e-09
-4.357619167533769512e-05
-1.722570685495616307e-04
-4.661484699367930348e-04
-4.244053311224598411e-04
2.608724424001630446e-03
3.890720134322364632e-02
6.047514470653928519e-03
-4.284277085386084538e-02
-4.610348144302199754e-03
2.417298443663816465e-02
-2.956047318746508543e-02
-5.028548716880804764e-02
-9.067589302267267670e-02
-1.426914311008611047e-01
-1.770635058690798458e-01
-3.022039690393473199e-01
-3.720738188170061855e-01
-4.089650215520362897e-01
-3.148895973508877288e-01
-2.309686142390075525e-01
-1.410557194850950713e-01
-4.531359928551040306e-02
-1.107104015604100204e-02
3.422031517053308446e-03
-1.458059404788967785e-10
4.255920343491170046e-10
9.649043244895210782e-11
7.000905571213440753e-10
-9.600327562863797805e-05
5.030969190908712169e-03
3.744475333169544184e-03
-1.090900021008233724e-02
-8.339218613808756231e-03
1.583826125753506897e-02
3.057911903584002722e-02
3.671709326179744409e-02
1.213715284600234839e-01
2.133951120473970980e-02
-1.442866626718333767e-02
5.961001706314199289e-02
6.879408516814612684e-02
8.376264100860786321e-02
-2.009394289655489774e-01
-3.969658079133683293e-01
-3.272329998618956348e-01
-1.519372382194882354e-01
-7.923133793170102079e-02
-6.360940986168989175e-02
-1.181776082752475088e-01
-7.341683905748871974e-02
-9.880179729707370267e-03
-1.753988430051402203e-02
-6.878247856841089060e-03
-9.471906889421516843e-10
-6.882181914736951870e-10
-3.967638322634903939e-10
-9.654655502244745844e-04
1.943527733891730388e-03
-1.093125982419987548e-02
-3.487914719392487539e-02
-4.637068765871781018e-02
-2.269582410617881213e-02
8.345865419728964313e-03
5.233570856558841106e-02
2.614306746075167193e-02
3.468862777829308935e-02
2.633807524531107599e-02
1.266571627696598812e-01
3.231690869351793588e-02
-7.837292521748374929e-02
-8.281547106013431581e-02
-7.104592192409933671e-02
-1.755290952424145429e-02
2.052109684410089938e-02
8.289229393190167272e-02
3.550956307561685399e-02
-7.420413320138690566e-03
1.793328790355420629e-02
2.127447370090179354e-02
3.922989612249054570e-02
4.199220524403588645e-02
-2.009369842289273483e-03
-6.093576353478610498e-10
2.285030140003234091e-10
-3.477593743520729971e-03
-1.205179885719788327e-03
-1.100041922590883937e-02
-6.136167903682182567e-03
1.395011876191165796e-02
-8.428845018391610197e-03
-1.851572770403222060e-02
-4.222364535852492912e-02
-3.478815372632258762e-02
-9.527282389690286749e-03
-8.301569261225344269e-04
-1.012495270441091388e-01
-1.178558031170206244e-01
-1.440464422716963566e-01
-8.679678752208275228e-02
-8.634275103125660378e-02
-5.032931239810042173e-02
7.341572414125455137e-02
1.242913262937490014e-02
2.619796006050575162e-03
2.446226427266467301e-02
4.582461871084032856e-02
-4.192033495336567467e-02
2.397988520845269547e-02
-2.501965371430597482e-02
2.839418041284210662e-03
-1.437520560177782235e-10
6.420730266889788053e-10
-2.680094569795613956e-03
-1.861500015112060868e-02
-3.378008450398999052e-02
-3.714731324612827873e-02
7.448979102082176063e-02
-6.544338504536610646e-02
-5.236259938837694271e-03
-4.525723279366108270e-02
-2.152250293266007308e-02
-6.355111079077507830e-02
-1.204022117231344641e-01
-1.129357811475152767e-01
-1.669585276250716843e-01
-2.226135030479864940e-01
-7.055544560082223360e-02
-1.165726605680117572e-01
6.568909274450768221e-02
6.576720765535193358e-02
4.993926530008548775e-02
8.387160645213864382e-03
-7.248354035774589275e-03
8.942839730229327697e-03
-4.586548774851910426e-02
2.378028640366849217e-02
-1.637932669074317754e-02
3.941764748225596443e-02
-3.964794966068716561e-04
-3.360455516564446639e-03
-3.301402004521565570e-02
4.063168290165226210e-02
2.643791126444056810e-02
-4.479047111635774125e-02
1.077202764618887844e-02
-9.342830889896405755e-02
7.948466362719139311e-02
1.013216618501885935e-02
-3.154250098576038761e-03
1.045417407944649463e-02
-8.050007519246420162e-02
-3.914557124102913122e-02
-1.924357605306388774e-01
-5.796393556195571922e-02
-5.548867839044843014e-02
3.363680902562421471e-02
3.919919626704407994e-02
-8.541855549211978954e-03
6.105341865937258944e-02
7.613084441537574729e-03
1.574727044354002183e-03
-1.443823201487577645e-02
-8.574204939791276250e-03
1.782195303352554147e-02
-6.783719644322390441e-02
3.143892758370912810e-02
-1.611224063133196447e-03
-1.647657420713335638e-02
1.868591388286907143e-02
-3.167026608641000662e-02
6.445747842529811478e-03
-1.033159738686376811e-02
1.897270615775269870e-02
-2.074621439704917719e-02
-9.697769257446213617e-04
5.432135513784934477e-02
4.840620019444979993e-02
2.255504301807770978e-02
2.331176127746899598e-02
1.615226237129213996e-02
6.690999807548041189e-02
5.442566376410747087e-02
2.409470672828828430e-02
1.813368286881628447e-02
9.470950856440805976e-03
-3.004892455746267094e-02
-1.242424585963826551e-02
-1.792862185746136802e-02
-4.005233858862686930e-02
-3.081828032289997063e-02
-3.149854295878422999e-02
-2.492256116124285520e-02
-4.866759572035125186e-02
-1.746861437439541087e-02
3.197196998204671937e-04
-1.348030003422263402e-02
4.888828377940132586e-02
-4.906787475854298801e-03
-4.122523932840113647e-02
-2.119423113132474362e-02
-4.950044522479743470e-02
6.536577296842454058e-04
3.100728077472968483e-02
3.524690445274464290e-02
7.383059192640288593e-02
8.967374759382849836e-02
9.735226985721955051e-02
1.269932114785009003e-01
8.748987184959196306e-02
1.113908075582041440e-01
6.639599903509052492e-02
2.306246427520998801e-02
-3.916137672265298381e-02
-5.726474483772847623e-02
-7.906911920339800004e-02
-5.687633165756483117e-02
-3.530518370627504926e-02
-4.079187498344391538e-02
-6.104036190664186706e-02
-3.211009259308525432e-02
-1.134281113340580988e-01
5.905058355459689816e-03
-5.000540971067367075e-04
-2.977176087667866150e-02
2.967065558666906813e-02
4.400008352285796065e-02
-6.270507230823760270e-02
3.637435777540665854e-02
-5.007165028138132502e-03
1.607583790210121572e-02
4.400799831112346683e-02
8.305188472756371010e-02
1.552471941282020963e-02
1.089908733652029393e-01
7.462746426644827069e-02
5.646607996766889181e-02
8.428595401503717610e-02
8.516867445427904471e-02
5.890297396403700730e-02
3.465243026095813500e-02
2.121594437938230729e-02
-1.041458924544665446e-02
-1.151328365792884771e-02
-6.058519494079697698e-02
-3.022338802133107613e-02
3.431768233519074535e-02
-1.107322567689928046e-02
2.430386367209355636e-02
-9.730661260786252487e-02
1.749628624242246036e-02
-1.115861893112842038e-03
-2.922732867060399975e-02
-4.758251594908005644e-02
-5.484560165795422659e-02
2.286399164329686734e-04
-2.946785129405362497e-02
1.469077596108659366e-02
6.290384163067294643e-02
8.487443942279580822e-02
5.230288771039941220e-02
4.800074207689956907e-02
-1.229934553779875490e-03
-1.654097762183922432e-02
-1.351587291177904285e-02
4.906736147100123485e-02
2.406270693399545010e-02
9.601004184221058335e-02
6.809055302168749713e-02
6.510273855563621093e-02
-3.022894179891865568e-02
-7.403880485174942072e-02
-2.578941511163629005e-02
-2.605609296199640906e-02
4.006375456849907424e-02
4.514846053353685496e-03
-5.457594657234907110e-02
3.596772781785037999e-03
1.301787355809241528e-02
-1.179934134126845585e-03
-8.105271428475340975e-03
-8.114699110803344495e-02
-8.835508036905331819e-02
-2.637542188364197862e-02
6.284941970138489820e-02
4.628307869388511436e-02
2.773648279606634806e-03
6.080196089382668839e-02
4.635371926705906392e-02
-4.008476480397309832e-02
-1.239689917408789283e-01
-1.423278086864929737e-01
-3.172274289377823020e-02
-2.816176639624339700e-02
2.781023221708925006e-02
6.292939187568540038e-02
9.218093896277437804e-02
2.254742115093606378e-02
3.071196929057690150e-02
-9.206229911399466115e-03
-4.982615890125802888e-02
-2.802424263474061900e-02
4.906140692448364080e-03
-1.097607872225491756e-02
4.598495006363461507e-02
5.465736535548227498e-02
1.563633342860251338e-02
-5.280569235467388659e-11
-8.481661253707425659e-04
-3.202329658007767917e-03
5.380921112764434910e-02
-1.853556778167387425e-02
-3.558981828245667139e-02
1.286701928274515058e-02
8.136326257333331702e-02
9.371284663254322855e-02
7.073597233659766059e-02
-4.178276354261133835e-02
-1.339657234226873106e-01
-1.587804898670697740e-01
1.974747559570066285e-02
-2.351017178275850630e-03
7.387836504332365162e-02
7.695075370577951490e-02
8.918909886253270636e-02
-7.912983673748801711e-03
-2.099291419569515246e-02
-7.107129624111500898e-02
-5.356911005102366237e-03
-4.334152325355244278e-02
-1.118103313535707549e-01
-5.803616005030223790e-02
1.075342649756528129e-01
6.507726073946233647e-02
5.370531483763492375e-03
2.759079704530111553e-03
-2.939044015687076669e-03
-4.127874945338411150e-02
-4.717503607969030649e-03
4.976970144561479459e-02
-2.449868856677687654e-02
5.783830757247667570e-02
1.084734118157473642e-01
6.167587161920298072e-02
2.454975352928938023e-02
-2.204810172668086529e-02
-9.220336560643353774e-02
-5.661714321752254336e-02
1.366121448447021013e-02
4.941659925540840825e-02
6.505716486854590253e-02
2.051780997410316554e-01
1.247213092391525890e-01
8.974355970261900517e-02
8.609722091402266173e-03
-4.396926883921944973e-02
3.937253588815088634e-03
-4.503065248071703996e-02
-1.103744431922676350e-01
-1.379282337511124612e-01
1.332169509320004538e-04
-2.438815450734603714e-03
-1.640000568255433983e-10
9.297309445819744098e-04
2.274788001332389747e-10
-9.388996286849724676e-03
7.817621907625653746e-03
-1.279838209308775676e-02
-3.327182706626814063e-02
1.846617268552624286e-02
1.024038639419989037e-02
6.427849349492852082e-02
1.079337712140473193e-01
4.260521528404353359e-02
-4.869562503167649929e-03
1.281910048474041268e-02
7.520450950548204956e-03
1.720780485602804374e-02
7.204830709790707721e-02
1.485157897377232805e-01
1.287685905255136765e-01
8.138288529017599637e-02
1.528791829198524995e-03
-2.502723680556869987e-02
-2.234863067462891997e-02
-1.447571754646390096e-01
-7.818487319896538779e-02
-9.384195958729703302e-02
-4.314494038025613876e-02
1.854283280625915057e-03
-7.642519973879153245e-11
1.503756134154207085e-04
8.721660777499219193e-10
5.329674070482640080e-03
1.611008855399175899e-03
-4.069358348064000541e-02
1.046158990401074157e-01
6.922850298767410475e-03
2.781945626997244653e-02
1.266678361896570737e-01
1.130548770057796665e-01
2.084374029127032332e-02
8.045123074473717328e-02
-6.179757434449176939e-02
-4.769080590690069621e-02
8.738052358300217592e-02
8.668501059019118049e-02
1.388072956498655197e-01
9.377598743775023005e-02
3.575666682435102439e-02
-3.222457700047443724e-02
8.028063878496359551e-02
-7.028821659648225133e-03
-5.073758248246802022e-02
-8.990443508456923138e-02
-4.962859769088018291e-02
-7.817247214218886464e-02
1.241801908248571160e-02
3.869866500456124882e-10
-9.735920725212794533e-10
-4.511424382735632998e-04
8.354314136218746190e-03
-1.582517427694926995e-02
-3.806869487391575935e-02
-3.947422099734484990e-02
-1.680056621116205184e-01
-3.174351678270903587e-03
5.234824278165747108e-02
3.783394033307983795e-03
7.164179370380334422e-02
-5.542771092931721849e-02
-9.619045794061122090e-02
-7.074133359916677521e-02
1.480565263523732911e-01
5.505617537512012827e-02
-3.196464150038524910e-02
-5.505832742478754260e-02
-4.347387771747759228e-02
-3.048032467188452332e-02
4.179169467693698986e-02
-4.598153043889924296e-02
7.886564146235139003e-03
-1.514871227242642338e-01
-1.252926004720009145e-01
-6.049880999779984336e-02
1.219271792059063025e-02
-2.712493179554461402e-10
5.358163440668105727e-04
-2.960627143730818877e-04
1.738722676967575931e-02
-2.253182081675264223e-02
-7.900988490458139835e-02
-5.986858057696017865e-02
-1.192394539042198887e-01
-4.509094199769177885e-02
-6.515454641362672383e-02
-2.968431876725993127e-03
-9.140581658307932178e-02
-8.469281843891331152e-02
-1.636189009343345935e-01
6.633273009215513716e-02
8.499094207759796960e-02
-1.586974344586651207e-03
-1.011816530433156808e-01
-1.794296617756005185e-01
-1.770181244327914682e-01
2.125269722961147315e-02
8.584883129685677572e-02
-9.553365163409245631e-03
2.900433975788663243e-02
-5.638772600371254329e-02
-1.284549372287984992e-01
-2.651558938395784382e-02
6.298782810071672233e-03
3.027091706714799728e-12
-7.401446328828436909e-10
-8.805908740714756336e-03
7.163732855652118515e-03
-1.446835255211398850e-02
-1.305990657477090712e-03
6.545387836961628208e-03
-1.071604152197022652e-01
-1.189234164626652018e-01
-1.219385743213383944e-01
-1.575228706124367495e-01
-2.615458604801089715e-01
-2.773592842465203434e-01
-1.550184447868386828e-01
1.646712627683420693e-01
2.864367811021293828e-02
6.709056959178365254e-02
-2.845134023420926028e-01
-1.948627587900769731e-01
-1.654669442869590723e-01
1.179230609124251039e-01
1.248263208934797253e-01
9.756964167825614431e-03
-4.437842459014925550e-02
7.763948639513736094e-02
-6.218799211782983366e-02
1.063297681985646802e-02
1.623821562201395105e-02
1.011858745081816798e-09
-1.950961291184687412e-10
-3.634813512617972569e-03
-3.502011445386619265e-03
-1.431659076890629510e-02
-3.579794404102717726e-03
9.942549563121102010e-03
-2.353011575550164117e-02
-5.590042770754793250e-02
-1.185928407467356643e-01
-1.473258114442015654e-01
-2.892798100993732024e-01
-2.706769222089411286e-01
2.279339339351904858e-01
1.508861801666546709e-01
1.985870917824872628e-01
-2.744131272774023161e-02
-2.099875509057776701e-01
-2.882376793249386004e-01
-1.177440137424136529e-01
1.683572171254480443e-01
7.815647578265441653e-02
3.624653995796129485e-02
2.012664110979884777e-02
-3.742456591729063659e-03
-3.211932455613048659e-02
-8.740539832225729597e-03
1.657565349355448470e-02
-1.281172306774110148e-03
-1.613709682566657921e-10
9.223563948195715144e-10
7.502814378681292064e-03
-1.027090956812531063e-02
-2.480505767960392710e-02
2.576781888278245267e-02
-1.253918594455962279e-02
-1.302259677260720130e-02
3.197298268343250205e-02
-5.217866275937130954e-02
-1.303288500215189216e-01
-5.194307352537574918e-02
2.359569103490646580e-01
3.152409140720796032e-01
2.985803199989928713e-01
-4.644263289958988628e-02
-9.584102525649061677e-02
-3.125522868204345106e-01
-4.154155212391379831e-02
1.080979737112155448e-01
1.021532567874279679e-01
-1.253206808909326613e-02
-8.251788127971421138e-02
-1.621423792800000610e-02
2.188967486396719826e-04
1.406250559666229367e-02
1.583047858205142294e-02
-6.195883351198822051e-10
9.103958936273280952e-10
-7.666310451544382091e-10
4.947603397798551982e-04
-1.026193138903292064e-02
2.539926205789533060e-03
1.613768716530815037e-02
4.097301541865353003e-02
5.190828304455392256e-02
-1.224761956721333875e-03
-2.716456764834706758e-02
2.836117163144400571e-02
2.308725652512377269e-01
2.317638742212372593e-01
2.547865407742020416e-01
1.792453126333113655e-01
-1.178224317706891427e-01
-2.174899490999886442e-01
-3.922399301847763753e-01
5.608176933485659738e-02
5.115509456927917753e-02
3.430680060877208670e-02
5.255030792140059914e-02
8.407360632437105297e-02
3.183124334096472385e-02
6.035217878082863724e-02
2.036297641051446755e-02
3.161351880678923629e-03
1.020994087243143739e-09
2.680342924189783799e-10
-2.753175739569209451e-10
2.676394320311019804e-03
-9.806437550309125839e-03
-2.606153427734023489e-02
3.275493879847366820e-03
4.277662282475055283e-02
-3.680160170219359816e-02
3.299019831347339837e-02
1.358694990436951425e-02
2.233845190643305445e-01
1.452262543962748453e-01
1.491904633988688222e-01
9.767536159790653205e-02
-2.300995566951938298e-02
-1.426257526086941729e-01
-3.486573300366935801e-01
-3.207106991904892235e-01
-1.138472258251054109e-01
8.604488231121258657e-02
1.012953786560113478e-01
4.238040713713277230e-02
9.455560839527396566e-02
-2.023680498455972254e-02
1.714262959590223678e-02
1.128056020115736227e-03
-4.574923933462581699e-04
-2.025977726805795575e-11
9.037639700707156639e-10
6.060161792226123354e-10
-1.654490193202305063e-03
-8.282867746513598514e-03
-5.195385554871112532e-02
-4.423086095277133090e-02
3.322285181371190110e-02
-4.831049991375995639e-02
-1.603097092538193630e-02
1.041476540609293927e-01
1.964885756661710614e-01
2.351101772522448674e-01
1.398186766174716322e-01
1.065274910946441833e-01
4.145933150817851520e-02
-1.371001814700336108e-01
-2.900539662413912922e-01
-3.369436657464093265e-01
-4.903882708523818468e-02
9.111454318750401848e-02
9.758024582888726040e-02
7.270025320302456184e-02
1.982127592399442889e-02
3.946422795272238465e-02
3.218607699229111135e-02
-2.709771515870930316e-03
-3.280772852466523043e-10
9.337098805078487340e-10
4.355134789836102196e-10
8.227876329218553494e-10
4.291597315821386887e-05
-1.288953411264109894e-02
-4.930394198072399203e-02
-9.183232710343069982e-02
-1.058498656390957360e-01
-8.547880596502056838e-02
-5.140153076153736178e-02
3.143079878981084457e-02
1.305758565863517351e-01
1.620145870250934983e-01
1.417284105187071319e-01
5.844816383148423306e-02
3.792704006101947634e-02
-3.787541814077597518e-02
-2.297637090444856200e-01
-2.625430978928199877e-01
-7.365889549315603191e-02
2.564873287897689522e-02
1.670082754431091374e-02
2.448918388681879318e-02
-1.090328212913136210e-02
3.169310952086193140e-03
-9.179484901879964714e-03
-1.639622635135094559e-03
-1.017990836540844763e-09
9.296361681992291573e-10
-7.611989627111511875e-10
8.823425752333912526e-10
-4.603892978562755539e-10
-9.514526679770991813e-04
-2.780099682989645160e-04
-3.134172841732619326e-04
2.399451641149938017e-02
-6.787873907136404705e-02
-5.413791995402598978e-02
1.335028773352996967e-01
3.167959604490237502e-01
2.750116735727807793e-01
2.664527205688350664e-01
1.781742388225493468e-01
8.664512725446714067e-03
-2.941441251923761213e-02
-1.837888707919237419e-01
-1.400002155321118658e-01
9.559729308517563029e-02
-2.162113925046580190e-02
1.397682495513590147e-02
2.626855659149277683e-02
7.579949165823340884e-02
1.118323678024185988e-02
-2.191814906451035154e-03
-1.591382956540786321e-04
-7.407514221571003727e-10
5.813879362047101854e-10
3.404278563599530048e-10
-1.005790347372158456e-09
1.595942214082906525e-10
-5.959322597924717224e-10
-3.204760470793336247e-03
-1.495972149018082870e-02
7.766851154624246530e-03
-2.695626326564424169e-04
1.064051170659428315e-02
-3.580091153842016038e-02
-8.423051526645190801e-02
2.640940541049567603e-02
4.500305045892689232e-02
7.789564396847174776e-02
5.452578929329762736e-02
-2.936321086457097541e-03
-4.709060387085858140e-02
-2.909447711668992215e-02
2.868999396826482640e-02
-3.424060550313381968e-02
8.743089729123767334e-03
5.139709672929843043e-03
4.811534615080069466e-02
6.304999974964043893e-03
-8.614209159757608116e-10
-3.763607237319810327e-10
-9.268843722045442130e-10
8.834097337530265820e-10
-1.686199091128972814e-10
-5.174899654491570956e-10
5.056402371054385665e-10
-7.051541686800209081e-10
1.148650573549933967e-10
-1.290355345985193227e-10
-7.532726235982542896e-10
-6.565861861351905863e-10
-6.547827042927877090e-10
8.146906131244073356e-11
-4.499918792638253991e-10
9.303384217401822557e-10
-1.114677880328647118e-03
-2.440758179079890577e-03
8.618985900346291840e-11
-9.884978921380021055e-10
-8.562893357025786561e-10
-6.617807995553580681e-10
-1.719081328291101261e-10
-9.760839285054979793e-11
6.652018214091323444e-10
9.127477507739269139e-10
8.654024096575280076e-10
-4.263741096185884972e-11
7.368066887919643421e-10
7.510279804174436630e-10
4.751861252335162874e-10
-7.279578322939541159e-10
6.485982437626860269e-10
-7.922534445079220111e-10
5.875341500530679958e-10
3.631135173816305109e-10
-2.789866505215889093e-04
-1.044787545067810478e-03
-1.374875000313354433e-02
-2.899809759090854130e-02
-1.517843454996485424e-02
-8.817380922048040012e-03
-7.418077178527346383e-02
-6.943762783459903054e-02
-2.007642085027016438e-02
-1.050122295083750767e-01
-1.203775773233888846e-01
-9.350210688685667293e-02
-7.230351939374374259e-02
-3.371271799021586385e-02
4.719686376503840104e-03
-2.661157013501773850e-03
-5.897796851341380493e-03
1.922530511630975505e-02
3.935669043202857237e-03
-3.265666698831576342e-03
7.900447736718292454e-10
1.009528993552850101e-09
-5.585131337433255767e-10
3.211706759471738067e-11
1.287272660774069829e-10
1.020739138767686205e-09
-1.306840170210849840e-03
-2.208767561791660544e-04
7.185103011395446194e-03
7.695310120397549046e-03
2.797371780180624504e-02
-2.662776057874487526e-02
-7.049921775711791294e-02
-1.501404342090498917e-02
-5.506969417473285555e-02
-8.572118945058020134e-02
-3.084697957807333232e-02
-1.672818782959155023e-02
-7.304944224241632922e-02
-1.847845926295169083e-01
-1.098569417025584138e-01
-1.939560067721676218e-01
-2.650442273492830125e-01
-3.013587613926720921e-01
-1.816368544561244303e-01
-1.093946070460777714e-01
-9.327882030876250008e-02
2.294375893477560574e-02
1.894970909859182776e-02
-4.577132013498430921e-03
6.844051167201370467e-10
-9.432781087444390205e-10
2.309601216288468274e-10
7.106073161194159976e-10
-2.879131918107017112e-03
-8.871009093266117931e-03
-5.957522242124977871e-03
2.683592407621649550e-02
7.506498931273497890e-04
-4.168404533633309622e-02
3.380460329246466611e-02
2.549412363562288814e-02
3.257054583845836460e-02
-1.188497639390442449e-03
-3.138654382755306366e-02
-1.570203407817983010e-01
-1.290978232107335526e-02
-7.173648762047614598e-03
2.209070139079527539e-02
-1.895847631854694071e-01
-3.415073844218977084e-01
-3.132236529383010670e-01
1.275568194428723309e-02
9.354121869096676534e-02
7.563082777083343471e-03
1.039340138237045547e-01
1.086608548456432510e-01
-2.751224458588279881e-02
-9.659336642931694999e-03
1.021410331355198239e-09
7.983922720535376511e-10
6.202873549649607739e-10
2.850626904594509418e-04
-8.599407183246442210e-03
-1.099247960675328942e-02
-1.964155842311423802e-02
-1.622297452123997938e-02
4.202273120288768649e-02
6.899770254009679471e-02
7.557778294631506411e-02
-1.645831657916077551e-02
2.306431601778030985e-02
-5.534496639021443259e-02
2.863101829903262271e-02
1.231373769883744723e-01
2.478922574285388064e-02
2.933119619084991261e-02
-1.671712584632353837e-01
-1.192858607110019176e-01
-6.935977373223775611e-02
-7.478355575984069192e-02
1.592765856902226759e-02
-4.752116629541627835e-03
-5.192782307391246438e-02
7.489801839363136038e-02
-4.596121480459173375e-02
-7.875122357316310939e-02
-1.235514156319023754e-02
-6.551822591612915323e-10
-2.381658333806406863e-10
-2.222218036343908982e-03
-1.333683018837181601e-03
-1.055338301760083176e-02
-3.578033343756051310e-02
-1.155415195162809439e-01
-3.009815264175305996e-02
1.519189719333761956e-02
-5.777350797204749283e-02
1.871485844088328215e-02
-8.864184876830339885e-03
5.125794451016618507e-03
4.859779212058210063e-02
1.193842144997584419e-02
-9.398809288086724945e-02
-9.790877208739481863e-02
-2.648487824080947295e-01
-3.106264072645479324e-01
-2.570491947508393715e-01
-1.516440101615319502e-01
-1.353738390088645716e-01
-5.941592066474464529e-02
-1.182788021506806647e-01
-6.601750477411594265e-02
-5.946598913564413863e-02
-4.828210488681151935e-02
-1.903480792420244108e-02
8.507005569031480572e-10
-7.975102681610203678e-10
-5.481210868602057066e-04
-8.581172419413930644e-04
-7.457653072318290964e-03
-4.328737634116365464e-04
4.603194057738284328e-02
-1.164337803097671709e-01
1.710781967131873998e-02
-2.513653093692585702e-02
-2.688095004787666858e-02
-7.681630854984666801e-02
-5.891500163542409685e-02
-4.331230988564883921e-02
-8.156464851237267555e-02
-1.583852619431093955e-01
-3.094578851993031732e-01
-3.356356731124333082e-01
-2.702120133748047159e-01
-1.452023990203334392e-01
-1.252423050088601331e-01
-6.527015021257899507e-02
-5.521219901859902163e-02
6.252423932970407883e-02
6.588674133074937100e-02
-1.422301299969788886e-02
6.042574230293770027e-02
5.222685261372917581e-02
-6.103147255906387183e-04
-5.961747528003234764e-03
-3.072664844483713811e-02
-6.042612236089216909e-02
-1.644640767590045682e-02
2.257294724866627453e-02
8.151740476337263064e-02
1.161139731012819920e-01
5.672570404412598070e-03
7.173943996521688071e-02
2.641443622733499058e-02
2.761664187901850462e-02
2.403378510062774420e-02
4.841838228881741035e-02
-8.844824538302034633e-02
-1.453247304920947114e-01
-1.726756939973080884e-01
-1.977652215613509845e-01
-7.642949583888035414e-02
2.959673598048256915e-02
3.250735635737441592e-02
1.998766427886290442e-01
1.441030993583947428e-01
1.981738063465762201e-01
7.516306781830058015e-02
1.112762645678228024e-01
1.678683115204469833e-02
4.045116384085249012e-02
-2.480218253585349947e-03
-1.262907708523073984e-02
3.987598092783106035e-02
1.760155617605856223e-03
7.826197900065523516e-02
1.109675327992467181e-01
1.155858071062944442e-01
4.576562329197313844e-02
3.613248248288141590e-02
2.648337486146429970e-02
6.076474169258910124e-02
1.498466634002437736e-01
6.663530956072188927e-02
6.126011338257565837e-03
9.331556455420676743e-02
2.632112142265865054e-02
5.880996617874099941e-02
1.831893823187105974e-01
3.256216577741845586e-01
3.124832790886729605e-01
3.856776081258589950e-01
2.516867809013301205e-01
2.154151660908253385e-01
2.181097091187799153e-01
1.436959389357109484e-01
1.110909935865631165e-01
9.325279096538706403e-02
2.778739688572781294e-02
-1.628972252988117450e-03
-1.787856733274123186e-02
3.915340719256312635e-02
-1.674273712417549426e-03
1.007906581094003690e-01
5.500584467953527346e-02
1.074071600114043373e-01
1.468957119721307639e-03
5.547648693658721597e-02
5.835070532331455839e-02
2.998256918792801054e-02
6.672254201075308866e-02
8.149377029560281316e-02
1.595360583967441459e-01
5.846189651301163248e-02
1.686137288939575651e-01
1.457690129394173528e-01
2.024888759022324680e-01
2.616532051733773678e-01
3.263267228795577735e-01
3.337024975749606770e-01
2.352932516549162134e-01
2.579652146757591691e-01
2.492061910735916541e-01
1.096051016314941173e-01
3.563399246782344987e-02
3.730297742694860946e-02
2.138656968761496260e-02
1.744374283349959306e-03
-1.803343015749902384e-02
5.689936645655117517e-03
3.098374817394752845e-02
9.286311474415126499e-02
6.353886810496485460e-02
-9.849931159389259741e-03
8.470437617900219637e-03
4.911995605215648160e-03
-9.655687841562449192e-02
7.775414234568396588e-02
1.594931761406788440e-02
5.720813258064848250e-02
4.849157494483194442e-02
1.584785056259725711e-01
1.205774713457781894e-01
1.552215845120256676e-01
1.646631992433484071e-01
2.995887910843382240e-01
3.351785465681448861e-01
3.305183337941598465e-01
2.530521540022827032e-01
2.101499395246191337e-01
7.177652290442612659e-02
8.757644376501312958e-03
1.043728163760267169e-02
3.101634749597187435e-02
8.086354903392774240e-03
6.935619354187774668e-04
-4.442499669518738814e-02
-1.986008883725840987e-02
1.242369028317043614e-02
7.254703029765785516e-02
1.114291877770944433e-01
-5.276376417239568573e-03
-1.472182489779510356e-02
-2.995584392778641303e-02
1.067831913565983268e-02
3.566759563024313445e-03
-4.650016584452932450e-02
6.517524440940725139e-02
2.380236511981068115e-02
4.504192561320839033e-02
1.445892394682305772e-02
-1.930461879686895532e-01
-1.692745854027974117e-01
7.971763527911548226e-04
1.761731173186731336e-01
2.198515198862945885e-01
1.402504069444712731e-01
2.099251590717214344e-01
-9.899968255829864547e-03
4.353410242657542763e-03
-4.304789148246375430e-02
-2.428609228046775884e-02
4.512193285176256154e-03
-2.252211641178689192e-03
-2.690669588730953271e-02
-5.095819764059272838e-02
-4.972782139656617417e-02
-8.897531310747868599e-03
9.369345693527633689e-02
1.579570223749162186e-02
9.009141265861518588e-03
-5.524612269444695994e-02
2.057768213335777613e-02
5.923298126567904179e-03
-1.461069004070603833e-02
-2.477354960637171560e-03
-1.794597273609610175e-02
-1.939207349766586957e-02
-9.786100558743665578e-02
-1.637039077903847950e-01
-2.499085611770907045e-01
-1.629129963191941199e-01
7.681852254359237964e-02
1.476494018593319524e-01
2.227847433774117758e-01
9.397689384917333466e-02
9.942859775823965907e-02
9.740068031014115224e-02
-7.041471754971617703e-02
-4.126895207927653436e-02
3.828257696361727128e-04
-8.926860568322188598e-10
-5.264860744111159521e-03
-7.083175378509558306e-02
1.149636097397531767e-02
2.943057983582167761e-02
-3.827209706944570411e-02
-1.519874677521216785e-02
-4.008796290135391294e-02
1.915836905148685793e-02
-8.183774179487170175e-02
6.742233453986247460e-02
1.025226052449388220e-01
7.704699902978567883e-02
-1.402617819289136807e-02
4.540748111861167557e-02
-1.201321402046792025e-01
-3.182737266200388881e-02
-2.558343205584280300e-01
-1.655118497363827212e-01
8.137344323370536425e-03
6.678269933032376926e-02
1.019545535718367063e-01
1.940587974783787931e-02
-4.574563684259952412e-02
8.891395047485915748e-02
-1.783849399282613074e-02
-5.267942675244377537e-02
2.451009809295052501e-03
-1.661221872741207480e-03
-1.456318045766167397e-03
-5.741435911316478125e-02
-5.500931580267412626e-05
-2.632530724110466666e-02
8.614359960994423526e-02
3.801244569990017835e-02
-9.303928067607082630e-02
5.660423712707506744e-02
8.444600646760912210e-02
1.346622441089268263e-01
8.801194296655638627e-02
2.099148894304591895e-01
8.454748832903231925e-02
2.469148157063893664e-02
7.958976728361169539e-02
-1.182458346299829210e-01
-8.956421026718136558e-02
5.364037205142106746e-03
4.014301199917993251e-02
2.423316970734754744e-02
1.320855802155310177e-01
-4.208928779474421095e-02
4.835666192194852664e-02
3.990011957755259381e-02
9.849715954188917322e-03
-6.631983591015654100e-03
1.265513448956787336e-10
-2.592731360097769774e-04
8.846143081823220725e-10
-9.146546284889520151e-03
2.087530065680536992e-02
2.697032073844194897e-03
-2.356833576832171456e-02
-6.383361365894300865e-02
1.577674855614589686e-02
-1.865351192337607114e-02
1.233697918675562971e-01
8.451902506959044215e-02
1.622904943181577853e-01
2.386439115643047282e-01
3.962885380343296113e-03
7.081263147408918546e-02
5.183006897039819233e-02
-1.591042082548640990e-02
7.440193769454862827e-02
1.555340685220773025e-02
8.466692503676864767e-02
8.639779661127082455e-02
6.643831412965062189e-02
3.258102660067248302e-02
1.555592135904196663e-02
-3.104185563404962545e-02
-3.091059154176992868e-02
-1.057278601890032296e-02
5.827932786634998223e-10
1.626668414090831020e-03
-1.938136588944263437e-10
6.217186659157598709e-03
8.180184985132299413e-02
-6.249666648846078504e-02
4.563576196317023492e-02
1.831480967558728537e-02
5.148035998809772501e-02
9.254572191966320416e-02
1.054344371222618454e-01
4.917571305363428041e-02
1.404589070507989423e-01
1.066076505397985930e-01
1.854083117434044900e-02
9.970500364665887960e-03
2.998389823127068157e-02
-2.400072607722697829e-02
5.169331918115587995e-03
4.521130979781153719e-02
1.451805611906582527e-01
2.445257775640506323e-02
3.158857305191971332e-02
-5.874912585935302550e-02
-1.689665188460854825e-02
4.866221766359710849e-02
4.308644482864634750e-02
-7.809467755773891878e-03
-2.763651383192907042e-10
-7.559515270691349481e-10
2.219698261567824241e-03
1.890017363742140270e-03
1.865640358732704659e-02
-1.578429013316302865e-02
-1.324149104938755327e-03
6.273529608005162794e-02
1.284137559857025795e-02
5.253835397783450378e-02
8.899900283455325356e-02
-8.984593983871275169e-03
6.924924026661880005e-02
-7.992328000207689354e-02
-1.008040817997383487e-01
-3.017273692240868624e-02
-6.513780643482479371e-02
-6.232190450581945318e-02
4.102804988706827694e-02
4.465824200436210173e-02
5.128940688352708749e-02
4.940660542492476132e-02
2.982292647340291369e-02
-5.777233453020676895e-02
-3.917268695419288266e-02
-1.471420681764704606e-02
-6.842936046554362779e-03
6.337781189630701563e-03
-9.392243638072853485e-11
-1.480392772455699961e-03
1.456677057222630469e-03
2.140881422552777177e-02
-5.698528759137132943e-03
-1.696826443639793888e-02
2.460464183282509362e-02
6.772395447763090992e-02
1.434883406422789720e-01
1.607083271757888399e-01
1.241623730985746826e-01
3.016461079534992276e-02
-1.308183589099507493e-01
-6.840314956043720696e-02
-1.559702816866876396e-01
-8.957340508475732099e-02
-2.991972623496715923e-03
2.898069570401785519e-02
3.559506282991174372e-03
5.430266630191472182e-02
5.020737128199145166e-02
-2.501140397573864416e-02
-2.607088648412360377e-02
6.183056610003534806e-03
-9.013894019783515177e-02
-5.469375801232547601e-02
-2.355568176026238449e-03
3.468263201352217960e-03
7.523839932251904756e-10
-5.509768553695255102e-10
-6.958919170756193949e-03
1.202522368590967609e-02
-1.305190662576588903e-02
-1.004006157507841140e-01
1.057533609568905436e-01
1.046004963793178005e-01
1.457118024864428596e-01
1.196581980122423117e-01
1.196638080083423650e-01
1.378532320654954624e-01
-6.474635521939937910e-02
-1.804662919101911456e-01
-9.545140575983979137e-02
-8.959594789107558355e-02
-8.066134097974110573e-02
3.402473873816893018e-03
3.271740020193637105e-03
1.216971045918578166e-02
-2.929063422261814556e-02
-1.816577423741429220e-02
2.774060544374171156e-02
1.059294811316948554e-02
5.965695391629617650e-02
-1.435639029120100961e-02
-6.502873173946002727e-03
8.171147569697860200e-03
9.289413520751128638e-10
7.787303076487166651e-10
-2.556046518115300415e-03
-2.861477436505037702e-03
-2.726900967940581663e-02
4.591371523504707286e-02
7.005951131061950721e-02
6.598951456189008913e-02
1.934837377432447048e-01
1.175019660694921059e-01
2.003100637059777867e-01
1.125887660253926947e-01
-7.944729436423122668e-03
-4.529488422153077343e-02
-9.182591704823069023e-02
-3.451578734996778308e-02
7.421369125550898727e-02
5.729452895643042266e-04
-2.874998344917986323e-02
4.303252191611457028e-02
9.010541004216176403e-03
-1.065055811814627973e-03
1.323674717888074226e-01
1.444834593358849950e-02
5.452002303130139282e-02
-4.257560678471593307e-02
-2.032429062946852424e-02
1.376940707521924490e-02
5.677528379439926789e-03
-9.453934234878648665e-10
7.557360717440894212e-10
2.523213939853180695e-04
2.610682022111727313e-02
5.041792857486078472e-02
-3.456783064305771203e-02
7.468922370139600975e-02
1.289781069179599671e-01
1.563671485227609292e-01
1.841377771386221718e-01
1.264869783112834156e-01
1.084821607180410652e-01
4.474187917919011243e-02
-1.749379798059949934e-02
6.113069908257057206e-02
9.191458464057755684e-02
4.189779302499726382e-02
-3.347941716526039307e-02
-6.320841250807772427e-02
-8.380799021312888494e-03
2.781656718012466556e-02
3.415275211356817026e-02
3.700699354810187830e-02
5.447531665036029619e-02
1.381395366505266779e-03
-1.743207344352712754e-02
1.196276492012829894e-02
2.514779255769309264e-10
5.593699868147315263e-10
4.059107831522123901e-10
-1.391568567131980575e-04
7.496002806111162764e-02
-2.057588656890553883e-02
-2.214564414913314586e-02
9.109621704063991521e-02
9.057946910492994941e-02
2.268972720857529921e-02
6.789566274887766373e-02
8.010961024149548804e-02
7.553328817392403194e-02
-7.893471641037959037e-04
5.451013648581592291e-02
1.580561552387547142e-01
6.694080323653370246e-02
4.544714387353462198e-02
-1.008686180398812166e-02
9.579218168930600519e-02
-2.442124340275828032e-02
5.753295879621415920e-02
7.113086910300646382e-02
8.752963610634731384e-02
1.063986955437854764e-01
-1.135638186676819414e-03
-1.229153898489471729e-02
5.011683151162061450e-03
-8.290915862828156891e-10
4.737336209309516331e-10
-9.104790077905555832e-10
1.902478577815580737e-03
5.337097486261774965e-02
1.259596382134254774e-02
2.966504587755938380e-02
-2.011425904572960652e-03
2.806846334003908552e-02
8.106405888468713739e-02
2.400298804245523318e-02
1.023785117764995367e-01
9.337885214376326131e-04
6.540389406534391492e-02
6.175801648732404114e-02
4.556656251334457314e-02
8.654339449671479001e-02
6.467634348421266721e-02
-1.880074384420311884e-02
-1.544142151867513614e-02
-3.914904219442490868e-02
1.138532724113330286e-01
-4.302020196631884535e-02
-1.109594310710722807e-02
-5.747127291601208943e-02
-3.545545199483243499e-03
-1.038018316583011989e-02
-7.159509967198490451e-04
7.342229163648781331e-10
-9.375901999598893166e-10
-4.308459025680050647e-10
9.917209191414574909e-03
2.273087172645185325e-02
-4.642407488193835835e-02
-6.234377581812134556e-02
-1.313870538014245970e-02
1.194301049136567566e-01
3.195307041970277956e-02
-6.664617858469028266e-02
-1.642969163990654763e-02
-1.938138498308904570e-02
1.634670568862826856e-02
-1.972600368241012730e-02
3.030869715521910049e-02
9.795611261662688987e-03
5.186889718279212580e-02
-2.769937611033498892e-02
-4.062462763679189348e-02
7.476866025105459793e-03
-1.161873091910351624e-02
8.262385060475695153e-02
1.471590456519660146e-02
6.431850003963233975e-02
2.776294498629658034e-02
-1.172928133971597522e-02
8.844715882961685118e-10
-9.268709441938669173e-11
1.999492404651734887e-10
-1.020494337777234334e-09
4.174416443164050833e-03
1.495405502637959377e-02
4.668559219449627123e-02
4.429433163448205646e-02
7.700238496925121585e-03
-1.217567544780861349e-02
-6.884744340482669422e-02
-7.518594220904654783e-03
-2.090824119099840214e-02
2.081923504123192256e-02
-5.720528459142329436e-02
8.922343296174997662e-02
9.810718645540647542e-02
4.584740031350445499e-02
6.550417906228275799e-02
-3.024269768529798830e-03
4.116826634933460597e-04
-6.147703770583430594e-02
3.811294270616161911e-02
-2.747305668605237380e-02
4.644423321896681833e-02
7.729873136214070184e-02
-1.495316869969273710e-02
-5.639556057793728566e-03
-9.186601318424335276e-10
-7.909924673996880718e-10
-4.601517738466344704e-10
5.123094505694405350e-10
-3.602608649899325724e-10
2.001821124326247630e-03
-1.710700981386240396e-02
-5.721123547686897404e-02
1.172207808809933721e-02
-3.604287140844901483e-02
8.096602802620794792e-02
5.776968782177679257e-02
9.676309079812947522e-02
9.276315780233161667e-02
-2.364488760863574929e-02
4.791931601365728016e-02
1.591522812231923878e-01
1.305839268330630937e-02
2.957065744603481344e-02
5.347314038176149975e-02
3.294920806126724628e-03
-3.949465964215161801e-02
6.288992991920952687e-03
-2.275463771668828974e-02
-1.827628331897528102e-02
4.230763062998837282e-03
-3.861134433654273956e-03
-5.671461206659023264e-03
-1.814579919660005345e-11
-8.107958449849536169e-10
-6.224648746334810704e-10
1.599147962667151567e-10
-4.244289867023969253e-10
-7.668427144662534462e-10
-3.051959165119977726e-04
-1.225247326789447554e-02
9.864947370541691726e-03
4.632330384403123696e-02
9.892535441782608630e-02
6.801471581975866709e-02
-3.407387069348944558e-02
-7.457415079721125759e-03
-1.451571399755454198e-02
-7.241970337674431303e-03
-7.351903670409424066e-03
-6.194606094939174301e-02
6.342942025563436635e-03
3.720930042576694238e-03
-3.594135476477752084e-02
-9.150961401567963768e-03
2.328526098991987731e-02
4.577202404466121886e-03
-3.953663919371951802e-02
-1.355648047408067672e-02
-1.430226853524191172e-10
5.867123739605059736e-10
-1.855780593327536071e-10
5.622131992955239302e-10
9.032166255594922163e-10
2.145603175222256444e-10
2.929155848772257554e-10
-2.410006729174406691e-10
-6.036140329936904136e-10
-6.074862233770770917e-10
3.783925926662508715e-12
9.869709260155737267e-10
2.907606016516320170e-10
6.563091683834394867e-10
5.556714724232950239e-10
5.721905210281717561e-10
5.383308552471603031e-03
1.178758858554653649e-02
8.559352532559569908e-10
-8.044996024081321844e-10
1.662060744201513308e-10
9.432936844932124253e-10
-7.514212675524158372e-10
5.396797563098383659e-11
4.306786142425150809e-10
-5.492125435769647688e-10
-2.088726792538628160e-10
-5.389062676925345826e-10
1.011913389843458011e-09
-1.416421777866581956e-10
-7.934352279039349276e-10
5.645552706504433254e-10
5.804892788183091395e-10
3.295068537056155072e-10
-9.284342420141498798e-10
-4.492276005101462397e-10
-1.599569711186084103e-03
-4.786133068022264611e-03
-4.432525643216488065e-02
-9.935095107654634550e-02
-2.523784711490950627e-02
4.884563309369745069e-04
-5.135384140295608940e-02
-1.028486639006584435e-01
-1.142306028810684410e-01
-1.311548258178698578e-01
-8.719066143295023386e-02
-2.927048910452421937e-02
-4.331260541176587542e-02
-1.383122268776693260e-02
8.235881786914119040e-02
6.869763582543220171e-02
1.197262448722650474e-01
2.867958156856695306e-02
-1.184916629941692306e-02
-1.628122909319746486e-02
-8.397688163084803886e-10
-9.307116983080992598e-10
6.045640259917330682e-10
-6.860079112649918917e-10
2.968701584508154297e-10
4.271556975085273170e-10
-6.663639141692260202e-03
-1.739540055060354419e-04
1.474699268851534066e-02
9.570671906781640439e-03
-6.009516100158836249e-02
-2.271965001235760340e-01
-4.448312594968466954e-02
-3.514566134442397016e-02
-1.195382387563281024e-01
-1.219176254722664360e-01
-1.601547681919300026e-01
-9.523972749384902736e-02
-6.981355045778106505e-02
-1.954350991215237365e-01
-4.584446988685237506e-02
2.238271052109944842e-02
7.868100084820284223e-02
4.968229490468246273e-02
-3.701493019132935831e-03
-2.405058806140129499e-02
1.941572525475374067e-02
1.279559323006777827e-02
6.766381720780028676e-03
-5.483114872395138638e-03
-2.327775125802769786e-10
3.562879597867245363e-10
-6.216198162153885435e-10
5.148892384893113547e-10
-1.468083027611810469e-02
1.107461634017181153e-02
1.789760822432990076e-02
2.810901819777952837e-02
-5.091918323866230500e-02
-1.736083315661051674e-01
-1.188988695588348715e-01
1.259209012414061598e-03
-7.715379946850554893e-02
-3.836908283288006233e-02
-8.442856571980392189e-02
-9.314788107216233348e-02
-1.748986080691667180e-02
3.477514110138172493e-02
2.156691142076770998e-02
2.809142444542658823e-02
2.328408911651431296e-02
-6.083282983125491011e-02
-4.347169317816014511e-02
-5.958178090620603641e-03
-3.680944189539822435e-03
5.343920367235419078e-02
2.455326896060622266e-02
-1.067400867453908650e-02
-2.066026395156804951e-04
-6.447907170828040597e-10
3.945105503619273814e-10
-7.412562814183913658e-10
-6.993086761498305305e-03
1.163441300812935800e-02
1.771134244287661877e-02
2.062523042454358739e-03
-8.410688548460097669e-02
-5.924920016006104267e-02
-9.905333814012255711e-02
-7.211094522765326698e-02
-9.192986860204559185e-02
-3.798894440249890592e-02
-7.434828518939373687e-02
-6.050680520943703400e-02
-6.368308897740827812e-02
-4.851100334223030011e-03
1.122512079173527619e-02
7.019409456535040392e-02
9.583043511294016964e-03
-1.233809729694891437e-02
-4.720631140301675965e-02
-4.799740179475777552e-02
-3.190645946463994964e-02
1.156936291104608636e-03
-5.264303931727869201e-02
2.279262691918140793e-02
7.045212414916480863e-03
3.110608976324911708e-04
4.123497020241904565e-10
-6.402652798266555836e-10
-5.733777859664995237e-03
-3.783724136145533243e-03
3.106505096848912947e-02
4.762807142163592508e-03
4.370875707817441225e-02
3.996673835440397310e-02
2.426624711665857637e-02
2.622681036156334147e-02
2.626705828190456157e-02
-1.372546225396079345e-01
-9.634452028722431671e-02
-2.208139631576258588e-02
2.911701224849212385e-02
1.225257655474161073e-01
8.642413676612401008e-02
8.215445917823452349e-02
8.614593382023277846e-02
-1.121635425057316768e-02
-2.005841799159566174e-02
-9.602180394320729284e-02
-1.373793732685557253e-02
3.279355473632895868e-02
2.822444952208956123e-02
3.617490824048473497e-02
5.611988973748648774e-02
4.929941150245654644e-03
4.080115364069405268e-10
-8.866543388958556991e-11
-5.241669131128100581e-03
3.257520942941113246e-02
4.680373971657223603e-02
6.775398545415704972e-03
1.060421367918727431e-01
-3.193606789267202511e-02
-2.004262862102780193e-02
-1.766975870907061263e-01
-1.113780951430953375e-01
-1.387725525697855455e-01
1.808087023847846850e-02
3.542702325225837584e-02
1.043021486877163673e-01
8.084172907603104363e-02
1.331970053548764410e-01
5.162575031185532431e-02
2.817387507388386877e-02
-6.204801940624580202e-03
5.713097253457952857e-02
8.853082781091339143e-03
-4.813090609407085635e-02
-1.385800039597126498e-02
1.005099827737833580e-02
-4.044277937184000138e-02
2.834772701074711118e-02
-1.745027354828911168e-03
-3.583049762010136782e-04
-3.367506862601395839e-03
-2.601859296778617076e-02
-5.722902896188880595e-02
-3.844410919318030917e-02
3.844548420587558246e-02
-1.935923201293878598e-02
-1.124674042072392049e-01
-6.986981509506358379e-02
-1.239250323807165738e-01
-9.326673179945908776e-02
-2.779103688451081688e-02
-6.808642143488072285e-02
-7.928757989798342065e-02
1.359505904798107845e-01
3.564312635613354346e-02
7.044790558288153981e-02
1.350964952403150843e-01
1.446271102922294660e-01
1.124091552162710256e-01
2.234999080889149559e-02
1.106058293130193493e-01
-1.189780219062629846e-02
1.625856510201923941e-02
1.979673105913502817e-02
3.276017176848525225e-02
-4.536145800726405081e-02
-1.748756480866639137e-02
-1.456087798389937068e-03
-2.198055272382191949e-02
-3.309519304728176375e-02
-1.582991607172668236e-01
-1.273284466548403326e-01
-2.012562942687021461e-01
-1.426945751858044453e-01
-2.290961011651215240e-01
-1.218226611277089810e-01
-6.362763585139949440e-02
-6.244962753515139603e-02
-7.701076150298900858e-02
-6.857691792793338403e-02
5.977705055155485905e-03
-4.241643365012667116e-02
3.623433018354620117e-02
-2.728607228095044843e-02
2.973849361382943993e-02
7.292947171804395334e-02
1.136362901985684820e-01
5.166552587622559589e-02
1.813125051148429742e-02
2.875662897866633830e-02
2.872390111362991064e-02
-1.149934993467478274e-02
1.003271334298440065e-01
1.942460555753022095e-02
3.288872555890345190e-02
2.573317692247678330e-03
-1.758185886929312242e-02
-3.326055416449843344e-02
-1.021836879366378598e-01
-3.644556786712276064e-02
-1.055672901453735407e-01
1.989918856593121677e-02
-3.742171554962035046e-02
7.037249790559634011e-02
3.313986729438819084e-02
6.564569934233136297e-03
-1.568102721822187962e-01
-1.226798199510223814e-01
-1.915326545417773974e-01
-6.523352649291197514e-02
-1.714214648279118181e-01
-1.301289669150724193e-01
-3.212004806515735000e-02
1.940655425751799945e-02
5.596141073582448083e-02
8.275692478033580546e-02
-1.514356729769877723e-02
6.916414593385895870e-02
3.870335068551362945e-02
-2.581045299367223239e-02
1.034792514317074558e-01
1.008252417634157017e-01
-7.566928957222000991e-03
9.451748081709281102e-03
-3.340985518812504985e-03
4.206854760874394888e-02
3.595656581695035048e-02
-9.915051844357840316e-02
5.498877698214332810e-02
1.067595641778389670e-01
2.618094416291839033e-01
2.319453925929252092e-01
2.283705316049848000e-01
3.657891146649871333e-02
-1.460609132827379031e-01
-1.639469401569453311e-01
-1.165197251979691040e-01
-1.714765232849136678e-01
-1.142419402121517824e-01
-1.113773607779675323e-01
-7.299244398619010588e-02
2.958908893640502594e-02
7.475812267183218340e-02
2.319836781082557434e-02
-2.357350806088991807e-02
-1.714169081717756629e-02
-1.021341815347300563e-01
3.650692059125747180e-02
6.499521202131480768e-02
7.688389527570066440e-02
-9.481134329385772566e-03
1.520934581077811563e-02
3.195313889582744593e-02
-1.909158173463655628e-02
-5.242225059813391402e-02
6.563719450652458209e-02
9.596452390214989248e-02
3.037627794561833516e-01
2.991265714591070934e-01
4.422136708215947398e-01
3.492794567126458749e-01
1.203306276293826943e-01
-1.226781617723276124e-01
-2.566971706281491183e-01
-2.244994683214960318e-01
-6.847645133456174704e-02
-5.690996287599264791e-02
-5.149355790542754080e-02
-3.609449368539347641e-02
1.730786477757675218e-02
9.062618421489267162e-02
3.405007305148671087e-02
5.075810420185408733e-02
2.355439856347512489e-02
3.842021447780695487e-02
2.146221029255320975e-02
8.043084230328749820e-03
-3.001549069215728519e-02
-2.621182274954381858e-02
1.340756151263240020e-02
-3.047367136618309592e-03
-7.396726452078504488e-02
1.518348929566253891e-01
-2.864096378360602921e-02
6.752300249593592985e-02
2.156853272611824190e-01
3.695222392756211671e-01
2.825425053597839797e-01
3.876275105913251640e-01
-3.772758864934284279e-02
-2.086674350314835502e-01
-2.702804083869403406e-01
-1.803697476318843196e-01
9.776848750988576323e-03
-6.321934551896941923e-02
-1.067967882249106076e-01
2.460987430290899336e-02
4.695715341535012556e-03
2.461057379310895021e-02
1.158878254895600590e-01
4.174226797501849606e-02
7.204639825047505497e-02
6.824498914007000316e-02
7.599461695206327638e-02
-8.918037924278759965e-02
-4.718137919894167115e-02
-1.262021094115499918e-02
-8.061321579064808253e-10
2.373921463307673493e-02
-4.441888952903826071e-02
8.248676116499363553e-02
-3.848593378762965589e-02
7.486733840471673784e-02
2.851846195416848917e-01
3.360393185240996283e-01
2.490841363098413030e-01
3.251717698732461415e-01
-9.574567645656795190e-02
-1.281371344989224725e-01
-2.294762759423739917e-01
-5.011993926648534298e-02
5.933949661801761477e-02
-9.584728439302948877e-02
-5.885713848355333261e-02
-7.712313271733198250e-02
-1.281633241536292954e-02
1.421140024396011330e-02
-2.861789521309028930e-02
7.545049283373571336e-02
8.595933967943292231e-02
1.787909416767863649e-02
1.178977674490647581e-01
-2.212604546974929545e-02
-3.104182911512993331e-02
-4.506853481794437580e-03
-1.389068463565760461e-03
1.554864059583222803e-02
3.697690307252155667e-02
-6.484308598333139717e-02
2.786843004524535913e-03
8.561949235797437774e-02
3.508217902136405719e-01
2.503195919868717034e-01
3.104710125780831276e-01
1.791222247079186092e-01
-2.788773305656230481e-02
-3.947062371635595007e-02
1.928039708252668460e-02
-2.025583909801613805e-02
5.289093739814645229e-02
-6.101732384755515631e-02
-6.752641985841642547e-02
-4.915335980506902597e-02
-2.089347343024576184e-02
-3.939540458133168610e-02
-2.611290058945461845e-02
2.126249570144944645e-02
4.065258896750505169e-02
2.870662228904670085e-02
-2.149909968531524274e-02
-2.414569535063885303e-02
-2.093030555330618794e-03
1.431362973303050166e-10
-3.495910594868513791e-04
6.143205386984895508e-10
3.337886721854808891e-02
-4.545857783577241656e-02
-4.148034818759572390e-02
6.387493364080908120e-02
2.954720739689985498e-01
2.267506569986157683e-01
3.392004400093471816e-01
2.593676364968358627e-01
7.753264638753364080e-02
8.710403642602180044e-03
8.631663232642242112e-02
9.302389224178737870e-02
-7.278571772005858719e-03
-5.683542185190969959e-02
-5.704498899980778304e-02
-1.960210951043214744e-02
-6.706703542663140782e-02
-1.134466961058511053e-01
-2.531999049425819742e-02
-5.890923948520520453e-02
8.169623253256856621e-02
1.446564914278248570e-01
2.193587452352315989e-02
4.506248859388635453e-02
-1.304513655321504076e-03
1.002328458647615695e-09
6.013517803013014064e-04
-5.673410634133655478e-10
-8.108552220769105732e-05
1.164857263617142917e-02
-9.934273860337006212e-02
-1.770786502830208609e-02
2.157587454474172717e-01
2.985413019824149083e-01
3.727833663418905763e-01
1.174695163571684298e-01
2.386907973162181226e-03
5.509833611935238684e-02
1.030469261574972761e-01
1.822744041524899244e-02
-2.275681327186655778e-02
-4.751394741772116403e-02
-2.536543988535151783e-02
3.885608656221957447e-02
-1.452813392094154735e-02
-2.431640913403455145e-02
-5.261875519904325726e-02
-3.646157476227103456e-02
6.576847962124969527e-02
8.392826301160002944e-02
1.383213108437928440e-01
8.390277462315147428e-02
5.898310692910530527e-03
8.007270872429627100e-10
6.207617724115781368e-10
2.416505162824146308e-03
2.550510624137219528e-03
-1.004621810063457271e-02
-8.005512328552502263e-03
9.208119676212424276e-02
1.944850523755536909e-01
2.210706757224881192e-01
1.780909291871588251e-01
9.892392068955778439e-02
1.177085141927365457e-02
-6.451841332730227745e-03
7.138328198282813120e-02
-9.984636629167693497e-03
-2.376569302789991595e-02
2.414084550417067761e-03
1.143481589190719072e-01
7.737880649586970083e-02
-1.515176415878046606e-02
-4.614899641259955637e-02
-2.115007968618196760e-02
8.711527699846927097e-02
9.296410533683498179e-02
6.988660278898764511e-02
5.304792231783751061e-02
6.744601609547197507e-02
1.012919220973151728e-02
1.136387029599879059e-10
-1.766606486730401635e-03
1.585831473109798736e-03
2.675486623357621087e-03
2.806274614672880571e-02
-2.166403995042567518e-02
1.008126913355720383e-01
1.376582321003376741e-01
1.215965947347893011e-01
7.654877378370365804e-02
3.366987905495522765e-02
-3.182754783062494153e-02
-9.312490449645330348e-02
4.491176264950805241e-02
-2.561607812178775048e-02
-1.479431910951331704e-02
4.761457644155434044e-02
5.111295764603952102e-02
5.560722665151699579e-02
2.586833864253716524e-03
2.113266614592433645e-02
-8.033401248992485394e-03
6.716386904457612161e-02
8.094368300718386700e-02
8.157742598348589891e-02
-5.306672183024169903e-02
2.900710227367117242e-02
-5.153075649212567402e-03
-1.929367921172106569e-10
7.440026765610657364e-10
-1.037749870614364375e-03
-8.098507243705260414e-03
-5.941665346774173406e-02
5.882796949413140325e-02
-1.230946174904613138e-01
5.600764153400881670e-03
-3.550391299478667523e-02
1.681463918354883166e-02
3.717520171723331934e-02
4.915577897581657058e-02
-4.149152478029468488e-02
8.964171018646039518e-03
3.734879434518483671e-02
7.072563594647526819e-02
5.742863706230926651e-02
2.892721771218217247e-02
4.038906586517272690e-02
1.657364415008101208e-02
1.249840012530706833e-02
5.948004470618641071e-02
1.273317423689875917e-02
8.883438655323325217e-02
-8.659285693226469183e-02
2.275146736174813843e-03
-7.387255938061401900e-04
-1.884551990351522946e-02
-8.788010242986713205e-10
-8.120255372759669832e-10
3.846820083312193551e-04
-1.877621837482290222e-03
-3.683672249007109711e-02
9.633490997301567826e-02
-4.741225503428857929e-02
3.162143934113705729e-02
-7.887448842900728063e-02
-6.140060717099170284e-02
-5.137015648617063168e-02
-1.843845326968580542e-02
-4.473501450534823204e-02
-1.091863836045718107e-02
4.300480034151111380e-02
-6.503137516303168775e-02
-3.020368286547036110e-02
-3.992537822570363382e-02
2.001413725839183699e-02
9.420123531154872554e-02
4.447913602178370923e-02
3.566234389407047997e-03
-9.074775277088784411e-03
-7.047051218920942495e-02
6.511933916120317412e-02
-8.661297599995185226e-02
1.886959487732375873e-02
-2.257698142551358908e-02
-1.322366988599762549e-03
5.579044308177960340e-10
-7.294132923951245381e-11
1.555404770059042225e-04
2.325725349094865269e-03
1.782161976544143628e-02
-9.588249833234641084e-03
-8.940969610718532690e-02
-1.628824022429442575e-01
-7.927826071743254710e-02
-9.425968178566075661e-02
-7.536535716700062948e-02
-7.064960596062196119e-02
1.910611997324102376e-02
-3.997201557779302833e-02
-2.045207614818296896e-02
-4.758595494500110143e-03
-1.220098661963288540e-02
5.260230766125383040e-02
-5.985551822157417212e-02
2.479321809447534650e-02
-9.131718917698476712e-03
2.589379058421486732e-02
9.147077943039559622e-03
-1.230318557052294606e-02
-6.925197668589068434e-02
-1.749781757309978175e-02
-2.175749238035909472e-02
-3.989859300753805036e-10
2.483766204326660346e-10
-7.304891657415007586e-10
-1.816214845303598733e-04
-9.035038788733696421e-04
-3.329543663069010201e-02
-1.951681254343000382e-02
-6.128345879762395199e-02
-4.435592400219452724e-02
-1.312559747240109320e-01
-7.478766708817662090e-02
-1.268911449186945761e-01
-4.299414015690799368e-02
-6.567873025320972169e-02
1.190620976136240461e-02
-4.981480878616242891e-02
-8.562725540313859823e-03
-3.995048369199694321e-04
2.426607551420311565e-02
5.089984764364487862e-05
4.298758517987446952e-03
4.259143708034036913e-02
-3.956756476196473388e-02
3.305758000476773789e-02
1.323880516688059200e-02
-8.033616368204617164e-02
-2.380807069708764864e-02
-9.335148127447467220e-03
4.769492965048160613e-11
-4.239231893206191546e-10
-1.857336623546024884e-11
6.073630369347309682e-03
7.466862866495267356e-03
-2.865578101721325682e-02
-6.575318979003484665e-02
7.682580925641444188e-03
-1.458817219646746377e-01
-7.946026906347486429e-02
-1.574392900062960565e-01
-1.604921304968275897e-01
-3.238583353662446290e-02
4.787345736804637236e-02
-6.812751792771150339e-02
8.937449623426683629e-03
3.539908167150988827e-02
2.536146887712368084e-02
4.104050012965506505e-02
4.875891728339178804e-02
5.329428319809736622e-03
6.486575667638438958e-02
1.192237049211390156e-02
-3.690933728748867215e-02
-2.792905319963790919e-02
-8.434156458789771049e-02
-2.402123559175341205e-02
-1.624991984053160464e-03
-3.678476966798223571e-10
5.041929994545759281e-11
7.499165751011992154e-10
-2.223316305080653369e-04
-4.338512184200989628e-03
-1.735248016788144138e-02
6.338619635254955087e-02
1.063491936278249984e-02
-7.154112439175548677e-02
-1.224013975935641929e-01
-9.634000832921064961e-02
-7.742454977667964644e-02
-2.021916055764729978e-02
-1.442452614762768613e-02
3.654153055724643911e-02
-4.859728855740150233e-02
-7.594028608635009642e-03
2.280678990015269289e-02
-2.395600829070464090e-03
6.497651584815722879e-03
2.045476046120670369e-02
-4.804591154265455688e-02
-6.384915535405635834e-02
-6.711739750361010726e-02
3.188495110959253115e-02
-1.007854499613651880e-02
-2.161362036852107135e-02
-9.795719187341285247e-10
3.083001114286774381e-10
4.775852215713937775e-10
-2.837166168353141649e-10
1.091060741574922596e-03
-2.830654268349380633e-03
3.322371069314763743e-03
1.250707066524642253e-01
2.513814299538407707e-04
-6.904191161548774158e-02
4.673554424866789569e-02
1.973526402585288816e-02
-2.447211305041017276e-02
4.833582581287143576e-02
8.048515529913284269e-03
-4.439624554908250947e-03
-4.660286597310716455e-02
-3.180524053850088996e-03
-6.255243007299868263e-02
-3.379034393821191834e-02
-6.266413236154726174e-03
-3.120413743046968058e-02
-3.270778829511424707e-02
9.932964243943985527e-02
-3.279429354584208200e-02
-8.083302895099789276e-02
-6.735240112363941045e-02
-1.119201021641712777e-02
-4.935197137141234806e-10
9.895319877734427566e-10
6.014119440732684841e-10
-6.587440496922160105e-10
1.853052874454945375e-10
-4.155770557093395757e-04
-1.791472277028600957e-02
-1.087781710333914596e-02
-7.409165786387192885e-03
-7.431667605359759676e-02
-6.352347166302779735e-02
-8.164590710045403765e-02
-1.979966713427298158e-02
-1.269702992027104023e-02
-1.391390267988627458e-02
-6.346992205214933847e-02
-3.686575898377976272e-04
-1.955857379016849931e-02
3.124407009536064178e-02
5.913894115675417430e-03
-3.683961368402834807e-02
-6.927367041331700462e-03
2.509039211371487041e-02
-4.117160316519456048e-02
-1.208327576178770818e-01
-3.287434625524517096e-02
-9.052831352155061087e-04
-8.103821578797732817e-04
5.718050955057947654e-10
-6.426253919616207946e-10
7.893773739382162919e-10
1.557806978333639030e-10
3.445879216725769156e-10
-1.011524474877243106e-09
-1.600944805302441463e-03
3.507527140588207176e-03
-9.389120960201941327e-03
-3.182968253552073690e-02
-3.333863959370323565e-02
-3.945721832889383107e-02
-5.237593157208379063e-02
-3.425882685015298190e-02
4.998914570133512758e-02
-6.750502966734425389e-03
6.004218665631647078e-02
-3.197537705586060708e-02
-1.113787045434246753e-01
-1.348448055098385168e-01
1.302788572163284669e-02
-4.549578257399713305e-02
-1.857851852392405911e-02
-4.175699066968355938e-02
-1.252172961941210860e-01
-2.364454991876887430e-02
2.681472082126406221e-10
-9.443255491245697492e-10
-7.258180779220952214e-10
6.274174123178382781e-10
5.023423633275807329e-10
-3.384263536038958169e-10
-4.585051250994684674e-10
-4.221242593860949729e-10
7.319200027735182838e-10
4.201061300204753949e-10
-7.570721818015065693e-10
6.080171594819936508e-10
-1.772165303665239459e-10
8.376739475614692600e-10
4.909294054876924708e-10
5.149859270594270637e-10
-1.712414834758653687e-03
-3.749600916875058584e-03
2.378542833220188617e-10
9.098786562861803123e-10
-8.874897358646932133e-10
-7.783295614015446832e-10
4.523616506299158063e-11
-7.277081692542013229e-10
7.158176734824843286e-10
5.362211016926423806e-11
-7.281384654573281191e-10
-1.243556233004390660e-10
2.504448048898159927e-10
1.950283281897231422e-10
-4.988915970305486911e-10
-1.248566730906157566e-10
-3.909572277100597947e-10
-1.024619125831850103e-09
6.615349873907627633e-10
-5.296791945284615630e-10
-2.292330462976397321e-04
-8.660725174849409234e-04
-1.064659969587311919e-02
-1.964991610948687781e-02
-4.050925931032168387e-03
-5.144224318668103382e-03
-4.609032487974557696e-02
-2.625149910490122765e-02
-2.965198869126308215e-02
-7.069488386145142411e-02
-7.937003160496811094e-02
-3.955113414579949915e-02
-3.916371702436973606e-02
-1.872853539374657802e-02
-4.147387295440221888e-02
3.807447277103673949e-02
9.628027858990709231e-02
5.571648782875305433e-02
1.954096069806487632e-02
-2.970876323220723522e-03
-6.132802272325361181e-10
-4.054649373866541663e-10
-8.851011815640492920e-10
-2.321975617763231616e-10
4.575102608919993386e-10
-4.651594609550780877e-10
-9.793786349238221909e-05
2.293687805394485082e-04
-7.397419883368002574e-03
-1.495063102568861208e-03
-3.504733649718484723e-02
-7.900087981712650143e-02
-9.369322826290525652e-02
-1.026583343267254284e-01
-1.713488104692427738e-01
-1.672385621612650086e-01
-1.232596394909580145e-01
-6.681224756729471637e-02
-6.945163308078436404e-02
-1.234177306965470178e-01
-9.104124679522301866e-02
-1.745618616719031846e-01
-1.029443616797538347e-01
4.545975909607087584e-02
6.110400806963679765e-02
3.356853595699568760e-02
2.670882597955191728e-02
2.181637194277947361e-02
1.286796396529732434e-02
-8.662607452645651115e-03
-1.265830321646208936e-10
3.187744295931697106e-11
5.348723227982277593e-10
-3.433335942203106499e-10
-2.157691866645219069e-04
-1.701939932650736384e-02
-9.667975167780918158e-03
-2.493238282965759903e-02
-8.164454911823966488e-02
-1.699257127618765684e-01
-2.065753875015521046e-01
-2.033496801061259462e-01
-1.657909323247062083e-01
-2.007280496778763301e-01
-1.274304045380621753e-01
-1.014599874522196729e-02
-5.354306574192640999e-02
-1.684135489629403348e-01
-4.957955268769612123e-02
-1.878492386288898031e-01
-8.044874325185417951e-02
-3.059134831715955988e-02
1.790729134931828836e-02
6.874536737965774094e-03
3.601704077096372358e-02
5.480394426771483148e-03
-7.482018173041750202e-03
-2.256682888435122217e-03
2.472917853172394015e-02
-3.726728599151259319e-10
-9.766317076143928477e-10
-2.648229423023215133e-10
2.292608714881834518e-03
-1.462323148523245360e-02
-1.181040177521964010e-02
-3.301874695776920582e-02
-1.262153689615034755e-02
-7.178247664645079351e-02
-1.015975715781036876e-01
-1.547938750340515646e-01
-9.026540691597027821e-02
4.513468969456198299e-02
4.871853687546720546e-02
7.020396350177170175e-02
7.853377714878738425e-02
6.176423930537788820e-02
1.150273714967997019e-01
8.235425033845268639e-02
1.366571827574731557e-01
1.214916238736457876e-01
3.213525654820820893e-02
5.378850487151344562e-02
-9.294521651515982863e-02
5.323777160436405503e-03
4.471114673785509669e-02
-3.532007971184132622e-02
1.270977371055927174e-02
5.486762297859730866e-03
-2.351097419826711310e-11
4.352178320988630366e-10
3.854010482568153134e-03
-1.141645348648556799e-03
-1.172646799227593673e-03
-5.498944209647888860e-03
3.158844405253555948e-02
-1.996361493788600255e-02
4.503620209367915905e-02
-2.123525041622196727e-02
-1.511934308232123873e-02
3.772833608178637055e-02
4.227114423384329550e-02
1.360782031863380093e-01
3.501387706822984419e-02
8.234708512397841129e-02
8.815104860433962963e-02
2.257576769548026441e-01
1.980100661137141893e-01
1.534688622707587047e-01
1.827923694102539520e-01
1.142161136866646776e-01
1.028763417247763184e-01
1.237186188648882294e-02
7.331929689204938483e-02
-4.720065725316920091e-02
7.614230193317915452e-02
5.571415326619586980e-03
6.063447089083369573e-10
-3.428086774557971538e-10
9.656976248715930938e-03
1.609583528772869088e-02
1.781220561565408436e-02
3.597769530475516953e-02
7.038221296478246181e-02
6.039669602462218595e-02
3.624777491757138342e-02
1.722757273502694905e-02
1.063153914834406716e-01
8.673112924337028629e-02
6.731985683647770391e-02
1.316462459851684419e-01
1.548645197106389704e-01
1.618507556507794432e-01
1.682045306260683271e-01
1.981286983512034194e-01
2.258617192382608441e-01
1.352444056560357655e-01
7.817954759746648108e-02
7.211193399298831963e-02
4.799885139959177149e-02
-3.624959619502014091e-02
-1.497838440423188491e-02
-8.084379646338232112e-03
3.329916542859912010e-02
2.032936928436419877e-02
-2.541825221998057359e-04
-3.007417029235079278e-03
-1.066489998518476041e-02
-1.861642351294242465e-02
1.282288181654196724e-02
-1.999717588665431492e-02
-3.103375437350035584e-02
-9.979615691634605157e-02
1.637280481009192878e-02
-3.114247131672051236e-02
8.719397738211523419e-02
8.062421257894296367e-02
1.073075630696701949e-01
7.806966214234928314e-02
-4.897245221542988192e-02
-3.956595479969753082e-02
-5.171927900945541556e-02
-6.246660210596639839e-02
-3.446496739489717659e-02
4.996129383657006706e-02
2.569075144762876864e-02
8.313512934919842223e-02
4.915365303997604532e-03
-2.874473910424506836e-03
-2.929060948632170730e-02
-4.725954030574792963e-02
-1.582758829670503561e-02
2.290633766374750024e-02
-1.032950901872001703e-03
-1.226051128990809057e-02
-2.463966738508089130e-02
-1.019806627612778877e-01
-5.170901147868659647e-02
-3.341388589550828986e-02
-8.510070116911493121e-02
-8.220462264107665507e-02
-7.298421632794367675e-02
-9.799012347350279789e-03
1.312625561978871848e-02
5.472431502350642157e-02
7.595316769289153780e-02
-1.418556378635989733e-02
-8.651425884287045065e-02
-6.764760420128489160e-02
-1.335676593913957544e-01
-9.505245556224792280e-02
-5.870288381113843157e-02
-1.404435735307619192e-02
2.458661149567185553e-02
-4.862150863247515116e-03
-3.331309164237520465e-02
1.657091676641965494e-02
-7.818128522271816649e-02
-3.655303681886208633e-02
6.386857052106648114e-02
1.179177080528149950e-02
1.879039682737391678e-03
-1.394246697136703253e-02
-6.001556740153318747e-02
-1.404513789109066713e-01
-1.063524572402626267e-01
7.047735668864950689e-03
-9.950029329447995785e-02
-7.338567073657811801e-02
-7.266844708247734153e-02
-6.014383280623905592e-02
2.969444788405359650e-02
4.317635187242125500e-02
5.104139078659178375e-02
-4.968558819415394567e-02
-7.135571645951907516e-02
-5.616618181944303678e-02
-3.240417680066845496e-02
-6.594178505981346250e-02
-7.886738765064991996e-02
4.091611186008726336e-02
-2.023308618792720934e-02
3.383191566781490467e-03
-1.899948345516015366e-02
7.865595794353971715e-02
-5.221812897069384035e-02
-2.338345233490710107e-02
2.331352001949082292e-02
1.043176229740291547e-02
1.929099148273771174e-03
-2.196252418010851901e-02
-7.146769747150305552e-02
-1.506381280361802355e-01
-1.106318174579229430e-01
-1.067225288246858028e-01
-9.800390496102281968e-02
-6.391648018407899978e-03
-6.406404282445533893e-02
-5.446096497329382807e-02
-5.723656056607852316e-02
-2.758159958317628856e-03
-3.201337108680488500e-03
6.940226100714641522e-02
2.630328378088838889e-02
1.646003755035607696e-01
1.470840482699381779e-01
9.281777266148093231e-02
1.051200601626886971e-01
5.517526018275803641e-03
4.310569028553694337e-02
-3.052014166047177512e-02
-8.806987752116425192e-03
5.987728004537472282e-03
-3.194472444052006560e-02
4.760293813491688064e-02
5.435083481726286220e-02
-8.966333405429722722e-04
-1.965098199987275196e-03
-2.247350904183802178e-02
-6.021601073680880184e-02
-1.261261390778719849e-01
-7.218106696384173071e-02
-8.031533648187744179e-02
-2.024546289058217624e-02
-7.950252514901300083e-02
-3.276376870966078714e-02
-8.561890058465124187e-02
-1.126418370447827416e-01
-5.864084195327311927e-02
2.347415793509942394e-02
1.316084219553855239e-01
2.348578226890433440e-01
1.820905457564163665e-01
2.581444583893421907e-01
2.177210463123780970e-01
1.666416336113402119e-01
6.296607294038360225e-02
3.382480661053852838e-02
1.220585973451306051e-03
1.976163016981133738e-02
6.287667007748259755e-03
-5.183742234126725856e-02
-4.213525173007859337e-02
4.864250280961064654e-02
-1.352046301851980237e-03
-1.706301119417709573e-03
-5.946494852651676780e-03
-4.135141587802589058e-02
-7.747298034902333486e-02
-2.743120530213027583e-02
2.113036773198800553e-02
1.189640825425564543e-03
-2.506760038874661367e-02
-3.290692098694793927e-02
-7.927774269458746914e-02
-6.549048154689797452e-02
-8.003356608203979206e-02
-5.077302930239867458e-03
1.187289046369142953e-01
8.830957732922635472e-02
1.987668341030197905e-01
1.742194566900536479e-01
1.899716452460548377e-01
6.368959935847717801e-02
1.394476188708075083e-02
6.075096627095426249e-02
-9.734192691048568213e-03
2.877662034084463305e-02
7.240576973115614434e-02
-1.063698279164233679e-01
-2.081911903867682181e-03
3.673418388527077694e-02
1.014409797318038819e-02
-9.247021379558095848e-10
1.864503160125971070e-03
-2.711795892014726150e-02
-6.571234683150892208e-02
5.907731051793555822e-03
6.235777660834114500e-02
4.720212428106751457e-02
5.162399116603899954e-03
4.991611948408686619e-03
-1.623561955814798174e-01
-1.746469407758301784e-01
-2.453439940005809894e-01
-1.148436413939915440e-01
3.735564163881224115e-02
4.665971117182200062e-02
5.948824980492119219e-02
-7.222646911976803204e-03
4.484007752698777882e-02
4.761202703875848374e-02
3.476299066176235381e-02
-9.525582594833320593e-02
-9.283621526746842906e-03
-4.353176756152910692e-02
1.525587937043071905e-02
6.140182917688560837e-02
7.087675321328334999e-02
1.677123921958520447e-02
4.022659990921644696e-03
-2.252656930252344789e-03
5.361215888858790512e-04
-2.864855609271943146e-02
5.964083476133583313e-03
4.702569951992131847e-02
5.858523827692559832e-02
1.364785212585758190e-01
9.138330711663850137e-02
-4.259689125747728039e-02
-6.064634480225601643e-02
-1.716834868542487513e-01
-1.050398896323556930e-01
-1.288953506573419505e-01
-2.196932958577640579e-02
-8.182408402023662319e-02
-7.312022702226687876e-02
-7.551517584281078332e-02
2.533530252209726871e-02
-2.054042069608538745e-02
-7.795368165034672996e-03
-5.772256490262116235e-02
4.000750930525297233e-02
-1.117520121762003021e-01
-2.201173583755858948e-02
-7.905051607973062264e-03
1.923919614887160566e-03
-1.358615793579992601e-03
-4.461384869884472167e-10
-7.809371720734200684e-04
3.707276152118071910e-10
-1.273765498576387434e-02
5.381140169492613923e-02
8.704039746901875985e-02
4.066788992140962788e-02
1.716079742834765998e-01
1.450204151610907100e-01
1.201057510476412349e-01
2.007762110140230358e-02
-2.507271612489078358e-02
-1.537411166889632655e-02
1.166649629763825274e-02
-1.310442536438692802e-02
-4.642187592152034747e-02
-2.115242755071412156e-02
2.347050894643869234e-03
4.507514013981272355e-02
-4.444965158852007964e-02
4.227220770326876875e-02
-8.566655707236618678e-02
-1.360814413995923011e-01
-6.004288734110223118e-03
-5.014405943018965944e-02
7.120701364932595367e-02
-3.143183067098330452e-02
-8.419492732901072071e-03
9.636469319079448675e-10
-2.476643209537074375e-04
3.280421380352692417e-10
1.276528912746833274e-03
3.959693965044756847e-02
4.576852133367288636e-04
5.496174170342705417e-02
1.190806654797302855e-01
1.367968920700398106e-01
1.983013902391241590e-01
2.570809158655856241e-01
2.648110893147981870e-01
1.906937448272550406e-01
1.726434338781946409e-01
5.209361022624624943e-02
-9.285731243043938987e-02
1.446821922138002070e-03
5.670812218912096858e-02
1.352810816613559675e-01
4.177177567474990583e-02
6.612628870106407319e-02
9.962899529143415603e-03
-7.024820262297759577e-02
-3.041364229250681159e-02
-1.785319101584779966e-02
9.529832184713052379e-03
-1.845774125794544815e-03
-5.092184919477071338e-03
-2.695770637204384658e-10
4.422008992936704342e-10
-1.784183903102952180e-04
1.029179113096153177e-03
-2.363064909167301997e-02
2.105297659314613393e-02
-9.246663393401975684e-02
1.125414691825456226e-01
1.697176551291696145e-01
1.773998752325256223e-01
3.155715964365315984e-01
2.185263551399637127e-01
2.245723553508966186e-01
3.566151988607299539e-02
-2.939112288874322007e-02
-2.194752455570634850e-02
1.282195552091146551e-01
1.310513486618063161e-01
8.173227089178218552e-02
6.191674193839857149e-02
-2.675026180514406687e-02
-9.281787103912587933e-02
-8.946252293052912863e-02
-4.040918262191371679e-02
-1.158504831341167565e-02
-5.316994043775553902e-02
-3.740190975096126247e-02
-7.779242967996375345e-03
-5.038334776098045437e-10
-2.890586927578799064e-05
-1.170871026724255870e-04
-2.070822335088898410e-03
-3.101068616702973985e-02
-5.807909907823639861e-02
7.421326042483537312e-03
2.075787165543542534e-02
8.688418389468720304e-02
2.105862247763725936e-01
2.084503248962372712e-01
9.525450846090723067e-02
5.362140177449448153e-02
-2.770161986700503398e-02
-1.360052805263125553e-01
-5.405247353124528059e-03
9.849769522856215154e-02
1.412150349485036815e-01
3.365032740573525860e-02
1.844872407284144089e-02
-4.063878842034857747e-02
-7.917456352268967268e-02
-1.074403072286876093e-01
-5.963747188511975272e-03
-4.561009915187871216e-02
-3.408934799168950730e-02
-4.993044996153063464e-02
1.648162115620520687e-02
-1.142120387892958820e-10
-6.217004920070781156e-10
8.117470897534891788e-03
-2.135435606117986121e-02
6.180917324501748744e-02
-2.552370313937818436e-02
-1.242583363307447480e-01
1.513630306515949785e-02
1.284472621038076912e-01
1.805978149170745228e-01
1.180812884824932324e-01
6.122528859132538720e-02
-1.468177346627363711e-01
-2.375304879729084884e-01
-1.379059076843716092e-01
4.065291528767532581e-02
-1.084918202137370030e-02
1.497043166623175485e-02
-3.338642170370353305e-04
-6.477530100356283793e-02
-9.470811372978076015e-02
-7.097967091924507754e-02
-5.359007455505633566e-02
-5.431887337642046787e-02
-6.166978815974319406e-02
8.775752791481983631e-03
5.987873359946168685e-03
3.598406723296097842e-02
-8.140863459070996821e-10
-8.320980086226653645e-10
-8.104162367170657634e-04
-2.237958261617517194e-02
6.550176964352064091e-02
1.888686299589723699e-02
1.880074396317352181e-02
5.509675491054440849e-02
2.008841296224700979e-01
1.183216235253636978e-01
8.179206882192824324e-02
-4.062602074350462472e-02
-2.078106130542010099e-01
-2.689412560486446613e-01
-1.202049389275695462e-01
-1.124601047257224248e-02
4.506267013032388968e-03
-7.045529049473110532e-03
-2.436467598331610793e-02
-9.931294105488638890e-03
2.061865763318031924e-02
-7.086324323720660789e-02
-2.110992740534338441e-02
2.038081600352922504e-02
-2.486809249859040644e-02
5.469694211967054270e-02
-1.007782747729972679e-02
4.077327129241700709e-02
-1.670149450844811033e-03
7.460735948070886367e-10
-4.274138679473421191e-11
-1.896958511947342482e-02
6.257211652528884595e-03
-4.655307915060086926e-02
1.117799201538513223e-04
1.037560471696889197e-01
9.701093599641551213e-02
2.122307542444785700e-01
1.890490262523512044e-01
4.776396273047713720e-02
4.539784347162984651e-02
-1.174576537859999964e-01
1.046138360601451406e-02
-6.478283096945906816e-02
-8.252686388593975797e-02
-3.301681693696380260e-02
-6.081396025658688392e-02
1.788545886618353800e-02
-3.359287307394594191e-02
-2.382221273368068451e-02
1.231150597954167869e-01
-1.683459511419873461e-02
2.167228974239136796e-02
7.142639742439643724e-02
4.057143674328317177e-03
3.886643341072608393e-02
8.253726485706914910e-10
-5.912142629084490506e-10
7.348867738425364449e-10
-1.847210361057409836e-03
3.059245004063773296e-02
-1.004792834776859108e-02
6.118562871206360831e-02
1.199830963546683615e-01
1.897090139990207092e-01
1.555344317417410860e-01
1.568928330229231172e-01
1.545001696099542743e-01
1.537621531413869425e-01
1.517331978103128309e-01
7.085794657605176683e-02
1.161306848423090399e-01
-3.621057744744635327e-03
2.247996429435914281e-02
-4.028171724284957539e-02
2.178773944362651441e-02
7.379570118261273570e-02
5.624222200653652970e-02
-4.059781440789955731e-02
-4.132955467328230242e-02
4.851187595672519504e-02
1.303551391343117302e-02
-3.772935212837905550e-03
9.811119390941718324e-03
-1.020609955276525197e-09
5.559832154204835418e-10
7.532295999575949685e-10
1.357876420555008835e-03
9.489204455181332945e-03
2.465550246803708406e-02
-4.059315005221510175e-02
2.659987779004961694e-02
5.249311533318878203e-02
9.710444566127829358e-02
2.145219181943934239e-01
2.414750031475345893e-01
1.821372539117751821e-01
8.094174914780440100e-02
2.217944419365589642e-02
1.294572590857559491e-02
-1.261070724906507116e-02
-6.338997078330535495e-02
-8.116045478691111259e-02
1.398964721771015114e-02
-6.334205644016759063e-02
-3.249906554110062323e-02
5.243564719017810433e-02
6.995461378423835364e-02
2.991550917518655608e-03
5.279955117691423339e-02
9.546656911865764039e-03
1.951489632923745739e-04
6.677839558362934371e-10
6.431198424026118074e-10
3.845139104277359677e-10
4.686069243198574298e-03
-7.511646858054215649e-03
2.901803900829712235e-02
4.440561411587835156e-02
-1.252173854768359263e-03
4.686406285556586615e-02
7.271227162005940159e-02
1.937809478696510823e-01
9.281568445831671343e-02
8.963296229325186382e-02
4.521688732143597754e-03
-4.023886469518912073e-02
-5.857779466745333813e-02
-6.852059871613119801e-02
-1.258140832952430732e-01
-2.464417684328388050e-02
9.924600095834077221e-03
3.732244300021712868e-02
7.700777707638811753e-02
7.776549869914375565e-03
7.087398463539368310e-02
5.730385089378702522e-03
8.006276833749912964e-04
-4.291442951181069151e-03
1.020223690673633677e-09
-6.843702404065238257e-10
-1.119849224482177881e-10
-7.309648591109401411e-10
3.107130368380785993e-03
7.843032829014462762e-03
4.795371725206107327e-02
-1.575884724573354406e-02
-2.372157018699404263e-02
-6.996452823766971529e-02
-1.480101969368838866e-01
9.493870304583465480e-02
3.569869102509946879e-02
-8.902064417423785625e-02
-1.499406841729169770e-01
1.533296951037666639e-02
3.356914447310507116e-02
-2.083537440827603338e-01
3.123685694415145181e-02
-1.076337030143970259e-02
-6.173669730706233920e-03
6.661407004340606786e-02
-5.288945986608980035e-03
6.784163475410043970e-03
-2.451362245535985626e-02
-3.228242261541403035e-02
-1.188176420332318420e-02
-1.974336864858022150e-03
-6.593924988172542559e-10
1.016844584763948947e-09
-6.497277644394353740e-10
5.053743254090752097e-11
-8.939390475866622267e-10
-7.333479666809953126e-04
1.429831069197383571e-02
-1.930723924783235568e-02
-9.435356224894510258e-02
-2.857921177363705323e-01
-4.451584143103472502e-01
-5.680982391165679823e-01
-6.675620359590335173e-01
-6.865501934640118042e-01
-6.895832947418947256e-01
-6.337140339684660395e-01
-5.772139783394444335e-01
-5.841928139630797601e-01
-4.064441957126069260e-01
-2.958510661662586139e-01
-1.795168125640939916e-01
2.189303890594481924e-02
-6.324589405355322477e-03
-3.523825300639270297e-02
-5.577958604137499971e-02
-8.977486819526044048e-03
-4.766570681688757772e-04
-1.141140019774241612e-03
1.428057280800915674e-10
2.953800623209261887e-10
3.432868162557311405e-10
4.652787361985225347e-10
5.052432985703332087e-10
8.746142437217453201e-10
-2.033721395012790014e-05
-2.714042378869919656e-03
-1.700314038948575954e-02
-1.748889563260173918e-02
3.691417571603742426e-03
-1.974621189625297771e-02
-7.196094309472260420e-02
-9.896773597443835058e-02
-8.834923250842230402e-02
-8.790597951739079208e-02
-1.097188484989648077e-01
-1.197316173848060744e-01
-1.284231188708438720e-01
-1.135516680492335007e-01
-1.049585813823195463e-01
-6.676860902538217513e-02
-1.837234114446117256e-02
-6.963815406636934130e-03
-9.730171047399665055e-03
-1.992200917930134207e-03
4.468455854286864988e-10
-4.948225153680581379e-10
7.211550275254947885e-10
-8.510718613594951720e-10
3.556396740913193745e-10
9.846205826265872926e-10
-4.003029361115820037e-10
3.916172029835025628e-10
-7.468697575194989547e-10
5.859804395310542218e-10
-7.880979642677059275e-10
5.474692266261029963e-12
9.236767651352342041e-11
8.572472847540811839e-10
7.835944561967405585e-11
6.692715118057629219e-11
1.451962204084251973e-02
3.179296352276449883e-02
1.686107900449989649e-10
7.627977749934331232e-10
-7.419835436876999083e-10
3.830186346595602800e-10
-7.975558162442029471e-10
2.302662529052022571e-10
-9.878120810005418338e-10
-9.414870807318700111e-10
-5.186194732680830854e-11
7.106740543008667991e-10
6.429716645685574579e-10
-4.808386400320831377e-10
-4.328926179014438499e-10
8.622601190939242399e-10
-2.351004432743834783e-11
7.078703974214178619e-10
-6.779589992417960095e-10
-8.796866952569093220e-10
3.119010078496883007e-04
6.154009624066931810e-04
-2.487809226508531577e-02
-3.233519039206673301e-02
-1.491862892540008097e-02
-1.814814972575348739e-02
1.466225663444736642e-02
5.904883942313020675e-03
3.648773187396525675e-02
8.136806261684065289e-02
2.053863608564540644e-02
1.803882946341054533e-02
-3.854668653948465154e-03
1.914322397432073608e-02
5.988418838661341975e-02
6.440667387563051016e-02
1.139096693112446983e-02
5.296792157781259058e-02
1.416906093782268651e-02
-2.554661674831915346e-03
-8.645146517741863805e-10
-4.998008372856155981e-10
-4.662951346604852533e-12
9.623807320753790807e-10
6.277286620789663609e-10
9.208714965332977966e-11
3.718284642491534887e-04
-1.212144289091537886e-03
-2.315061022819994794e-03
-9.922299140465074344e-03
-1.310869059195077062e-02
6.476543694474768895e-03
-6.758701270291221641e-02
-1.508598769787240605e-02
7.963743496588519821e-02
-2.060100135159394566e-02
4.090189528751341647e-02
5.910399880896283903e-02
3.786222139713406321e-02
7.660406564597220525e-02
7.448398345947984667e-02
1.968087032933288003e-02
2.764765264059335353e-03
5.766515323271824423e-02
1.971755899680148125e-02
6.427746110372077604e-02
5.490484806806326251e-02
-2.338080614816403710e-02
-1.328733204985535141e-02
1.728723096625855472e-03
-1.083315617031749864e-10
-1.750783742775781707e-10
6.297038233931217195e-10
5.884630233634646053e-10
8.191817393845595352e-04
-9.403907002008193503e-03
-3.068090092595239949e-03
-4.098683534565222483e-03
1.465705309709217259e-02
-7.272850403908591443e-02
-8.008892453856268634e-02
-7.441582768280943783e-02
-8.240399820450222679e-02
-7.549664442814325860e-02
3.379117060659217507e-04
-4.217028795925991508e-04
-1.766759935041562271e-02
3.586824102419736843e-02
-2.804143952088179736e-02
4.591630981826721677e-03
-1.639340635791821169e-02
-6.422402146440955861e-02
-2.106681979728664694e-02
-5.517600392820249527e-02
-1.063513975118416874e-02
-5.752004399505974974e-03
8.676636640925206728e-03
2.100806807477276651e-03
-3.810955580369134680e-03
9.863555655304331727e-10
3.286023191141474436e-10
9.065801299510851360e-10
-7.744746483186593219e-04
6.958478031662101689e-04
-3.872045592456078728e-03
-4.017296021483014214e-03
1.300893639879917296e-02
-1.866925389685697087e-02
1.133918954292111514e-03
-4.889017519574907072e-02
-6.073117459863598688e-02
-5.527054129664624171e-02
-4.484295593812844677e-02
3.240440134185503668e-02
5.355426650801040599e-03
-4.840576057451916048e-02
-3.492350609216623731e-03
-7.033629107352119825e-02
-7.259395710719419859e-02
1.795529441762669723e-02
-4.063354698214662747e-02
2.087036083818076190e-02
-1.949374636345930709e-02
1.668676285649888305e-02
-1.052283427713348804e-02
-3.218456887700067715e-02
-4.595790222412793682e-03
-2.141254418388542548e-03
1.838433765738745337e-10
4.119693499212477267e-10
1.263119591244880706e-02
1.269013751230637504e-02
-8.984337630422816606e-03
1.332629981501772670e-02
-2.919115701413909497e-03
-5.421325275160347040e-02
-2.450790020838123501e-02
-1.901216089068242382e-02
-7.287469596029838570e-02
-7.193277028089090086e-02
-1.529356799858418332e-02
2.793624385224457302e-02
-4.535752139681447498e-02
-1.255230733340109359e-02
-3.455123483810719487e-02
-7.167687618398223270e-02
-1.123498865872468860e-01
-6.538429597774375601e-02
-2.800323239121697838e-02
3.281278336309622484e-02
3.368807683182035995e-02
1.371646814257388965e-03
6.089497726684576367e-02
-3.797286845626821061e-02
3.011174533715929233e-03
-7.846141853038054309e-03
-3.575056098746384265e-10
-2.084402364404154247e-10
-1.682498651430438391e-02
9.678679246091278360e-03
2.673495050992591437e-02
1.575226421052445050e-02
1.502589550173893083e-02
1.496509216981166054e-02
-3.354126658500560659e-02
-2.993118969766449255e-02
-7.676374504317209913e-02
2.975648388074544730e-03
-7.483651561453295853e-02
-3.821218400846410068e-02
-3.552950835549564812e-02
-5.952031552534783193e-02
-8.701193012178064234e-02
-9.035627406711385645e-02
2.691731036809502306e-02
1.949676127609626525e-02
7.177414258732265663e-03
-2.015329033649601587e-02
7.942097552467883292e-02
-2.381727009822798106e-03
6.447586514654671253e-02
3.614066512446850038e-02
-6.274531598139712618e-02
-1.395462066821898973e-02
1.945761536722813499e-04
3.939550344014084576e-03
-6.146454881816400262e-03
-5.126466055035511921e-02
-2.911345823760297727e-02
-1.989490122107251402e-02
-3.456945764763563744e-02
-5.136799418858221250e-02
-1.047869597339014386e-01
2.904751993357415976e-02
-5.151000437167227441e-02
5.063522327655720079e-02
1.862459611725199304e-02
3.350404543492022102e-02
4.085064324256657692e-02
-1.293095411560258451e-02
-8.590637152083080430e-03
1.429734823162391978e-03
-6.764074982600629116e-02
-6.208790668639211502e-02
-1.217907677167303629e-03
-2.130094775228061690e-02
4.604412825720514274e-02
4.068326787090096458e-02
-2.582036084199926945e-02
-5.475232436138622195e-04
-5.648836265561553438e-02
-2.433819024089719715e-02
7.907260336081575487e-04
-6.567067322936635983e-03
3.105024542878103214e-02
4.936971534183771503e-04
1.234827617229277211e-02
-2.867032322773477694e-04
1.643362457372417665e-02
-3.702029008267507942e-02
-1.290462415669030999e-02
-2.816992069322543646e-02
2.440880153512813878e-04
4.564998448041862611e-02
8.298363008131218188e-02
1.005171599590428538e-01
4.794804614846270852e-02
3.666972259920925348e-02
-4.192862642191320238e-02
-1.009229453088252570e-01
-1.176852766845328940e-01
-8.551449684481629565e-02
-9.752989777750384337e-02
-4.887281318291422649e-02
-2.400552013269878493e-02
-3.013161123486533463e-02
3.373669496256902905e-02
-2.116049274188176125e-03
-1.141699890726389360e-02
-1.598691972689371063e-02
-1.994178772233128668e-03
-3.600306988417515536e-02
2.351599565401424688e-02
3.528091002336629524e-05
-2.240831421317741878e-02
-1.979579251121599964e-02
-2.199754723280741842e-02
2.829437850505964885e-02
3.849395687394403798e-03
-2.997994339745348527e-02
-1.385043885702873928e-02
-2.450569802053044130e-02
1.356680177895426380e-02
6.280750601707803249e-02
2.264517250371003709e-02
3.629979150542145955e-02
-5.066725185456531083e-02
-1.178138342807012184e-01
-1.276130899463945589e-01
-1.504136028532157832e-01
-5.108561488990554650e-02
-3.179094821324641995e-02
-1.113786397950003448e-02
-2.765507997305406349e-02
4.576718207588673787e-02
-5.000502026320085419e-03
1.618188776815245814e-03
2.027818358090340001e-02
-4.340660197316117963e-03
-4.596002997310104365e-02
-4.116021464429397807e-03
4.667011106307766832e-02
1.556888509458094136e-02
2.460217097101786640e-02
5.259122219746695942e-02
3.272029149128312386e-02
4.924501160799968358e-02
2.837992331488292230e-03
-3.814709284257822297e-02
-3.117647259164465015e-02
2.627475279320502788e-02
-5.124588093412828921e-03
-1.560853526043383226e-02
1.018267803293366851e-02
1.813557497598272325e-02
-3.743550854006513079e-02
-1.054529166517832461e-01
-4.740116346222541382e-02
-1.009504069285261235e-01
-3.800792721951373049e-02
-4.007825808290879643e-02
1.622802732495560660e-02
-2.217198937621435439e-02
4.872743083499894712e-02
4.429747149747148560e-02
2.201360058243044537e-02
-6.834281282484040709e-03
-4.767497232212506569e-02
-4.813430752443362270e-02
2.192221782547370407e-02
2.067100198746364952e-03
2.342419221003452789e-02
9.493906241284992553e-02
1.613981807930862655e-01
6.857934604607678064e-02
1.215426585283076698e-02
-2.363709097597081060e-02
-6.922286570371688486e-02
-3.238772978057785374e-03
-1.914311977596428946e-02
1.524156737489986424e-01
1.036456820033921783e-01
8.989732200251612793e-02
-3.008788456326596823e-03
-1.101390761027425114e-02
2.334507002626463185e-02
3.798585924006999542e-02
5.708499023391865740e-02
-4.986944049559673825e-02
5.305216598560214165e-03
-1.758668457236164245e-02
7.323041291890269519e-03
8.277312608336773528e-03
1.145217766029497063e-02
-6.452746186467143465e-03
-5.444996356899657608e-02
4.682321226259895941e-03
2.327532617014013705e-02
3.857533629716226875e-02
8.971371586664800279e-02
7.915851780078829447e-02
9.279486870763160866e-02
7.196253683084516406e-02
1.829400289087507528e-02
-7.813145251692163451e-02
1.023630213263810804e-02
8.643205416550162057e-02
3.283475022177244074e-01
2.492856259332998370e-01
1.905259584050375266e-01
1.567759913027748087e-01
9.787619859591777105e-02
4.785139619814055001e-02
1.136482538227474998e-01
1.302852097994504355e-01
9.420486851166925968e-02
4.962982447928625945e-02
4.986712363317408192e-02
-2.683226638381007445e-02
-3.681500671292937260e-02
1.339684143823475755e-03
1.222446152468138888e-03
-7.560718234337709592e-10
-1.467254807322314163e-02
-1.372940615218157939e-02
-5.784894328955860442e-03
3.247120344411776483e-03
5.094174827603987869e-03
1.221396282181412413e-01
1.160514006619335486e-01
1.214768641113682240e-01
6.128930079809059850e-02
2.854427932979952329e-02
1.237316559066899552e-01
2.122530817564697581e-01
2.473404047155650376e-01
2.595944845161040071e-01
2.371562602246015117e-01
1.354862800031276793e-01
8.836449168611217042e-02
1.285115233307938531e-01
1.141532393359119130e-01
7.497190060445381443e-02
2.200516058789213705e-02
4.171118346143994765e-02
-2.848962053870955462e-04
-2.793428726142794041e-02
-2.713336489125524678e-02
-7.457642930236484634e-03
-1.708858261571037890e-04
1.171734575630854844e-03
-1.173170733319332847e-03
1.118423398507856388e-02
-2.615339627596718203e-02
1.726909503167891810e-02
1.362426951646389106e-01
1.050568131394797322e-01
4.559481491384632240e-02
8.144501169367381055e-02
3.785068301886124198e-02
2.801102276270500333e-02
1.912728891515659002e-01
1.929577345558497192e-01
2.074170774983347953e-01
2.158127214478078038e-01
-3.382654583490864869e-02
7.760606896375678299e-03
3.249442250692474721e-02
1.405409973896386000e-01
9.946376711244028779e-02
6.237572825641392316e-02
4.979262985806969660e-02
6.820537093689209816e-04
4.064625362812447282e-03
-1.545914650815019553e-02
3.287421286324387903e-02
-5.343692663589265715e-03
3.409537456705079836e-10
5.001034336382659262e-04
-4.318220822199210244e-10
-1.212022677113392538e-02
9.325495526901482132e-03
2.455261122063422119e-02
-1.960052974332532946e-03
-7.422964491549972378e-03
1.006965342390284956e-01
1.713306305963761128e-02
-6.092010215514686092e-03
8.234509037364153017e-02
8.361771767071597694e-02
3.220776127692391577e-02
1.583909841440313574e-03
-1.586111231458740833e-01
-2.469021097029913681e-01
-1.434875802964916125e-01
-3.997297226599660393e-03
9.856709072364840118e-02
1.333711348431807775e-01
1.307624697548595005e-01
6.810112706537865823e-02
-2.149325189556479995e-03
-3.378685914533938878e-02
-8.317007143532967328e-02
6.144573623040451571e-02
-9.335274582758941106e-03
-7.500779181051473831e-10
6.653559396807837752e-04
-1.207773653325463224e-10
-9.727844434194278869e-03
5.550139788035403365e-02
1.691027212034460978e-02
-3.904205811707466695e-02
4.329697546128220831e-02
-3.437686040257191544e-02
-3.126069854568994805e-02
-1.184039355631519852e-01
-4.408551405266184636e-02
-1.519326819773607860e-02
-1.417496807876724718e-01
-1.711544709148113130e-01
-3.112356861698834520e-01
-3.966894166277359357e-01
-1.738724525498660523e-01
8.773857521268160764e-02
2.012628999904041427e-01
2.105865165462677269e-01
9.857191643071729070e-02
-7.084885531222334665e-02
-1.107384912787033465e-01
-8.437919419172829061e-02
1.939258534047117247e-02
-1.019634641942101898e-02
-6.037909456665572702e-03
-8.532202015198729672e-10
-3.609784950960479160e-10
-1.259930849712437165e-03
-7.093992961678781883e-04
3.221037146896688986e-04
-1.113984374863845155e-02
9.203942324283921617e-02
-2.144954977636958336e-04
-1.461822442734342191e-02
-1.060426098399619016e-01
-1.541455250909319341e-01
-1.899465941347982245e-01
-1.443998117026553119e-01
-2.039046149695935839e-01
-3.317003437666048438e-01
-6.114436702887298125e-01
-3.279836364892442790e-01
-5.779075305342512570e-02
1.383801273660861808e-01
1.955186810311500267e-01
1.872099555572097063e-01
8.660988400446935354e-02
-2.794140733033315550e-03
-9.009511795886565588e-02
-2.577466518047564006e-02
-1.663194164409668996e-02
-2.565359940603111760e-02
1.380747195724014303e-02
-8.172365181527925439e-10
2.691169309815019325e-03
-8.268306404567231068e-04
8.413141463838689636e-05
-4.556492996353513070e-02
5.990179880458764566e-02
2.876369670423412073e-02
4.474376173929288381e-02
3.604382404093076867e-03
-7.790321340438598197e-02
-1.613525017870062195e-01
-1.803916635847723493e-01
-2.128181163404552212e-01
-2.342473177328738276e-01
-2.841208978114833084e-01
-2.762131465558999577e-01
-1.018669342242249365e-01
1.494921260421118170e-01
2.461128571211457505e-01
2.007690451873767046e-01
1.129712394699934203e-01
-5.357072987412644927e-02
-6.936552399840299754e-02
-9.662799369790309179e-02
-1.650348351782461240e-02
1.493854022461775684e-02
-4.721464234985545821e-02
1.075298949219591176e-02
3.480949539948209061e-10
-1.394021353548850424e-10
5.317471745452106123e-03
5.560585483012491816e-03
-3.249611447118513907e-02
4.944526188183799575e-02
7.737593173752740916e-02
1.302165881446235365e-02
-5.398958932519643678e-02
-1.053113431892293145e-01
-1.664383290892303413e-01
-2.595805496743900931e-01
-1.663349968610823015e-01
-6.802294555926804986e-02
-3.967581790822367199e-02
-4.430287208617789824e-02
6.556837403440909928e-02
1.511856127041968367e-01
1.519271973093068995e-01
1.280240715123478201e-01
1.917656918364204696e-02
-1.099521477910418189e-02
-5.093710356670638761e-02
-6.897567056363036742e-02
-3.031108569903526520e-02
3.517019974746660865e-02
-4.812642442472670617e-02
5.480801002850385281e-03
8.201437609845923305e-11
-7.449189185828626925e-10
2.833557970720931157e-03
8.805937839248895865e-03
-2.818510206986731687e-02
5.305500825206833221e-02
1.090125868310465318e-01
1.060415188155604121e-01
5.659742951071847911e-02
-6.421549099913825831e-02
-1.466198570678491075e-01
-1.755142292146961713e-01
-1.443057497254355281e-01
1.129477440783952132e-02
7.273276524545894961e-03
6.890980593798309850e-02
2.921947326438259496e-02
1.337710038025289871e-01
8.653073558701086798e-02
-4.532822401583268962e-03
-7.488260990862823097e-02
-1.060555545919791703e-01
-7.479679285402887623e-02
-6.627293382191044857e-02
2.356556425205182798e-02
-7.292890897358045299e-03
-4.293096631959994469e-02
4.315929378910195353e-03
1.766825170333911335e-03
6.957057097712959208e-10
-1.046407483080309308e-11
6.603148419063994967e-03
-7.999291229449697477e-03
7.090259223770731256e-02
4.482178487825005941e-03
1.179919288500437674e-01
3.934841855514161629e-02
-8.980654437496800313e-03
-7.115813394948393433e-02
-7.346100418923851016e-02
-3.236901943223037537e-02
-3.857397640497321756e-02
5.792985996976260377e-02
-4.262076572105467226e-02
5.755241707691097913e-02
1.434613954256323647e-02
2.588495290073182173e-02
-4.991165530883801688e-02
-6.990566296776271060e-02
-9.255867271462556167e-02
4.141155328200307739e-03
-5.564238397034087028e-03
7.207246140528821010e-02
-1.100532156358668447e-02
-2.937669399472133194e-02
3.102683241072113404e-03
-1.221887850204811050e-10
-6.184365149069569898e-11
3.271070769921565260e-11
9.079291466583534580e-04
1.497381192664018999e-02
-5.908544680413365356e-03
2.774199006965230932e-02
1.192942374034296482e-01
7.581018481241377782e-02
5.197093457214683326e-02
1.657166055048785169e-02
2.884353871251798401e-02
4.408183392118863314e-02
1.900892485924562253e-02
1.892067241495557807e-03
-4.660975389591073825e-02
2.232906567947188017e-02
-5.117154074526215901e-02
-5.070888320949176048e-02
-1.330239588959109542e-01
-1.111567518839669810e-01
-3.185021784994892385e-02
-4.276842877597140241e-02
-3.511656820914891425e-02
-1.047646241321193751e-02
-3.169967991737662749e-02
-6.020775223894670944e-03
-4.667958300549775977e-04
-4.184009122838804058e-10
-3.703610971167093242e-11
-6.901576422375234075e-10
3.826098475139364050e-03
1.857861914371399708e-03
-5.369282369778253551e-03
-2.780434019187649416e-02
2.638640706162894908e-02
1.529485454098495831e-02
2.592619645906066479e-03
1.042611884418723073e-01
6.615592522756462424e-02
1.338009155210329315e-01
9.204206690758509612e-02
-5.462007120982108332e-02
-5.763427439098615240e-02
-7.842608665088543485e-02
-8.776068252212121390e-02
-1.556725125774808538e-01
-5.734265239797527863e-02
-4.243531630710009606e-02
-6.542340248290451354e-02
3.791277045247792160e-02
-6.712392362480661123e-02
-4.656207707666964839e-03
-1.096148525835530067e-02
7.351439770666186660e-03
-1.092229429841235991e-04
-2.810612761032825434e-10
-3.243818154350257511e-10
-4.616663604616203799e-10
7.888046231722545135e-04
-1.079619125909900799e-02
-4.315797198135081642e-02
-7.636652995365691976e-02
1.973319247706768059e-02
1.127279876467714298e-01
9.209821214759711383e-02
1.211895220108750587e-01
1.525090404110394648e-01
7.033196819946314904e-02
3.561098140606458462e-02
1.519782638251367633e-02
-5.506779359788838146e-02
-1.510203812053932393e-01
-8.777148946881868641e-02
-2.718096471186219262e-02
-8.812567057748950383e-02
-2.957696212921532772e-02
3.924353322957328111e-02
-7.353648326683674685e-02
1.013345481575848861e-02
-1.309357306122663385e-02
-1.585177619447420208e-02
4.816471690773464483e-04
7.934321704558673710e-10
-5.721286038517816562e-10
5.692645060297006540e-10
-2.232195501275746873e-10
-2.978204460279561781e-04
-7.455837779978808852e-03
1.393600887759412904e-02
-4.318899252405421392e-03
3.477664305225550666e-03
3.732048586704238974e-02
1.335387077634522524e-01
1.409957668192595992e-01
8.868467748956752883e-02
3.691302769035266496e-02
1.022440576926725159e-01
-1.906530247400132702e-02
-1.050717357828519043e-02
-9.649335067362034557e-02
-8.021131366997945322e-02
-2.734560038230037654e-02
1.913011928186909155e-02
-3.808621455329731786e-02
3.764292727363846569e-02
-9.534638608097706358e-02
2.758740118397551636e-02
8.247718746633492248e-03
-2.125815181204555350e-03
4.874185379170209724e-04
4.273718266779332942e-10
2.013224040990292883e-10
9.389681498911061647e-11
-1.155474886010930631e-10
-4.633533853177909431e-10
9.765918874735503383e-04
2.896874736019046381e-02
3.953393476064411688e-02
4.103537648044482816e-02
-8.150739157061094586e-02
2.924843271027319398e-03
5.566805892679291268e-02
1.159581955970342970e-01
8.433394061493734717e-02
1.000982021277881939e-01
5.539684556197239929e-02
3.943883039137707075e-02
-3.947811025827859671e-02
-4.712376700135779105e-03
5.926169651043065173e-03
-6.696608742759535549e-02
3.469456157402587421e-02
-9.413354258986481211e-04
-1.298689348917870523e-01
-2.267301969158990599e-02
-1.651974123556858298e-02
6.238118626265870721e-04
-4.255255706447388757e-04
2.641307715191521064e-11
-2.808439723486323056e-10
6.668626976560983726e-10
1.408793990212133614e-10
-1.013173434557112638e-09
-8.713081299448488768e-10
-1.014871753669941730e-04
9.879936052411388350e-03
3.746399665770038662e-02
1.322532928222104436e-02
3.113729215290877289e-02
2.022730230116880773e-02
4.587000609617480212e-02
4.218042635936691126e-02
3.420241981707326795e-02
1.989062356249822472e-02
6.426687106222553694e-03
-5.887749198500853709e-02
-3.287602774435833403e-02
-4.217331970085162057e-02
-5.912811382074945055e-02
9.815604629641603088e-03
-6.956666452487063682e-03
-1.707664498197893109e-04
-3.381519865840072747e-02
-7.338196830825207198e-03
6.510961510770708349e-11
5.164263410696182296e-10
-4.047346725148153609e-10
-2.176206409858392323e-10
